~o
<STREAMINFO> 1 25
<VECSIZE> 25<NULLD><MFCC_D_N_Z_0><DIAGC>
~s "silst"
<MEAN> 25
 -1.597934e+01 3.448285e+00 -4.230033e-01 4.999744e+00 1.915773e+00 5.273849e+00 4.151283e+00 4.850499e+00 5.757914e+00 1.651869e+00 4.924118e+00 4.055638e+00 -9.347671e-03 -1.635309e-05 2.531614e-02 2.765866e-02 3.179399e-02 5.114515e-03 -6.206902e-03 -8.831607e-02 -9.852462e-02 -1.639896e-02 1.398974e-02 3.592309e-03 -3.215642e-03
<VARIANCE> 25
 7.032333e+00 3.690479e+00 5.824899e+00 1.038125e+01 1.008420e+01 9.924961e+00 1.152562e+01 1.585991e+01 1.286010e+01 1.014565e+01 8.736537e+00 7.781250e+00 4.253944e-02 1.168477e-01 2.359272e-01 3.183669e-01 4.982639e-01 4.472941e-01 7.509426e-01 1.209001e+00 1.308905e+00 1.081022e+00 7.828302e-01 8.520176e-01 4.115048e-02
<GCONST> 5.947094e+01
~h "b"
<BEGINHMM>
<NUMSTATES> 5
<STATE> 2
<MEAN> 25
 2.047207e+01 -3.868251e+00 1.640264e-01 -1.421682e+00 -2.927509e+00 3.662671e+00 -7.863752e+00 -1.900980e+01 -2.671931e+00 6.409478e+00 -5.113618e+00 -2.491846e+00 4.187401e-01 -4.195249e-01 -7.728457e-02 -1.058951e+00 -7.658911e-01 3.392968e-01 3.557163e-01 -5.318369e-01 -2.578334e-01 6.576900e-01 9.737115e-04 -2.148278e-01 6.502271e-01
<VARIANCE> 25
 6.638656e+00 4.584410e+01 4.823585e+01 8.639906e+01 9.256848e+01 6.131715e+01 1.017101e+02 5.793979e+01 5.582352e+01 3.360818e+01 5.620619e+01 2.684730e+01 4.158906e-01 5.782023e+00 4.656741e+00 7.598202e+00 8.709428e+00 7.699019e+00 6.694971e+00 7.725066e+00 6.777035e+00 2.253035e+00 4.942528e+00 1.833660e+00 2.302085e+00
<GCONST> 1.105406e+02
<STATE> 3
<MEAN> 25
 2.203754e+01 6.741244e+00 -8.025752e+00 -1.142022e+01 4.143788e-01 7.051373e+00 -4.022184e+00 -1.654577e+01 -7.869987e+00 6.220886e+00 2.327096e+00 -9.528536e-01 -5.207797e-01 2.613640e+00 -1.081354e+00 -5.454445e-01 1.465646e+00 -7.719214e-02 3.340280e-01 2.314052e+00 -7.878241e-01 -1.752485e+00 1.536371e+00 1.060667e+00 -1.807912e+00
<VARIANCE> 25
 5.110813e+00 2.812061e+01 1.771067e+01 1.220611e+02 4.421267e+01 2.981560e+01 5.925648e+01 1.103521e+02 5.626537e+01 2.518084e+01 5.274743e+01 1.039130e+01 1.155003e+00 1.527331e+00 2.727259e+00 6.315222e+00 5.151909e+00 3.430165e+00 5.332806e+00 4.253862e+00 2.595142e+00 2.415440e+00 3.686017e+00 1.674894e+00 7.391307e-01
<GCONST> 1.008868e+02
<STATE> 4
<MEAN> 25
 1.914041e+01 1.418948e+01 -6.898705e+00 -1.391670e+01 -4.752938e+00 3.322799e+00 5.697026e-01 -5.363982e+00 -1.026571e+01 -4.456112e+00 1.612645e+00 7.336242e-01 -1.864344e+00 6.993590e-01 1.396201e+00 1.653970e+00 -9.951538e-01 -3.599473e-01 9.807575e-01 1.048369e+00 1.202529e+00 -9.898194e-01 -6.146826e-01 -1.564183e-01 -1.801308e+00
<VARIANCE> 25
 1.507724e+01 9.815628e+00 1.685288e+01 7.362627e+01 6.462725e+01 5.547211e+01 2.300010e+01 4.234110e+01 2.291851e+01 2.943852e+01 2.846029e+01 2.099662e+01 2.446254e+00 1.437983e+00 1.980490e+00 2.534663e+00 3.216848e+00 3.908719e+00 2.073455e+00 4.479993e+00 1.701340e+00 1.262218e+00 3.174207e+00 1.544917e+00 7.511149e-01
<GCONST> 9.574030e+01
<TRANSP> 5
 0.000000e+00 1.000000e+00 0.000000e+00 0.000000e+00 0.000000e+00
 0.000000e+00 9.015834e-01 9.841653e-02 0.000000e+00 0.000000e+00
 0.000000e+00 0.000000e+00 7.845915e-01 2.154085e-01 0.000000e+00
 0.000000e+00 0.000000e+00 0.000000e+00 7.612012e-01 2.387988e-01
 0.000000e+00 0.000000e+00 0.000000e+00 0.000000e+00 0.000000e+00
<ENDHMM>
~h "d"
<BEGINHMM>
<NUMSTATES> 5
<STATE> 2
<MEAN> 25
 -1.682485e+01 1.392112e+00 -1.976914e-01 7.491643e+00 1.290730e+00 3.803262e+00 4.728021e+00 3.681505e+00 4.850149e+00 1.745813e+00 5.163020e+00 3.707853e+00 -9.694926e-03 8.137738e-03 -3.742415e-03 1.711071e-02 4.087908e-02 -7.166240e-04 -5.805279e-02 -4.535246e-03 9.023486e-02 6.100117e-02 -5.068446e-04 -2.688870e-02 -1.253212e-02
<VARIANCE> 25
 4.982316e+00 4.229772e+00 3.496898e+00 6.392947e+00 6.501683e+00 7.279799e+00 9.367102e+00 1.356516e+01 1.066407e+01 9.275790e+00 8.763641e+00 7.873542e+00 4.253944e-02 1.471807e-01 2.302430e-01 3.734872e-01 4.544244e-01 4.847223e-01 7.323699e-01 1.219595e+00 1.216179e+00 1.045970e+00 7.944310e-01 8.741394e-01 4.115048e-02
<GCONST> 5.716506e+01
<STATE> 3
<MEAN> 25
 -1.303864e+01 5.226075e+00 -3.345395e-02 5.605708e-01 2.399044e+00 2.528080e+00 -7.064732e-01 3.354533e+00 1.080363e+00 -1.686833e+00 9.824511e-01 2.339919e+00 -9.279510e-03 1.427728e-02 1.761999e-02 1.470240e-02 -1.935290e-02 1.081993e-02 3.026381e-02 -4.866399e-02 -4.231898e-02 -8.353529e-03 1.504790e-02 -7.016508e-03 -1.925290e-02
<VARIANCE> 25
 4.641912e+00 4.906174e+00 7.631583e+00 1.476353e+01 9.035276e+00 1.091942e+01 1.222404e+01 1.163117e+01 1.214648e+01 1.205806e+01 1.127136e+01 1.188256e+01 1.080495e-01 2.696391e-01 4.223182e-01 7.659109e-01 7.668849e-01 8.732206e-01 1.132455e+00 8.549511e-01 1.216921e+00 1.065431e+00 1.248762e+00 1.236694e+00 4.115048e-02
<GCONST> 6.563583e+01
<STATE> 4
<MEAN> 25
 -1.075870e+01 4.130703e+00 1.279288e+00 3.210737e+00 1.112141e+00 1.840131e+00 5.722033e-01 1.241877e+00 1.300204e+00 -1.441329e+00 -1.092234e+00 1.141292e-01 1.428178e-01 6.202298e-02 1.018562e-01 4.106127e-02 9.253842e-02 3.287918e-02 9.744620e-02 -1.373253e-01 -2.654221e-01 1.075033e-01 -9.198457e-03 -1.656682e-01 1.513172e-01
<VARIANCE> 25
 1.535680e+01 6.356560e+00 1.404496e+01 1.596016e+01 1.065941e+01 1.007332e+01 1.942017e+01 1.811649e+01 2.097488e+01 1.334885e+01 2.387466e+01 1.888687e+01 1.498622e+00 7.353157e-01 8.293896e-01 1.325246e+00 1.481806e+00 1.248475e+00 1.243122e+00 2.143110e+00 2.827900e+00 1.379620e+00 1.704487e+00 1.862205e+00 1.471102e+00
<GCONST> 8.291493e+01
<TRANSP> 5
 0.000000e+00 1.000000e+00 0.000000e+00 0.000000e+00 0.000000e+00
 0.000000e+00 9.209407e-01 7.905933e-02 0.000000e+00 0.000000e+00
 0.000000e+00 0.000000e+00 8.842590e-01 1.157410e-01 0.000000e+00
 0.000000e+00 0.000000e+00 0.000000e+00 6.178868e-01 3.821132e-01
 0.000000e+00 0.000000e+00 0.000000e+00 0.000000e+00 0.000000e+00
<ENDHMM>
~h "f"
<BEGINHMM>
<NUMSTATES> 5
<STATE> 2
<MEAN> 25
 -1.947688e+01 2.948640e+00 -1.485039e+00 5.405474e+00 1.464514e+00 5.919454e+00 5.958888e+00 4.938864e+00 5.634182e+00 1.023557e+00 5.466558e+00 3.747601e+00 2.170378e-03 9.214918e-04 9.566322e-03 1.838091e-02 4.399454e-02 -2.838748e-02 -7.877176e-02 6.467249e-03 1.101799e-01 7.091439e-02 -5.751885e-03 -8.088080e-03 -3.212004e-03
<VARIANCE> 25
 3.940030e+00 6.084352e+00 6.597661e+00 1.754995e+01 9.323936e+00 9.931069e+00 9.232828e+00 1.666556e+01 1.216805e+01 9.779100e+00 8.165882e+00 8.941875e+00 4.253944e-02 1.470556e-01 2.155969e-01 3.259826e-01 4.441091e-01 4.465686e-01 7.115297e-01 1.054754e+00 1.033856e+00 1.051278e+00 8.288788e-01 1.002299e+00 4.115048e-02
<GCONST> 5.958273e+01
<STATE> 3
<MEAN> 25
 -1.700420e+01 5.691157e+00 -5.050581e-01 2.804544e+00 3.685186e+00 6.384709e+00 2.563038e+00 2.629807e+00 3.531175e+00 4.694124e-01 4.090510e+00 4.183041e+00 -3.212911e-02 2.915763e-02 9.186325e-02 -3.309210e-02 -8.010087e-02 2.876723e-01 2.693558e-01 -4.190782e-01 -7.745292e-01 -2.061272e-01 -1.843314e-02 1.646709e-01 3.951374e-03
<VARIANCE> 25
 1.344444e+01 9.044907e+00 5.745096e+00 1.573051e+01 9.256754e+00 8.530637e+00 8.650679e+00 1.727276e+01 1.418420e+01 7.795680e+00 7.161561e+00 7.533616e+00 5.702519e-02 1.053537e-01 1.733641e-01 2.694500e-01 7.065163e-01 4.674639e-01 9.110273e-01 1.076579e+00 7.359852e-01 7.641168e-01 4.544736e-01 6.214477e-01 4.115048e-02
<GCONST> 5.898514e+01
<STATE> 4
<MEAN> 25
 -1.443941e+01 4.476091e+00 3.519023e-01 -7.382159e-01 2.357328e+00 3.557472e+00 1.518535e+00 3.745693e+00 2.978216e-01 -6.193464e-01 2.568737e+00 3.043666e+00 2.281360e-01 -1.734122e-02 2.708061e-02 -1.207169e-01 -1.518201e-01 -2.110198e-01 -1.373846e-02 1.362363e-02 -1.482990e-01 -1.014973e-01 -1.003261e-01 1.534285e-02 2.216763e-01
<VARIANCE> 25
 8.146671e+00 6.853409e+00 6.189021e+00 1.276081e+01 1.150332e+01 1.668337e+01 1.633539e+01 2.008504e+01 1.647403e+01 9.250134e+00 1.108671e+01 9.340517e+00 8.817967e-01 5.307116e-01 6.704552e-01 9.500343e-01 1.193965e+00 1.427738e+00 1.586832e+00 1.174575e+00 1.584210e+00 1.087050e+00 1.118205e+00 1.070372e+00 2.103244e+00
<GCONST> 7.646773e+01
<TRANSP> 5
 0.000000e+00 1.000000e+00 0.000000e+00 0.000000e+00 0.000000e+00
 0.000000e+00 9.429132e-01 5.708682e-02 0.000000e+00 0.000000e+00
 0.000000e+00 0.000000e+00 6.217108e-01 3.782892e-01 0.000000e+00
 0.000000e+00 0.000000e+00 0.000000e+00 8.529235e-01 1.470764e-01
 0.000000e+00 0.000000e+00 0.000000e+00 0.000000e+00 0.000000e+00
<ENDHMM>
~h "g"
<BEGINHMM>
<NUMSTATES> 5
<STATE> 2
<MEAN> 25
 1.837042e+01 -1.329053e+01 5.176947e+00 4.074791e+00 -9.303599e+00 -9.347451e+00 -4.734183e+00 -2.182970e+00 -3.086540e+00 1.984806e+00 -7.579288e-01 -1.604268e+00 4.699087e-01 -1.097156e-01 1.014569e+00 -2.971244e-02 -1.927690e+00 -1.891433e-02 1.256716e+00 -4.793773e-01 -1.004296e+00 4.792072e-01 2.796781e-01 -1.665663e-01 4.710653e-01
<VARIANCE> 25
 1.658001e+01 3.252778e+01 7.491037e+01 1.475017e+02 1.173035e+02 8.177099e+01 7.914523e+01 6.428612e+01 7.696885e+01 6.123596e+01 4.299656e+01 3.794909e+01 2.405158e+00 3.657690e+00 1.061423e+01 1.395996e+01 6.759796e+00 4.236880e+00 8.354994e+00 9.161355e+00 5.553047e+00 5.404959e+00 4.509040e+00 4.124792e+00 1.938271e+00
<GCONST> 1.169582e+02
<STATE> 3
<MEAN> 25
 1.770284e+01 -7.807506e+00 7.416080e+00 -4.203865e+00 -9.651241e+00 -4.983813e+00 -8.075687e-01 -1.040366e-02 -9.380281e+00 2.937707e+00 -5.731204e-01 -1.659779e+00 2.334339e-01 3.394211e+00 -2.047710e+00 2.193381e+00 -9.167132e-02 6.516080e-01 2.059847e+00 -1.854684e+00 9.335899e-02 -1.701909e+00 -2.523667e-01 3.687918e-01 -2.500977e+00
<VARIANCE> 25
 1.598540e+01 4.691048e+01 1.084488e+02 1.420868e+02 1.176904e+02 6.126822e+01 1.556967e+02 7.994348e+01 1.147151e+02 5.133797e+01 4.889236e+01 2.988647e+01 5.693713e-01 7.998153e+00 3.534822e+00 1.079167e+01 4.778720e+00 2.031426e+00 4.468582e+00 6.021694e+00 3.314967e+00 6.346818e+00 2.523995e+00 2.518750e+00 3.784606e+00
<GCONST> 1.134397e+02
<STATE> 4
<MEAN> 25
 1.926562e+01 5.236027e-01 -2.606542e+00 -1.905365e+00 -3.265679e+00 -7.367958e-01 -1.878596e+00 -7.950065e+00 -4.290748e+00 5.489131e-01 -2.179979e+00 -2.831789e+00 5.654630e-02 3.325510e+00 -2.025010e+00 7.416262e-01 8.885352e-01 2.480999e-01 2.825619e-01 -1.427569e+00 6.381598e-01 -5.213091e-01 9.015023e-01 -3.757414e-01 -1.903316e+00
<VARIANCE> 25
 1.287765e+01 1.217208e+02 4.796878e+01 9.836263e+01 7.912949e+01 4.524325e+01 1.408568e+02 6.255490e+01 1.098258e+02 1.141960e+02 3.401627e+01 4.347640e+01 9.241627e-01 8.435778e+00 3.407381e+00 1.236820e+01 6.615561e+00 4.246905e+00 7.334422e+00 5.024820e+00 6.910300e+00 3.934546e+00 3.386871e+00 2.204071e+00 3.385412e+00
<GCONST> 1.150359e+02
<TRANSP> 5
 0.000000e+00 1.000000e+00 0.000000e+00 0.000000e+00 0.000000e+00
 0.000000e+00 7.577470e-01 2.422530e-01 0.000000e+00 0.000000e+00
 0.000000e+00 0.000000e+00 5.144979e-01 4.855021e-01 0.000000e+00
 0.000000e+00 0.000000e+00 0.000000e+00 1.401822e-01 8.598177e-01
 0.000000e+00 0.000000e+00 0.000000e+00 0.000000e+00 0.000000e+00
<ENDHMM>
~h "k"
<BEGINHMM>
<NUMSTATES> 5
<STATE> 2
<MEAN> 25
 -5.737836e+00 1.538623e+00 2.575385e+00 -8.120607e+00 1.144253e+01 -5.639649e+00 -6.387629e+00 2.852548e+00 2.901474e+00 -3.244554e-01 1.312341e+00 1.469478e+00 -1.928391e+00 -8.361494e-02 -3.670442e-02 1.172610e-01 3.068980e-01 2.266292e-01 -3.301948e-02 3.216367e-01 1.998393e-01 -5.105807e-01 5.120124e-01 2.735630e-01 -1.124943e+00
<VARIANCE> 25
 1.240347e+02 4.081326e+01 4.457952e+01 6.677556e+01 8.834881e+01 6.225385e+01 6.175114e+01 3.100090e+01 3.609235e+01 2.960100e+01 3.102602e+01 3.091872e+01 1.486146e+01 7.382943e+00 6.282240e+00 5.701452e+00 7.138025e+00 5.412653e+00 6.278075e+00 5.136413e+00 4.615815e+00 4.218523e+00 3.895820e+00 3.075621e+00 5.617348e+00
<GCONST> 1.150670e+02
<STATE> 3
<MEAN> 25
 2.377448e+00 -7.224229e+00 -4.607717e+00 -4.658877e+00 1.307205e+01 -2.575659e+00 -9.239358e+00 5.316034e+00 3.697807e+00 2.267263e+00 1.694200e-01 1.532644e+00 2.848309e+00 -8.858155e-01 -1.794702e+00 -1.921619e+00 1.072029e+00 1.358787e+00 1.990853e-01 -3.050672e-01 -1.413082e+00 1.312290e+00 8.316825e-02 -1.150579e+00 1.849863e+00
<VARIANCE> 25
 6.681476e+01 8.123321e+01 7.521826e+01 8.310688e+01 1.143668e+02 8.409136e+01 1.001941e+02 7.312791e+01 5.278549e+01 7.775716e+01 5.090594e+01 3.800591e+01 8.726027e+00 1.213531e+01 1.026292e+01 1.319502e+01 2.307219e+01 8.108677e+00 1.115161e+01 8.181649e+00 6.616797e+00 6.623657e+00 5.401752e+00 5.677609e+00 1.930009e+01
<GCONST> 1.267243e+02
<STATE> 4
<MEAN> 25
 1.618433e+01 -2.047680e+00 -1.144449e+01 -1.532029e+01 7.371795e+00 5.507972e+00 -5.811765e+00 -1.477874e+00 -4.736910e+00 3.324198e+00 2.885120e+00 -1.621339e+00 4.060947e+00 1.647695e-01 3.754172e-01 -1.559986e+00 -1.563029e+00 2.406535e-01 4.142088e-01 -1.554566e+00 -1.899940e+00 2.722826e-01 6.029463e-01 -5.329325e-01 3.110502e+00
<VARIANCE> 25
 3.665919e+01 4.885801e+01 7.550581e+01 7.553987e+01 5.836706e+01 8.509981e+01 5.920031e+01 4.793860e+01 4.966375e+01 4.950992e+01 4.148146e+01 2.770837e+01 4.906783e+00 4.692266e+00 9.620786e+00 1.136396e+01 8.281396e+00 6.807226e+00 8.559614e+00 6.188958e+00 6.214381e+00 4.252382e+00 4.292276e+00 3.625376e+00 4.831236e+00
<GCONST> 1.168292e+02
<TRANSP> 5
 0.000000e+00 1.000000e+00 0.000000e+00 0.000000e+00 0.000000e+00
 0.000000e+00 8.692006e-01 1.307994e-01 0.000000e+00 0.000000e+00
 0.000000e+00 0.000000e+00 7.519781e-01 2.480219e-01 0.000000e+00
 0.000000e+00 0.000000e+00 0.000000e+00 6.538314e-01 3.461686e-01
 0.000000e+00 0.000000e+00 0.000000e+00 0.000000e+00 0.000000e+00
<ENDHMM>
~h "l"
<BEGINHMM>
<NUMSTATES> 5
<STATE> 2
<MEAN> 25
 1.908590e-01 5.732854e+00 -1.135433e+00 -1.585004e+00 1.152852e-01 1.484109e+00 -1.531827e+00 -2.489975e+00 5.411114e-01 7.097773e-02 1.779653e+00 1.524511e+00 -1.286639e+00 -1.989080e+00 3.026852e-01 5.046454e-01 -3.689405e-01 -9.540169e-01 4.071194e-01 8.755909e-01 1.417588e-01 -2.772588e-01 1.719194e-01 4.069902e-01 2.490914e-01
<VARIANCE> 25
 1.089886e+02 7.386507e+01 5.649417e+01 4.903218e+01 3.957809e+01 5.723039e+01 3.064565e+01 4.214393e+01 2.970537e+01 3.215303e+01 2.808981e+01 2.007408e+01 1.042947e+01 4.549302e+00 5.179371e+00 3.180582e+00 4.656017e+00 6.119480e+00 3.732243e+00 3.918350e+00 2.349271e+00 2.140378e+00 2.045682e+00 1.817090e+00 1.468193e+01
<GCONST> 1.092610e+02
<STATE> 3
<MEAN> 25
 2.231029e+00 1.691058e+00 -1.425469e-02 -4.862124e-01 -2.850884e-01 -6.256571e-01 -7.205073e-01 -2.084746e+00 8.005814e-01 -8.477051e-01 8.665325e-01 1.028450e+00 1.378300e+00 -3.859725e+00 7.948691e-01 1.180256e-01 -6.454574e-01 -2.135457e+00 1.000376e-01 9.219409e-01 -1.787186e-01 -3.695259e-01 -6.209044e-01 6.072772e-02 3.890176e+00
<VARIANCE> 25
 1.257194e+02 1.588120e+02 5.739017e+01 7.093580e+01 5.032146e+01 5.043024e+01 3.396431e+01 4.663957e+01 4.478173e+01 3.159602e+01 2.492251e+01 1.968898e+01 1.309855e+01 8.878259e+00 8.088511e+00 5.793118e+00 9.800348e+00 8.022825e+00 5.316816e+00 4.289238e+00 3.623196e+00 3.594164e+00 3.801712e+00 2.050366e+00 1.928497e+01
<GCONST> 1.164922e+02
<STATE> 4
<MEAN> 25
 6.126705e+00 -6.747551e+00 9.684197e-01 8.503242e-01 1.019091e-01 -6.144156e+00 -1.496313e+00 1.191636e+00 1.799524e+00 -2.101308e+00 -1.244861e+00 1.628484e+00 2.048191e+00 -2.529908e+00 1.185945e+00 2.599708e-01 -9.618198e-01 -1.255867e+00 -3.108627e-01 4.637989e-01 -4.275858e-01 -2.228198e-01 -2.064678e-01 -3.135689e-01 3.239700e+00
<VARIANCE> 25
 9.331431e+01 1.087515e+02 8.672048e+01 8.562041e+01 7.014458e+01 9.201752e+01 6.154854e+01 5.491879e+01 5.595205e+01 3.339191e+01 3.040137e+01 3.372879e+01 1.061195e+01 1.164200e+01 6.981825e+00 5.886474e+00 8.990137e+00 6.210079e+00 6.986605e+00 4.608888e+00 6.405334e+00 4.577054e+00 5.028653e+00 3.309075e+00 1.183954e+01
<GCONST> 1.201367e+02
<TRANSP> 5
 0.000000e+00 1.000000e+00 0.000000e+00 0.000000e+00 0.000000e+00
 0.000000e+00 5.198583e-01 4.801417e-01 0.000000e+00 0.000000e+00
 0.000000e+00 0.000000e+00 1.525911e-02 9.847409e-01 0.000000e+00
 0.000000e+00 0.000000e+00 0.000000e+00 4.742822e-01 5.257179e-01
 0.000000e+00 0.000000e+00 0.000000e+00 0.000000e+00 0.000000e+00
<ENDHMM>
~h "m"
<BEGINHMM>
<NUMSTATES> 5
<STATE> 2
<MEAN> 25
 2.527917e+00 4.416974e+00 8.693628e+00 -7.284435e+00 7.551995e+00 -1.189013e+01 -5.394450e+00 3.713603e+00 3.497209e-01 -3.836845e+00 -3.980193e+00 2.534352e+00 1.687372e+00 -1.021613e+00 8.630527e-01 -1.151561e+00 2.588128e-01 -5.192759e-01 -1.195478e+00 -7.924901e-01 4.011367e-02 1.688591e-01 -4.361127e-02 -2.940874e-01 3.395987e+00
<VARIANCE> 25
 6.582593e+01 7.850475e+01 6.068972e+01 6.483896e+01 9.747089e+01 7.193856e+01 1.401371e+02 6.532008e+01 5.054942e+01 5.717073e+01 5.488808e+01 3.279640e+01 1.418831e+01 1.185255e+01 5.276845e+00 8.462743e+00 1.458891e+01 8.628267e+00 1.136230e+01 1.188020e+01 9.125902e+00 1.017679e+01 6.663557e+00 4.539345e+00 4.926928e+00
<GCONST> 1.244165e+02
<STATE> 3
<MEAN> 25
 2.316049e+01 -9.640217e+00 6.150336e+00 -1.314132e+01 1.660758e+00 2.301492e+00 -9.811590e+00 -1.282875e+01 -1.761127e+00 8.266351e+00 -1.312081e+00 -3.129589e+00 1.832793e+00 -2.422635e-01 -1.077975e+00 2.199727e-02 -1.321770e+00 2.394630e+00 1.272440e+00 -5.283749e-01 -6.436301e-01 2.723659e-01 1.998633e-01 3.563090e-01 -8.674209e-01
<VARIANCE> 25
 1.960204e+01 2.650089e+01 5.423492e+01 1.517681e+02 5.996191e+01 1.297181e+02 8.923109e+01 9.948017e+01 4.863679e+01 4.806158e+01 2.164570e+01 3.599532e+01 3.571764e+00 5.919980e+00 7.644004e+00 9.118240e+00 5.729469e+00 9.097446e+00 6.811229e+00 1.489905e+01 7.256724e+00 1.225597e+01 1.980645e+00 4.681600e+00 3.582295e+00
<GCONST> 1.175408e+02
<STATE> 4
<MEAN> 25
 2.081445e+01 -5.963550e+00 3.182100e+00 -6.746768e+00 -3.180872e+00 1.793842e+00 1.213533e+00 -6.044587e+00 -6.378278e+00 5.265529e-02 -5.521253e-01 -7.059187e-01 -2.671271e-01 5.651160e-01 -2.193029e-01 3.249997e-01 8.817296e-02 -2.693005e-01 1.742982e-02 2.517298e-01 -6.990111e-03 -9.395382e-02 6.669961e-02 -1.616192e-01 -6.379491e-01
<VARIANCE> 25
 6.204034e+01 1.112217e+02 1.361534e+02 1.987431e+02 1.144055e+02 8.683632e+01 1.098191e+02 1.376535e+02 8.714983e+01 6.620274e+01 4.742791e+01 2.857236e+01 1.988427e+00 7.498339e+00 8.585567e+00 1.091999e+01 4.287781e+00 3.874384e+00 4.885102e+00 7.403451e+00 6.432846e+00 7.008583e+00 4.956916e+00 3.462081e+00 6.856545e+00
<GCONST> 1.219088e+02
<TRANSP> 5
 0.000000e+00 1.000000e+00 0.000000e+00 0.000000e+00 0.000000e+00
 0.000000e+00 9.032107e-01 9.678927e-02 0.000000e+00 0.000000e+00
 0.000000e+00 0.000000e+00 8.668767e-01 1.331233e-01 0.000000e+00
 0.000000e+00 0.000000e+00 0.000000e+00 9.621386e-01 3.786139e-02
 0.000000e+00 0.000000e+00 0.000000e+00 0.000000e+00 0.000000e+00
<ENDHMM>
~h "n"
<BEGINHMM>
<NUMSTATES> 5
<STATE> 2
<MEAN> 25
 1.668828e+00 1.118189e+01 6.302234e+00 7.037360e+00 -1.823445e+00 -1.586847e+00 -1.891370e+00 -2.849208e+00 -2.260963e+00 -4.589037e+00 -4.526619e+00 -2.956128e+00 -1.884768e+00 -1.396345e+00 -5.497434e-01 2.724974e-01 4.979459e-01 1.890677e-01 -1.755694e-02 1.235265e-01 2.962749e-01 2.360540e-01 2.354053e-01 1.232293e-03 -1.017029e+00
<VARIANCE> 25
 5.807939e+01 4.315821e+01 3.402615e+01 2.198335e+01 1.705565e+01 2.277394e+01 1.842403e+01 1.973760e+01 3.091620e+01 2.693322e+01 1.649603e+01 1.446161e+01 2.447085e+00 2.838991e+00 3.358067e+00 3.126283e+00 1.362583e+00 1.745327e+00 1.948606e+00 1.693009e+00 1.792927e+00 2.313807e+00 9.966190e-01 1.178793e+00 6.412861e-01
<GCONST> 9.193764e+01
<STATE> 3
<MEAN> 25
 -7.804358e+00 5.014184e+00 3.330214e+00 7.464524e+00 2.630419e+00 2.305495e+00 -9.530323e-01 -1.527700e+00 -1.913297e+00 -4.116896e+00 -1.143445e+00 -2.020072e+00 -4.820134e-01 -4.217219e-01 -4.093100e-01 -2.209687e-01 -1.417903e-01 4.864656e-02 9.232825e-02 4.752321e-02 1.349112e-01 2.443530e-01 3.609457e-01 3.878632e-01 -2.459150e-01
<VARIANCE> 25
 1.171326e+01 1.084741e+01 2.138702e+01 1.652904e+01 1.403483e+01 1.246538e+01 1.244224e+01 1.465393e+01 1.539041e+01 1.502106e+01 2.242229e+01 1.745124e+01 2.562616e-01 6.424869e-01 1.053427e+00 9.849928e-01 6.719378e-01 9.374174e-01 1.177722e+00 1.920796e+00 1.435491e+00 1.582137e+00 2.237570e+00 2.035471e+00 8.125365e-02
<GCONST> 7.685572e+01
<STATE> 4
<MEAN> 25
 -8.794764e+00 1.807011e+00 -2.507474e-01 1.662209e+00 2.196672e-01 1.689389e+00 5.898215e-02 6.407006e-01 -3.063917e-01 -9.083589e-01 -5.891469e-01 2.408777e-01 -1.600286e-02 2.315400e-02 -1.533051e-02 -4.333813e-02 2.447175e-02 3.058239e-02 -4.446371e-03 2.770131e-02 1.383698e-02 -3.720879e-02 8.842773e-03 4.349821e-02 -1.610459e-02
<VARIANCE> 25
 4.905276e+00 6.055843e+00 1.005931e+01 1.124690e+01 7.713141e+00 1.246055e+01 1.365543e+01 1.257839e+01 1.595075e+01 1.349847e+01 1.412007e+01 1.393914e+01 1.472797e-01 2.947320e-01 4.386101e-01 6.098077e-01 7.047191e-01 9.308197e-01 1.147456e+00 1.374653e+00 1.471165e+00 1.470137e+00 1.430388e+00 1.363663e+00 4.115048e-02
<GCONST> 6.826009e+01
<TRANSP> 5
 0.000000e+00 1.000000e+00 0.000000e+00 0.000000e+00 0.000000e+00
 0.000000e+00 8.179068e-01 1.820932e-01 0.000000e+00 0.000000e+00
 0.000000e+00 0.000000e+00 7.700051e-01 2.299949e-01 0.000000e+00
 0.000000e+00 0.000000e+00 0.000000e+00 9.597051e-01 4.029492e-02
 0.000000e+00 0.000000e+00 0.000000e+00 0.000000e+00 0.000000e+00
<ENDHMM>
~h "r"
<BEGINHMM>
<NUMSTATES> 5
<STATE> 2
<MEAN> 25
 2.302109e+00 2.638085e+00 5.051355e-01 8.989223e-01 -3.351948e+00 -1.596172e+00 1.314277e+00 -9.566090e-01 -9.940819e-01 -4.758190e-01 2.532410e-01 6.598759e-03 -9.651763e-02 3.234461e-01 4.203028e-01 -5.546091e-01 6.720200e-02 2.561420e-01 -2.073624e-01 -1.253676e-01 3.168146e-02 -7.930346e-02 -1.259804e-01 -4.755623e-02 3.611767e-02
<VARIANCE> 25
 2.077576e+02 1.336772e+02 6.209317e+01 5.109360e+01 5.233301e+01 5.483154e+01 4.514574e+01 4.826929e+01 4.835812e+01 3.694545e+01 2.324801e+01 2.033811e+01 5.293193e+00 6.458734e+00 3.589887e+00 3.073386e+00 3.721124e+00 3.204176e+00 3.300205e+00 2.871858e+00 4.562963e+00 2.183223e+00 1.633238e+00 1.785230e+00 3.528035e+00
<GCONST> 1.088262e+02
<STATE> 3
<MEAN> 25
 2.496475e+00 1.787624e+00 1.250049e+00 5.102303e-01 -2.783691e+00 -1.252533e+00 8.985934e-01 -9.238352e-01 -1.001280e+00 -1.029927e+00 3.667960e-01 1.724833e-01 6.499622e-01 2.445162e-01 8.963479e-01 -3.367687e-01 3.114684e-01 2.519530e-01 -2.585620e-01 -2.065267e-01 4.171326e-01 -6.017330e-02 -3.262443e-01 1.434399e-01 9.145990e-01
<VARIANCE> 25
 2.023231e+02 1.459309e+02 5.516385e+01 5.180182e+01 5.038232e+01 6.325029e+01 5.398195e+01 5.594696e+01 5.391349e+01 3.523092e+01 2.696373e+01 2.286973e+01 7.319069e+00 8.773734e+00 5.998238e+00 4.135172e+00 5.486248e+00 2.898426e+00 4.563138e+00 3.413424e+00 3.392945e+00 2.303765e+00 1.315211e+00 1.575147e+00 4.898298e+00
<GCONST> 1.115099e+02
<STATE> 4
<MEAN> 25
 4.149811e+00 -5.118706e-02 3.706598e+00 3.141487e-01 -8.549281e-01 -3.158710e+00 7.787277e-02 -1.655000e-01 -2.392410e-02 -1.121046e+00 -7.234281e-01 1.466382e+00 1.860190e+00 -5.654505e-01 1.212074e+00 -3.768428e-01 -2.056802e-01 -3.928156e-01 -6.526574e-01 -2.289022e-01 1.502801e-01 -9.896556e-02 -3.581454e-01 1.235942e-01 2.377930e+00
<VARIANCE> 25
 1.599074e+02 1.645138e+02 7.593544e+01 7.076383e+01 6.439933e+01 8.575640e+01 5.790852e+01 6.014622e+01 6.432532e+01 3.150338e+01 2.908510e+01 2.398965e+01 1.023377e+01 1.156483e+01 7.849546e+00 6.168696e+00 8.780385e+00 8.856137e+00 7.896200e+00 4.793383e+00 8.623934e+00 3.548994e+00 3.203275e+00 3.106747e+00 1.323249e+01
<GCONST> 1.205904e+02
<TRANSP> 5
 0.000000e+00 1.000000e+00 0.000000e+00 0.000000e+00 0.000000e+00
 0.000000e+00 1.441578e-01 8.558423e-01 0.000000e+00 0.000000e+00
 0.000000e+00 0.000000e+00 2.180192e-02 9.781981e-01 0.000000e+00
 0.000000e+00 0.000000e+00 0.000000e+00 2.849206e-01 7.150793e-01
 0.000000e+00 0.000000e+00 0.000000e+00 0.000000e+00 0.000000e+00
<ENDHMM>
~h "s"
<BEGINHMM>
<NUMSTATES> 5
<STATE> 2
<MEAN> 25
 1.555952e+01 -1.392040e+01 8.355910e+00 1.854275e+00 -6.178693e+00 -9.558523e+00 -3.257138e+00 3.814851e+00 -2.554507e-01 -1.001586e+00 -2.372845e+00 3.420807e-01 2.268652e+00 -7.054943e-01 -4.277126e-01 5.135379e-03 -1.191969e+00 -6.138453e-01 -4.105848e-01 6.187330e-01 -9.147871e-01 -3.731510e-01 8.699945e-01 -2.397691e-01 1.384423e+00
<VARIANCE> 25
 4.304545e+01 3.694518e+01 7.952183e+01 9.061156e+01 5.691845e+01 7.110089e+01 5.590907e+01 4.460004e+01 8.067590e+01 2.883385e+01 4.170443e+01 3.287916e+01 4.770652e+00 7.892093e+00 1.084109e+01 1.193670e+01 6.964234e+00 1.040481e+01 6.056398e+00 5.785441e+00 1.258237e+01 5.499538e+00 5.643196e+00 3.540145e+00 4.902911e+00
<GCONST> 1.184561e+02
<STATE> 3
<MEAN> 25
 1.872734e+01 -1.692550e+01 8.905223e+00 -5.722091e+00 -5.754201e+00 -9.188796e+00 -6.769237e+00 5.244844e+00 -1.461764e+00 8.131580e-01 -1.932010e+00 -4.864998e-01 3.724627e-01 -2.578247e-01 -7.518865e-01 -1.256049e+00 8.397846e-01 6.285512e-01 -7.472786e-02 -4.853847e-01 6.103248e-02 1.292925e+00 -7.630082e-01 -8.281928e-01 4.700321e-01
<VARIANCE> 25
 2.993591e+01 2.508215e+01 8.104262e+01 1.033557e+02 8.784570e+01 6.490000e+01 6.187108e+01 9.220184e+01 9.871941e+01 6.859562e+01 3.361260e+01 3.096309e+01 1.834340e+00 2.078245e+00 4.865853e+00 5.784323e+00 4.868657e+00 4.486642e+00 6.722333e+00 5.056772e+00 6.080777e+00 4.045097e+00 3.390397e+00 4.071449e+00 1.344499e+00
<GCONST> 1.120762e+02
<STATE> 4
<MEAN> 25
 2.208003e+01 -9.739017e+00 -3.480031e+00 -1.216199e+01 1.673820e-01 1.312649e-01 -4.730123e+00 -5.416927e+00 -1.950514e+00 7.347943e+00 -2.612138e+00 -5.693583e+00 -3.221137e-01 1.493109e+00 -3.535407e-01 -1.669805e-01 1.050717e+00 2.442789e-01 -1.375097e-01 -1.917542e-01 -1.223578e-01 7.124880e-02 1.463188e-01 2.058275e-01 -7.453594e-01
<VARIANCE> 25
 2.037548e+01 5.151173e+01 7.929057e+01 1.281199e+02 1.044374e+02 6.753359e+01 1.074630e+02 9.374640e+01 4.307020e+01 4.082120e+01 4.442794e+01 4.760388e+01 1.333065e+00 1.833028e+00 3.167864e+00 4.706059e+00 4.169661e+00 3.358488e+00 4.017437e+00 4.258938e+00 3.395198e+00 3.629403e+00 2.777669e+00 3.189151e+00 7.427301e-01
<GCONST> 1.088066e+02
<TRANSP> 5
 0.000000e+00 1.000000e+00 0.000000e+00 0.000000e+00 0.000000e+00
 0.000000e+00 5.929236e-01 4.070764e-01 0.000000e+00 0.000000e+00
 0.000000e+00 0.000000e+00 7.831091e-01 2.168909e-01 0.000000e+00
 0.000000e+00 0.000000e+00 0.000000e+00 8.638943e-01 1.361057e-01
 0.000000e+00 0.000000e+00 0.000000e+00 0.000000e+00 0.000000e+00
<ENDHMM>
~h "t"
<BEGINHMM>
<NUMSTATES> 5
<STATE> 2
<MEAN> 25
 6.450627e+00 -9.399669e+00 5.687219e+00 -4.055097e+00 9.194699e-01 -9.952419e+00 -3.405924e-01 2.621330e+00 2.771719e+00 -2.273197e-01 -2.304656e+00 1.438709e+00 1.034006e+00 -5.935538e-01 1.610470e+00 -2.484436e+00 4.216010e-01 4.450790e-01 -1.405711e+00 1.588318e-01 -1.051664e+00 4.472875e-01 1.025495e+00 -5.809584e-01 2.898976e+00
<VARIANCE> 25
 8.933830e+01 6.629481e+01 9.332386e+01 6.535041e+01 8.461013e+01 8.456564e+01 8.347798e+01 6.597779e+01 5.492278e+01 4.252342e+01 6.190181e+01 3.841624e+01 2.678213e+01 1.332574e+01 7.311965e+00 5.493946e+00 1.226783e+01 1.024556e+01 8.996118e+00 6.857607e+00 7.713530e+00 7.111663e+00 5.328405e+00 2.556299e+00 1.639590e+01
<GCONST> 1.243087e+02
<STATE> 3
<MEAN> 25
 1.453404e+01 -1.027674e+01 4.400368e+00 -4.495216e+00 -4.026966e+00 -3.778516e+00 -5.105983e+00 -4.424578e+00 6.946504e-01 2.375862e+00 -1.547737e+00 -1.578286e+00 2.246966e+00 6.847211e-01 -1.903339e+00 5.416933e-01 -1.579074e+00 1.199550e+00 9.917037e-01 -2.438688e+00 -1.565075e+00 7.722538e-01 2.060462e-01 -6.747909e-01 2.056420e-01
<VARIANCE> 25
 9.429244e+01 8.243980e+01 8.955666e+01 7.850860e+01 8.580432e+01 9.188507e+01 7.172849e+01 1.008536e+02 5.545099e+01 6.379286e+01 4.737537e+01 2.337784e+01 1.000694e+01 8.212043e+00 8.414051e+00 6.613010e+00 7.326165e+00 9.912384e+00 7.900979e+00 9.984633e+00 7.063980e+00 6.993154e+00 4.948767e+00 3.285656e+00 3.252907e+00
<GCONST> 1.217530e+02
<STATE> 4
<MEAN> 25
 1.812504e+01 7.672560e-01 -5.326112e+00 -8.781638e+00 -2.818661e+00 3.728492e+00 6.231473e-01 -8.526569e+00 -6.160351e+00 2.048671e+00 8.226863e-01 2.910459e-01 -1.189424e+00 7.620745e-01 7.508011e-02 1.642304e-01 1.857198e-02 4.721267e-02 1.457318e-01 6.293510e-01 -1.692717e-01 -3.141599e-01 2.996333e-01 3.105392e-01 -1.434933e+00
<VARIANCE> 25
 7.738348e+01 1.491566e+02 4.881061e+01 8.994795e+01 8.068442e+01 5.308906e+01 4.708010e+01 6.404125e+01 4.413345e+01 5.987360e+01 2.779594e+01 2.613343e+01 3.791100e+00 2.607507e+00 2.585131e+00 5.739079e+00 3.562576e+00 3.409434e+00 3.008049e+00 2.926872e+00 3.731863e+00 3.267954e+00 1.961369e+00 1.672495e+00 1.593412e+00
<GCONST> 1.083446e+02
<TRANSP> 5
 0.000000e+00 1.000000e+00 0.000000e+00 0.000000e+00 0.000000e+00
 0.000000e+00 3.969234e-01 6.030767e-01 0.000000e+00 0.000000e+00
 0.000000e+00 0.000000e+00 5.715408e-01 4.284592e-01 0.000000e+00
 0.000000e+00 0.000000e+00 0.000000e+00 8.366768e-01 1.633232e-01
 0.000000e+00 0.000000e+00 0.000000e+00 0.000000e+00 0.000000e+00
<ENDHMM>
~h "w"
<BEGINHMM>
<NUMSTATES> 5
<STATE> 2
<MEAN> 25
 2.614684e+01 -4.773095e-01 -1.040808e+01 -1.489778e+01 -1.573285e+00 3.498449e+00 1.094760e+00 -6.748103e+00 -1.128428e+01 4.002565e+00 6.890510e+00 -1.914448e+00 9.312792e-01 -3.605653e+00 1.303335e-01 1.933847e+00 1.842316e-02 -2.469530e+00 9.787311e-02 -4.461069e-02 -5.691597e-01 2.257032e+00 3.485675e-01 -1.927987e+00 2.416844e+00
<VARIANCE> 25
 1.442073e+01 5.585050e+01 3.891305e+01 7.527209e+01 5.308913e+01 3.491715e+01 4.598806e+01 2.984483e+01 4.817585e+01 4.013560e+01 2.418093e+01 2.213984e+01 2.489863e+00 2.732159e+00 6.505902e+00 6.336232e+00 9.414061e+00 7.773364e+00 5.880765e+00 3.702210e+00 6.985423e+00 2.542742e+00 4.612530e+00 3.313087e+00 2.159623e+00
<GCONST> 1.086036e+02
<STATE> 3
<MEAN> 25
 2.277670e+01 -1.366881e+01 -6.452730e+00 -7.807214e+00 8.955939e-01 -5.070333e+00 -3.024384e+00 -5.408354e-01 -6.353506e+00 7.738151e+00 3.653396e+00 -1.016625e+01 -1.028436e+00 -2.127134e+00 1.003376e+00 1.919832e+00 -4.380547e-01 -1.761874e+00 -1.671095e-01 1.884917e+00 2.432582e+00 -1.254596e+00 -2.156130e+00 -1.251191e+00 1.082547e+00
<VARIANCE> 25
 2.702241e+01 1.786137e+01 4.071006e+01 7.765875e+01 5.256956e+01 6.512894e+01 6.752258e+01 7.917405e+01 6.896624e+01 4.696471e+01 4.296049e+01 3.084244e+01 4.385360e-01 2.385451e+00 2.093494e+00 1.991160e+00 3.224360e+00 3.082094e+00 3.858925e+00 2.333117e+00 4.203968e+00 2.496710e+00 2.101749e+00 3.093509e+00 6.289717e-01
<GCONST> 1.019058e+02
<STATE> 4
<MEAN> 25
 2.097240e+01 -1.877295e+01 -3.206015e+00 -6.597654e-01 -6.550365e+00 -8.004983e+00 1.160435e-01 3.152534e+00 6.429305e-02 1.216544e+00 -3.489352e+00 -9.930405e+00 2.973645e-02 -2.985170e-01 3.603578e-01 7.667680e-01 -1.076015e+00 3.202090e-01 5.427539e-01 -2.572365e-01 6.606231e-01 -3.951638e-01 -1.574503e+00 4.893294e-01 -3.276291e-01
<VARIANCE> 25
 2.419790e+01 1.565911e+01 3.902685e+01 5.177937e+01 4.730478e+01 2.764079e+01 5.063525e+01 8.334209e+01 4.753089e+01 4.515355e+01 3.949955e+01 2.526361e+01 6.805754e-01 9.110356e-01 1.330939e+00 1.691876e+00 1.798550e+00 2.810946e+00 1.739157e+00 4.140700e+00 3.401087e+00 3.276486e+00 2.164186e+00 2.801311e+00 5.062191e-01
<GCONST> 9.705680e+01
<TRANSP> 5
 0.000000e+00 1.000000e+00 0.000000e+00 0.000000e+00 0.000000e+00
 0.000000e+00 6.872613e-01 3.127387e-01 0.000000e+00 0.000000e+00
 0.000000e+00 0.000000e+00 6.990122e-01 3.009878e-01 0.000000e+00
 0.000000e+00 0.000000e+00 0.000000e+00 7.757948e-01 2.242052e-01
 0.000000e+00 0.000000e+00 0.000000e+00 0.000000e+00 0.000000e+00
<ENDHMM>
~h "z"
<BEGINHMM>
<NUMSTATES> 5
<STATE> 2
<MEAN> 25
 -6.518929e+00 9.830604e-01 -2.420314e+00 1.876181e-01 5.840715e-01 7.372063e-01 -1.371575e+00 2.655516e+00 1.018457e+00 4.117427e-01 9.597737e-01 9.609423e-01 -5.494972e-03 2.035914e-02 -4.419127e-02 -1.845460e-02 1.505007e-02 2.214120e-02 1.927774e-03 9.142393e-02 6.739767e-02 -3.417279e-02 -5.948483e-02 1.232280e-03 -2.300559e-02
<VARIANCE> 25
 2.285064e+00 1.974841e+00 5.546994e+00 1.034346e+01 1.439386e+01 1.006915e+01 1.265464e+01 1.062168e+01 1.308002e+01 1.113403e+01 9.440396e+00 8.134800e+00 1.235133e-01 2.712097e-01 3.747913e-01 8.500104e-01 6.890734e-01 8.214059e-01 1.328231e+00 1.319761e+00 1.211696e+00 1.330958e+00 1.037051e+00 8.318375e-01 4.115048e-02
<GCONST> 6.329452e+01
<STATE> 3
<MEAN> 25
 -7.710566e+00 -1.179315e+00 -2.786686e+00 1.171228e+00 -9.814860e-01 1.213194e-01 4.045543e-01 2.645197e+00 3.439618e+00 -4.338271e-02 -8.341267e-01 2.864358e-01 1.883301e-01 1.144651e-01 1.790079e-01 4.175875e-02 1.025323e-01 1.819312e-01 4.693004e-02 -8.340564e-03 1.809289e-01 8.965893e-03 -5.626322e-02 -2.086163e-01 1.066193e-01
<VARIANCE> 25
 6.155149e+00 1.372777e+01 2.446368e+01 9.445262e+00 7.830511e+00 1.124675e+01 1.866604e+01 1.354798e+01 2.962156e+01 9.494545e+00 1.294398e+01 1.184551e+01 8.062354e-01 1.605143e+00 3.687535e+00 1.571382e+00 1.205988e+00 1.255530e+00 2.405243e+00 1.400198e+00 4.589333e+00 9.898492e-01 1.304191e+00 1.838074e+00 7.476903e-01
<GCONST> 8.225012e+01
<STATE> 4
<MEAN> 25
 -1.080444e+00 6.306270e+00 2.702458e-01 -1.901347e+00 4.885035e+00 -2.138728e+00 -3.757236e+00 5.202473e-01 1.829870e+00 -3.632386e+00 -4.037485e+00 -2.863193e-01 -3.219169e-01 5.542894e-01 1.262164e+00 -3.249180e-01 9.923524e-01 -5.179721e-01 -9.358397e-01 -9.463399e-01 -1.591297e+00 -8.581730e-01 -3.433982e-02 4.239558e-02 1.063144e+00
<VARIANCE> 25
 2.342035e+01 1.817701e+01 2.704955e+01 1.974160e+01 3.390231e+01 2.557077e+01 3.157052e+01 2.110739e+01 1.936664e+01 1.322807e+01 2.343757e+01 8.440926e+00 3.917514e+00 6.040069e-01 2.319867e+00 1.167225e+00 1.702745e+00 2.354851e+00 4.679842e+00 2.008641e+00 3.052926e+00 1.272065e+00 1.876870e+00 8.024065e-01 7.280695e-01
<GCONST> 8.931692e+01
<TRANSP> 5
 0.000000e+00 1.000000e+00 0.000000e+00 0.000000e+00 0.000000e+00
 0.000000e+00 9.560868e-01 4.391323e-02 0.000000e+00 0.000000e+00
 0.000000e+00 0.000000e+00 8.249782e-01 1.750218e-01 0.000000e+00
 0.000000e+00 0.000000e+00 0.000000e+00 5.665361e-01 4.334639e-01
 0.000000e+00 0.000000e+00 0.000000e+00 0.000000e+00 0.000000e+00
<ENDHMM>
~h "ae"
<BEGINHMM>
<NUMSTATES> 5
<STATE> 2
<MEAN> 25
 2.052122e+01 -2.462389e+01 -4.066645e+00 2.141245e+00 -6.509149e+00 -6.413669e+00 5.695246e+00 2.124004e+00 -3.115850e-01 2.342213e+00 -1.027180e+01 -2.952169e+00 -7.539289e-01 -1.279280e+00 1.982305e+00 -4.617502e-01 -8.135005e-01 -3.165400e-01 1.160074e+00 9.405565e-01 -1.072959e+00 -6.625592e-01 -6.191403e-01 2.140078e-01 6.777477e-01
<VARIANCE> 25
 1.494836e+01 1.939978e+01 6.109089e+01 6.216501e+01 4.631628e+01 1.876927e+01 4.912947e+01 4.474096e+01 1.834628e+01 2.592621e+01 2.451950e+01 1.713578e+01 8.430977e-01 2.516470e+00 3.071844e+00 4.172019e+00 5.304819e+00 1.886390e+00 3.282544e+00 4.811563e+00 3.045121e+00 2.740695e+00 3.791709e+00 1.770737e+00 4.091882e-01
<GCONST> 9.802551e+01
<STATE> 3
<MEAN> 25
 1.559543e+01 -2.313504e+01 5.474846e+00 -4.860209e+00 -4.381274e+00 -6.963383e+00 3.563348e+00 1.274253e+01 -6.964900e+00 -4.568027e+00 -3.878120e+00 -4.923889e+00 -1.870800e-01 8.807836e-01 3.907512e-01 5.114813e-01 -6.660976e-01 -3.438548e-01 1.170933e+00 6.687942e-01 -1.537747e+00 -4.215858e-01 9.214060e-01 -5.066479e-01 -5.543565e-01
<VARIANCE> 25
 2.244912e+01 1.874875e+01 5.128346e+01 1.226717e+02 4.414521e+01 3.479913e+01 3.843558e+01 3.794457e+01 3.802609e+01 1.559771e+01 2.330349e+01 2.888190e+01 5.006318e-01 7.418760e-01 1.836928e+00 1.613113e+00 2.143560e+00 9.669647e-01 1.281450e+00 1.150042e+00 1.382972e+00 1.624506e+00 1.160620e+00 1.058252e+00 4.739311e-01
<GCONST> 8.973637e+01
<STATE> 4
<MEAN> 25
 1.680678e+01 -1.411016e+01 4.566623e+00 1.741054e+00 -1.215295e+01 -7.196515e+00 1.296529e+01 5.725541e+00 -1.263299e+01 -2.233732e-01 -1.103578e+00 -6.190086e+00 -7.998414e-02 2.429254e+00 4.232514e-01 -4.110624e-01 -5.427405e-01 8.321857e-01 1.147637e+00 -1.522829e+00 -1.678910e+00 1.220594e+00 6.911925e-01 -2.441439e-01 -1.207209e+00
<VARIANCE> 25
 1.672528e+01 4.583630e+01 9.407057e+01 1.090122e+02 5.336446e+01 2.596703e+01 4.409066e+01 8.589548e+01 3.166951e+01 3.413047e+01 2.932135e+01 2.913685e+01 3.136237e-01 2.123448e+00 2.542454e+00 2.641441e+00 2.121033e+00 2.154361e+00 2.905788e+00 2.253965e+00 1.633042e+00 2.186356e+00 1.680540e+00 1.783209e+00 1.302767e+00
<GCONST> 9.856506e+01
<TRANSP> 5
 0.000000e+00 1.000000e+00 0.000000e+00 0.000000e+00 0.000000e+00
 0.000000e+00 7.363170e-01 2.636830e-01 0.000000e+00 0.000000e+00
 0.000000e+00 0.000000e+00 8.034370e-01 1.965630e-01 0.000000e+00
 0.000000e+00 0.000000e+00 0.000000e+00 7.786618e-01 2.213382e-01
 0.000000e+00 0.000000e+00 0.000000e+00 0.000000e+00 0.000000e+00
<ENDHMM>
~h "ah"
<BEGINHMM>
<NUMSTATES> 5
<STATE> 2
<MEAN> 25
 1.971455e+01 -6.151657e+00 -4.055670e+00 -9.812717e+00 5.022522e+00 -9.251126e-01 -6.346725e+00 -3.788764e+00 -9.969206e-01 5.622471e+00 -5.139950e+00 -3.365900e+00 1.942977e-01 1.815193e+00 -9.676600e-01 1.674367e+00 -7.828321e-01 3.616786e-01 3.797877e-01 -1.367719e+00 3.863610e-01 -7.645929e-01 -1.075879e-01 4.427649e-01 -1.684572e+00
<VARIANCE> 25
 2.288795e+01 5.929802e+01 5.175647e+01 2.095564e+02 9.414725e+01 8.219747e+01 1.074156e+02 7.296356e+01 5.782074e+01 9.416800e+01 4.102906e+01 5.041626e+01 1.748284e+00 6.333196e+00 4.656161e+00 8.477757e+00 6.562358e+00 7.639452e+00 8.645948e+00 8.832387e+00 5.101689e+00 5.235402e+00 4.480129e+00 3.428514e+00 4.120586e+00
<GCONST> 1.183724e+02
<STATE> 3
<MEAN> 25
 2.347257e+01 -2.918729e+00 -1.171756e+01 -5.539700e+00 -6.614563e-01 -1.469263e-01 -3.713217e+00 -1.188183e+01 -3.250439e+00 6.476469e+00 -1.954621e+00 -6.369915e+00 -2.428081e-01 1.761399e+00 -1.052289e-01 -5.364515e-01 3.838039e-01 7.490512e-01 -5.182848e-01 -3.058852e-01 -3.048293e-02 -4.377008e-01 3.912349e-02 3.720604e-01 -1.102164e+00
<VARIANCE> 25
 1.127874e+01 5.167143e+01 2.158991e+01 7.359161e+01 5.921043e+01 5.152023e+01 5.149876e+01 4.179918e+01 5.019106e+01 3.132844e+01 4.507705e+01 2.658204e+01 5.745535e-01 2.747000e+00 1.725685e+00 2.613231e+00 4.491721e+00 2.798786e+00 3.062492e+00 3.492753e+00 2.945734e+00 2.561357e+00 2.329834e+00 1.255260e+00 1.216771e+00
<GCONST> 9.998611e+01
<STATE> 4
<MEAN> 25
 1.604565e+01 1.091886e+01 -4.149914e+00 -5.144810e+00 1.023254e+00 2.717943e+00 -5.827374e+00 -7.455513e+00 -1.471730e+00 -4.025326e-01 -2.249809e+00 -3.382556e+00 -2.301886e+00 1.626243e+00 2.546643e+00 5.564448e-01 -1.489786e+00 -7.381024e-02 1.064532e+00 7.353474e-01 -1.235564e-01 -6.361637e-01 6.272966e-01 5.102656e-01 -2.020470e+00
<VARIANCE> 25
 3.311971e+01 5.830549e+01 7.748436e+01 6.131633e+01 6.892398e+01 4.950029e+01 5.440595e+01 3.171360e+01 3.946559e+01 3.703254e+01 2.445239e+01 2.196616e+01 3.090850e+00 4.664493e+00 4.075021e+00 3.776385e+00 4.092876e+00 3.062436e+00 3.637856e+00 3.135043e+00 3.174261e+00 3.444501e+00 2.321477e+00 2.223126e+00 2.171587e+00
<GCONST> 1.063135e+02
<TRANSP> 5
 0.000000e+00 1.000000e+00 0.000000e+00 0.000000e+00 0.000000e+00
 0.000000e+00 6.630351e-01 3.369648e-01 0.000000e+00 0.000000e+00
 0.000000e+00 0.000000e+00 7.952771e-01 2.047230e-01 0.000000e+00
 0.000000e+00 0.000000e+00 0.000000e+00 6.975983e-01 3.024016e-01
 0.000000e+00 0.000000e+00 0.000000e+00 0.000000e+00 0.000000e+00
<ENDHMM>
~h "ao"
<BEGINHMM>
<NUMSTATES> 5
<STATE> 2
<MEAN> 25
 -1.303375e-01 1.581679e+01 1.020181e+01 6.183260e+00 7.915109e-01 1.255387e+00 -1.121003e+00 -8.863307e-01 9.545978e-01 -2.817961e+00 -9.813288e-01 1.840223e+00 3.367693e+00 1.903802e-01 4.639609e-01 -8.796753e-01 -3.634362e-01 -1.532426e+00 -9.973584e-01 -2.249317e-01 8.904345e-02 -2.630440e-01 -9.298415e-01 -4.298817e-01 3.516091e+00
<VARIANCE> 25
 9.574718e+01 9.665887e+01 4.437169e+01 2.485315e+01 2.630526e+01 1.393552e+01 3.391980e+01 2.575740e+01 2.007073e+01 1.082647e+01 1.606009e+01 1.326925e+01 1.171170e+01 1.040648e+01 7.901680e+00 4.677722e+00 1.732405e+00 4.359583e+00 3.665892e+00 2.143764e+00 2.664100e+00 1.270172e+00 2.642456e+00 1.880221e+00 2.244105e+01
<GCONST> 1.039348e+02
<STATE> 3
<MEAN> 25
 1.049720e+01 7.299517e+00 7.526849e+00 5.073927e-01 -2.336599e-01 -7.312401e+00 -2.320060e+00 -1.412845e+00 2.804414e+00 -1.529615e+00 -3.383705e+00 3.209805e-01 4.626081e+00 -5.616531e+00 -2.098796e+00 -2.547063e+00 4.023896e-01 -3.877779e+00 -1.859210e+00 -5.822846e-01 1.006868e+00 7.216875e-01 -1.772338e+00 -1.634697e-01 7.195012e+00
<VARIANCE> 25
 3.246338e+01 2.582178e+02 8.940570e+01 7.617690e+01 3.603160e+01 4.191285e+01 6.093313e+01 2.376274e+01 3.484319e+01 3.591862e+01 1.894379e+01 1.600817e+01 1.532965e+01 7.002553e+00 7.836960e+00 8.888245e+00 6.938665e+00 5.842826e+00 1.433828e+01 7.424032e+00 7.085270e+00 3.931569e+00 5.293101e+00 3.863316e+00 8.409544e+00
<GCONST> 1.170156e+02
<STATE> 4
<MEAN> 25
 1.910170e+01 -8.204008e+00 -1.674950e+00 -2.707597e+00 2.365770e+00 -1.094851e+01 -9.405746e+00 -1.962112e+00 7.925874e+00 -1.259058e+00 -6.895776e+00 2.026535e+00 1.199483e+00 -4.080038e+00 4.753267e-02 -1.155145e+00 -6.943653e-01 1.255167e+00 -1.286322e+00 3.690410e-01 6.993551e-01 -1.715636e-01 -3.031968e-01 1.149964e-01 2.260392e+00
<VARIANCE> 25
 4.196475e+01 4.296230e+01 1.316445e+02 5.441157e+01 7.390021e+01 9.458029e+01 1.126824e+02 6.562777e+01 8.073122e+01 2.612980e+01 3.218019e+01 4.198492e+01 5.771413e+00 1.263248e+01 1.231883e+01 7.161608e+00 4.631546e+00 1.030447e+01 8.674648e+00 4.294991e+00 4.096790e+00 3.003206e+00 2.658969e+00 3.553911e+00 8.930993e+00
<GCONST> 1.181421e+02
<TRANSP> 5
 0.000000e+00 1.000000e+00 0.000000e+00 0.000000e+00 0.000000e+00
 0.000000e+00 5.823610e-01 4.176391e-01 0.000000e+00 0.000000e+00
 0.000000e+00 0.000000e+00 4.918033e-01 5.081967e-01 0.000000e+00
 0.000000e+00 0.000000e+00 0.000000e+00 5.603614e-01 4.396386e-01
 0.000000e+00 0.000000e+00 0.000000e+00 0.000000e+00 0.000000e+00
<ENDHMM>
~h "aw"
<BEGINHMM>
<NUMSTATES> 5
<STATE> 2
<MEAN> 25
 2.251038e+01 -3.432774e+00 -1.668400e+01 -3.985733e+00 8.012279e+00 3.635865e+00 -1.201392e+00 -2.655136e+00 2.115578e+00 5.886726e+00 2.542398e+00 -6.799582e+00 -3.555451e-01 2.843416e-01 -1.471953e+00 3.598999e-01 1.236995e-01 -7.851303e-01 4.852290e-01 7.475293e-02 -1.615717e-02 -6.754578e-01 -4.321749e-01 1.894671e-01 -7.775868e-01
<VARIANCE> 25
 2.080467e+01 3.151534e+01 3.111007e+01 1.891845e+01 2.866643e+01 1.270246e+01 6.694962e+01 4.148454e+01 1.895727e+01 5.199787e+01 2.184173e+01 2.322073e+01 6.886775e+00 3.379016e+00 4.459039e+00 3.591416e+00 1.122235e+01 2.042153e+00 1.372891e+01 6.432726e+00 3.639462e+00 4.227346e+00 2.911753e+00 4.110934e+00 7.489909e+00
<GCONST> 1.065221e+02
<STATE> 3
<MEAN> 25
 2.052340e+01 -9.626877e-01 -1.387566e+01 -4.291346e+00 9.993038e-01 1.086024e+00 -2.250089e+00 -7.069746e+00 2.730048e-01 7.274759e+00 1.368107e+00 -6.565108e+00 -3.194470e+00 5.809048e-01 1.741592e+00 6.964055e-01 -7.995924e-01 -1.120266e-01 3.688831e-01 5.977781e-01 2.973569e-01 -2.448799e-01 3.269443e-01 1.326301e+00 -2.512588e+00
<VARIANCE> 25
 8.930450e+01 2.102490e+01 1.625249e+01 1.852563e+01 3.960163e+01 1.226527e+01 4.925433e+01 1.671294e+01 2.787311e+01 9.742371e+00 1.029034e+01 2.748486e+01 4.944985e+00 2.512480e+00 4.038014e-01 5.574387e-01 9.946897e+00 1.581960e+00 8.577610e+00 2.980472e+00 4.104578e+00 3.432912e+00 2.242671e+00 3.652550e+00 2.749442e+00
<GCONST> 9.612547e+01
<STATE> 4
<MEAN> 25
 1.977663e+00 1.226444e+00 -8.558219e+00 -2.752580e+00 -3.064906e+00 1.616233e+00 1.285812e+00 -3.505028e+00 -4.747381e-01 1.486488e+00 4.511139e+00 7.098439e-01 -2.130801e+00 -2.991280e-01 1.400236e+00 1.080386e+00 -7.470011e-01 -6.379741e-01 6.325080e-01 1.078442e+00 -1.883536e-01 -5.583497e-01 -1.260775e-02 -7.430834e-02 -1.337161e+00
<VARIANCE> 25
 1.466765e+01 5.758978e+00 2.390873e+00 8.127538e+00 2.260816e+01 2.618468e+00 2.344738e+01 1.901171e+01 2.005646e+01 1.801666e+01 1.696673e+01 2.956272e+00 3.694716e+00 9.352355e-02 3.001950e-01 1.138604e+00 2.160287e+00 6.386827e-01 1.077757e+00 3.238733e-01 1.908710e+00 2.082142e-01 2.911804e+00 1.078855e+00 2.057043e+00
<GCONST> 7.141238e+01
<TRANSP> 5
 0.000000e+00 1.000000e+00 0.000000e+00 0.000000e+00 0.000000e+00
 0.000000e+00 7.737496e-01 2.262504e-01 0.000000e+00 0.000000e+00
 0.000000e+00 0.000000e+00 7.838604e-01 2.161396e-01 0.000000e+00
 0.000000e+00 0.000000e+00 0.000000e+00 6.292218e-01 3.707782e-01
 0.000000e+00 0.000000e+00 0.000000e+00 0.000000e+00 0.000000e+00
<ENDHMM>
~h "ay"
<BEGINHMM>
<NUMSTATES> 5
<STATE> 2
<MEAN> 25
 1.634527e+01 -9.645491e+00 3.039005e+00 -1.677859e+01 4.388856e+00 4.334384e-01 -1.311505e+01 5.917081e-01 1.888091e+00 5.084956e+00 -2.488726e+00 -3.272081e+00 -7.197995e-02 1.425968e+00 -9.439179e-01 -3.749136e-01 1.229056e+00 5.385862e-01 -3.924645e-01 -8.062549e-01 6.328535e-01 3.309228e-01 -1.733426e-01 2.050827e-01 -7.342653e-01
<VARIANCE> 25
 3.137147e+01 4.853056e+01 8.218961e+01 1.282039e+02 8.158887e+01 7.476796e+01 7.687453e+01 1.356741e+02 8.561505e+01 5.077698e+01 3.901402e+01 4.748698e+01 1.394053e+00 2.034170e+00 2.172685e+00 5.127767e+00 2.544757e+00 3.818184e+00 4.478193e+00 5.721467e+00 7.243401e+00 4.293062e+00 3.423356e+00 3.970369e+00 1.486404e+00
<GCONST> 1.118210e+02
<STATE> 3
<MEAN> 25
 2.274821e+00 -5.298315e-01 1.229139e-01 -6.172088e+00 6.434319e+00 -6.552385e+00 -7.660398e-01 -1.737890e+00 4.160833e+00 8.599135e-01 -1.276627e-01 2.116283e+00 -3.829311e-01 -1.344017e+00 1.104129e+00 2.431028e-01 -6.328852e-01 -2.411245e-01 6.089962e-01 8.551010e-01 2.011777e-01 -3.601956e-01 3.652046e-02 -9.238322e-02 4.796386e-01
<VARIANCE> 25
 9.525889e+01 9.944126e+01 7.510464e+01 6.479774e+01 6.874801e+01 8.853035e+01 1.038407e+02 5.165947e+01 5.645552e+01 4.087598e+01 3.577960e+01 3.003378e+01 1.326316e+01 9.665034e+00 1.247451e+01 1.312339e+01 9.700541e+00 1.296919e+01 1.472108e+01 6.265586e+00 6.712214e+00 6.246389e+00 4.454150e+00 3.899306e+00 1.487141e+01
<GCONST> 1.242190e+02
<STATE> 4
<MEAN> 25
 1.570826e+01 -1.463664e+01 1.140547e+00 -4.504276e+00 -6.805179e-01 -1.209534e+00 -5.944821e+00 3.144842e+00 5.175478e+00 2.949536e-01 -1.791585e+00 -1.519129e+00 3.010180e+00 -2.296985e+00 -2.157306e+00 1.667332e+00 -1.750353e+00 -4.781509e-01 4.142712e-01 3.124726e-01 -8.488422e-01 -1.319492e-01 -7.851661e-01 -5.987266e-01 1.471066e+00
<VARIANCE> 25
 5.535634e+01 4.269745e+01 1.902394e+02 8.895534e+01 9.082909e+01 5.456346e+01 4.002836e+01 3.703456e+01 3.102272e+01 3.266684e+01 2.162420e+01 1.764362e+01 8.343078e+00 3.831184e+00 1.031724e+01 1.028780e+01 9.373649e+00 8.475626e+00 5.961920e+00 4.891977e+00 5.968926e+00 5.083863e+00 5.848653e+00 2.708573e+00 4.259107e+00
<GCONST> 1.156281e+02
<TRANSP> 5
 0.000000e+00 1.000000e+00 0.000000e+00 0.000000e+00 0.000000e+00
 0.000000e+00 8.618552e-01 1.381447e-01 0.000000e+00 0.000000e+00
 0.000000e+00 0.000000e+00 8.767689e-01 1.232312e-01 0.000000e+00
 0.000000e+00 0.000000e+00 0.000000e+00 7.728777e-01 2.271223e-01
 0.000000e+00 0.000000e+00 0.000000e+00 0.000000e+00 0.000000e+00
<ENDHMM>
~h "eh"
<BEGINHMM>
<NUMSTATES> 5
<STATE> 2
<MEAN> 25
 2.111902e+01 -1.741163e+01 -5.387888e-01 4.725777e+00 -1.189334e+01 -4.674170e+00 3.153152e+00 -3.082497e+00 7.558954e-01 4.384889e+00 -7.263031e+00 -3.313799e+00 9.354526e-02 8.336691e-01 -2.999050e-01 6.349176e-01 2.548015e-01 -5.091795e-01 1.053771e-01 -2.476157e-01 -3.178052e-01 2.039051e-01 -1.901304e-01 3.889872e-01 -7.267801e-01
<VARIANCE> 25
 1.918708e+01 1.825393e+01 4.272594e+01 4.379181e+01 2.666031e+01 5.198262e+01 3.960259e+01 4.880049e+01 5.373151e+01 3.200785e+01 4.339137e+01 2.792496e+01 2.695041e+00 2.459384e+00 6.832716e+00 5.609036e+00 4.217178e+00 5.230348e+00 3.587085e+00 6.444385e+00 5.286646e+00 4.197902e+00 4.113657e+00 2.611950e+00 2.492295e+00
<GCONST> 1.068493e+02
<STATE> 3
<MEAN> 25
 1.954167e+01 -5.014091e+00 -5.967659e+00 6.579354e+00 -2.392483e+00 -8.689874e+00 -9.140311e-01 2.632710e-01 1.119098e+00 -3.415034e-01 -6.862282e+00 -1.285012e+00 -1.585830e+00 4.178523e+00 -9.806261e-01 -3.468830e-01 2.818806e+00 6.514903e-01 -1.499155e+00 1.478590e+00 1.385828e+00 -2.026069e+00 8.907641e-01 8.267586e-01 -3.508714e+00
<VARIANCE> 25
 2.576999e+01 4.680839e+01 4.497832e+01 5.985029e+01 5.445353e+01 3.550732e+01 5.085555e+01 5.830404e+01 5.365572e+01 5.398491e+01 4.230447e+01 3.437535e+01 2.159811e+00 4.488098e+00 3.655806e+00 7.416652e+00 6.054475e+00 5.590765e+00 4.376095e+00 7.724329e+00 3.283408e+00 5.179599e+00 5.114723e+00 1.673045e+00 2.518720e+00
<GCONST> 1.102736e+02
<STATE> 4
<MEAN> 25
 5.940458e+00 7.053562e+00 -3.232602e+00 9.605724e-01 1.112103e-01 -2.339986e+00 -2.618045e+00 2.831108e+00 4.475502e+00 -2.217106e+00 -3.695891e+00 -8.522445e-01 -2.602063e+00 7.858993e-01 6.180000e-01 -6.390914e-01 -5.040947e-01 1.047192e+00 2.371393e-01 -3.945689e-01 -1.098346e-01 2.924511e-01 7.633808e-01 1.219992e-01 -2.241254e+00
<VARIANCE> 25
 1.137519e+02 6.783443e+01 6.338475e+01 2.634114e+01 3.442180e+01 2.823655e+01 3.615354e+01 3.107856e+01 3.013306e+01 2.709378e+01 1.788198e+01 1.741767e+01 3.048706e+00 6.675778e+00 5.670732e+00 4.038750e+00 3.807208e+00 2.317342e+00 2.875525e+00 2.931648e+00 2.712621e+00 2.711334e+00 2.011036e+00 1.744178e+00 2.945706e+00
<GCONST> 1.034524e+02
<TRANSP> 5
 0.000000e+00 1.000000e+00 0.000000e+00 0.000000e+00 0.000000e+00
 0.000000e+00 8.507348e-01 1.492652e-01 0.000000e+00 0.000000e+00
 0.000000e+00 0.000000e+00 7.136428e-01 2.863571e-01 0.000000e+00
 0.000000e+00 0.000000e+00 0.000000e+00 7.660182e-01 2.339818e-01
 0.000000e+00 0.000000e+00 0.000000e+00 0.000000e+00 0.000000e+00
<ENDHMM>
~h "er"
<BEGINHMM>
<NUMSTATES> 5
<STATE> 2
<MEAN> 25
 -5.440352e+00 3.516000e+00 5.317776e+00 -9.485202e+00 9.510951e+00 -9.098108e+00 1.799621e+00 4.157219e+00 6.590438e-01 -3.485163e+00 1.144520e+00 2.907888e+00 -2.517504e+00 2.345724e-01 8.108837e-01 -3.823962e-02 -3.044535e-01 -9.688166e-01 1.737632e+00 5.147230e-01 -2.327830e-01 -8.132600e-01 7.348279e-01 6.321408e-01 -3.463316e-01
<VARIANCE> 25
 1.594739e+02 4.490401e+01 5.814677e+01 3.790848e+01 6.505083e+01 7.216830e+01 8.346982e+01 6.304743e+01 5.147727e+01 5.126929e+01 4.297714e+01 4.457222e+01 1.802249e+01 8.946670e+00 6.767469e+00 4.308861e+00 1.100310e+01 6.206413e+00 6.212549e+00 7.499239e+00 5.872691e+00 6.622890e+00 4.522125e+00 5.609540e+00 1.305761e+00
<GCONST> 1.186619e+02
<STATE> 3
<MEAN> 25
 1.175978e+01 -1.085055e+01 9.774433e+00 -4.136565e+00 -6.109995e+00 -1.203868e+01 1.705203e+00 5.093638e+00 -3.843236e+00 1.197394e+00 -7.238587e-01 1.136534e+00 3.460288e+00 -1.740507e+00 -4.970158e-01 1.420080e+00 -1.482032e+00 3.620775e-01 -1.479071e+00 -4.989926e-01 2.442539e-01 7.133515e-01 -1.155664e+00 -5.846965e-01 9.036418e-01
<VARIANCE> 25
 1.155224e+02 4.422670e+01 5.001560e+01 5.429446e+01 4.354919e+01 7.415154e+01 8.853679e+01 3.929596e+01 4.534404e+01 5.122040e+01 5.550455e+01 3.002654e+01 1.469288e+01 5.810594e+00 5.801733e+00 5.908339e+00 6.059888e+00 6.805061e+00 6.062213e+00 5.671391e+00 7.725749e+00 7.117793e+00 5.221671e+00 2.923911e+00 4.924984e+00
<GCONST> 1.173616e+02
<STATE> 4
<MEAN> 25
 1.739377e+01 -9.870321e+00 2.157214e+00 5.099203e+00 -5.219548e+00 -7.127965e+00 -7.463307e+00 -1.404327e-01 5.547455e+00 7.149599e-01 -5.915771e+00 8.316132e-02 -1.428049e+00 1.871031e+00 -7.212068e-01 4.307522e-01 9.754871e-01 2.489008e-01 -5.491478e-01 2.380772e-01 9.005503e-01 -2.154749e-01 3.259104e-01 5.795730e-01 -2.409960e+00
<VARIANCE> 25
 4.567846e+01 7.073257e+01 9.506287e+01 5.192392e+01 6.057128e+01 5.333550e+01 3.866293e+01 4.090657e+01 4.583737e+01 3.954455e+01 3.185832e+01 3.517333e+01 6.186193e+00 5.191206e+00 1.266279e+01 8.810720e+00 5.426016e+00 8.454770e+00 5.252967e+00 6.857259e+00 4.891685e+00 4.699187e+00 4.658471e+00 2.996758e+00 4.938735e+00
<GCONST> 1.154647e+02
<TRANSP> 5
 0.000000e+00 1.000000e+00 0.000000e+00 0.000000e+00 0.000000e+00
 0.000000e+00 9.028588e-01 9.714118e-02 0.000000e+00 0.000000e+00
 0.000000e+00 0.000000e+00 8.745822e-01 1.254178e-01 0.000000e+00
 0.000000e+00 0.000000e+00 0.000000e+00 8.900167e-01 1.099833e-01
 0.000000e+00 0.000000e+00 0.000000e+00 0.000000e+00 0.000000e+00
<ENDHMM>
~h "ey"
<BEGINHMM>
<NUMSTATES> 5
<STATE> 2
<MEAN> 25
 4.606141e+00 1.377067e+01 1.042333e+01 8.029181e-01 -8.397375e+00 2.893521e+00 2.219573e-01 -7.867202e-01 2.464262e+00 -1.910864e+00 3.880578e+00 -1.910706e-01 2.522110e+00 -1.760903e+00 3.412174e+00 -1.097020e+00 -3.400813e+00 -1.828841e+00 8.370206e-01 9.967934e-01 -2.546317e+00 8.393991e-01 1.155541e+00 -2.997444e-01 3.821580e+00
<VARIANCE> 25
 5.880466e+01 3.270413e+01 4.948304e+01 6.432049e+01 8.903603e+01 6.427104e+00 2.270377e+01 1.502568e+01 1.593165e+01 1.220148e+01 1.446707e+01 1.493155e+01 1.188122e+01 7.118118e+00 1.195960e+01 8.614054e+00 1.026445e+01 7.422074e+00 6.372212e+00 4.699836e+00 9.988278e+00 1.761990e+00 1.579809e+00 2.200259e+00 2.025385e+01
<GCONST> 1.083285e+02
<STATE> 3
<MEAN> 25
 9.901077e+00 6.842242e-01 2.038762e+01 -6.686345e+00 -1.582079e+01 -4.352730e+00 4.316328e+00 1.963786e+00 -1.377201e+01 2.723085e+00 5.194575e+00 1.145492e-01 1.239163e+00 -3.171644e+00 1.286662e+00 -1.204498e+00 -4.945717e-01 -1.623004e+00 -5.097838e-01 1.564279e-01 -1.510240e+00 7.213281e-01 -2.795070e-01 3.873067e-01 3.264875e+00
<VARIANCE> 25
 2.084165e+01 5.087823e+01 1.278639e+02 9.053664e+01 4.648949e+01 7.285381e+01 3.972314e+01 4.205435e+01 9.378241e+01 3.073247e+01 1.745837e+01 1.986245e+01 5.028336e+00 2.049387e+00 8.294566e+00 8.323674e+00 1.045802e+01 4.768492e+00 5.304191e+00 4.464452e+00 1.089793e+01 4.195434e+00 2.962574e+00 1.996709e+00 6.865576e+00
<GCONST> 1.128016e+02
<STATE> 4
<MEAN> 25
 1.801582e+01 -1.640797e+01 1.387993e+01 -3.244180e+00 -1.268977e+01 -8.583343e+00 -1.841569e+00 1.764888e+00 -5.243615e+00 2.247529e+00 -2.579016e+00 3.317418e+00 6.152356e-01 -1.042006e+00 -9.165623e-01 1.326522e-01 1.428707e-01 2.499782e-02 -3.299128e-01 1.901258e-01 1.127255e+00 -4.196845e-01 -5.185913e-01 1.790058e-01 6.954148e-01
<VARIANCE> 25
 1.876668e+01 2.669304e+01 7.022948e+01 1.258051e+02 5.810007e+01 3.646300e+01 2.416840e+01 4.589677e+01 8.110840e+01 5.039365e+01 3.097321e+01 1.899035e+01 9.400509e-01 1.302285e+00 1.755002e+00 2.729085e+00 2.395741e+00 4.002248e+00 2.633487e+00 2.835083e+00 3.416704e+00 2.862176e+00 1.570366e+00 9.920443e-01 1.798696e+00
<GCONST> 9.996282e+01
<TRANSP> 5
 0.000000e+00 1.000000e+00 0.000000e+00 0.000000e+00 0.000000e+00
 0.000000e+00 3.079121e-01 6.920879e-01 0.000000e+00 0.000000e+00
 0.000000e+00 0.000000e+00 8.052818e-01 1.947182e-01 0.000000e+00
 0.000000e+00 0.000000e+00 0.000000e+00 8.694981e-01 1.305019e-01
 0.000000e+00 0.000000e+00 0.000000e+00 0.000000e+00 0.000000e+00
<ENDHMM>
~h "ih"
<BEGINHMM>
<NUMSTATES> 5
<STATE> 2
<MEAN> 25
 -1.226399e+01 3.862009e+00 -6.725180e-01 -6.417720e-01 5.673413e-01 3.473058e+00 1.318802e+00 -2.732441e-01 8.322942e-01 -1.744046e+00 3.009437e+00 3.449656e+00 5.483639e-01 -1.828675e-01 -1.224394e-01 -3.016854e-01 -2.675563e-01 -3.064262e-01 -2.410988e-01 -9.929083e-03 -2.460613e-01 -1.739288e-01 -1.626718e-01 -3.120146e-01 4.993375e-01
<VARIANCE> 25
 4.617887e+01 1.734879e+01 1.413196e+01 3.187017e+01 1.479195e+01 2.919678e+01 1.673038e+01 1.482449e+01 1.422092e+01 1.437815e+01 1.343103e+01 1.184200e+01 3.142083e+00 1.217593e+00 1.309168e+00 2.117595e+00 1.971039e+00 2.474282e+00 1.931371e+00 1.726142e+00 1.686756e+00 1.416390e+00 1.375861e+00 1.316953e+00 5.928972e+00
<GCONST> 8.910961e+01
<STATE> 3
<MEAN> 25
 -1.087547e+01 2.428897e+00 -2.798558e+00 1.908635e+00 9.643261e-01 3.048775e+00 2.762601e+00 9.877380e-01 9.137559e-01 -2.044206e+00 3.158528e-01 9.190128e-01 3.020751e-01 -3.145992e-01 2.073913e-01 3.793051e-01 3.988416e-01 5.545561e-02 -2.615301e-02 -6.393145e-03 1.387267e-01 1.008868e-01 -2.936738e-01 -2.482135e-01 4.478869e-01
<VARIANCE> 25
 3.323992e+01 2.480929e+01 1.165889e+01 1.964177e+01 1.927645e+01 1.535715e+01 2.096359e+01 1.774229e+01 1.191928e+01 1.458391e+01 1.498698e+01 1.296839e+01 1.029202e+00 1.510445e+00 8.452163e-01 1.004350e+00 1.215548e+00 1.128852e+00 1.175455e+00 1.814883e+00 1.760634e+00 1.796101e+00 1.408923e+00 1.372465e+00 7.871452e-01
<GCONST> 8.305544e+01
<STATE> 4
<MEAN> 25
 -7.236919e+00 2.024103e+00 3.424650e-02 4.292873e+00 2.250445e+00 2.272599e+00 7.017339e-01 1.539981e+00 2.513852e+00 -8.059217e-01 6.649989e-01 3.581120e-01 1.221151e+00 -1.071691e+00 1.152668e+00 5.761123e-01 7.152668e-01 -7.257500e-01 -3.516480e-01 7.321825e-02 3.038779e-01 2.571536e-01 -2.254316e-01 -1.639891e-01 2.266689e+00
<VARIANCE> 25
 5.190320e+01 5.419758e+01 1.968770e+01 1.434886e+01 1.968508e+01 2.631790e+01 2.184807e+01 1.640174e+01 2.459049e+01 2.236028e+01 1.744924e+01 1.636500e+01 6.625774e+00 7.064119e+00 2.613690e+00 2.556314e+00 2.292279e+00 4.289452e+00 2.431661e+00 1.502014e+00 2.420055e+00 2.193651e+00 1.426558e+00 2.061277e+00 9.059581e+00
<GCONST> 9.790649e+01
<TRANSP> 5
 0.000000e+00 1.000000e+00 0.000000e+00 0.000000e+00 0.000000e+00
 0.000000e+00 5.218217e-01 4.781783e-01 0.000000e+00 0.000000e+00
 0.000000e+00 0.000000e+00 6.020270e-01 3.979730e-01 0.000000e+00
 0.000000e+00 0.000000e+00 0.000000e+00 5.413143e-01 4.586857e-01
 0.000000e+00 0.000000e+00 0.000000e+00 0.000000e+00 0.000000e+00
<ENDHMM>
~h "iy"
<BEGINHMM>
<NUMSTATES> 5
<STATE> 2
<MEAN> 25
 5.549622e+00 1.724773e+01 6.898284e+00 5.240260e+00 -4.979000e+00 -1.883522e+00 -3.841441e-01 -4.143242e+00 -2.245198e+00 -4.218987e+00 -2.020088e+00 -2.183090e+00 -1.923691e+00 -1.121804e+00 -4.405422e-01 6.811358e-01 1.239853e+00 6.829303e-01 -1.720846e-01 3.027666e-02 2.315044e-01 9.652758e-02 -3.869297e-02 5.275381e-02 -1.134525e+00
<VARIANCE> 25
 5.536155e+01 3.342094e+01 2.444194e+01 1.187664e+01 2.019886e+01 1.750628e+01 1.481020e+01 2.524339e+01 1.491401e+01 1.754276e+01 2.019574e+01 1.324135e+01 1.362358e+00 1.854118e+00 2.423491e+00 1.269296e+00 1.139557e+00 1.597064e+00 1.434386e+00 2.322537e+00 1.648928e+00 1.377996e+00 1.387321e+00 1.520818e+00 3.690603e-01
<GCONST> 8.651178e+01
<STATE> 3
<MEAN> 25
 -6.414944e+00 9.148533e+00 7.181064e-01 7.749043e+00 1.521614e+00 2.741272e+00 7.990518e-01 -4.022958e+00 -1.884374e+00 -3.615685e+00 -3.257498e-02 9.695058e-01 -9.515241e-01 -7.874046e-01 -6.515446e-01 -2.252976e-01 2.797384e-01 3.347645e-01 3.158490e-01 4.028513e-01 1.345749e-01 -5.410517e-02 1.397835e-01 1.098127e-01 -5.042070e-01
<VARIANCE> 25
 1.275568e+01 1.549135e+01 1.160436e+01 1.861392e+01 8.303333e+00 1.711894e+01 1.011893e+01 1.655746e+01 1.571250e+01 1.732502e+01 2.220727e+01 3.065028e+01 7.906688e-01 1.250396e+00 1.109892e+00 1.089965e+00 8.671280e-01 6.498895e-01 1.176632e+00 1.352516e+00 1.504184e+00 1.957242e+00 9.117650e-01 1.557300e+00 1.546476e-01
<GCONST> 7.845007e+01
<STATE> 4
<MEAN> 25
 -8.689801e+00 5.517856e+00 5.438238e-01 7.302074e+00 2.029118e+00 2.445636e+00 2.149654e+00 -1.384705e+00 -2.280676e+00 -3.920413e+00 -1.026659e+00 -5.042511e-01 -1.666610e-01 -7.339931e-02 -6.672113e-02 -7.182302e-02 -3.338981e-02 -4.440875e-02 9.640557e-02 1.502615e-01 1.562609e-01 1.236721e-01 1.368144e-03 -4.048214e-02 -9.088376e-02
<VARIANCE> 25
 5.755558e+00 8.020185e+00 1.119421e+01 1.849448e+01 1.061127e+01 1.092772e+01 1.044189e+01 1.229873e+01 1.239249e+01 1.550985e+01 1.491039e+01 1.241413e+01 2.268861e-01 5.674713e-01 8.646840e-01 8.752371e-01 1.019882e+00 8.931069e-01 9.036667e-01 8.197964e-01 1.281612e+00 1.323259e+00 1.609134e+00 1.624410e+00 6.389248e-02
<GCONST> 7.121653e+01
<TRANSP> 5
 0.000000e+00 1.000000e+00 0.000000e+00 0.000000e+00 0.000000e+00
 0.000000e+00 7.899840e-01 2.100160e-01 0.000000e+00 0.000000e+00
 0.000000e+00 0.000000e+00 6.208330e-01 3.791670e-01 0.000000e+00
 0.000000e+00 0.000000e+00 0.000000e+00 8.714705e-01 1.285294e-01
 0.000000e+00 0.000000e+00 0.000000e+00 0.000000e+00 0.000000e+00
<ENDHMM>
~h "ng"
<BEGINHMM>
<NUMSTATES> 5
<STATE> 2
<MEAN> 25
 1.779741e+01 -2.911550e+00 3.883550e+00 -1.066094e+00 -1.144207e+01 -1.667258e+00 1.381790e+01 -2.898356e+00 -1.751447e+01 2.599949e+00 9.400226e-01 -3.170716e+00 1.180514e+00 4.563801e+00 -3.463425e+00 9.157321e-01 1.469276e+00 1.598679e+00 -1.635544e+00 -3.703704e+00 1.422670e+00 -1.842773e-01 3.930566e-01 9.934602e-01 -2.617361e+00
<VARIANCE> 25
 1.066722e+01 5.613390e+01 8.621880e+01 6.762161e+01 7.516996e+01 3.417333e+01 6.433823e+01 9.692169e+01 4.736728e+01 3.025513e+01 2.373532e+01 2.456955e+01 8.555542e-01 3.001030e+00 5.840113e+00 1.128344e+01 7.087179e+00 4.523828e+00 1.422296e+01 7.634083e+00 6.889928e+00 4.204291e+00 3.061784e+00 2.454922e+00 7.726962e-01
<GCONST> 1.096495e+02
<STATE> 3
<MEAN> 25
 1.965440e+01 9.560461e+00 -3.874457e+00 -3.838825e+00 -1.768028e+00 4.474662e-01 -1.274283e+00 -7.846795e+00 -7.530805e+00 -5.261233e-01 9.725122e-02 -6.773668e-01 -7.021617e-01 -1.333507e+00 6.673789e-01 -1.340888e+00 2.467120e+00 -1.095044e+00 -3.464300e+00 1.761183e+00 1.930543e+00 3.242917e-01 -1.128680e+00 -5.592209e-01 9.497573e-01
<VARIANCE> 25
 9.441972e+00 4.704162e+01 4.783258e+01 4.823820e+01 9.499271e+01 6.370188e+01 8.577763e+01 8.092728e+01 3.929696e+01 2.421996e+01 3.726806e+01 2.606921e+01 9.295794e-01 1.193482e+01 5.437515e+00 9.450253e+00 9.536385e+00 5.579946e+00 8.416737e+00 8.611284e+00 3.736242e+00 3.703616e+00 3.909239e+00 2.678653e+00 3.764116e+00
<GCONST> 1.119825e+02
<STATE> 4
<MEAN> 25
 1.617195e+01 -8.787829e+00 2.200176e+00 -2.179310e+01 1.021022e+01 -5.389636e-01 -1.837340e+01 3.371502e+00 8.292544e-01 9.583155e+00 -6.231507e+00 -4.670918e+00 2.913501e-01 -1.035884e+00 7.039511e-02 -1.439049e+00 -1.174256e-01 1.145365e+00 -8.545327e-01 -5.920116e-01 6.153364e-01 9.646137e-01 -1.898997e-01 9.304317e-02 8.993609e-01
<VARIANCE> 25
 7.176170e+00 1.502829e+01 3.471386e+01 8.993909e+01 7.044332e+01 5.702567e+01 3.737067e+01 8.216063e+01 3.040066e+01 4.645050e+01 3.677880e+01 2.200111e+01 5.162205e-01 5.147176e+00 3.029652e+00 8.692437e+00 7.262860e+00 6.530496e+00 4.680367e+00 9.196710e+00 3.073355e+00 2.690134e+00 3.739519e+00 2.187209e+00 2.597959e+00
<GCONST> 1.059889e+02
<TRANSP> 5
 0.000000e+00 1.000000e+00 0.000000e+00 0.000000e+00 0.000000e+00
 0.000000e+00 6.984531e-01 3.015468e-01 0.000000e+00 0.000000e+00
 0.000000e+00 0.000000e+00 8.210356e-01 1.789645e-01 0.000000e+00
 0.000000e+00 0.000000e+00 0.000000e+00 8.104680e-01 1.895320e-01
 0.000000e+00 0.000000e+00 0.000000e+00 0.000000e+00 0.000000e+00
<ENDHMM>
~h "sp"
<BEGINHMM>
<NUMSTATES> 3
<STATE> 2
~s "silst"
<TRANSP> 3
 0.000000e+00 8.009251e-03 9.919907e-01
 0.000000e+00 5.247988e-01 4.752012e-01
 0.000000e+00 0.000000e+00 0.000000e+00
<ENDHMM>
~h "th"
<BEGINHMM>
<NUMSTATES> 5
<STATE> 2
<MEAN> 25
 1.734082e+01 -1.076911e+01 1.768104e+01 4.773140e+00 -2.159531e+01 -5.437371e+00 3.195876e+00 -4.819687e+00 -9.635081e+00 -3.804772e+00 9.917649e-01 1.145370e+00 -7.817146e-02 1.772091e+00 9.020127e-01 4.005896e-01 -2.072977e+00 8.389567e-02 1.934121e+00 -1.012383e+00 -2.138817e+00 5.996476e-01 2.880982e-01 -3.894291e-01 -1.130782e+00
<VARIANCE> 25
 9.569315e+00 5.068115e+01 3.365390e+01 6.041512e+01 5.963783e+01 5.306458e+01 1.056395e+02 3.321644e+01 1.097871e+02 2.880968e+01 3.427885e+01 4.184508e+01 1.813004e+00 5.364683e+00 3.985576e+00 7.314465e+00 4.443237e+00 7.987485e+00 5.584092e+00 5.110002e+00 6.061008e+00 3.523610e+00 4.294374e+00 5.844757e+00 1.943036e+00
<GCONST> 1.108152e+02
<STATE> 3
<MEAN> 25
 1.314139e+01 1.298006e+01 1.749850e+01 2.109621e+00 -2.481041e+01 -8.792874e+00 9.507402e+00 -7.330483e+00 -1.279066e+01 3.326756e+00 -1.689903e-02 -2.851471e+00 -1.491237e+00 3.504788e+00 -1.739856e+00 -3.715735e-01 3.606203e+00 -4.253090e-01 -3.517097e+00 1.201253e+00 3.179549e+00 1.620167e-02 1.248448e-01 -6.654002e-02 -2.915716e+00
<VARIANCE> 25
 1.280673e+01 4.124266e+01 2.687327e+01 1.403276e+02 4.889952e+01 4.726226e+01 8.199377e+01 6.880517e+01 4.710275e+01 3.363931e+01 3.233170e+01 1.753379e+01 8.530380e-01 2.550671e+00 4.516008e+00 6.602743e+00 5.759027e+00 3.648358e+00 5.698985e+00 2.985992e+00 2.962982e+00 4.742077e+00 2.718396e+00 2.293212e+00 3.803806e-01
<GCONST> 1.041010e+02
<STATE> 4
<MEAN> 25
 2.875024e+00 1.319225e+01 1.065422e+01 1.614353e-01 -1.358045e+01 -3.112240e+00 5.489157e-01 -6.915010e+00 -3.889990e+00 1.615443e+00 -1.677394e+00 -2.069381e+00 -2.657732e+00 -1.835903e+00 -2.239457e+00 -1.448371e-01 1.552763e+00 1.527830e+00 3.702941e-01 -5.169063e-02 3.853769e-01 -8.210902e-01 -3.725562e-01 2.883230e-01 -1.717905e+00
<VARIANCE> 25
 3.287503e+01 4.529501e+01 5.305478e+01 1.747411e+01 1.768638e+01 2.220847e+01 2.480383e+01 1.934076e+01 1.557597e+01 1.251083e+01 2.278160e+01 1.246951e+01 1.661550e+00 1.238508e+00 2.248768e+00 3.567184e+00 5.202017e+00 1.590396e+00 5.489837e+00 6.856343e-01 3.779061e+00 1.019035e+00 2.703722e+00 6.072955e-01 8.396131e-01
<GCONST> 9.106465e+01
<TRANSP> 5
 0.000000e+00 1.000000e+00 0.000000e+00 0.000000e+00 0.000000e+00
 0.000000e+00 8.957239e-01 1.042761e-01 0.000000e+00 0.000000e+00
 0.000000e+00 0.000000e+00 7.721186e-01 2.278814e-01 0.000000e+00
 0.000000e+00 0.000000e+00 0.000000e+00 7.079802e-01 2.920199e-01
 0.000000e+00 0.000000e+00 0.000000e+00 0.000000e+00 0.000000e+00
<ENDHMM>
~h "uw"
<BEGINHMM>
<NUMSTATES> 5
<STATE> 2
<MEAN> 25
 -3.246269e+00 7.366385e+00 -4.107189e-01 1.195054e+00 -1.873271e+00 2.116305e+00 2.223865e+00 -5.235763e-01 -4.047319e+00 -5.432652e+00 -2.859736e-01 5.755201e-02 -1.562860e+00 -1.089897e+00 -4.763036e-02 7.940468e-01 5.112080e-01 1.413517e-01 3.404404e-01 3.719945e-01 4.270708e-02 -2.353284e-01 -6.286202e-01 -5.718193e-01 -7.655089e-01
<VARIANCE> 25
 2.747087e+01 1.901132e+01 2.177803e+01 3.257851e+01 1.677531e+01 1.675672e+01 2.067095e+01 2.032035e+01 2.438739e+01 2.027097e+01 1.892587e+01 2.694381e+01 1.380299e+00 1.486675e+00 2.042473e+00 1.460165e+00 1.309912e+00 1.602590e+00 1.841836e+00 1.936807e+00 1.450616e+00 1.590070e+00 1.919458e+00 1.451706e+00 4.163401e-01
<GCONST> 8.769549e+01
<STATE> 3
<MEAN> 25
 -7.049227e+00 3.548815e+00 2.005702e+00 6.196439e+00 5.534239e-01 4.001278e-01 1.145862e+00 -1.760788e-01 -3.248930e+00 -3.513664e+00 -1.174405e+00 -2.134719e+00 -1.458572e-01 -4.454939e-02 1.071851e-01 1.689491e-01 8.636973e-02 5.412650e-02 5.331008e-02 4.021771e-02 1.634544e-01 9.969412e-02 -2.730718e-02 6.008087e-02 -7.658960e-02
<VARIANCE> 25
 5.850029e+00 7.688564e+00 1.341664e+01 1.980204e+01 1.697869e+01 1.278659e+01 1.364953e+01 1.870632e+01 1.410790e+01 1.573638e+01 1.156671e+01 1.201252e+01 1.985434e-01 3.732862e-01 5.284234e-01 6.327500e-01 9.618479e-01 1.143043e+00 1.311696e+00 1.412363e+00 1.306095e+00 1.433260e+00 1.224481e+00 1.124532e+00 4.881844e-02
<GCONST> 7.153602e+01
<STATE> 4
<MEAN> 25
 -9.737577e+00 3.642638e+00 -2.360016e-02 1.644515e+00 1.987833e+00 1.463539e+00 1.760570e+00 1.999837e+00 5.883842e-01 -1.932789e+00 -6.416557e-01 9.342991e-01 2.548408e-02 -5.518564e-02 1.126725e-01 -7.085431e-02 3.007101e-01 -6.634912e-01 1.156590e-02 4.503546e-01 1.144743e+00 9.073126e-01 1.155332e-01 3.325578e-01 3.444518e-01
<VARIANCE> 25
 9.166509e+00 5.645270e+00 9.140086e+00 3.574284e+01 2.656378e+01 3.926205e+01 1.870720e+01 2.627852e+01 1.501443e+01 2.226933e+01 1.538173e+01 1.574211e+01 1.033644e+00 1.692321e+00 1.008924e+00 1.192608e+00 1.431413e+00 2.217669e+00 2.344043e+00 2.671771e+00 1.927588e+00 2.108628e+00 1.547698e+00 2.202741e+00 8.428175e-01
<GCONST> 8.632326e+01
<TRANSP> 5
 0.000000e+00 1.000000e+00 0.000000e+00 0.000000e+00 0.000000e+00
 0.000000e+00 7.329262e-01 2.670739e-01 0.000000e+00 0.000000e+00
 0.000000e+00 0.000000e+00 9.026725e-01 9.732755e-02 0.000000e+00
 0.000000e+00 0.000000e+00 0.000000e+00 2.895069e-01 7.104931e-01
 0.000000e+00 0.000000e+00 0.000000e+00 0.000000e+00 0.000000e+00
<ENDHMM>
~h "sil"
<BEGINHMM>
<NUMSTATES> 5
<STATE> 2
<MEAN> 25
 -1.077998e+01 4.689102e+00 -1.866850e+00 3.653903e+00 4.833751e-01 2.619449e+00 2.122408e+00 -2.504344e-02 8.138189e-01 -2.000475e+00 5.715652e-01 5.094243e-01 -2.383018e-02 -8.785057e-04 1.739327e-02 2.292069e-02 1.980685e-02 1.826197e-02 3.977158e-02 2.266086e-02 -1.343555e-02 -1.805683e-02 3.205059e-04 1.886474e-02 -1.420564e-02
<VARIANCE> 25
 7.204584e+00 5.163322e+00 9.511404e+00 1.409521e+01 1.053319e+01 1.313183e+01 1.546297e+01 1.571176e+01 1.370701e+01 1.200713e+01 1.194173e+01 1.289212e+01 1.144128e-01 2.380892e-01 4.113417e-01 6.381173e-01 7.940014e-01 9.262605e-01 1.091032e+00 1.199168e+00 1.184726e+00 1.209575e+00 1.201230e+00 1.172033e+00 4.405892e-02
<GCONST> 6.762454e+01
<STATE> 3
~s "silst"
<STATE> 4
<MEAN> 25
 -8.267756e+00 4.508812e+00 8.306924e-01 3.719179e+00 1.467641e+00 2.647518e+00 2.036146e+00 4.324264e-01 -1.712450e-01 -2.416662e+00 3.620515e-02 8.239300e-01 3.693801e-01 4.055355e-02 3.644096e-02 -6.356245e-02 -6.167782e-02 -2.204623e-01 -2.969468e-01 -7.053020e-02 -4.988736e-02 -2.247273e-02 -1.436201e-01 -2.055867e-01 2.832392e-01
<VARIANCE> 25
 4.187136e+01 3.335120e+01 2.509625e+01 2.515192e+01 1.960473e+01 2.326215e+01 2.182211e+01 2.108898e+01 1.973847e+01 1.879730e+01 1.582259e+01 1.332324e+01 2.607436e+00 2.583548e+00 1.715028e+00 1.867884e+00 2.094969e+00 2.540964e+00 1.855578e+00 1.684031e+00 1.677256e+00 1.660676e+00 1.484778e+00 1.215265e+00 4.089808e+00
<GCONST> 9.206412e+01
<TRANSP> 5
 0.000000e+00 1.000000e+00 0.000000e+00 0.000000e+00 0.000000e+00
 0.000000e+00 9.393868e-01 8.514470e-03 5.209867e-02 0.000000e+00
 0.000000e+00 0.000000e+00 9.585193e-01 4.148061e-02 0.000000e+00
 0.000000e+00 6.743348e-02 0.000000e+00 7.185956e-01 2.139709e-01
 0.000000e+00 0.000000e+00 0.000000e+00 0.000000e+00 0.000000e+00
<ENDHMM>
