~o
<STREAMINFO> 1 25
<VECSIZE> 25<NULLD><MFCC_D_N_Z_0><DIAGC>
~h "b"
<BEGINHMM>
<NUMSTATES> 5
<STATE> 2
<MEAN> 25
 2.073345e+01 9.333143e-01 -4.462973e+00 -2.566976e+00 -1.449273e+00 3.861241e+00 -5.571639e+00 -1.787376e+01 -4.048210e+00 6.182163e+00 -3.265097e+00 -3.236034e+00 -2.771592e-02 5.897214e-01 -1.917109e-01 -2.361742e-01 1.829523e-01 2.750673e-01 3.515555e-01 -1.948917e-01 -2.007017e-01 2.114151e-01 2.082288e-01 8.813365e-02 -2.617849e-01
<VARIANCE> 25
 1.065435e+01 1.042245e+02 4.397005e+01 7.064041e+01 9.500662e+01 4.755065e+01 6.191985e+01 6.424104e+01 4.041506e+01 4.236523e+01 4.246515e+01 2.943034e+01 8.521113e-01 7.095075e+00 5.114551e+00 4.668406e+00 7.325617e+00 4.419020e+00 3.871356e+00 5.864287e+00 2.943975e+00 3.473613e+00 3.242249e+00 1.760613e+00 2.843454e+00
<GCONST> 1.089650e+02
<STATE> 3
<MEAN> 25
 2.079236e+01 9.053010e+00 -7.763474e+00 -9.844059e+00 -2.795323e-01 4.952829e+00 -1.278963e+00 -1.417405e+01 -8.307537e+00 4.110226e+00 1.564895e+00 -1.606212e-01 -1.078933e+00 1.663197e+00 7.750133e-02 2.801292e-02 1.754618e-01 1.815567e-01 6.058317e-01 1.687168e+00 -8.039661e-02 -1.223072e+00 1.146236e+00 7.103530e-01 -1.671688e+00
<VARIANCE> 25
 1.105638e+01 3.722467e+01 2.754433e+01 1.069695e+02 6.538206e+01 2.922321e+01 4.457521e+01 8.957370e+01 3.567567e+01 4.350418e+01 2.792989e+01 1.536905e+01 1.871084e+00 2.379031e+00 2.637655e+00 3.549545e+00 4.148026e+00 3.394828e+00 3.884419e+00 6.286908e+00 2.994361e+00 2.110418e+00 3.127231e+00 1.415044e+00 1.010994e+00
<GCONST> 1.021242e+02
<STATE> 4
<MEAN> 25
 1.751965e+01 1.337898e+01 -7.400579e+00 -9.858179e+00 -1.546883e+00 6.209776e+00 8.870962e-01 -9.051679e+00 -8.591405e+00 -1.405440e+00 2.946747e+00 9.909462e-01 -2.263622e+00 5.760127e-01 1.186533e+00 1.218319e+00 -1.839789e-01 -3.007615e-02 4.440338e-01 1.631705e+00 8.444257e-01 -1.243520e+00 6.824990e-02 1.702278e-01 -2.024152e+00
<VARIANCE> 25
 2.718311e+01 1.952599e+01 2.070917e+01 5.889587e+01 5.196460e+01 2.519325e+01 2.424925e+01 3.608168e+01 2.871824e+01 3.949527e+01 2.019352e+01 1.477999e+01 2.153516e+00 2.423500e+00 2.815550e+00 3.205098e+00 3.422885e+00 2.592020e+00 1.712116e+00 3.705070e+00 2.216207e+00 2.014197e+00 1.832123e+00 1.212013e+00 4.611249e-01
<GCONST> 9.541354e+01
<TRANSP> 5
 0.000000e+00 1.000000e+00 0.000000e+00 0.000000e+00 0.000000e+00
 0.000000e+00 9.307902e-01 6.920975e-02 0.000000e+00 0.000000e+00
 0.000000e+00 0.000000e+00 6.040515e-01 3.959485e-01 0.000000e+00
 0.000000e+00 0.000000e+00 0.000000e+00 6.747962e-01 3.252038e-01
 0.000000e+00 0.000000e+00 0.000000e+00 0.000000e+00 0.000000e+00
<ENDHMM>
~h "d"
<BEGINHMM>
<NUMSTATES> 5
<STATE> 2
<MEAN> 25
 -1.638226e+01 2.194692e+00 -6.141803e-01 6.376593e+00 1.322412e+00 3.665748e+00 4.463240e+00 4.094453e+00 4.977843e+00 1.547551e+00 4.660060e+00 3.719620e+00 -5.075657e-02 -4.647838e-03 2.747683e-02 6.920484e-02 2.361356e-02 1.954393e-02 -6.207326e-02 -7.170551e-02 1.060199e-02 1.841076e-02 2.909350e-02 -2.917274e-02 -4.105179e-02
<VARIANCE> 25
 8.681800e+00 5.748417e+00 5.582720e+00 1.213358e+01 8.496434e+00 8.325508e+00 1.199078e+01 1.552292e+01 1.245595e+01 1.135322e+01 1.100995e+01 9.718361e+00 9.347475e-02 1.831804e-01 2.325830e-01 4.081630e-01 5.060973e-01 5.149561e-01 8.501649e-01 1.142415e+00 1.146526e+00 1.124819e+00 8.628808e-01 1.005476e+00 7.288209e-02
<GCONST> 6.288029e+01
<STATE> 3
<MEAN> 25
 -1.377409e+01 4.312010e+00 -9.191660e-01 3.834805e+00 1.258470e+00 2.808686e+00 1.476676e+00 2.007326e+00 2.350126e+00 -9.059178e-01 2.150848e+00 2.041285e+00 -3.921140e-03 2.788821e-02 3.998949e-02 2.411777e-02 5.121694e-02 5.025664e-02 8.379333e-04 -2.186767e-01 -1.504121e-01 -9.626125e-02 -3.299441e-02 -2.665152e-02 -7.453585e-03
<VARIANCE> 25
 1.070848e+01 4.841386e+00 8.151633e+00 1.992172e+01 9.251554e+00 1.126915e+01 1.780683e+01 1.746979e+01 1.897837e+01 1.355694e+01 1.327300e+01 1.047066e+01 1.355855e-01 2.157170e-01 2.907795e-01 5.499379e-01 7.233399e-01 9.251579e-01 1.281485e+00 9.586906e-01 1.108957e+00 9.769316e-01 1.138735e+00 1.034111e+00 1.345764e-01
<GCONST> 6.853361e+01
<STATE> 4
<MEAN> 25
 -1.110759e+01 4.671785e+00 7.864377e-01 2.939723e+00 2.006978e+00 1.716559e+00 9.805777e-01 1.189598e+00 4.557350e-01 -2.176674e+00 3.046209e-01 9.503088e-01 2.670468e-01 4.361396e-02 5.136539e-02 -2.613541e-02 -4.258597e-02 -7.060106e-02 -8.377390e-02 -6.038755e-02 -7.094768e-02 -2.991107e-02 -1.302199e-01 -8.035482e-02 2.107101e-01
<VARIANCE> 25
 1.994805e+01 7.435969e+00 1.482482e+01 2.692734e+01 1.548877e+01 1.237972e+01 2.067536e+01 1.812848e+01 1.862510e+01 1.129520e+01 1.545954e+01 1.603907e+01 1.586149e+00 7.841491e-01 9.326487e-01 1.396157e+00 1.090358e+00 1.453506e+00 1.229958e+00 1.329293e+00 1.634097e+00 1.056488e+00 1.372043e+00 1.447495e+00 2.764693e+00
<GCONST> 8.266393e+01
<TRANSP> 5
 0.000000e+00 1.000000e+00 0.000000e+00 0.000000e+00 0.000000e+00
 0.000000e+00 9.272180e-01 7.278194e-02 0.000000e+00 0.000000e+00
 0.000000e+00 0.000000e+00 8.342232e-01 1.657768e-01 0.000000e+00
 0.000000e+00 0.000000e+00 0.000000e+00 8.801365e-01 1.198635e-01
 0.000000e+00 0.000000e+00 0.000000e+00 0.000000e+00 0.000000e+00
<ENDHMM>
~h "f"
<BEGINHMM>
<NUMSTATES> 5
<STATE> 2
<MEAN> 25
 -1.906808e+01 3.307862e+00 -1.307030e+00 4.782403e+00 1.705137e+00 5.930247e+00 5.621510e+00 5.049452e+00 5.709517e+00 1.171922e+00 5.555966e+00 3.936186e+00 -3.472202e-03 -1.164499e-02 1.484017e-02 3.708188e-02 3.109471e-02 -2.992876e-03 -3.963257e-02 -3.327794e-02 2.202173e-02 2.948921e-02 1.926690e-02 -6.242070e-03 -2.245091e-03
<VARIANCE> 25
 4.753915e+00 5.910962e+00 6.241935e+00 1.652815e+01 9.501638e+00 9.498814e+00 9.369310e+00 1.613065e+01 1.183935e+01 1.021530e+01 8.098283e+00 9.082360e+00 4.253944e-02 1.488859e-01 2.060679e-01 3.313280e-01 4.605168e-01 4.635910e-01 6.891187e-01 1.068272e+00 1.060732e+00 1.117259e+00 8.336620e-01 1.026087e+00 4.115048e-02
<GCONST> 5.975975e+01
<STATE> 3
<MEAN> 25
 -1.767388e+01 4.175377e+00 -1.253033e+00 4.150352e+00 2.171610e+00 5.962935e+00 4.459359e+00 3.713165e+00 4.457237e+00 6.303734e-02 4.368013e+00 3.093946e+00 1.469448e-01 -3.078410e-02 7.710762e-02 -4.522972e-02 5.590782e-02 8.622663e-02 5.174965e-02 -3.677169e-01 -5.241628e-01 -3.230462e-01 -2.223592e-01 7.692608e-02 1.400480e-01
<VARIANCE> 25
 1.267255e+01 8.418194e+00 8.318891e+00 1.687403e+01 1.105605e+01 1.088743e+01 1.350469e+01 2.007679e+01 1.735987e+01 9.990013e+00 7.487424e+00 9.211771e+00 2.652764e-01 2.379138e-01 2.332474e-01 3.999650e-01 7.083453e-01 5.464497e-01 1.024405e+00 9.896867e-01 1.130529e+00 9.401180e-01 8.254244e-01 8.095662e-01 3.014343e-01
<GCONST> 6.773206e+01
<STATE> 4
<MEAN> 25
 -1.275539e+01 4.650713e+00 -4.422021e-02 5.687809e-02 2.136097e+00 3.327145e+00 2.189204e+00 2.633301e+00 3.552380e-01 -7.641661e-01 1.818873e+00 2.318716e+00 2.034476e-01 -4.854184e-03 2.210353e-02 -6.863969e-02 -7.047724e-02 -1.668561e-01 -9.721267e-02 -9.260889e-02 -1.088222e-01 -7.792703e-02 -1.376170e-01 -4.312891e-02 1.957294e-01
<VARIANCE> 25
 1.097039e+01 8.812486e+00 7.635697e+00 1.773095e+01 1.355637e+01 1.428150e+01 1.527990e+01 2.117417e+01 1.526298e+01 9.997177e+00 1.276752e+01 1.023569e+01 1.040495e+00 5.339893e-01 7.613410e-01 9.580003e-01 1.397565e+00 1.690185e+00 1.410423e+00 1.350056e+00 1.549197e+00 9.914178e-01 1.183660e+00 1.230721e+00 2.532547e+00
<GCONST> 7.870700e+01
<TRANSP> 5
 0.000000e+00 1.000000e+00 0.000000e+00 0.000000e+00 0.000000e+00
 0.000000e+00 9.452924e-01 5.470753e-02 0.000000e+00 0.000000e+00
 0.000000e+00 0.000000e+00 5.337362e-01 4.662638e-01 0.000000e+00
 0.000000e+00 0.000000e+00 0.000000e+00 9.043409e-01 9.565914e-02
 0.000000e+00 0.000000e+00 0.000000e+00 0.000000e+00 0.000000e+00
<ENDHMM>
~h "g"
<BEGINHMM>
<NUMSTATES> 5
<STATE> 2
<MEAN> 25
 1.695358e+01 -6.763410e+00 1.974355e+00 2.080297e+00 -5.065302e+00 -8.148231e+00 -4.543514e+00 -2.403205e+00 -3.418048e+00 1.718051e+00 -1.491040e+00 -1.558766e+00 -7.149598e-02 1.985451e-01 5.347458e-01 2.260742e-01 -5.967325e-01 -9.594627e-02 4.913555e-01 1.324681e-01 -5.600238e-01 -4.249428e-01 3.316376e-01 1.235442e-01 -1.083613e-01
<VARIANCE> 25
 3.585851e+01 1.556156e+02 1.192388e+02 1.293832e+02 1.394273e+02 7.891917e+01 8.414497e+01 7.681709e+01 7.730695e+01 5.386606e+01 3.819466e+01 2.902164e+01 3.304618e+00 1.941998e+01 1.179365e+01 1.112553e+01 9.269170e+00 5.009168e+00 7.774750e+00 7.238986e+00 7.045421e+00 6.578053e+00 3.409535e+00 3.475098e+00 7.546047e+00
<GCONST> 1.228789e+02
<STATE> 3
<MEAN> 25
 1.718396e+01 -1.101479e+00 2.501320e+00 -1.296312e+00 -6.369944e+00 -3.673484e+00 -2.802548e+00 -5.279053e+00 -5.278952e+00 3.956859e-01 5.385733e-02 -1.170849e+00 -3.560302e-01 1.997937e+00 -2.786724e-01 4.486141e-01 -8.263997e-02 3.304203e-01 3.940752e-01 -1.240877e-01 1.366197e-01 -9.041800e-01 2.996331e-01 -4.757550e-02 -1.511151e+00
<VARIANCE> 25
 3.680600e+01 1.463772e+02 1.146179e+02 1.244743e+02 1.244571e+02 5.804334e+01 1.155366e+02 7.492940e+01 7.369831e+01 5.811890e+01 2.925733e+01 3.221497e+01 2.096077e+00 1.192676e+01 8.231693e+00 9.784454e+00 7.276389e+00 3.496111e+00 8.666994e+00 6.914102e+00 5.440394e+00 5.669470e+00 3.107286e+00 3.089101e+00 5.949685e+00
<GCONST> 1.196777e+02
<STATE> 4
<MEAN> 25
 1.505344e+01 5.706887e+00 1.563207e+00 -2.565060e+00 -4.477481e+00 -1.785999e+00 -3.979016e+00 -5.971442e+00 -3.357320e+00 -5.593953e-01 5.286950e-01 -2.162514e+00 -5.649194e-01 1.009183e+00 1.249212e-01 -2.178132e-01 1.570273e-01 2.516394e-01 -1.839250e-01 3.547686e-01 6.817595e-01 -7.182810e-02 1.137449e-01 -1.140683e-01 -8.873072e-01
<VARIANCE> 25
 5.778239e+01 1.652938e+02 9.983260e+01 1.056539e+02 8.507467e+01 4.626003e+01 1.002301e+02 5.171995e+01 5.638791e+01 5.295927e+01 2.901543e+01 2.534731e+01 2.694275e+00 1.071581e+01 6.777739e+00 7.592809e+00 5.895889e+00 3.285040e+00 7.010159e+00 5.517382e+00 5.205242e+00 5.160949e+00 2.952715e+00 2.566408e+00 6.150014e+00
<GCONST> 1.168634e+02
<TRANSP> 5
 0.000000e+00 1.000000e+00 0.000000e+00 0.000000e+00 0.000000e+00
 0.000000e+00 8.286752e-01 1.713248e-01 0.000000e+00 0.000000e+00
 0.000000e+00 0.000000e+00 6.213892e-01 3.786109e-01 0.000000e+00
 0.000000e+00 0.000000e+00 0.000000e+00 6.610577e-01 3.389423e-01
 0.000000e+00 0.000000e+00 0.000000e+00 0.000000e+00 0.000000e+00
<ENDHMM>
~h "k"
<BEGINHMM>
<NUMSTATES> 5
<STATE> 2
<MEAN> 25
 9.025433e+00 -4.988127e+00 -1.075680e+00 -9.324493e+00 8.643884e+00 -3.322337e+00 -9.247935e+00 1.583146e+00 2.063182e+00 4.021964e+00 -2.395358e+00 -3.088006e-01 3.074691e-02 2.289667e-01 -5.404956e-01 -5.204578e-01 2.283575e-01 8.174689e-01 -2.251830e-01 -1.043261e-01 -3.237378e-01 1.046653e-01 3.956784e-01 -3.394530e-02 -3.318834e-01
<VARIANCE> 25
 1.897422e+02 7.238806e+01 6.985015e+01 1.433643e+02 1.070824e+02 7.161497e+01 7.407131e+01 5.560336e+01 6.720509e+01 7.282059e+01 4.295145e+01 3.606904e+01 1.239781e+01 7.658497e+00 7.060203e+00 8.203845e+00 7.451643e+00 6.336915e+00 7.914634e+00 5.628788e+00 5.952551e+00 5.052999e+00 4.167729e+00 3.381419e+00 1.083787e+01
<GCONST> 1.224922e+02
<STATE> 3
<MEAN> 25
 1.029778e+01 -4.605395e+00 -3.947044e+00 -9.961622e+00 8.593945e+00 -6.587296e-01 -8.828850e+00 1.132354e+00 4.302095e-01 4.255511e+00 -8.537198e-01 -8.039259e-01 9.244054e-01 1.617757e-01 -7.155629e-01 -2.402845e-01 -2.441511e-01 4.594763e-01 3.380345e-01 -4.204426e-01 -6.556696e-01 1.931709e-01 3.397137e-01 -3.422603e-01 1.000731e-01
<VARIANCE> 25
 1.664026e+02 7.580447e+01 7.573627e+01 1.441972e+02 1.091113e+02 7.185314e+01 8.030403e+01 6.579548e+01 7.341908e+01 6.721397e+01 5.109365e+01 3.789281e+01 1.174912e+01 7.885056e+00 7.829103e+00 9.570315e+00 8.740943e+00 6.570575e+00 8.291370e+00 6.415673e+00 6.472555e+00 4.811789e+00 4.408947e+00 3.563175e+00 1.285410e+01
<GCONST> 1.239162e+02
<STATE> 4
<MEAN> 25
 1.362015e+01 -4.761524e+00 -4.914698e+00 -7.949162e+00 3.451871e+00 -6.796525e-01 -4.900554e+00 -2.806820e+00 -1.222625e+00 4.440178e+00 -4.121622e-01 -2.541310e+00 4.360993e-01 2.672378e-02 1.005849e-02 5.930167e-02 -3.200586e-01 -4.245971e-02 1.634879e-01 -2.975653e-01 -1.943766e-01 -4.885959e-02 1.307672e-01 -1.122418e-01 2.677587e-01
<VARIANCE> 25
 1.602823e+02 8.587541e+01 7.111973e+01 9.495760e+01 1.122638e+02 7.848069e+01 6.648738e+01 9.889304e+01 8.816799e+01 4.654782e+01 5.742269e+01 4.716277e+01 1.111168e+01 7.062108e+00 6.640501e+00 7.268495e+00 8.564241e+00 7.282341e+00 6.907207e+00 8.013143e+00 6.907174e+00 4.827984e+00 4.568642e+00 4.290747e+00 1.072944e+01
<GCONST> 1.236349e+02
<TRANSP> 5
 0.000000e+00 1.000000e+00 0.000000e+00 0.000000e+00 0.000000e+00
 0.000000e+00 7.857554e-01 2.142446e-01 0.000000e+00 0.000000e+00
 0.000000e+00 0.000000e+00 7.713476e-01 2.286524e-01 0.000000e+00
 0.000000e+00 0.000000e+00 0.000000e+00 9.267538e-01 7.324625e-02
 0.000000e+00 0.000000e+00 0.000000e+00 0.000000e+00 0.000000e+00
<ENDHMM>
~h "l"
<BEGINHMM>
<NUMSTATES> 5
<STATE> 2
<MEAN> 25
 5.787964e+00 2.708627e+00 -3.237313e+00 -2.446541e+00 -1.303164e+00 2.757199e+00 -2.746643e-01 -3.368796e+00 -3.583562e-01 -7.887270e-01 1.288027e-01 8.000075e-01 -4.332215e-01 -8.408580e-01 6.143022e-01 6.034439e-01 -5.500902e-02 -7.425379e-01 1.539793e-01 6.180463e-01 9.678957e-02 -4.064646e-01 1.414881e-01 3.007976e-01 3.270321e-01
<VARIANCE> 25
 2.014017e+02 9.993964e+01 5.362278e+01 8.571471e+01 4.896389e+01 6.352539e+01 3.975286e+01 4.715626e+01 5.288741e+01 3.658237e+01 3.265157e+01 2.573807e+01 7.233424e+00 6.435066e+00 3.921718e+00 3.358263e+00 4.386577e+00 5.772733e+00 3.248821e+00 3.026549e+00 3.058941e+00 2.642522e+00 2.147750e+00 1.814838e+00 9.094649e+00
<GCONST> 1.117638e+02
<STATE> 3
<MEAN> 25
 5.290963e+00 6.230443e-01 -2.267343e+00 -1.313112e+00 -7.926628e-01 9.753352e-01 -3.012321e-01 -2.386890e+00 -5.775205e-01 -1.443976e+00 4.598584e-01 1.212380e+00 -3.478734e-02 -1.202668e+00 7.091027e-01 4.660534e-01 -2.121750e-01 -8.722032e-01 7.393620e-02 5.547971e-01 -1.280044e-01 -2.174335e-01 -6.242654e-02 9.744186e-03 9.937602e-01
<VARIANCE> 25
 1.735375e+02 1.249708e+02 5.927689e+01 9.687770e+01 5.714532e+01 7.505825e+01 3.528097e+01 4.939676e+01 5.451409e+01 3.692447e+01 3.370329e+01 2.418108e+01 9.267082e+00 6.303195e+00 3.470551e+00 3.377334e+00 4.485914e+00 5.603200e+00 2.511339e+00 2.876597e+00 3.307259e+00 2.575963e+00 2.303314e+00 1.901681e+00 1.334633e+01
<GCONST> 1.126660e+02
<STATE> 4
<MEAN> 25
 5.376345e+00 -1.144503e+00 -9.948382e-01 -9.554088e-03 -6.408041e-01 -1.157632e+00 -6.965601e-01 -9.690061e-01 -5.589316e-01 -1.806419e+00 -1.232477e-01 5.511143e-01 4.115504e-01 -1.133249e+00 7.372128e-01 5.147014e-01 -5.641449e-01 -8.823985e-01 -5.459380e-02 2.222075e-01 -1.088687e-01 -1.234007e-01 -1.950942e-01 -2.115463e-01 1.206699e+00
<VARIANCE> 25
 1.552308e+02 1.311114e+02 6.293488e+01 9.514071e+01 5.602572e+01 8.622300e+01 3.711354e+01 5.291334e+01 5.039547e+01 3.350202e+01 2.685725e+01 2.758365e+01 1.130221e+01 6.771245e+00 4.412833e+00 4.172306e+00 5.723234e+00 6.982836e+00 2.769882e+00 3.483658e+00 3.448867e+00 2.652507e+00 2.658332e+00 2.119802e+00 1.518904e+01
<GCONST> 1.145387e+02
<TRANSP> 5
 0.000000e+00 1.000000e+00 0.000000e+00 0.000000e+00 0.000000e+00
 0.000000e+00 2.758903e-01 7.241098e-01 0.000000e+00 0.000000e+00
 0.000000e+00 0.000000e+00 2.730710e-01 7.269289e-01 0.000000e+00
 0.000000e+00 0.000000e+00 0.000000e+00 3.573388e-01 6.426612e-01
 0.000000e+00 0.000000e+00 0.000000e+00 0.000000e+00 0.000000e+00
<ENDHMM>
~h "m"
<BEGINHMM>
<NUMSTATES> 5
<STATE> 2
<MEAN> 25
 4.354348e+00 2.285041e+00 7.948340e+00 -6.551069e+00 5.689684e+00 -7.952803e+00 -6.973650e+00 2.180127e+00 1.410307e+00 -2.091690e+00 -3.379479e+00 1.827413e+00 2.086226e+00 -9.122461e-01 6.340387e-01 -1.125638e+00 2.058679e-01 -8.560754e-02 -1.252353e+00 -6.594817e-01 -1.579538e-01 3.417328e-01 -1.745197e-01 -2.801048e-01 3.115757e+00
<VARIANCE> 25
 1.063635e+02 7.365106e+01 6.111362e+01 6.749194e+01 9.022761e+01 7.698793e+01 1.429068e+02 9.384711e+01 4.899260e+01 5.266467e+01 5.814813e+01 4.053090e+01 1.352507e+01 8.179741e+00 5.880864e+00 7.922945e+00 1.291049e+01 1.038581e+01 9.978829e+00 1.098428e+01 1.001221e+01 7.890300e+00 6.530452e+00 5.204567e+00 7.030630e+00
<GCONST> 1.251972e+02
<STATE> 3
<MEAN> 25
 1.856290e+01 -7.226990e+00 8.079712e+00 -8.789688e+00 1.905948e+00 -1.921209e+00 -6.507586e+00 -8.414894e+00 -2.936757e+00 3.970144e+00 -2.493302e+00 -2.860444e+00 1.241631e+00 -1.063026e+00 -2.791206e-02 1.060963e-01 -1.283532e+00 7.795976e-01 1.104905e+00 -9.144503e-01 -6.928480e-01 6.424935e-01 7.505568e-03 -1.046642e-01 3.526059e-01
<VARIANCE> 25
 7.634409e+01 5.590927e+01 9.896059e+01 1.466740e+02 1.019370e+02 1.377721e+02 1.115815e+02 1.845679e+02 7.266662e+01 1.108789e+02 3.613683e+01 3.442851e+01 6.580833e+00 6.299949e+00 9.407043e+00 1.427713e+01 1.100738e+01 1.023385e+01 7.341317e+00 1.875916e+01 1.023452e+01 1.223921e+01 2.451397e+00 4.855393e+00 5.853441e+00
<GCONST> 1.268406e+02
<STATE> 4
<MEAN> 25
 1.964658e+01 -4.984079e+00 3.863077e+00 -4.020122e+00 -5.238696e+00 8.898305e-01 2.434045e+00 -6.564964e+00 -6.133638e+00 3.725041e-01 -8.590537e-02 -9.803996e-01 -2.495812e-01 6.355016e-01 -3.662027e-01 3.427413e-01 1.044210e-01 -4.741478e-03 6.352919e-02 3.054166e-01 9.185366e-02 -2.322805e-01 1.269359e-01 -7.326874e-03 -7.961788e-01
<VARIANCE> 25
 5.912144e+01 1.168195e+02 1.253317e+02 1.729032e+02 8.787580e+01 8.562462e+01 9.428174e+01 1.441301e+02 9.034756e+01 7.654825e+01 3.993874e+01 3.151159e+01 2.460562e+00 6.956190e+00 7.833402e+00 7.691053e+00 4.634735e+00 4.019688e+00 4.641251e+00 7.121032e+00 5.956381e+00 6.965178e+00 3.725205e+00 3.391601e+00 5.673429e+00
<GCONST> 1.205519e+02
<TRANSP> 5
 0.000000e+00 1.000000e+00 0.000000e+00 0.000000e+00 0.000000e+00
 0.000000e+00 8.698383e-01 1.301617e-01 0.000000e+00 0.000000e+00
 0.000000e+00 0.000000e+00 8.433963e-01 1.566037e-01 0.000000e+00
 0.000000e+00 0.000000e+00 0.000000e+00 9.579276e-01 4.207236e-02
 0.000000e+00 0.000000e+00 0.000000e+00 0.000000e+00 0.000000e+00
<ENDHMM>
~h "n"
<BEGINHMM>
<NUMSTATES> 5
<STATE> 2
<MEAN> 25
 -4.004735e+00 6.746798e+00 3.440644e+00 6.752304e+00 -1.631789e-01 -8.045931e-01 -1.210220e+00 -2.050989e+00 -2.412866e+00 -3.720750e+00 -3.381223e+00 -2.811659e+00 -9.462780e-01 -7.935257e-01 -4.707482e-01 1.375349e-01 3.478272e-01 2.047482e-01 5.010450e-03 -1.117574e-01 5.090711e-02 1.221428e-01 3.806141e-01 4.793761e-02 -5.205870e-01
<VARIANCE> 25
 3.749483e+01 2.160461e+01 3.587551e+01 2.238777e+01 1.868128e+01 1.943542e+01 2.199212e+01 1.358247e+01 2.217590e+01 2.058205e+01 1.581526e+01 1.862395e+01 2.073012e+00 1.548745e+00 2.051379e+00 2.531940e+00 1.934302e+00 1.580025e+00 1.470117e+00 1.638162e+00 1.492894e+00 2.162906e+00 1.280391e+00 1.292291e+00 6.543026e-01
<GCONST> 8.879716e+01
<STATE> 3
<MEAN> 25
 -8.441711e+00 4.599249e+00 2.558081e+00 7.555637e+00 2.272330e+00 2.010394e+00 -5.545530e-01 -1.406389e+00 -1.518026e+00 -3.648760e+00 -1.069748e+00 -1.516614e+00 -3.655791e-01 -2.446778e-01 -2.433225e-01 -2.241733e-01 -1.156737e-01 4.041199e-03 5.486111e-02 4.570844e-02 6.993441e-02 6.125377e-02 1.572639e-01 1.673996e-01 -2.104467e-01
<VARIANCE> 25
 1.254723e+01 1.084015e+01 2.239400e+01 1.964948e+01 1.742185e+01 1.351640e+01 1.202027e+01 1.362629e+01 1.858340e+01 1.728713e+01 1.829362e+01 1.528687e+01 3.547954e-01 5.673075e-01 8.857679e-01 1.041205e+00 7.725787e-01 1.186458e+00 1.162214e+00 1.892216e+00 1.315301e+00 1.696658e+00 1.742622e+00 1.757210e+00 1.040471e-01
<GCONST> 7.758851e+01
<STATE> 4
<MEAN> 25
 -8.774734e+00 2.292567e+00 6.045747e-02 2.034535e+00 2.618752e-01 2.055602e+00 4.182816e-03 1.319555e-01 -3.632237e-01 -1.305351e+00 -7.507048e-01 1.761516e-01 -4.394848e-02 -1.014506e-02 -3.131791e-02 -5.429848e-02 7.705625e-03 4.776990e-02 2.955602e-02 3.487335e-02 2.081047e-02 -2.443236e-03 4.555347e-02 5.743302e-02 -2.682268e-02
<VARIANCE> 25
 5.001911e+00 8.740153e+00 1.308473e+01 1.232200e+01 8.415451e+00 1.335584e+01 1.317459e+01 1.387361e+01 1.556216e+01 1.424727e+01 1.420356e+01 1.391255e+01 1.731801e-01 3.792598e-01 5.062250e-01 6.549469e-01 7.034313e-01 9.659458e-01 1.172529e+00 1.361523e+00 1.450553e+00 1.543125e+00 1.471607e+00 1.389224e+00 5.152667e-02
<GCONST> 7.023510e+01
<TRANSP> 5
 0.000000e+00 1.000000e+00 0.000000e+00 0.000000e+00 0.000000e+00
 0.000000e+00 7.180942e-01 2.819058e-01 0.000000e+00 0.000000e+00
 0.000000e+00 0.000000e+00 6.654771e-01 3.345230e-01 0.000000e+00
 0.000000e+00 0.000000e+00 0.000000e+00 9.636778e-01 3.632222e-02
 0.000000e+00 0.000000e+00 0.000000e+00 0.000000e+00 0.000000e+00
<ENDHMM>
~h "r"
<BEGINHMM>
<NUMSTATES> 5
<STATE> 2
<MEAN> 25
 3.182637e+00 3.178694e+00 1.165306e+00 2.022383e+00 -3.328108e+00 -1.291630e+00 2.076787e-01 -1.712015e+00 4.218001e-01 -1.337204e+00 -4.324673e-01 3.320948e-01 -1.392419e-01 1.616815e-01 3.274119e-01 -1.860017e-01 9.492546e-02 1.365653e-01 -4.397400e-01 -1.534078e-01 1.047738e-01 -1.074573e-01 -1.008124e-01 1.086659e-01 -1.754968e-01
<VARIANCE> 25
 2.049240e+02 1.668958e+02 5.296634e+01 4.640204e+01 6.271749e+01 4.952819e+01 3.588659e+01 3.322017e+01 3.852459e+01 2.629168e+01 2.570998e+01 1.815741e+01 5.659738e+00 4.810128e+00 3.851692e+00 3.023619e+00 3.448978e+00 2.690440e+00 2.772368e+00 2.563182e+00 3.203612e+00 2.584288e+00 1.668451e+00 1.883891e+00 4.095851e+00
<GCONST> 1.070019e+02
<STATE> 3
<MEAN> 25
 2.609048e+00 3.690906e+00 1.842574e+00 1.829983e+00 -3.058340e+00 -9.374530e-01 -8.763820e-02 -2.152383e+00 1.861804e-01 -1.478264e+00 -4.366027e-01 4.910664e-01 2.510347e-01 8.041941e-02 4.033496e-01 -6.515413e-02 2.526491e-01 1.020357e-01 -2.119841e-01 -1.126688e-01 -4.224244e-02 -1.433654e-01 -1.622494e-01 7.607499e-02 2.524373e-01
<VARIANCE> 25
 1.830703e+02 1.626694e+02 5.640331e+01 4.327177e+01 5.814802e+01 4.675713e+01 3.873146e+01 3.733018e+01 4.117183e+01 2.699395e+01 2.447594e+01 1.942286e+01 6.429135e+00 6.058284e+00 4.475176e+00 3.210843e+00 3.392886e+00 2.736994e+00 2.723958e+00 2.545056e+00 2.682837e+00 2.392090e+00 1.591669e+00 1.659715e+00 4.150753e+00
<GCONST> 1.071564e+02
<STATE> 4
<MEAN> 25
 3.030032e+00 4.075311e+00 2.601673e+00 2.161846e+00 -2.113686e+00 -5.627204e-01 -1.298332e-01 -2.382444e+00 1.165352e-01 -2.143203e+00 -1.019969e+00 7.976744e-01 6.281896e-01 -4.453773e-01 1.759162e-01 -1.873546e-01 4.005340e-01 -2.241628e-01 1.110182e-02 3.244233e-02 -1.058032e-01 8.644002e-02 -2.170129e-01 1.403383e-02 9.582843e-01
<VARIANCE> 25
 1.715316e+02 1.627520e+02 6.167428e+01 5.234091e+01 5.801955e+01 4.777797e+01 4.452800e+01 4.232455e+01 4.217811e+01 2.883853e+01 2.524711e+01 2.210387e+01 8.256235e+00 7.893994e+00 5.289114e+00 3.775054e+00 4.718354e+00 4.646938e+00 3.748134e+00 3.222063e+00 2.997171e+00 2.641047e+00 2.338108e+00 1.984262e+00 7.958436e+00
<GCONST> 1.115882e+02
<TRANSP> 5
 0.000000e+00 1.000000e+00 0.000000e+00 0.000000e+00 0.000000e+00
 0.000000e+00 2.736403e-01 7.263597e-01 0.000000e+00 0.000000e+00
 0.000000e+00 0.000000e+00 2.812063e-01 7.187937e-01 0.000000e+00
 0.000000e+00 0.000000e+00 0.000000e+00 3.601114e-01 6.398886e-01
 0.000000e+00 0.000000e+00 0.000000e+00 0.000000e+00 0.000000e+00
<ENDHMM>
~h "s"
<BEGINHMM>
<NUMSTATES> 5
<STATE> 2
<MEAN> 25
 5.868717e+00 -7.636929e+00 6.007109e+00 -2.124531e+00 1.161917e-01 -8.430683e+00 -9.995375e-01 2.567201e+00 4.308531e-01 -7.114359e-01 -1.868617e+00 6.849414e-01 1.618497e+00 -1.556096e+00 5.155752e-01 -7.357574e-01 -6.173220e-01 -8.156068e-01 -7.226287e-01 2.230948e-01 -1.152433e-01 1.098226e-01 -1.176442e-01 3.220062e-02 2.286111e+00
<VARIANCE> 25
 1.845528e+02 1.184789e+02 6.914859e+01 8.171165e+01 9.678167e+01 5.911641e+01 6.920375e+01 4.275884e+01 5.370635e+01 3.126905e+01 3.995359e+01 2.733764e+01 1.193008e+01 1.067007e+01 7.655245e+00 7.070656e+00 5.972966e+00 8.482340e+00 5.695777e+00 3.999872e+00 5.781676e+00 2.817374e+00 4.114332e+00 2.713257e+00 1.430087e+01
<GCONST> 1.193983e+02
<STATE> 3
<MEAN> 25
 1.215654e+01 -1.139680e+01 7.443965e+00 -4.186148e+00 -1.762161e+00 -9.139012e+00 -3.971788e+00 3.590687e+00 -7.063683e-01 2.142139e-01 -2.011607e+00 5.019586e-01 8.252921e-01 -5.205032e-01 1.198957e-02 -9.069843e-01 2.214804e-01 -9.184384e-02 -5.032973e-01 2.065853e-01 -1.880701e-01 2.294836e-01 -8.395284e-02 -9.666519e-02 8.593620e-01
<VARIANCE> 25
 1.524865e+02 8.247313e+01 8.885185e+01 9.975941e+01 9.701247e+01 6.236018e+01 8.282060e+01 6.382557e+01 7.785567e+01 3.876577e+01 4.276440e+01 3.396963e+01 8.124111e+00 7.595003e+00 6.332687e+00 7.408391e+00 6.935606e+00 6.685800e+00 5.362624e+00 4.508852e+00 7.709587e+00 4.588223e+00 4.652134e+00 3.450600e+00 5.337399e+00
<GCONST> 1.200597e+02
<STATE> 4
<MEAN> 25
 1.137295e+01 -7.810346e+00 3.154602e+00 -8.601706e+00 2.268924e+00 -6.761157e+00 -3.788200e+00 1.889415e+00 -8.317940e-01 1.928374e+00 -1.590460e+00 -8.218141e-01 -7.115874e-01 6.193959e-01 -3.359439e-01 -3.882647e-01 6.120898e-01 2.423375e-01 5.595800e-02 -1.502104e-01 9.469655e-02 5.134920e-02 1.722687e-01 -3.328023e-02 -2.063081e-01
<VARIANCE> 25
 2.065157e+02 9.569836e+01 8.534859e+01 1.017828e+02 1.060522e+02 8.459116e+01 8.335802e+01 8.118748e+01 6.833408e+01 5.791388e+01 4.329086e+01 4.886409e+01 9.945765e+00 6.176918e+00 4.832166e+00 5.910021e+00 5.785671e+00 4.621432e+00 5.852743e+00 5.177778e+00 5.558476e+00 5.502616e+00 4.152949e+00 3.630550e+00 2.629775e+00
<GCONST> 1.200380e+02
<TRANSP> 5
 0.000000e+00 1.000000e+00 0.000000e+00 0.000000e+00 0.000000e+00
 0.000000e+00 6.372960e-01 3.627040e-01 0.000000e+00 0.000000e+00
 0.000000e+00 0.000000e+00 6.377971e-01 3.622030e-01 0.000000e+00
 0.000000e+00 0.000000e+00 0.000000e+00 8.703589e-01 1.296411e-01
 0.000000e+00 0.000000e+00 0.000000e+00 0.000000e+00 0.000000e+00
<ENDHMM>
~h "t"
<BEGINHMM>
<NUMSTATES> 5
<STATE> 2
<MEAN> 25
 2.675655e+00 1.967303e+00 9.135677e-01 -1.544171e+00 7.269472e-02 -1.497972e+00 4.310649e-01 -1.027062e+00 -3.009891e-01 -8.042142e-01 9.855720e-01 1.957884e+00 -6.482214e-01 -9.217340e-01 9.925046e-01 -4.042866e-02 -1.305668e+00 -6.415744e-01 1.735599e-02 2.704141e-01 -1.996576e-01 -2.162865e-01 2.741097e-01 -8.049039e-03 2.524322e-01
<VARIANCE> 25
 1.287799e+02 1.462385e+02 5.389545e+01 6.283809e+01 5.579697e+01 9.197792e+01 2.926376e+01 4.732759e+01 3.834767e+01 2.937307e+01 2.861916e+01 2.089489e+01 1.808817e+01 7.993517e+00 7.357942e+00 5.451931e+00 7.283589e+00 7.697952e+00 3.616723e+00 3.576629e+00 3.181172e+00 3.322417e+00 2.831443e+00 1.391992e+00 1.616625e+01
<GCONST> 1.148795e+02
<STATE> 3
<MEAN> 25
 3.158740e+00 -1.914667e-01 2.840430e+00 -1.440944e+00 -2.099270e+00 -3.667168e+00 -8.272111e-03 -5.386419e-01 -8.710057e-01 -1.918014e+00 1.113430e+00 1.627165e+00 -7.384920e-02 -9.664136e-01 1.934472e-01 2.219155e-01 -9.201903e-01 -6.088418e-01 -5.174905e-03 2.412239e-03 -2.868042e-01 -4.061601e-01 -2.098663e-01 -2.740935e-01 2.555087e-01
<VARIANCE> 25
 1.380096e+02 1.582211e+02 7.182923e+01 6.056152e+01 6.813525e+01 7.896002e+01 3.896579e+01 4.553463e+01 4.118173e+01 3.338358e+01 3.120083e+01 2.065378e+01 1.543718e+01 6.168945e+00 6.985002e+00 5.103667e+00 7.026403e+00 6.394452e+00 3.506569e+00 4.157668e+00 3.385768e+00 3.323267e+00 2.565509e+00 1.398857e+00 1.044318e+01
<GCONST> 1.147412e+02
<STATE> 4
<MEAN> 25
 3.879730e+00 -1.830304e+00 6.641740e-01 -1.673274e+00 -2.870384e+00 -4.238494e+00 9.052683e-01 -1.456694e+00 -1.542268e+00 -2.047225e+00 2.152455e-01 5.985460e-01 -3.927664e-01 -8.003035e-01 -3.550229e-01 4.629366e-01 -2.816249e-02 -1.697714e-01 1.801879e-02 2.011189e-01 1.957833e-01 1.573331e-01 -4.487727e-01 -3.398277e-01 -3.798930e-01
<VARIANCE> 25
 1.638143e+02 1.673723e+02 7.961032e+01 7.441322e+01 7.303050e+01 8.037222e+01 4.851109e+01 3.444462e+01 4.037012e+01 4.466747e+01 3.206530e+01 2.157468e+01 6.278047e+00 3.372007e+00 3.391392e+00 3.834356e+00 4.851063e+00 4.672800e+00 2.616490e+00 3.162815e+00 2.685320e+00 3.055150e+00 2.875683e+00 2.069907e+00 3.972552e+00
<GCONST> 1.111078e+02
<TRANSP> 5
 0.000000e+00 1.000000e+00 0.000000e+00 0.000000e+00 0.000000e+00
 0.000000e+00 2.102436e-01 7.897564e-01 0.000000e+00 0.000000e+00
 0.000000e+00 0.000000e+00 2.486423e-01 7.513577e-01 0.000000e+00
 0.000000e+00 0.000000e+00 0.000000e+00 3.092530e-01 6.907470e-01
 0.000000e+00 0.000000e+00 0.000000e+00 0.000000e+00 0.000000e+00
<ENDHMM>
~h "w"
<BEGINHMM>
<NUMSTATES> 5
<STATE> 2
<MEAN> 25
 1.747686e+01 -4.026769e+00 -6.147967e+00 -1.105410e+01 3.343648e-02 3.717610e-01 -2.441074e+00 -3.029279e+00 -5.042237e+00 1.580962e+00 3.462658e+00 -3.479500e+00 2.091028e-01 -1.513040e+00 1.182251e-01 1.031563e+00 -4.744765e-01 -2.068255e-01 2.794686e-01 -2.858242e-02 4.315494e-01 1.877042e-01 -4.194846e-01 -1.023580e+00 7.268538e-01
<VARIANCE> 25
 2.038048e+02 9.403599e+01 6.289933e+01 7.995625e+01 5.998956e+01 6.723678e+01 4.468602e+01 7.129373e+01 5.184174e+01 3.986201e+01 4.275051e+01 5.101276e+01 5.058775e+00 6.263711e+00 4.449953e+00 7.023629e+00 5.146936e+00 7.683716e+00 3.402010e+00 3.747255e+00 5.331152e+00 5.283452e+00 4.957946e+00 3.970219e+00 4.143622e+00
<GCONST> 1.168812e+02
<STATE> 3
<MEAN> 25
 2.091554e+01 -9.188909e+00 -5.688314e+00 -6.586799e+00 -2.170382e+00 -1.986617e+00 -1.039934e+00 -2.390123e+00 -3.990781e+00 2.416240e+00 8.485008e-01 -6.850856e+00 -1.218917e-01 -1.203329e+00 6.092629e-01 1.415390e+00 -6.530011e-01 -8.771970e-01 4.116970e-01 5.963662e-01 7.306675e-01 -3.565294e-01 -1.211994e+00 -3.553323e-01 3.254941e-01
<VARIANCE> 25
 8.795021e+01 9.523912e+01 6.058990e+01 7.531847e+01 5.075689e+01 6.338807e+01 5.073152e+01 7.670557e+01 5.710426e+01 4.716042e+01 5.746962e+01 4.703433e+01 3.383244e+00 5.855667e+00 3.531081e+00 4.880774e+00 3.616596e+00 6.032728e+00 3.705525e+00 4.792149e+00 5.596799e+00 4.432905e+00 3.843932e+00 3.877053e+00 3.599188e+00
<GCONST> 1.145356e+02
<STATE> 4
<MEAN> 25
 2.209784e+01 -1.180113e+01 -4.903977e+00 2.588539e-01 -5.495121e+00 -5.563462e+00 1.682314e+00 -1.652549e+00 -1.508563e+00 1.999181e+00 -3.479979e+00 -8.131425e+00 -3.864260e-01 2.858431e-01 5.290962e-01 8.847132e-01 -4.012070e-01 -1.592943e-01 2.119714e-01 1.568401e-01 4.912427e-01 -4.887649e-01 -8.288940e-01 2.976357e-01 -6.858532e-01
<VARIANCE> 25
 4.293713e+01 9.496191e+01 4.981371e+01 7.232748e+01 5.012125e+01 5.236319e+01 5.496605e+01 5.700543e+01 6.012075e+01 5.160561e+01 5.126282e+01 3.642546e+01 1.989082e+00 5.522284e+00 4.023703e+00 4.000043e+00 3.834048e+00 4.788720e+00 3.658669e+00 5.418027e+00 5.348622e+00 3.433412e+00 3.541540e+00 3.195054e+00 2.806213e+00
<GCONST> 1.113848e+02
<TRANSP> 5
 0.000000e+00 1.000000e+00 0.000000e+00 0.000000e+00 0.000000e+00
 0.000000e+00 6.726425e-01 3.273575e-01 0.000000e+00 0.000000e+00
 0.000000e+00 0.000000e+00 5.931244e-01 4.068755e-01 0.000000e+00
 0.000000e+00 0.000000e+00 0.000000e+00 7.353272e-01 2.646728e-01
 0.000000e+00 0.000000e+00 0.000000e+00 0.000000e+00 0.000000e+00
<ENDHMM>
~h "z"
<BEGINHMM>
<NUMSTATES> 5
<STATE> 2
<MEAN> 25
 -6.601983e+00 9.348887e-01 -1.824258e+00 -5.959988e-02 3.524184e-01 5.975614e-01 -9.180882e-01 2.866506e+00 7.582190e-01 3.090632e-01 9.701779e-01 1.175364e+00 1.026851e-01 -1.624919e-02 2.274234e-03 -1.984819e-02 -2.553340e-02 -9.587659e-02 -1.056912e-02 -3.858824e-02 -9.079854e-02 -6.528957e-02 -7.361171e-02 -7.464288e-02 1.102506e-01
<VARIANCE> 25
 5.218855e+00 2.344616e+00 6.618290e+00 1.070414e+01 1.385010e+01 1.233240e+01 1.493272e+01 1.165307e+01 1.137867e+01 1.052510e+01 9.905317e+00 7.413718e+00 6.621866e-01 3.447818e-01 5.797400e-01 9.662296e-01 7.764325e-01 1.541219e+00 1.301533e+00 1.361848e+00 1.348039e+00 1.188091e+00 9.774301e-01 8.440573e-01 1.488133e+00
<GCONST> 7.146484e+01
<STATE> 3
<MEAN> 25
 -7.828152e+00 -1.075335e+00 -2.001047e+00 1.841551e+00 -6.477768e-01 -3.498804e-01 7.225551e-01 2.178233e+00 2.266956e+00 -2.531013e-01 -3.180950e-01 1.984860e-01 3.105254e-01 6.897090e-02 7.052018e-02 -1.266975e-01 -3.363612e-02 -1.118500e-01 -1.146224e-01 -1.126350e-02 3.541460e-02 -1.411028e-03 -1.684341e-01 -1.816504e-01 2.256233e-01
<VARIANCE> 25
 8.927138e+00 1.367929e+01 2.358040e+01 1.374224e+01 1.010355e+01 1.475537e+01 2.338027e+01 1.232056e+01 2.838817e+01 9.510182e+00 1.345063e+01 1.087654e+01 1.006394e+00 1.634765e+00 3.181882e+00 1.534501e+00 1.143463e+00 1.439931e+00 2.231407e+00 1.568235e+00 3.972083e+00 1.014678e+00 1.709812e+00 1.716351e+00 2.075538e+00
<GCONST> 8.481986e+01
<STATE> 4
<MEAN> 25
 -2.443855e+00 3.083973e+00 -1.933853e+00 4.848208e-01 3.784173e+00 -7.407886e-01 6.952021e-01 2.780989e+00 2.874861e+00 -1.851670e+00 -4.198103e+00 -6.713470e-01 8.874254e-01 5.979939e-01 7.307089e-01 -7.901394e-01 3.553415e-01 -8.399404e-01 -1.114975e+00 -6.338413e-01 -6.879054e-01 -4.822836e-01 -6.501786e-01 -9.027889e-02 1.154685e+00
<VARIANCE> 25
 2.775471e+01 2.308034e+01 3.432768e+01 2.088788e+01 3.155343e+01 2.798249e+01 3.791339e+01 1.817105e+01 2.960810e+01 1.225482e+01 2.244044e+01 6.846499e+00 3.963855e+00 1.073277e+00 3.233824e+00 1.314480e+00 4.085715e+00 2.275557e+00 3.189478e+00 2.174216e+00 4.650172e+00 2.063296e+00 2.549500e+00 8.216395e-01 6.130018e+00
<GCONST> 9.510654e+01
<TRANSP> 5
 0.000000e+00 1.000000e+00 0.000000e+00 0.000000e+00 0.000000e+00
 0.000000e+00 9.533486e-01 4.665144e-02 0.000000e+00 0.000000e+00
 0.000000e+00 0.000000e+00 8.498775e-01 1.501225e-01 0.000000e+00
 0.000000e+00 0.000000e+00 0.000000e+00 7.037737e-01 2.962263e-01
 0.000000e+00 0.000000e+00 0.000000e+00 0.000000e+00 0.000000e+00
<ENDHMM>
~h "ae"
<BEGINHMM>
<NUMSTATES> 5
<STATE> 2
<MEAN> 25
 1.839295e+01 -2.166499e+01 -9.188262e-01 -1.109815e+00 -4.036864e+00 -5.812728e+00 1.965248e+00 5.827661e+00 -6.537448e-01 -2.701592e-01 -6.048841e+00 -3.228965e+00 1.698089e-02 -7.191684e-01 3.486870e-01 3.268480e-01 -5.550152e-01 -5.970533e-01 1.250694e+00 8.066106e-01 -1.263039e+00 -5.197107e-01 -2.300415e-01 -4.142277e-01 4.690019e-01
<VARIANCE> 25
 2.814368e+01 3.468475e+01 8.438752e+01 1.199143e+02 5.993124e+01 4.737682e+01 5.400066e+01 7.214642e+01 3.661039e+01 3.403562e+01 3.287076e+01 2.434711e+01 2.919922e+00 4.014800e+00 5.993011e+00 5.609681e+00 5.425118e+00 3.268553e+00 3.320262e+00 4.347535e+00 3.127508e+00 2.933127e+00 3.645914e+00 2.227167e+00 1.890688e+00
<GCONST> 1.085538e+02
<STATE> 3
<MEAN> 25
 1.719667e+01 -2.237107e+01 1.690644e+00 -1.188955e+00 -5.914924e+00 -6.940474e+00 5.617643e+00 8.301543e+00 -5.099290e+00 -1.951542e+00 -5.473123e+00 -4.450958e+00 -3.404860e-01 5.011836e-01 8.247187e-01 -8.163171e-03 -6.213713e-01 -1.525397e-01 9.646635e-01 4.463713e-01 -1.390408e+00 -3.217266e-01 5.262450e-01 -3.090206e-01 -3.039803e-01
<VARIANCE> 25
 2.431827e+01 3.659717e+01 7.039869e+01 1.150041e+02 4.556096e+01 3.322956e+01 4.848494e+01 7.426849e+01 4.158886e+01 3.042940e+01 3.761171e+01 2.337365e+01 9.802414e-01 3.181444e+00 3.566334e+00 3.789697e+00 3.157157e+00 1.937165e+00 2.381847e+00 3.498727e+00 2.154675e+00 2.658731e+00 2.312544e+00 1.818498e+00 1.331207e+00
<GCONST> 1.023112e+02
<STATE> 4
<MEAN> 25
 1.640159e+01 -1.626313e+01 4.557826e+00 -1.570325e+00 -9.430001e+00 -6.068143e+00 9.332327e+00 5.938936e+00 -1.032787e+01 -1.116815e+00 -2.522724e+00 -4.816392e+00 -4.885165e-02 1.557297e+00 4.093524e-01 -1.387841e-01 -4.613937e-01 3.801747e-01 5.491837e-01 -7.527826e-01 -1.000065e+00 3.777792e-01 5.480126e-01 -3.613161e-02 -8.535315e-01
<VARIANCE> 25
 2.114343e+01 9.800534e+01 8.351900e+01 9.420813e+01 7.040042e+01 3.377603e+01 7.801068e+01 9.411579e+01 5.551070e+01 3.378011e+01 3.956175e+01 2.951133e+01 1.230035e+00 5.004192e+00 5.647899e+00 5.746507e+00 4.538447e+00 3.494431e+00 6.043209e+00 5.868299e+00 3.933386e+00 3.203752e+00 2.279182e+00 1.886078e+00 2.083195e+00
<GCONST> 1.101838e+02
<TRANSP> 5
 0.000000e+00 1.000000e+00 0.000000e+00 0.000000e+00 0.000000e+00
 0.000000e+00 6.682394e-01 3.317607e-01 0.000000e+00 0.000000e+00
 0.000000e+00 0.000000e+00 7.148783e-01 2.851217e-01 0.000000e+00
 0.000000e+00 0.000000e+00 0.000000e+00 8.469163e-01 1.530837e-01
 0.000000e+00 0.000000e+00 0.000000e+00 0.000000e+00 0.000000e+00
<ENDHMM>
~h "ah"
<BEGINHMM>
<NUMSTATES> 5
<STATE> 2
<MEAN> 25
 1.639528e+01 -8.085175e-01 -4.427989e+00 -4.300951e+00 6.936683e-01 -9.210849e-01 -3.851648e+00 -5.864126e+00 -2.598421e-01 2.248481e+00 -1.699049e+00 -3.814847e+00 -2.017880e-01 8.531022e-01 1.875792e-01 3.602464e-01 -6.050137e-01 3.701078e-01 4.450978e-01 -5.651888e-01 -1.444608e-01 -3.799131e-01 3.238451e-02 4.822914e-01 -7.736398e-01
<VARIANCE> 25
 1.032066e+02 9.778920e+01 9.049825e+01 1.040067e+02 5.545887e+01 7.695061e+01 1.065623e+02 7.719149e+01 6.081071e+01 5.580234e+01 4.904029e+01 3.464628e+01 6.571603e+00 1.004140e+01 7.597702e+00 7.487306e+00 6.421086e+00 6.598904e+00 8.250153e+00 7.657295e+00 5.038659e+00 4.499421e+00 3.965848e+00 2.629037e+00 9.178153e+00
<GCONST> 1.210627e+02
<STATE> 3
<MEAN> 25
 1.745890e+01 1.784142e+00 -4.103822e+00 -3.999042e+00 -1.082089e+00 9.038943e-01 -3.895057e+00 -7.538001e+00 -1.764503e+00 1.199007e+00 -1.977542e+00 -3.098782e+00 -5.669381e-01 8.197106e-01 2.327591e-01 2.409593e-01 -4.312362e-01 3.359241e-01 4.108201e-01 -3.006723e-01 -1.439344e-01 -3.436314e-01 5.115601e-02 4.935315e-01 -9.503999e-01
<VARIANCE> 25
 8.114683e+01 1.046202e+02 9.369214e+01 9.561182e+01 5.947068e+01 6.503712e+01 6.086168e+01 6.723930e+01 5.709060e+01 5.526044e+01 4.008282e+01 3.144301e+01 5.620547e+00 8.603992e+00 6.936683e+00 6.434715e+00 6.200470e+00 5.519265e+00 5.193138e+00 6.084099e+00 4.478559e+00 3.614791e+00 4.409704e+00 1.962121e+00 5.413144e+00
<GCONST> 1.171610e+02
<STATE> 4
<MEAN> 25
 1.528488e+01 6.140348e+00 -2.136977e+00 -2.335771e+00 -2.324762e+00 1.407485e+00 -2.471050e+00 -7.045241e+00 -2.646442e+00 -3.932230e-01 -2.494186e+00 -2.865318e+00 -1.404507e+00 9.194583e-02 2.390895e-01 1.376483e-01 -2.237828e-01 2.409381e-01 3.518887e-01 3.757569e-01 1.226429e-01 -1.978544e-01 1.774104e-01 4.286716e-01 -1.156718e+00
<VARIANCE> 25
 9.854857e+01 1.146967e+02 1.113757e+02 1.024057e+02 4.618896e+01 5.581310e+01 4.830455e+01 4.706697e+01 5.285214e+01 4.944516e+01 3.130603e+01 2.749757e+01 4.123121e+00 7.006811e+00 5.697356e+00 4.807325e+00 4.324745e+00 3.900918e+00 3.967315e+00 3.473217e+00 3.310699e+00 3.370196e+00 2.580304e+00 1.716679e+00 2.114308e+00
<GCONST> 1.116033e+02
<TRANSP> 5
 0.000000e+00 1.000000e+00 0.000000e+00 0.000000e+00 0.000000e+00
 0.000000e+00 6.173036e-01 3.826964e-01 0.000000e+00 0.000000e+00
 0.000000e+00 0.000000e+00 5.300555e-01 4.699445e-01 0.000000e+00
 0.000000e+00 0.000000e+00 0.000000e+00 6.584516e-01 3.415484e-01
 0.000000e+00 0.000000e+00 0.000000e+00 0.000000e+00 0.000000e+00
<ENDHMM>
~h "ao"
<BEGINHMM>
<NUMSTATES> 5
<STATE> 2
<MEAN> 25
 -8.603914e+00 8.764088e+00 2.610032e+00 5.918984e+00 1.632074e+00 1.971229e+00 2.450911e+00 8.000494e-01 1.150373e+00 -1.231348e+00 9.321994e-01 2.051762e+00 2.591079e+00 1.922539e-01 8.345779e-01 -4.597887e-01 -1.243867e-01 -1.165558e+00 -7.243437e-01 -1.788174e-01 1.655116e-01 -1.860467e-01 -4.755241e-01 -4.067624e-02 3.049013e+00
<VARIANCE> 25
 9.636311e+01 6.919670e+01 5.831479e+01 2.886302e+01 1.854915e+01 1.668292e+01 3.517205e+01 1.650541e+01 1.624994e+01 1.449835e+01 1.936866e+01 1.182800e+01 9.901819e+00 6.289782e+00 5.656002e+00 3.019986e+00 2.392632e+00 2.828491e+00 2.329575e+00 2.044158e+00 1.966857e+00 1.414775e+00 1.932133e+00 1.402433e+00 1.771711e+01
<GCONST> 1.005126e+02
<STATE> 3
<MEAN> 25
 8.414196e-01 1.244764e+01 8.004015e+00 5.806040e+00 1.043655e+00 -1.185126e+00 1.060046e+00 6.326979e-01 8.848548e-01 -1.307218e+00 -5.599886e-01 1.161939e+00 5.054669e+00 -1.729076e+00 2.486997e-01 -1.910152e+00 -3.419115e-01 -2.202788e+00 -1.886110e+00 -5.660089e-01 6.646206e-01 1.379110e-01 -1.168042e+00 -3.484440e-01 6.677670e+00
<VARIANCE> 25
 1.126790e+02 1.295181e+02 5.737875e+01 3.566283e+01 3.149406e+01 4.076765e+01 5.944456e+01 1.877882e+01 1.715927e+01 1.779786e+01 1.937805e+01 1.591776e+01 1.130559e+01 1.758121e+01 1.161101e+01 7.382034e+00 2.461758e+00 5.126451e+00 6.603164e+00 3.843994e+00 3.505697e+00 2.839786e+00 3.804387e+00 2.203701e+00 2.501329e+01
<GCONST> 1.119440e+02
<STATE> 4
<MEAN> 25
 1.669498e+01 -3.145428e+00 -2.433585e+00 -6.761774e+00 3.243514e+00 -1.783883e+00 -4.392457e+00 -2.176123e+00 3.546539e+00 1.798537e+00 -3.285706e+00 -3.609918e-01 1.749366e+00 -1.672362e+00 -4.001042e-01 -1.116948e+00 -2.906876e-01 -3.176724e-01 -5.321844e-01 -2.844488e-01 2.344852e-02 2.815298e-01 -3.213961e-01 -2.044214e-01 2.199859e+00
<VARIANCE> 25
 8.835237e+01 1.763061e+02 1.561176e+02 1.255751e+02 8.856888e+01 9.520761e+01 5.600292e+01 4.078680e+01 4.193812e+01 4.291914e+01 2.717387e+01 1.764306e+01 1.372177e+01 1.540801e+01 9.154176e+00 6.658071e+00 5.008148e+00 1.080005e+01 1.025377e+01 5.191082e+00 4.208646e+00 3.862037e+00 4.115307e+00 1.652991e+00 1.704464e+01
<GCONST> 1.208963e+02
<TRANSP> 5
 0.000000e+00 1.000000e+00 0.000000e+00 0.000000e+00 0.000000e+00
 0.000000e+00 4.288597e-01 5.711404e-01 0.000000e+00 0.000000e+00
 0.000000e+00 0.000000e+00 1.433127e-01 8.566873e-01 0.000000e+00
 0.000000e+00 0.000000e+00 0.000000e+00 7.702079e-01 2.297921e-01
 0.000000e+00 0.000000e+00 0.000000e+00 0.000000e+00 0.000000e+00
<ENDHMM>
~h "aw"
<BEGINHMM>
<NUMSTATES> 5
<STATE> 2
<MEAN> 25
 2.231492e+01 -4.938079e+00 -1.334891e+01 -3.613248e+00 4.970993e+00 3.157566e+00 2.228487e-01 -3.206622e+00 1.981468e-01 3.255292e+00 1.161390e+00 -5.383101e+00 -4.370825e-01 7.553004e-01 -2.731702e-01 -2.535179e-02 -3.843234e-01 -7.031392e-01 2.189168e-01 1.069219e-01 -4.894676e-02 -4.731746e-01 -2.412576e-01 2.568355e-01 -7.088423e-01
<VARIANCE> 25
 4.611034e+01 4.657780e+01 7.949878e+01 8.983769e+01 4.356294e+01 2.684429e+01 4.391513e+01 4.008512e+01 2.641151e+01 4.939447e+01 1.794806e+01 3.009150e+01 6.353975e+00 6.273642e+00 6.111808e+00 3.953574e+00 8.902205e+00 2.163778e+00 1.130179e+01 5.261917e+00 4.087260e+00 4.330764e+00 2.887697e+00 4.418188e+00 6.882545e+00
<GCONST> 1.117584e+02
<STATE> 3
<MEAN> 25
 2.150006e+01 -9.197867e-01 -1.147143e+01 -2.682452e+00 1.376898e+00 2.726046e-01 -5.511010e-01 -5.675786e+00 -1.011865e+00 4.265240e+00 2.492934e-01 -5.350549e+00 -2.054183e+00 1.391686e+00 1.238828e+00 1.487192e-01 -2.388003e-01 -4.056048e-02 -8.386631e-01 3.197582e-01 7.463423e-01 3.979723e-02 -1.426202e-01 1.008388e+00 -1.931616e+00
<VARIANCE> 25
 9.829454e+01 3.353907e+01 8.780955e+01 5.221088e+01 4.198013e+01 1.009538e+01 3.563017e+01 2.040648e+01 2.218323e+01 3.881334e+01 1.878940e+01 3.169641e+01 6.549514e+00 3.859665e+00 1.650819e+00 1.822614e+00 9.522710e+00 2.100005e+00 6.784813e+00 3.431071e+00 4.726270e+00 3.761518e+00 2.249215e+00 3.666547e+00 4.559977e+00
<GCONST> 1.052438e+02
<STATE> 4
<MEAN> 25
 9.652576e-01 4.537344e+00 8.743453e-01 3.951585e+00 -8.079722e-01 2.308404e+00 -8.795428e-02 -2.123769e+00 6.084557e-01 -6.896550e-01 -1.750245e+00 -7.813746e-01 -1.469122e+00 -3.280829e-01 7.896043e-02 1.697020e-02 -5.240782e-01 -5.881479e-02 3.492417e-01 5.449759e-01 1.378346e-01 -3.136031e-02 3.934999e-01 -4.259136e-01 -9.876781e-01
<VARIANCE> 25
 3.180972e+01 4.714422e+00 5.277558e+01 3.428096e+01 2.163299e+01 3.110214e+00 1.618258e+01 1.341697e+01 1.506149e+01 1.056061e+01 2.838590e+01 9.058495e+00 3.424345e+00 6.105423e-01 2.219737e+00 1.607861e+00 1.662499e+00 6.651832e-01 7.619956e-01 2.459791e+00 1.502181e+00 1.003894e+00 2.118390e+00 8.256174e-01 1.957454e+00
<GCONST> 8.304638e+01
<TRANSP> 5
 0.000000e+00 1.000000e+00 0.000000e+00 0.000000e+00 0.000000e+00
 0.000000e+00 7.582379e-01 2.417621e-01 0.000000e+00 0.000000e+00
 0.000000e+00 0.000000e+00 6.821108e-01 3.178892e-01 0.000000e+00
 0.000000e+00 0.000000e+00 0.000000e+00 7.685224e-01 2.314776e-01
 0.000000e+00 0.000000e+00 0.000000e+00 0.000000e+00 0.000000e+00
<ENDHMM>
~h "ay"
<BEGINHMM>
<NUMSTATES> 5
<STATE> 2
<MEAN> 25
 1.158938e+01 -6.445566e+00 2.899314e+00 -1.119952e+01 4.220686e+00 -3.460275e+00 -7.995794e+00 6.339709e-01 1.830827e+00 2.708539e+00 -1.190382e+00 -6.940231e-01 1.662361e-01 -4.425025e-02 -9.373732e-02 -3.760132e-01 3.438114e-01 1.200494e-01 -8.767411e-02 9.941398e-02 9.921104e-03 1.511810e-01 8.081514e-02 -1.509686e-01 3.048273e-01
<VARIANCE> 25
 9.144339e+01 9.941019e+01 9.291364e+01 1.397982e+02 7.820971e+01 9.891751e+01 1.191904e+02 1.062594e+02 9.762265e+01 5.162018e+01 4.497861e+01 4.360601e+01 8.921616e+00 7.908173e+00 6.887390e+00 8.910007e+00 6.916115e+00 7.889271e+00 9.452509e+00 5.895060e+00 1.018384e+01 5.256014e+00 4.409839e+00 3.470607e+00 8.930004e+00
<GCONST> 1.243312e+02
<STATE> 3
<MEAN> 25
 1.042809e+01 -7.673421e+00 1.819199e+00 -7.552643e+00 3.077380e+00 -4.122186e+00 -4.904622e+00 7.682986e-01 2.797454e+00 2.238571e+00 -1.303084e+00 -1.137186e+00 9.294363e-01 -1.040490e+00 -3.677837e-01 5.346239e-01 -6.380780e-01 2.895108e-01 1.790565e-01 6.917644e-02 1.113153e-01 2.307282e-02 -3.142326e-01 -1.881954e-01 5.884995e-01
<VARIANCE> 25
 9.094812e+01 1.026106e+02 1.146639e+02 9.967612e+01 8.558344e+01 7.360927e+01 9.275388e+01 7.487752e+01 6.439185e+01 4.537126e+01 3.752613e+01 3.941348e+01 1.139756e+01 9.107483e+00 1.087444e+01 1.146356e+01 9.298907e+00 8.563440e+00 1.035636e+01 6.451436e+00 6.907737e+00 5.896231e+00 5.340246e+00 3.824861e+00 9.089010e+00
<GCONST> 1.242834e+02
<STATE> 4
<MEAN> 25
 1.543498e+01 -1.438186e+01 -5.456485e-01 -3.680853e+00 -2.248271e+00 -2.722172e+00 -1.068253e+00 -1.142109e+00 1.990354e+00 3.098671e+00 -3.336412e+00 -2.057504e+00 6.939597e-01 -1.074567e+00 -2.773106e-01 5.188953e-01 -5.823623e-01 -2.676874e-01 5.272349e-01 4.277668e-01 -3.809870e-01 -2.166712e-01 -4.067320e-01 -1.305045e-01 5.483322e-01
<VARIANCE> 25
 7.287881e+01 8.404575e+01 1.334393e+02 8.679291e+01 9.977746e+01 5.808291e+01 7.062321e+01 1.084815e+02 4.362388e+01 4.620680e+01 3.080557e+01 2.823411e+01 7.405127e+00 6.722854e+00 1.186203e+01 8.805343e+00 9.388117e+00 8.327332e+00 6.865922e+00 6.490651e+00 5.069368e+00 4.132529e+00 4.263208e+00 3.282383e+00 4.828485e+00
<GCONST> 1.199775e+02
<TRANSP> 5
 0.000000e+00 1.000000e+00 0.000000e+00 0.000000e+00 0.000000e+00
 0.000000e+00 9.163175e-01 8.368251e-02 0.000000e+00 0.000000e+00
 0.000000e+00 0.000000e+00 8.146833e-01 1.853167e-01 0.000000e+00
 0.000000e+00 0.000000e+00 0.000000e+00 8.347676e-01 1.652324e-01
 0.000000e+00 0.000000e+00 0.000000e+00 0.000000e+00 0.000000e+00
<ENDHMM>
~h "eh"
<BEGINHMM>
<NUMSTATES> 5
<STATE> 2
<MEAN> 25
 2.095233e+01 -1.261995e+01 -4.067978e+00 1.647783e+00 -6.749729e+00 -6.407560e+00 1.072223e+00 -1.380418e+00 -6.181527e-01 1.485156e+00 -5.779333e+00 -3.935489e+00 -2.224530e-01 9.084684e-01 -2.948045e-01 6.140398e-01 1.943310e-01 -4.000434e-01 2.834165e-01 3.639710e-01 1.041270e-01 -2.749086e-01 -2.960633e-01 2.152126e-01 -8.878709e-01
<VARIANCE> 25
 3.430771e+01 9.003069e+01 5.413710e+01 6.883403e+01 6.867405e+01 5.560378e+01 4.427400e+01 5.718968e+01 5.978249e+01 4.881836e+01 5.713456e+01 2.842808e+01 3.667040e+00 6.946656e+00 4.924991e+00 5.844346e+00 6.845508e+00 5.554846e+00 4.510689e+00 7.108489e+00 6.052819e+00 5.918589e+00 5.088001e+00 2.457889e+00 5.627317e+00
<GCONST> 1.151975e+02
<STATE> 3
<MEAN> 25
 1.888994e+01 -7.893630e+00 -4.707602e+00 3.521448e+00 -6.623352e+00 -6.303473e+00 1.825225e+00 -7.514031e-01 4.015654e-01 -4.630390e-02 -5.208101e+00 -2.965281e+00 -9.692053e-01 1.551896e+00 1.952937e-02 2.969011e-02 1.158390e-01 4.602164e-01 -1.863007e-02 6.214616e-02 2.284296e-01 -3.857053e-01 1.122034e-01 4.264738e-01 -1.716783e+00
<VARIANCE> 25
 6.132390e+01 1.412142e+02 4.674469e+01 6.137622e+01 6.477106e+01 4.536792e+01 4.780566e+01 6.578197e+01 6.535693e+01 4.891447e+01 4.174957e+01 2.758143e+01 4.201040e+00 6.849498e+00 5.157939e+00 5.438389e+00 6.926995e+00 4.467439e+00 4.375422e+00 5.769929e+00 4.691001e+00 5.120307e+00 4.152872e+00 2.139836e+00 4.369679e+00
<GCONST> 1.143255e+02
<STATE> 4
<MEAN> 25
 1.444674e+01 -2.007171e+00 -2.085837e+00 3.440784e+00 -5.953069e+00 -3.666896e+00 1.868829e+00 -1.228477e+00 2.617289e-01 -1.493519e-02 -4.436815e+00 -2.042244e+00 -1.564385e+00 1.049546e+00 2.316329e-01 -3.399910e-01 4.001989e-01 7.014669e-01 -1.984244e-01 4.249536e-02 4.870804e-02 -1.676399e-01 3.987872e-01 4.225934e-01 -1.680371e+00
<VARIANCE> 25
 1.207185e+02 2.073188e+02 6.076237e+01 5.918574e+01 6.357484e+01 4.146364e+01 4.104592e+01 5.124017e+01 5.109075e+01 3.922670e+01 3.660759e+01 2.493354e+01 3.807461e+00 9.760880e+00 5.229253e+00 4.278650e+00 5.383464e+00 3.519002e+00 3.873307e+00 4.042221e+00 3.568955e+00 3.468578e+00 3.065449e+00 1.818557e+00 3.572756e+00
<GCONST> 1.121332e+02
<TRANSP> 5
 0.000000e+00 1.000000e+00 0.000000e+00 0.000000e+00 0.000000e+00
 0.000000e+00 7.674160e-01 2.325840e-01 0.000000e+00 0.000000e+00
 0.000000e+00 0.000000e+00 6.803549e-01 3.196450e-01 0.000000e+00
 0.000000e+00 0.000000e+00 0.000000e+00 7.793993e-01 2.206007e-01
 0.000000e+00 0.000000e+00 0.000000e+00 0.000000e+00 0.000000e+00
<ENDHMM>
~h "er"
<BEGINHMM>
<NUMSTATES> 5
<STATE> 2
<MEAN> 25
 7.766285e+00 -7.377841e+00 7.275845e+00 -9.648615e+00 1.811079e+00 -5.503976e+00 -3.482896e+00 4.239285e+00 -2.881410e-01 -2.511477e-02 1.198612e+00 -1.204817e-01 -1.467831e-01 -1.196745e-01 1.148215e-01 2.607910e-01 -2.740051e-01 -2.143759e-01 2.230076e-01 9.825724e-02 -1.275811e-01 -2.109742e-02 -1.227258e-02 7.010241e-03 4.072177e-02
<VARIANCE> 25
 2.075992e+02 9.224773e+01 8.568744e+01 9.481741e+01 1.115102e+02 1.199263e+02 1.258258e+02 8.721540e+01 5.463445e+01 7.963961e+01 4.745437e+01 8.228880e+01 1.838739e+01 7.401858e+00 7.116150e+00 7.226094e+00 9.595361e+00 8.171806e+00 9.612591e+00 8.489966e+00 6.723695e+00 7.633230e+00 5.384624e+00 6.643814e+00 2.566636e+00
<GCONST> 1.263375e+02
<STATE> 3
<MEAN> 25
 9.237788e+00 -8.493425e+00 8.086153e+00 -5.278380e+00 -2.303106e+00 -8.501656e+00 -1.455482e+00 3.199914e+00 -9.853316e-01 5.244706e-01 -6.273229e-01 9.745259e-01 6.193506e-01 -2.279254e-01 -2.780822e-01 7.476280e-01 -5.085953e-01 -1.206278e-01 -1.222340e-01 -2.959962e-01 2.322997e-01 1.174998e-01 -4.552191e-01 -3.045629e-02 -1.933039e-01
<VARIANCE> 25
 1.933895e+02 8.442176e+01 7.121342e+01 1.173948e+02 1.288882e+02 8.983010e+01 1.047941e+02 7.218915e+01 5.045516e+01 6.308043e+01 5.331246e+01 4.695490e+01 1.709067e+01 7.060990e+00 7.379126e+00 7.077499e+00 9.338786e+00 7.695547e+00 8.055308e+00 6.944837e+00 6.593673e+00 6.403114e+00 5.759573e+00 5.313895e+00 4.077899e+00
<GCONST> 1.244752e+02
<STATE> 4
<MEAN> 25
 1.243331e+01 -8.053528e+00 2.350498e+00 -2.892184e-01 -6.722847e-01 -9.155657e+00 -3.936683e+00 6.738559e-01 2.386107e+00 1.506606e+00 -3.838146e+00 1.790050e-01 -2.514130e-01 3.524614e-01 -6.567695e-01 -1.673567e-01 9.956494e-01 1.130216e-01 -3.620660e-01 1.125091e-01 1.918994e-01 2.536843e-01 -6.054527e-02 -1.054445e-01 -5.835068e-01
<VARIANCE> 25
 1.199472e+02 8.971526e+01 9.946519e+01 1.032669e+02 1.562671e+02 7.079012e+01 8.529131e+01 7.645728e+01 5.542591e+01 6.486453e+01 4.566881e+01 4.476466e+01 1.196282e+01 8.628334e+00 1.084579e+01 1.188620e+01 1.448518e+01 8.120031e+00 6.961643e+00 7.186930e+00 6.136418e+00 6.872607e+00 5.183854e+00 4.710469e+00 7.178822e+00
<GCONST> 1.254564e+02
<TRANSP> 5
 0.000000e+00 1.000000e+00 0.000000e+00 0.000000e+00 0.000000e+00
 0.000000e+00 8.984123e-01 1.015876e-01 0.000000e+00 0.000000e+00
 0.000000e+00 0.000000e+00 8.538238e-01 1.461762e-01 0.000000e+00
 0.000000e+00 0.000000e+00 0.000000e+00 9.287748e-01 7.122514e-02
 0.000000e+00 0.000000e+00 0.000000e+00 0.000000e+00 0.000000e+00
<ENDHMM>
~h "ey"
<BEGINHMM>
<NUMSTATES> 5
<STATE> 2
<MEAN> 25
 4.689294e+00 1.131483e+01 1.019365e+01 9.270774e-01 -7.683711e+00 1.161932e+00 1.425267e+00 1.975935e-01 -4.809096e-01 -3.934919e-02 3.791576e+00 -1.118367e+00 1.778364e+00 -1.777750e+00 1.984099e+00 -8.607345e-01 -2.483301e+00 -1.767915e+00 2.421142e-01 8.121558e-01 -2.269555e+00 6.598137e-01 9.018037e-01 5.505736e-02 2.682906e+00
<VARIANCE> 25
 8.523514e+01 6.197949e+01 6.123810e+01 6.051649e+01 7.714170e+01 2.924426e+01 1.575313e+01 1.858792e+01 3.807899e+01 1.653186e+01 1.593243e+01 1.081493e+01 1.084787e+01 7.824487e+00 8.792114e+00 5.581285e+00 8.720736e+00 5.754427e+00 5.495236e+00 2.718811e+00 7.139592e+00 2.161293e+00 7.854499e-01 2.037392e+00 1.798301e+01
<GCONST> 1.087822e+02
<STATE> 3
<MEAN> 25
 7.772169e+00 4.680981e+00 1.291193e+01 -2.114366e+00 -1.215273e+01 -3.862199e+00 2.053307e+00 1.217052e+00 -7.700657e+00 1.430922e+00 5.222026e+00 -1.093329e+00 1.619905e+00 -2.834235e+00 2.106722e+00 -1.634253e+00 -2.190799e+00 -1.856686e+00 1.455352e-01 8.932027e-01 -2.275348e+00 3.288255e-01 6.436558e-01 1.674553e-01 3.572176e+00
<VARIANCE> 25
 5.316848e+01 8.062087e+01 9.431688e+01 7.129253e+01 6.821728e+01 7.023659e+01 5.031122e+01 3.004376e+01 5.635926e+01 2.767731e+01 1.289531e+01 1.889039e+01 8.827243e+00 3.654834e+00 1.192947e+01 9.230873e+00 7.494388e+00 4.281716e+00 5.605166e+00 3.641204e+00 1.113368e+01 4.081912e+00 1.603051e+00 2.478163e+00 1.369990e+01
<GCONST> 1.142402e+02
<STATE> 4
<MEAN> 25
 1.686030e+01 -1.223374e+01 1.348451e+01 -4.481158e+00 -1.296211e+01 -7.591208e+00 -8.899409e-01 2.854989e+00 -6.175761e+00 1.588980e+00 -6.065319e-01 1.745073e+00 6.884118e-01 -1.266676e+00 -3.772187e-01 -7.448331e-02 1.103616e-01 -3.649436e-01 -2.123250e-01 2.022388e-01 2.744223e-01 6.823831e-02 -4.928746e-01 1.036284e-01 1.192528e+00
<VARIANCE> 25
 3.609660e+01 8.348319e+01 1.241001e+02 9.838838e+01 5.535930e+01 5.578417e+01 3.750156e+01 4.651518e+01 1.104515e+02 3.883295e+01 3.454916e+01 1.845054e+01 2.536953e+00 3.288565e+00 6.382944e+00 5.592700e+00 5.371974e+00 5.075342e+00 3.621882e+00 3.700385e+00 6.735046e+00 3.121857e+00 2.346754e+00 1.932129e+00 4.878566e+00
<GCONST> 1.114284e+02
<TRANSP> 5
 0.000000e+00 1.000000e+00 0.000000e+00 0.000000e+00 0.000000e+00
 0.000000e+00 3.317521e-01 6.682479e-01 0.000000e+00 0.000000e+00
 0.000000e+00 0.000000e+00 4.570144e-01 5.429856e-01 0.000000e+00
 0.000000e+00 0.000000e+00 0.000000e+00 9.358135e-01 6.418647e-02
 0.000000e+00 0.000000e+00 0.000000e+00 0.000000e+00 0.000000e+00
<ENDHMM>
~h "ih"
<BEGINHMM>
<NUMSTATES> 5
<STATE> 2
<MEAN> 25
 -1.205447e+01 3.913131e+00 -1.468227e+00 9.090903e-01 4.314319e-01 3.124457e+00 1.696817e+00 2.056496e-01 1.476604e+00 -1.814236e+00 1.577944e+00 2.134816e+00 2.379822e-01 -1.376984e-01 -9.033788e-02 -1.698985e-01 -8.390899e-02 -9.326926e-02 -1.518309e-01 2.094524e-02 -9.609030e-02 5.023962e-02 -7.965921e-02 -1.076279e-01 2.655256e-01
<VARIANCE> 25
 3.143119e+01 1.401803e+01 1.798815e+01 3.699358e+01 1.397858e+01 2.532173e+01 1.839119e+01 1.845189e+01 1.925622e+01 1.341728e+01 1.868910e+01 1.755463e+01 2.198507e+00 1.116405e+00 1.547349e+00 1.967185e+00 1.706809e+00 2.130970e+00 1.558876e+00 2.061545e+00 1.444915e+00 1.352942e+00 1.642926e+00 1.649729e+00 2.915129e+00
<GCONST> 8.878639e+01
<STATE> 3
<MEAN> 25
 -1.105648e+01 3.114461e+00 -1.621492e+00 2.211917e+00 6.656584e-01 3.106389e+00 2.430248e+00 1.465668e+00 1.646999e+00 -1.314719e+00 7.491887e-01 1.357126e+00 3.234107e-01 -2.700267e-01 8.023725e-02 5.910462e-02 -5.298732e-02 -3.861920e-02 3.749815e-02 2.856549e-02 -1.153566e-01 7.779805e-02 -2.104771e-01 -1.615354e-01 4.291630e-01
<VARIANCE> 25
 3.280134e+01 2.122301e+01 1.419129e+01 2.820820e+01 1.544125e+01 1.904880e+01 1.812465e+01 1.657111e+01 1.640882e+01 1.170362e+01 1.711461e+01 1.384182e+01 2.188469e+00 1.794020e+00 1.214875e+00 1.511327e+00 1.452754e+00 1.367896e+00 1.474773e+00 1.607675e+00 1.527032e+00 1.563501e+00 1.288080e+00 1.383586e+00 1.666757e+00
<GCONST> 8.608333e+01
<STATE> 4
<MEAN> 25
 -8.150491e+00 4.132211e+00 -4.882492e-01 3.009689e+00 4.625292e-01 2.123334e+00 1.133279e+00 8.850813e-01 1.590085e+00 -9.169618e-01 7.422298e-01 8.066748e-01 1.041121e+00 -8.424731e-01 5.136705e-01 4.440060e-01 4.268828e-01 -6.481771e-01 -2.123072e-01 2.918240e-03 2.884318e-02 1.415127e-01 -4.132355e-01 -2.597405e-01 1.566584e+00
<VARIANCE> 25
 5.591877e+01 3.960110e+01 1.858161e+01 2.529222e+01 2.160473e+01 2.409292e+01 2.154371e+01 1.525229e+01 1.566871e+01 1.933929e+01 1.669848e+01 1.422320e+01 4.560604e+00 4.962264e+00 2.700969e+00 1.891135e+00 2.143378e+00 3.676727e+00 2.103900e+00 1.427764e+00 2.497382e+00 2.105863e+00 1.469119e+00 1.648748e+00 4.155100e+00
<GCONST> 9.491940e+01
<TRANSP> 5
 0.000000e+00 1.000000e+00 0.000000e+00 0.000000e+00 0.000000e+00
 0.000000e+00 6.325751e-01 3.674249e-01 0.000000e+00 0.000000e+00
 0.000000e+00 0.000000e+00 5.229172e-01 4.770828e-01 0.000000e+00
 0.000000e+00 0.000000e+00 0.000000e+00 3.516991e-01 6.483009e-01
 0.000000e+00 0.000000e+00 0.000000e+00 0.000000e+00 0.000000e+00
<ENDHMM>
~h "iy"
<BEGINHMM>
<NUMSTATES> 5
<STATE> 2
<MEAN> 25
 -7.946782e-01 1.209741e+01 2.859096e+00 6.613738e+00 -2.099566e+00 6.022071e-01 1.563730e-01 -4.837341e+00 -2.585663e+00 -5.006633e+00 -2.386384e+00 -1.302636e+00 -1.191304e+00 -8.304403e-01 -5.395157e-01 2.868417e-01 7.575050e-01 4.230694e-01 5.153785e-02 1.720635e-01 1.636271e-01 1.494692e-01 -1.327339e-02 -1.018611e-01 -7.171104e-01
<VARIANCE> 25
 5.269702e+01 3.673059e+01 1.741507e+01 1.870968e+01 2.154029e+01 2.090020e+01 1.209512e+01 2.271496e+01 1.363617e+01 1.486014e+01 2.260707e+01 2.205505e+01 1.301643e+00 1.578305e+00 2.100460e+00 1.458202e+00 1.480765e+00 1.345137e+00 1.599136e+00 1.521558e+00 1.248772e+00 9.132577e-01 1.111237e+00 1.697384e+00 3.610202e-01
<GCONST> 8.571497e+01
<STATE> 3
<MEAN> 25
 -6.918935e+00 7.755036e+00 6.785783e-01 5.994088e+00 5.826011e-01 2.377860e+00 1.092796e+00 -3.453590e+00 -2.278242e+00 -3.996231e+00 -7.170745e-01 7.261834e-01 -6.649553e-01 -4.420225e-01 -4.451406e-01 -1.277755e-01 2.339471e-01 1.654514e-01 1.535816e-01 3.289267e-01 1.185072e-01 -2.440700e-02 1.212300e-01 4.076864e-02 -3.824140e-01
<VARIANCE> 25
 1.446600e+01 1.962634e+01 1.260621e+01 2.208744e+01 1.147645e+01 1.505208e+01 1.370926e+01 1.522747e+01 1.323136e+01 1.766583e+01 1.958529e+01 2.358823e+01 6.143995e-01 9.859488e-01 8.772210e-01 9.906277e-01 8.605155e-01 9.050508e-01 1.249178e+00 1.321658e+00 1.457039e+00 1.899719e+00 9.640520e-01 1.647039e+00 1.223438e-01
<GCONST> 7.829681e+01
<STATE> 4
<MEAN> 25
 -9.003959e+00 5.509950e+00 -2.948797e-02 6.087006e+00 1.395650e+00 1.928360e+00 1.628697e+00 -1.342006e+00 -1.740257e+00 -3.840961e+00 -1.052669e+00 -3.749224e-01 -1.859118e-01 -9.855872e-02 -1.256405e-01 -8.773285e-02 2.953916e-02 1.838863e-02 4.203993e-02 1.252629e-01 1.514282e-01 6.053864e-02 1.666841e-02 3.392382e-03 -1.107818e-01
<VARIANCE> 25
 6.750703e+00 9.279970e+00 1.322968e+01 2.202563e+01 1.076563e+01 1.119358e+01 1.218601e+01 1.300403e+01 1.323376e+01 1.553569e+01 1.553301e+01 1.220475e+01 2.531546e-01 4.955788e-01 7.879801e-01 9.030699e-01 8.999543e-01 7.478120e-01 9.799072e-01 9.482794e-01 1.147996e+00 1.381680e+00 1.547295e+00 1.332202e+00 6.851736e-02
<GCONST> 7.180561e+01
<TRANSP> 5
 0.000000e+00 1.000000e+00 0.000000e+00 0.000000e+00 0.000000e+00
 0.000000e+00 6.713485e-01 3.286515e-01 0.000000e+00 0.000000e+00
 0.000000e+00 0.000000e+00 4.999441e-01 5.000559e-01 0.000000e+00
 0.000000e+00 0.000000e+00 0.000000e+00 9.040248e-01 9.597524e-02
 0.000000e+00 0.000000e+00 0.000000e+00 0.000000e+00 0.000000e+00
<ENDHMM>
~h "ng"
<BEGINHMM>
<NUMSTATES> 5
<STATE> 2
<MEAN> 25
 1.744781e+01 -5.292748e+00 3.516722e+00 -1.659404e+00 -8.780182e+00 -3.392034e+00 8.389122e+00 2.455902e-02 -1.298373e+01 1.796788e+00 -1.320472e-01 -4.870633e+00 3.449075e-01 1.886304e+00 -9.762522e-01 -3.637179e-01 7.910764e-01 7.881634e-01 -1.069684e+00 -1.614283e+00 6.096766e-01 5.135868e-01 5.786435e-02 2.724958e-01 -8.883163e-01
<VARIANCE> 25
 1.364504e+01 1.069453e+02 8.261221e+01 9.157609e+01 9.824419e+01 4.314658e+01 1.359742e+02 1.026906e+02 7.834044e+01 3.788963e+01 3.375089e+01 3.490610e+01 1.511625e+00 1.048226e+01 8.419125e+00 1.087822e+01 8.567831e+00 5.892975e+00 1.482877e+01 1.048146e+01 6.273644e+00 3.829095e+00 3.580109e+00 2.232034e+00 4.101099e+00
<GCONST> 1.180442e+02
<STATE> 3
<MEAN> 25
 1.862841e+01 -7.123685e-01 -7.982263e-01 -4.765423e+00 -3.418576e+00 -1.246544e+00 4.865392e-01 -4.446839e+00 -7.398319e+00 3.320158e+00 -1.177801e+00 -3.870847e+00 2.544941e-01 5.287850e-01 -9.576550e-01 -9.843448e-01 1.303980e+00 5.031936e-01 -2.032146e+00 -7.720382e-01 1.422467e+00 4.514310e-01 -2.606634e-01 1.058480e-01 2.967015e-02
<VARIANCE> 25
 1.191352e+01 1.135450e+02 6.784512e+01 1.059948e+02 1.097592e+02 4.950188e+01 1.563240e+02 9.619316e+01 9.842819e+01 3.926146e+01 4.378054e+01 3.289422e+01 1.532392e+00 1.332831e+01 8.219683e+00 9.679796e+00 9.372559e+00 6.912979e+00 1.295288e+01 1.065063e+01 4.410577e+00 3.479826e+00 4.475930e+00 2.268241e+00 4.649408e+00
<GCONST> 1.188649e+02
<STATE> 4
<MEAN> 25
 1.869113e+01 -1.990014e+00 -2.819313e+00 -1.324426e+01 4.404229e+00 6.439736e-01 -1.120501e+01 -5.432667e+00 -1.728349e+00 7.181988e+00 -3.783669e+00 -3.558477e+00 -4.117385e-02 -8.881617e-02 -2.040543e-01 -4.212700e-01 6.127353e-01 -1.670256e-03 -9.283943e-01 -1.937497e-01 5.826315e-01 3.523336e-01 -2.550192e-01 -4.526492e-03 1.238481e-01
<VARIANCE> 25
 1.205673e+01 9.411416e+01 5.335311e+01 1.375358e+02 1.055939e+02 4.865894e+01 1.224104e+02 1.165252e+02 5.052924e+01 5.620713e+01 3.996741e+01 2.789600e+01 1.162091e+00 8.955868e+00 5.118138e+00 9.709908e+00 8.952412e+00 5.353296e+00 7.947152e+00 1.033517e+01 4.025988e+00 3.595307e+00 3.831246e+00 2.679427e+00 3.734703e+00
<GCONST> 1.158053e+02
<TRANSP> 5
 0.000000e+00 1.000000e+00 0.000000e+00 0.000000e+00 0.000000e+00
 0.000000e+00 7.484058e-01 2.515942e-01 0.000000e+00 0.000000e+00
 0.000000e+00 0.000000e+00 7.567005e-01 2.432995e-01 0.000000e+00
 0.000000e+00 0.000000e+00 0.000000e+00 8.975933e-01 1.024067e-01
 0.000000e+00 0.000000e+00 0.000000e+00 0.000000e+00 0.000000e+00
<ENDHMM>
~h "th"
<BEGINHMM>
<NUMSTATES> 5
<STATE> 2
<MEAN> 25
 1.520045e+01 -4.318548e+00 1.721669e+01 2.930009e+00 -2.107677e+01 -7.304750e+00 5.615825e+00 -4.784843e+00 -1.058841e+01 -1.457357e+00 4.927411e-01 3.834257e-01 -1.170518e-01 2.001591e+00 3.715300e-01 2.748165e-01 -7.583236e-01 -1.613862e-01 4.663779e-01 -3.674960e-01 -7.390311e-01 3.720260e-01 2.648011e-01 -3.245976e-01 -1.206889e+00
<VARIANCE> 25
 2.740244e+01 1.420108e+02 4.225726e+01 9.191196e+01 1.158414e+02 6.635095e+01 1.027009e+02 6.630326e+01 1.052683e+02 4.508293e+01 3.145592e+01 4.143083e+01 3.192032e+00 7.577268e+00 5.372948e+00 7.364458e+00 1.162926e+01 8.181387e+00 1.186244e+01 5.992754e+00 1.260591e+01 3.873031e+00 4.123450e+00 4.752728e+00 5.172765e+00
<GCONST> 1.200791e+02
<STATE> 3
<MEAN> 25
 9.129583e+00 1.711397e+01 1.440799e+01 2.574688e+00 -1.642465e+01 -7.837360e+00 2.304982e+00 -5.192318e+00 -5.772429e+00 2.025441e+00 6.801025e-01 -1.893347e+00 -2.582542e+00 1.601710e-01 -2.334358e+00 -3.835451e-01 3.057534e+00 9.751869e-01 -1.982551e+00 6.593817e-01 2.003165e+00 -7.622367e-01 4.484657e-03 5.617740e-01 -2.452337e+00
<VARIANCE> 25
 2.026352e+01 2.415001e+01 3.107408e+01 4.901110e+01 3.344836e+01 4.526890e+01 5.230129e+01 3.985891e+01 2.794248e+01 1.949685e+01 3.038328e+01 1.132695e+01 1.004826e+00 6.553984e+00 3.730208e+00 5.890377e+00 8.970176e+00 4.820798e+00 1.202680e+01 1.884560e+00 5.416311e+00 3.103009e+00 2.450799e+00 1.133022e+00 5.605061e-01
<GCONST> 1.017015e+02
<STATE> 4
<MEAN> 25
 1.777099e+00 1.290289e+01 8.720457e+00 1.211882e+00 -1.271393e+01 -3.593164e+00 1.579162e+00 -5.182849e+00 -3.989394e+00 -4.453230e-02 -1.780200e+00 -1.169024e+00 -2.857618e+00 -1.736594e+00 -2.604796e+00 -7.915044e-01 2.031959e+00 1.467989e+00 -5.975644e-01 -2.996689e-02 6.641761e-01 -7.718390e-01 -6.269558e-01 3.055929e-01 -1.838052e+00
<VARIANCE> 25
 1.933945e+01 4.691004e+01 4.528211e+01 2.051952e+01 2.009697e+01 2.558608e+01 2.586959e+01 2.542364e+01 1.875749e+01 9.154846e+00 3.006073e+01 1.573542e+01 2.272440e+00 1.225945e+00 1.511421e+00 2.362621e+00 6.563020e+00 2.215705e+00 6.826662e+00 8.958911e-01 4.569238e+00 9.369076e-01 2.418174e+00 6.939949e-01 1.116093e+00
<GCONST> 9.249502e+01
<TRANSP> 5
 0.000000e+00 1.000000e+00 0.000000e+00 0.000000e+00 0.000000e+00
 0.000000e+00 9.259423e-01 7.405768e-02 0.000000e+00 0.000000e+00
 0.000000e+00 0.000000e+00 4.900841e-01 5.099159e-01 0.000000e+00
 0.000000e+00 0.000000e+00 0.000000e+00 4.666302e-01 5.333698e-01
 0.000000e+00 0.000000e+00 0.000000e+00 0.000000e+00 0.000000e+00
<ENDHMM>
~h "uw"
<BEGINHMM>
<NUMSTATES> 5
<STATE> 2
<MEAN> 25
 -4.007075e+00 6.043834e+00 6.729480e-01 1.838954e+00 -6.681766e-01 1.194502e+00 1.584803e+00 -2.229157e-02 -3.929341e+00 -4.508032e+00 -8.892919e-01 -1.286543e+00 -9.917594e-01 -5.597999e-01 5.384833e-02 5.313737e-01 1.702604e-01 -2.996267e-02 5.180337e-02 2.299768e-01 1.474221e-01 -1.883172e-02 -2.975667e-01 -2.071576e-01 -4.354745e-01
<VARIANCE> 25
 1.921943e+01 1.455878e+01 1.678737e+01 3.093273e+01 1.757556e+01 1.936604e+01 2.265129e+01 2.156638e+01 1.973998e+01 2.101968e+01 1.841806e+01 2.279429e+01 1.427872e+00 1.409574e+00 1.208303e+00 1.070841e+00 1.069308e+00 1.610046e+00 1.650882e+00 1.848168e+00 1.762927e+00 1.684557e+00 1.914943e+00 1.383288e+00 4.834533e-01
<GCONST> 8.587455e+01
<STATE> 3
<MEAN> 25
 -6.582659e+00 5.178222e+00 1.127103e+00 2.992024e+00 5.039886e-01 8.547642e-01 8.824516e-01 4.595936e-01 -2.747581e+00 -4.136665e+00 -8.812248e-01 -7.821052e-01 -5.638315e-01 -3.364984e-01 1.526339e-01 3.645980e-01 4.046952e-01 4.453697e-03 2.574071e-01 1.824289e-01 3.053785e-01 -9.403979e-02 -2.709799e-01 -8.447470e-02 -1.379099e-01
<VARIANCE> 25
 1.227741e+01 1.195622e+01 2.837522e+01 4.557256e+01 2.029016e+01 2.102945e+01 1.957420e+01 2.546097e+01 1.787015e+01 2.049417e+01 1.492733e+01 2.167556e+01 1.048665e+00 1.236787e+00 1.595470e+00 8.717999e-01 1.153851e+00 1.723712e+00 2.357279e+00 2.414361e+00 1.650664e+00 1.732136e+00 1.751435e+00 1.486966e+00 6.527733e-01
<GCONST> 8.664854e+01
<STATE> 4
<MEAN> 25
 2.985679e+00 7.343750e-01 9.371006e-02 -3.140234e+00 1.618561e+00 -8.027136e-01 -2.286933e+00 -1.644370e+00 -1.726233e+00 -1.268003e+00 -1.089989e+00 -5.635889e-01 -5.371149e-02 -6.373310e-02 3.212925e-02 7.855062e-02 7.360556e-02 2.074130e-03 7.479380e-02 5.257163e-02 1.157501e-01 4.745426e-02 4.649147e-02 1.317605e-02 8.797675e-03
<VARIANCE> 25
 1.796497e+02 6.319450e+01 4.541973e+01 1.374528e+02 5.131524e+01 6.947494e+01 5.395676e+01 3.151979e+01 2.224835e+01 3.525948e+01 2.602543e+01 1.787267e+01 2.896076e+00 4.481163e+00 3.121312e+00 5.133325e+00 2.453840e+00 3.289752e+00 4.368368e+00 3.267367e+00 2.700564e+00 3.930810e+00 3.141182e+00 1.890900e+00 4.020483e+00
<GCONST> 1.080679e+02
<TRANSP> 5
 0.000000e+00 1.000000e+00 0.000000e+00 0.000000e+00 0.000000e+00
 0.000000e+00 7.243157e-01 2.756843e-01 0.000000e+00 0.000000e+00
 0.000000e+00 0.000000e+00 5.574552e-01 4.425447e-01 0.000000e+00
 0.000000e+00 0.000000e+00 0.000000e+00 8.482103e-01 1.517896e-01
 0.000000e+00 0.000000e+00 0.000000e+00 0.000000e+00 0.000000e+00
<ENDHMM>
~h "sil"
<BEGINHMM>
<NUMSTATES> 5
<STATE> 2
<MEAN> 25
 -1.143699e+01 4.384297e+00 -1.520719e+00 4.102833e+00 7.795361e-01 3.118518e+00 2.493885e+00 6.961304e-01 1.327489e+00 -1.557490e+00 1.271531e+00 9.890450e-01 -3.372908e-02 -8.404672e-03 2.325226e-02 5.334529e-02 7.094173e-02 3.066628e-02 2.708692e-02 3.405574e-02 6.895358e-03 1.948155e-03 -4.173531e-03 5.072065e-03 -2.055824e-02
<VARIANCE> 25
 1.153832e+01 6.268929e+00 9.873565e+00 1.490243e+01 1.106462e+01 1.407324e+01 1.486646e+01 1.880768e+01 1.668428e+01 1.396236e+01 1.410320e+01 1.400562e+01 1.201855e-01 2.453074e-01 4.093298e-01 6.112412e-01 8.004726e-01 8.710614e-01 1.018429e+00 1.262810e+00 1.200860e+00 1.207696e+00 1.134259e+00 1.104303e+00 5.273724e-02
<GCONST> 6.927372e+01
<STATE> 3
<MEAN> 25
 -1.246863e+01 4.175550e+00 -1.343872e+00 4.304985e+00 1.434608e+00 3.746584e+00 2.979079e+00 1.623357e+00 2.022145e+00 -1.243894e+00 1.541688e+00 1.473592e+00 1.367858e-02 4.974946e-02 -1.111204e-02 -7.844755e-02 -1.080818e-01 -8.985593e-02 -3.652624e-02 4.394896e-02 3.864803e-02 2.682283e-02 -1.830028e-02 2.772299e-02 -1.061131e-02
<VARIANCE> 25
 1.803442e+01 7.265149e+00 1.081262e+01 1.369204e+01 1.006813e+01 1.362647e+01 1.485255e+01 1.856618e+01 1.807795e+01 1.425908e+01 1.451353e+01 1.479973e+01 1.975029e-01 4.670126e-01 4.926513e-01 6.683770e-01 8.706404e-01 8.847562e-01 1.111684e+00 1.256288e+00 1.433949e+00 1.311883e+00 1.166334e+00 1.107578e+00 2.464340e-01
<GCONST> 7.334859e+01
<STATE> 4
<MEAN> 25
 -9.476402e+00 4.818776e+00 2.260453e-01 3.039411e+00 1.112850e+00 2.466378e+00 9.995650e-01 8.408256e-01 1.340011e-01 -1.834709e+00 3.389382e-01 6.758628e-01 1.633939e-01 6.574079e-02 5.973996e-02 -2.355118e-02 -1.017873e-01 -1.362409e-01 -1.242652e-01 -3.996817e-02 -2.033380e-03 1.242658e-03 -2.019579e-02 -9.426961e-02 1.117505e-01
<VARIANCE> 25
 2.339623e+01 2.011398e+01 1.781256e+01 1.675331e+01 1.319962e+01 1.614394e+01 1.883284e+01 1.668200e+01 1.768745e+01 1.592498e+01 1.274406e+01 1.294889e+01 9.458700e-01 1.151633e+00 8.467073e-01 9.983501e-01 1.136166e+00 1.541252e+00 1.420998e+00 1.238026e+00 1.459234e+00 1.386139e+00 1.183754e+00 1.217489e+00 1.232002e+00
<GCONST> 8.197910e+01
<TRANSP> 5
 0.000000e+00 1.000000e+00 0.000000e+00 0.000000e+00 0.000000e+00
 0.000000e+00 9.513118e-01 4.868828e-02 0.000000e+00 0.000000e+00
 0.000000e+00 0.000000e+00 6.826833e-01 3.173166e-01 0.000000e+00
 0.000000e+00 0.000000e+00 0.000000e+00 7.881201e-01 2.118799e-01
 0.000000e+00 0.000000e+00 0.000000e+00 0.000000e+00 0.000000e+00
<ENDHMM>
