~o
<STREAMINFO> 1 25
<VECSIZE> 25<NULLD><MFCC_D_N_Z_0><DIAGC>
~s "silst"
<MEAN> 25
 -1.537243e+01 4.065651e+00 -1.056180e+00 3.911875e+00 2.614556e+00 5.200787e+00 2.791496e+00 3.290950e+00 4.200953e+00 6.360288e-01 4.032743e+00 3.296818e+00 -3.549172e-02 -2.268766e-02 2.801946e-02 2.381127e-02 -2.885096e-02 -3.975926e-02 2.890872e-02 -9.181789e-02 -1.472974e-01 -2.023476e-02 1.139763e-02 7.811515e-03 -7.571200e-03
<VARIANCE> 25
 1.016317e+01 4.297649e+00 1.047309e+01 1.109596e+01 8.335012e+00 1.025857e+01 1.361408e+01 1.638680e+01 1.946590e+01 1.469435e+01 1.501459e+01 1.072031e+01 1.423863e-01 2.631836e-01 3.964721e-01 5.177414e-01 6.939689e-01 7.309706e-01 9.359446e-01 1.294335e+00 1.240296e+00 1.249490e+00 1.097005e+00 1.083014e+00 5.962093e-02
<GCONST> 6.750881e+01
~h "b"
<BEGINHMM>
<NUMSTATES> 5
<STATE> 2
<MEAN> 25
 2.048909e+01 -3.077848e+00 -2.604015e-01 -1.350384e+00 -3.108190e+00 4.185222e+00 -7.125460e+00 -1.916612e+01 -2.813226e+00 5.943780e+00 -5.335011e+00 -2.282468e+00 3.748822e-01 -3.676381e-01 -1.929188e-01 -7.289188e-01 -6.070430e-01 2.301748e-01 3.034039e-01 -7.260832e-01 -6.592347e-02 6.807193e-01 -9.899051e-02 -1.474534e-01 5.262830e-01
<VARIANCE> 25
 6.956780e+00 5.555059e+01 4.836419e+01 8.024636e+01 9.402561e+01 6.307562e+01 9.075946e+01 6.264649e+01 5.525242e+01 3.692892e+01 5.081884e+01 2.659931e+01 4.802305e-01 6.437479e+00 5.119157e+00 6.206492e+00 8.790675e+00 7.432883e+00 6.693054e+00 6.458339e+00 6.021373e+00 2.058070e+00 4.521862e+00 1.783612e+00 2.593187e+00
<GCONST> 1.104223e+02
<STATE> 3
<MEAN> 25
 2.207410e+01 7.944628e+00 -8.747952e+00 -1.072033e+01 5.977291e-01 6.159985e+00 -3.199195e+00 -1.595327e+01 -7.562101e+00 5.602941e+00 1.849306e+00 -5.039561e-01 -7.624487e-01 2.414043e+00 -7.548428e-01 -3.942312e-01 1.511422e+00 -6.456092e-02 1.505882e-01 2.461231e+00 -6.200413e-01 -1.650509e+00 1.657378e+00 9.898345e-01 -1.806217e+00
<VARIANCE> 25
 5.410291e+00 2.617308e+01 1.566617e+01 9.976105e+01 4.535051e+01 3.905146e+01 5.104903e+01 9.086472e+01 4.630527e+01 2.718649e+01 3.050835e+01 1.104444e+01 1.094532e+00 1.786914e+00 2.494881e+00 5.862693e+00 4.788188e+00 3.432440e+00 5.075298e+00 4.002358e+00 2.868659e+00 2.179754e+00 3.139015e+00 1.608440e+00 7.085459e-01
<GCONST> 9.940564e+01
<STATE> 4
<MEAN> 25
 1.772895e+01 1.426129e+01 -7.546629e+00 -1.073024e+01 -1.491451e+00 6.698914e+00 1.015951e+00 -8.154514e+00 -9.392434e+00 -2.808327e+00 3.383907e+00 1.870048e+00 -2.606853e+00 4.640875e-01 1.659697e+00 1.783498e+00 -5.771250e-01 -1.277542e-01 9.149197e-01 1.551713e+00 1.203159e+00 -1.211971e+00 -2.401686e-01 3.887769e-02 -2.226129e+00
<VARIANCE> 25
 2.528808e+01 7.276668e+00 1.855429e+01 6.924654e+01 5.528652e+01 2.407649e+01 2.486887e+01 2.131283e+01 3.115561e+01 3.596233e+01 1.837949e+01 1.637153e+01 2.481103e+00 2.245225e+00 2.128823e+00 1.831932e+00 3.544580e+00 3.090871e+00 1.149969e+00 4.585271e+00 1.793137e+00 1.625709e+00 1.742732e+00 1.077545e+00 5.227601e-01
<GCONST> 9.270157e+01
<TRANSP> 5
 0.000000e+00 1.000000e+00 0.000000e+00 0.000000e+00 0.000000e+00
 0.000000e+00 9.083322e-01 9.166778e-02 0.000000e+00 0.000000e+00
 0.000000e+00 0.000000e+00 7.536536e-01 2.463464e-01 0.000000e+00
 0.000000e+00 0.000000e+00 0.000000e+00 6.906000e-01 3.094000e-01
 0.000000e+00 0.000000e+00 0.000000e+00 0.000000e+00 0.000000e+00
<ENDHMM>
~h "d"
<BEGINHMM>
<NUMSTATES> 5
<STATE> 2
<MEAN> 25
 -1.679572e+01 2.027650e+00 -2.651761e-01 6.823307e+00 1.558690e+00 4.380486e+00 4.588509e+00 4.374927e+00 5.293380e+00 1.713340e+00 4.927635e+00 4.063923e+00 -5.813268e-03 1.073602e-02 3.712569e-03 1.669342e-02 1.623926e-02 -8.321143e-03 -4.665891e-02 -2.138503e-02 8.580110e-02 4.895742e-02 -4.184006e-03 -2.058695e-02 -1.079283e-02
<VARIANCE> 25
 4.209633e+00 4.795307e+00 4.300318e+00 9.914596e+00 7.510981e+00 8.405939e+00 1.047470e+01 1.549909e+01 1.046743e+01 9.137922e+00 8.244004e+00 7.606242e+00 4.253944e-02 1.431515e-01 2.381738e-01 3.542370e-01 4.481035e-01 4.702731e-01 7.761011e-01 1.223544e+00 1.186739e+00 1.051330e+00 7.742062e-01 8.957226e-01 4.115048e-02
<GCONST> 5.812093e+01
<STATE> 3
<MEAN> 25
 -1.333949e+01 5.399066e+00 -3.848020e-01 1.076979e+00 2.156147e+00 2.598985e+00 -7.556111e-02 2.968997e+00 1.186250e+00 -1.692508e+00 1.120235e+00 2.387125e+00 -6.217360e-03 1.617817e-02 2.406882e-02 2.807001e-03 -2.428351e-03 1.662423e-02 7.407255e-02 -5.964084e-02 -1.253613e-01 -4.164289e-02 9.909975e-03 -5.753431e-02 -1.263295e-02
<VARIANCE> 25
 4.735768e+00 4.610400e+00 7.803633e+00 1.548285e+01 9.338921e+00 1.085672e+01 1.563224e+01 1.234103e+01 1.168563e+01 1.192533e+01 1.091986e+01 1.105469e+01 1.000459e-01 2.384912e-01 3.637663e-01 6.690584e-01 7.586136e-01 8.495808e-01 1.127008e+00 7.642533e-01 1.179857e+00 9.670654e-01 1.251138e+00 1.228301e+00 4.115048e-02
<GCONST> 6.507026e+01
<STATE> 4
<MEAN> 25
 -1.061617e+01 3.843958e+00 4.853873e-01 2.896713e+00 1.070217e+00 1.717936e+00 1.315439e+00 1.267595e+00 5.516739e-01 -1.351848e+00 -4.803706e-01 6.061645e-01 1.857508e-01 1.525704e-02 4.018200e-02 -4.189380e-02 -5.162834e-02 -9.384970e-02 -5.807082e-02 -3.633473e-02 -1.047657e-01 -1.936499e-02 -1.249742e-01 -1.244461e-01 1.692301e-01
<VARIANCE> 25
 1.308115e+01 5.331516e+00 1.224423e+01 2.511285e+01 1.388926e+01 1.257974e+01 2.255055e+01 1.678544e+01 1.792538e+01 1.108757e+01 1.617647e+01 1.620016e+01 1.322665e+00 5.638782e-01 8.162813e-01 1.341016e+00 1.242396e+00 1.578991e+00 1.220606e+00 1.379169e+00 2.115074e+00 1.274878e+00 1.233442e+00 1.515232e+00 2.467834e+00
<GCONST> 8.139275e+01
<TRANSP> 5
 0.000000e+00 1.000000e+00 0.000000e+00 0.000000e+00 0.000000e+00
 0.000000e+00 9.412363e-01 5.876370e-02 0.000000e+00 0.000000e+00
 0.000000e+00 0.000000e+00 8.838765e-01 1.161235e-01 0.000000e+00
 0.000000e+00 0.000000e+00 0.000000e+00 8.503327e-01 1.496673e-01
 0.000000e+00 0.000000e+00 0.000000e+00 0.000000e+00 0.000000e+00
<ENDHMM>
~h "f"
<BEGINHMM>
<NUMSTATES> 5
<STATE> 2
<MEAN> 25
 -1.912679e+01 3.220238e+00 -1.258214e+00 5.041211e+00 1.687107e+00 5.905355e+00 5.700108e+00 4.965726e+00 5.609606e+00 9.864557e-01 5.556693e+00 3.845160e+00 4.066790e-03 4.424423e-03 1.054744e-02 1.805588e-02 3.797109e-02 -2.340524e-02 -9.276419e-02 -4.842800e-03 9.727645e-02 4.991697e-02 -5.746068e-03 -1.932412e-03 -3.716532e-03
<VARIANCE> 25
 4.210138e+00 5.845074e+00 6.342252e+00 1.612627e+01 9.569433e+00 9.478602e+00 9.183146e+00 1.638836e+01 1.161566e+01 1.003934e+01 7.713427e+00 8.663151e+00 4.253944e-02 1.417566e-01 2.144796e-01 3.297530e-01 4.511085e-01 4.433947e-01 6.817197e-01 1.114952e+00 1.018417e+00 1.063083e+00 8.106284e-01 9.954470e-01 4.115048e-02
<GCONST> 5.929096e+01
<STATE> 3
<MEAN> 25
 -1.645948e+01 5.751971e+00 -6.474745e-01 2.942804e+00 3.101960e+00 6.436273e+00 2.705056e+00 2.058969e+00 3.113438e+00 6.254818e-02 4.051082e+00 4.072469e+00 9.593293e-04 -1.781607e-03 9.952310e-02 -3.333005e-02 -4.458976e-02 2.593595e-01 3.951943e-01 -1.675208e-01 -9.238916e-01 -3.534771e-01 -7.198127e-02 1.633497e-01 1.286632e-02
<VARIANCE> 25
 1.142888e+01 7.635178e+00 7.754364e+00 1.447051e+01 9.770018e+00 8.093781e+00 1.025755e+01 1.368984e+01 1.269724e+01 7.977931e+00 5.190035e+00 8.321181e+00 7.236938e-02 1.198210e-01 1.463364e-01 2.998412e-01 7.334191e-01 4.850557e-01 8.523759e-01 1.011235e+00 7.514278e-01 6.386940e-01 4.820951e-01 5.994979e-01 4.115048e-02
<GCONST> 5.861283e+01
<STATE> 4
<MEAN> 25
 -1.303970e+01 4.321744e+00 3.630186e-01 -1.005737e+00 1.979196e+00 3.181746e+00 1.593782e+00 3.383691e+00 -1.725597e-01 -7.202580e-01 1.848804e+00 2.510690e+00 2.119100e-01 -2.787585e-03 1.795611e-03 -1.295441e-01 -1.335501e-01 -1.876914e-01 -4.111919e-02 -3.123702e-02 -1.287715e-01 -5.316618e-02 -1.120374e-01 -3.327411e-02 2.003586e-01
<VARIANCE> 25
 1.051964e+01 6.576648e+00 6.585522e+00 1.210203e+01 1.335942e+01 1.712002e+01 1.385782e+01 2.108577e+01 1.565243e+01 9.324286e+00 1.317285e+01 1.006221e+01 8.874158e-01 5.323252e-01 6.910007e-01 9.574783e-01 1.458034e+00 1.606389e+00 1.419543e+00 1.318727e+00 1.543120e+00 9.736769e-01 1.181577e+00 1.163711e+00 2.184572e+00
<GCONST> 7.736414e+01
<TRANSP> 5
 0.000000e+00 1.000000e+00 0.000000e+00 0.000000e+00 0.000000e+00
 0.000000e+00 9.516093e-01 4.839073e-02 0.000000e+00 0.000000e+00
 0.000000e+00 0.000000e+00 5.229858e-01 4.770143e-01 0.000000e+00
 0.000000e+00 0.000000e+00 0.000000e+00 9.036765e-01 9.632358e-02
 0.000000e+00 0.000000e+00 0.000000e+00 0.000000e+00 0.000000e+00
<ENDHMM>
~h "g"
<BEGINHMM>
<NUMSTATES> 5
<STATE> 2
<MEAN> 25
 1.826024e+01 -1.287293e+01 2.847341e+00 4.027663e+00 -7.057388e+00 -9.601597e+00 -5.009221e+00 -2.075030e+00 -2.844871e+00 2.279159e+00 -7.779245e-01 -1.797487e+00 5.978473e-01 -3.989910e-01 7.142364e-01 3.584905e-01 -1.863716e+00 -3.782889e-01 1.221930e+00 -4.435106e-01 -9.522843e-01 3.383320e-01 4.846933e-01 -2.121366e-01 6.458766e-01
<VARIANCE> 25
 2.127040e+01 3.591536e+01 1.033889e+02 1.325967e+02 1.358466e+02 7.370829e+01 7.720017e+01 6.617336e+01 6.577052e+01 6.010401e+01 3.785759e+01 4.052650e+01 2.539673e+00 6.833855e+00 1.107966e+01 1.286615e+01 6.834198e+00 4.052817e+00 8.667486e+00 9.223415e+00 6.266190e+00 5.979165e+00 4.940913e+00 4.011073e+00 3.171015e+00
<GCONST> 1.187600e+02
<STATE> 3
<MEAN> 25
 1.807184e+01 -6.279450e+00 6.273828e+00 -1.483976e+00 -1.067827e+01 -5.844332e+00 1.402369e+00 -1.295167e+00 -1.017658e+01 1.319039e+00 1.141062e+00 -1.328766e+00 -9.955546e-02 3.877612e+00 -1.684783e+00 1.591795e+00 4.231182e-01 7.816955e-01 1.473189e+00 -1.362354e+00 -2.255318e-02 -1.611926e+00 1.033781e-01 7.430917e-02 -2.616527e+00
<VARIANCE> 25
 1.742255e+01 7.594240e+01 1.227370e+02 1.235813e+02 1.081719e+02 4.834824e+01 1.362248e+02 7.734396e+01 8.223546e+01 5.612836e+01 2.505769e+01 3.340999e+01 7.122433e-01 7.141758e+00 5.015810e+00 1.161912e+01 5.043586e+00 3.001152e+00 6.049618e+00 6.516318e+00 5.120003e+00 5.795275e+00 2.692710e+00 2.434163e+00 3.410140e+00
<GCONST> 1.143340e+02
<STATE> 4
<MEAN> 25
 1.774956e+01 9.271657e+00 -9.817397e-01 -7.711380e-01 -3.639302e+00 -1.258740e+00 -2.136539e+00 -7.888276e+00 -4.592371e+00 -8.178543e-01 -9.601487e-01 -3.019721e+00 -9.064196e-01 2.519470e+00 3.877054e-01 4.380574e-01 7.195652e-02 6.622697e-02 -4.637067e-01 -2.499797e-01 1.431296e+00 -3.435336e-01 2.468156e-01 -3.276078e-01 -1.751096e+00
<VARIANCE> 25
 1.946443e+01 1.459706e+02 7.458765e+01 4.790698e+01 4.888215e+01 2.960469e+01 8.104408e+01 3.206279e+01 3.977146e+01 7.450267e+01 1.560337e+01 2.684846e+01 1.297226e+00 6.899073e+00 8.413907e+00 7.920490e+00 4.887742e+00 3.764895e+00 7.174879e+00 4.721978e+00 4.751899e+00 4.253213e+00 2.456355e+00 1.862801e+00 2.543791e+00
<GCONST> 1.095387e+02
<TRANSP> 5
 0.000000e+00 1.000000e+00 0.000000e+00 0.000000e+00 0.000000e+00
 0.000000e+00 7.799465e-01 2.200535e-01 0.000000e+00 0.000000e+00
 0.000000e+00 0.000000e+00 6.001079e-01 3.998921e-01 0.000000e+00
 0.000000e+00 0.000000e+00 0.000000e+00 4.321812e-01 5.678188e-01
 0.000000e+00 0.000000e+00 0.000000e+00 0.000000e+00 0.000000e+00
<ENDHMM>
~h "k"
<BEGINHMM>
<NUMSTATES> 5
<STATE> 2
<MEAN> 25
 -1.902377e+00 -6.719496e-01 2.506050e+00 -1.143425e+01 1.314740e+01 -4.083575e+00 -8.512925e+00 3.241494e+00 2.134079e+00 2.467528e+00 1.438292e-01 1.193923e+00 -1.031179e+00 -3.143971e-01 2.790711e-01 -7.823244e-02 -2.421194e-02 7.595416e-01 -5.820907e-01 2.349041e-01 5.641568e-02 -3.617321e-01 5.791745e-01 2.261780e-01 -9.266207e-01
<VARIANCE> 25
 1.912059e+02 4.959796e+01 4.395704e+01 1.045436e+02 7.479337e+01 5.520657e+01 5.395918e+01 3.111038e+01 4.619688e+01 6.455128e+01 3.830993e+01 2.993922e+01 1.467507e+01 6.020606e+00 6.122063e+00 7.233974e+00 6.216498e+00 4.943846e+00 5.423816e+00 4.713758e+00 4.349608e+00 3.996461e+00 4.227415e+00 3.248887e+00 7.668605e+00
<GCONST> 1.167851e+02
<STATE> 3
<MEAN> 25
 4.916073e+00 -5.061580e+00 -6.309728e+00 -8.569532e+00 1.229531e+01 1.573362e+00 -1.057746e+01 3.531076e+00 1.283329e+00 1.860720e+00 1.799216e+00 2.311236e-01 3.428035e+00 4.202911e-01 -2.337974e+00 -1.119407e+00 -5.754071e-01 1.057768e+00 9.545518e-01 -1.002428e+00 -1.556421e+00 4.306361e-01 2.982252e-01 -9.856601e-01 1.258829e+00
<VARIANCE> 25
 1.043083e+02 6.679035e+01 8.535106e+01 9.202715e+01 8.691438e+01 5.861351e+01 9.476343e+01 7.739559e+01 6.224969e+01 5.774905e+01 3.958139e+01 3.217180e+01 8.672291e+00 8.465243e+00 6.771018e+00 1.543770e+01 1.488056e+01 7.773599e+00 1.160840e+01 8.215331e+00 6.948799e+00 5.503842e+00 4.591791e+00 4.067439e+00 2.018064e+01
<GCONST> 1.243677e+02
<STATE> 4
<MEAN> 25
 1.510513e+01 -2.049388e+00 -9.057634e+00 -1.138632e+01 4.299232e+00 4.313607e+00 -3.635729e+00 -3.363679e+00 -4.520263e+00 3.078693e+00 2.233769e+00 -2.206097e+00 2.689810e+00 5.234726e-03 5.473074e-01 -1.349003e-01 -1.910213e+00 8.207825e-02 1.239078e+00 -1.808035e+00 -8.902921e-01 2.937609e-01 3.482454e-01 -2.977226e-01 1.896790e+00
<VARIANCE> 25
 7.786328e+01 7.216885e+01 5.497193e+01 9.781147e+01 5.322211e+01 1.014672e+02 5.338729e+01 4.170309e+01 4.994404e+01 4.254200e+01 4.889259e+01 3.597856e+01 8.955703e+00 6.070692e+00 8.020991e+00 9.288891e+00 8.209548e+00 7.237543e+00 8.012301e+00 8.672371e+00 7.439724e+00 4.325172e+00 4.866794e+00 3.657044e+00 1.084408e+01
<GCONST> 1.199734e+02
<TRANSP> 5
 0.000000e+00 1.000000e+00 0.000000e+00 0.000000e+00 0.000000e+00
 0.000000e+00 8.762197e-01 1.237803e-01 0.000000e+00 0.000000e+00
 0.000000e+00 0.000000e+00 7.562025e-01 2.437975e-01 0.000000e+00
 0.000000e+00 0.000000e+00 0.000000e+00 5.437867e-01 4.562133e-01
 0.000000e+00 0.000000e+00 0.000000e+00 0.000000e+00 0.000000e+00
<ENDHMM>
~h "l"
<BEGINHMM>
<NUMSTATES> 5
<STATE> 2
<MEAN> 25
 1.634940e+00 6.207440e+00 -1.720143e+00 -2.380495e+00 5.652249e-03 2.749035e+00 -9.013969e-01 -3.176600e+00 9.153212e-01 -1.078039e-02 1.407114e+00 1.331639e+00 -1.294429e+00 -1.768649e+00 8.211645e-01 6.314065e-01 -5.514510e-01 -1.232274e+00 3.113165e-01 8.949807e-01 1.433599e-01 -1.716070e-01 4.449109e-01 4.678817e-01 3.173575e-01
<VARIANCE> 25
 1.420514e+02 8.657810e+01 5.158109e+01 6.971822e+01 4.710132e+01 5.037201e+01 3.251475e+01 4.608247e+01 3.841271e+01 2.906435e+01 3.013375e+01 2.235592e+01 1.150134e+01 5.924372e+00 5.082101e+00 3.473106e+00 4.964293e+00 6.245506e+00 3.688480e+00 3.464412e+00 2.642705e+00 2.180415e+00 2.151246e+00 1.669965e+00 1.601633e+01
<GCONST> 1.110443e+02
<STATE> 3
<MEAN> 25
 3.297754e+00 2.436646e+00 -7.237111e-01 -8.822069e-01 -2.336448e-02 -1.962261e-01 -8.503129e-01 -1.874417e+00 2.249149e-01 -9.492654e-01 1.316147e+00 1.596936e+00 5.822071e-01 -3.021086e+00 9.026893e-01 3.913947e-01 -6.657269e-01 -1.873654e+00 1.736927e-01 8.675563e-01 -2.101382e-01 -3.133256e-01 -3.107113e-01 1.586876e-01 2.718886e+00
<VARIANCE> 25
 1.295800e+02 1.538604e+02 6.472720e+01 8.321381e+01 6.234668e+01 6.002365e+01 3.331333e+01 4.375450e+01 4.697785e+01 3.590835e+01 2.617319e+01 2.111798e+01 1.431390e+01 7.975192e+00 5.494403e+00 4.718461e+00 7.065783e+00 7.462039e+00 3.390219e+00 3.870460e+00 3.824668e+00 2.521405e+00 2.659967e+00 1.944867e+00 2.222628e+01
<GCONST> 1.152396e+02
<STATE> 4
<MEAN> 25
 4.988044e+00 -4.586371e+00 9.218694e-01 -4.526357e-01 -3.566089e-01 -4.736602e+00 -1.299509e+00 7.895892e-01 9.140307e-01 -1.786595e+00 -3.483194e-01 1.904829e+00 1.742773e+00 -2.426304e+00 9.260783e-01 4.895949e-01 -9.830931e-01 -1.302250e+00 -1.984397e-01 5.743070e-01 -4.041928e-01 -1.548012e-01 -4.094223e-01 -3.342015e-01 2.720866e+00
<VARIANCE> 25
 1.106532e+02 1.352738e+02 7.120118e+01 8.539236e+01 6.014944e+01 9.305772e+01 4.812093e+01 5.637869e+01 5.750597e+01 3.576835e+01 3.224779e+01 2.997098e+01 1.382244e+01 1.112160e+01 8.045265e+00 5.277377e+00 9.762651e+00 6.595812e+00 5.306974e+00 4.057924e+00 6.219675e+00 3.399324e+00 4.957704e+00 3.147632e+00 1.577069e+01
<GCONST> 1.198873e+02
<TRANSP> 5
 0.000000e+00 1.000000e+00 0.000000e+00 0.000000e+00 0.000000e+00
 0.000000e+00 3.488347e-01 6.511654e-01 0.000000e+00 0.000000e+00
 0.000000e+00 0.000000e+00 6.120764e-02 9.387923e-01 0.000000e+00
 0.000000e+00 0.000000e+00 0.000000e+00 3.530515e-01 6.469485e-01
 0.000000e+00 0.000000e+00 0.000000e+00 0.000000e+00 0.000000e+00
<ENDHMM>
~h "m"
<BEGINHMM>
<NUMSTATES> 5
<STATE> 2
<MEAN> 25
 2.370209e+00 5.022066e+00 8.707436e+00 -7.311856e+00 7.798627e+00 -1.197330e+01 -5.435554e+00 4.453686e+00 1.718591e-01 -4.089361e+00 -3.790264e+00 3.108001e+00 1.500582e+00 -9.515952e-01 9.034698e-01 -1.435207e+00 4.748895e-01 -6.489164e-01 -1.384452e+00 -6.802236e-01 7.341616e-02 9.926980e-03 -4.721745e-02 -2.393255e-01 3.574009e+00
<VARIANCE> 25
 6.654014e+01 7.656248e+01 6.055576e+01 6.657150e+01 1.040483e+02 7.468294e+01 1.484019e+02 6.083902e+01 5.110333e+01 5.699181e+01 5.640879e+01 3.069215e+01 1.458684e+01 1.213011e+01 5.244933e+00 7.333864e+00 1.401480e+01 8.613714e+00 1.128940e+01 1.203519e+01 9.199494e+00 9.926660e+00 6.983443e+00 4.580354e+00 4.687530e+00
<GCONST> 1.243397e+02
<STATE> 3
<MEAN> 25
 2.207296e+01 -9.763742e+00 7.019550e+00 -1.252533e+01 1.931919e+00 6.221568e-01 -9.376554e+00 -1.203996e+01 -1.665146e+00 7.671216e+00 -1.526276e+00 -3.385400e+00 1.962878e+00 -6.184109e-01 -7.876630e-01 -1.557505e-01 -1.529987e+00 2.173851e+00 1.270744e+00 -6.071335e-01 -7.018045e-01 6.348614e-01 2.913720e-02 2.836068e-01 -5.425632e-01
<VARIANCE> 25
 2.727232e+01 2.742220e+01 6.002945e+01 1.389181e+02 5.772026e+01 1.329865e+02 9.146385e+01 1.061665e+02 5.178629e+01 5.542661e+01 2.200403e+01 3.215769e+01 4.607960e+00 5.931249e+00 8.297315e+00 1.086103e+01 6.648358e+00 1.051327e+01 7.103834e+00 1.631539e+01 8.297237e+00 1.182206e+01 1.781339e+00 4.889008e+00 4.071478e+00
<GCONST> 1.192069e+02
<STATE> 4
<MEAN> 25
 2.092411e+01 -5.757689e+00 3.050567e+00 -6.875133e+00 -3.148404e+00 1.970392e+00 1.007510e+00 -6.176382e+00 -6.298360e+00 -2.336179e-02 -5.832676e-01 -6.727291e-01 -2.409972e-01 6.233204e-01 -3.057981e-01 4.161384e-01 1.113237e-01 -2.086038e-01 7.720973e-03 2.121046e-01 3.411871e-02 -1.225118e-01 1.065289e-01 -1.826073e-01 -7.036335e-01
<VARIANCE> 25
 6.206454e+01 1.126871e+02 1.333455e+02 2.010341e+02 1.141173e+02 8.753892e+01 1.110564e+02 1.359565e+02 8.647099e+01 6.598929e+01 4.713157e+01 2.877616e+01 1.979581e+00 7.470147e+00 8.397412e+00 1.042724e+01 4.233943e+00 3.703407e+00 4.835379e+00 7.057301e+00 6.183003e+00 7.143113e+00 4.989122e+00 3.397940e+00 6.774215e+00
<GCONST> 1.216697e+02
<TRANSP> 5
 0.000000e+00 1.000000e+00 0.000000e+00 0.000000e+00 0.000000e+00
 0.000000e+00 8.946651e-01 1.053349e-01 0.000000e+00 0.000000e+00
 0.000000e+00 0.000000e+00 8.734710e-01 1.265290e-01 0.000000e+00
 0.000000e+00 0.000000e+00 0.000000e+00 9.625347e-01 3.746539e-02
 0.000000e+00 0.000000e+00 0.000000e+00 0.000000e+00 0.000000e+00
<ENDHMM>
~h "n"
<BEGINHMM>
<NUMSTATES> 5
<STATE> 2
<MEAN> 25
 -8.169438e-01 9.582266e+00 4.381631e+00 6.449272e+00 -1.513908e+00 -1.624939e+00 -1.108198e+00 -2.044415e+00 -2.057905e+00 -4.364822e+00 -4.147504e+00 -2.243877e+00 -1.698488e+00 -1.414939e+00 -6.580310e-01 1.561228e-01 4.374171e-01 2.589599e-01 9.751160e-02 5.047934e-02 2.330458e-01 1.997859e-01 2.043956e-01 -3.120696e-02 -8.881718e-01
<VARIANCE> 25
 5.467522e+01 3.593430e+01 4.025715e+01 2.356656e+01 1.684572e+01 2.099600e+01 2.092791e+01 2.192002e+01 3.223655e+01 2.658737e+01 1.608726e+01 1.968266e+01 4.883441e+00 3.360822e+00 2.772126e+00 3.082272e+00 2.101433e+00 2.344376e+00 1.709593e+00 1.809311e+00 1.824702e+00 2.707691e+00 1.080078e+00 1.023473e+00 1.436412e+00
<GCONST> 9.462043e+01
<STATE> 3
<MEAN> 25
 -8.048590e+00 4.685664e+00 3.231982e+00 7.647631e+00 2.783802e+00 2.463516e+00 -8.808225e-01 -1.402917e+00 -1.782114e+00 -4.039672e+00 -1.527266e+00 -2.231006e+00 -4.509591e-01 -4.186442e-01 -4.170783e-01 -2.148388e-01 -1.686653e-01 8.590067e-02 2.036868e-01 9.611995e-02 1.080918e-01 2.353392e-01 3.518589e-01 3.326638e-01 -2.324231e-01
<VARIANCE> 25
 1.087339e+01 9.406325e+00 2.332063e+01 1.721334e+01 1.467430e+01 1.317442e+01 1.219556e+01 1.389920e+01 1.641253e+01 1.494206e+01 2.125900e+01 1.760777e+01 2.155397e-01 5.788372e-01 1.041722e+00 9.937295e-01 6.308863e-01 1.045694e+00 1.076343e+00 1.993424e+00 1.407798e+00 1.671402e+00 2.244898e+00 2.214853e+00 8.024914e-02
<GCONST> 7.663189e+01
<STATE> 4
<MEAN> 25
 -8.944207e+00 1.916907e+00 -2.620140e-01 1.757555e+00 2.760524e-01 1.821766e+00 1.671850e-01 5.373819e-01 -2.576001e-01 -1.113205e+00 -6.218785e-01 1.967095e-01 -1.666422e-02 1.428025e-02 -1.246892e-02 -4.114343e-02 2.138584e-02 2.689691e-02 -1.343057e-02 2.570745e-02 1.445540e-02 -3.146574e-02 6.023311e-03 5.199485e-02 -1.401983e-02
<VARIANCE> 25
 4.371606e+00 6.330738e+00 1.100777e+01 1.131687e+01 7.739238e+00 1.277000e+01 1.343577e+01 1.223180e+01 1.577239e+01 1.392366e+01 1.400725e+01 1.350720e+01 1.517508e-01 3.004013e-01 4.443282e-01 6.011625e-01 7.032232e-01 9.425209e-01 1.148978e+00 1.288833e+00 1.437678e+00 1.487722e+00 1.434259e+00 1.315462e+00 4.212674e-02
<GCONST> 6.822351e+01
<TRANSP> 5
 0.000000e+00 1.000000e+00 0.000000e+00 0.000000e+00 0.000000e+00
 0.000000e+00 8.034482e-01 1.965518e-01 0.000000e+00 0.000000e+00
 0.000000e+00 0.000000e+00 7.544010e-01 2.455990e-01 0.000000e+00
 0.000000e+00 0.000000e+00 0.000000e+00 9.618639e-01 3.813606e-02
 0.000000e+00 0.000000e+00 0.000000e+00 0.000000e+00 0.000000e+00
<ENDHMM>
~h "r"
<BEGINHMM>
<NUMSTATES> 5
<STATE> 2
<MEAN> 25
 1.773426e+00 3.324102e+00 7.220660e-01 1.585400e+00 -3.216069e+00 -1.442474e+00 5.336674e-01 -1.425625e+00 -1.136571e-01 -3.815216e-01 -2.422862e-01 1.229739e-01 -6.481805e-02 -2.250778e-02 3.529175e-01 -4.042247e-01 -2.859321e-02 2.022481e-01 -4.231518e-01 -2.639190e-01 7.239223e-02 -6.001389e-02 -1.846780e-01 1.452355e-02 1.301208e-01
<VARIANCE> 25
 1.940995e+02 1.397391e+02 5.766697e+01 3.660829e+01 5.085759e+01 4.267629e+01 3.761045e+01 3.702505e+01 3.530676e+01 3.167822e+01 2.323567e+01 1.758743e+01 5.014667e+00 5.077484e+00 3.210995e+00 3.113582e+00 3.518981e+00 3.320009e+00 3.247363e+00 2.625617e+00 3.940428e+00 2.147209e+00 1.547067e+00 1.730889e+00 3.748702e+00
<GCONST> 1.063469e+02
<STATE> 3
<MEAN> 25
 2.155728e+00 2.670642e+00 1.454880e+00 1.041541e+00 -3.546984e+00 -1.083257e+00 2.674295e-01 -1.709394e+00 2.286785e-01 -8.350638e-01 -1.630877e-01 3.426256e-01 6.008692e-01 -1.806759e-01 5.418856e-01 -1.227658e-01 4.113908e-01 9.228039e-02 -2.797623e-01 -1.498603e-01 1.562292e-01 -1.719996e-01 -2.665158e-01 9.791804e-02 8.995386e-01
<VARIANCE> 25
 1.815523e+02 1.510059e+02 6.039950e+01 3.565395e+01 4.611942e+01 4.542033e+01 4.331790e+01 4.643643e+01 4.457286e+01 3.553257e+01 2.464328e+01 2.049898e+01 5.778311e+00 7.519842e+00 5.035952e+00 3.840506e+00 4.230417e+00 2.507641e+00 3.521137e+00 2.806947e+00 2.531928e+00 1.795680e+00 1.458834e+00 1.561247e+00 3.559559e+00
<GCONST> 1.076804e+02
<STATE> 4
<MEAN> 25
 3.050135e+00 7.825851e-01 1.988263e+00 1.627696e+00 -1.014970e+00 -2.248090e+00 2.895185e-02 -1.600305e+00 1.082080e+00 -1.335833e+00 -1.059748e+00 9.593766e-01 1.638613e+00 -1.146648e+00 1.021429e+00 -4.287994e-01 3.507002e-01 -6.898443e-01 -1.967273e-01 8.720100e-03 -2.091229e-01 1.866353e-02 -1.677814e-01 9.758827e-02 2.797071e+00
<VARIANCE> 25
 1.753238e+02 1.488159e+02 6.174979e+01 5.469206e+01 5.596074e+01 7.035498e+01 5.596012e+01 4.981274e+01 5.092395e+01 2.806089e+01 3.112335e+01 2.554054e+01 8.727791e+00 1.212059e+01 7.855645e+00 5.943269e+00 6.868592e+00 6.983465e+00 6.925634e+00 4.353904e+00 6.612031e+00 2.717759e+00 2.941425e+00 2.556590e+00 1.304120e+01
<GCONST> 1.176512e+02
<TRANSP> 5
 0.000000e+00 1.000000e+00 0.000000e+00 0.000000e+00 0.000000e+00
 0.000000e+00 1.264668e-01 8.735332e-01 0.000000e+00 0.000000e+00
 0.000000e+00 0.000000e+00 1.084086e-01 8.915914e-01 0.000000e+00
 0.000000e+00 0.000000e+00 0.000000e+00 2.199564e-01 7.800435e-01
 0.000000e+00 0.000000e+00 0.000000e+00 0.000000e+00 0.000000e+00
<ENDHMM>
~h "s"
<BEGINHMM>
<NUMSTATES> 5
<STATE> 2
<MEAN> 25
 1.240106e+01 -1.156417e+01 6.633359e+00 3.307450e+00 -4.102839e+00 -9.258844e+00 -1.951877e+00 2.140373e+00 1.779507e+00 -1.047343e+00 -3.722329e+00 -7.879260e-02 2.263311e+00 -1.066590e+00 3.823003e-01 -1.296358e-01 -1.150863e+00 -9.036604e-01 -4.877855e-01 5.625412e-01 -9.218018e-01 -8.495203e-02 2.797248e-01 -1.600032e-01 2.019697e+00
<VARIANCE> 25
 6.426466e+01 6.153573e+01 6.757270e+01 8.719493e+01 6.466037e+01 6.758289e+01 5.985131e+01 4.607771e+01 5.578695e+01 2.460222e+01 3.607903e+01 2.827295e+01 6.878206e+00 1.355453e+01 1.031116e+01 8.083368e+00 6.216985e+00 1.050129e+01 4.669374e+00 4.326704e+00 9.582294e+00 2.672710e+00 4.678054e+00 3.088423e+00 6.386103e+00
<GCONST> 1.172780e+02
<STATE> 3
<MEAN> 25
 1.845030e+01 -1.611411e+01 9.116537e+00 -3.578059e+00 -6.384027e+00 -9.690124e+00 -6.499570e+00 4.945579e+00 -1.139136e+00 -1.930665e-01 -1.839164e+00 6.646991e-02 6.464619e-01 -6.099910e-01 -6.412513e-01 -1.100663e+00 3.671173e-01 5.839907e-01 -2.752898e-01 -1.764875e-01 1.186884e-01 7.575902e-01 -4.185674e-01 -5.886680e-01 6.420282e-01
<VARIANCE> 25
 3.235593e+01 3.020079e+01 8.337842e+01 8.977934e+01 7.291109e+01 6.755537e+01 6.269852e+01 8.460779e+01 1.100115e+02 5.945863e+01 3.768918e+01 3.446000e+01 2.606224e+00 3.000010e+00 6.361006e+00 8.020179e+00 6.495142e+00 6.213595e+00 7.243784e+00 6.107893e+00 7.583241e+00 6.147393e+00 4.478539e+00 4.396340e+00 1.889077e+00
<GCONST> 1.157202e+02
<STATE> 4
<MEAN> 25
 1.741985e+01 -8.219648e+00 -2.047765e+00 -1.131092e+01 1.773981e+00 -2.409921e+00 -2.975362e+00 -3.846830e+00 -1.460315e+00 5.896057e+00 -2.894867e+00 -4.385813e+00 -9.708569e-01 1.569464e+00 -4.723202e-01 -4.139648e-01 1.302163e+00 1.695871e-01 9.669583e-02 -2.595293e-01 -4.487950e-02 2.214631e-02 2.573994e-01 1.365260e-01 -6.156764e-01
<VARIANCE> 25
 1.345916e+02 7.559740e+01 8.043488e+01 1.179138e+02 1.060422e+02 8.276015e+01 1.115499e+02 1.012367e+02 4.394064e+01 4.649047e+01 3.900475e+01 5.150431e+01 4.667086e+00 2.857057e+00 3.120185e+00 4.317907e+00 4.672604e+00 3.583461e+00 4.350495e+00 4.435286e+00 3.708571e+00 3.963469e+00 2.660228e+00 3.133545e+00 9.344294e-01
<GCONST> 1.136806e+02
<TRANSP> 5
 0.000000e+00 1.000000e+00 0.000000e+00 0.000000e+00 0.000000e+00
 0.000000e+00 5.130877e-01 4.869123e-01 0.000000e+00 0.000000e+00
 0.000000e+00 0.000000e+00 8.120755e-01 1.879245e-01 0.000000e+00
 0.000000e+00 0.000000e+00 0.000000e+00 8.890811e-01 1.109189e-01
 0.000000e+00 0.000000e+00 0.000000e+00 0.000000e+00 0.000000e+00
<ENDHMM>
~h "t"
<BEGINHMM>
<NUMSTATES> 5
<STATE> 2
<MEAN> 25
 2.029362e+00 -2.091532e+00 2.862309e+00 -2.784778e+00 1.130343e+00 -2.343500e+00 -1.349675e-01 2.120907e-01 1.828256e+00 1.616149e-01 8.755663e-01 1.222314e+00 1.400994e+00 -7.707250e-01 1.529096e+00 -1.013838e+00 -1.010182e+00 -6.452203e-04 -3.103753e-01 -7.148519e-03 -4.299675e-01 -1.932933e-01 1.973007e-01 9.586805e-02 2.059643e+00
<VARIANCE> 25
 1.331567e+02 1.364087e+02 5.835612e+01 6.271902e+01 7.561605e+01 1.191660e+02 4.658779e+01 6.341296e+01 3.793827e+01 3.155033e+01 2.962147e+01 2.012639e+01 2.227783e+01 1.084237e+01 7.833070e+00 7.840638e+00 1.073043e+01 9.270626e+00 7.297329e+00 5.105081e+00 3.993639e+00 6.752162e+00 4.792950e+00 2.432753e+00 2.162152e+01
<GCONST> 1.211814e+02
<STATE> 3
<MEAN> 25
 1.019919e+01 -5.685357e+00 3.404048e+00 -3.415163e+00 -1.475396e+00 -5.394831e+00 -2.127723e+00 -3.233998e+00 -9.491762e-01 1.658728e+00 -2.658240e-01 -1.977448e-01 2.341138e+00 1.038053e-01 -1.008256e+00 8.187151e-01 -2.118956e+00 1.722023e-01 5.005047e-01 -1.862508e+00 -1.613878e+00 -5.893415e-02 1.937121e-01 -6.660882e-01 5.046613e-01
<VARIANCE> 25
 1.393218e+02 1.295929e+02 7.330122e+01 7.238875e+01 9.358463e+01 7.520152e+01 5.152739e+01 1.108923e+02 4.415646e+01 6.613241e+01 5.658950e+01 3.036875e+01 1.680146e+01 8.013304e+00 8.407227e+00 8.219304e+00 8.446049e+00 9.486274e+00 6.425252e+00 1.260892e+01 4.730268e+00 4.955703e+00 4.664342e+00 3.232589e+00 9.317611e+00
<GCONST> 1.232791e+02
<STATE> 4
<MEAN> 25
 1.571514e+01 -2.711574e-01 -3.876624e+00 -5.970592e+00 -5.858211e+00 1.038735e+00 2.447685e+00 -8.106330e+00 -6.199402e+00 6.084723e-01 4.514692e-01 5.983193e-01 -9.103126e-01 3.638833e-01 -1.940760e-01 9.898856e-02 7.755755e-02 9.411214e-02 -2.589952e-02 4.325979e-01 5.101123e-02 -9.277564e-02 -9.942234e-02 2.172269e-01 -1.224705e+00
<VARIANCE> 25
 1.223783e+02 1.745792e+02 4.088241e+01 7.786117e+01 5.428674e+01 7.862141e+01 3.797889e+01 6.725850e+01 4.694065e+01 6.414018e+01 2.854015e+01 3.252271e+01 3.470864e+00 3.107850e+00 2.017538e+00 4.472765e+00 2.910569e+00 3.883672e+00 2.795695e+00 3.049118e+00 3.561191e+00 3.715751e+00 2.269471e+00 2.056968e+00 1.387258e+00
<GCONST> 1.086268e+02
<TRANSP> 5
 0.000000e+00 1.000000e+00 0.000000e+00 0.000000e+00 0.000000e+00
 0.000000e+00 3.001314e-01 6.998686e-01 0.000000e+00 0.000000e+00
 0.000000e+00 0.000000e+00 4.164499e-01 5.835501e-01 0.000000e+00
 0.000000e+00 0.000000e+00 0.000000e+00 7.923525e-01 2.076475e-01
 0.000000e+00 0.000000e+00 0.000000e+00 0.000000e+00 0.000000e+00
<ENDHMM>
~h "w"
<BEGINHMM>
<NUMSTATES> 5
<STATE> 2
<MEAN> 25
 2.526009e+01 5.010044e-01 -1.091720e+01 -1.576039e+01 -8.568624e-01 5.138050e+00 5.047672e-01 -6.586457e+00 -1.005537e+01 2.748223e+00 6.318795e+00 -1.621271e+00 1.287330e+00 -3.012933e+00 1.679173e-01 1.659276e+00 4.108014e-02 -2.145473e+00 1.177544e-01 -2.365200e-01 -8.239911e-01 2.167789e+00 5.777956e-01 -1.805116e+00 2.401765e+00
<VARIANCE> 25
 1.795146e+01 5.452330e+01 4.318212e+01 6.033578e+01 5.829591e+01 3.623350e+01 4.712258e+01 2.881794e+01 4.654697e+01 3.934697e+01 2.772714e+01 2.338413e+01 3.109333e+00 3.876520e+00 6.610674e+00 6.714724e+00 8.769467e+00 8.063785e+00 5.837234e+00 3.603389e+00 6.612712e+00 2.837807e+00 4.891591e+00 3.608163e+00 2.039966e+00
<GCONST> 1.096580e+02
<STATE> 3
<MEAN> 25
 2.215835e+01 -1.338073e+01 -6.118789e+00 -8.261474e+00 1.448470e+00 -5.196115e+00 -2.926404e+00 5.647107e-01 -7.164489e+00 7.502991e+00 3.636509e+00 -1.035217e+01 -8.841765e-01 -2.137578e+00 1.025418e+00 1.929107e+00 -6.956426e-01 -1.712356e+00 -1.253809e-01 1.845003e+00 2.140780e+00 -1.179654e+00 -2.013469e+00 -1.073048e+00 1.035641e+00
<VARIANCE> 25
 3.148165e+01 2.019909e+01 4.488590e+01 6.971140e+01 4.705911e+01 5.963110e+01 6.064300e+01 9.290244e+01 6.744736e+01 4.616338e+01 4.349854e+01 3.200818e+01 5.236825e-01 2.876897e+00 1.967245e+00 2.028463e+00 3.246334e+00 3.851261e+00 3.687242e+00 2.439793e+00 4.331093e+00 2.781417e+00 2.183915e+00 3.526739e+00 1.085752e+00
<GCONST> 1.034379e+02
<STATE> 4
<MEAN> 25
 2.173523e+01 -1.782460e+01 -3.897663e+00 5.132983e-01 -6.974829e+00 -7.686713e+00 1.094753e+00 1.536708e+00 2.258927e-01 1.754506e+00 -4.434759e+00 -9.436963e+00 -1.463487e-01 -2.800152e-02 5.220147e-01 7.469845e-01 -9.358811e-01 3.476075e-01 5.150406e-01 -3.640180e-01 7.711627e-01 -3.457115e-01 -1.525138e+00 5.395201e-01 -5.412553e-01
<VARIANCE> 25
 2.224148e+01 2.218446e+01 4.076581e+01 4.907313e+01 4.090679e+01 3.057733e+01 5.875640e+01 7.711668e+01 3.902247e+01 4.535406e+01 4.071608e+01 2.242208e+01 1.101250e+00 1.622892e+00 2.297029e+00 2.095633e+00 1.922621e+00 3.634579e+00 2.083238e+00 5.137604e+00 3.739069e+00 3.019271e+00 2.096941e+00 3.058141e+00 9.582549e-01
<GCONST> 1.003013e+02
<TRANSP> 5
 0.000000e+00 1.000000e+00 0.000000e+00 0.000000e+00 0.000000e+00
 0.000000e+00 7.190407e-01 2.809593e-01 0.000000e+00 0.000000e+00
 0.000000e+00 0.000000e+00 7.346900e-01 2.653100e-01 0.000000e+00
 0.000000e+00 0.000000e+00 0.000000e+00 8.047300e-01 1.952700e-01
 0.000000e+00 0.000000e+00 0.000000e+00 0.000000e+00 0.000000e+00
<ENDHMM>
~h "z"
<BEGINHMM>
<NUMSTATES> 5
<STATE> 2
<MEAN> 25
 -6.594759e+00 1.002875e+00 -2.241758e+00 -7.989125e-02 4.482212e-01 5.794915e-01 -1.411588e+00 2.642638e+00 6.716425e-01 3.568622e-01 7.397367e-01 9.182619e-01 -1.456737e-03 2.264819e-02 -8.667387e-03 8.544872e-03 -2.694492e-02 -3.611690e-03 -1.208249e-02 1.957554e-03 1.360359e-02 -1.782244e-02 -3.381710e-02 -2.440652e-02 -1.376921e-02
<VARIANCE> 25
 2.535104e+00 1.965122e+00 5.061390e+00 9.090725e+00 1.434429e+01 1.008609e+01 1.277193e+01 1.060718e+01 1.209000e+01 1.126975e+01 9.290447e+00 8.480976e+00 1.571510e-01 2.654496e-01 3.948404e-01 8.299927e-01 7.035378e-01 8.319849e-01 1.232659e+00 1.214120e+00 1.253188e+00 1.189380e+00 9.760299e-01 8.483452e-01 7.994585e-02
<GCONST> 6.380533e+01
<STATE> 3
<MEAN> 25
 -8.014182e+00 -1.053524e+00 -2.369117e+00 1.796244e+00 -7.391517e-01 1.284825e-01 2.115727e-01 1.942012e+00 3.035033e+00 -1.373559e-01 -4.820560e-01 5.459506e-02 1.962456e-01 7.607172e-02 2.054698e-01 3.678334e-02 8.343079e-02 6.681882e-02 7.285824e-02 5.949838e-02 1.137204e-01 3.130542e-02 -8.645572e-02 -1.292116e-01 1.729070e-01
<VARIANCE> 25
 8.403916e+00 1.458109e+01 2.432053e+01 1.338868e+01 9.572576e+00 1.307454e+01 2.467654e+01 1.416491e+01 2.694785e+01 1.008405e+01 1.261649e+01 1.256811e+01 8.554233e-01 1.611495e+00 3.664073e+00 1.552538e+00 1.093100e+00 1.189353e+00 2.495816e+00 1.534276e+00 4.600416e+00 9.965715e-01 1.394794e+00 1.854984e+00 9.302047e-01
<GCONST> 8.396387e+01
<STATE> 4
<MEAN> 25
 -2.395407e+00 4.178864e+00 -1.685403e+00 2.111852e-02 4.641655e+00 -1.445164e-01 2.709632e-01 2.662653e+00 3.637310e+00 -2.119182e+00 -4.760210e+00 -7.535054e-01 5.578837e-01 4.978191e-01 6.952941e-01 -6.571045e-01 5.457603e-01 -5.727134e-01 -8.158915e-01 -4.807884e-01 -6.670441e-01 -5.883985e-01 -5.731224e-01 3.918056e-02 1.151923e+00
<VARIANCE> 25
 2.929443e+01 2.049503e+01 3.533392e+01 2.207968e+01 3.598977e+01 2.678176e+01 3.902660e+01 2.160662e+01 2.333921e+01 1.295387e+01 2.203902e+01 6.584611e+00 4.906716e+00 6.550012e-01 3.074730e+00 1.247154e+00 3.977434e+00 1.979117e+00 3.534600e+00 2.104432e+00 4.562178e+00 1.689849e+00 2.728135e+00 6.747760e-01 5.047480e+00
<GCONST> 9.415436e+01
<TRANSP> 5
 0.000000e+00 1.000000e+00 0.000000e+00 0.000000e+00 0.000000e+00
 0.000000e+00 9.560896e-01 4.391045e-02 0.000000e+00 0.000000e+00
 0.000000e+00 0.000000e+00 8.272735e-01 1.727265e-01 0.000000e+00
 0.000000e+00 0.000000e+00 0.000000e+00 7.006279e-01 2.993721e-01
 0.000000e+00 0.000000e+00 0.000000e+00 0.000000e+00 0.000000e+00
<ENDHMM>
~h "ae"
<BEGINHMM>
<NUMSTATES> 5
<STATE> 2
<MEAN> 25
 2.083924e+01 -2.305256e+01 -4.784767e+00 6.903601e-01 -4.435143e+00 -5.550372e+00 2.882579e+00 3.144654e+00 6.415081e-01 1.928067e+00 -8.475937e+00 -3.363140e+00 -5.563580e-01 -1.702675e+00 1.564835e+00 -2.002973e-01 -6.282517e-01 -5.330034e-01 1.485940e+00 8.889031e-01 -1.223914e+00 -2.720833e-01 -1.247648e+00 -1.342857e-02 9.521470e-01
<VARIANCE> 25
 1.873034e+01 2.141386e+01 8.082266e+01 9.017992e+01 5.394510e+01 2.787394e+01 5.250148e+01 5.190825e+01 1.871792e+01 2.861913e+01 3.014844e+01 1.721338e+01 1.290054e+00 2.806000e+00 3.720451e+00 4.873242e+00 6.308984e+00 2.197660e+00 3.690908e+00 5.159518e+00 3.517904e+00 3.129992e+00 3.076055e+00 2.026242e+00 6.447434e-01
<GCONST> 1.021465e+02
<STATE> 3
<MEAN> 25
 1.622573e+01 -2.348593e+01 4.127693e+00 -2.935035e+00 -5.504598e+00 -7.610875e+00 5.227373e+00 1.091269e+01 -6.505226e+00 -3.782514e+00 -5.256631e+00 -4.317239e+00 -3.111966e-01 8.282990e-01 6.681668e-01 1.921642e-01 -7.218899e-01 -2.566303e-01 1.042214e+00 7.304676e-01 -1.489094e+00 -5.655406e-01 1.003521e+00 -4.035295e-01 -4.932996e-01
<VARIANCE> 25
 2.178829e+01 2.135834e+01 5.100020e+01 1.217832e+02 4.607070e+01 3.281445e+01 4.738865e+01 4.882280e+01 3.329837e+01 1.918487e+01 3.223561e+01 2.686884e+01 4.868369e-01 9.541585e-01 2.208564e+00 2.132223e+00 2.008294e+00 9.402689e-01 1.303481e+00 1.239139e+00 1.336292e+00 1.561450e+00 1.208843e+00 1.198455e+00 5.433148e-01
<GCONST> 9.150916e+01
<STATE> 4
<MEAN> 25
 1.632122e+01 -1.443472e+01 5.992748e+00 1.634963e-01 -1.225535e+01 -6.598866e+00 1.252873e+01 6.426450e+00 -1.319803e+01 -3.296184e-01 -6.644008e-01 -6.189663e+00 -1.902096e-04 2.498365e+00 3.667724e-01 -2.986808e-01 -6.135943e-01 8.302918e-01 1.245001e+00 -1.705141e+00 -1.734268e+00 1.379361e+00 7.122237e-01 -1.926415e-01 -1.264388e+00
<VARIANCE> 25
 1.643318e+01 4.527179e+01 9.455635e+01 1.109504e+02 5.778582e+01 2.365376e+01 5.146652e+01 8.682512e+01 3.163662e+01 3.183141e+01 2.542210e+01 2.941504e+01 3.286247e-01 2.164197e+00 2.811303e+00 2.862483e+00 2.044042e+00 2.203101e+00 2.894428e+00 2.421741e+00 1.628713e+00 2.126320e+00 1.681532e+00 1.766442e+00 1.302878e+00
<GCONST> 9.876624e+01
<TRANSP> 5
 0.000000e+00 1.000000e+00 0.000000e+00 0.000000e+00 0.000000e+00
 0.000000e+00 7.258658e-01 2.741342e-01 0.000000e+00 0.000000e+00
 0.000000e+00 0.000000e+00 8.306169e-01 1.693831e-01 0.000000e+00
 0.000000e+00 0.000000e+00 0.000000e+00 7.696700e-01 2.303299e-01
 0.000000e+00 0.000000e+00 0.000000e+00 0.000000e+00 0.000000e+00
<ENDHMM>
~h "ah"
<BEGINHMM>
<NUMSTATES> 5
<STATE> 2
<MEAN> 25
 1.556267e+01 -3.469369e+00 -3.233900e+00 -4.598088e+00 1.043223e+00 -2.521455e+00 -6.004776e+00 -5.034725e+00 1.254898e+00 2.844943e+00 -1.378219e+00 -4.335053e+00 2.196391e-01 9.898397e-01 -8.823916e-02 1.676436e-01 -8.394551e-01 7.120004e-01 4.102286e-01 -6.966267e-01 -2.301651e-01 -4.684297e-01 1.431931e-02 6.298779e-01 -8.123555e-01
<VARIANCE> 25
 9.378781e+01 9.292427e+01 9.110476e+01 1.093741e+02 4.638404e+01 7.672753e+01 1.187794e+02 7.175835e+01 6.243743e+01 6.897646e+01 6.346045e+01 3.531718e+01 5.897477e+00 1.158795e+01 1.023756e+01 1.096213e+01 6.102482e+00 7.821326e+00 1.168015e+01 9.780385e+00 5.599067e+00 8.107771e+00 3.794778e+00 3.220361e+00 1.245002e+01
<GCONST> 1.239261e+02
<STATE> 3
<MEAN> 25
 2.221599e+01 -1.765381e+00 -9.668431e+00 -5.989732e+00 -4.214902e-01 1.388723e+00 -4.651263e+00 -1.177169e+01 -2.458781e+00 5.377568e+00 -2.574564e+00 -5.625665e+00 -4.006533e-01 2.110981e+00 -1.044540e-01 -1.860301e-01 3.374782e-01 6.374482e-01 -3.584000e-01 -3.319023e-01 -3.103139e-02 -6.754023e-01 4.920808e-02 5.109022e-01 -1.429239e+00
<VARIANCE> 25
 1.318125e+01 6.181260e+01 4.282292e+01 8.904223e+01 6.133823e+01 6.014519e+01 4.689041e+01 5.567970e+01 5.223003e+01 4.774026e+01 4.806125e+01 3.332364e+01 1.319498e+00 3.623434e+00 3.702910e+00 3.974874e+00 5.450982e+00 4.141448e+00 4.032792e+00 4.600662e+00 4.232956e+00 3.016396e+00 3.367122e+00 1.447563e+00 1.594730e+00
<GCONST> 1.070657e+02
<STATE> 4
<MEAN> 25
 1.743982e+01 9.593105e+00 -4.876559e+00 -5.317778e+00 -5.937663e-01 2.462062e+00 -3.660619e+00 -7.706441e+00 -3.686127e+00 -1.294116e+00 -2.214304e+00 -2.957104e+00 -1.651726e+00 1.065856e+00 1.610502e+00 2.918745e-01 -8.714156e-01 1.424984e-01 6.770648e-01 5.705800e-01 6.577232e-02 -3.612681e-01 2.541699e-01 4.504454e-01 -1.458336e+00
<VARIANCE> 25
 5.972253e+01 7.725551e+01 8.990198e+01 7.129449e+01 6.728556e+01 5.461902e+01 5.061222e+01 2.665425e+01 4.615803e+01 3.443763e+01 2.513931e+01 2.021245e+01 2.982856e+00 3.640709e+00 4.158222e+00 3.937644e+00 3.949291e+00 2.437307e+00 3.326442e+00 2.361444e+00 2.496103e+00 2.696328e+00 1.744857e+00 1.962180e+00 1.575927e+00
<GCONST> 1.052662e+02
<TRANSP> 5
 0.000000e+00 1.000000e+00 0.000000e+00 0.000000e+00 0.000000e+00
 0.000000e+00 5.323169e-01 4.676831e-01 0.000000e+00 0.000000e+00
 0.000000e+00 0.000000e+00 7.862116e-01 2.137884e-01 0.000000e+00
 0.000000e+00 0.000000e+00 0.000000e+00 7.054564e-01 2.945436e-01
 0.000000e+00 0.000000e+00 0.000000e+00 0.000000e+00 0.000000e+00
<ENDHMM>
~h "ao"
<BEGINHMM>
<NUMSTATES> 5
<STATE> 2
<MEAN> 25
 -4.189048e+00 1.268889e+01 8.714549e+00 6.271173e+00 2.797351e+00 2.046073e+00 -8.869079e-01 4.159544e-01 9.439836e-01 -2.174822e+00 -1.097671e-01 2.142128e+00 3.369918e+00 4.894732e-01 9.749448e-01 -6.279010e-01 -2.757751e-01 -1.286593e+00 -9.468251e-01 -3.669557e-01 3.889549e-01 -3.758161e-01 -9.032928e-01 -2.343763e-01 3.625684e+00
<VARIANCE> 25
 7.014304e+01 7.953926e+01 5.270232e+01 2.606181e+01 2.159177e+01 1.240347e+01 3.900520e+01 2.254669e+01 1.866181e+01 1.551003e+01 1.483585e+01 1.006266e+01 1.312398e+01 1.131135e+01 8.823716e+00 4.687370e+00 1.539451e+00 4.496146e+00 4.494214e+00 2.224842e+00 2.613598e+00 1.353871e+00 2.654656e+00 1.648494e+00 2.539198e+01
<GCONST> 1.037763e+02
<STATE> 3
<MEAN> 25
 8.999996e+00 1.184092e+01 9.057409e+00 2.879315e+00 -9.022299e-01 -5.174880e+00 -1.245420e+00 -1.222339e+00 2.502572e+00 -2.525959e+00 -2.678850e+00 9.402522e-01 5.106113e+00 -3.609626e+00 -1.200200e+00 -2.387373e+00 -5.073387e-01 -3.119680e+00 -1.833411e+00 -5.506092e-01 6.162733e-01 5.432713e-01 -1.541136e+00 -6.966130e-01 6.538890e+00
<VARIANCE> 25
 4.711664e+01 2.551564e+02 7.182675e+01 5.884600e+01 2.897403e+01 4.548757e+01 5.204784e+01 2.274550e+01 1.936728e+01 1.690187e+01 1.511280e+01 1.903152e+01 1.264503e+01 1.676715e+01 7.517615e+00 9.180280e+00 4.191021e+00 4.066131e+00 1.324501e+01 6.113180e+00 6.243316e+00 4.549151e+00 4.902911e+00 3.243156e+00 1.343441e+01
<GCONST> 1.149350e+02
<STATE> 4
<MEAN> 25
 1.878177e+01 -6.363939e+00 -4.017713e+00 -6.996187e+00 3.991257e+00 -3.798342e+00 -6.526974e+00 -2.203399e+00 4.857441e+00 2.282876e+00 -4.568846e+00 -6.933705e-01 1.284223e+00 -2.378617e+00 -6.258000e-01 -1.153438e+00 -3.531437e-02 -8.276403e-04 -5.237912e-01 -1.433445e-01 -3.415960e-02 5.743551e-01 -2.029783e-01 -2.529067e-01 1.892684e+00
<VARIANCE> 25
 4.915608e+01 1.085260e+02 1.579744e+02 1.152926e+02 1.144371e+02 1.097364e+02 7.984320e+01 4.612145e+01 5.741377e+01 5.249707e+01 3.043420e+01 2.063469e+01 7.792886e+00 1.621132e+01 9.180948e+00 6.226482e+00 5.471846e+00 1.225989e+01 1.079561e+01 5.421417e+00 3.902585e+00 3.587445e+00 3.421138e+00 2.146240e+00 1.195540e+01
<GCONST> 1.207161e+02
<TRANSP> 5
 0.000000e+00 1.000000e+00 0.000000e+00 0.000000e+00 0.000000e+00
 0.000000e+00 5.233999e-01 4.766002e-01 0.000000e+00 0.000000e+00
 0.000000e+00 0.000000e+00 4.259621e-01 5.740379e-01 0.000000e+00
 0.000000e+00 0.000000e+00 0.000000e+00 7.033243e-01 2.966757e-01
 0.000000e+00 0.000000e+00 0.000000e+00 0.000000e+00 0.000000e+00
<ENDHMM>
~h "aw"
<BEGINHMM>
<NUMSTATES> 5
<STATE> 2
<MEAN> 25
 2.241743e+01 -3.584362e+00 -1.676414e+01 -3.831166e+00 7.829160e+00 3.724093e+00 -5.855967e-01 -2.561418e+00 2.103730e+00 5.961228e+00 2.637379e+00 -6.827932e+00 -2.891349e-01 2.073824e-01 -1.396340e+00 2.637347e-01 1.110252e-01 -7.871492e-01 3.970611e-01 1.450015e-01 -1.481423e-02 -7.348546e-01 -4.715202e-01 2.058663e-01 -6.550492e-01
<VARIANCE> 25
 2.065897e+01 3.166669e+01 3.122446e+01 1.807632e+01 3.008946e+01 1.215663e+01 5.729900e+01 4.080830e+01 1.963779e+01 5.313107e+01 2.200397e+01 2.392091e+01 6.896355e+00 3.211250e+00 4.328382e+00 3.208396e+00 1.142509e+01 2.004765e+00 1.380761e+01 6.371017e+00 3.805066e+00 4.170515e+00 2.910558e+00 4.213494e+00 7.193103e+00
<GCONST> 1.062226e+02
<STATE> 3
<MEAN> 25
 1.906079e+01 -8.741825e-01 -1.357925e+01 -4.084066e+00 6.196612e-01 1.019462e+00 -2.256973e+00 -7.356198e+00 4.063177e-01 6.823260e+00 1.313184e+00 -6.025513e+00 -3.088085e+00 5.297889e-01 1.677326e+00 7.463261e-01 -8.071140e-01 -2.305373e-01 2.995392e-01 5.603918e-01 1.186967e-01 -3.253593e-01 3.095144e-01 1.336285e+00 -2.424212e+00
<VARIANCE> 25
 1.090705e+02 1.938090e+01 1.661353e+01 1.788107e+01 4.139206e+01 1.165328e+01 4.779099e+01 1.702148e+01 2.610928e+01 1.155054e+01 9.755845e+00 2.889398e+01 4.733108e+00 2.350806e+00 4.983194e-01 5.471672e-01 9.153236e+00 1.715288e+00 8.009151e+00 2.770573e+00 4.234215e+00 3.221104e+00 2.063339e+00 3.404095e+00 2.717347e+00
<GCONST> 9.605270e+01
<STATE> 4
<MEAN> 25
 3.020278e+00 1.772834e+00 -8.642434e+00 -2.811548e+00 -1.941230e+00 2.187408e+00 5.214953e-02 -3.424834e+00 -9.108827e-01 2.418077e+00 6.221176e+00 1.069254e+00 -2.666619e+00 -3.694692e-01 1.457282e+00 1.209011e+00 -9.221675e-01 -4.024845e-01 5.902640e-01 1.143219e+00 6.830215e-02 -4.369441e-01 4.309708e-01 -1.227508e-01 -1.659193e+00
<VARIANCE> 25
 1.729859e+01 6.446762e+00 3.088206e+00 1.062662e+01 2.792510e+01 2.130497e+00 2.329151e+01 1.112622e+01 2.695651e+01 2.000190e+01 1.319426e+01 2.065647e+00 4.203980e+00 5.328819e-02 4.050963e-01 1.406427e+00 2.855043e+00 5.273067e-01 7.284283e-01 1.750598e-01 1.448297e+00 1.225918e-01 3.053218e+00 5.962580e-01 2.569857e+00
<GCONST> 6.949612e+01
<TRANSP> 5
 0.000000e+00 1.000000e+00 0.000000e+00 0.000000e+00 0.000000e+00
 0.000000e+00 7.681764e-01 2.318236e-01 0.000000e+00 0.000000e+00
 0.000000e+00 0.000000e+00 8.010525e-01 1.989475e-01 0.000000e+00
 0.000000e+00 0.000000e+00 0.000000e+00 4.653664e-01 5.346336e-01
 0.000000e+00 0.000000e+00 0.000000e+00 0.000000e+00 0.000000e+00
<ENDHMM>
~h "ay"
<BEGINHMM>
<NUMSTATES> 5
<STATE> 2
<MEAN> 25
 1.576741e+01 -8.552692e+00 3.607679e+00 -1.498465e+01 4.404121e+00 -1.329305e+00 -1.205839e+01 7.863339e-01 1.065996e+00 4.099725e+00 -1.822796e+00 -2.457507e+00 -2.817506e-01 1.271258e+00 -4.400127e-01 -5.016764e-01 1.157627e+00 4.109197e-01 -2.220695e-01 -2.885644e-01 4.647779e-01 1.236029e-01 3.388326e-02 1.868983e-01 -5.487043e-01
<VARIANCE> 25
 3.011529e+01 6.595052e+01 9.587722e+01 1.329906e+02 8.136375e+01 8.735490e+01 8.703100e+01 1.313127e+02 1.136155e+02 5.735830e+01 4.342854e+01 4.838262e+01 3.485455e+00 3.433673e+00 4.447907e+00 6.762073e+00 3.749989e+00 5.200179e+00 6.855488e+00 6.796674e+00 9.933262e+00 5.100343e+00 3.636754e+00 3.830868e+00 3.725159e+00
<GCONST> 1.182118e+02
<STATE> 3
<MEAN> 25
 3.394951e+00 -2.435976e+00 1.440572e+00 -6.389365e+00 5.391431e+00 -5.810389e+00 -8.820451e-01 -3.964068e-01 3.827335e+00 1.196692e+00 -6.407522e-02 1.717323e+00 4.580142e-01 -1.840759e+00 7.705142e-01 2.851607e-01 -1.035770e+00 2.220201e-01 6.629386e-02 7.679730e-01 7.583043e-02 -1.792896e-01 -1.377647e-01 -3.873625e-01 9.553193e-01
<VARIANCE> 25
 8.002531e+01 1.090924e+02 9.213319e+01 6.232869e+01 6.703846e+01 8.649665e+01 8.783000e+01 4.773800e+01 4.768259e+01 3.232958e+01 3.486295e+01 2.714045e+01 1.671116e+01 8.248634e+00 1.396909e+01 1.318390e+01 1.103780e+01 1.331332e+01 1.449907e+01 6.184030e+00 6.358303e+00 6.074913e+00 5.163349e+00 3.806952e+00 1.326251e+01
<GCONST> 1.237220e+02
<STATE> 4
<MEAN> 25
 1.624468e+01 -1.488247e+01 5.271952e-01 -2.286585e+00 -2.386681e+00 -1.076638e+00 -5.841264e+00 2.512847e+00 5.880301e+00 -2.719471e-01 -2.014473e+00 -1.216464e+00 2.795297e+00 -2.199766e+00 -2.625148e+00 1.920441e+00 -1.627525e+00 -1.047906e+00 8.059099e-01 3.807942e-01 -8.988030e-01 -3.456666e-01 -5.587651e-01 -3.276089e-01 1.233143e+00
<VARIANCE> 25
 5.060136e+01 4.448647e+01 1.847527e+02 7.724039e+01 1.023712e+02 6.007942e+01 3.744156e+01 3.747894e+01 3.029423e+01 3.373864e+01 2.171691e+01 1.868370e+01 6.251925e+00 3.900812e+00 1.016179e+01 1.064785e+01 8.008698e+00 7.978962e+00 4.607373e+00 5.138859e+00 5.719105e+00 4.181273e+00 5.758241e+00 3.052840e+00 3.799393e+00
<GCONST> 1.147141e+02
<TRANSP> 5
 0.000000e+00 1.000000e+00 0.000000e+00 0.000000e+00 0.000000e+00
 0.000000e+00 8.908150e-01 1.091851e-01 0.000000e+00 0.000000e+00
 0.000000e+00 0.000000e+00 8.678173e-01 1.321827e-01 0.000000e+00
 0.000000e+00 0.000000e+00 0.000000e+00 6.706656e-01 3.293344e-01
 0.000000e+00 0.000000e+00 0.000000e+00 0.000000e+00 0.000000e+00
<ENDHMM>
~h "eh"
<BEGINHMM>
<NUMSTATES> 5
<STATE> 2
<MEAN> 25
 2.143031e+01 -1.766777e+01 -9.171430e-01 4.880435e+00 -1.168106e+01 -5.573485e+00 3.283154e+00 -2.945514e+00 9.725115e-01 3.925968e+00 -7.778217e+00 -2.882607e+00 1.976883e-01 8.226677e-01 -4.962958e-01 8.518224e-01 2.394881e-01 -7.574687e-01 1.881460e-01 -4.917517e-02 -4.381760e-01 1.315538e-01 -1.277141e-01 3.052950e-01 -7.206502e-01
<VARIANCE> 25
 1.566291e+01 1.709820e+01 3.941186e+01 4.180622e+01 3.065016e+01 5.507446e+01 3.690530e+01 4.900993e+01 5.721888e+01 3.523486e+01 4.793206e+01 2.662992e+01 2.140437e+00 2.766389e+00 5.902187e+00 5.158054e+00 4.325027e+00 4.529861e+00 3.578281e+00 6.206700e+00 5.530314e+00 4.882160e+00 4.523303e+00 2.353302e+00 2.669212e+00
<GCONST> 1.065495e+02
<STATE> 3
<MEAN> 25
 2.000085e+01 -5.015012e+00 -6.826200e+00 7.112337e+00 -2.684396e+00 -8.650798e+00 -9.755260e-01 4.007092e-01 1.327209e+00 3.754511e-02 -6.237992e+00 -1.752373e+00 -1.554177e+00 3.874885e+00 -7.152079e-01 -5.772604e-01 2.516400e+00 7.781380e-01 -1.399288e+00 1.304336e+00 1.125301e+00 -1.754029e+00 8.821874e-01 7.305483e-01 -3.266736e+00
<VARIANCE> 25
 2.223356e+01 4.465574e+01 3.516283e+01 5.144463e+01 5.411912e+01 3.321466e+01 5.736126e+01 5.442130e+01 6.006625e+01 5.241759e+01 3.625182e+01 3.393187e+01 2.337658e+00 4.904906e+00 3.894225e+00 6.479862e+00 6.199279e+00 5.312417e+00 4.090332e+00 8.030126e+00 3.445574e+00 5.666772e+00 4.857182e+00 1.685508e+00 3.013616e+00
<GCONST> 1.098891e+02
<STATE> 4
<MEAN> 25
 6.054701e+00 6.549025e+00 -2.091991e+00 5.920625e-01 -3.358942e-01 -2.059830e+00 -2.415468e+00 2.804955e+00 4.505760e+00 -2.223341e+00 -3.402648e+00 -6.724371e-01 -2.823848e+00 9.995096e-01 6.467870e-01 -8.189911e-01 -3.057625e-01 9.214927e-01 2.016821e-01 -2.661010e-01 -3.153741e-02 1.759480e-01 7.496543e-01 2.788621e-01 -2.390829e+00
<VARIANCE> 25
 9.962986e+01 9.082178e+01 7.652164e+01 3.600343e+01 4.385908e+01 3.186880e+01 3.750141e+01 3.631861e+01 3.165686e+01 2.831331e+01 1.835808e+01 1.759125e+01 2.820690e+00 7.989766e+00 6.643827e+00 4.823917e+00 5.647906e+00 2.747165e+00 4.101096e+00 2.954808e+00 2.816930e+00 2.977118e+00 2.283692e+00 1.939309e+00 3.557600e+00
<GCONST> 1.067163e+02
<TRANSP> 5
 0.000000e+00 1.000000e+00 0.000000e+00 0.000000e+00 0.000000e+00
 0.000000e+00 8.362246e-01 1.637754e-01 0.000000e+00 0.000000e+00
 0.000000e+00 0.000000e+00 7.175555e-01 2.824445e-01 0.000000e+00
 0.000000e+00 0.000000e+00 0.000000e+00 7.474524e-01 2.525476e-01
 0.000000e+00 0.000000e+00 0.000000e+00 0.000000e+00 0.000000e+00
<ENDHMM>
~h "er"
<BEGINHMM>
<NUMSTATES> 5
<STATE> 2
<MEAN> 25
 -3.960042e+00 2.798369e+00 5.180933e+00 -1.004722e+01 9.498963e+00 -8.394148e+00 5.778227e-01 4.118280e+00 1.425799e+00 -3.786809e+00 2.282118e+00 2.773380e+00 -2.712692e+00 8.980698e-02 1.073778e+00 1.892796e-01 -5.008240e-01 -1.070229e+00 1.762554e+00 7.470273e-01 -2.659390e-01 -7.987997e-01 6.118901e-01 7.827684e-01 -2.949705e-01
<VARIANCE> 25
 1.836198e+02 5.284013e+01 6.764914e+01 3.792691e+01 6.792986e+01 8.919211e+01 9.930470e+01 6.475832e+01 4.967576e+01 5.828769e+01 4.128053e+01 5.682821e+01 1.767165e+01 9.040003e+00 7.921700e+00 4.654418e+00 1.119588e+01 7.367299e+00 7.204543e+00 7.998954e+00 6.186554e+00 8.082802e+00 5.666011e+00 6.336616e+00 1.112577e+00
<GCONST> 1.209338e+02
<STATE> 3
<MEAN> 25
 9.814033e+00 -1.019788e+01 1.003774e+01 -4.411299e+00 -5.885111e+00 -1.151421e+01 2.001934e+00 5.093604e+00 -4.048874e+00 9.939871e-01 -3.384638e-01 1.514505e+00 3.570738e+00 -1.642106e+00 -5.569774e-01 1.427801e+00 -1.587138e+00 1.960449e-01 -1.208363e+00 -6.211250e-01 2.709677e-01 5.534451e-01 -1.057971e+00 -4.995310e-01 7.891388e-01
<VARIANCE> 25
 1.487282e+02 4.919677e+01 4.424432e+01 5.177933e+01 4.696997e+01 7.204675e+01 8.696864e+01 3.920274e+01 4.599864e+01 4.676556e+01 5.229315e+01 2.949489e+01 1.420508e+01 5.930614e+00 5.088114e+00 5.995323e+00 5.657765e+00 5.952975e+00 6.608471e+00 5.677222e+00 7.515262e+00 6.214570e+00 4.957198e+00 3.016099e+00 5.169044e+00
<GCONST> 1.170422e+02
<STATE> 4
<MEAN> 25
 1.495106e+01 -8.970403e+00 5.082886e-01 4.505816e+00 -3.385360e+00 -8.164009e+00 -6.668307e+00 8.007648e-01 5.122196e+00 1.173277e+00 -5.414658e+00 8.795633e-01 -1.120367e+00 8.082492e-01 -7.214857e-01 -2.770934e-01 1.729287e+00 2.410147e-01 -6.373918e-01 3.588824e-01 4.924884e-01 2.806196e-01 2.392889e-02 1.057951e-01 -1.316101e+00
<VARIANCE> 25
 7.327020e+01 9.375927e+01 1.020800e+02 5.420267e+01 9.803709e+01 6.124525e+01 3.951669e+01 4.590306e+01 4.453731e+01 4.725217e+01 3.811280e+01 3.880954e+01 6.147375e+00 1.037912e+01 1.227784e+01 1.102544e+01 1.069663e+01 8.442268e+00 5.268900e+00 6.551481e+00 5.741052e+00 6.519712e+00 4.781831e+00 4.586315e+00 8.812255e+00
<GCONST> 1.205499e+02
<TRANSP> 5
 0.000000e+00 1.000000e+00 0.000000e+00 0.000000e+00 0.000000e+00
 0.000000e+00 8.872436e-01 1.127564e-01 0.000000e+00 0.000000e+00
 0.000000e+00 0.000000e+00 8.779085e-01 1.220915e-01 0.000000e+00
 0.000000e+00 0.000000e+00 0.000000e+00 9.111761e-01 8.882394e-02
 0.000000e+00 0.000000e+00 0.000000e+00 0.000000e+00 0.000000e+00
<ENDHMM>
~h "ey"
<BEGINHMM>
<NUMSTATES> 5
<STATE> 2
<MEAN> 25
 4.891835e+00 1.395557e+01 1.015686e+01 1.202099e+00 -7.783774e+00 3.094559e+00 7.688150e-01 -5.880752e-01 2.669328e+00 -1.321133e+00 3.963229e+00 -4.266535e-01 2.768143e+00 -1.033333e+00 3.348440e+00 -1.046816e+00 -3.712070e+00 -1.621285e+00 8.122197e-01 7.926894e-01 -2.396498e+00 8.719457e-01 1.196297e+00 -3.709204e-01 3.400159e+00
<VARIANCE> 25
 6.447603e+01 2.883865e+01 4.688173e+01 6.980064e+01 9.226598e+01 6.432354e+00 1.869567e+01 1.445938e+01 1.585087e+01 1.246169e+01 1.362770e+01 1.315468e+01 1.168279e+01 1.022609e+01 1.166605e+01 7.606205e+00 1.008552e+01 7.263216e+00 7.097164e+00 4.670652e+00 9.238544e+00 1.754303e+00 1.357722e+00 2.301777e+00 2.193395e+01
<GCONST> 1.081052e+02
<STATE> 3
<MEAN> 25
 9.193609e+00 2.829258e+00 1.837251e+01 -4.847907e+00 -1.568230e+01 -5.038432e+00 4.989351e+00 2.894865e+00 -1.212457e+01 2.097308e+00 5.605905e+00 -4.953257e-01 1.403056e+00 -3.232547e+00 2.071353e+00 -1.598818e+00 -1.432621e+00 -1.531972e+00 1.986754e-02 5.701092e-02 -2.522325e+00 6.516926e-01 3.309436e-02 4.519991e-01 3.597624e+00
<VARIANCE> 25
 2.476205e+01 4.570495e+01 1.346729e+02 8.632139e+01 3.986608e+01 7.103165e+01 4.434906e+01 4.593504e+01 8.095966e+01 3.426537e+01 1.711268e+01 2.173470e+01 6.471427e+00 2.516559e+00 9.162727e+00 9.057980e+00 8.971144e+00 4.856591e+00 5.440326e+00 4.394535e+00 9.073778e+00 4.322408e+00 2.505239e+00 2.329482e+00 8.535708e+00
<GCONST> 1.134893e+02
<STATE> 4
<MEAN> 25
 1.722265e+01 -1.460883e+01 1.513598e+01 -4.773261e+00 -1.309589e+01 -7.712524e+00 -1.609674e+00 1.705289e+00 -6.595856e+00 2.424529e+00 -1.492584e+00 3.073482e+00 6.445042e-01 -1.073994e+00 -1.118130e+00 3.182181e-01 3.935086e-01 -2.768250e-01 -4.205837e-01 1.682556e-01 1.201261e+00 -2.138083e-01 -5.678079e-01 1.596803e-01 7.778845e-01
<VARIANCE> 25
 2.119950e+01 4.373111e+01 8.765096e+01 1.195548e+02 5.685934e+01 4.537728e+01 2.623606e+01 4.277288e+01 1.041183e+02 4.266035e+01 3.346582e+01 1.830578e+01 1.194560e+00 2.178279e+00 2.753080e+00 3.914422e+00 3.367139e+00 4.340991e+00 2.935040e+00 2.997717e+00 4.161575e+00 2.939404e+00 1.953077e+00 1.245920e+00 2.757973e+00
<GCONST> 1.043296e+02
<TRANSP> 5
 0.000000e+00 1.000000e+00 0.000000e+00 0.000000e+00 0.000000e+00
 0.000000e+00 3.778386e-01 6.221614e-01 0.000000e+00 0.000000e+00
 0.000000e+00 0.000000e+00 7.413808e-01 2.586192e-01 0.000000e+00
 0.000000e+00 0.000000e+00 0.000000e+00 8.989124e-01 1.010877e-01
 0.000000e+00 0.000000e+00 0.000000e+00 0.000000e+00 0.000000e+00
<ENDHMM>
~h "ih"
<BEGINHMM>
<NUMSTATES> 5
<STATE> 2
<MEAN> 25
 -1.218210e+01 4.307384e+00 -1.402354e+00 5.233155e-01 8.261934e-03 3.498978e+00 1.638240e+00 -2.241340e-01 1.373424e+00 -1.970439e+00 2.366957e+00 2.503422e+00 4.254459e-01 -2.692022e-02 -3.422812e-03 -6.055469e-02 -2.470728e-01 -1.239986e-01 -1.920083e-01 -8.475002e-03 -3.927050e-02 -2.152915e-02 -1.417695e-01 -2.507348e-01 3.180506e-01
<VARIANCE> 25
 4.378262e+01 1.460937e+01 1.847014e+01 4.172062e+01 1.348880e+01 2.703507e+01 1.798285e+01 1.545326e+01 1.817484e+01 1.314933e+01 1.888654e+01 1.982150e+01 2.694337e+00 9.288446e-01 1.691678e+00 2.351192e+00 2.021480e+00 2.611024e+00 1.810813e+00 2.011631e+00 1.897819e+00 1.351553e+00 1.825804e+00 2.073746e+00 3.845739e+00
<GCONST> 9.085741e+01
<STATE> 3
<MEAN> 25
 -1.062484e+01 2.571311e+00 -2.074678e+00 2.131520e+00 3.783420e-01 3.211882e+00 3.031986e+00 1.130347e+00 1.752864e+00 -2.050269e+00 -1.820010e-01 1.080709e+00 5.075996e-02 -4.600392e-01 1.373807e-01 2.091893e-01 3.512741e-01 1.427518e-01 1.389844e-01 6.189117e-02 -1.502841e-02 1.063677e-01 -2.669914e-01 -2.101966e-01 3.206811e-01
<VARIANCE> 25
 3.188145e+01 2.566180e+01 1.203858e+01 2.226818e+01 1.949910e+01 1.340992e+01 1.993854e+01 1.633559e+01 1.167617e+01 1.274695e+01 1.471029e+01 1.277011e+01 1.277530e+00 1.837819e+00 1.140684e+00 1.485188e+00 1.071257e+00 9.678817e-01 1.235381e+00 1.811014e+00 1.427788e+00 1.743070e+00 1.471955e+00 1.253535e+00 7.678227e-01
<GCONST> 8.331835e+01
<STATE> 4
<MEAN> 25
 -6.990944e+00 2.797448e+00 -1.206934e-01 4.414889e+00 1.774469e+00 2.221262e+00 8.761024e-01 1.430045e+00 2.556382e+00 -6.359767e-01 5.441709e-01 3.730589e-01 1.125346e+00 -1.067597e+00 8.021414e-01 6.409308e-01 8.214013e-01 -7.990705e-01 -3.437088e-01 5.744226e-02 2.197860e-01 2.091048e-01 -2.933598e-01 -1.647544e-01 1.938473e+00
<VARIANCE> 25
 5.666462e+01 5.129738e+01 2.093529e+01 1.602684e+01 1.932012e+01 2.804133e+01 2.397856e+01 1.586353e+01 2.340382e+01 2.206494e+01 1.593125e+01 1.581192e+01 6.000237e+00 6.977557e+00 2.915915e+00 2.173708e+00 2.349278e+00 4.104682e+00 2.402369e+00 1.469661e+00 2.508882e+00 2.349978e+00 1.333985e+00 2.118073e+00 6.073874e+00
<GCONST> 9.747512e+01
<TRANSP> 5
 0.000000e+00 1.000000e+00 0.000000e+00 0.000000e+00 0.000000e+00
 0.000000e+00 5.660075e-01 4.339925e-01 0.000000e+00 0.000000e+00
 0.000000e+00 0.000000e+00 6.413124e-01 3.586876e-01 0.000000e+00
 0.000000e+00 0.000000e+00 0.000000e+00 5.241956e-01 4.758044e-01
 0.000000e+00 0.000000e+00 0.000000e+00 0.000000e+00 0.000000e+00
<ENDHMM>
~h "iy"
<BEGINHMM>
<NUMSTATES> 5
<STATE> 2
<MEAN> 25
 3.493178e+00 1.536661e+01 6.330173e+00 6.225126e+00 -3.526000e+00 -9.368675e-01 -6.190383e-01 -4.613520e+00 -2.644937e+00 -4.600257e+00 -2.183187e+00 -1.879376e+00 -1.706153e+00 -1.145995e+00 -6.573588e-01 4.387700e-01 1.152979e+00 7.683283e-01 -1.934752e-03 1.293755e-02 1.596068e-01 2.597802e-02 -9.463920e-02 3.013074e-02 -9.872112e-01
<VARIANCE> 25
 5.787097e+01 3.190952e+01 2.507609e+01 1.402147e+01 2.224844e+01 2.102419e+01 1.449012e+01 2.253471e+01 1.289091e+01 1.655704e+01 2.070410e+01 1.645735e+01 1.662673e+00 1.994739e+00 2.541794e+00 1.238813e+00 1.407419e+00 1.310424e+00 1.536679e+00 2.223056e+00 1.339189e+00 1.327680e+00 1.356034e+00 1.526453e+00 4.065072e-01
<GCONST> 8.705089e+01
<STATE> 3
<MEAN> 25
 -6.559324e+00 8.897815e+00 6.764045e-01 7.068470e+00 1.152404e+00 2.900508e+00 1.002485e+00 -4.069881e+00 -1.994767e+00 -3.822750e+00 4.742165e-01 1.350110e+00 -8.235308e-01 -6.314121e-01 -5.218561e-01 -2.160268e-01 2.332242e-01 2.185002e-01 1.897604e-01 3.293645e-01 1.797737e-01 -1.592522e-02 1.727908e-01 1.545390e-01 -4.561522e-01
<VARIANCE> 25
 1.371694e+01 1.681912e+01 1.196788e+01 1.899379e+01 9.935722e+00 1.619560e+01 1.211227e+01 1.530202e+01 1.646039e+01 1.657774e+01 1.977404e+01 2.376247e+01 5.563490e-01 1.002809e+00 8.422542e-01 1.041484e+00 8.302162e-01 6.632894e-01 1.382487e+00 1.255134e+00 1.636369e+00 1.950114e+00 9.842406e-01 1.445355e+00 1.091391e-01
<GCONST> 7.741662e+01
<STATE> 4
<MEAN> 25
 -8.993859e+00 5.568382e+00 4.642086e-01 7.084699e+00 1.743524e+00 2.090293e+00 1.856217e+00 -1.545124e+00 -1.987355e+00 -3.967483e+00 -1.195211e+00 -5.424069e-01 -1.836350e-01 -9.792247e-02 -1.073427e-01 -1.149576e-01 -1.986346e-02 -4.002811e-02 1.683998e-02 1.438431e-01 1.330643e-01 1.097488e-01 -3.451001e-03 -1.514516e-02 -1.001462e-01
<VARIANCE> 25
 6.642504e+00 7.783772e+00 1.060905e+01 1.796721e+01 9.918861e+00 9.891928e+00 1.158788e+01 1.226626e+01 1.355295e+01 1.541101e+01 1.489883e+01 1.157958e+01 2.363467e-01 5.364873e-01 8.459998e-01 8.803142e-01 1.007018e+00 8.167441e-01 8.869122e-01 8.681552e-01 1.266001e+00 1.257456e+00 1.558006e+00 1.540764e+00 6.099104e-02
<GCONST> 7.090479e+01
<TRANSP> 5
 0.000000e+00 1.000000e+00 0.000000e+00 0.000000e+00 0.000000e+00
 0.000000e+00 7.867022e-01 2.132978e-01 0.000000e+00 0.000000e+00
 0.000000e+00 0.000000e+00 6.279789e-01 3.720212e-01 0.000000e+00
 0.000000e+00 0.000000e+00 0.000000e+00 8.829606e-01 1.170394e-01
 0.000000e+00 0.000000e+00 0.000000e+00 0.000000e+00 0.000000e+00
<ENDHMM>
~h "ng"
<BEGINHMM>
<NUMSTATES> 5
<STATE> 2
<MEAN> 25
 1.774637e+01 -3.352429e+00 3.995481e+00 -3.778870e-01 -1.158037e+01 -1.920000e+00 1.430740e+01 -2.774891e+00 -1.791138e+01 3.161040e+00 1.007281e+00 -3.792667e+00 1.169358e+00 4.349117e+00 -3.392166e+00 9.961039e-01 1.388456e+00 1.537537e+00 -1.541750e+00 -3.659528e+00 1.376298e+00 -2.134453e-01 3.664376e-01 9.480926e-01 -2.531052e+00
<VARIANCE> 25
 9.539618e+00 4.309764e+01 7.605830e+01 7.046033e+01 7.103869e+01 3.290357e+01 6.456316e+01 9.578024e+01 4.448797e+01 3.292898e+01 2.469925e+01 2.969242e+01 9.948022e-01 4.082086e+00 6.853280e+00 1.169709e+01 7.129028e+00 4.805843e+00 1.429074e+01 8.357024e+00 6.816873e+00 4.153177e+00 3.165261e+00 2.561732e+00 1.162744e+00
<GCONST> 1.106153e+02
<STATE> 3
<MEAN> 25
 1.956029e+01 8.877954e+00 -3.758499e+00 -3.375975e+00 -2.300161e+00 9.866786e-02 -8.685166e-01 -7.562757e+00 -7.330950e+00 -5.621935e-01 1.081993e-01 -8.822326e-01 -5.884763e-01 -1.055710e+00 4.573616e-01 -1.360381e+00 2.409734e+00 -8.917842e-01 -3.430671e+00 1.506908e+00 1.955713e+00 3.011096e-01 -1.047475e+00 -4.918523e-01 8.188428e-01
<VARIANCE> 25
 1.021969e+01 5.657289e+01 4.794147e+01 5.144537e+01 8.046977e+01 7.044498e+01 7.760940e+01 8.313354e+01 4.378030e+01 2.375515e+01 3.615790e+01 2.741688e+01 1.018936e+00 1.259704e+01 5.496758e+00 9.208546e+00 9.618631e+00 6.305552e+00 8.547846e+00 8.967817e+00 3.647232e+00 3.630422e+00 3.865144e+00 2.606280e+00 3.875421e+00
<GCONST> 1.125470e+02
<STATE> 4
<MEAN> 25
 1.709449e+01 -8.229395e+00 5.627979e-01 -2.089701e+01 9.255263e+00 1.604773e-01 -1.813503e+01 9.396176e-01 1.722670e+00 1.009409e+01 -7.102503e+00 -4.425834e+00 3.146457e-01 -6.244385e-01 -1.052286e-01 -1.097788e+00 -1.471802e-01 1.006927e+00 -5.963886e-01 -7.466274e-01 3.771220e-01 7.632287e-01 2.940708e-02 1.613297e-01 5.732806e-01
<VARIANCE> 25
 8.535769e+00 2.078108e+01 4.043940e+01 7.819740e+01 7.906732e+01 5.369749e+01 3.714637e+01 1.081038e+02 4.184200e+01 4.006738e+01 3.540969e+01 2.108907e+01 4.756643e-01 5.292089e+00 3.125980e+00 8.751763e+00 6.311274e+00 5.701937e+00 4.342034e+00 8.747970e+00 3.102764e+00 2.820984e+00 3.946560e+00 2.191067e+00 2.837678e+00
<GCONST> 1.066982e+02
<TRANSP> 5
 0.000000e+00 1.000000e+00 0.000000e+00 0.000000e+00 0.000000e+00
 0.000000e+00 6.782027e-01 3.217973e-01 0.000000e+00 0.000000e+00
 0.000000e+00 0.000000e+00 8.334039e-01 1.665961e-01 0.000000e+00
 0.000000e+00 0.000000e+00 0.000000e+00 8.421629e-01 1.578371e-01
 0.000000e+00 0.000000e+00 0.000000e+00 0.000000e+00 0.000000e+00
<ENDHMM>
~h "sp"
<BEGINHMM>
<NUMSTATES> 3
<STATE> 2
~s "silst"
<TRANSP> 3
 0.000000e+00 1.029971e-01 8.970029e-01
 0.000000e+00 8.408742e-01 1.591258e-01
 0.000000e+00 0.000000e+00 0.000000e+00
<ENDHMM>
~h "th"
<BEGINHMM>
<NUMSTATES> 5
<STATE> 2
<MEAN> 25
 1.622606e+01 -9.242154e+00 1.738959e+01 3.846702e+00 -2.023755e+01 -6.586692e+00 4.275721e+00 -4.078210e+00 -9.810238e+00 -3.295308e+00 6.967806e-01 1.070408e+00 1.171523e-01 1.836434e+00 7.897893e-01 5.078800e-01 -1.932569e+00 6.156728e-03 1.346163e+00 -8.513060e-01 -1.457487e+00 5.118200e-01 2.457784e-01 -4.489458e-01 -1.056312e+00
<VARIANCE> 25
 2.087373e+01 6.619289e+01 3.890606e+01 7.816628e+01 1.155128e+02 6.654452e+01 1.089200e+02 5.728731e+01 1.203938e+02 3.459185e+01 3.132650e+01 4.293859e+01 2.833874e+00 6.311544e+00 4.038213e+00 6.935173e+00 6.311366e+00 9.056114e+00 7.845747e+00 5.115465e+00 9.122828e+00 3.704444e+00 4.410217e+00 5.641949e+00 3.029033e+00
<GCONST> 1.162197e+02
<STATE> 3
<MEAN> 25
 1.257824e+01 1.644563e+01 1.644085e+01 1.250465e+00 -2.171070e+01 -8.687315e+00 5.536830e+00 -6.922025e+00 -9.357963e+00 3.778453e+00 -3.527969e-01 -3.142845e+00 -1.819646e+00 2.592550e+00 -1.942698e+00 -7.019661e-02 4.160647e+00 -4.708079e-02 -3.644495e+00 1.276265e+00 3.330877e+00 -4.732109e-01 4.012478e-01 4.423986e-01 -2.848146e+00
<VARIANCE> 25
 1.198605e+01 2.045472e+01 2.344616e+01 1.145032e+02 4.206042e+01 3.603062e+01 8.187125e+01 5.042452e+01 3.002151e+01 3.220844e+01 3.450545e+01 1.395125e+01 7.910071e-01 3.452152e+00 5.128872e+00 7.345688e+00 4.502263e+00 4.345443e+00 6.007923e+00 2.871350e+00 2.041998e+00 4.131510e+00 1.909454e+00 1.357960e+00 4.187916e-01
<GCONST> 1.007142e+02
<STATE> 4
<MEAN> 25
 1.833129e+00 1.248275e+01 9.741479e+00 6.049007e-01 -1.301460e+01 -2.944778e+00 1.027733e+00 -6.600695e+00 -3.586047e+00 1.317530e+00 -1.711933e+00 -1.888505e+00 -2.764252e+00 -2.059059e+00 -2.622826e+00 -5.908600e-01 1.457557e+00 1.543911e+00 3.391845e-01 -1.060741e-01 2.501747e-01 -8.785651e-01 -6.511539e-01 2.745429e-01 -1.691708e+00
<VARIANCE> 25
 2.388058e+01 4.217919e+01 4.984277e+01 1.663044e+01 1.402355e+01 2.335369e+01 2.446229e+01 2.160669e+01 1.577106e+01 1.158113e+01 2.495448e+01 1.419231e+01 1.806430e+00 1.163816e+00 1.591520e+00 2.677220e+00 5.920599e+00 1.689534e+00 6.167952e+00 7.302402e-01 3.800440e+00 1.000148e+00 2.586783e+00 6.611876e-01 8.545324e-01
<GCONST> 9.043613e+01
<TRANSP> 5
 0.000000e+00 1.000000e+00 0.000000e+00 0.000000e+00 0.000000e+00
 0.000000e+00 9.170379e-01 8.296210e-02 0.000000e+00 0.000000e+00
 0.000000e+00 0.000000e+00 7.248554e-01 2.751446e-01 0.000000e+00
 0.000000e+00 0.000000e+00 0.000000e+00 6.530718e-01 3.469282e-01
 0.000000e+00 0.000000e+00 0.000000e+00 0.000000e+00 0.000000e+00
<ENDHMM>
~h "uw"
<BEGINHMM>
<NUMSTATES> 5
<STATE> 2
<MEAN> 25
 -2.504313e+00 7.404382e+00 4.793641e-01 1.969402e+00 -9.303237e-01 1.942336e+00 2.160921e+00 -8.978631e-01 -4.777211e+00 -5.586429e+00 -8.799386e-01 -1.182305e+00 -1.362730e+00 -9.990897e-01 -1.834821e-01 6.012689e-01 4.298965e-01 2.817202e-01 2.400660e-01 3.050330e-01 5.261718e-02 -1.175148e-01 -3.576973e-01 -2.984093e-01 -6.319777e-01
<VARIANCE> 25
 2.513519e+01 1.878163e+01 1.937177e+01 2.812307e+01 1.504023e+01 1.466188e+01 2.264763e+01 1.460067e+01 2.372381e+01 2.123308e+01 1.606416e+01 2.201812e+01 1.255566e+00 1.506606e+00 1.787899e+00 1.457435e+00 1.205007e+00 1.437943e+00 1.416739e+00 1.416566e+00 1.645601e+00 1.784380e+00 1.831046e+00 1.673990e+00 3.419777e-01
<GCONST> 8.565780e+01
<STATE> 3
<MEAN> 25
 -6.466609e+00 3.883067e+00 1.715527e+00 5.451789e+00 -6.515443e-03 5.962153e-01 1.028304e+00 -3.603609e-01 -3.326061e+00 -3.910974e+00 -9.617995e-01 -1.540240e+00 -2.365824e-01 -1.117242e-01 1.282439e-01 2.328196e-01 9.635784e-02 -4.793791e-02 8.870652e-02 8.627398e-02 1.913525e-01 6.649155e-02 -3.982469e-02 -1.059846e-02 -1.008919e-01
<VARIANCE> 25
 5.084525e+00 7.727525e+00 1.838361e+01 2.681966e+01 1.747211e+01 1.505716e+01 1.425640e+01 1.889691e+01 1.427797e+01 1.506767e+01 1.183066e+01 1.407701e+01 3.051226e-01 5.434214e-01 6.433576e-01 6.687948e-01 9.945754e-01 1.327958e+00 1.612294e+00 1.732324e+00 1.322292e+00 1.240967e+00 1.185732e+00 1.017890e+00 8.930729e-02
<GCONST> 7.440643e+01
<STATE> 4
<MEAN> 25
 -8.596184e+00 3.472517e+00 -9.932458e-02 2.310142e+00 -2.088537e-01 -1.203026e+00 1.285729e+00 1.803603e-01 -3.289646e-01 -1.927491e+00 -7.516150e-01 -8.238692e-02 3.500772e-02 -3.233074e-02 3.263189e-01 2.776673e-01 4.181121e-01 -5.518587e-01 1.974841e-01 3.681597e-01 5.880819e-01 5.766164e-01 1.772393e-01 2.432604e-01 3.678304e-01
<VARIANCE> 25
 8.184998e+00 6.276694e+00 1.109029e+01 3.921640e+01 2.974929e+01 3.404777e+01 1.175163e+01 2.632357e+01 2.510188e+01 2.853551e+01 2.474404e+01 1.792264e+01 1.611294e+00 2.392459e+00 1.814459e+00 2.231937e+00 1.893865e+00 2.442208e+00 2.789418e+00 2.858962e+00 2.642936e+00 2.555366e+00 1.914072e+00 2.431433e+00 1.228449e+00
<GCONST> 9.129439e+01
<TRANSP> 5
 0.000000e+00 1.000000e+00 0.000000e+00 0.000000e+00 0.000000e+00
 0.000000e+00 6.734452e-01 3.265547e-01 0.000000e+00 0.000000e+00
 0.000000e+00 0.000000e+00 8.754035e-01 1.245965e-01 0.000000e+00
 0.000000e+00 0.000000e+00 0.000000e+00 1.291058e-01 8.708942e-01
 0.000000e+00 0.000000e+00 0.000000e+00 0.000000e+00 0.000000e+00
<ENDHMM>
~h "sil"
<BEGINHMM>
<NUMSTATES> 5
<STATE> 2
<MEAN> 25
 -1.063137e+01 4.550179e+00 -1.848463e+00 4.003488e+00 3.748057e-01 2.516572e+00 2.316072e+00 6.990775e-02 9.588670e-01 -1.867963e+00 6.848493e-01 4.167959e-01 -2.778283e-02 -1.264953e-03 1.499298e-02 2.744635e-02 4.194090e-02 3.490156e-02 3.666104e-02 2.428237e-02 -5.407934e-03 -5.397802e-03 9.229603e-04 1.219455e-02 -1.757445e-02
<VARIANCE> 25
 6.744858e+00 5.649405e+00 9.249210e+00 1.370664e+01 1.062423e+01 1.325620e+01 1.543779e+01 1.645934e+01 1.433619e+01 1.260077e+01 1.195960e+01 1.292168e+01 1.033186e-01 2.152739e-01 3.811321e-01 6.002852e-01 7.679447e-01 8.948756e-01 1.060734e+00 1.221464e+00 1.202067e+00 1.238124e+00 1.173009e+00 1.138233e+00 4.115048e-02
<GCONST> 6.725132e+01
<STATE> 3
~s "silst"
<STATE> 4
<MEAN> 25
 -8.011555e+00 4.657801e+00 1.035020e+00 3.925712e+00 1.376355e+00 2.740905e+00 1.497186e+00 -5.487593e-02 -5.737184e-01 -2.643871e+00 2.179101e-02 6.503894e-01 3.158424e-01 6.505697e-02 6.444202e-02 2.917220e-02 -3.733495e-02 -1.756521e-01 -2.691934e-01 -9.894628e-02 -7.306919e-03 -4.915408e-02 -6.606448e-02 -1.276067e-01 2.167441e-01
<VARIANCE> 25
 4.151537e+01 3.331331e+01 2.371550e+01 2.124560e+01 1.610518e+01 2.087597e+01 2.048204e+01 2.035290e+01 1.771482e+01 1.913902e+01 1.533916e+01 1.376213e+01 1.855392e+00 2.389112e+00 1.557554e+00 1.564384e+00 1.667959e+00 2.065445e+00 1.711995e+00 1.593636e+00 1.550463e+00 1.629553e+00 1.400840e+00 1.173860e+00 2.961554e+00
<GCONST> 8.956039e+01
<TRANSP> 5
 0.000000e+00 1.000000e+00 0.000000e+00 0.000000e+00 0.000000e+00
 0.000000e+00 9.265816e-01 1.506556e-02 5.835288e-02 0.000000e+00
 0.000000e+00 0.000000e+00 8.753234e-01 1.246766e-01 0.000000e+00
 0.000000e+00 1.079213e-01 0.000000e+00 6.539013e-01 2.381774e-01
 0.000000e+00 0.000000e+00 0.000000e+00 0.000000e+00 0.000000e+00
<ENDHMM>
