~o
<STREAMINFO> 1 25
<VECSIZE> 25<NULLD><MFCC_D_N_Z_0><DIAGC>
~s "silst"
<MEAN> 25
 -1.595371e+01 3.759938e+00 -6.876581e-01 4.433940e+00 2.342906e+00 5.090953e+00 3.335915e+00 4.130759e+00 4.857489e+00 1.265240e+00 4.342790e+00 3.854377e+00 -1.524990e-02 -7.104182e-03 2.969940e-02 1.557728e-02 -7.507246e-03 -3.728665e-03 3.448715e-02 -7.483982e-02 -1.146839e-01 -2.272259e-02 1.846347e-03 1.546647e-02 -6.892006e-03
<VARIANCE> 25
 6.079782e+00 3.561062e+00 9.009738e+00 1.308492e+01 9.028702e+00 1.172085e+01 1.434815e+01 1.590441e+01 1.686862e+01 1.168531e+01 1.142117e+01 8.715711e+00 7.446938e-02 1.680938e-01 3.174642e-01 4.165738e-01 6.125720e-01 5.387210e-01 8.667941e-01 1.200759e+00 1.239545e+00 1.075546e+00 9.338961e-01 9.615172e-01 4.115048e-02
<GCONST> 6.328519e+01
~h "b"
<BEGINHMM>
<NUMSTATES> 5
<STATE> 2
<MEAN> 25
 2.045885e+01 -3.780702e+00 8.193782e-02 -1.446972e+00 -2.895032e+00 3.727088e+00 -7.838593e+00 -1.910374e+01 -2.657601e+00 6.453812e+00 -5.098117e+00 -2.479271e+00 4.350350e-01 -3.900117e-01 -1.380250e-01 -1.048023e+00 -7.195387e-01 3.203080e-01 3.551205e-01 -5.449456e-01 -2.570257e-01 6.604554e-01 -2.578102e-03 -2.107374e-01 6.318828e-01
<VARIANCE> 25
 6.748905e+00 4.585201e+01 4.784925e+01 8.532777e+01 9.299367e+01 6.188881e+01 1.016790e+02 5.798398e+01 5.510650e+01 3.373024e+01 5.537544e+01 2.661380e+01 4.504845e-01 5.974508e+00 4.773922e+00 7.485066e+00 8.695137e+00 7.598941e+00 6.672653e+00 7.585706e+00 6.655190e+00 2.337127e+00 4.910920e+00 1.837137e+00 2.403561e+00
<GCONST> 1.106615e+02
<STATE> 3
<MEAN> 25
 2.203828e+01 7.130860e+00 -8.200897e+00 -1.206135e+01 6.723540e-01 6.770954e+00 -4.037210e+00 -1.565424e+01 -8.336486e+00 5.658181e+00 2.775220e+00 -7.125924e-01 -5.325784e-01 2.515551e+00 -9.840270e-01 -4.469292e-01 1.300258e+00 -9.670565e-02 4.211963e-01 2.293156e+00 -7.319657e-01 -1.764521e+00 1.419277e+00 1.095843e+00 -1.774047e+00
<VARIANCE> 25
 5.003817e+00 2.576068e+01 1.630703e+01 1.264432e+02 4.140825e+01 2.969948e+01 5.848511e+01 1.107722e+02 5.651827e+01 2.678678e+01 5.018394e+01 1.045039e+01 1.115174e+00 1.553376e+00 2.544535e+00 6.505390e+00 5.754342e+00 3.353224e+00 5.557455e+00 4.239826e+00 2.750420e+00 2.344655e+00 4.490819e+00 1.661769e+00 7.651129e-01
<GCONST> 1.009947e+02
<STATE> 4
<MEAN> 25
 1.850577e+01 1.389762e+01 -7.548523e+00 -1.218125e+01 -2.285626e+00 5.595386e+00 7.659292e-01 -6.750288e+00 -1.008654e+01 -3.444167e+00 2.766967e+00 2.139802e+00 -2.185663e+00 6.179994e-01 1.466334e+00 1.805764e+00 -9.243046e-01 -5.408328e-01 1.025908e+00 1.544221e+00 1.170005e+00 -1.199239e+00 -6.329731e-01 -1.319212e-01 -2.028170e+00
<VARIANCE> 25
 2.304930e+01 8.351869e+00 1.286480e+01 7.305711e+01 5.282628e+01 3.749222e+01 2.199938e+01 3.307578e+01 2.619350e+01 3.159259e+01 1.986070e+01 1.323473e+01 3.048413e+00 2.012280e+00 2.042289e+00 2.434307e+00 3.471896e+00 3.530072e+00 1.417871e+00 3.934646e+00 1.482236e+00 1.184993e+00 3.018947e+00 1.183195e+00 7.357679e-01
<GCONST> 9.369598e+01
<TRANSP> 5
 0.000000e+00 1.000000e+00 0.000000e+00 0.000000e+00 0.000000e+00
 0.000000e+00 9.037488e-01 9.625119e-02 0.000000e+00 0.000000e+00
 0.000000e+00 0.000000e+00 7.878516e-01 2.121483e-01 0.000000e+00
 0.000000e+00 0.000000e+00 0.000000e+00 7.256513e-01 2.743487e-01
 0.000000e+00 0.000000e+00 0.000000e+00 0.000000e+00 0.000000e+00
<ENDHMM>
~h "d"
<BEGINHMM>
<NUMSTATES> 5
<STATE> 2
<MEAN> 25
 -1.681421e+01 1.693378e+00 -1.501877e-01 7.123471e+00 1.456601e+00 3.980994e+00 4.629907e+00 4.102903e+00 5.105475e+00 1.681061e+00 5.112859e+00 3.890649e+00 -7.961025e-03 1.148011e-02 2.257201e-03 1.694830e-02 2.959027e-02 -4.853327e-03 -5.359640e-02 -2.144857e-02 7.698251e-02 4.326157e-02 -9.232914e-03 -2.366533e-02 -1.147184e-02
<VARIANCE> 25
 4.438760e+00 4.568609e+00 3.734790e+00 7.678491e+00 6.816167e+00 7.271652e+00 9.893131e+00 1.517254e+01 1.039019e+01 9.343169e+00 8.359388e+00 7.836788e+00 4.253944e-02 1.462905e-01 2.382192e-01 3.666240e-01 4.387063e-01 4.821361e-01 7.603073e-01 1.214329e+00 1.161989e+00 1.065590e+00 7.996253e-01 9.080669e-01 4.115048e-02
<GCONST> 5.753728e+01
<STATE> 3
<MEAN> 25
 -1.322088e+01 5.319765e+00 -2.583416e-01 8.576438e-01 2.318516e+00 2.557038e+00 -3.999837e-01 3.194546e+00 1.137424e+00 -1.659544e+00 1.043997e+00 2.345348e+00 -6.454345e-03 1.716754e-02 2.520788e-02 5.061590e-03 -1.960684e-02 6.112156e-03 6.533281e-02 -5.612747e-02 -1.116697e-01 -1.606615e-02 1.851275e-02 -5.395086e-02 -1.182791e-02
<VARIANCE> 25
 4.613006e+00 4.743917e+00 7.550727e+00 1.487742e+01 9.004217e+00 1.073803e+01 1.380704e+01 1.161883e+01 1.176998e+01 1.168064e+01 1.123859e+01 1.099186e+01 1.059879e-01 2.566271e-01 4.115029e-01 7.230597e-01 7.383837e-01 8.550795e-01 1.152674e+00 7.989576e-01 1.199790e+00 9.729129e-01 1.244345e+00 1.238776e+00 4.115048e-02
<GCONST> 6.518137e+01
<STATE> 4
<MEAN> 25
 -1.100956e+01 3.878655e+00 1.252887e+00 2.592884e+00 1.112027e+00 1.448128e+00 1.315292e+00 1.555953e+00 3.023690e-01 -1.630641e+00 -6.966243e-01 8.408517e-02 1.865937e-01 1.537237e-02 6.226984e-02 -2.922371e-02 1.155866e-02 -4.641005e-02 -8.415952e-04 -1.547340e-02 -1.520650e-01 3.605371e-03 -8.669154e-02 -1.063375e-01 1.803131e-01
<VARIANCE> 25
 1.348032e+01 6.384064e+00 1.392211e+01 2.432545e+01 1.377469e+01 1.277090e+01 2.329614e+01 1.608907e+01 2.418133e+01 1.304671e+01 2.130176e+01 1.992048e+01 1.489302e+00 7.358993e-01 6.821490e-01 1.590983e+00 1.558334e+00 1.716217e+00 1.321126e+00 1.618781e+00 2.915129e+00 1.354082e+00 1.529558e+00 1.892233e+00 2.404587e+00
<GCONST> 8.435859e+01
<TRANSP> 5
 0.000000e+00 1.000000e+00 0.000000e+00 0.000000e+00 0.000000e+00
 0.000000e+00 9.306242e-01 6.937578e-02 0.000000e+00 0.000000e+00
 0.000000e+00 0.000000e+00 8.839904e-01 1.160096e-01 0.000000e+00
 0.000000e+00 0.000000e+00 0.000000e+00 7.226620e-01 2.773379e-01
 0.000000e+00 0.000000e+00 0.000000e+00 0.000000e+00 0.000000e+00
<ENDHMM>
~h "f"
<BEGINHMM>
<NUMSTATES> 5
<STATE> 2
<MEAN> 25
 -1.923245e+01 3.170968e+00 -1.336254e+00 5.246159e+00 1.543996e+00 5.782078e+00 5.750359e+00 4.931078e+00 5.550342e+00 9.098274e-01 5.542248e+00 3.788772e+00 2.782657e-03 4.352353e-03 1.097528e-02 1.877138e-02 3.902055e-02 -2.565067e-02 -8.380929e-02 -3.384961e-03 1.064466e-01 6.390320e-02 5.301232e-04 -8.186108e-03 -3.900430e-03
<VARIANCE> 25
 4.149097e+00 5.972991e+00 6.315569e+00 1.608851e+01 9.301907e+00 9.405333e+00 9.205060e+00 1.633144e+01 1.189606e+01 1.007026e+01 7.973365e+00 8.713226e+00 4.253944e-02 1.420775e-01 2.132401e-01 3.303440e-01 4.509885e-01 4.455899e-01 6.877507e-01 1.081536e+00 1.025530e+00 1.071670e+00 8.311635e-01 9.953827e-01 4.115048e-02
<GCONST> 5.934132e+01
<STATE> 3
<MEAN> 25
 -1.666662e+01 5.938424e+00 -5.415223e-01 2.868086e+00 3.348208e+00 6.364855e+00 2.633351e+00 2.430633e+00 3.293612e+00 1.681208e-01 4.178598e+00 4.130077e+00 -3.440198e-02 3.792914e-02 9.887560e-02 -2.717678e-02 -7.117081e-02 3.061267e-01 3.389568e-01 -3.320478e-01 -8.061071e-01 -3.008299e-01 -6.003065e-02 7.929234e-02 -2.906928e-03
<VARIANCE> 25
 1.265652e+01 8.647882e+00 6.501464e+00 1.460885e+01 1.017787e+01 7.664119e+00 9.292648e+00 1.588234e+01 1.266565e+01 7.966136e+00 5.987062e+00 7.656938e+00 5.581355e-02 1.064837e-01 1.683032e-01 2.584251e-01 7.874720e-01 4.701017e-01 8.664924e-01 1.015516e+00 8.083493e-01 7.102726e-01 4.357806e-01 6.057371e-01 4.115048e-02
<GCONST> 5.852699e+01
<STATE> 4
<MEAN> 25
 -1.361197e+01 4.391963e+00 4.610795e-01 -8.308822e-01 2.035867e+00 3.033040e+00 1.558716e+00 3.540947e+00 -1.095410e-01 -7.021279e-01 1.926383e+00 2.660070e+00 2.222305e-01 -1.445707e-02 1.075742e-02 -1.276238e-01 -1.302965e-01 -2.024073e-01 -4.353120e-02 -2.023974e-03 -1.472851e-01 -6.817523e-02 -1.003975e-01 -1.104082e-02 2.108340e-01
<VARIANCE> 25
 9.654985e+00 6.330297e+00 6.203099e+00 1.227956e+01 1.403018e+01 1.862363e+01 1.477699e+01 2.217314e+01 1.687652e+01 9.617810e+00 1.297823e+01 1.006268e+01 8.553014e-01 5.347564e-01 6.668087e-01 1.032426e+00 1.515771e+00 1.657701e+00 1.513215e+00 1.397064e+00 1.573445e+00 1.056282e+00 1.121123e+00 1.106439e+00 2.114091e+00
<GCONST> 7.769849e+01
<TRANSP> 5
 0.000000e+00 1.000000e+00 0.000000e+00 0.000000e+00 0.000000e+00
 0.000000e+00 9.492915e-01 5.070856e-02 0.000000e+00 0.000000e+00
 0.000000e+00 0.000000e+00 5.771706e-01 4.228294e-01 0.000000e+00
 0.000000e+00 0.000000e+00 0.000000e+00 8.853444e-01 1.146557e-01
 0.000000e+00 0.000000e+00 0.000000e+00 0.000000e+00 0.000000e+00
<ENDHMM>
~h "g"
<BEGINHMM>
<NUMSTATES> 5
<STATE> 2
<MEAN> 25
 1.835489e+01 -1.311280e+01 3.958489e+00 4.127725e+00 -8.208357e+00 -9.364041e+00 -5.024918e+00 -2.295017e+00 -2.702635e+00 2.012750e+00 -9.400617e-01 -1.660708e+00 5.722397e-01 -2.331919e-01 8.698519e-01 3.015455e-01 -1.979250e+00 -3.035178e-01 1.320069e+00 -5.661593e-01 -1.009465e+00 4.640668e-01 4.254317e-01 -1.895323e-01 5.423947e-01
<VARIANCE> 25
 1.831365e+01 3.345687e+01 8.748636e+01 1.402692e+02 1.268390e+02 8.148026e+01 7.883052e+01 6.706334e+01 7.175162e+01 6.078305e+01 4.083740e+01 4.014378e+01 2.420198e+00 4.748136e+00 1.084775e+01 1.333281e+01 6.616204e+00 3.966157e+00 8.301720e+00 9.245981e+00 5.830124e+00 5.759753e+00 4.880028e+00 4.010764e+00 2.455860e+00
<GCONST> 1.177890e+02
<STATE> 3
<MEAN> 25
 1.786728e+01 -7.126364e+00 7.241166e+00 -2.470312e+00 -1.075637e+01 -5.605542e+00 1.140077e+00 -6.622714e-01 -1.023478e+01 2.061810e+00 4.343303e-01 -1.270428e+00 2.607688e-02 3.783119e+00 -1.848143e+00 1.823792e+00 3.607633e-01 7.273943e-01 1.670336e+00 -1.522801e+00 -5.367009e-02 -1.585010e+00 4.446989e-02 1.674871e-01 -2.584048e+00
<VARIANCE> 25
 1.566241e+01 6.198530e+01 1.060275e+02 1.363546e+02 1.024595e+02 5.742498e+01 1.466044e+02 8.655430e+01 9.363992e+01 5.685598e+01 3.541935e+01 3.085165e+01 6.250559e-01 7.733053e+00 4.442997e+00 1.082129e+01 5.320006e+00 3.049419e+00 5.138831e+00 6.459796e+00 4.683575e+00 5.890764e+00 2.920293e+00 2.497116e+00 3.548106e+00
<GCONST> 1.144169e+02
<STATE> 4
<MEAN> 25
 1.894699e+01 5.362636e+00 -2.937472e+00 -1.910085e+00 -2.861010e+00 -5.294456e-01 -8.858991e-01 -7.692458e+00 -4.793676e+00 6.772089e-02 -1.061784e+00 -3.264109e+00 -4.773538e-01 3.206850e+00 -8.156522e-01 6.010687e-01 4.386728e-01 -2.884342e-02 -1.236317e-01 -5.782485e-01 1.348567e+00 -2.590811e-01 5.603243e-01 -5.163403e-01 -1.929181e+00
<VARIANCE> 25
 1.483609e+01 1.477363e+02 5.769087e+01 6.932992e+01 6.707313e+01 3.243214e+01 9.968729e+01 4.208088e+01 5.981584e+01 1.014025e+02 1.929968e+01 3.245787e+01 1.215730e+00 5.509631e+00 6.104272e+00 1.103703e+01 5.241940e+00 4.229564e+00 8.278008e+00 5.837497e+00 7.087330e+00 4.050482e+00 3.510846e+00 2.311318e+00 2.395944e+00
<GCONST> 1.125237e+02
<TRANSP> 5
 0.000000e+00 1.000000e+00 0.000000e+00 0.000000e+00 0.000000e+00
 0.000000e+00 7.686176e-01 2.313824e-01 0.000000e+00 0.000000e+00
 0.000000e+00 0.000000e+00 5.740678e-01 4.259323e-01 0.000000e+00
 0.000000e+00 0.000000e+00 0.000000e+00 2.324536e-01 7.675464e-01
 0.000000e+00 0.000000e+00 0.000000e+00 0.000000e+00 0.000000e+00
<ENDHMM>
~h "k"
<BEGINHMM>
<NUMSTATES> 5
<STATE> 2
<MEAN> 25
 -3.403113e+00 2.002566e-01 2.701189e+00 -1.063223e+01 1.280404e+01 -4.956031e+00 -7.217069e+00 3.073627e+00 2.241209e+00 1.242957e+00 4.948215e-01 1.616453e+00 -1.450050e+00 -1.685984e-01 1.798133e-01 -4.168902e-02 1.537259e-01 5.446920e-01 -4.473499e-01 2.447978e-01 1.790655e-01 -4.777418e-01 5.772754e-01 2.669991e-01 -8.430878e-01
<VARIANCE> 25
 1.663978e+02 4.974747e+01 4.186543e+01 9.436175e+01 7.385743e+01 6.029008e+01 6.461799e+01 2.991730e+01 4.094248e+01 5.018447e+01 3.512141e+01 3.019055e+01 1.481498e+01 6.744493e+00 6.125731e+00 6.918944e+00 6.371776e+00 5.239252e+00 5.567742e+00 4.770542e+00 4.266219e+00 4.021075e+00 3.991730e+00 3.233366e+00 6.351900e+00
<GCONST> 1.161997e+02
<STATE> 3
<MEAN> 25
 3.420888e+00 -5.911584e+00 -5.288590e+00 -7.437284e+00 1.286784e+01 4.083642e-01 -1.070220e+01 4.472780e+00 2.247103e+00 2.007744e+00 1.698739e+00 6.603469e-01 3.264725e+00 7.147712e-02 -2.405909e+00 -1.396481e+00 2.023799e-01 1.097591e+00 7.470872e-01 -8.246513e-01 -1.556645e+00 7.402464e-01 1.135576e-01 -1.019547e+00 1.376536e+00
<VARIANCE> 25
 9.408253e+01 6.920143e+01 8.791363e+01 9.280622e+01 1.000806e+02 6.745339e+01 1.026009e+02 7.709549e+01 6.087136e+01 6.244284e+01 3.989539e+01 3.583577e+01 8.662944e+00 9.709200e+00 6.931034e+00 1.482232e+01 1.945891e+01 8.208200e+00 1.218315e+01 8.897120e+00 6.853099e+00 5.901810e+00 4.655500e+00 4.672463e+00 2.092208e+01
<GCONST> 1.256805e+02
<STATE> 4
<MEAN> 25
 1.599789e+01 -1.732734e+00 -1.078167e+01 -1.441173e+01 6.112492e+00 5.333314e+00 -4.744876e+00 -2.488158e+00 -4.715554e+00 3.009062e+00 2.862381e+00 -1.818178e+00 3.524633e+00 3.611957e-01 3.257726e-01 -4.299171e-01 -1.923225e+00 1.854004e-01 1.299615e+00 -1.959594e+00 -1.415113e+00 1.726213e-01 7.155087e-01 -5.425907e-01 2.285876e+00
<VARIANCE> 25
 5.163763e+01 4.853423e+01 5.879307e+01 8.291710e+01 6.002539e+01 9.774369e+01 5.589219e+01 3.668217e+01 4.680581e+01 5.468575e+01 4.163892e+01 2.979722e+01 5.775396e+00 5.152369e+00 9.338201e+00 1.161602e+01 7.528983e+00 6.323754e+00 8.190347e+00 6.953878e+00 7.226480e+00 4.289639e+00 4.428791e+00 3.678125e+00 7.685162e+00
<GCONST> 1.177879e+02
<TRANSP> 5
 0.000000e+00 1.000000e+00 0.000000e+00 0.000000e+00 0.000000e+00
 0.000000e+00 8.780959e-01 1.219042e-01 0.000000e+00 0.000000e+00
 0.000000e+00 0.000000e+00 7.485498e-01 2.514502e-01 0.000000e+00
 0.000000e+00 0.000000e+00 0.000000e+00 5.583845e-01 4.416155e-01
 0.000000e+00 0.000000e+00 0.000000e+00 0.000000e+00 0.000000e+00
<ENDHMM>
~h "l"
<BEGINHMM>
<NUMSTATES> 5
<STATE> 2
<MEAN> 25
 1.324673e+00 6.601162e+00 -1.093034e+00 -2.427235e+00 -4.390923e-01 2.024490e+00 -1.569746e+00 -2.831550e+00 8.638738e-01 8.708340e-02 1.675714e+00 1.194856e+00 -1.536733e+00 -1.886794e+00 5.708587e-01 6.540936e-01 -4.736847e-01 -1.084226e+00 4.609995e-01 9.059194e-01 1.730046e-01 -1.942849e-01 3.020830e-01 4.266515e-01 3.569281e-02
<VARIANCE> 25
 1.257066e+02 8.111516e+01 5.369133e+01 6.254724e+01 5.098372e+01 5.128497e+01 3.366267e+01 4.475082e+01 3.131636e+01 3.171875e+01 3.129371e+01 2.334729e+01 1.088467e+01 4.856180e+00 5.389494e+00 3.371715e+00 4.723147e+00 5.833250e+00 3.904632e+00 3.487603e+00 2.570450e+00 2.135114e+00 2.165986e+00 1.869015e+00 1.472958e+01
<GCONST> 1.105629e+02
<STATE> 3
<MEAN> 25
 2.583399e+00 2.048094e+00 -3.292608e-01 -2.850235e-02 1.235567e-01 -5.611724e-01 -9.639604e-01 -1.903821e+00 6.044365e-01 -8.157590e-01 9.209884e-01 1.215460e+00 1.012093e+00 -3.620111e+00 7.613876e-01 2.963751e-01 -5.222499e-01 -2.061976e+00 1.694290e-01 9.670374e-01 -1.761516e-01 -2.957752e-01 -4.801834e-01 8.694928e-02 3.375537e+00
<VARIANCE> 25
 1.306940e+02 1.534410e+02 6.960745e+01 7.186743e+01 5.860590e+01 5.646502e+01 3.663348e+01 4.728757e+01 4.332118e+01 3.676754e+01 2.592232e+01 2.149948e+01 1.351369e+01 8.247115e+00 6.681069e+00 5.249979e+00 8.314436e+00 7.586590e+00 4.387237e+00 4.565185e+00 3.676682e+00 3.022138e+00 3.267715e+00 1.934039e+00 2.025644e+01
<GCONST> 1.163016e+02
<STATE> 4
<MEAN> 25
 5.373608e+00 -5.755033e+00 7.469219e-01 3.436034e-01 4.208176e-01 -5.585524e+00 -1.503595e+00 1.138204e+00 1.554240e+00 -1.830815e+00 -7.563605e-01 1.763042e+00 1.902862e+00 -2.682728e+00 9.090360e-01 2.534998e-01 -8.341510e-01 -1.323250e+00 -3.282098e-01 4.781923e-01 -3.543233e-01 -1.868114e-01 -3.612935e-01 -3.509118e-01 3.143719e+00
<VARIANCE> 25
 1.008925e+02 1.160206e+02 8.260715e+01 8.211366e+01 6.481356e+01 8.872181e+01 5.930379e+01 5.660841e+01 5.626596e+01 3.373032e+01 3.105112e+01 3.105248e+01 1.164017e+01 1.191157e+01 8.038260e+00 5.410660e+00 9.591397e+00 6.706033e+00 6.574285e+00 4.685091e+00 6.074759e+00 4.385888e+00 5.039042e+00 3.062603e+00 1.419174e+01
<GCONST> 1.203003e+02
<TRANSP> 5
 0.000000e+00 1.000000e+00 0.000000e+00 0.000000e+00 0.000000e+00
 0.000000e+00 4.700244e-01 5.299756e-01 0.000000e+00 0.000000e+00
 0.000000e+00 0.000000e+00 3.314225e-02 9.668577e-01 0.000000e+00
 0.000000e+00 0.000000e+00 0.000000e+00 4.372981e-01 5.627019e-01
 0.000000e+00 0.000000e+00 0.000000e+00 0.000000e+00 0.000000e+00
<ENDHMM>
~h "m"
<BEGINHMM>
<NUMSTATES> 5
<STATE> 2
<MEAN> 25
 2.417932e+00 4.830013e+00 8.701321e+00 -7.322295e+00 7.763219e+00 -1.191146e+01 -5.435815e+00 4.267933e+00 2.306911e-01 -4.085711e+00 -3.798186e+00 3.000749e+00 1.568020e+00 -9.865629e-01 8.831444e-01 -1.368571e+00 3.931782e-01 -6.228012e-01 -1.319383e+00 -7.137487e-01 7.328028e-02 4.011031e-02 -3.049407e-02 -2.486062e-01 3.535000e+00
<VARIANCE> 25
 6.624545e+01 7.704642e+01 6.083668e+01 6.594838e+01 1.019328e+02 7.440788e+01 1.465038e+02 6.201831e+01 5.071880e+01 5.659778e+01 5.566580e+01 3.080889e+01 1.455083e+01 1.208227e+01 5.198107e+00 7.700978e+00 1.423753e+01 8.688323e+00 1.137260e+01 1.211731e+01 9.199152e+00 1.002911e+01 6.877030e+00 4.629325e+00 4.734532e+00
<GCONST> 1.243824e+02
<STATE> 3
<MEAN> 25
 2.243098e+01 -9.755327e+00 6.736156e+00 -1.260238e+01 1.824517e+00 1.112775e+00 -9.477493e+00 -1.234058e+01 -1.675727e+00 7.883420e+00 -1.488587e+00 -3.324400e+00 1.918489e+00 -5.133914e-01 -8.790048e-01 -1.057511e-01 -1.476288e+00 2.238808e+00 1.289292e+00 -5.637361e-01 -6.787528e-01 5.353626e-01 7.433534e-02 3.175530e-01 -6.396340e-01
<VARIANCE> 25
 2.451969e+01 2.689931e+01 5.810211e+01 1.435646e+02 5.859037e+01 1.322091e+02 9.064683e+01 1.044633e+02 5.080258e+01 5.265473e+01 2.194757e+01 3.331330e+01 4.297349e+00 5.975952e+00 8.132813e+00 1.033412e+01 6.468092e+00 1.017180e+01 7.087208e+00 1.599596e+01 7.981775e+00 1.202217e+01 1.811981e+00 4.827674e+00 3.936500e+00
<GCONST> 1.187618e+02
<STATE> 4
<MEAN> 25
 2.088603e+01 -5.886330e+00 3.100370e+00 -6.890230e+00 -3.145502e+00 1.938101e+00 1.073921e+00 -6.115990e+00 -6.327892e+00 1.995794e-02 -5.526020e-01 -6.730858e-01 -2.459031e-01 6.047324e-01 -2.836815e-01 3.892168e-01 1.008054e-01 -2.270119e-01 1.189221e-02 2.154761e-01 1.024539e-02 -1.152056e-01 9.706628e-02 -1.793622e-01 -6.834072e-01
<VARIANCE> 25
 6.225085e+01 1.108481e+02 1.347972e+02 2.007971e+02 1.144585e+02 8.752829e+01 1.111752e+02 1.365830e+02 8.687441e+01 6.590834e+01 4.724389e+01 2.876150e+01 1.985527e+00 7.489311e+00 8.473874e+00 1.062119e+01 4.252417e+00 3.747417e+00 4.821786e+00 7.132884e+00 6.269862e+00 7.128011e+00 5.004319e+00 3.417928e+00 6.818064e+00
<GCONST> 1.217639e+02
<TRANSP> 5
 0.000000e+00 1.000000e+00 0.000000e+00 0.000000e+00 0.000000e+00
 0.000000e+00 8.971220e-01 1.028780e-01 0.000000e+00 0.000000e+00
 0.000000e+00 0.000000e+00 8.715428e-01 1.284572e-01 0.000000e+00
 0.000000e+00 0.000000e+00 0.000000e+00 9.623155e-01 3.768456e-02
 0.000000e+00 0.000000e+00 0.000000e+00 0.000000e+00 0.000000e+00
<ENDHMM>
~h "n"
<BEGINHMM>
<NUMSTATES> 5
<STATE> 2
<MEAN> 25
 7.214373e-02 1.031808e+01 4.777930e+00 6.418627e+00 -1.777460e+00 -1.729920e+00 -1.248465e+00 -2.144886e+00 -2.060001e+00 -4.504486e+00 -4.205160e+00 -2.296138e+00 -1.769906e+00 -1.395472e+00 -5.515388e-01 2.610579e-01 4.717536e-01 2.419719e-01 9.057654e-02 1.006089e-01 2.329595e-01 1.863995e-01 1.928292e-01 -4.466799e-02 -9.298650e-01
<VARIANCE> 25
 6.192024e+01 4.108688e+01 4.072131e+01 2.564307e+01 1.769434e+01 2.178206e+01 2.150133e+01 2.272366e+01 3.122219e+01 2.577434e+01 1.692760e+01 1.882625e+01 4.762589e+00 3.305934e+00 3.030411e+00 3.324301e+00 2.071638e+00 2.288172e+00 1.689551e+00 1.847812e+00 1.776736e+00 2.591874e+00 1.060280e+00 1.064154e+00 1.413067e+00
<GCONST> 9.509471e+01
<STATE> 3
<MEAN> 25
 -8.007998e+00 4.732419e+00 3.376261e+00 7.596700e+00 2.758953e+00 2.423192e+00 -9.498556e-01 -1.412045e+00 -1.878424e+00 -4.080754e+00 -1.518184e+00 -2.258565e+00 -4.790770e-01 -4.331165e-01 -4.193403e-01 -2.219129e-01 -1.779547e-01 7.573550e-02 1.735942e-01 5.681176e-02 1.221173e-01 2.552904e-01 3.540982e-01 3.287989e-01 -2.460290e-01
<VARIANCE> 25
 1.141793e+01 9.571190e+00 2.224770e+01 1.722281e+01 1.414007e+01 1.320376e+01 1.192115e+01 1.427061e+01 1.581117e+01 1.517099e+01 2.161725e+01 1.766681e+01 2.297417e-01 6.030754e-01 1.043109e+00 9.858255e-01 6.334355e-01 1.042673e+00 1.093951e+00 1.975422e+00 1.467224e+00 1.659457e+00 2.283202e+00 2.238850e+00 7.776488e-02
<GCONST> 7.675518e+01
<STATE> 4
<MEAN> 25
 -8.842360e+00 1.823922e+00 -2.714232e-01 1.658672e+00 2.280993e-01 1.727361e+00 1.008744e-01 6.151488e-01 -3.132980e-01 -9.810601e-01 -5.989059e-01 2.336566e-01 -1.674226e-02 2.052069e-02 -1.511838e-02 -3.924881e-02 2.436439e-02 2.815189e-02 -7.768014e-03 2.581766e-02 1.307837e-02 -3.501184e-02 1.206163e-02 4.602237e-02 -1.618425e-02
<VARIANCE> 25
 4.774652e+00 6.096295e+00 1.011175e+01 1.130063e+01 7.702425e+00 1.260309e+01 1.367556e+01 1.244373e+01 1.590057e+01 1.377090e+01 1.408259e+01 1.383347e+01 1.485233e-01 2.964945e-01 4.369306e-01 6.075274e-01 7.047847e-01 9.362165e-01 1.146884e+00 1.344748e+00 1.453330e+00 1.472166e+00 1.440151e+00 1.351460e+00 4.117591e-02
<GCONST> 6.823475e+01
<TRANSP> 5
 0.000000e+00 1.000000e+00 0.000000e+00 0.000000e+00 0.000000e+00
 0.000000e+00 8.149233e-01 1.850766e-01 0.000000e+00 0.000000e+00
 0.000000e+00 0.000000e+00 7.533672e-01 2.466327e-01 0.000000e+00
 0.000000e+00 0.000000e+00 0.000000e+00 9.600540e-01 3.994591e-02
 0.000000e+00 0.000000e+00 0.000000e+00 0.000000e+00 0.000000e+00
<ENDHMM>
~h "r"
<BEGINHMM>
<NUMSTATES> 5
<STATE> 2
<MEAN> 25
 1.811035e+00 3.323371e+00 7.279660e-01 1.110979e+00 -3.161849e+00 -1.558023e+00 9.126489e-01 -1.210443e+00 -5.177309e-01 -4.877375e-01 3.277749e-03 -3.333857e-02 -1.481515e-01 4.729138e-02 3.737147e-01 -4.530628e-01 5.898149e-02 1.779979e-01 -3.136732e-01 -2.472468e-01 1.596626e-02 -9.227129e-02 -1.852458e-01 -1.223291e-02 9.561104e-02
<VARIANCE> 25
 1.998795e+02 1.415978e+02 6.081783e+01 4.305045e+01 5.093443e+01 4.927947e+01 4.037906e+01 4.404271e+01 4.061044e+01 3.376533e+01 2.440988e+01 2.008135e+01 5.001521e+00 5.470608e+00 3.297325e+00 3.032130e+00 3.683879e+00 3.413472e+00 3.526139e+00 2.836272e+00 4.101809e+00 2.257004e+00 1.482367e+00 1.696482e+00 3.651057e+00
<GCONST> 1.076862e+02
<STATE> 3
<MEAN> 25
 2.257916e+00 2.256239e+00 1.457023e+00 7.749695e-01 -3.416195e+00 -1.283244e+00 6.553646e-01 -1.447004e+00 -3.115493e-01 -8.080447e-01 1.333590e-02 7.247406e-02 5.611282e-01 -1.158581e-01 6.493822e-01 -1.513823e-01 4.769349e-01 1.501498e-01 -2.789598e-01 -2.093411e-01 2.888213e-01 -1.651703e-01 -3.406810e-01 1.777049e-01 9.106526e-01
<VARIANCE> 25
 1.925819e+02 1.539886e+02 6.037528e+01 4.352301e+01 4.923762e+01 5.572160e+01 4.512847e+01 5.139417e+01 4.865941e+01 3.819752e+01 2.801722e+01 2.284553e+01 6.362193e+00 8.017548e+00 5.351080e+00 3.616587e+00 5.073719e+00 2.499316e+00 3.908171e+00 3.008079e+00 2.668993e+00 2.052808e+00 1.312978e+00 1.527759e+00 4.260685e+00
<GCONST> 1.095192e+02
<STATE> 4
<MEAN> 25
 3.408842e+00 1.678642e-01 2.694542e+00 1.219638e+00 -8.689969e-01 -3.269229e+00 3.441889e-01 -5.683935e-01 1.516089e-01 -1.066378e+00 -9.443567e-01 1.231303e+00 1.748227e+00 -8.791004e-01 1.101950e+00 -4.017250e-01 1.134081e-01 -4.911425e-01 -4.048604e-01 -1.024493e-01 -4.282542e-02 -1.602380e-02 -3.208406e-01 1.910360e-01 2.546662e+00
<VARIANCE> 25
 1.669267e+02 1.513606e+02 6.095063e+01 6.214223e+01 6.150995e+01 8.328201e+01 5.557383e+01 5.938177e+01 6.115820e+01 2.758604e+01 3.061211e+01 2.549883e+01 9.703707e+00 1.224627e+01 8.136205e+00 6.252033e+00 8.251661e+00 6.867571e+00 7.066547e+00 4.578150e+00 8.945052e+00 3.142356e+00 3.103601e+00 3.069874e+00 1.322686e+01
<GCONST> 1.194509e+02
<TRANSP> 5
 0.000000e+00 1.000000e+00 0.000000e+00 0.000000e+00 0.000000e+00
 0.000000e+00 1.288361e-01 8.711639e-01 0.000000e+00 0.000000e+00
 0.000000e+00 0.000000e+00 7.485677e-02 9.251432e-01 0.000000e+00
 0.000000e+00 0.000000e+00 0.000000e+00 2.556534e-01 7.443466e-01
 0.000000e+00 0.000000e+00 0.000000e+00 0.000000e+00 0.000000e+00
<ENDHMM>
~h "s"
<BEGINHMM>
<NUMSTATES> 5
<STATE> 2
<MEAN> 25
 1.372713e+01 -1.286331e+01 7.907343e+00 2.606857e+00 -5.170673e+00 -9.373650e+00 -2.573163e+00 2.564932e+00 6.895829e-01 -1.005688e+00 -3.296439e+00 2.411484e-01 2.385366e+00 -8.702653e-01 1.472899e-01 -2.588436e-02 -1.292725e+00 -8.513256e-01 -5.137022e-01 7.428517e-01 -9.876789e-01 -2.223271e-01 5.616666e-01 -4.132034e-02 1.721676e+00
<VARIANCE> 25
 5.455119e+01 4.401183e+01 7.567201e+01 9.171873e+01 6.015739e+01 6.904575e+01 5.799989e+01 4.412237e+01 6.236174e+01 2.428319e+01 3.904718e+01 3.181582e+01 5.899522e+00 1.105653e+01 1.083084e+01 9.869657e+00 6.329522e+00 1.067425e+01 4.679035e+00 4.560372e+00 1.220264e+01 3.083245e+00 5.164128e+00 3.431808e+00 5.775908e+00
<GCONST> 1.175817e+02
<STATE> 3
<MEAN> 25
 1.878378e+01 -1.642418e+01 8.775026e+00 -4.419828e+00 -6.309641e+00 -9.391699e+00 -6.783325e+00 4.868760e+00 -9.451646e-01 8.470760e-02 -1.848204e+00 -1.641737e-01 5.133870e-01 -4.863436e-01 -7.433382e-01 -1.100109e+00 5.532452e-01 6.349862e-01 -1.470051e-01 -3.458561e-01 1.654094e-01 9.083925e-01 -5.461136e-01 -7.017691e-01 5.699826e-01
<VARIANCE> 25
 3.049968e+01 2.765945e+01 8.271207e+01 9.273174e+01 7.695123e+01 6.761991e+01 6.320520e+01 8.991289e+01 1.105704e+02 6.190180e+01 3.593536e+01 3.456601e+01 2.192448e+00 2.632975e+00 5.756073e+00 7.385859e+00 5.775043e+00 5.554647e+00 7.251741e+00 5.736177e+00 6.648443e+00 5.745266e+00 4.196969e+00 4.322120e+00 1.698189e+00
<GCONST> 1.145574e+02
<STATE> 4
<MEAN> 25
 2.168616e+01 -9.938561e+00 -3.003313e+00 -1.210083e+01 3.245519e-01 -4.784169e-01 -4.615372e+00 -4.974140e+00 -1.939046e+00 7.281363e+00 -2.861893e+00 -5.418516e+00 -4.831848e-01 1.551087e+00 -3.659048e-01 -2.538608e-01 1.197093e+00 1.953252e-01 -4.047441e-02 -2.233812e-01 -1.019660e-01 6.239668e-02 1.426798e-01 1.786172e-01 -6.937665e-01
<VARIANCE> 25
 2.362270e+01 5.215783e+01 8.339445e+01 1.286639e+02 1.016126e+02 7.167937e+01 1.072683e+02 9.765561e+01 4.259034e+01 4.120684e+01 4.382022e+01 4.916837e+01 2.256947e+00 2.178558e+00 3.225296e+00 4.496572e+00 4.670071e+00 3.497671e+00 4.239210e+00 4.296455e+00 3.500519e+00 3.791689e+00 2.563281e+00 3.049492e+00 7.906135e-01
<GCONST> 1.100094e+02
<TRANSP> 5
 0.000000e+00 1.000000e+00 0.000000e+00 0.000000e+00 0.000000e+00
 0.000000e+00 5.396523e-01 4.603476e-01 0.000000e+00 0.000000e+00
 0.000000e+00 0.000000e+00 8.100221e-01 1.899779e-01 0.000000e+00
 0.000000e+00 0.000000e+00 0.000000e+00 8.694052e-01 1.305948e-01
 0.000000e+00 0.000000e+00 0.000000e+00 0.000000e+00 0.000000e+00
<ENDHMM>
~h "t"
<BEGINHMM>
<NUMSTATES> 5
<STATE> 2
<MEAN> 25
 3.014006e+00 -5.450864e+00 4.664784e+00 -2.365753e+00 1.124462e+00 -5.778348e+00 1.515178e-01 1.607333e+00 2.494426e+00 -9.116375e-02 -7.574509e-01 1.008253e+00 1.143088e+00 -3.319842e-01 1.586044e+00 -1.941460e+00 -3.968523e-01 8.621555e-02 -6.248659e-01 1.424271e-01 -2.715465e-01 6.031787e-02 4.584805e-01 -1.790910e-01 2.784484e+00
<VARIANCE> 25
 9.713512e+01 1.192410e+02 7.250487e+01 6.876353e+01 6.966018e+01 1.120276e+02 6.490933e+01 6.763644e+01 4.121327e+01 3.096513e+01 3.706125e+01 2.671295e+01 2.877526e+01 1.290906e+01 8.247485e+00 6.705526e+00 1.427715e+01 9.442134e+00 7.561076e+00 5.501862e+00 5.223971e+00 6.735693e+00 5.775412e+00 2.458154e+00 1.790481e+01
<GCONST> 1.228783e+02
<STATE> 3
<MEAN> 25
 1.238502e+01 -7.458474e+00 4.063827e+00 -3.954197e+00 -2.463444e+00 -4.891034e+00 -4.054530e+00 -3.636816e+00 8.017049e-01 2.509272e+00 -1.095217e+00 -8.854878e-01 2.582604e+00 8.054961e-01 -1.758538e+00 6.299601e-01 -1.980345e+00 5.221807e-01 8.102287e-01 -2.350287e+00 -1.804197e+00 3.575336e-01 4.450318e-01 -7.865626e-01 5.494954e-01
<VARIANCE> 25
 1.243207e+02 1.205381e+02 7.316800e+01 7.068134e+01 9.723048e+01 9.016371e+01 6.927368e+01 1.180503e+02 4.779650e+01 6.384512e+01 5.990107e+01 2.856503e+01 1.455998e+01 8.994318e+00 9.539210e+00 7.445786e+00 7.858282e+00 1.140585e+01 8.952138e+00 1.229780e+01 6.872094e+00 5.790642e+00 4.934803e+00 2.986100e+00 6.076642e+00
<GCONST> 1.241823e+02
<STATE> 4
<MEAN> 25
 1.684875e+01 2.298646e-01 -4.236217e+00 -6.831646e+00 -5.899746e+00 1.752757e+00 2.050712e+00 -8.416936e+00 -6.541314e+00 9.927368e-01 6.865273e-01 3.008694e-01 -1.094052e+00 5.442377e-01 -1.007764e-01 7.818711e-02 6.185222e-02 6.816734e-02 5.476341e-02 5.534809e-01 -1.053209e-01 -2.210277e-01 3.504749e-02 2.658626e-01 -1.319537e+00
<VARIANCE> 25
 1.005979e+02 1.780225e+02 4.056982e+01 8.046116e+01 4.681564e+01 7.122809e+01 3.695435e+01 6.841457e+01 4.596721e+01 5.895215e+01 2.912014e+01 3.052687e+01 3.832139e+00 2.709490e+00 2.264456e+00 5.036397e+00 2.696948e+00 3.613328e+00 2.954224e+00 2.976217e+00 3.799167e+00 3.436754e+00 2.292791e+00 1.791182e+00 1.496225e+00
<GCONST> 1.080826e+02
<TRANSP> 5
 0.000000e+00 1.000000e+00 0.000000e+00 0.000000e+00 0.000000e+00
 0.000000e+00 3.728777e-01 6.271223e-01 0.000000e+00 0.000000e+00
 0.000000e+00 0.000000e+00 5.132627e-01 4.867373e-01 0.000000e+00
 0.000000e+00 0.000000e+00 0.000000e+00 8.230003e-01 1.769996e-01
 0.000000e+00 0.000000e+00 0.000000e+00 0.000000e+00 0.000000e+00
<ENDHMM>
~h "w"
<BEGINHMM>
<NUMSTATES> 5
<STATE> 2
<MEAN> 25
 2.562215e+01 8.157825e-02 -1.076376e+01 -1.525187e+01 -1.186643e+00 4.446927e+00 6.278585e-01 -6.792615e+00 -1.051940e+01 3.257784e+00 6.536271e+00 -1.727672e+00 1.154374e+00 -3.262490e+00 1.914973e-01 1.793914e+00 -1.950486e-02 -2.253217e+00 1.277474e-01 -1.709052e-01 -7.448415e-01 2.230840e+00 5.169225e-01 -1.862718e+00 2.423915e+00
<VARIANCE> 25
 1.663255e+01 5.467472e+01 4.140194e+01 6.758485e+01 5.739755e+01 3.623666e+01 4.726255e+01 2.773737e+01 4.612989e+01 3.894557e+01 2.616109e+01 2.224793e+01 2.852684e+00 3.447158e+00 6.588529e+00 6.529526e+00 9.059034e+00 8.073869e+00 5.816020e+00 3.545020e+00 6.797634e+00 2.671657e+00 4.839256e+00 3.444899e+00 2.088443e+00
<GCONST> 1.091905e+02
<STATE> 3
<MEAN> 25
 2.243248e+01 -1.341177e+01 -6.386153e+00 -8.157527e+00 1.337048e+00 -5.145189e+00 -2.888623e+00 5.000526e-02 -6.796490e+00 7.643973e+00 3.519362e+00 -1.031975e+01 -9.529172e-01 -2.097745e+00 1.007017e+00 1.928689e+00 -5.829947e-01 -1.764323e+00 -1.413055e-01 1.886366e+00 2.257609e+00 -1.250639e+00 -2.081129e+00 -1.157802e+00 1.039430e+00
<VARIANCE> 25
 2.934371e+01 1.864030e+01 4.293558e+01 7.367073e+01 4.899255e+01 6.145511e+01 6.352800e+01 8.535390e+01 6.917376e+01 4.563972e+01 4.447582e+01 3.104449e+01 4.700612e-01 2.621720e+00 1.972104e+00 1.975840e+00 3.137611e+00 3.423827e+00 3.706160e+00 2.395125e+00 4.302802e+00 2.690626e+00 2.146155e+00 3.349253e+00 9.532437e-01
<GCONST> 1.027069e+02
<STATE> 4
<MEAN> 25
 2.147517e+01 -1.825092e+01 -3.623562e+00 -1.214302e-01 -6.808983e+00 -7.731621e+00 3.879152e-01 2.522842e+00 1.287285e-01 1.389411e+00 -4.170499e+00 -9.566547e+00 -6.162524e-04 -9.782730e-02 3.919701e-01 7.913314e-01 -1.044231e+00 3.297236e-01 5.693648e-01 -3.787183e-01 7.038869e-01 -3.506183e-01 -1.554601e+00 5.194989e-01 -4.894617e-01
<VARIANCE> 25
 2.303145e+01 1.977331e+01 3.982744e+01 4.917187e+01 4.198399e+01 2.878275e+01 5.276067e+01 7.844970e+01 4.153981e+01 4.340610e+01 4.107387e+01 2.381587e+01 8.016101e-01 1.357151e+00 1.764384e+00 1.919950e+00 1.810103e+00 3.117109e+00 1.891294e+00 5.063192e+00 3.665745e+00 3.012946e+00 2.118662e+00 3.076790e+00 8.222250e-01
<GCONST> 9.883105e+01
<TRANSP> 5
 0.000000e+00 1.000000e+00 0.000000e+00 0.000000e+00 0.000000e+00
 0.000000e+00 7.104986e-01 2.895013e-01 0.000000e+00 0.000000e+00
 0.000000e+00 0.000000e+00 7.244881e-01 2.755119e-01 0.000000e+00
 0.000000e+00 0.000000e+00 0.000000e+00 7.930976e-01 2.069024e-01
 0.000000e+00 0.000000e+00 0.000000e+00 0.000000e+00 0.000000e+00
<ENDHMM>
~h "z"
<BEGINHMM>
<NUMSTATES> 5
<STATE> 2
<MEAN> 25
 -6.571921e+00 9.771415e-01 -2.369828e+00 2.525623e-01 5.446605e-01 7.303998e-01 -1.330755e+00 2.646615e+00 9.942746e-01 3.608614e-01 9.402004e-01 9.294320e-01 -9.527806e-03 1.745842e-02 -3.363808e-02 -5.919163e-03 2.395102e-02 2.246703e-02 4.775274e-03 7.087396e-02 2.869480e-02 -4.513484e-02 -6.423586e-02 -1.109493e-02 -1.724832e-02
<VARIANCE> 25
 2.285064e+00 1.957929e+00 5.216784e+00 1.046358e+01 1.455012e+01 1.031428e+01 1.290045e+01 1.072093e+01 1.276320e+01 1.115707e+01 9.538866e+00 8.339916e+00 1.226315e-01 2.671239e-01 3.546202e-01 8.483263e-01 6.769584e-01 8.134340e-01 1.321074e+00 1.328577e+00 1.199904e+00 1.286271e+00 1.036193e+00 8.303880e-01 4.115048e-02
<GCONST> 6.315991e+01
<STATE> 3
<MEAN> 25
 -8.000157e+00 -1.150152e+00 -2.566619e+00 1.571121e+00 -6.863863e-01 2.362510e-01 3.924103e-01 2.321731e+00 3.116901e+00 -1.785325e-01 -6.033527e-01 3.139413e-01 1.993376e-01 9.522206e-02 1.993315e-01 7.169043e-02 9.341786e-02 8.783570e-02 3.989856e-02 -7.669214e-03 1.412430e-01 1.608856e-02 -7.029172e-02 -2.125720e-01 1.431485e-01
<VARIANCE> 25
 7.455037e+00 1.378640e+01 2.406196e+01 1.144851e+01 8.749345e+00 1.270494e+01 2.147047e+01 1.342189e+01 2.803050e+01 1.020135e+01 1.298982e+01 1.174257e+01 8.505840e-01 1.599890e+00 3.683259e+00 1.549726e+00 1.188425e+00 1.205679e+00 2.421810e+00 1.556434e+00 4.632162e+00 9.961100e-01 1.361127e+00 1.877451e+00 8.767645e-01
<GCONST> 8.332810e+01
<STATE> 4
<MEAN> 25
 -1.994928e+00 4.948443e+00 -1.460893e+00 -5.836943e-01 4.611667e+00 -9.194077e-01 -9.847087e-01 1.978387e+00 3.134562e+00 -2.262131e+00 -4.281227e+00 -6.630482e-01 3.406565e-01 4.961373e-01 8.443440e-01 -6.233051e-01 5.530262e-01 -5.692422e-01 -8.295356e-01 -6.083972e-01 -8.801858e-01 -6.449561e-01 -3.881368e-01 -3.727855e-02 1.144325e+00
<VARIANCE> 25
 2.774083e+01 1.877897e+01 3.289144e+01 2.264285e+01 3.663466e+01 2.637206e+01 4.183021e+01 2.294114e+01 2.317446e+01 1.432185e+01 2.515582e+01 7.644696e+00 4.829588e+00 6.712135e-01 2.956191e+00 1.264812e+00 3.505267e+00 2.049178e+00 3.918547e+00 2.134490e+00 4.350989e+00 1.603373e+00 2.431241e+00 6.543149e-01 4.027602e+00
<GCONST> 9.400992e+01
<TRANSP> 5
 0.000000e+00 1.000000e+00 0.000000e+00 0.000000e+00 0.000000e+00
 0.000000e+00 9.566516e-01 4.334835e-02 0.000000e+00 0.000000e+00
 0.000000e+00 0.000000e+00 8.258689e-01 1.741311e-01 0.000000e+00
 0.000000e+00 0.000000e+00 0.000000e+00 6.683617e-01 3.316382e-01
 0.000000e+00 0.000000e+00 0.000000e+00 0.000000e+00 0.000000e+00
<ENDHMM>
~h "ae"
<BEGINHMM>
<NUMSTATES> 5
<STATE> 2
<MEAN> 25
 2.067373e+01 -2.377180e+01 -4.593406e+00 1.372057e+00 -5.106376e+00 -5.963435e+00 4.330261e+00 2.464799e+00 8.896190e-02 2.294024e+00 -9.663926e+00 -3.274094e+00 -7.107659e-01 -1.533585e+00 1.874439e+00 -3.264834e-01 -7.133452e-01 -4.141084e-01 1.379004e+00 9.359193e-01 -1.153122e+00 -4.731893e-01 -9.720195e-01 1.315776e-01 8.397856e-01
<VARIANCE> 25
 1.780672e+01 2.126885e+01 7.233054e+01 7.826077e+01 5.184332e+01 2.074757e+01 4.663431e+01 4.926424e+01 1.713873e+01 2.695065e+01 2.797356e+01 1.644164e+01 9.338828e-01 2.660536e+00 3.179349e+00 4.415508e+00 5.968555e+00 2.086504e+00 3.610070e+00 5.154210e+00 3.333011e+00 3.204933e+00 3.543150e+00 1.950671e+00 4.734695e-01
<GCONST> 1.000632e+02
<STATE> 3
<MEAN> 25
 1.588863e+01 -2.337854e+01 4.796571e+00 -3.779223e+00 -5.225589e+00 -7.357146e+00 4.636201e+00 1.168606e+01 -6.697453e+00 -4.183992e+00 -4.628977e+00 -4.517126e+00 -2.575397e-01 8.715708e-01 5.275287e-01 3.116738e-01 -7.039545e-01 -3.036882e-01 1.107832e+00 7.180226e-01 -1.557332e+00 -4.834676e-01 9.638550e-01 -4.791622e-01 -5.385140e-01
<VARIANCE> 25
 2.155179e+01 2.002790e+01 5.006654e+01 1.224043e+02 4.844381e+01 3.455312e+01 4.879289e+01 4.306362e+01 3.595955e+01 1.722132e+01 2.658057e+01 2.834702e+01 4.926473e-01 8.281503e-01 2.060802e+00 2.070707e+00 2.139959e+00 9.537068e-01 1.303286e+00 1.194128e+00 1.404034e+00 1.484417e+00 1.168745e+00 1.097906e+00 5.153995e-01
<GCONST> 9.089266e+01
<STATE> 4
<MEAN> 25
 1.656388e+01 -1.405384e+01 5.350721e+00 8.387753e-01 -1.207298e+01 -6.784289e+00 1.263963e+01 6.142035e+00 -1.304173e+01 -1.160809e-01 -6.416016e-01 -6.302203e+00 -2.232121e-02 2.477304e+00 3.613926e-01 -3.315076e-01 -5.365640e-01 8.274449e-01 1.176071e+00 -1.663881e+00 -1.687817e+00 1.337973e+00 6.892986e-01 -2.300088e-01 -1.243833e+00
<VARIANCE> 25
 1.675869e+01 4.499581e+01 9.556684e+01 1.120854e+02 5.601103e+01 2.524458e+01 4.880594e+01 8.915150e+01 3.158190e+01 3.359320e+01 2.498590e+01 2.937082e+01 3.083957e-01 2.157264e+00 2.645948e+00 2.750872e+00 2.061060e+00 2.206419e+00 2.946881e+00 2.350592e+00 1.654660e+00 2.131670e+00 1.743690e+00 1.805625e+00 1.284150e+00
<GCONST> 9.873402e+01
<TRANSP> 5
 0.000000e+00 1.000000e+00 0.000000e+00 0.000000e+00 0.000000e+00
 0.000000e+00 7.305918e-01 2.694082e-01 0.000000e+00 0.000000e+00
 0.000000e+00 0.000000e+00 8.208399e-01 1.791602e-01 0.000000e+00
 0.000000e+00 0.000000e+00 0.000000e+00 7.748702e-01 2.251298e-01
 0.000000e+00 0.000000e+00 0.000000e+00 0.000000e+00 0.000000e+00
<ENDHMM>
~h "ah"
<BEGINHMM>
<NUMSTATES> 5
<STATE> 2
<MEAN> 25
 1.868186e+01 -4.159296e+00 -5.200438e+00 -3.507623e+00 1.849716e+00 -2.389337e+00 -4.123531e+00 -5.210859e+00 5.841284e-01 2.648866e+00 -3.381835e+00 -5.147105e+00 2.558070e-01 1.783028e+00 -5.745874e-01 1.185562e+00 -9.757236e-01 4.499559e-01 4.386795e-01 -1.317482e+00 -3.320704e-02 -6.669275e-01 -1.472894e-01 6.002453e-01 -1.577096e+00
<VARIANCE> 25
 4.794999e+01 7.724239e+01 7.154372e+01 1.126105e+02 5.249221e+01 8.738776e+01 1.093046e+02 6.629563e+01 6.135730e+01 8.736382e+01 5.040975e+01 3.710102e+01 3.222702e+00 8.214640e+00 7.511653e+00 9.108995e+00 5.817369e+00 8.266956e+00 1.029499e+01 8.406320e+00 5.343232e+00 7.471149e+00 3.914088e+00 3.576735e+00 9.376455e+00
<GCONST> 1.209979e+02
<STATE> 3
<MEAN> 25
 2.285688e+01 -2.961311e+00 -1.063043e+01 -5.884023e+00 -1.901975e-01 2.221668e-01 -4.064696e+00 -1.150751e+01 -2.952387e+00 6.331180e+00 -2.489384e+00 -6.119627e+00 -2.853757e-01 1.889125e+00 -9.297964e-02 -3.713331e-01 3.455283e-01 7.792753e-01 -5.704172e-01 -2.807415e-01 6.164639e-02 -5.960663e-01 2.840911e-02 4.588721e-01 -1.249889e+00
<VARIANCE> 25
 1.199802e+01 5.440573e+01 3.083217e+01 8.191603e+01 6.577766e+01 5.872296e+01 4.948607e+01 5.041981e+01 5.323613e+01 4.111859e+01 4.442942e+01 2.943953e+01 8.834507e-01 3.340750e+00 2.522838e+00 3.367393e+00 5.075048e+00 3.429550e+00 3.336302e+00 4.070108e+00 3.416729e+00 2.699326e+00 2.556228e+00 1.290121e+00 1.457174e+00
<GCONST> 1.036896e+02
<STATE> 4
<MEAN> 25
 1.601629e+01 1.099679e+01 -3.762892e+00 -4.796568e+00 -8.255720e-03 3.106906e+00 -4.881232e+00 -7.749746e+00 -2.398023e+00 -1.244238e+00 -2.177349e+00 -3.114807e+00 -1.967834e+00 1.249457e+00 2.165406e+00 4.486461e-01 -1.232833e+00 -3.086478e-03 9.087902e-01 5.800935e-01 1.994005e-02 -4.016564e-01 4.296360e-01 4.707354e-01 -1.642800e+00
<VARIANCE> 25
 4.277053e+01 6.205186e+01 8.551346e+01 6.255801e+01 6.831889e+01 5.136581e+01 5.342734e+01 2.823702e+01 3.790889e+01 3.457964e+01 2.455256e+01 2.106096e+01 2.838124e+00 3.899043e+00 4.656609e+00 3.908342e+00 4.328289e+00 2.642151e+00 3.607696e+00 2.776493e+00 2.732858e+00 3.366946e+00 1.989396e+00 2.137685e+00 1.977262e+00
<GCONST> 1.057192e+02
<TRANSP> 5
 0.000000e+00 1.000000e+00 0.000000e+00 0.000000e+00 0.000000e+00
 0.000000e+00 4.683338e-01 5.316662e-01 0.000000e+00 0.000000e+00
 0.000000e+00 0.000000e+00 8.063071e-01 1.936929e-01 0.000000e+00
 0.000000e+00 0.000000e+00 0.000000e+00 6.974324e-01 3.025676e-01
 0.000000e+00 0.000000e+00 0.000000e+00 0.000000e+00 0.000000e+00
<ENDHMM>
~h "ao"
<BEGINHMM>
<NUMSTATES> 5
<STATE> 2
<MEAN> 25
 -2.819551e+00 1.371620e+01 9.531520e+00 6.245943e+00 2.253673e+00 1.828734e+00 -1.371186e+00 -3.689964e-01 9.822595e-01 -2.546731e+00 -4.443950e-01 2.146621e+00 3.294807e+00 3.760509e-01 7.798303e-01 -6.838997e-01 -2.731650e-01 -1.322726e+00 -9.466567e-01 -2.550595e-01 3.105692e-01 -3.399157e-01 -9.364260e-01 -3.475524e-01 3.506653e+00
<VARIANCE> 25
 7.679863e+01 8.594363e+01 5.150465e+01 2.612945e+01 2.284998e+01 1.362205e+01 3.688285e+01 2.485524e+01 1.927742e+01 1.368693e+01 1.407816e+01 1.161772e+01 1.297447e+01 1.062552e+01 8.161386e+00 4.924400e+00 1.468722e+00 4.279929e+00 4.693119e+00 2.157184e+00 2.602851e+00 1.351102e+00 2.824183e+00 1.784250e+00 2.491572e+01
<GCONST> 1.040438e+02
<STATE> 3
<MEAN> 25
 9.619156e+00 1.068652e+01 8.639889e+00 1.925679e+00 -6.674240e-01 -6.101479e+00 -1.335441e+00 -1.099354e+00 2.577810e+00 -2.378464e+00 -3.215417e+00 5.574076e-01 4.829027e+00 -4.354767e+00 -1.739216e+00 -2.329462e+00 -2.127067e-01 -3.438356e+00 -1.610255e+00 -4.926684e-01 5.989273e-01 6.494223e-01 -1.534410e+00 -5.832838e-01 6.593355e+00
<VARIANCE> 25
 4.453349e+01 2.663224e+02 8.942426e+01 7.138820e+01 2.866358e+01 4.220472e+01 5.773912e+01 2.148014e+01 2.154309e+01 2.026811e+01 1.614587e+01 1.826978e+01 1.319044e+01 1.339885e+01 7.797148e+00 8.821816e+00 6.333815e+00 5.105714e+00 1.466471e+01 7.142220e+00 7.078239e+00 3.978783e+00 5.175957e+00 3.210401e+00 1.185135e+01
<GCONST> 1.162309e+02
<STATE> 4
<MEAN> 25
 1.919591e+01 -6.530591e+00 -5.548186e+00 -7.713439e+00 5.790860e+00 -4.731981e+00 -7.179803e+00 -1.780675e+00 4.791481e+00 1.925485e+00 -4.608901e+00 -9.181702e-02 1.131783e+00 -2.561925e+00 -1.717796e-01 -1.269649e+00 -1.946422e-01 5.084558e-01 -9.522730e-01 6.831175e-02 9.605214e-02 4.723998e-01 -3.992435e-02 -1.687292e-01 1.814784e+00
<VARIANCE> 25
 5.103323e+01 5.762415e+01 1.418267e+02 1.143239e+02 8.896957e+01 1.273753e+02 8.301598e+01 5.112755e+01 6.451923e+01 5.104409e+01 3.121416e+01 2.184406e+01 6.851306e+00 1.734179e+01 9.425210e+00 6.729045e+00 4.549951e+00 1.101734e+01 9.176455e+00 4.956079e+00 3.538415e+00 3.418916e+00 2.763483e+00 2.367807e+00 1.173334e+01
<GCONST> 1.194333e+02
<TRANSP> 5
 0.000000e+00 1.000000e+00 0.000000e+00 0.000000e+00 0.000000e+00
 0.000000e+00 5.438021e-01 4.561979e-01 0.000000e+00 0.000000e+00
 0.000000e+00 0.000000e+00 4.599572e-01 5.400429e-01 0.000000e+00
 0.000000e+00 0.000000e+00 0.000000e+00 6.564450e-01 3.435550e-01
 0.000000e+00 0.000000e+00 0.000000e+00 0.000000e+00 0.000000e+00
<ENDHMM>
~h "aw"
<BEGINHMM>
<NUMSTATES> 5
<STATE> 2
<MEAN> 25
 2.242756e+01 -3.479576e+00 -1.676131e+01 -3.883185e+00 7.954046e+00 3.720747e+00 -9.123245e-01 -2.677839e+00 2.122832e+00 5.925075e+00 2.595064e+00 -6.809855e+00 -3.389386e-01 2.352213e-01 -1.419440e+00 2.975896e-01 9.499642e-02 -7.676955e-01 4.371257e-01 1.138133e-01 -9.852225e-03 -7.136807e-01 -4.548691e-01 1.970073e-01 -7.220633e-01
<VARIANCE> 25
 2.037857e+01 3.171521e+01 3.097555e+01 1.823109e+01 2.901229e+01 1.217038e+01 6.117505e+01 4.194012e+01 1.918514e+01 5.244560e+01 2.184200e+01 2.349649e+01 6.940003e+00 3.224897e+00 4.307424e+00 3.296177e+00 1.130867e+01 2.042072e+00 1.367943e+01 6.359797e+00 3.688438e+00 4.134806e+00 2.894689e+00 4.152928e+00 7.328278e+00
<GCONST> 1.061956e+02
<STATE> 3
<MEAN> 25
 1.964844e+01 -9.351032e-01 -1.367296e+01 -4.171881e+00 6.955591e-01 1.028593e+00 -2.150105e+00 -7.182203e+00 3.592413e-01 7.033636e+00 1.346766e+00 -6.247487e+00 -3.131491e+00 5.479665e-01 1.726716e+00 7.233377e-01 -7.991366e-01 -1.912733e-01 3.235282e-01 5.863847e-01 1.864649e-01 -2.998771e-01 3.152629e-01 1.349227e+00 -2.451216e+00
<VARIANCE> 25
 1.020399e+02 2.011961e+01 1.641418e+01 1.818531e+01 4.011185e+01 1.189484e+01 4.743211e+01 1.665350e+01 2.702237e+01 1.077810e+01 1.000170e+01 2.850981e+01 4.845738e+00 2.433544e+00 3.964577e-01 5.508275e-01 9.523193e+00 1.654332e+00 8.273119e+00 2.844904e+00 4.216235e+00 3.337609e+00 2.149950e+00 3.505172e+00 2.727230e+00
<GCONST> 9.596840e+01
<STATE> 4
<MEAN> 25
 2.407907e+00 1.573945e+00 -8.594579e+00 -2.850962e+00 -2.644583e+00 1.921741e+00 8.726964e-01 -3.479174e+00 -6.618556e-01 1.599633e+00 5.313716e+00 9.988680e-01 -2.331907e+00 -3.587244e-01 1.408900e+00 1.085035e+00 -8.398062e-01 -5.143282e-01 6.580225e-01 1.067974e+00 -1.051706e-01 -5.128360e-01 8.946756e-02 -1.547698e-01 -1.449754e+00
<VARIANCE> 25
 1.584552e+01 5.930890e+00 2.635765e+00 9.128708e+00 2.522727e+01 2.295080e+00 2.390601e+01 1.456238e+01 2.249100e+01 2.062790e+01 1.507537e+01 2.296849e+00 3.963032e+00 6.844443e-02 3.442573e-01 1.315057e+00 2.402259e+00 5.807477e-01 9.844213e-01 2.198437e-01 1.647316e+00 1.491358e-01 3.248053e+00 8.433629e-01 2.305003e+00
<GCONST> 7.041044e+01
<TRANSP> 5
 0.000000e+00 1.000000e+00 0.000000e+00 0.000000e+00 0.000000e+00
 0.000000e+00 7.713213e-01 2.286786e-01 0.000000e+00 0.000000e+00
 0.000000e+00 0.000000e+00 7.929456e-01 2.070545e-01 0.000000e+00
 0.000000e+00 0.000000e+00 0.000000e+00 5.633187e-01 4.366814e-01
 0.000000e+00 0.000000e+00 0.000000e+00 0.000000e+00 0.000000e+00
<ENDHMM>
~h "ay"
<BEGINHMM>
<NUMSTATES> 5
<STATE> 2
<MEAN> 25
 1.608629e+01 -9.001005e+00 3.494956e+00 -1.630812e+01 4.757061e+00 -3.551364e-02 -1.316025e+01 1.077561e+00 1.570816e+00 4.414625e+00 -2.230251e+00 -2.607473e+00 -2.084626e-01 1.385223e+00 -7.374142e-01 -4.211462e-01 1.201352e+00 4.979653e-01 -2.702091e-01 -5.324064e-01 6.499960e-01 1.408674e-01 -6.314446e-02 1.757506e-01 -6.444630e-01
<VARIANCE> 25
 2.924436e+01 5.815939e+01 8.937528e+01 1.205197e+02 7.765166e+01 7.596705e+01 7.887804e+01 1.268430e+02 1.020157e+02 5.488350e+01 4.081006e+01 4.671362e+01 2.276480e+00 2.612033e+00 3.151389e+00 6.434136e+00 3.106365e+00 4.901471e+00 5.915771e+00 6.369623e+00 8.434317e+00 4.783711e+00 3.608001e+00 3.816463e+00 2.296139e+00
<GCONST> 1.150428e+02
<STATE> 3
<MEAN> 25
 2.045182e+00 -1.335190e+00 8.921806e-01 -6.268413e+00 6.149469e+00 -6.451890e+00 -2.220536e-01 -1.082977e+00 4.119768e+00 9.529346e-01 -6.212218e-02 2.104816e+00 2.949986e-02 -1.661440e+00 1.075315e+00 2.090166e-01 -8.425465e-01 -3.399073e-02 3.143453e-01 8.711578e-01 7.681977e-02 -1.958868e-01 -4.403366e-02 -2.368694e-01 6.954414e-01
<VARIANCE> 25
 8.729832e+01 1.035638e+02 8.358858e+01 6.419447e+01 6.734085e+01 8.619801e+01 9.070132e+01 5.175328e+01 5.324450e+01 3.657379e+01 3.449982e+01 2.823353e+01 1.457760e+01 8.517415e+00 1.286042e+01 1.287807e+01 1.011327e+01 1.294067e+01 1.460723e+01 6.020513e+00 6.465533e+00 6.084923e+00 4.674404e+00 4.015769e+00 1.475026e+01
<GCONST> 1.237985e+02
<STATE> 4
<MEAN> 25
 1.627366e+01 -1.482304e+01 6.117215e-01 -3.386469e+00 -1.728194e+00 -1.035402e+00 -6.102329e+00 2.790169e+00 5.586675e+00 -1.884128e-01 -1.788341e+00 -1.353028e+00 3.054991e+00 -2.277352e+00 -2.595396e+00 1.871662e+00 -1.765288e+00 -7.795299e-01 5.545434e-01 2.333755e-01 -7.476976e-01 -3.163254e-01 -7.260587e-01 -4.182539e-01 1.415333e+00
<VARIANCE> 25
 4.963810e+01 4.233119e+01 1.842931e+02 8.342693e+01 9.721685e+01 5.860374e+01 3.832589e+01 3.467453e+01 3.110367e+01 3.363997e+01 2.221939e+01 1.778555e+01 7.468109e+00 3.822339e+00 9.282897e+00 1.046425e+01 8.456635e+00 7.836729e+00 5.003872e+00 4.832363e+00 5.517311e+00 4.586046e+00 5.742430e+00 2.716737e+00 4.063598e+00
<GCONST> 1.146972e+02
<TRANSP> 5
 0.000000e+00 1.000000e+00 0.000000e+00 0.000000e+00 0.000000e+00
 0.000000e+00 8.772753e-01 1.227247e-01 0.000000e+00 0.000000e+00
 0.000000e+00 0.000000e+00 8.751993e-01 1.248008e-01 0.000000e+00
 0.000000e+00 0.000000e+00 0.000000e+00 7.294952e-01 2.705049e-01
 0.000000e+00 0.000000e+00 0.000000e+00 0.000000e+00 0.000000e+00
<ENDHMM>
~h "eh"
<BEGINHMM>
<NUMSTATES> 5
<STATE> 2
<MEAN> 25
 2.137233e+01 -1.762602e+01 -6.760991e-01 5.017916e+00 -1.206987e+01 -5.112960e+00 3.526018e+00 -3.313474e+00 9.070308e-01 4.244695e+00 -7.606885e+00 -2.992208e+00 1.241598e-01 8.259405e-01 -3.860573e-01 7.307301e-01 2.808295e-01 -6.105124e-01 1.142767e-01 -1.229621e-01 -4.260915e-01 2.277600e-01 -1.501623e-01 3.446893e-01 -7.300758e-01
<VARIANCE> 25
 1.636109e+01 1.729268e+01 3.787461e+01 4.248312e+01 2.676389e+01 5.118563e+01 3.597268e+01 4.630278e+01 5.677071e+01 3.391170e+01 4.526945e+01 2.711276e+01 2.435171e+00 2.537843e+00 6.461364e+00 5.124868e+00 4.126564e+00 4.994941e+00 3.325029e+00 6.044552e+00 5.266967e+00 4.593809e+00 4.287806e+00 2.391579e+00 2.480112e+00
<GCONST> 1.060614e+02
<STATE> 3
<MEAN> 25
 1.995314e+01 -4.973760e+00 -6.611398e+00 7.075885e+00 -2.630251e+00 -8.658273e+00 -1.023718e+00 3.520375e-01 1.162305e+00 -6.761797e-02 -6.655208e+00 -1.565653e+00 -1.570249e+00 4.027250e+00 -8.312179e-01 -4.681382e-01 2.675552e+00 7.942898e-01 -1.562502e+00 1.375624e+00 1.296556e+00 -1.926913e+00 9.621472e-01 7.813146e-01 -3.388674e+00
<VARIANCE> 25
 2.222810e+01 4.581521e+01 3.626838e+01 5.151269e+01 5.173429e+01 3.488376e+01 5.315958e+01 5.580080e+01 5.566162e+01 5.471137e+01 4.007775e+01 3.482141e+01 2.246429e+00 4.771811e+00 3.868849e+00 7.259640e+00 5.758213e+00 5.580087e+00 3.988943e+00 8.128427e+00 3.446700e+00 5.521815e+00 4.898438e+00 1.688578e+00 2.712606e+00
<GCONST> 1.098743e+02
<STATE> 4
<MEAN> 25
 6.198756e+00 6.374019e+00 -2.343593e+00 5.543872e-01 -9.947321e-02 -2.153100e+00 -2.695441e+00 2.702408e+00 4.664919e+00 -2.105225e+00 -3.549254e+00 -6.876575e-01 -2.725574e+00 9.649856e-01 6.463600e-01 -7.802615e-01 -3.338442e-01 9.200841e-01 2.387231e-01 -3.331004e-01 -7.034734e-02 2.147167e-01 7.340753e-01 2.523724e-01 -2.318486e+00
<VARIANCE> 25
 1.053844e+02 8.739021e+01 7.461899e+01 3.240369e+01 4.088462e+01 3.064936e+01 3.801801e+01 3.545617e+01 3.027941e+01 2.787261e+01 1.891163e+01 1.745028e+01 2.960102e+00 7.358752e+00 6.371037e+00 4.566610e+00 5.374492e+00 2.744740e+00 3.740638e+00 3.038442e+00 2.811738e+00 2.827581e+00 2.254460e+00 1.848417e+00 3.416584e+00
<GCONST> 1.060453e+02
<TRANSP> 5
 0.000000e+00 1.000000e+00 0.000000e+00 0.000000e+00 0.000000e+00
 0.000000e+00 8.378255e-01 1.621744e-01 0.000000e+00 0.000000e+00
 0.000000e+00 0.000000e+00 7.140244e-01 2.859755e-01 0.000000e+00
 0.000000e+00 0.000000e+00 0.000000e+00 7.606316e-01 2.393684e-01
 0.000000e+00 0.000000e+00 0.000000e+00 0.000000e+00 0.000000e+00
<ENDHMM>
~h "er"
<BEGINHMM>
<NUMSTATES> 5
<STATE> 2
<MEAN> 25
 -5.371414e+00 3.621653e+00 5.241460e+00 -9.671866e+00 9.831933e+00 -8.979197e+00 1.606043e+00 4.160271e+00 9.458940e-01 -3.595526e+00 1.345123e+00 2.874176e+00 -2.636789e+00 2.176066e-01 8.480543e-01 -6.862298e-03 -3.534344e-01 -9.667853e-01 1.709621e+00 5.431329e-01 -2.552736e-01 -7.826656e-01 7.287307e-01 6.773147e-01 -3.333581e-01
<VARIANCE> 25
 1.591181e+02 4.460150e+01 5.715311e+01 3.679144e+01 6.288400e+01 7.719024e+01 8.599184e+01 6.271361e+01 5.047455e+01 5.294141e+01 4.279294e+01 4.677631e+01 1.703019e+01 8.826460e+00 6.948326e+00 4.389673e+00 1.058194e+01 6.433629e+00 6.399833e+00 7.636105e+00 5.908283e+00 6.836897e+00 4.894965e+00 5.915085e+00 1.243802e+00
<GCONST> 1.188610e+02
<STATE> 3
<MEAN> 25
 1.072483e+01 -1.051718e+01 1.002717e+01 -4.368828e+00 -5.968678e+00 -1.173857e+01 1.787826e+00 5.143111e+00 -4.047890e+00 1.168098e+00 -5.916424e-01 1.309316e+00 3.519459e+00 -1.694900e+00 -4.941086e-01 1.433655e+00 -1.535947e+00 3.097941e-01 -1.331259e+00 -5.567161e-01 2.371471e-01 6.705687e-01 -1.117271e+00 -5.454614e-01 8.337564e-01
<VARIANCE> 25
 1.335036e+02 4.695932e+01 4.725662e+01 5.244518e+01 4.409646e+01 7.382271e+01 8.988667e+01 3.907998e+01 4.550377e+01 4.890605e+01 5.359661e+01 2.978580e+01 1.461191e+01 5.875490e+00 5.675841e+00 5.964159e+00 5.838680e+00 6.480366e+00 6.339039e+00 5.650254e+00 7.660185e+00 6.905071e+00 5.119215e+00 2.925004e+00 5.069471e+00
<GCONST> 1.173253e+02
<STATE> 4
<MEAN> 25
 1.559399e+01 -9.062439e+00 6.462760e-01 4.818228e+00 -3.729810e+00 -8.006618e+00 -6.883753e+00 6.163550e-01 5.330824e+00 1.043124e+00 -5.681977e+00 6.439871e-01 -1.266904e+00 1.086402e+00 -6.379749e-01 -9.939763e-02 1.406736e+00 2.828810e-01 -5.891504e-01 3.605064e-01 5.683201e-01 1.379114e-01 1.385820e-01 2.706146e-01 -1.656288e+00
<VARIANCE> 25
 6.372351e+01 8.885152e+01 9.934645e+01 5.188451e+01 8.950827e+01 5.840747e+01 3.822659e+01 4.434922e+01 4.448256e+01 4.579010e+01 3.629203e+01 3.731631e+01 6.621494e+00 9.590776e+00 1.234398e+01 1.023150e+01 8.854773e+00 8.459814e+00 5.215868e+00 6.444578e+00 5.643685e+00 6.224256e+00 5.016758e+00 4.187757e+00 8.211657e+00
<GCONST> 1.194942e+02
<TRANSP> 5
 0.000000e+00 1.000000e+00 0.000000e+00 0.000000e+00 0.000000e+00
 0.000000e+00 8.993634e-01 1.006366e-01 0.000000e+00 0.000000e+00
 0.000000e+00 0.000000e+00 8.771019e-01 1.228981e-01 0.000000e+00
 0.000000e+00 0.000000e+00 0.000000e+00 9.078336e-01 9.216639e-02
 0.000000e+00 0.000000e+00 0.000000e+00 0.000000e+00 0.000000e+00
<ENDHMM>
~h "ey"
<BEGINHMM>
<NUMSTATES> 5
<STATE> 2
<MEAN> 25
 4.557340e+00 1.380680e+01 1.001313e+01 1.308417e+00 -7.745306e+00 3.138472e+00 4.977856e-01 -7.339245e-01 2.722662e+00 -1.498570e+00 4.084120e+00 -2.608678e-01 2.798197e+00 -1.109689e+00 3.565595e+00 -1.103820e+00 -3.745558e+00 -1.650962e+00 8.918777e-01 7.895873e-01 -2.468115e+00 9.071044e-01 1.234159e+00 -4.276642e-01 3.599217e+00
<VARIANCE> 25
 6.236525e+01 2.751154e+01 4.770151e+01 6.888081e+01 9.251073e+01 6.490261e+00 2.123432e+01 1.396450e+01 1.574971e+01 1.242937e+01 1.292552e+01 1.382548e+01 1.189468e+01 9.619280e+00 1.180573e+01 7.749413e+00 1.036414e+01 7.181602e+00 6.967760e+00 4.703143e+00 9.413264e+00 1.774142e+00 1.529196e+00 2.363969e+00 2.126643e+01
<GCONST> 1.082574e+02
<STATE> 3
<MEAN> 25
 9.519829e+00 2.127518e+00 1.964146e+01 -5.706513e+00 -1.594628e+01 -4.605782e+00 5.052446e+00 2.421747e+00 -1.339923e+01 2.318363e+00 5.466923e+00 -1.932018e-01 1.304862e+00 -3.217135e+00 1.769675e+00 -1.398511e+00 -1.055405e+00 -1.468175e+00 -2.393240e-01 5.961034e-03 -2.153595e+00 6.748907e-01 -8.512095e-02 4.766412e-01 3.417530e+00
<VARIANCE> 25
 2.278823e+01 4.502806e+01 1.375499e+02 9.267460e+01 4.331776e+01 7.312740e+01 3.904384e+01 4.371761e+01 8.955003e+01 3.160269e+01 1.668718e+01 2.078812e+01 5.843565e+00 2.263499e+00 8.478871e+00 8.767427e+00 9.428865e+00 4.802206e+00 5.374219e+00 4.263750e+00 9.519055e+00 4.289723e+00 2.574488e+00 2.176634e+00 7.874506e+00
<GCONST> 1.129659e+02
<STATE> 4
<MEAN> 25
 1.742986e+01 -1.550643e+01 1.490811e+01 -4.112202e+00 -1.288853e+01 -7.872767e+00 -1.693278e+00 1.531631e+00 -6.310614e+00 2.522023e+00 -1.947520e+00 3.199621e+00 6.225380e-01 -1.169769e+00 -9.458197e-01 1.418151e-01 2.955202e-01 -1.984048e-01 -4.320421e-01 2.209007e-01 1.226844e+00 -3.073111e-01 -5.201546e-01 1.423368e-01 8.383998e-01
<VARIANCE> 25
 2.097845e+01 3.465827e+01 7.905579e+01 1.246114e+02 5.805368e+01 4.154668e+01 2.465102e+01 4.338757e+01 9.197549e+01 4.703280e+01 3.316732e+01 1.854458e+01 9.840198e-01 1.590838e+00 1.704293e+00 3.028572e+00 2.930928e+00 4.419365e+00 2.805178e+00 2.961443e+00 3.619535e+00 2.977541e+00 1.569086e+00 9.564357e-01 2.083641e+00
<GCONST> 1.015740e+02
<TRANSP> 5
 0.000000e+00 1.000000e+00 0.000000e+00 0.000000e+00 0.000000e+00
 0.000000e+00 3.683146e-01 6.316855e-01 0.000000e+00 0.000000e+00
 0.000000e+00 0.000000e+00 7.691002e-01 2.308998e-01 0.000000e+00
 0.000000e+00 0.000000e+00 0.000000e+00 8.821552e-01 1.178448e-01
 0.000000e+00 0.000000e+00 0.000000e+00 0.000000e+00 0.000000e+00
<ENDHMM>
~h "ih"
<BEGINHMM>
<NUMSTATES> 5
<STATE> 2
<MEAN> 25
 -1.232616e+01 3.886840e+00 -1.116225e+00 -8.651304e-02 5.376837e-01 3.565805e+00 1.379471e+00 -3.758748e-01 8.664414e-01 -1.888296e+00 2.755095e+00 2.914253e+00 5.029923e-01 -1.149461e-01 -4.994470e-02 -2.300791e-01 -2.259540e-01 -2.506153e-01 -2.434718e-01 1.106375e-03 -1.999671e-01 -1.163595e-01 -1.528137e-01 -2.692029e-01 4.499471e-01
<VARIANCE> 25
 4.453048e+01 1.717874e+01 1.633850e+01 3.364637e+01 1.399711e+01 2.728031e+01 1.620350e+01 1.588934e+01 1.641416e+01 1.420666e+01 1.439556e+01 1.442465e+01 2.947984e+00 1.101870e+00 1.390207e+00 2.136317e+00 2.063351e+00 2.548645e+00 1.860469e+00 1.928568e+00 1.801325e+00 1.464654e+00 1.361899e+00 1.368710e+00 5.545299e+00
<GCONST> 8.968982e+01
<STATE> 3
<MEAN> 25
 -1.055198e+01 2.481585e+00 -2.398300e+00 1.708733e+00 9.653928e-01 3.020437e+00 2.653732e+00 9.464160e-01 1.357848e+00 -1.994654e+00 6.727968e-02 1.103740e+00 1.954263e-01 -4.369247e-01 1.830474e-01 3.158019e-01 4.095808e-01 9.071835e-02 6.165868e-02 2.961493e-02 1.034734e-01 1.335568e-01 -3.068410e-01 -2.606823e-01 4.327779e-01
<VARIANCE> 25
 3.308323e+01 2.724647e+01 1.143227e+01 2.073602e+01 2.012092e+01 1.495144e+01 2.104420e+01 1.621112e+01 1.172082e+01 1.434069e+01 1.476696e+01 1.325263e+01 1.074383e+00 1.712792e+00 1.050171e+00 1.316124e+00 1.097758e+00 9.495052e-01 1.200300e+00 1.670987e+00 1.677320e+00 1.709545e+00 1.417579e+00 1.331432e+00 7.049151e-01
<GCONST> 8.316904e+01
<STATE> 4
<MEAN> 25
 -7.029479e+00 2.386767e+00 1.375106e-02 4.207736e+00 1.955490e+00 2.142346e+00 6.743430e-01 1.553366e+00 2.550673e+00 -6.944076e-01 5.607793e-01 3.482784e-01 1.158142e+00 -1.022620e+00 9.862028e-01 6.281827e-01 7.768582e-01 -7.075490e-01 -3.151686e-01 1.109398e-01 2.993951e-01 2.514831e-01 -2.525913e-01 -1.378103e-01 2.035514e+00
<VARIANCE> 25
 5.257718e+01 5.253297e+01 2.026686e+01 1.426414e+01 1.901302e+01 2.702971e+01 2.279359e+01 1.672342e+01 2.484071e+01 2.198325e+01 1.669042e+01 1.596468e+01 6.194085e+00 7.072290e+00 2.824856e+00 2.313556e+00 2.315397e+00 4.120999e+00 2.479350e+00 1.501024e+00 2.485828e+00 2.300553e+00 1.366097e+00 2.078571e+00 7.142847e+00
<GCONST> 9.759108e+01
<TRANSP> 5
 0.000000e+00 1.000000e+00 0.000000e+00 0.000000e+00 0.000000e+00
 0.000000e+00 5.505434e-01 4.494566e-01 0.000000e+00 0.000000e+00
 0.000000e+00 0.000000e+00 5.958492e-01 4.041508e-01 0.000000e+00
 0.000000e+00 0.000000e+00 0.000000e+00 5.384404e-01 4.615596e-01
 0.000000e+00 0.000000e+00 0.000000e+00 0.000000e+00 0.000000e+00
<ENDHMM>
~h "iy"
<BEGINHMM>
<NUMSTATES> 5
<STATE> 2
<MEAN> 25
 4.078534e+00 1.596005e+01 6.563231e+00 5.881032e+00 -3.887752e+00 -1.131814e+00 -6.952565e-01 -4.332484e+00 -2.424466e+00 -4.530404e+00 -2.078733e+00 -1.798828e+00 -1.765187e+00 -1.148540e+00 -5.723027e-01 5.040518e-01 1.170370e+00 8.014485e-01 -4.624376e-02 -2.634219e-02 1.859248e-01 4.161132e-02 -6.355660e-02 6.305178e-02 -1.024371e+00
<VARIANCE> 25
 5.624128e+01 3.400384e+01 2.475116e+01 1.271665e+01 2.135152e+01 2.028210e+01 1.472331e+01 2.403910e+01 1.445128e+01 1.664399e+01 2.003865e+01 1.433584e+01 1.722440e+00 2.063055e+00 2.485175e+00 1.117224e+00 1.350668e+00 1.304326e+00 1.518912e+00 2.283970e+00 1.394589e+00 1.364372e+00 1.401648e+00 1.559891e+00 4.168074e-01
<GCONST> 8.698781e+01
<STATE> 3
<MEAN> 25
 -6.394213e+00 9.117486e+00 8.379683e-01 7.450862e+00 1.265294e+00 2.779316e+00 1.008495e+00 -4.160922e+00 -1.984878e+00 -3.811569e+00 2.750912e-01 8.986600e-01 -8.732812e-01 -7.058667e-01 -6.472329e-01 -2.758020e-01 2.533568e-01 1.972473e-01 1.980960e-01 3.168000e-01 1.457089e-01 3.912201e-03 1.843411e-01 1.409614e-01 -4.744074e-01
<VARIANCE> 25
 1.349576e+01 1.552252e+01 1.207581e+01 1.910100e+01 9.200246e+00 1.664304e+01 1.162293e+01 1.518299e+01 1.566575e+01 1.709581e+01 2.210945e+01 2.821420e+01 5.936937e-01 1.020309e+00 1.007768e+00 1.070457e+00 8.653427e-01 7.141852e-01 1.339025e+00 1.228234e+00 1.565325e+00 1.869005e+00 9.782167e-01 1.432730e+00 1.199956e-01
<GCONST> 7.784462e+01
<STATE> 4
<MEAN> 25
 -9.063911e+00 5.476624e+00 2.662610e-01 7.184950e+00 1.935281e+00 2.346534e+00 2.030635e+00 -1.501049e+00 -1.974614e+00 -3.875984e+00 -1.059327e+00 -4.973155e-01 -1.877349e-01 -1.026890e-01 -1.035639e-01 -1.085541e-01 -3.087129e-02 -3.907882e-02 4.457605e-02 1.424317e-01 1.244540e-01 1.087981e-01 1.873700e-02 -7.577917e-03 -1.001645e-01
<VARIANCE> 25
 6.717625e+00 7.780592e+00 1.168122e+01 1.771786e+01 1.026425e+01 1.042426e+01 1.121800e+01 1.232504e+01 1.341199e+01 1.528807e+01 1.488779e+01 1.174754e+01 2.377729e-01 5.834381e-01 8.703452e-01 8.858688e-01 9.862764e-01 8.413271e-01 9.006004e-01 8.608271e-01 1.234532e+00 1.269021e+00 1.523352e+00 1.543499e+00 6.443040e-02
<GCONST> 7.121048e+01
<TRANSP> 5
 0.000000e+00 1.000000e+00 0.000000e+00 0.000000e+00 0.000000e+00
 0.000000e+00 7.868604e-01 2.131396e-01 0.000000e+00 0.000000e+00
 0.000000e+00 0.000000e+00 6.505314e-01 3.494686e-01 0.000000e+00
 0.000000e+00 0.000000e+00 0.000000e+00 8.844835e-01 1.155165e-01
 0.000000e+00 0.000000e+00 0.000000e+00 0.000000e+00 0.000000e+00
<ENDHMM>
~h "ng"
<BEGINHMM>
<NUMSTATES> 5
<STATE> 2
<MEAN> 25
 1.783124e+01 -2.966444e+00 3.868584e+00 -7.510182e-01 -1.161980e+01 -1.760774e+00 1.428636e+01 -3.040111e+00 -1.783342e+01 2.942170e+00 9.350762e-01 -3.241282e+00 1.214551e+00 4.562477e+00 -3.552691e+00 9.836036e-01 1.489530e+00 1.592225e+00 -1.672051e+00 -3.735234e+00 1.465719e+00 -2.477319e-01 3.944384e-01 1.014423e+00 -2.638121e+00
<VARIANCE> 25
 1.004890e+01 4.983872e+01 8.145280e+01 6.835129e+01 7.199152e+01 3.420818e+01 5.982323e+01 9.651893e+01 4.555365e+01 3.008673e+01 2.458030e+01 2.519301e+01 8.894886e-01 3.248361e+00 6.027594e+00 1.138131e+01 7.131530e+00 4.616523e+00 1.397310e+01 7.929260e+00 6.900067e+00 4.099036e+00 3.106785e+00 2.504859e+00 8.288422e-01
<GCONST> 1.096071e+02
<STATE> 3
<MEAN> 25
 1.958853e+01 9.136637e+00 -3.753689e+00 -3.582113e+00 -1.811064e+00 2.665834e-01 -1.193697e+00 -7.584519e+00 -7.466886e+00 -5.037143e-01 3.350034e-02 -8.028947e-01 -6.628180e-01 -1.207821e+00 5.917373e-01 -1.372995e+00 2.474852e+00 -1.005031e+00 -3.504458e+00 1.655074e+00 1.942873e+00 3.054093e-01 -1.067844e+00 -5.508466e-01 8.926118e-01
<VARIANCE> 25
 9.825809e+00 5.259721e+01 4.840126e+01 5.097677e+01 8.960581e+01 6.487344e+01 8.356663e+01 8.279156e+01 3.908559e+01 2.446875e+01 3.762651e+01 2.714550e+01 9.502103e-01 1.221910e+01 5.499976e+00 9.380961e+00 9.296385e+00 5.822814e+00 8.333203e+00 8.707455e+00 3.712934e+00 3.635683e+00 3.926250e+00 2.651644e+00 3.825618e+00
<GCONST> 1.122658e+02
<STATE> 4
<MEAN> 25
 1.665352e+01 -8.508249e+00 1.272221e+00 -2.141733e+01 9.603684e+00 -2.627592e-01 -1.828827e+01 2.243961e+00 1.507361e+00 9.769654e+00 -6.797819e+00 -4.608021e+00 3.407536e-01 -8.517023e-01 -1.672298e-02 -1.370288e+00 -2.362025e-01 1.232946e+00 -6.813548e-01 -7.140659e-01 5.153745e-01 8.835370e-01 -1.470695e-01 1.634685e-01 7.475372e-01
<VARIANCE> 25
 7.864072e+00 1.866749e+01 3.808403e+01 8.043700e+01 7.530711e+01 5.780568e+01 3.503452e+01 9.208065e+01 3.971459e+01 4.448550e+01 3.741127e+01 2.125577e+01 4.919946e-01 4.929182e+00 2.866228e+00 8.498494e+00 6.709544e+00 5.981664e+00 4.400196e+00 8.834723e+00 2.877138e+00 2.736919e+00 3.646522e+00 2.151461e+00 2.608837e+00
<GCONST> 1.060902e+02
<TRANSP> 5
 0.000000e+00 1.000000e+00 0.000000e+00 0.000000e+00 0.000000e+00
 0.000000e+00 6.780404e-01 3.219596e-01 0.000000e+00 0.000000e+00
 0.000000e+00 0.000000e+00 8.284542e-01 1.715458e-01 0.000000e+00
 0.000000e+00 0.000000e+00 0.000000e+00 8.280895e-01 1.719105e-01
 0.000000e+00 0.000000e+00 0.000000e+00 0.000000e+00 0.000000e+00
<ENDHMM>
~h "sp"
<BEGINHMM>
<NUMSTATES> 3
<STATE> 2
~s "silst"
<TRANSP> 3
 0.000000e+00 3.461858e-02 9.653814e-01
 0.000000e+00 8.418192e-01 1.581809e-01
 0.000000e+00 0.000000e+00 0.000000e+00
<ENDHMM>
~h "th"
<BEGINHMM>
<NUMSTATES> 5
<STATE> 2
<MEAN> 25
 1.687173e+01 -1.007578e+01 1.774393e+01 3.891128e+00 -2.093725e+01 -5.580444e+00 3.560742e+00 -5.007107e+00 -9.387142e+00 -3.636233e+00 6.783412e-01 1.262143e+00 -3.825372e-02 1.762758e+00 9.000437e-01 4.530529e-01 -2.009716e+00 1.129423e-01 1.548239e+00 -9.030994e-01 -1.833632e+00 5.793148e-01 3.146084e-01 -4.845608e-01 -1.135226e+00
<VARIANCE> 25
 1.338451e+01 5.735918e+01 3.384256e+01 7.424518e+01 8.897951e+01 5.682719e+01 1.123109e+02 3.977185e+01 1.214920e+02 3.304940e+01 3.228004e+01 4.320717e+01 2.061870e+00 5.851991e+00 4.072539e+00 7.058650e+00 4.869382e+00 9.507946e+00 7.500342e+00 4.942797e+00 7.112595e+00 3.726528e+00 4.454529e+00 5.663927e+00 2.301744e+00
<GCONST> 1.135265e+02
<STATE> 3
<MEAN> 25
 1.265106e+01 1.497582e+01 1.717637e+01 1.846532e+00 -2.325764e+01 -9.164408e+00 7.312620e+00 -6.567943e+00 -1.084276e+01 3.462443e+00 7.137299e-03 -3.014518e+00 -1.654481e+00 3.033460e+00 -1.843217e+00 -2.077387e-01 3.996135e+00 -2.513684e-01 -3.693851e+00 1.337647e+00 3.250596e+00 -2.761744e-01 3.764972e-01 1.859369e-01 -2.870637e+00
<VARIANCE> 25
 1.168556e+01 2.817831e+01 2.692925e+01 1.283703e+02 4.637320e+01 4.207833e+01 8.445435e+01 5.842949e+01 3.923185e+01 3.381746e+01 3.518398e+01 1.544246e+01 8.869854e-01 3.373761e+00 4.737511e+00 6.962242e+00 4.326298e+00 3.912293e+00 4.936607e+00 2.600641e+00 2.299679e+00 4.129399e+00 1.978399e+00 1.723975e+00 3.469510e-01
<GCONST> 1.018531e+02
<STATE> 4
<MEAN> 25
 2.227231e+00 1.280624e+01 9.993078e+00 6.556883e-01 -1.301348e+01 -2.991357e+00 8.099343e-01 -6.827312e+00 -3.751509e+00 1.420133e+00 -1.760510e+00 -1.913626e+00 -2.699294e+00 -1.985448e+00 -2.491858e+00 -4.435714e-01 1.471576e+00 1.567459e+00 3.900786e-01 -1.082968e-01 3.102685e-01 -8.654641e-01 -5.356276e-01 2.918445e-01 -1.674388e+00
<VARIANCE> 25
 2.799254e+01 4.441125e+01 4.985621e+01 1.617818e+01 1.372330e+01 2.265715e+01 2.476941e+01 2.125138e+01 1.585948e+01 1.170248e+01 2.379305e+01 1.344121e+01 1.777688e+00 1.172519e+00 1.798475e+00 2.973891e+00 5.661717e+00 1.624871e+00 5.917342e+00 7.018640e-01 3.806376e+00 9.811367e-01 2.768014e+00 6.407958e-01 8.320937e-01
<GCONST> 9.052326e+01
<TRANSP> 5
 0.000000e+00 1.000000e+00 0.000000e+00 0.000000e+00 0.000000e+00
 0.000000e+00 9.081292e-01 9.187078e-02 0.000000e+00 0.000000e+00
 0.000000e+00 0.000000e+00 7.528875e-01 2.471125e-01 0.000000e+00
 0.000000e+00 0.000000e+00 0.000000e+00 6.720862e-01 3.279138e-01
 0.000000e+00 0.000000e+00 0.000000e+00 0.000000e+00 0.000000e+00
<ENDHMM>
~h "uw"
<BEGINHMM>
<NUMSTATES> 5
<STATE> 2
<MEAN> 25
 -2.862828e+00 7.602084e+00 2.590315e-01 1.844372e+00 -1.311788e+00 1.888147e+00 1.932588e+00 -1.012376e+00 -4.288173e+00 -5.655465e+00 -7.631521e-01 -8.017625e-01 -1.503428e+00 -1.141841e+00 -1.840186e-01 7.253501e-01 5.686905e-01 3.098977e-01 3.456371e-01 2.843714e-01 3.323472e-02 -1.324337e-01 -4.771969e-01 -4.951227e-01 -6.954692e-01
<VARIANCE> 25
 2.817153e+01 1.952494e+01 1.958723e+01 2.899046e+01 1.803193e+01 1.441229e+01 2.295318e+01 1.627131e+01 2.419520e+01 2.137316e+01 1.761650e+01 2.412284e+01 1.245686e+00 1.415055e+00 1.934148e+00 1.511002e+00 1.216100e+00 1.372991e+00 1.628811e+00 1.514400e+00 1.547578e+00 1.632345e+00 1.992048e+00 1.406303e+00 3.815299e-01
<GCONST> 8.643022e+01
<STATE> 3
<MEAN> 25
 -6.683693e+00 3.597322e+00 1.970985e+00 5.911133e+00 1.087244e-01 3.053211e-01 1.115766e+00 -3.251742e-01 -3.436283e+00 -3.600686e+00 -1.087695e+00 -1.929953e+00 -1.709319e-01 -6.007984e-02 1.238671e-01 1.977442e-01 9.167518e-02 6.586920e-03 6.274167e-02 6.026078e-02 1.565479e-01 9.401552e-02 -2.008529e-02 4.338402e-02 -8.988903e-02
<VARIANCE> 25
 5.083513e+00 7.826999e+00 1.527309e+01 2.099298e+01 1.562057e+01 1.325461e+01 1.380345e+01 1.838569e+01 1.431866e+01 1.507244e+01 1.206084e+01 1.217174e+01 2.257710e-01 4.221584e-01 5.733830e-01 6.376715e-01 9.533702e-01 1.167670e+00 1.406314e+00 1.467070e+00 1.322967e+00 1.323254e+00 1.214185e+00 1.169462e+00 5.708101e-02
<GCONST> 7.215581e+01
<STATE> 4
<MEAN> 25
 -9.228490e+00 3.661082e+00 -1.227085e-01 1.451473e+00 9.312681e-01 4.843926e-02 1.605427e+00 1.582933e+00 2.181111e-01 -1.560682e+00 -7.572541e-01 6.257815e-01 5.646364e-02 5.905775e-02 2.990382e-01 2.215481e-01 5.272300e-01 -5.854355e-01 5.531392e-02 4.338139e-01 9.883540e-01 7.568310e-01 5.258656e-02 2.106452e-01 3.468309e-01
<VARIANCE> 25
 1.019967e+01 5.211108e+00 9.628375e+00 3.814194e+01 2.741614e+01 4.197986e+01 1.604463e+01 2.398849e+01 1.694650e+01 2.317999e+01 1.795763e+01 1.616430e+01 1.190903e+00 1.902243e+00 1.571117e+00 1.789719e+00 1.477980e+00 2.465520e+00 2.764554e+00 3.146712e+00 2.118260e+00 2.304090e+00 1.879780e+00 2.175938e+00 9.748297e-01
<GCONST> 8.874786e+01
<TRANSP> 5
 0.000000e+00 1.000000e+00 0.000000e+00 0.000000e+00 0.000000e+00
 0.000000e+00 6.957435e-01 3.042565e-01 0.000000e+00 0.000000e+00
 0.000000e+00 0.000000e+00 8.909532e-01 1.090467e-01 0.000000e+00
 0.000000e+00 0.000000e+00 0.000000e+00 2.827949e-01 7.172052e-01
 0.000000e+00 0.000000e+00 0.000000e+00 0.000000e+00 0.000000e+00
<ENDHMM>
~h "sil"
<BEGINHMM>
<NUMSTATES> 5
<STATE> 2
<MEAN> 25
 -1.058451e+01 4.608463e+00 -1.886580e+00 3.838146e+00 3.994317e-01 2.617447e+00 2.238078e+00 -3.020559e-02 8.867694e-01 -1.951938e+00 5.696358e-01 3.998533e-01 -2.610593e-02 -7.716148e-04 1.472461e-02 2.231097e-02 3.224123e-02 2.568334e-02 3.500896e-02 2.123233e-02 -8.421848e-03 -9.516998e-03 3.515502e-03 1.899735e-02 -1.555911e-02
<VARIANCE> 25
 6.583769e+00 5.490875e+00 9.028469e+00 1.405513e+01 1.069906e+01 1.318157e+01 1.536651e+01 1.600647e+01 1.403243e+01 1.233142e+01 1.189804e+01 1.278049e+01 1.090501e-01 2.236911e-01 3.898966e-01 6.120892e-01 7.732407e-01 9.112359e-01 1.063309e+00 1.212296e+00 1.211696e+00 1.235512e+00 1.179791e+00 1.147388e+00 4.280880e-02
<GCONST> 6.732288e+01
<STATE> 3
~s "silst"
<STATE> 4
<MEAN> 25
 -8.112391e+00 4.512571e+00 9.850719e-01 3.837657e+00 1.355324e+00 2.817550e+00 1.781671e+00 1.873609e-01 -1.691042e-01 -2.469158e+00 7.129528e-02 7.893180e-01 3.506757e-01 4.895737e-02 5.260079e-02 2.096904e-03 -6.905174e-02 -2.001510e-01 -2.968485e-01 -9.883990e-02 -1.930209e-02 -3.541207e-02 -1.071654e-01 -1.695689e-01 2.568938e-01
<VARIANCE> 25
 4.090948e+01 3.254679e+01 2.450455e+01 2.282013e+01 1.655691e+01 2.176510e+01 2.095559e+01 2.012410e+01 1.836465e+01 1.886742e+01 1.559435e+01 1.349370e+01 2.128502e+00 2.381246e+00 1.670673e+00 1.627862e+00 1.690902e+00 2.270785e+00 1.649378e+00 1.635475e+00 1.530821e+00 1.598465e+00 1.460214e+00 1.225762e+00 3.534872e+00
<GCONST> 9.029684e+01
<TRANSP> 5
 0.000000e+00 1.000000e+00 0.000000e+00 0.000000e+00 0.000000e+00
 0.000000e+00 9.351089e-01 1.245436e-02 5.243670e-02 0.000000e+00
 0.000000e+00 0.000000e+00 9.330223e-01 6.697773e-02 0.000000e+00
 0.000000e+00 7.583646e-02 0.000000e+00 7.009240e-01 2.232395e-01
 0.000000e+00 0.000000e+00 0.000000e+00 0.000000e+00 0.000000e+00
<ENDHMM>
