~o
<STREAMINFO> 1 25
<VECSIZE> 25<NULLD><MFCC_D_N_Z_0><DIAGC>
~h "b"
<BEGINHMM>
<NUMSTATES> 5
<STATE> 2
<MEAN> 25
 9.921429e+00 4.048782e+00 -3.680492e+00 -1.664651e+00 -1.185489e+00 2.254726e+00 -1.985424e+00 -8.673480e+00 -3.543380e+00 9.670777e-01 -5.807619e-01 -8.215739e-01 -5.876281e-01 1.592441e-01 6.752297e-02 6.584781e-02 3.425850e-02 1.083449e-01 2.580288e-01 2.051866e-01 -3.790992e-02 -1.508935e-01 6.723209e-02 8.899349e-02 -5.322003e-01
<VARIANCE> 25
 1.989526e+02 9.101625e+01 3.739066e+01 8.447696e+01 6.278064e+01 4.416249e+01 5.736724e+01 1.074688e+02 4.804417e+01 4.980549e+01 4.049437e+01 2.441408e+01 2.537408e+00 5.761963e+00 3.971135e+00 4.133098e+00 5.431406e+00 3.795212e+00 3.424664e+00 4.709201e+00 3.489307e+00 2.843354e+00 2.996536e+00 1.711081e+00 2.665717e+00
<GCONST> 1.113364e+02
<STATE> 3
<MEAN> 25
 7.585772e+00 4.638998e+00 -3.389513e+00 -1.406364e+00 -1.025393e+00 2.632990e+00 -1.008931e+00 -7.742907e+00 -3.665784e+00 3.574765e-01 -3.185464e-01 -5.005026e-01 -6.359922e-01 1.330719e-01 9.143580e-02 1.002020e-01 4.650951e-02 9.675872e-02 2.637600e-01 2.803400e-01 -6.138843e-03 -1.757193e-01 5.625606e-02 7.782641e-02 -5.556651e-01
<VARIANCE> 25
 2.150101e+02 7.591458e+01 3.449134e+01 8.246299e+01 5.422799e+01 3.809555e+01 5.270876e+01 1.054215e+02 4.537738e+01 4.950700e+01 3.633259e+01 2.237982e+01 2.409768e+00 4.970679e+00 3.456691e+00 3.634079e+00 4.530706e+00 3.266369e+00 3.061442e+00 4.182814e+00 3.046036e+00 2.700165e+00 2.701009e+00 1.611982e+00 2.299325e+00
<GCONST> 1.089434e+02
<STATE> 4
<MEAN> 25
 4.644796e+00 5.168432e+00 -2.890000e+00 -9.748811e-01 -7.021804e-01 3.060295e+00 1.478873e-01 -6.231934e+00 -3.702451e+00 -3.372563e-01 -5.315868e-02 -1.666228e-01 -6.713269e-01 1.106055e-01 1.253104e-01 1.525057e-01 6.732705e-02 7.106691e-02 2.322310e-01 3.499248e-01 4.833397e-02 -1.975827e-01 3.174378e-02 5.936693e-02 -5.705259e-01
<VARIANCE> 25
 2.190402e+02 6.000616e+01 3.201621e+01 7.673974e+01 4.491697e+01 3.171714e+01 4.404663e+01 1.025632e+02 4.182065e+01 4.803304e+01 3.205417e+01 2.054350e+01 2.266749e+00 4.017436e+00 2.881831e+00 3.045744e+00 3.567072e+00 2.677128e+00 2.662156e+00 3.545875e+00 2.575467e+00 2.502407e+00 2.416095e+00 1.513170e+00 1.855320e+00
<GCONST> 1.056702e+02
<TRANSP> 5
 0.000000e+00 1.000000e+00 0.000000e+00 0.000000e+00 0.000000e+00
 0.000000e+00 7.367329e-01 2.632670e-01 0.000000e+00 0.000000e+00
 0.000000e+00 0.000000e+00 7.367333e-01 2.632668e-01 0.000000e+00
 0.000000e+00 0.000000e+00 0.000000e+00 8.595756e-01 1.404244e-01
 0.000000e+00 0.000000e+00 0.000000e+00 0.000000e+00 0.000000e+00
<ENDHMM>
~h "d"
<BEGINHMM>
<NUMSTATES> 5
<STATE> 2
<MEAN> 25
 -1.355488e+01 3.822141e+00 -9.537607e-01 4.648602e+00 1.436241e+00 3.115566e+00 3.052693e+00 2.361661e+00 2.821832e+00 -2.068157e-01 2.450083e+00 2.326172e+00 6.814333e-03 3.056966e-02 3.714859e-02 2.267559e-02 4.723777e-03 -1.510035e-02 -5.943777e-02 -7.020151e-02 -3.564648e-02 -1.105180e-02 -1.473914e-02 -2.895272e-02 -5.421342e-03
<VARIANCE> 25
 2.623012e+01 1.134376e+01 1.017915e+01 1.826130e+01 1.089308e+01 1.316237e+01 1.808728e+01 2.099661e+01 1.900381e+01 1.594356e+01 1.681541e+01 1.403318e+01 5.865119e-01 5.461064e-01 4.802393e-01 7.220844e-01 7.540066e-01 9.168472e-01 1.181776e+00 1.338104e+00 1.250929e+00 1.389911e+00 1.126470e+00 1.161798e+00 9.420394e-01
<GCONST> 7.760410e+01
<STATE> 3
<MEAN> 25
 -1.347439e+01 3.931120e+00 -8.068818e-01 4.685440e+00 1.471308e+00 3.083800e+00 2.864588e+00 2.102186e+00 2.618475e+00 -3.557161e-01 2.340190e+00 2.214141e+00 3.650225e-02 2.671694e-02 3.813975e-02 4.347204e-03 3.667752e-03 -1.121753e-02 -4.494951e-02 -5.945728e-02 -5.404935e-02 -4.234737e-02 -3.119743e-02 -2.619535e-02 2.799779e-02
<VARIANCE> 25
 2.393431e+01 1.076440e+01 1.008564e+01 1.912442e+01 1.107991e+01 1.267123e+01 1.840598e+01 2.024553e+01 1.891113e+01 1.549119e+01 1.658839e+01 1.377774e+01 6.480325e-01 5.356731e-01 5.140460e-01 7.641423e-01 7.816421e-01 9.055614e-01 1.230277e+00 1.295185e+00 1.249688e+00 1.334889e+00 1.159106e+00 1.162766e+00 9.571937e-01
<GCONST> 7.763170e+01
<STATE> 4
<MEAN> 25
 -1.262142e+01 3.847452e+00 -4.928841e-01 4.321059e+00 1.483863e+00 2.972614e+00 2.507161e+00 1.914265e+00 2.277298e+00 -5.454032e-01 2.036552e+00 2.095277e+00 1.377394e-01 2.129549e-03 3.741418e-02 -4.683912e-02 -1.362460e-02 -3.060341e-02 -3.884539e-02 -4.281293e-02 -5.774533e-02 -3.697595e-02 -4.885106e-02 -2.189490e-02 1.388085e-01
<VARIANCE> 25
 4.137204e+01 1.514878e+01 1.251830e+01 2.407639e+01 1.260903e+01 1.453129e+01 2.103463e+01 2.069435e+01 1.950788e+01 1.546743e+01 1.739295e+01 1.422318e+01 1.212854e+00 8.714301e-01 8.079660e-01 1.062133e+00 9.373923e-01 1.138173e+00 1.475443e+00 1.346576e+00 1.396062e+00 1.374114e+00 1.331718e+00 1.209666e+00 1.727701e+00
<GCONST> 8.293189e+01
<TRANSP> 5
 0.000000e+00 1.000000e+00 0.000000e+00 0.000000e+00 0.000000e+00
 0.000000e+00 7.442669e-01 2.557330e-01 0.000000e+00 0.000000e+00
 0.000000e+00 0.000000e+00 7.442672e-01 2.557328e-01 0.000000e+00
 0.000000e+00 0.000000e+00 0.000000e+00 8.688101e-01 1.311900e-01
 0.000000e+00 0.000000e+00 0.000000e+00 0.000000e+00 0.000000e+00
<ENDHMM>
~h "f"
<BEGINHMM>
<NUMSTATES> 5
<STATE> 2
<MEAN> 25
 -1.579228e+01 4.285243e+00 -1.422151e+00 3.383758e+00 1.640927e+00 5.268697e+00 4.280311e+00 2.843621e+00 3.457497e+00 -9.822826e-02 3.869186e+00 2.614814e+00 8.738084e-02 -1.420988e-02 3.009948e-02 8.580500e-03 -3.919324e-03 -8.211204e-02 -6.300454e-02 -4.809652e-02 -5.309097e-02 -2.122480e-02 -3.532059e-02 -5.870179e-02 9.454381e-02
<VARIANCE> 25
 2.091980e+01 9.299662e+00 1.015363e+01 1.980164e+01 1.181440e+01 1.574422e+01 1.447583e+01 2.302966e+01 2.026612e+01 1.473782e+01 1.425995e+01 1.563830e+01 6.134215e-01 4.728167e-01 6.376901e-01 7.158064e-01 8.498452e-01 1.177024e+00 1.060592e+00 1.202310e+00 1.282344e+00 1.284210e+00 1.024998e+00 1.302495e+00 1.292828e+00
<GCONST> 7.792878e+01
<STATE> 3
<MEAN> 25
 -1.542167e+01 4.267124e+00 -1.288180e+00 3.421431e+00 1.628713e+00 4.987957e+00 4.009522e+00 2.635277e+00 3.155035e+00 -3.241225e-01 3.645496e+00 2.406099e+00 9.830134e-02 -4.290849e-03 3.437064e-02 9.759135e-03 -3.104853e-03 -6.762520e-02 -6.809214e-02 -4.943585e-02 -7.465165e-02 -6.438593e-02 -6.422681e-02 -5.155452e-02 9.533355e-02
<VARIANCE> 25
 2.289456e+01 1.075765e+01 1.031862e+01 2.157958e+01 1.229778e+01 1.644855e+01 1.494827e+01 2.245701e+01 2.113491e+01 1.454542e+01 1.500856e+01 1.518868e+01 7.079105e-01 5.822370e-01 6.352612e-01 7.713438e-01 9.065166e-01 1.297235e+00 1.126659e+00 1.269118e+00 1.324898e+00 1.280875e+00 1.068157e+00 1.293447e+00 1.421315e+00
<GCONST> 7.926609e+01
<STATE> 4
<MEAN> 25
 -1.432846e+01 3.999241e+00 -1.012978e+00 3.095533e+00 1.460068e+00 4.412755e+00 3.533940e+00 2.393812e+00 2.524070e+00 -7.599764e-01 3.027712e+00 2.192003e+00 1.607878e-01 -4.406555e-02 3.324813e-02 -2.660471e-02 -2.392974e-02 -8.439460e-02 -6.102760e-02 -3.349060e-02 -7.383464e-02 -6.204481e-02 -9.383681e-02 -2.811778e-02 1.688875e-01
<VARIANCE> 25
 3.510764e+01 1.616069e+01 1.214807e+01 2.430122e+01 1.327647e+01 1.945470e+01 1.698074e+01 2.189700e+01 2.157150e+01 1.414722e+01 1.657255e+01 1.421551e+01 1.060309e+00 9.366338e-01 7.564896e-01 9.481443e-01 1.088340e+00 1.507031e+00 1.243603e+00 1.434744e+00 1.506241e+00 1.309500e+00 1.178383e+00 1.306047e+00 1.874819e+00
<GCONST> 8.310461e+01
<TRANSP> 5
 0.000000e+00 1.000000e+00 0.000000e+00 0.000000e+00 0.000000e+00
 0.000000e+00 7.361351e-01 2.638650e-01 0.000000e+00 0.000000e+00
 0.000000e+00 0.000000e+00 7.361352e-01 2.638648e-01 0.000000e+00
 0.000000e+00 0.000000e+00 0.000000e+00 8.586105e-01 1.413895e-01
 0.000000e+00 0.000000e+00 0.000000e+00 0.000000e+00 0.000000e+00
<ENDHMM>
~h "g"
<BEGINHMM>
<NUMSTATES> 5
<STATE> 2
<MEAN> 25
 1.338868e+01 -2.071583e+00 2.677340e-01 -3.131761e+00 -2.684344e+00 -2.204418e+00 -2.751390e+00 -2.762448e+00 -3.040032e+00 1.578270e+00 -1.570711e+00 -2.122629e+00 -2.473956e-01 2.915183e-01 1.953588e-02 1.505250e-02 2.190569e-02 1.053750e-01 -9.229929e-02 -8.579177e-02 6.003024e-02 -7.271340e-02 5.458721e-02 5.684261e-02 -3.579501e-01
<VARIANCE> 25
 1.012759e+02 1.668641e+02 8.575887e+01 1.269350e+02 1.075135e+02 6.285509e+01 1.124138e+02 8.177159e+01 7.029747e+01 5.298141e+01 3.536087e+01 3.308179e+01 3.284347e+00 1.021812e+01 6.380529e+00 7.572145e+00 6.915829e+00 4.322227e+00 7.163799e+00 6.655434e+00 4.611952e+00 4.078045e+00 3.154606e+00 2.638948e+00 5.309739e+00
<GCONST> 1.195852e+02
<STATE> 3
<MEAN> 25
 1.238300e+01 -1.021465e+00 3.729889e-01 -3.046649e+00 -2.606176e+00 -1.815494e+00 -3.010088e+00 -3.011493e+00 -2.831779e+00 1.267870e+00 -1.363813e+00 -1.922386e+00 -2.936643e-01 2.762332e-01 2.537678e-02 4.246083e-02 1.749620e-02 1.055305e-01 -5.169804e-02 -5.891851e-02 6.136392e-02 -9.698005e-02 5.790284e-02 4.939892e-02 -3.848539e-01
<VARIANCE> 25
 1.141838e+02 1.619542e+02 8.479306e+01 1.251841e+02 1.024162e+02 6.205926e+01 1.057974e+02 7.695273e+01 6.781703e+01 5.245610e+01 3.444107e+01 3.202268e+01 3.291400e+00 9.718018e+00 6.195953e+00 7.286341e+00 6.551374e+00 4.074151e+00 6.740680e+00 6.389060e+00 4.465343e+00 3.962268e+00 3.110955e+00 2.587750e+00 5.242351e+00
<GCONST> 1.189243e+02
<STATE> 4
<MEAN> 25
 1.067958e+01 3.880119e-01 5.999377e-01 -2.629163e+00 -2.557841e+00 -1.316922e+00 -3.012418e+00 -3.176778e+00 -2.591908e+00 6.955555e-01 -1.081083e+00 -1.686896e+00 -3.528435e-01 2.570672e-01 3.168873e-02 8.766197e-02 1.314450e-02 1.036330e-01 1.246138e-02 -2.098390e-02 5.460009e-02 -1.210600e-01 5.095444e-02 4.174295e-02 -4.245112e-01
<VARIANCE> 25
 1.320331e+02 1.543326e+02 8.236805e+01 1.209293e+02 9.441628e+01 6.101977e+01 9.471734e+01 7.110973e+01 6.284485e+01 5.171659e+01 3.252601e+01 3.017671e+01 3.339345e+00 8.863481e+00 5.853815e+00 6.738731e+00 5.970871e+00 3.735249e+00 6.040623e+00 5.989165e+00 4.211194e+00 3.820598e+00 2.967653e+00 2.479063e+00 5.050799e+00
<GCONST> 1.176743e+02
<TRANSP> 5
 0.000000e+00 1.000000e+00 0.000000e+00 0.000000e+00 0.000000e+00
 0.000000e+00 7.252290e-01 2.747709e-01 0.000000e+00 0.000000e+00
 0.000000e+00 0.000000e+00 7.252288e-01 2.747711e-01 0.000000e+00
 0.000000e+00 0.000000e+00 0.000000e+00 8.454317e-01 1.545683e-01
 0.000000e+00 0.000000e+00 0.000000e+00 0.000000e+00 0.000000e+00
<ENDHMM>
~h "k"
<BEGINHMM>
<NUMSTATES> 5
<STATE> 2
<MEAN> 25
 9.834648e+00 -5.168868e+00 -6.619690e-03 -5.974692e+00 2.504743e+00 -3.956558e+00 -4.166487e+00 2.715959e-01 -3.903660e-01 2.167024e+00 -1.094243e+00 -9.598941e-01 1.170411e-01 1.118421e-02 -1.658275e-01 2.035576e-02 1.777926e-02 4.685964e-02 -2.814242e-02 -6.300388e-02 -3.107675e-02 2.426403e-02 -4.860153e-03 -3.629351e-02 -3.521103e-02
<VARIANCE> 25
 2.087581e+02 9.533615e+01 9.592831e+01 1.139878e+02 1.192212e+02 8.311194e+01 7.690971e+01 7.284487e+01 6.506602e+01 5.600356e+01 4.845163e+01 4.049114e+01 1.140707e+01 7.135453e+00 6.689890e+00 7.215137e+00 7.796608e+00 6.376338e+00 6.119610e+00 5.738603e+00 5.777214e+00 4.721837e+00 4.219489e+00 3.515251e+00 7.371303e+00
<GCONST> 1.225014e+02
<STATE> 3
<MEAN> 25
 1.029231e+01 -5.127005e+00 -6.716396e-01 -5.815307e+00 2.490085e+00 -3.727538e+00 -4.226807e+00 -1.361867e-03 -5.188961e-01 2.245785e+00 -1.109581e+00 -1.125833e+00 1.171195e-01 1.146894e-02 -1.658474e-01 5.158179e-02 -2.458497e-02 6.495711e-02 -1.481132e-03 -7.801135e-02 -3.045540e-02 1.757595e-02 -6.586784e-03 -4.635638e-02 -7.862053e-02
<VARIANCE> 25
 2.031537e+02 9.546640e+01 9.410365e+01 1.130851e+02 1.199884e+02 8.325517e+01 7.457826e+01 7.464876e+01 6.681239e+01 5.578632e+01 4.946640e+01 4.086250e+01 1.094449e+01 7.189496e+00 6.684679e+00 7.283713e+00 7.967278e+00 6.411223e+00 6.053267e+00 5.911091e+00 5.839621e+00 4.682839e+00 4.264892e+00 3.525363e+00 7.452758e+00
<GCONST> 1.225504e+02
<STATE> 4
<MEAN> 25
 1.110082e+01 -5.043443e+00 -1.633149e+00 -5.245286e+00 1.984089e+00 -3.317980e+00 -4.014144e+00 -6.818712e-01 -7.588328e-01 2.193197e+00 -1.140527e+00 -1.508453e+00 1.104149e-01 1.570419e-02 -1.328929e-01 9.031425e-02 -8.796146e-02 8.088791e-02 3.637589e-02 -9.564830e-02 -2.934994e-02 6.099299e-03 -1.152305e-02 -5.413976e-02 -1.162773e-01
<VARIANCE> 25
 1.955741e+02 9.810413e+01 8.930306e+01 1.115146e+02 1.200287e+02 8.228165e+01 7.305058e+01 7.792500e+01 6.842310e+01 5.486341e+01 5.011435e+01 4.118668e+01 9.964293e+00 7.132231e+00 6.544418e+00 7.179544e+00 8.016693e+00 6.378024e+00 5.902440e+00 6.115644e+00 5.757174e+00 4.565906e+00 4.221421e+00 3.489564e+00 7.453100e+00
<GCONST> 1.223246e+02
<TRANSP> 5
 0.000000e+00 1.000000e+00 0.000000e+00 0.000000e+00 0.000000e+00
 0.000000e+00 7.533557e-01 2.466443e-01 0.000000e+00 0.000000e+00
 0.000000e+00 0.000000e+00 7.533560e-01 2.466440e-01 0.000000e+00
 0.000000e+00 0.000000e+00 0.000000e+00 8.779509e-01 1.220491e-01
 0.000000e+00 0.000000e+00 0.000000e+00 0.000000e+00 0.000000e+00
<ENDHMM>
~h "l"
<BEGINHMM>
<NUMSTATES> 5
<STATE> 2
<MEAN> 25
 1.886561e+00 1.058010e+00 -6.260040e-01 -3.214370e-01 -5.767126e-01 4.402856e-01 -6.361013e-01 -1.530484e+00 -6.837829e-01 -1.573490e-01 -1.212688e-01 -1.853968e-01 -7.174446e-02 1.918447e-03 1.041377e-01 1.018962e-01 -5.057980e-02 -7.147338e-02 4.747099e-02 5.599648e-02 -2.733984e-02 -6.292265e-02 -1.018425e-02 1.543853e-03 -3.697147e-02
<VARIANCE> 25
 2.259104e+02 9.314911e+01 6.228121e+01 8.591120e+01 6.786977e+01 5.959290e+01 6.047735e+01 7.111711e+01 4.911821e+01 4.110088e+01 3.187099e+01 2.807901e+01 4.291780e+00 5.259502e+00 3.608859e+00 4.141977e+00 4.806438e+00 3.650213e+00 3.803734e+00 4.035854e+00 3.582804e+00 2.885654e+00 2.697064e+00 2.256521e+00 5.087438e+00
<GCONST> 1.127509e+02
<STATE> 3
<MEAN> 25
 1.668355e+00 1.036907e+00 -1.873333e-01 2.525481e-02 -7.513631e-01 1.320982e-01 -5.001950e-01 -1.309629e+00 -7.911912e-01 -3.761596e-01 -1.684551e-01 -1.853296e-01 -7.014292e-02 -9.672978e-03 1.172509e-01 8.374031e-02 -3.118533e-02 -8.450988e-02 2.988646e-02 6.596617e-02 -2.711134e-02 -5.359486e-02 -1.245998e-02 2.127115e-03 -8.438619e-03
<VARIANCE> 25
 2.176600e+02 9.534735e+01 6.457718e+01 8.295554e+01 6.792397e+01 6.079065e+01 5.841382e+01 6.886044e+01 4.931693e+01 4.052870e+01 3.065770e+01 2.735892e+01 4.394161e+00 5.165845e+00 3.535312e+00 4.042860e+00 4.652596e+00 3.655785e+00 3.777654e+00 3.886179e+00 3.698000e+00 2.872153e+00 2.649924e+00 2.199591e+00 5.156783e+00
<GCONST> 1.124995e+02
<STATE> 4
<MEAN> 25
 1.857825e+00 8.184683e-01 4.391737e-01 1.473016e-01 -8.567515e-01 -4.304458e-01 -5.427819e-01 -1.073423e+00 -1.017430e+00 -5.124701e-01 -3.015594e-01 -2.656268e-01 -7.456751e-02 -8.653031e-03 1.083082e-01 4.283867e-02 -3.019389e-03 -7.900368e-02 7.444305e-03 6.545395e-02 -1.945633e-02 -3.970598e-02 -1.388603e-02 2.677936e-03 1.006143e-02
<VARIANCE> 25
 2.077776e+02 9.924591e+01 6.758813e+01 8.202374e+01 6.883109e+01 6.274950e+01 5.815432e+01 6.714977e+01 4.978180e+01 4.125466e+01 2.956476e+01 2.711600e+01 4.612756e+00 5.009293e+00 3.528981e+00 4.042196e+00 4.529220e+00 3.702260e+00 3.837688e+00 3.775457e+00 3.891848e+00 2.936033e+00 2.629660e+00 2.147191e+00 5.051014e+00
<GCONST> 1.125338e+02
<TRANSP> 5
 0.000000e+00 1.000000e+00 0.000000e+00 0.000000e+00 0.000000e+00
 0.000000e+00 7.376176e-01 2.623825e-01 0.000000e+00 0.000000e+00
 0.000000e+00 0.000000e+00 7.376176e-01 2.623824e-01 0.000000e+00
 0.000000e+00 0.000000e+00 0.000000e+00 8.607080e-01 1.392920e-01
 0.000000e+00 0.000000e+00 0.000000e+00 0.000000e+00 0.000000e+00
<ENDHMM>
~h "m"
<BEGINHMM>
<NUMSTATES> 5
<STATE> 2
<MEAN> 25
 1.001950e+01 -1.930806e+00 2.210566e+00 -5.071178e+00 6.722938e-01 -9.397960e-01 -1.849397e+00 -3.460486e+00 -2.728570e+00 8.868890e-01 -6.645803e-01 -4.970715e-01 3.461914e-01 -1.177328e-01 4.509634e-02 -3.957866e-02 -1.187042e-01 4.136243e-03 6.302933e-02 -7.084173e-02 -1.148727e-01 4.032388e-02 1.563268e-02 -3.584469e-02 2.826944e-01
<VARIANCE> 25
 1.930188e+02 8.178330e+01 9.722922e+01 1.202922e+02 8.794327e+01 9.070847e+01 9.798566e+01 1.133471e+02 6.431252e+01 5.552335e+01 3.673146e+01 2.816472e+01 5.195597e+00 5.816470e+00 5.885888e+00 7.043380e+00 6.159839e+00 5.497216e+00 6.020222e+00 7.395394e+00 5.877829e+00 6.185105e+00 3.486278e+00 3.158211e+00 6.407659e+00
<GCONST> 1.207038e+02
<STATE> 3
<MEAN> 25
 1.154260e+01 -2.472392e+00 2.343267e+00 -5.177979e+00 7.459322e-02 -8.802887e-01 -1.505492e+00 -3.730519e+00 -3.192910e+00 1.041548e+00 -5.948727e-01 -6.700420e-01 2.450553e-01 -8.681939e-02 2.787480e-02 6.407125e-03 -1.267522e-01 5.103693e-03 7.244070e-02 -2.407462e-02 -8.124990e-02 1.998614e-02 9.642012e-03 -2.941709e-02 1.410474e-01
<VARIANCE> 25
 1.826938e+02 8.764027e+01 1.086851e+02 1.266749e+02 9.192574e+01 8.904422e+01 9.974969e+01 1.182860e+02 6.697353e+01 5.900229e+01 3.657965e+01 2.908727e+01 5.069468e+00 6.031256e+00 6.239560e+00 7.502417e+00 6.191846e+00 5.363123e+00 6.097378e+00 7.764787e+00 5.933702e+00 6.470062e+00 3.498101e+00 3.261587e+00 6.489405e+00
<GCONST> 1.213746e+02
<STATE> 4
<MEAN> 25
 1.279551e+01 -2.946153e+00 1.623657e+00 -5.208476e+00 -4.310272e-01 -4.689908e-01 -1.257608e+00 -3.922981e+00 -3.059098e+00 8.340035e-01 -6.141627e-01 -8.330830e-01 -1.297683e-02 8.850294e-03 -3.290293e-02 9.053358e-02 -9.351085e-02 1.252883e-02 5.730884e-02 3.873011e-02 2.201799e-03 -2.124661e-02 6.310910e-03 -2.060008e-02 -1.569439e-01
<VARIANCE> 25
 1.756996e+02 9.086670e+01 1.123840e+02 1.390739e+02 8.920197e+01 8.108061e+01 9.366421e+01 1.095756e+02 6.429791e+01 5.919394e+01 3.581380e+01 2.861523e+01 4.547169e+00 5.836984e+00 6.053253e+00 7.509502e+00 5.397198e+00 4.643359e+00 5.668603e+00 7.286453e+00 5.359950e+00 6.379002e+00 3.646833e+00 3.214304e+00 6.026579e+00
<GCONST> 1.204087e+02
<TRANSP> 5
 0.000000e+00 1.000000e+00 0.000000e+00 0.000000e+00 0.000000e+00
 0.000000e+00 8.026744e-01 1.973256e-01 0.000000e+00 0.000000e+00
 0.000000e+00 0.000000e+00 8.026745e-01 1.973255e-01 0.000000e+00
 0.000000e+00 0.000000e+00 0.000000e+00 9.356121e-01 6.438788e-02
 0.000000e+00 0.000000e+00 0.000000e+00 0.000000e+00 0.000000e+00
<ENDHMM>
~h "n"
<BEGINHMM>
<NUMSTATES> 5
<STATE> 2
<MEAN> 25
 -7.758445e+00 4.267304e+00 4.884977e-01 4.114151e+00 8.619170e-02 2.048053e+00 1.050491e+00 -9.038528e-01 -2.465550e-01 -2.173546e+00 -4.223195e-01 4.446868e-01 -2.039024e-01 -4.395862e-02 -1.040840e-01 -1.632629e-02 4.339659e-02 3.879535e-02 3.338584e-02 5.437302e-02 5.992644e-02 2.089613e-02 3.544568e-02 2.996208e-02 -1.703007e-01
<VARIANCE> 25
 5.668700e+01 2.793736e+01 2.467394e+01 2.844945e+01 1.886527e+01 1.924118e+01 1.784925e+01 2.380205e+01 2.229745e+01 1.965223e+01 1.732750e+01 1.610881e+01 9.649833e-01 1.231817e+00 1.106423e+00 1.288391e+00 1.153595e+00 1.356515e+00 1.399788e+00 1.743467e+00 1.634094e+00 1.908173e+00 1.543886e+00 1.487989e+00 5.901746e-01
<GCONST> 8.683774e+01
<STATE> 3
<MEAN> 25
 -8.566179e+00 4.090667e+00 4.277511e-02 4.002954e+00 2.597173e-01 2.214059e+00 1.163514e+00 -6.782606e-01 -5.046880e-03 -2.093259e+00 -2.831612e-01 5.574230e-01 -1.662048e-01 -5.618909e-02 -1.074936e-01 -4.825140e-02 2.441584e-02 2.375950e-02 3.246576e-02 6.234406e-02 5.270473e-02 1.826776e-02 3.116864e-02 2.308883e-02 -1.284692e-01
<VARIANCE> 25
 4.216778e+01 2.158359e+01 2.230106e+01 2.620347e+01 1.653607e+01 1.759371e+01 1.715214e+01 2.067355e+01 2.003766e+01 1.768540e+01 1.681413e+01 1.512111e+01 8.311532e-01 9.819839e-01 9.591444e-01 1.112785e+00 1.089625e+00 1.301859e+00 1.322853e+00 1.542976e+00 1.526003e+00 1.777541e+00 1.515540e+00 1.429057e+00 4.426779e-01
<GCONST> 8.396471e+01
<STATE> 4
<MEAN> 25
 -8.873354e+00 3.533757e+00 -5.256816e-01 3.389959e+00 3.641461e-01 2.263007e+00 1.059716e+00 -2.241504e-01 1.603820e-01 -1.860646e+00 -2.158111e-01 6.161841e-01 -1.216956e-01 -5.858421e-02 -9.844029e-02 -6.515413e-02 2.155206e-02 3.057913e-02 2.010985e-02 6.124215e-02 4.730919e-02 8.572355e-03 2.131643e-02 2.190012e-02 -8.443729e-02
<VARIANCE> 25
 3.035500e+01 1.629119e+01 1.945884e+01 2.380554e+01 1.425654e+01 1.618389e+01 1.668547e+01 1.819340e+01 1.786624e+01 1.603666e+01 1.613494e+01 1.426544e+01 6.650662e-01 7.693971e-01 8.260542e-01 9.857779e-01 1.007865e+00 1.199650e+00 1.260547e+00 1.413419e+00 1.464009e+00 1.701172e+00 1.509150e+00 1.362061e+00 3.209364e-01
<GCONST> 8.093069e+01
<TRANSP> 5
 0.000000e+00 1.000000e+00 0.000000e+00 0.000000e+00 0.000000e+00
 0.000000e+00 7.528188e-01 2.471812e-01 0.000000e+00 0.000000e+00
 0.000000e+00 0.000000e+00 7.528187e-01 2.471813e-01 0.000000e+00
 0.000000e+00 0.000000e+00 0.000000e+00 8.823471e-01 1.176529e-01
 0.000000e+00 0.000000e+00 0.000000e+00 0.000000e+00 0.000000e+00
<ENDHMM>
~h "r"
<BEGINHMM>
<NUMSTATES> 5
<STATE> 2
<MEAN> 25
 1.485833e-01 2.609644e-01 5.112554e-01 1.358662e+00 -1.260805e+00 -4.061354e-01 5.066465e-01 -1.875409e-01 2.935570e-01 -1.827462e-01 -1.546582e-01 2.587307e-01 -1.183048e-02 5.236898e-02 3.874849e-03 -5.510885e-02 5.055165e-02 2.838870e-02 -2.359793e-02 -1.734002e-02 -2.056731e-02 -2.979884e-02 -2.734197e-02 -1.643203e-02 -1.624856e-02
<VARIANCE> 25
 2.318141e+02 1.108701e+02 6.007831e+01 7.228888e+01 6.564591e+01 5.383335e+01 4.879432e+01 4.988427e+01 5.052538e+01 3.183374e+01 3.214249e+01 2.646708e+01 3.621790e+00 4.697546e+00 3.500195e+00 3.647372e+00 3.637794e+00 3.562268e+00 3.555874e+00 3.199393e+00 3.604414e+00 2.734956e+00 2.343604e+00 1.974675e+00 4.424236e+00
<GCONST> 1.102558e+02
<STATE> 3
<MEAN> 25
 1.139020e-01 4.461816e-01 5.464808e-01 1.147152e+00 -1.078494e+00 -3.058540e-01 4.275561e-01 -2.372467e-01 2.144486e-01 -2.755719e-01 -2.456022e-01 1.906749e-01 -6.816871e-03 3.361607e-02 8.551115e-03 -5.319911e-02 4.795468e-02 2.687953e-02 -1.919116e-02 -1.045366e-02 -1.804768e-02 -1.898856e-02 -2.094114e-02 -1.900195e-02 1.288759e-03
<VARIANCE> 25
 2.258129e+02 1.107377e+02 6.011097e+01 7.422237e+01 6.280663e+01 5.247656e+01 4.952099e+01 4.974128e+01 4.927855e+01 3.177033e+01 3.137643e+01 2.600146e+01 3.703289e+00 4.715585e+00 3.576460e+00 3.704768e+00 3.555310e+00 3.572277e+00 3.585193e+00 3.165431e+00 3.523238e+00 2.747246e+00 2.330158e+00 1.969998e+00 4.442291e+00
<GCONST> 1.101469e+02
<STATE> 4
<MEAN> 25
 5.099469e-01 4.785090e-01 7.173669e-01 7.710362e-01 -9.801988e-01 -2.760844e-01 3.152789e-01 -2.829115e-01 3.374822e-02 -3.304463e-01 -4.028631e-01 1.917989e-02 2.640343e-02 -6.027668e-03 1.770690e-02 -5.854334e-02 3.640956e-02 1.049942e-02 -1.750988e-02 -1.584498e-03 -2.114213e-02 -1.002053e-02 -1.901679e-02 -2.684952e-02 6.069757e-02
<VARIANCE> 25
 2.211254e+02 1.118766e+02 6.192802e+01 7.693462e+01 6.137120e+01 5.135070e+01 5.037435e+01 4.959711e+01 4.886922e+01 3.202467e+01 3.066580e+01 2.579261e+01 4.074253e+00 4.833154e+00 3.778787e+00 3.808895e+00 3.507215e+00 3.663200e+00 3.681900e+00 3.149127e+00 3.462596e+00 2.817341e+00 2.355862e+00 1.994020e+00 4.699183e+00
<GCONST> 1.104628e+02
<TRANSP> 5
 0.000000e+00 1.000000e+00 0.000000e+00 0.000000e+00 0.000000e+00
 0.000000e+00 7.408719e-01 2.591280e-01 0.000000e+00 0.000000e+00
 0.000000e+00 0.000000e+00 7.408708e-01 2.591292e-01 0.000000e+00
 0.000000e+00 0.000000e+00 0.000000e+00 8.644389e-01 1.355611e-01
 0.000000e+00 0.000000e+00 0.000000e+00 0.000000e+00 0.000000e+00
<ENDHMM>
~h "s"
<BEGINHMM>
<NUMSTATES> 5
<STATE> 2
<MEAN> 25
 5.577731e+00 -4.481667e+00 3.045431e+00 -3.874320e+00 2.891659e-01 -3.418105e+00 -1.982006e+00 1.592707e+00 -7.808714e-02 8.596550e-01 -4.410211e-01 -6.822558e-02 3.707165e-01 -1.749669e-01 -7.652475e-03 -2.366325e-01 8.199773e-02 -1.596621e-01 -1.302657e-01 -1.320486e-02 -4.744995e-02 6.479290e-02 -5.274340e-02 -4.909854e-02 6.192926e-01
<VARIANCE> 25
 2.395103e+02 1.148510e+02 9.093958e+01 1.093627e+02 9.901656e+01 8.114454e+01 7.291308e+01 5.894172e+01 5.751799e+01 4.540054e+01 3.851818e+01 3.630278e+01 9.423355e+00 6.595343e+00 5.757441e+00 5.732232e+00 5.633996e+00 5.386885e+00 5.114549e+00 4.378539e+00 5.119193e+00 4.129225e+00 3.460997e+00 2.976762e+00 7.377412e+00
<GCONST> 1.193717e+02
<STATE> 3
<MEAN> 25
 6.822266e+00 -5.035322e+00 2.883840e+00 -4.698781e+00 6.478480e-01 -3.975488e+00 -2.421653e+00 1.504533e+00 -2.466802e-01 1.101407e+00 -6.070362e-01 -2.444301e-01 2.859482e-01 -1.221667e-01 -4.854520e-02 -1.935407e-01 9.065163e-02 -1.297931e-01 -1.030829e-01 -2.034511e-02 -4.257854e-02 5.904709e-02 -3.898008e-02 -3.748115e-02 4.846615e-01
<VARIANCE> 25
 2.336254e+02 1.129576e+02 9.454192e+01 1.109276e+02 1.087177e+02 8.323701e+01 7.668854e+01 6.297163e+01 5.934526e+01 4.838305e+01 4.080415e+01 3.866371e+01 1.019756e+01 6.786336e+00 5.997986e+00 6.017811e+00 6.099653e+00 5.657072e+00 5.432102e+00 4.728186e+00 5.378846e+00 4.361481e+00 3.672927e+00 3.148768e+00 7.224813e+00
<GCONST> 1.204957e+02
<STATE> 4
<MEAN> 25
 8.253850e+00 -5.438264e+00 2.107127e+00 -5.426013e+00 1.093354e+00 -4.576337e+00 -2.782947e+00 1.098477e+00 -4.143920e-01 1.353906e+00 -8.060247e-01 -5.107222e-01 1.806323e-01 -5.579558e-02 -1.088645e-01 -9.431806e-02 7.407224e-02 -7.610413e-02 -5.595975e-02 -3.595645e-02 -2.878836e-02 4.453986e-02 -2.210455e-02 -2.934950e-02 2.544159e-01
<VARIANCE> 25
 2.285774e+02 1.082442e+02 9.811617e+01 1.087598e+02 1.196817e+02 8.476351e+01 7.950690e+01 6.830769e+01 6.093509e+01 5.135265e+01 4.443778e+01 4.114238e+01 1.108210e+01 6.869826e+00 6.231522e+00 6.276259e+00 6.690453e+00 5.991523e+00 5.720979e+00 5.189434e+00 5.552691e+00 4.634443e+00 3.898841e+00 3.326354e+00 6.829019e+00
<GCONST> 1.215349e+02
<TRANSP> 5
 0.000000e+00 1.000000e+00 0.000000e+00 0.000000e+00 0.000000e+00
 0.000000e+00 7.532351e-01 2.467649e-01 0.000000e+00 0.000000e+00
 0.000000e+00 0.000000e+00 7.532354e-01 2.467646e-01 0.000000e+00
 0.000000e+00 0.000000e+00 0.000000e+00 8.776112e-01 1.223888e-01
 0.000000e+00 0.000000e+00 0.000000e+00 0.000000e+00 0.000000e+00
<ENDHMM>
~h "t"
<BEGINHMM>
<NUMSTATES> 5
<STATE> 2
<MEAN> 25
 -9.310921e-02 -2.626967e-01 7.726797e-01 3.168174e-01 -6.320940e-01 -9.322022e-01 -3.029364e-03 -6.741837e-02 -6.430989e-02 -3.667006e-01 -1.156989e-01 7.356459e-01 2.728396e-01 -1.832684e-01 7.534548e-02 -1.074399e-01 -1.171891e-02 -1.398070e-01 -8.965870e-02 2.113055e-02 -1.239544e-02 1.729267e-02 -7.884119e-02 -3.838211e-02 3.962888e-01
<VARIANCE> 25
 2.092891e+02 1.010695e+02 6.243401e+01 7.863440e+01 5.733309e+01 5.712851e+01 5.183484e+01 5.834037e+01 4.972896e+01 3.267176e+01 2.892996e+01 2.434801e+01 5.641727e+00 4.124630e+00 3.651258e+00 3.498699e+00 3.881567e+00 3.994500e+00 3.709117e+00 3.465249e+00 4.018339e+00 2.532028e+00 2.482766e+00 2.040583e+00 5.904432e+00
<GCONST> 1.111719e+02
<STATE> 3
<MEAN> 25
 7.447338e-01 -8.879714e-01 9.894090e-01 -7.727266e-02 -6.166636e-01 -1.385544e+00 -3.127767e-01 4.841844e-02 -7.028256e-02 -3.169864e-01 -3.989914e-01 5.892496e-01 2.772093e-01 -1.844441e-01 4.495423e-02 -1.432730e-01 1.613153e-02 -1.141733e-01 -9.590772e-02 2.226210e-02 -7.269122e-04 2.716651e-02 -7.334273e-02 -4.724409e-02 4.057118e-01
<VARIANCE> 25
 2.039869e+02 1.073596e+02 6.487818e+01 8.526696e+01 5.944521e+01 5.946779e+01 5.613094e+01 5.964118e+01 4.962519e+01 3.406757e+01 2.919895e+01 2.533058e+01 5.641274e+00 4.322111e+00 3.737197e+00 3.703180e+00 3.991151e+00 4.225077e+00 3.871842e+00 3.526061e+00 4.111004e+00 2.639052e+00 2.555958e+00 2.075697e+00 5.827427e+00
<GCONST> 1.119608e+02
<STATE> 4
<MEAN> 25
 1.314532e+00 -1.243512e+00 8.652557e-01 -3.933245e-01 -6.081169e-01 -1.674654e+00 -5.984320e-01 6.670275e-02 -2.307903e-01 -4.540847e-01 -7.863508e-01 1.209023e-01 1.730047e-01 -1.351809e-01 4.872851e-03 -1.131155e-01 4.493343e-02 -5.449148e-02 -5.605099e-02 2.825674e-02 1.586831e-02 2.245314e-02 -5.403519e-02 -4.659157e-02 2.732100e-01
<VARIANCE> 25
 1.821561e+02 1.019166e+02 6.037079e+01 9.084344e+01 5.678871e+01 5.569598e+01 5.736243e+01 5.637411e+01 4.490073e+01 3.441647e+01 2.764169e+01 2.568380e+01 4.967153e+00 4.106471e+00 3.507635e+00 3.730834e+00 3.799623e+00 4.020614e+00 3.810313e+00 3.421484e+00 3.802227e+00 2.641375e+00 2.506641e+00 2.058237e+00 4.986837e+00
<GCONST> 1.108700e+02
<TRANSP> 5
 0.000000e+00 1.000000e+00 0.000000e+00 0.000000e+00 0.000000e+00
 0.000000e+00 7.403157e-01 2.596843e-01 0.000000e+00 0.000000e+00
 0.000000e+00 0.000000e+00 7.403153e-01 2.596847e-01 0.000000e+00
 0.000000e+00 0.000000e+00 0.000000e+00 8.709922e-01 1.290078e-01
 0.000000e+00 0.000000e+00 0.000000e+00 0.000000e+00 0.000000e+00
<ENDHMM>
~h "w"
<BEGINHMM>
<NUMSTATES> 5
<STATE> 2
<MEAN> 25
 8.954251e+00 -3.349094e+00 -1.944358e+00 -2.909687e+00 7.992809e-01 -1.946910e+00 -2.547535e+00 -8.425651e-01 -1.344705e+00 7.466545e-01 -8.048196e-01 -2.483251e+00 -8.583929e-02 -1.119781e-02 -9.923202e-03 2.067807e-01 -1.482661e-01 1.066599e-02 1.056358e-01 -2.165639e-02 1.076516e-02 -1.568149e-02 -2.149656e-02 -7.099126e-03 -2.435885e-01
<VARIANCE> 25
 2.284586e+02 1.147009e+02 7.130989e+01 1.021685e+02 9.600582e+01 6.725288e+01 6.026180e+01 5.941808e+01 6.366540e+01 4.795874e+01 4.687894e+01 4.091124e+01 7.088634e+00 6.198126e+00 5.443299e+00 5.168614e+00 4.976401e+00 5.347710e+00 4.693758e+00 4.847580e+00 5.143752e+00 3.799769e+00 3.688211e+00 3.041872e+00 6.047962e+00
<GCONST> 1.182692e+02
<STATE> 3
<MEAN> 25
 8.588469e+00 -3.381267e+00 -1.921324e+00 -2.089659e+00 1.872529e-01 -1.894363e+00 -2.129510e+00 -9.358158e-01 -1.281979e+00 6.801552e-01 -9.178956e-01 -2.476666e+00 -9.090980e-02 -5.343121e-03 1.222662e-02 1.980733e-01 -1.579484e-01 1.438693e-02 1.100714e-01 -3.112800e-02 1.445729e-02 -1.439571e-02 -2.742469e-02 1.148084e-02 -2.498200e-01
<VARIANCE> 25
 2.281137e+02 1.162021e+02 6.764774e+01 9.784817e+01 9.262307e+01 6.521893e+01 5.687445e+01 5.846954e+01 6.286042e+01 4.678891e+01 4.622384e+01 4.058474e+01 6.515396e+00 5.978696e+00 5.250841e+00 4.960355e+00 4.910113e+00 5.234235e+00 4.525712e+00 4.776013e+00 5.035592e+00 3.702386e+00 3.603773e+00 2.976822e+00 5.887653e+00
<GCONST> 1.175823e+02
<STATE> 4
<MEAN> 25
 8.123178e+00 -3.307363e+00 -1.785603e+00 -8.741515e-01 -7.899054e-01 -1.826485e+00 -1.431218e+00 -1.294048e+00 -1.192689e+00 5.458168e-01 -1.142779e+00 -2.407440e+00 -1.104606e-01 3.157269e-02 4.858264e-02 1.703828e-01 -1.428883e-01 2.157000e-02 9.597591e-02 -4.148864e-02 1.190738e-02 -2.748345e-02 -3.124340e-02 4.015012e-02 -2.539245e-01
<VARIANCE> 25
 2.283043e+02 1.163023e+02 6.289235e+01 8.945979e+01 8.726630e+01 6.164852e+01 5.336809e+01 5.527914e+01 6.076666e+01 4.433569e+01 4.376752e+01 3.912944e+01 5.640407e+00 5.676529e+00 4.849183e+00 4.659160e+00 4.816587e+00 4.991802e+00 4.314127e+00 4.511423e+00 4.841010e+00 3.581501e+00 3.394553e+00 2.842949e+00 5.488786e+00
<GCONST> 1.162486e+02
<TRANSP> 5
 0.000000e+00 1.000000e+00 0.000000e+00 0.000000e+00 0.000000e+00
 0.000000e+00 7.522316e-01 2.477684e-01 0.000000e+00 0.000000e+00
 0.000000e+00 0.000000e+00 7.522311e-01 2.477690e-01 0.000000e+00
 0.000000e+00 0.000000e+00 0.000000e+00 8.780769e-01 1.219231e-01
 0.000000e+00 0.000000e+00 0.000000e+00 0.000000e+00 0.000000e+00
<ENDHMM>
~h "z"
<BEGINHMM>
<NUMSTATES> 5
<STATE> 2
<MEAN> 25
 -8.631567e+00 1.003954e+00 -1.218453e+00 2.604511e+00 9.330388e-01 1.154913e+00 1.576931e+00 3.423647e+00 3.438415e+00 8.479369e-01 1.360745e+00 1.283677e+00 1.938369e-01 8.558759e-03 5.545727e-02 -1.380568e-01 -2.659178e-03 -1.052113e-01 -1.189158e-01 -7.815516e-02 -1.178478e-01 -6.494261e-02 -1.180782e-01 -2.906516e-02 2.444081e-01
<VARIANCE> 25
 3.260489e+01 1.051629e+01 1.535402e+01 2.708939e+01 1.834841e+01 1.950645e+01 3.095861e+01 1.862801e+01 2.342677e+01 1.287619e+01 1.679280e+01 9.156599e+00 1.422265e+00 8.535389e-01 1.373988e+00 1.100522e+00 1.324500e+00 1.571119e+00 1.821101e+00 1.688049e+00 2.457510e+00 1.398130e+00 1.327915e+00 1.080886e+00 2.012462e+00
<GCONST> 8.555539e+01
<STATE> 3
<MEAN> 25
 -7.592214e+00 1.086698e+00 -9.225528e-01 1.898526e+00 9.763383e-01 6.873097e-01 9.433638e-01 3.021050e+00 2.881556e+00 5.493098e-01 8.539073e-01 1.137447e+00 2.254649e-01 1.866871e-02 6.297292e-02 -1.505404e-01 1.321683e-02 -9.304834e-02 -1.334152e-01 -8.756385e-02 -1.125386e-01 -5.715057e-02 -9.934795e-02 -3.074629e-02 2.890377e-01
<VARIANCE> 25
 4.222581e+01 1.404405e+01 1.840577e+01 3.164115e+01 2.167576e+01 2.262982e+01 3.462054e+01 2.269730e+01 2.464384e+01 1.448306e+01 1.861814e+01 1.008832e+01 1.759214e+00 1.123178e+00 1.645484e+00 1.326226e+00 1.640547e+00 1.776107e+00 2.078829e+00 1.905139e+00 2.754705e+00 1.600636e+00 1.481302e+00 1.183285e+00 2.268626e+00
<GCONST> 8.944577e+01
<STATE> 4
<MEAN> 25
 -4.343634e+00 9.906709e-01 9.617104e-02 2.130101e-01 1.032695e+00 -3.246744e-01 -2.718542e-01 1.839877e+00 1.464015e+00 2.512527e-01 2.184062e-01 8.327356e-01 3.123070e-01 -1.312302e-02 7.931904e-02 -1.681986e-01 3.040072e-02 -6.837740e-02 -1.174989e-01 -1.278899e-01 -1.133162e-01 -2.397060e-02 -6.227878e-02 -3.384030e-02 4.168471e-01
<VARIANCE> 25
 9.122183e+01 2.493962e+01 3.001812e+01 5.249119e+01 3.307940e+01 3.997844e+01 4.732116e+01 3.989113e+01 2.989697e+01 2.179967e+01 2.338297e+01 1.424114e+01 2.699811e+00 2.145026e+00 2.144936e+00 2.261960e+00 2.572544e+00 2.641249e+00 2.876229e+00 2.889959e+00 3.140248e+00 2.555660e+00 2.034849e+00 1.579652e+00 3.125504e+00
<GCONST> 9.981665e+01
<TRANSP> 5
 0.000000e+00 1.000000e+00 0.000000e+00 0.000000e+00 0.000000e+00
 0.000000e+00 8.026732e-01 1.973268e-01 0.000000e+00 0.000000e+00
 0.000000e+00 0.000000e+00 8.026728e-01 1.973272e-01 0.000000e+00
 0.000000e+00 0.000000e+00 0.000000e+00 9.356171e-01 6.438292e-02
 0.000000e+00 0.000000e+00 0.000000e+00 0.000000e+00 0.000000e+00
<ENDHMM>
~h "ae"
<BEGINHMM>
<NUMSTATES> 5
<STATE> 2
<MEAN> 25
 1.449406e+01 -9.347730e+00 2.589465e-01 -4.826295e+00 -1.188395e+00 -3.592976e+00 1.670371e-01 7.590655e-01 -2.443461e+00 1.510260e+00 -2.418044e+00 -2.768302e+00 1.553369e-01 4.092019e-02 -2.305645e-02 6.696595e-02 -1.360096e-01 2.059178e-02 8.934342e-02 -2.862236e-02 -1.951839e-01 5.830545e-04 -1.443067e-02 -8.960574e-02 -2.587879e-03
<VARIANCE> 25
 8.123174e+01 1.528231e+02 9.308559e+01 1.179299e+02 1.055872e+02 6.696138e+01 1.245573e+02 1.018360e+02 8.347102e+01 4.571465e+01 3.748135e+01 3.267902e+01 5.561164e+00 8.481779e+00 7.498563e+00 8.172091e+00 7.445274e+00 6.206640e+00 8.461730e+00 6.557918e+00 5.364511e+00 4.176861e+00 3.611084e+00 2.459449e+00 5.488142e+00
<GCONST> 1.211609e+02
<STATE> 3
<MEAN> 25
 1.502828e+01 -9.060257e+00 1.677075e-01 -4.661254e+00 -1.623173e+00 -3.475444e+00 3.417718e-01 5.672863e-01 -3.094691e+00 1.560855e+00 -2.452976e+00 -3.058179e+00 1.383363e-01 1.151898e-01 -3.239185e-02 2.394894e-02 -1.024435e-01 4.227305e-02 1.584863e-02 -7.265653e-02 -1.665769e-01 2.723807e-02 -8.803300e-03 -6.940769e-02 -4.601431e-02
<VARIANCE> 25
 7.252090e+01 1.574390e+02 9.268095e+01 1.155084e+02 1.070608e+02 6.339268e+01 1.283988e+02 1.045624e+02 8.402854e+01 4.582713e+01 3.757932e+01 3.196856e+01 5.002425e+00 8.721816e+00 7.397965e+00 8.226821e+00 7.580919e+00 5.903986e+00 8.636815e+00 6.818400e+00 5.262702e+00 4.036939e+00 3.552691e+00 2.393285e+00 5.170135e+00
<GCONST> 1.208439e+02
<STATE> 4
<MEAN> 25
 1.562372e+01 -8.184107e+00 -1.387049e-01 -4.665314e+00 -1.963206e+00 -3.164970e+00 1.518432e-01 -3.836599e-02 -3.723562e+00 1.784339e+00 -2.458442e+00 -3.318717e+00 8.707762e-02 2.144127e-01 -5.039004e-02 -4.165445e-02 -3.153094e-02 7.766954e-02 -1.016078e-01 -1.299986e-01 -9.492601e-02 5.794457e-02 1.708351e-03 -3.467337e-02 -1.186993e-01
<VARIANCE> 25
 6.458366e+01 1.625759e+02 9.224853e+01 1.147017e+02 1.096045e+02 5.963750e+01 1.366563e+02 1.074355e+02 8.298653e+01 4.617782e+01 3.781676e+01 3.143191e+01 4.304883e+00 8.922006e+00 7.200459e+00 8.252351e+00 7.733164e+00 5.493900e+00 8.830950e+00 7.119666e+00 5.096776e+00 3.862086e+00 3.470744e+00 2.356013e+00 4.847662e+00
<GCONST> 1.204670e+02
<TRANSP> 5
 0.000000e+00 1.000000e+00 0.000000e+00 0.000000e+00 0.000000e+00
 0.000000e+00 7.204763e-01 2.795237e-01 0.000000e+00 0.000000e+00
 0.000000e+00 0.000000e+00 7.204759e-01 2.795241e-01 0.000000e+00
 0.000000e+00 0.000000e+00 0.000000e+00 8.391604e-01 1.608396e-01
 0.000000e+00 0.000000e+00 0.000000e+00 0.000000e+00 0.000000e+00
<ENDHMM>
~h "ah"
<BEGINHMM>
<NUMSTATES> 5
<STATE> 2
<MEAN> 25
 8.069093e+00 -9.918793e-01 -9.989873e-01 -2.870768e+00 4.289267e-02 -1.132400e+00 -3.405053e+00 -2.474902e+00 -1.109849e+00 1.032470e+00 -1.508281e+00 -1.352691e+00 -1.809143e-01 1.187383e-01 -2.567318e-02 1.221019e-01 -6.184767e-02 8.672924e-02 5.740710e-02 -7.170507e-02 -2.033498e-03 -5.439809e-02 4.350962e-02 2.134672e-02 -2.969671e-01
<VARIANCE> 25
 1.861217e+02 1.078197e+02 7.639950e+01 1.179489e+02 8.991893e+01 6.495143e+01 8.020925e+01 7.325323e+01 5.470762e+01 5.313604e+01 3.766684e+01 3.451522e+01 5.525918e+00 6.889870e+00 5.336904e+00 6.357883e+00 7.016167e+00 4.454690e+00 5.398371e+00 5.566284e+00 4.073493e+00 3.641132e+00 3.402246e+00 2.921504e+00 5.415463e+00
<GCONST> 1.181476e+02
<STATE> 3
<MEAN> 25
 7.370129e+00 -5.294568e-01 -1.065536e+00 -2.383478e+00 -2.272815e-01 -7.997854e-01 -3.142720e+00 -2.738849e+00 -1.150603e+00 8.110658e-01 -1.345491e+00 -1.278741e+00 -1.919969e-01 1.272972e-01 -4.242865e-03 1.487014e-01 -8.301046e-02 7.140559e-02 8.920217e-02 -5.703479e-02 -1.476682e-02 -6.888384e-02 4.354541e-02 1.779149e-02 -2.999551e-01
<VARIANCE> 25
 1.908627e+02 1.050653e+02 7.434850e+01 1.145238e+02 8.805793e+01 6.318090e+01 7.568449e+01 7.253467e+01 5.284009e+01 5.153596e+01 3.645508e+01 3.368852e+01 5.107791e+00 6.633470e+00 5.002391e+00 5.928009e+00 6.720457e+00 4.273528e+00 5.101224e+00 5.388296e+00 3.972249e+00 3.496799e+00 3.328820e+00 2.842435e+00 5.263350e+00
<GCONST> 1.172831e+02
<STATE> 4
<MEAN> 25
 6.137163e+00 1.231569e-01 -1.069406e+00 -1.517444e+00 -6.143770e-01 -4.380233e-01 -2.518501e+00 -2.928689e+00 -1.321292e+00 4.444144e-01 -1.117682e+00 -1.233237e+00 -2.154444e-01 1.370385e-01 2.113268e-02 1.676173e-01 -9.164989e-02 5.298364e-02 1.132130e-01 -3.114165e-02 -2.276514e-02 -7.509504e-02 4.100645e-02 1.816080e-02 -3.078623e-01
<VARIANCE> 25
 1.977315e+02 9.892471e+01 7.022272e+01 1.043987e+02 8.175101e+01 5.919310e+01 6.938313e+01 6.998967e+01 5.016840e+01 4.812588e+01 3.418320e+01 3.240094e+01 4.533354e+00 6.076402e+00 4.454948e+00 5.232475e+00 6.082188e+00 3.967162e+00 4.663013e+00 5.034801e+00 3.795116e+00 3.278561e+00 3.161475e+00 2.699752e+00 4.801918e+00
<GCONST> 1.155383e+02
<TRANSP> 5
 0.000000e+00 1.000000e+00 0.000000e+00 0.000000e+00 0.000000e+00
 0.000000e+00 7.414089e-01 2.585911e-01 0.000000e+00 0.000000e+00
 0.000000e+00 0.000000e+00 7.414090e-01 2.585911e-01 0.000000e+00
 0.000000e+00 0.000000e+00 0.000000e+00 8.662872e-01 1.337128e-01
 0.000000e+00 0.000000e+00 0.000000e+00 0.000000e+00 0.000000e+00
<ENDHMM>
~h "ao"
<BEGINHMM>
<NUMSTATES> 5
<STATE> 2
<MEAN> 25
 -4.533103e+00 9.288979e-01 4.586988e-01 1.507434e+00 1.029937e+00 1.136613e+00 5.140012e-01 9.316007e-01 2.325048e+00 2.005218e-01 5.531311e-01 1.088914e+00 6.421264e-01 -1.990728e-01 6.538440e-02 -2.692164e-01 -1.395628e-02 -9.801888e-02 -1.710162e-01 -8.758079e-02 -2.613507e-02 5.047308e-02 -1.000828e-01 -1.143913e-01 7.756833e-01
<VARIANCE> 25
 2.225539e+02 7.931922e+01 4.688095e+01 8.161346e+01 3.507338e+01 3.719993e+01 5.312895e+01 4.015231e+01 3.003204e+01 2.711098e+01 2.714152e+01 2.579274e+01 5.552920e+00 4.905360e+00 3.797713e+00 3.371821e+00 2.382641e+00 3.493841e+00 3.778478e+00 2.620855e+00 2.662357e+00 2.688134e+00 2.248950e+00 2.108666e+00 6.552368e+00
<GCONST> 1.077386e+02
<STATE> 3
<MEAN> 25
 -1.849806e+00 5.177015e-02 6.751027e-01 3.118713e-01 9.894077e-01 7.399614e-01 -1.966995e-01 5.625956e-01 2.201465e+00 4.117276e-01 1.555879e-01 5.961678e-01 6.912255e-01 -2.313275e-01 5.286036e-02 -3.176513e-01 -2.152734e-03 -1.002401e-01 -1.849816e-01 -8.611257e-02 -3.480976e-02 5.872017e-02 -9.694587e-02 -1.254018e-01 8.621988e-01
<VARIANCE> 25
 2.515286e+02 9.659326e+01 5.615941e+01 9.686668e+01 4.402957e+01 4.379354e+01 6.084114e+01 4.708705e+01 3.402939e+01 3.099909e+01 2.939380e+01 3.001607e+01 6.636939e+00 5.838016e+00 4.531958e+00 3.905106e+00 2.880252e+00 4.129641e+00 4.314426e+00 3.048486e+00 3.030025e+00 3.038359e+00 2.517759e+00 2.409968e+00 7.244361e+00
<GCONST> 1.115011e+02
<STATE> 4
<MEAN> 25
 2.719211e+00 -1.550360e+00 8.307526e-01 -2.036653e+00 9.839267e-01 5.403967e-02 -1.412563e+00 -1.830192e-02 1.820821e+00 7.719499e-01 -4.522158e-01 -2.480646e-01 6.277943e-01 -2.334733e-01 1.570110e-02 -3.267000e-01 1.873961e-02 -9.912933e-02 -1.648329e-01 -6.677007e-02 -5.963185e-02 6.025208e-02 -6.635371e-02 -1.198190e-01 8.316596e-01
<VARIANCE> 25
 2.716794e+02 1.139993e+02 6.975888e+01 1.140468e+02 6.169929e+01 5.517661e+01 7.099757e+01 5.930564e+01 4.135492e+01 3.777661e+01 3.301758e+01 3.666636e+01 8.320436e+00 6.772782e+00 5.463468e+00 4.583687e+00 3.878842e+00 5.054051e+00 5.044830e+00 3.807552e+00 3.684768e+00 3.678325e+00 2.971615e+00 2.921105e+00 7.650077e+00
<GCONST> 1.161861e+02
<TRANSP> 5
 0.000000e+00 1.000000e+00 0.000000e+00 0.000000e+00 0.000000e+00
 0.000000e+00 7.469732e-01 2.530269e-01 0.000000e+00 0.000000e+00
 0.000000e+00 0.000000e+00 7.469731e-01 2.530270e-01 0.000000e+00
 0.000000e+00 0.000000e+00 0.000000e+00 8.721768e-01 1.278231e-01
 0.000000e+00 0.000000e+00 0.000000e+00 0.000000e+00 0.000000e+00
<ENDHMM>
~h "aw"
<BEGINHMM>
<NUMSTATES> 5
<STATE> 2
<MEAN> 25
 1.133443e+01 -2.251899e+00 -3.000774e+00 -5.508122e+00 1.433267e+00 1.732352e+00 -2.004423e+00 -3.720467e+00 -2.154272e+00 1.402597e+00 -2.280504e-01 -1.430870e+00 -3.366476e-01 6.558989e-02 -5.480602e-02 1.224990e-01 -4.845783e-02 -2.880540e-03 1.629161e-02 8.968546e-02 7.347363e-02 -3.321729e-02 4.165547e-02 2.905753e-03 -4.122239e-01
<VARIANCE> 25
 2.174330e+02 6.220066e+01 7.871286e+01 1.262438e+02 6.165568e+01 5.690520e+01 8.833096e+01 6.146336e+01 5.454416e+01 3.927338e+01 3.075464e+01 2.884242e+01 4.263910e+00 4.462698e+00 4.666358e+00 5.151872e+00 4.831553e+00 3.018440e+00 5.613382e+00 4.594455e+00 4.170866e+00 4.321139e+00 3.617985e+00 2.874015e+00 4.557292e+00
<GCONST> 1.146887e+02
<STATE> 3
<MEAN> 25
 9.330286e+00 -1.858185e+00 -3.153643e+00 -4.732776e+00 1.101072e+00 1.620044e+00 -1.881319e+00 -3.205523e+00 -1.770489e+00 1.170439e+00 -5.037823e-02 -1.405751e+00 -4.100047e-01 8.249423e-02 1.224037e-04 1.494109e-01 -6.223504e-02 -3.303255e-02 1.669646e-02 1.041079e-01 6.728390e-02 -5.896634e-02 2.277969e-02 1.341921e-02 -4.558921e-01
<VARIANCE> 25
 2.236262e+02 5.620223e+01 6.836102e+01 1.177427e+02 5.420061e+01 4.909720e+01 7.576144e+01 5.292966e+01 4.681799e+01 3.546992e+01 2.751972e+01 2.678938e+01 3.830197e+00 3.878087e+00 4.160934e+00 4.541024e+00 4.243948e+00 2.605889e+00 5.052824e+00 3.995049e+00 3.661966e+00 3.746506e+00 3.232340e+00 2.723878e+00 4.072950e+00
<GCONST> 1.118239e+02
<STATE> 4
<MEAN> 25
 4.884238e+00 -9.698483e-01 -2.633103e+00 -2.977894e+00 1.504561e-01 9.546703e-01 -1.641987e+00 -2.236173e+00 -1.249769e+00 3.804378e-01 -1.506423e-02 -1.276877e+00 -4.248409e-01 9.612596e-02 7.085329e-02 1.999262e-01 -8.760253e-02 -7.531317e-02 4.449894e-02 9.630553e-02 3.516411e-02 -8.240528e-02 -8.633833e-03 7.809494e-03 -4.405021e-01
<VARIANCE> 25
 2.002697e+02 4.431764e+01 4.854235e+01 1.033450e+02 4.077892e+01 3.779670e+01 5.360491e+01 3.639587e+01 3.064158e+01 2.767669e+01 2.249681e+01 2.132987e+01 2.755067e+00 2.736250e+00 3.151271e+00 3.516294e+00 2.942024e+00 1.948513e+00 3.889483e+00 2.879936e+00 2.617437e+00 2.698722e+00 2.523712e+00 2.301180e+00 3.070232e+00
<GCONST> 1.048147e+02
<TRANSP> 5
 0.000000e+00 1.000000e+00 0.000000e+00 0.000000e+00 0.000000e+00
 0.000000e+00 8.118493e-01 1.881507e-01 0.000000e+00 0.000000e+00
 0.000000e+00 0.000000e+00 8.118492e-01 1.881508e-01 0.000000e+00
 0.000000e+00 0.000000e+00 0.000000e+00 9.449797e-01 5.502035e-02
 0.000000e+00 0.000000e+00 0.000000e+00 0.000000e+00 0.000000e+00
<ENDHMM>
~h "ay"
<BEGINHMM>
<NUMSTATES> 5
<STATE> 2
<MEAN> 25
 1.227338e+01 -8.568240e+00 6.744888e-01 -6.072549e+00 6.224492e-01 -3.590479e+00 -1.850100e+00 5.516377e-01 2.704332e-03 1.859037e+00 -2.092601e+00 -1.385852e+00 1.893313e-01 -1.286796e-01 -6.162995e-02 2.960619e-02 -7.304910e-02 2.813432e-04 1.392348e-01 3.223683e-02 -1.284879e-01 -2.219467e-02 -3.988834e-02 -1.080347e-01 1.544714e-01
<VARIANCE> 25
 1.225291e+02 1.394426e+02 9.798621e+01 1.303456e+02 1.002480e+02 8.144542e+01 1.155384e+02 9.286913e+01 7.392839e+01 4.699823e+01 3.826952e+01 3.652106e+01 7.150385e+00 7.796478e+00 7.364322e+00 7.903515e+00 7.063160e+00 7.035622e+00 7.579456e+00 5.765692e+00 5.674654e+00 4.548994e+00 3.765895e+00 2.808997e+00 6.880383e+00
<GCONST> 1.221385e+02
<STATE> 3
<MEAN> 25
 1.288614e+01 -8.979567e+00 4.953076e-01 -5.812143e+00 2.536294e-01 -3.609057e+00 -1.261829e+00 6.822988e-01 -5.386680e-01 1.746309e+00 -2.213676e+00 -1.768068e+00 1.689813e-01 -1.030818e-01 -4.184474e-02 8.302467e-02 -1.173834e-01 -4.613407e-03 1.694556e-01 3.756366e-02 -1.667738e-01 -3.331272e-02 -3.266734e-02 -1.089543e-01 9.813850e-02
<VARIANCE> 25
 1.099313e+02 1.417988e+02 9.603356e+01 1.276649e+02 1.016129e+02 7.793901e+01 1.181641e+02 9.471071e+01 7.694129e+01 4.678352e+01 3.791520e+01 3.556602e+01 6.844692e+00 7.937674e+00 7.512269e+00 8.024384e+00 7.151923e+00 6.888757e+00 7.845078e+00 5.942823e+00 5.599229e+00 4.516131e+00 3.750764e+00 2.730222e+00 6.510771e+00
<GCONST> 1.219741e+02
<STATE> 4
<MEAN> 25
 1.375013e+01 -9.346352e+00 2.356382e-01 -5.187700e+00 -5.176682e-01 -3.669148e+00 -2.688919e-01 7.712504e-01 -1.516127e+00 1.580937e+00 -2.357653e+00 -2.287736e+00 1.646389e-01 -4.126541e-02 -2.382453e-02 1.019751e-01 -1.490486e-01 7.438427e-04 1.514837e-01 1.195310e-02 -1.977260e-01 -2.556897e-02 -2.190626e-02 -1.038242e-01 4.385366e-02
<VARIANCE> 25
 9.611800e+01 1.469861e+02 9.434823e+01 1.235274e+02 1.047225e+02 7.189114e+01 1.221752e+02 9.752102e+01 8.066992e+01 4.571431e+01 3.775790e+01 3.374886e+01 6.280674e+00 8.149948e+00 7.593362e+00 8.062130e+00 7.238040e+00 6.543601e+00 8.187586e+00 6.193231e+00 5.463815e+00 4.318128e+00 3.692517e+00 2.577322e+00 5.978696e+00
<GCONST> 1.215773e+02
<TRANSP> 5
 0.000000e+00 1.000000e+00 0.000000e+00 0.000000e+00 0.000000e+00
 0.000000e+00 7.204806e-01 2.795195e-01 0.000000e+00 0.000000e+00
 0.000000e+00 0.000000e+00 7.204802e-01 2.795199e-01 0.000000e+00
 0.000000e+00 0.000000e+00 0.000000e+00 8.391684e-01 1.608315e-01
 0.000000e+00 0.000000e+00 0.000000e+00 0.000000e+00 0.000000e+00
<ENDHMM>
~h "eh"
<BEGINHMM>
<NUMSTATES> 5
<STATE> 2
<MEAN> 25
 8.088753e+00 -3.014575e+00 -2.163617e+00 -7.634666e-01 -1.456457e+00 -1.657595e+00 -7.644588e-01 -9.271051e-01 -8.737204e-01 6.771885e-01 -1.107607e+00 -1.979311e+00 -1.316161e-01 1.385937e-01 8.639415e-02 1.315760e-01 -1.121994e-01 6.294742e-02 7.752328e-02 -8.424377e-02 -1.209090e-02 -6.962377e-02 -1.927688e-02 4.580475e-02 -2.903087e-01
<VARIANCE> 25
 2.262608e+02 1.305314e+02 5.995764e+01 8.003555e+01 8.514561e+01 6.600970e+01 4.745793e+01 5.825689e+01 6.037524e+01 4.262360e+01 4.433080e+01 3.658796e+01 4.952157e+00 5.873834e+00 4.631384e+00 4.520890e+00 4.916859e+00 5.036485e+00 4.096974e+00 4.553057e+00 4.811435e+00 3.633499e+00 3.369209e+00 2.665323e+00 5.673577e+00
<GCONST> 1.158589e+02
<STATE> 3
<MEAN> 25
 7.525414e+00 -2.400381e+00 -1.785692e+00 -2.666661e-01 -1.866012e+00 -1.407597e+00 -4.721811e-01 -1.261928e+00 -9.382685e-01 3.816090e-01 -1.177861e+00 -1.780348e+00 -1.492524e-01 1.644212e-01 1.043916e-01 1.212157e-01 -9.776381e-02 6.468217e-02 6.251322e-02 -9.241942e-02 -1.571835e-02 -7.972662e-02 -1.539317e-02 5.525594e-02 -2.951313e-01
<VARIANCE> 25
 2.277284e+02 1.319694e+02 5.880472e+01 7.591689e+01 8.133041e+01 6.447955e+01 4.523663e+01 5.650798e+01 5.862233e+01 4.190667e+01 4.248121e+01 3.573188e+01 4.382411e+00 5.767053e+00 4.405833e+00 4.364696e+00 4.779355e+00 4.857823e+00 4.002326e+00 4.352491e+00 4.650856e+00 3.528282e+00 3.212884e+00 2.615328e+00 5.335168e+00
<GCONST> 1.149938e+02
<STATE> 4
<MEAN> 25
 6.956118e+00 -1.512218e+00 -1.201592e+00 4.295275e-01 -2.425336e+00 -1.143209e+00 -1.353037e-01 -1.850219e+00 -1.108245e+00 -8.867086e-02 -1.269400e+00 -1.558225e+00 -1.850442e-01 1.960052e-01 1.159615e-01 1.075934e-01 -6.823565e-02 6.642140e-02 4.870351e-02 -8.285343e-02 -2.807429e-02 -8.108645e-02 -4.861870e-03 5.368303e-02 -3.101948e-01
<VARIANCE> 25
 2.285226e+02 1.317614e+02 5.849724e+01 7.021476e+01 7.855942e+01 6.249011e+01 4.343117e+01 5.368540e+01 5.666395e+01 4.034417e+01 3.964933e+01 3.348650e+01 3.784547e+00 5.695109e+00 4.118497e+00 4.192926e+00 4.607555e+00 4.624172e+00 3.925123e+00 4.050175e+00 4.419969e+00 3.385613e+00 2.981001e+00 2.512214e+00 4.819439e+00
<GCONST> 1.137954e+02
<TRANSP> 5
 0.000000e+00 1.000000e+00 0.000000e+00 0.000000e+00 0.000000e+00
 0.000000e+00 7.472513e-01 2.527486e-01 0.000000e+00 0.000000e+00
 0.000000e+00 0.000000e+00 7.472511e-01 2.527489e-01 0.000000e+00
 0.000000e+00 0.000000e+00 0.000000e+00 8.711351e-01 1.288649e-01
 0.000000e+00 0.000000e+00 0.000000e+00 0.000000e+00 0.000000e+00
<ENDHMM>
~h "er"
<BEGINHMM>
<NUMSTATES> 5
<STATE> 2
<MEAN> 25
 9.978101e+00 -6.045447e+00 3.023707e+00 -5.289926e+00 4.661918e-01 -5.897620e+00 -2.997209e+00 1.253333e+00 -2.233710e-02 1.229822e+00 -1.221793e+00 -6.127235e-01 1.137907e-01 5.164046e-03 -8.617125e-02 -2.954847e-02 3.595008e-02 -4.771369e-02 -5.104327e-02 -4.219246e-02 5.046090e-03 4.907925e-02 -5.035545e-02 5.969383e-03 6.100251e-02
<VARIANCE> 25
 1.940721e+02 1.062617e+02 1.024913e+02 1.229158e+02 1.149177e+02 9.075131e+01 9.503824e+01 7.541933e+01 5.528745e+01 5.948179e+01 4.977070e+01 4.747808e+01 1.300508e+01 7.599409e+00 6.747750e+00 7.244333e+00 8.582440e+00 6.652644e+00 6.911065e+00 6.142623e+00 5.543116e+00 5.391346e+00 4.468567e+00 4.092189e+00 6.130091e+00
<GCONST> 1.237106e+02
<STATE> 3
<MEAN> 25
 1.034815e+01 -5.970613e+00 2.602085e+00 -5.293884e+00 6.143594e-01 -5.994985e+00 -3.182235e+00 1.066161e+00 1.057468e-02 1.413371e+00 -1.419057e+00 -5.871266e-01 8.003601e-02 2.951203e-02 -1.193515e-01 1.207523e-02 4.052962e-02 -4.432080e-03 -4.654971e-02 -4.984105e-02 1.309093e-02 4.542149e-02 -5.182216e-02 8.884361e-03 -4.619046e-02
<VARIANCE> 25
 1.878186e+02 1.033737e+02 1.038575e+02 1.228407e+02 1.185947e+02 8.866707e+01 9.356748e+01 7.523890e+01 5.606300e+01 6.089837e+01 5.085559e+01 4.631326e+01 1.316435e+01 7.613667e+00 6.918086e+00 7.537827e+00 9.002295e+00 6.674374e+00 6.918308e+00 6.223397e+00 5.562750e+00 5.401373e+00 4.531444e+00 4.106966e+00 6.168985e+00
<GCONST> 1.238605e+02
<STATE> 4
<MEAN> 25
 1.090471e+01 -5.660200e+00 1.583233e+00 -5.003071e+00 7.983104e-01 -5.848333e+00 -3.353609e+00 5.279031e-01 1.875778e-02 1.569596e+00 -1.666340e+00 -6.729715e-01 5.565807e-02 5.010385e-02 -1.511346e-01 3.554720e-02 4.972826e-02 5.836383e-02 -5.088721e-02 -6.343034e-02 5.177520e-03 4.063446e-02 -4.479959e-02 1.044667e-03 -1.492209e-01
<VARIANCE> 25
 1.799758e+02 1.007275e+02 1.037292e+02 1.222981e+02 1.205258e+02 8.708772e+01 9.024452e+01 7.749407e+01 5.726874e+01 6.162988e+01 5.100713e+01 4.369090e+01 1.274309e+01 7.575847e+00 7.099647e+00 7.939841e+00 9.438211e+00 6.720240e+00 6.719112e+00 6.411189e+00 5.475162e+00 5.290226e+00 4.506538e+00 4.036166e+00 6.466168e+00
<GCONST> 1.238382e+02
<TRANSP> 5
 0.000000e+00 1.000000e+00 0.000000e+00 0.000000e+00 0.000000e+00
 0.000000e+00 7.548341e-01 2.451659e-01 0.000000e+00 0.000000e+00
 0.000000e+00 0.000000e+00 7.548342e-01 2.451657e-01 0.000000e+00
 0.000000e+00 0.000000e+00 0.000000e+00 8.796633e-01 1.203367e-01
 0.000000e+00 0.000000e+00 0.000000e+00 0.000000e+00 0.000000e+00
<ENDHMM>
~h "ey"
<BEGINHMM>
<NUMSTATES> 5
<STATE> 2
<MEAN> 25
 -1.209932e+00 5.221359e-01 4.786874e+00 1.507856e-01 -2.874828e+00 -4.500749e-01 3.801039e-01 1.553312e+00 -8.535090e-01 6.862634e-02 2.184644e+00 9.638398e-01 5.619038e-01 -3.239439e-01 2.336953e-01 -1.868037e-01 -1.978310e-01 -3.024174e-01 -3.468286e-02 7.913391e-02 -1.417528e-01 6.333465e-03 -8.267362e-02 -1.949830e-02 8.261359e-01
<VARIANCE> 25
 1.984039e+02 1.059687e+02 1.045160e+02 6.620364e+01 7.195080e+01 6.228133e+01 2.877329e+01 2.554667e+01 7.228040e+01 2.626676e+01 2.642747e+01 1.753378e+01 4.883837e+00 4.117135e+00 4.807752e+00 3.572279e+00 4.534114e+00 3.476770e+00 2.521200e+00 2.382416e+00 4.502147e+00 2.603960e+00 2.105465e+00 1.663424e+00 5.214061e+00
<GCONST> 1.091989e+02
<STATE> 3
<MEAN> 25
 1.071643e+00 -9.190698e-01 5.630944e+00 -6.025411e-01 -3.586423e+00 -1.765405e+00 2.391377e-01 1.888504e+00 -1.352247e+00 7.259282e-02 1.769337e+00 9.033556e-01 5.527352e-01 -3.600068e-01 1.958146e-01 -1.836626e-01 -1.657995e-01 -3.284182e-01 -3.112369e-02 8.129033e-02 -1.144544e-01 3.047153e-03 -1.086488e-01 -1.182909e-02 8.731879e-01
<VARIANCE> 25
 2.121407e+02 1.237515e+02 1.095229e+02 7.133939e+01 8.286753e+01 6.951935e+01 3.208185e+01 2.892414e+01 7.488436e+01 2.912570e+01 2.983246e+01 1.911460e+01 5.648209e+00 4.732678e+00 5.461040e+00 4.153517e+00 5.230942e+00 3.811903e+00 2.870653e+00 2.754425e+00 5.001671e+00 2.906116e+00 2.387520e+00 1.854015e+00 5.838150e+00
<GCONST> 1.120080e+02
<STATE> 4
<MEAN> 25
 4.491235e+00 -3.446481e+00 6.388530e+00 -1.921075e+00 -4.132920e+00 -4.151868e+00 8.439594e-02 2.448187e+00 -1.781502e+00 6.768224e-02 7.954925e-01 8.862590e-01 4.115885e-01 -3.271343e-01 6.715201e-02 -1.567852e-01 -4.661039e-02 -3.128955e-01 -1.028807e-02 6.823995e-02 -4.439703e-02 -3.598481e-04 -1.309416e-01 4.254261e-03 7.861040e-01
<VARIANCE> 25
 2.195047e+02 1.409265e+02 1.089776e+02 7.616727e+01 1.037309e+02 7.508664e+01 3.884505e+01 3.497690e+01 7.394849e+01 3.382972e+01 3.648017e+01 2.273037e+01 7.040915e+00 5.647344e+00 6.069411e+00 4.959342e+00 6.199072e+00 4.212830e+00 3.419952e+00 3.436490e+00 5.633785e+00 3.426730e+00 2.888519e+00 2.199117e+00 6.346365e+00
<GCONST> 1.155017e+02
<TRANSP> 5
 0.000000e+00 1.000000e+00 0.000000e+00 0.000000e+00 0.000000e+00
 0.000000e+00 7.526490e-01 2.473510e-01 0.000000e+00 0.000000e+00
 0.000000e+00 0.000000e+00 7.526491e-01 2.473509e-01 0.000000e+00
 0.000000e+00 0.000000e+00 0.000000e+00 8.759493e-01 1.240507e-01
 0.000000e+00 0.000000e+00 0.000000e+00 0.000000e+00 0.000000e+00
<ENDHMM>
~h "ih"
<BEGINHMM>
<NUMSTATES> 5
<STATE> 2
<MEAN> 25
 -1.094895e+01 3.336322e+00 -1.393711e-01 3.014558e+00 8.734553e-01 3.496215e+00 2.639110e+00 1.496136e+00 1.925695e+00 -6.337400e-01 2.521189e+00 1.819268e+00 1.349961e-01 -5.162362e-02 2.527455e-02 -2.118107e-02 -3.651867e-02 -8.965753e-02 -5.840589e-02 -1.455965e-02 -4.531879e-02 -2.678767e-02 -7.548303e-02 -1.903666e-02 1.384538e-01
<VARIANCE> 25
 1.008370e+02 3.221574e+01 2.763895e+01 3.399596e+01 2.317191e+01 2.821466e+01 2.215619e+01 3.406326e+01 2.912578e+01 2.103660e+01 2.077277e+01 1.556668e+01 1.377827e+00 1.536063e+00 1.345893e+00 1.679973e+00 1.458222e+00 1.746908e+00 1.538182e+00 2.113726e+00 1.929917e+00 1.934716e+00 1.344077e+00 1.427138e+00 2.271641e+00
<GCONST> 9.265314e+01
<STATE> 3
<MEAN> 25
 -1.034376e+01 3.069232e+00 -2.460817e-02 2.927891e+00 7.346214e-01 3.106684e+00 2.396935e+00 1.489859e+00 1.784963e+00 -7.059659e-01 2.212393e+00 1.735959e+00 1.694185e-01 -8.825533e-02 3.299366e-02 -3.276204e-02 -3.030727e-02 -1.065229e-01 -6.516966e-02 2.058208e-03 -3.260922e-02 -1.035685e-02 -7.696576e-02 -2.092751e-02 1.989531e-01
<VARIANCE> 25
 1.056180e+02 3.659509e+01 2.940856e+01 3.473790e+01 2.393329e+01 3.082220e+01 2.350913e+01 3.282236e+01 2.963002e+01 2.115590e+01 2.148916e+01 1.553977e+01 1.657824e+00 1.795244e+00 1.458653e+00 1.766959e+00 1.559999e+00 1.858777e+00 1.596923e+00 2.116549e+00 2.054354e+00 1.984385e+00 1.425916e+00 1.460036e+00 2.577260e+00
<GCONST> 9.404462e+01
<STATE> 4
<MEAN> 25
 -7.934999e+00 2.059371e+00 6.212376e-01 2.447420e+00 2.806323e-01 1.947090e+00 1.767612e+00 1.484211e+00 1.336845e+00 -6.455630e-01 1.621168e+00 1.462142e+00 2.536897e-01 -1.507511e-01 6.922773e-02 -6.582773e-02 -2.278303e-02 -1.482651e-01 -9.259140e-02 2.981892e-02 -3.427614e-02 1.881498e-02 -6.482367e-02 -2.499446e-02 3.360713e-01
<VARIANCE> 25
 1.371952e+02 5.117416e+01 3.890956e+01 4.228335e+01 3.117111e+01 4.124237e+01 2.947400e+01 3.508400e+01 3.458014e+01 2.437062e+01 2.394564e+01 1.693334e+01 2.510513e+00 2.414574e+00 1.926744e+00 2.204962e+00 2.049453e+00 2.373209e+00 1.936261e+00 2.323442e+00 2.552418e+00 2.261859e+00 1.684205e+00 1.590487e+00 3.501556e+00
<GCONST> 9.937708e+01
<TRANSP> 5
 0.000000e+00 1.000000e+00 0.000000e+00 0.000000e+00 0.000000e+00
 0.000000e+00 7.453836e-01 2.546164e-01 0.000000e+00 0.000000e+00
 0.000000e+00 0.000000e+00 7.453841e-01 2.546159e-01 0.000000e+00
 0.000000e+00 0.000000e+00 0.000000e+00 8.709260e-01 1.290741e-01
 0.000000e+00 0.000000e+00 0.000000e+00 0.000000e+00 0.000000e+00
<ENDHMM>
~h "iy"
<BEGINHMM>
<NUMSTATES> 5
<STATE> 2
<MEAN> 25
 -7.255888e+00 5.890612e+00 1.734340e-01 3.668410e+00 -8.652190e-02 1.600262e+00 1.415211e+00 -9.292676e-01 -7.755938e-01 -2.532296e+00 -5.307283e-01 -5.897535e-02 -2.947891e-01 -2.963264e-02 -1.175270e-01 3.169296e-02 1.803267e-01 1.313989e-01 1.980402e-02 4.721729e-02 1.147483e-01 2.380799e-02 1.844524e-02 3.627541e-02 -2.465252e-01
<VARIANCE> 25
 6.733241e+01 4.061742e+01 2.916651e+01 2.357877e+01 2.739089e+01 1.980084e+01 1.593043e+01 2.175627e+01 2.643387e+01 1.887230e+01 1.501847e+01 1.463690e+01 9.122216e-01 1.784860e+00 1.450906e+00 1.618127e+00 1.342900e+00 1.100033e+00 1.369453e+00 1.825065e+00 1.804486e+00 1.745834e+00 1.350100e+00 1.303987e+00 6.809796e-01
<GCONST> 8.811938e+01
<STATE> 3
<MEAN> 25
 -8.301093e+00 5.736407e+00 -2.458470e-01 3.775306e+00 5.459499e-01 2.068162e+00 1.480477e+00 -7.612851e-01 -3.744121e-01 -2.441375e+00 -4.552270e-01 8.571791e-02 -2.327257e-01 -4.801918e-02 -9.511811e-02 2.135049e-02 1.418536e-01 1.051317e-01 2.226188e-02 4.083701e-02 8.641578e-02 2.423812e-02 1.974917e-02 3.792643e-02 -1.821867e-01
<VARIANCE> 25
 4.962254e+01 3.181144e+01 2.408235e+01 2.194908e+01 2.092849e+01 1.687918e+01 1.460259e+01 1.950289e+01 2.262959e+01 1.767144e+01 1.432007e+01 1.392571e+01 8.513480e-01 1.359248e+00 1.153751e+00 1.315886e+00 1.178312e+00 1.048104e+00 1.208690e+00 1.655362e+00 1.603179e+00 1.654816e+00 1.292187e+00 1.236380e+00 5.129542e-01
<GCONST> 8.463174e+01
<STATE> 4
<MEAN> 25
 -9.208894e+00 5.413290e+00 -5.688167e-01 3.738836e+00 1.101965e+00 2.462063e+00 1.529061e+00 -5.308009e-01 -8.794261e-02 -2.319216e+00 -4.037856e-01 2.611248e-01 -1.710423e-01 -5.544999e-02 -8.191527e-02 -1.989936e-03 1.011295e-01 7.397909e-02 2.985951e-02 3.624392e-02 5.242146e-02 2.450816e-02 2.142177e-02 3.216963e-02 -1.245262e-01
<VARIANCE> 25
 3.229407e+01 2.355670e+01 1.923655e+01 2.114630e+01 1.580486e+01 1.425419e+01 1.355817e+01 1.750067e+01 1.900143e+01 1.661594e+01 1.374686e+01 1.329705e+01 7.568507e-01 9.821866e-01 8.936619e-01 1.062132e+00 1.057396e+00 1.024998e+00 1.109047e+00 1.503083e+00 1.427934e+00 1.592302e+00 1.244596e+00 1.178777e+00 3.616430e-01
<GCONST> 8.086972e+01
<TRANSP> 5
 0.000000e+00 1.000000e+00 0.000000e+00 0.000000e+00 0.000000e+00
 0.000000e+00 7.363866e-01 2.636134e-01 0.000000e+00 0.000000e+00
 0.000000e+00 0.000000e+00 7.363864e-01 2.636136e-01 0.000000e+00
 0.000000e+00 0.000000e+00 0.000000e+00 8.586726e-01 1.413275e-01
 0.000000e+00 0.000000e+00 0.000000e+00 0.000000e+00 0.000000e+00
<ENDHMM>
~h "ng"
<BEGINHMM>
<NUMSTATES> 5
<STATE> 2
<MEAN> 25
 1.584584e+01 -6.971914e+00 -3.139345e-01 -5.073945e+00 -1.913006e+00 -2.702451e+00 -6.741295e-01 -6.946856e-01 -3.993695e+00 2.113136e+00 -2.421557e+00 -3.402611e+00 2.087327e-02 2.825479e-01 -6.771985e-02 -8.155922e-02 3.160801e-02 9.965131e-02 -1.880321e-01 -1.675809e-01 -1.730087e-02 7.157658e-02 1.056171e-02 6.467124e-03 -1.883266e-01
<VARIANCE> 25
 6.036433e+01 1.643066e+02 9.107384e+01 1.152838e+02 1.104198e+02 5.742348e+01 1.428051e+02 1.074422e+02 8.207565e+01 4.774654e+01 3.817268e+01 3.183422e+01 3.763726e+00 9.249020e+00 7.034932e+00 8.345191e+00 7.857856e+00 5.166698e+00 8.867660e+00 7.350378e+00 4.925184e+00 3.813887e+00 3.443577e+00 2.388019e+00 4.742976e+00
<GCONST> 1.202776e+02
<STATE> 3
<MEAN> 25
 1.579684e+01 -5.896018e+00 -5.609315e-01 -5.407253e+00 -1.717381e+00 -2.309894e+00 -1.450161e+00 -1.316952e+00 -3.944127e+00 2.361844e+00 -2.358029e+00 -3.335026e+00 -3.800694e-02 3.069963e-01 -7.082590e-02 -8.848014e-02 6.347062e-02 1.093002e-01 -2.268262e-01 -1.776150e-01 3.804575e-02 6.285921e-02 2.290925e-02 3.256571e-02 -2.352072e-01
<VARIANCE> 25
 6.231297e+01 1.626084e+02 8.987486e+01 1.167087e+02 1.105295e+02 5.649772e+01 1.459808e+02 1.053007e+02 8.082626e+01 4.852834e+01 3.843390e+01 3.226326e+01 3.530646e+00 9.364203e+00 6.922388e+00 8.328259e+00 7.857849e+00 4.953281e+00 8.822875e+00 7.391820e+00 4.782733e+00 3.789798e+00 3.435539e+00 2.435164e+00 4.785056e+00
<GCONST> 1.201847e+02
<STATE> 4
<MEAN> 25
 1.530122e+01 -4.336391e+00 -9.481738e-01 -5.798296e+00 -1.316109e+00 -1.697423e+00 -2.573473e+00 -2.196412e+00 -3.580868e+00 2.568424e+00 -2.163075e+00 -3.128507e+00 -1.278594e-01 3.047897e-01 -5.471911e-02 -6.569660e-02 7.390120e-02 1.129740e-01 -2.272726e-01 -1.614002e-01 8.958989e-02 2.542251e-02 4.499695e-02 5.860814e-02 -2.903300e-01
<VARIANCE> 25
 7.273225e+01 1.557964e+02 8.779069e+01 1.182307e+02 1.083433e+02 5.628672e+01 1.450180e+02 1.005127e+02 7.785001e+01 4.946870e+01 3.843899e+01 3.275423e+01 3.486656e+00 9.251411e+00 6.764594e+00 8.162526e+00 7.723906e+00 4.689888e+00 8.622786e+00 7.358378e+00 4.562859e+00 3.792331e+00 3.393198e+00 2.503143e+00 4.967827e+00
<GCONST> 1.200452e+02
<TRANSP> 5
 0.000000e+00 1.000000e+00 0.000000e+00 0.000000e+00 0.000000e+00
 0.000000e+00 7.204698e-01 2.795301e-01 0.000000e+00 0.000000e+00
 0.000000e+00 0.000000e+00 7.204699e-01 2.795301e-01 0.000000e+00
 0.000000e+00 0.000000e+00 0.000000e+00 8.391479e-01 1.608521e-01
 0.000000e+00 0.000000e+00 0.000000e+00 0.000000e+00 0.000000e+00
<ENDHMM>
~h "th"
<BEGINHMM>
<NUMSTATES> 5
<STATE> 2
<MEAN> 25
 3.814991e+00 2.244377e+00 6.958544e+00 2.013175e+00 -8.897890e+00 -3.729604e+00 1.587090e+00 -3.056899e+00 -4.405993e+00 -1.454500e+00 -4.071816e-01 2.256633e-01 -6.525523e-01 3.060929e-01 -2.468543e-01 1.381121e-01 2.296146e-01 1.683451e-01 9.205216e-02 5.647071e-02 1.915521e-02 -8.826516e-02 2.220467e-02 -2.909249e-03 -7.835633e-01
<VARIANCE> 25
 1.529268e+02 1.150470e+02 1.091173e+02 5.956567e+01 1.541828e+02 4.947947e+01 7.261788e+01 4.518492e+01 7.490706e+01 3.233470e+01 2.703579e+01 2.826352e+01 4.303621e+00 6.722386e+00 4.707741e+00 4.130815e+00 7.941676e+00 4.735368e+00 7.869318e+00 3.454908e+00 6.302530e+00 2.857264e+00 2.698016e+00 2.912401e+00 4.754993e+00
<GCONST> 1.157426e+02
<STATE> 3
<MEAN> 25
 1.291870e+00 3.330613e+00 5.908618e+00 2.481748e+00 -7.856860e+00 -3.033989e+00 1.879617e+00 -2.778947e+00 -4.245284e+00 -1.789151e+00 -3.409536e-01 2.285427e-01 -6.784636e-01 2.355303e-01 -3.400351e-01 1.035633e-01 3.531333e-01 1.983293e-01 5.514497e-02 9.869578e-02 8.850162e-02 -7.984194e-02 8.929504e-03 2.666250e-03 -7.703279e-01
<VARIANCE> 25
 1.517068e+02 9.559606e+01 1.015069e+02 5.077696e+01 1.423840e+02 4.510613e+01 6.210194e+01 4.099979e+01 6.463638e+01 2.884029e+01 2.469061e+01 2.496814e+01 3.483504e+00 5.616701e+00 4.001613e+00 3.539568e+00 6.721038e+00 3.937425e+00 6.875207e+00 2.949086e+00 5.363903e+00 2.535611e+00 2.375963e+00 2.536677e+00 3.661995e+00
<GCONST> 1.122551e+02
<STATE> 4
<MEAN> 25
 -1.706584e+00 4.236302e+00 4.371765e+00 2.885797e+00 -6.048010e+00 -2.085117e+00 2.073617e+00 -2.132031e+00 -3.790532e+00 -2.210377e+00 -3.552715e-01 2.529897e-01 -6.388494e-01 1.345695e-01 -3.733476e-01 6.365566e-02 4.238967e-01 2.125046e-01 2.062988e-02 1.309972e-01 1.455098e-01 -6.175761e-02 1.332052e-04 6.517397e-03 -6.764672e-01
<VARIANCE> 25
 1.357817e+02 7.008818e+01 8.754743e+01 4.113049e+01 1.244955e+02 3.980630e+01 4.984812e+01 3.552792e+01 5.274278e+01 2.466006e+01 2.170863e+01 2.130453e+01 2.607880e+00 4.238248e+00 3.142951e+00 2.837247e+00 5.184395e+00 3.110857e+00 5.512957e+00 2.346003e+00 4.153351e+00 2.156062e+00 2.039023e+00 2.105486e+00 2.569999e+00
<GCONST> 1.071157e+02
<TRANSP> 5
 0.000000e+00 1.000000e+00 0.000000e+00 0.000000e+00 0.000000e+00
 0.000000e+00 7.371014e-01 2.628986e-01 0.000000e+00 0.000000e+00
 0.000000e+00 0.000000e+00 7.371014e-01 2.628986e-01 0.000000e+00
 0.000000e+00 0.000000e+00 0.000000e+00 8.591536e-01 1.408464e-01
 0.000000e+00 0.000000e+00 0.000000e+00 0.000000e+00 0.000000e+00
<ENDHMM>
~h "uw"
<BEGINHMM>
<NUMSTATES> 5
<STATE> 2
<MEAN> 25
 -5.497818e+00 3.850152e+00 7.381025e-02 2.110574e+00 4.935072e-01 1.373421e+00 1.331892e+00 3.160976e-01 -4.874005e-01 -2.136067e+00 -3.816615e-01 4.938508e-01 -8.997801e-02 -6.543476e-02 5.823026e-02 4.758657e-02 3.741823e-02 -1.326717e-02 2.578682e-02 4.938078e-02 4.738684e-02 3.850012e-03 -3.033512e-02 -2.729885e-02 4.443973e-03
<VARIANCE> 25
 9.229544e+01 2.598293e+01 2.782062e+01 5.138118e+01 2.618733e+01 3.373378e+01 3.350614e+01 4.096987e+01 2.893927e+01 2.497206e+01 1.797206e+01 1.748442e+01 2.036481e+00 1.563564e+00 1.587082e+00 1.805328e+00 1.950993e+00 2.059821e+00 2.256964e+00 2.492898e+00 2.355121e+00 2.149486e+00 1.745519e+00 1.525986e+00 1.771904e+00
<GCONST> 9.583864e+01
<STATE> 3
<MEAN> 25
 -5.594525e+00 3.547259e+00 3.237018e-01 2.208658e+00 6.216879e-01 1.314905e+00 1.416785e+00 3.997999e-01 -3.812037e-01 -2.087906e+00 -5.054051e-01 3.714323e-01 -2.306988e-02 -7.966095e-02 4.324609e-02 2.387435e-02 2.080593e-02 -1.252870e-02 2.795495e-02 1.606513e-02 1.888277e-02 2.448278e-02 -2.159619e-02 -2.816588e-02 5.865977e-02
<VARIANCE> 25
 9.630666e+01 2.709595e+01 2.922514e+01 5.387792e+01 2.802749e+01 3.613267e+01 3.636242e+01 4.111405e+01 2.804324e+01 2.496703e+01 1.818131e+01 1.792603e+01 1.953182e+00 1.639653e+00 1.652602e+00 1.895468e+00 2.066102e+00 2.152098e+00 2.329731e+00 2.582304e+00 2.380803e+00 2.240077e+00 1.773571e+00 1.548003e+00 1.797344e+00
<GCONST> 9.660635e+01
<STATE> 4
<MEAN> 25
 -2.934103e+00 2.385042e+00 8.697788e-01 9.309344e-01 7.594231e-01 8.169659e-01 8.509169e-01 -1.659461e-01 -7.559854e-01 -1.560421e+00 -7.077419e-01 1.989847e-01 9.319092e-02 -9.240403e-02 2.582530e-02 -1.134425e-02 -1.322747e-02 -1.226985e-02 2.274757e-02 -2.649971e-02 -1.750481e-02 3.581437e-02 -7.691705e-03 -1.951360e-02 1.374898e-01
<VARIANCE> 25
 1.534532e+02 4.059481e+01 4.041950e+01 7.761034e+01 3.836801e+01 4.829295e+01 5.069641e+01 5.510564e+01 3.316658e+01 3.071875e+01 2.148157e+01 2.002074e+01 2.420926e+00 2.422066e+00 2.356116e+00 2.877958e+00 2.749105e+00 2.750566e+00 2.982525e+00 3.433186e+00 2.892541e+00 3.024892e+00 2.175001e+00 1.822288e+00 2.545331e+00
<GCONST> 1.036976e+02
<TRANSP> 5
 0.000000e+00 1.000000e+00 0.000000e+00 0.000000e+00 0.000000e+00
 0.000000e+00 7.614221e-01 2.385779e-01 0.000000e+00 0.000000e+00
 0.000000e+00 0.000000e+00 7.614219e-01 2.385782e-01 0.000000e+00
 0.000000e+00 0.000000e+00 0.000000e+00 8.947256e-01 1.052745e-01
 0.000000e+00 0.000000e+00 0.000000e+00 0.000000e+00 0.000000e+00
<ENDHMM>
~h "sil"
<BEGINHMM>
<NUMSTATES> 5
<STATE> 2
<MEAN> 25
 -1.260014e+01 3.994127e+00 -9.932055e-01 4.140837e+00 1.098825e+00 3.815604e+00 3.103994e+00 1.570336e+00 1.815267e+00 -1.219921e+00 1.847612e+00 1.704767e+00 -1.650936e-02 -7.404383e-02 -9.002294e-04 6.469650e-02 1.686266e-01 5.008860e-02 2.376052e-03 6.716889e-02 -1.622014e-02 -5.293623e-02 1.073276e-02 2.235530e-02 2.426663e-02
<VARIANCE> 25
 2.555717e+01 9.354725e+00 1.205878e+01 1.692252e+01 1.237017e+01 1.539174e+01 1.666909e+01 2.018074e+01 1.738548e+01 1.378438e+01 1.595965e+01 1.451374e+01 3.965305e-01 4.984709e-01 5.387380e-01 7.626500e-01 1.013530e+00 9.551790e-01 1.054877e+00 1.262324e+00 1.193146e+00 1.175481e+00 1.147218e+00 9.529195e-01 4.020988e-01
<GCONST> 7.599348e+01
<STATE> 3
<MEAN> 25
 -1.248988e+01 3.851390e+00 -1.035394e+00 4.114619e+00 1.250637e+00 3.700575e+00 3.023602e+00 1.826289e+00 2.006033e+00 -1.118468e+00 1.852988e+00 1.737593e+00 6.000071e-02 -1.244143e-02 -5.839813e-03 -1.653580e-02 -4.722290e-03 -5.505618e-02 -3.578727e-02 4.680028e-02 4.752486e-02 3.955218e-02 -3.809147e-04 9.388188e-04 5.832715e-02
<VARIANCE> 25
 2.537105e+01 1.044285e+01 1.224692e+01 1.651897e+01 1.177694e+01 1.589665e+01 1.684204e+01 2.045491e+01 1.828220e+01 1.489911e+01 1.649592e+01 1.495427e+01 4.949777e-01 5.917594e-01 5.832643e-01 7.602682e-01 8.898408e-01 1.008215e+00 1.080020e+00 1.255257e+00 1.287941e+00 1.186772e+00 1.161671e+00 1.064344e+00 6.294885e-01
<GCONST> 7.735426e+01
<STATE> 4
<MEAN> 25
 -1.159562e+01 3.583421e+00 -8.832597e-01 3.915438e+00 1.037804e+00 3.175496e+00 2.563518e+00 1.813525e+00 1.976462e+00 -8.303543e-01 1.693525e+00 1.560235e+00 9.779885e-02 2.508502e-02 2.593862e-02 3.143037e-03 -2.795397e-02 -6.253961e-02 -6.882875e-02 -3.147614e-02 -1.219767e-02 9.007161e-03 -1.649944e-02 -3.759412e-02 7.409766e-02
<VARIANCE> 25
 2.994209e+01 1.401378e+01 1.358803e+01 1.751285e+01 1.226181e+01 1.659009e+01 1.794033e+01 2.028865e+01 2.025388e+01 1.617836e+01 1.698472e+01 1.475492e+01 6.731849e-01 8.779539e-01 7.070842e-01 7.921700e-01 9.612384e-01 1.184756e+00 1.244593e+00 1.303135e+00 1.460742e+00 1.371879e+00 1.218811e+00 1.216736e+00 8.900102e-01
<GCONST> 8.046745e+01
<TRANSP> 5
 0.000000e+00 1.000000e+00 0.000000e+00 0.000000e+00 0.000000e+00
 0.000000e+00 7.497908e-01 2.502091e-01 0.000000e+00 0.000000e+00
 0.000000e+00 0.000000e+00 7.497917e-01 2.502083e-01 0.000000e+00
 0.000000e+00 0.000000e+00 0.000000e+00 8.783653e-01 1.216348e-01
 0.000000e+00 0.000000e+00 0.000000e+00 0.000000e+00 0.000000e+00
<ENDHMM>
