~h "b"
<BEGINHMM>
<NUMSTATES> 5
<STATE> 2
<MEAN> 25
 2.086226e-08 -6.891275e-08 -4.667089e-08 1.245006e-08 3.721557e-08 -2.153523e-08 3.560043e-08 1.712724e-08 5.114618e-08 1.051357e-07 5.047320e-10 -2.865195e-08 3.254249e-02 1.895490e-03 4.122885e-03 -8.542646e-04 -2.040068e-04 -1.363436e-02 -1.552327e-02 -1.132498e-02 -1.702807e-02 -1.164948e-02 -1.754293e-02 -1.407622e-02 2.606464e-02
<VARIANCE> 25
 2.285064e+02 9.304012e+01 5.736872e+01 8.326283e+01 6.317837e+01 5.608306e+01 5.811004e+01 5.498347e+01 4.746066e+01 3.553910e+01 3.173851e+01 2.810390e+01 4.253944e+00 4.363395e+00 3.566348e+00 3.846258e+00 3.977257e+00 3.485499e+00 3.739101e+00 3.568152e+00 3.431657e+00 2.870036e+00 2.490974e+00 2.127762e+00 4.115048e+00
<GCONST> 1.109788e+02
<STATE> 3
<MEAN> 25
 2.086226e-08 -6.891275e-08 -4.667089e-08 1.245006e-08 3.721557e-08 -2.153523e-08 3.560043e-08 1.712724e-08 5.114618e-08 1.051357e-07 5.047320e-10 -2.865195e-08 3.254249e-02 1.895490e-03 4.122885e-03 -8.542646e-04 -2.040068e-04 -1.363436e-02 -1.552327e-02 -1.132498e-02 -1.702807e-02 -1.164948e-02 -1.754293e-02 -1.407622e-02 2.606464e-02
<VARIANCE> 25
 2.285064e+02 9.304012e+01 5.736872e+01 8.326283e+01 6.317837e+01 5.608306e+01 5.811004e+01 5.498347e+01 4.746066e+01 3.553910e+01 3.173851e+01 2.810390e+01 4.253944e+00 4.363395e+00 3.566348e+00 3.846258e+00 3.977257e+00 3.485499e+00 3.739101e+00 3.568152e+00 3.431657e+00 2.870036e+00 2.490974e+00 2.127762e+00 4.115048e+00
<GCONST> 1.109788e+02
<STATE> 4
<MEAN> 25
 2.086226e-08 -6.891275e-08 -4.667089e-08 1.245006e-08 3.721557e-08 -2.153523e-08 3.560043e-08 1.712724e-08 5.114618e-08 1.051357e-07 5.047320e-10 -2.865195e-08 3.254249e-02 1.895490e-03 4.122885e-03 -8.542646e-04 -2.040068e-04 -1.363436e-02 -1.552327e-02 -1.132498e-02 -1.702807e-02 -1.164948e-02 -1.754293e-02 -1.407622e-02 2.606464e-02
<VARIANCE> 25
 2.285064e+02 9.304012e+01 5.736872e+01 8.326283e+01 6.317837e+01 5.608306e+01 5.811004e+01 5.498347e+01 4.746066e+01 3.553910e+01 3.173851e+01 2.810390e+01 4.253944e+00 4.363395e+00 3.566348e+00 3.846258e+00 3.977257e+00 3.485499e+00 3.739101e+00 3.568152e+00 3.431657e+00 2.870036e+00 2.490974e+00 2.127762e+00 4.115048e+00
<GCONST> 1.109788e+02
<TRANSP> 5
 0.000000e+00 1.000000e+00 0.000000e+00 0.000000e+00 0.000000e+00
 0.000000e+00 6.000000e-01 4.000000e-01 0.000000e+00 0.000000e+00
 0.000000e+00 0.000000e+00 6.000000e-01 4.000000e-01 0.000000e+00
 0.000000e+00 0.000000e+00 0.000000e+00 7.000000e-01 3.000000e-01
 0.000000e+00 0.000000e+00 0.000000e+00 0.000000e+00 0.000000e+00
<ENDHMM>
~h "l"
<BEGINHMM>
<NUMSTATES> 5
<STATE> 2
<MEAN> 25
 2.086226e-08 -6.891275e-08 -4.667089e-08 1.245006e-08 3.721557e-08 -2.153523e-08 3.560043e-08 1.712724e-08 5.114618e-08 1.051357e-07 5.047320e-10 -2.865195e-08 3.254249e-02 1.895490e-03 4.122885e-03 -8.542646e-04 -2.040068e-04 -1.363436e-02 -1.552327e-02 -1.132498e-02 -1.702807e-02 -1.164948e-02 -1.754293e-02 -1.407622e-02 2.606464e-02
<VARIANCE> 25
 2.285064e+02 9.304012e+01 5.736872e+01 8.326283e+01 6.317837e+01 5.608306e+01 5.811004e+01 5.498347e+01 4.746066e+01 3.553910e+01 3.173851e+01 2.810390e+01 4.253944e+00 4.363395e+00 3.566348e+00 3.846258e+00 3.977257e+00 3.485499e+00 3.739101e+00 3.568152e+00 3.431657e+00 2.870036e+00 2.490974e+00 2.127762e+00 4.115048e+00
<GCONST> 1.109788e+02
<STATE> 3
<MEAN> 25
 2.086226e-08 -6.891275e-08 -4.667089e-08 1.245006e-08 3.721557e-08 -2.153523e-08 3.560043e-08 1.712724e-08 5.114618e-08 1.051357e-07 5.047320e-10 -2.865195e-08 3.254249e-02 1.895490e-03 4.122885e-03 -8.542646e-04 -2.040068e-04 -1.363436e-02 -1.552327e-02 -1.132498e-02 -1.702807e-02 -1.164948e-02 -1.754293e-02 -1.407622e-02 2.606464e-02
<VARIANCE> 25
 2.285064e+02 9.304012e+01 5.736872e+01 8.326283e+01 6.317837e+01 5.608306e+01 5.811004e+01 5.498347e+01 4.746066e+01 3.553910e+01 3.173851e+01 2.810390e+01 4.253944e+00 4.363395e+00 3.566348e+00 3.846258e+00 3.977257e+00 3.485499e+00 3.739101e+00 3.568152e+00 3.431657e+00 2.870036e+00 2.490974e+00 2.127762e+00 4.115048e+00
<GCONST> 1.109788e+02
<STATE> 4
<MEAN> 25
 2.086226e-08 -6.891275e-08 -4.667089e-08 1.245006e-08 3.721557e-08 -2.153523e-08 3.560043e-08 1.712724e-08 5.114618e-08 1.051357e-07 5.047320e-10 -2.865195e-08 3.254249e-02 1.895490e-03 4.122885e-03 -8.542646e-04 -2.040068e-04 -1.363436e-02 -1.552327e-02 -1.132498e-02 -1.702807e-02 -1.164948e-02 -1.754293e-02 -1.407622e-02 2.606464e-02
<VARIANCE> 25
 2.285064e+02 9.304012e+01 5.736872e+01 8.326283e+01 6.317837e+01 5.608306e+01 5.811004e+01 5.498347e+01 4.746066e+01 3.553910e+01 3.173851e+01 2.810390e+01 4.253944e+00 4.363395e+00 3.566348e+00 3.846258e+00 3.977257e+00 3.485499e+00 3.739101e+00 3.568152e+00 3.431657e+00 2.870036e+00 2.490974e+00 2.127762e+00 4.115048e+00
<GCONST> 1.109788e+02
<TRANSP> 5
 0.000000e+00 1.000000e+00 0.000000e+00 0.000000e+00 0.000000e+00
 0.000000e+00 6.000000e-01 4.000000e-01 0.000000e+00 0.000000e+00
 0.000000e+00 0.000000e+00 6.000000e-01 4.000000e-01 0.000000e+00
 0.000000e+00 0.000000e+00 0.000000e+00 7.000000e-01 3.000000e-01
 0.000000e+00 0.000000e+00 0.000000e+00 0.000000e+00 0.000000e+00
<ENDHMM>
~h "uw"
<BEGINHMM>
<NUMSTATES> 5
<STATE> 2
<MEAN> 25
 2.086226e-08 -6.891275e-08 -4.667089e-08 1.245006e-08 3.721557e-08 -2.153523e-08 3.560043e-08 1.712724e-08 5.114618e-08 1.051357e-07 5.047320e-10 -2.865195e-08 3.254249e-02 1.895490e-03 4.122885e-03 -8.542646e-04 -2.040068e-04 -1.363436e-02 -1.552327e-02 -1.132498e-02 -1.702807e-02 -1.164948e-02 -1.754293e-02 -1.407622e-02 2.606464e-02
<VARIANCE> 25
 2.285064e+02 9.304012e+01 5.736872e+01 8.326283e+01 6.317837e+01 5.608306e+01 5.811004e+01 5.498347e+01 4.746066e+01 3.553910e+01 3.173851e+01 2.810390e+01 4.253944e+00 4.363395e+00 3.566348e+00 3.846258e+00 3.977257e+00 3.485499e+00 3.739101e+00 3.568152e+00 3.431657e+00 2.870036e+00 2.490974e+00 2.127762e+00 4.115048e+00
<GCONST> 1.109788e+02
<STATE> 3
<MEAN> 25
 2.086226e-08 -6.891275e-08 -4.667089e-08 1.245006e-08 3.721557e-08 -2.153523e-08 3.560043e-08 1.712724e-08 5.114618e-08 1.051357e-07 5.047320e-10 -2.865195e-08 3.254249e-02 1.895490e-03 4.122885e-03 -8.542646e-04 -2.040068e-04 -1.363436e-02 -1.552327e-02 -1.132498e-02 -1.702807e-02 -1.164948e-02 -1.754293e-02 -1.407622e-02 2.606464e-02
<VARIANCE> 25
 2.285064e+02 9.304012e+01 5.736872e+01 8.326283e+01 6.317837e+01 5.608306e+01 5.811004e+01 5.498347e+01 4.746066e+01 3.553910e+01 3.173851e+01 2.810390e+01 4.253944e+00 4.363395e+00 3.566348e+00 3.846258e+00 3.977257e+00 3.485499e+00 3.739101e+00 3.568152e+00 3.431657e+00 2.870036e+00 2.490974e+00 2.127762e+00 4.115048e+00
<GCONST> 1.109788e+02
<STATE> 4
<MEAN> 25
 2.086226e-08 -6.891275e-08 -4.667089e-08 1.245006e-08 3.721557e-08 -2.153523e-08 3.560043e-08 1.712724e-08 5.114618e-08 1.051357e-07 5.047320e-10 -2.865195e-08 3.254249e-02 1.895490e-03 4.122885e-03 -8.542646e-04 -2.040068e-04 -1.363436e-02 -1.552327e-02 -1.132498e-02 -1.702807e-02 -1.164948e-02 -1.754293e-02 -1.407622e-02 2.606464e-02
<VARIANCE> 25
 2.285064e+02 9.304012e+01 5.736872e+01 8.326283e+01 6.317837e+01 5.608306e+01 5.811004e+01 5.498347e+01 4.746066e+01 3.553910e+01 3.173851e+01 2.810390e+01 4.253944e+00 4.363395e+00 3.566348e+00 3.846258e+00 3.977257e+00 3.485499e+00 3.739101e+00 3.568152e+00 3.431657e+00 2.870036e+00 2.490974e+00 2.127762e+00 4.115048e+00
<GCONST> 1.109788e+02
<TRANSP> 5
 0.000000e+00 1.000000e+00 0.000000e+00 0.000000e+00 0.000000e+00
 0.000000e+00 6.000000e-01 4.000000e-01 0.000000e+00 0.000000e+00
 0.000000e+00 0.000000e+00 6.000000e-01 4.000000e-01 0.000000e+00
 0.000000e+00 0.000000e+00 0.000000e+00 7.000000e-01 3.000000e-01
 0.000000e+00 0.000000e+00 0.000000e+00 0.000000e+00 0.000000e+00
<ENDHMM>
~h "s"
<BEGINHMM>
<NUMSTATES> 5
<STATE> 2
<MEAN> 25
 2.086226e-08 -6.891275e-08 -4.667089e-08 1.245006e-08 3.721557e-08 -2.153523e-08 3.560043e-08 1.712724e-08 5.114618e-08 1.051357e-07 5.047320e-10 -2.865195e-08 3.254249e-02 1.895490e-03 4.122885e-03 -8.542646e-04 -2.040068e-04 -1.363436e-02 -1.552327e-02 -1.132498e-02 -1.702807e-02 -1.164948e-02 -1.754293e-02 -1.407622e-02 2.606464e-02
<VARIANCE> 25
 2.285064e+02 9.304012e+01 5.736872e+01 8.326283e+01 6.317837e+01 5.608306e+01 5.811004e+01 5.498347e+01 4.746066e+01 3.553910e+01 3.173851e+01 2.810390e+01 4.253944e+00 4.363395e+00 3.566348e+00 3.846258e+00 3.977257e+00 3.485499e+00 3.739101e+00 3.568152e+00 3.431657e+00 2.870036e+00 2.490974e+00 2.127762e+00 4.115048e+00
<GCONST> 1.109788e+02
<STATE> 3
<MEAN> 25
 2.086226e-08 -6.891275e-08 -4.667089e-08 1.245006e-08 3.721557e-08 -2.153523e-08 3.560043e-08 1.712724e-08 5.114618e-08 1.051357e-07 5.047320e-10 -2.865195e-08 3.254249e-02 1.895490e-03 4.122885e-03 -8.542646e-04 -2.040068e-04 -1.363436e-02 -1.552327e-02 -1.132498e-02 -1.702807e-02 -1.164948e-02 -1.754293e-02 -1.407622e-02 2.606464e-02
<VARIANCE> 25
 2.285064e+02 9.304012e+01 5.736872e+01 8.326283e+01 6.317837e+01 5.608306e+01 5.811004e+01 5.498347e+01 4.746066e+01 3.553910e+01 3.173851e+01 2.810390e+01 4.253944e+00 4.363395e+00 3.566348e+00 3.846258e+00 3.977257e+00 3.485499e+00 3.739101e+00 3.568152e+00 3.431657e+00 2.870036e+00 2.490974e+00 2.127762e+00 4.115048e+00
<GCONST> 1.109788e+02
<STATE> 4
<MEAN> 25
 2.086226e-08 -6.891275e-08 -4.667089e-08 1.245006e-08 3.721557e-08 -2.153523e-08 3.560043e-08 1.712724e-08 5.114618e-08 1.051357e-07 5.047320e-10 -2.865195e-08 3.254249e-02 1.895490e-03 4.122885e-03 -8.542646e-04 -2.040068e-04 -1.363436e-02 -1.552327e-02 -1.132498e-02 -1.702807e-02 -1.164948e-02 -1.754293e-02 -1.407622e-02 2.606464e-02
<VARIANCE> 25
 2.285064e+02 9.304012e+01 5.736872e+01 8.326283e+01 6.317837e+01 5.608306e+01 5.811004e+01 5.498347e+01 4.746066e+01 3.553910e+01 3.173851e+01 2.810390e+01 4.253944e+00 4.363395e+00 3.566348e+00 3.846258e+00 3.977257e+00 3.485499e+00 3.739101e+00 3.568152e+00 3.431657e+00 2.870036e+00 2.490974e+00 2.127762e+00 4.115048e+00
<GCONST> 1.109788e+02
<TRANSP> 5
 0.000000e+00 1.000000e+00 0.000000e+00 0.000000e+00 0.000000e+00
 0.000000e+00 6.000000e-01 4.000000e-01 0.000000e+00 0.000000e+00
 0.000000e+00 0.000000e+00 6.000000e-01 4.000000e-01 0.000000e+00
 0.000000e+00 0.000000e+00 0.000000e+00 7.000000e-01 3.000000e-01
 0.000000e+00 0.000000e+00 0.000000e+00 0.000000e+00 0.000000e+00
<ENDHMM>
~h "er"
<BEGINHMM>
<NUMSTATES> 5
<STATE> 2
<MEAN> 25
 2.086226e-08 -6.891275e-08 -4.667089e-08 1.245006e-08 3.721557e-08 -2.153523e-08 3.560043e-08 1.712724e-08 5.114618e-08 1.051357e-07 5.047320e-10 -2.865195e-08 3.254249e-02 1.895490e-03 4.122885e-03 -8.542646e-04 -2.040068e-04 -1.363436e-02 -1.552327e-02 -1.132498e-02 -1.702807e-02 -1.164948e-02 -1.754293e-02 -1.407622e-02 2.606464e-02
<VARIANCE> 25
 2.285064e+02 9.304012e+01 5.736872e+01 8.326283e+01 6.317837e+01 5.608306e+01 5.811004e+01 5.498347e+01 4.746066e+01 3.553910e+01 3.173851e+01 2.810390e+01 4.253944e+00 4.363395e+00 3.566348e+00 3.846258e+00 3.977257e+00 3.485499e+00 3.739101e+00 3.568152e+00 3.431657e+00 2.870036e+00 2.490974e+00 2.127762e+00 4.115048e+00
<GCONST> 1.109788e+02
<STATE> 3
<MEAN> 25
 2.086226e-08 -6.891275e-08 -4.667089e-08 1.245006e-08 3.721557e-08 -2.153523e-08 3.560043e-08 1.712724e-08 5.114618e-08 1.051357e-07 5.047320e-10 -2.865195e-08 3.254249e-02 1.895490e-03 4.122885e-03 -8.542646e-04 -2.040068e-04 -1.363436e-02 -1.552327e-02 -1.132498e-02 -1.702807e-02 -1.164948e-02 -1.754293e-02 -1.407622e-02 2.606464e-02
<VARIANCE> 25
 2.285064e+02 9.304012e+01 5.736872e+01 8.326283e+01 6.317837e+01 5.608306e+01 5.811004e+01 5.498347e+01 4.746066e+01 3.553910e+01 3.173851e+01 2.810390e+01 4.253944e+00 4.363395e+00 3.566348e+00 3.846258e+00 3.977257e+00 3.485499e+00 3.739101e+00 3.568152e+00 3.431657e+00 2.870036e+00 2.490974e+00 2.127762e+00 4.115048e+00
<GCONST> 1.109788e+02
<STATE> 4
<MEAN> 25
 2.086226e-08 -6.891275e-08 -4.667089e-08 1.245006e-08 3.721557e-08 -2.153523e-08 3.560043e-08 1.712724e-08 5.114618e-08 1.051357e-07 5.047320e-10 -2.865195e-08 3.254249e-02 1.895490e-03 4.122885e-03 -8.542646e-04 -2.040068e-04 -1.363436e-02 -1.552327e-02 -1.132498e-02 -1.702807e-02 -1.164948e-02 -1.754293e-02 -1.407622e-02 2.606464e-02
<VARIANCE> 25
 2.285064e+02 9.304012e+01 5.736872e+01 8.326283e+01 6.317837e+01 5.608306e+01 5.811004e+01 5.498347e+01 4.746066e+01 3.553910e+01 3.173851e+01 2.810390e+01 4.253944e+00 4.363395e+00 3.566348e+00 3.846258e+00 3.977257e+00 3.485499e+00 3.739101e+00 3.568152e+00 3.431657e+00 2.870036e+00 2.490974e+00 2.127762e+00 4.115048e+00
<GCONST> 1.109788e+02
<TRANSP> 5
 0.000000e+00 1.000000e+00 0.000000e+00 0.000000e+00 0.000000e+00
 0.000000e+00 6.000000e-01 4.000000e-01 0.000000e+00 0.000000e+00
 0.000000e+00 0.000000e+00 6.000000e-01 4.000000e-01 0.000000e+00
 0.000000e+00 0.000000e+00 0.000000e+00 7.000000e-01 3.000000e-01
 0.000000e+00 0.000000e+00 0.000000e+00 0.000000e+00 0.000000e+00
<ENDHMM>
~h "k"
<BEGINHMM>
<NUMSTATES> 5
<STATE> 2
<MEAN> 25
 2.086226e-08 -6.891275e-08 -4.667089e-08 1.245006e-08 3.721557e-08 -2.153523e-08 3.560043e-08 1.712724e-08 5.114618e-08 1.051357e-07 5.047320e-10 -2.865195e-08 3.254249e-02 1.895490e-03 4.122885e-03 -8.542646e-04 -2.040068e-04 -1.363436e-02 -1.552327e-02 -1.132498e-02 -1.702807e-02 -1.164948e-02 -1.754293e-02 -1.407622e-02 2.606464e-02
<VARIANCE> 25
 2.285064e+02 9.304012e+01 5.736872e+01 8.326283e+01 6.317837e+01 5.608306e+01 5.811004e+01 5.498347e+01 4.746066e+01 3.553910e+01 3.173851e+01 2.810390e+01 4.253944e+00 4.363395e+00 3.566348e+00 3.846258e+00 3.977257e+00 3.485499e+00 3.739101e+00 3.568152e+00 3.431657e+00 2.870036e+00 2.490974e+00 2.127762e+00 4.115048e+00
<GCONST> 1.109788e+02
<STATE> 3
<MEAN> 25
 2.086226e-08 -6.891275e-08 -4.667089e-08 1.245006e-08 3.721557e-08 -2.153523e-08 3.560043e-08 1.712724e-08 5.114618e-08 1.051357e-07 5.047320e-10 -2.865195e-08 3.254249e-02 1.895490e-03 4.122885e-03 -8.542646e-04 -2.040068e-04 -1.363436e-02 -1.552327e-02 -1.132498e-02 -1.702807e-02 -1.164948e-02 -1.754293e-02 -1.407622e-02 2.606464e-02
<VARIANCE> 25
 2.285064e+02 9.304012e+01 5.736872e+01 8.326283e+01 6.317837e+01 5.608306e+01 5.811004e+01 5.498347e+01 4.746066e+01 3.553910e+01 3.173851e+01 2.810390e+01 4.253944e+00 4.363395e+00 3.566348e+00 3.846258e+00 3.977257e+00 3.485499e+00 3.739101e+00 3.568152e+00 3.431657e+00 2.870036e+00 2.490974e+00 2.127762e+00 4.115048e+00
<GCONST> 1.109788e+02
<STATE> 4
<MEAN> 25
 2.086226e-08 -6.891275e-08 -4.667089e-08 1.245006e-08 3.721557e-08 -2.153523e-08 3.560043e-08 1.712724e-08 5.114618e-08 1.051357e-07 5.047320e-10 -2.865195e-08 3.254249e-02 1.895490e-03 4.122885e-03 -8.542646e-04 -2.040068e-04 -1.363436e-02 -1.552327e-02 -1.132498e-02 -1.702807e-02 -1.164948e-02 -1.754293e-02 -1.407622e-02 2.606464e-02
<VARIANCE> 25
 2.285064e+02 9.304012e+01 5.736872e+01 8.326283e+01 6.317837e+01 5.608306e+01 5.811004e+01 5.498347e+01 4.746066e+01 3.553910e+01 3.173851e+01 2.810390e+01 4.253944e+00 4.363395e+00 3.566348e+00 3.846258e+00 3.977257e+00 3.485499e+00 3.739101e+00 3.568152e+00 3.431657e+00 2.870036e+00 2.490974e+00 2.127762e+00 4.115048e+00
<GCONST> 1.109788e+02
<TRANSP> 5
 0.000000e+00 1.000000e+00 0.000000e+00 0.000000e+00 0.000000e+00
 0.000000e+00 6.000000e-01 4.000000e-01 0.000000e+00 0.000000e+00
 0.000000e+00 0.000000e+00 6.000000e-01 4.000000e-01 0.000000e+00
 0.000000e+00 0.000000e+00 0.000000e+00 7.000000e-01 3.000000e-01
 0.000000e+00 0.000000e+00 0.000000e+00 0.000000e+00 0.000000e+00
<ENDHMM>
~h "ah"
<BEGINHMM>
<NUMSTATES> 5
<STATE> 2
<MEAN> 25
 2.086226e-08 -6.891275e-08 -4.667089e-08 1.245006e-08 3.721557e-08 -2.153523e-08 3.560043e-08 1.712724e-08 5.114618e-08 1.051357e-07 5.047320e-10 -2.865195e-08 3.254249e-02 1.895490e-03 4.122885e-03 -8.542646e-04 -2.040068e-04 -1.363436e-02 -1.552327e-02 -1.132498e-02 -1.702807e-02 -1.164948e-02 -1.754293e-02 -1.407622e-02 2.606464e-02
<VARIANCE> 25
 2.285064e+02 9.304012e+01 5.736872e+01 8.326283e+01 6.317837e+01 5.608306e+01 5.811004e+01 5.498347e+01 4.746066e+01 3.553910e+01 3.173851e+01 2.810390e+01 4.253944e+00 4.363395e+00 3.566348e+00 3.846258e+00 3.977257e+00 3.485499e+00 3.739101e+00 3.568152e+00 3.431657e+00 2.870036e+00 2.490974e+00 2.127762e+00 4.115048e+00
<GCONST> 1.109788e+02
<STATE> 3
<MEAN> 25
 2.086226e-08 -6.891275e-08 -4.667089e-08 1.245006e-08 3.721557e-08 -2.153523e-08 3.560043e-08 1.712724e-08 5.114618e-08 1.051357e-07 5.047320e-10 -2.865195e-08 3.254249e-02 1.895490e-03 4.122885e-03 -8.542646e-04 -2.040068e-04 -1.363436e-02 -1.552327e-02 -1.132498e-02 -1.702807e-02 -1.164948e-02 -1.754293e-02 -1.407622e-02 2.606464e-02
<VARIANCE> 25
 2.285064e+02 9.304012e+01 5.736872e+01 8.326283e+01 6.317837e+01 5.608306e+01 5.811004e+01 5.498347e+01 4.746066e+01 3.553910e+01 3.173851e+01 2.810390e+01 4.253944e+00 4.363395e+00 3.566348e+00 3.846258e+00 3.977257e+00 3.485499e+00 3.739101e+00 3.568152e+00 3.431657e+00 2.870036e+00 2.490974e+00 2.127762e+00 4.115048e+00
<GCONST> 1.109788e+02
<STATE> 4
<MEAN> 25
 2.086226e-08 -6.891275e-08 -4.667089e-08 1.245006e-08 3.721557e-08 -2.153523e-08 3.560043e-08 1.712724e-08 5.114618e-08 1.051357e-07 5.047320e-10 -2.865195e-08 3.254249e-02 1.895490e-03 4.122885e-03 -8.542646e-04 -2.040068e-04 -1.363436e-02 -1.552327e-02 -1.132498e-02 -1.702807e-02 -1.164948e-02 -1.754293e-02 -1.407622e-02 2.606464e-02
<VARIANCE> 25
 2.285064e+02 9.304012e+01 5.736872e+01 8.326283e+01 6.317837e+01 5.608306e+01 5.811004e+01 5.498347e+01 4.746066e+01 3.553910e+01 3.173851e+01 2.810390e+01 4.253944e+00 4.363395e+00 3.566348e+00 3.846258e+00 3.977257e+00 3.485499e+00 3.739101e+00 3.568152e+00 3.431657e+00 2.870036e+00 2.490974e+00 2.127762e+00 4.115048e+00
<GCONST> 1.109788e+02
<TRANSP> 5
 0.000000e+00 1.000000e+00 0.000000e+00 0.000000e+00 0.000000e+00
 0.000000e+00 6.000000e-01 4.000000e-01 0.000000e+00 0.000000e+00
 0.000000e+00 0.000000e+00 6.000000e-01 4.000000e-01 0.000000e+00
 0.000000e+00 0.000000e+00 0.000000e+00 7.000000e-01 3.000000e-01
 0.000000e+00 0.000000e+00 0.000000e+00 0.000000e+00 0.000000e+00
<ENDHMM>
~h "d"
<BEGINHMM>
<NUMSTATES> 5
<STATE> 2
<MEAN> 25
 2.086226e-08 -6.891275e-08 -4.667089e-08 1.245006e-08 3.721557e-08 -2.153523e-08 3.560043e-08 1.712724e-08 5.114618e-08 1.051357e-07 5.047320e-10 -2.865195e-08 3.254249e-02 1.895490e-03 4.122885e-03 -8.542646e-04 -2.040068e-04 -1.363436e-02 -1.552327e-02 -1.132498e-02 -1.702807e-02 -1.164948e-02 -1.754293e-02 -1.407622e-02 2.606464e-02
<VARIANCE> 25
 2.285064e+02 9.304012e+01 5.736872e+01 8.326283e+01 6.317837e+01 5.608306e+01 5.811004e+01 5.498347e+01 4.746066e+01 3.553910e+01 3.173851e+01 2.810390e+01 4.253944e+00 4.363395e+00 3.566348e+00 3.846258e+00 3.977257e+00 3.485499e+00 3.739101e+00 3.568152e+00 3.431657e+00 2.870036e+00 2.490974e+00 2.127762e+00 4.115048e+00
<GCONST> 1.109788e+02
<STATE> 3
<MEAN> 25
 2.086226e-08 -6.891275e-08 -4.667089e-08 1.245006e-08 3.721557e-08 -2.153523e-08 3.560043e-08 1.712724e-08 5.114618e-08 1.051357e-07 5.047320e-10 -2.865195e-08 3.254249e-02 1.895490e-03 4.122885e-03 -8.542646e-04 -2.040068e-04 -1.363436e-02 -1.552327e-02 -1.132498e-02 -1.702807e-02 -1.164948e-02 -1.754293e-02 -1.407622e-02 2.606464e-02
<VARIANCE> 25
 2.285064e+02 9.304012e+01 5.736872e+01 8.326283e+01 6.317837e+01 5.608306e+01 5.811004e+01 5.498347e+01 4.746066e+01 3.553910e+01 3.173851e+01 2.810390e+01 4.253944e+00 4.363395e+00 3.566348e+00 3.846258e+00 3.977257e+00 3.485499e+00 3.739101e+00 3.568152e+00 3.431657e+00 2.870036e+00 2.490974e+00 2.127762e+00 4.115048e+00
<GCONST> 1.109788e+02
<STATE> 4
<MEAN> 25
 2.086226e-08 -6.891275e-08 -4.667089e-08 1.245006e-08 3.721557e-08 -2.153523e-08 3.560043e-08 1.712724e-08 5.114618e-08 1.051357e-07 5.047320e-10 -2.865195e-08 3.254249e-02 1.895490e-03 4.122885e-03 -8.542646e-04 -2.040068e-04 -1.363436e-02 -1.552327e-02 -1.132498e-02 -1.702807e-02 -1.164948e-02 -1.754293e-02 -1.407622e-02 2.606464e-02
<VARIANCE> 25
 2.285064e+02 9.304012e+01 5.736872e+01 8.326283e+01 6.317837e+01 5.608306e+01 5.811004e+01 5.498347e+01 4.746066e+01 3.553910e+01 3.173851e+01 2.810390e+01 4.253944e+00 4.363395e+00 3.566348e+00 3.846258e+00 3.977257e+00 3.485499e+00 3.739101e+00 3.568152e+00 3.431657e+00 2.870036e+00 2.490974e+00 2.127762e+00 4.115048e+00
<GCONST> 1.109788e+02
<TRANSP> 5
 0.000000e+00 1.000000e+00 0.000000e+00 0.000000e+00 0.000000e+00
 0.000000e+00 6.000000e-01 4.000000e-01 0.000000e+00 0.000000e+00
 0.000000e+00 0.000000e+00 6.000000e-01 4.000000e-01 0.000000e+00
 0.000000e+00 0.000000e+00 0.000000e+00 7.000000e-01 3.000000e-01
 0.000000e+00 0.000000e+00 0.000000e+00 0.000000e+00 0.000000e+00
<ENDHMM>
~h "r"
<BEGINHMM>
<NUMSTATES> 5
<STATE> 2
<MEAN> 25
 2.086226e-08 -6.891275e-08 -4.667089e-08 1.245006e-08 3.721557e-08 -2.153523e-08 3.560043e-08 1.712724e-08 5.114618e-08 1.051357e-07 5.047320e-10 -2.865195e-08 3.254249e-02 1.895490e-03 4.122885e-03 -8.542646e-04 -2.040068e-04 -1.363436e-02 -1.552327e-02 -1.132498e-02 -1.702807e-02 -1.164948e-02 -1.754293e-02 -1.407622e-02 2.606464e-02
<VARIANCE> 25
 2.285064e+02 9.304012e+01 5.736872e+01 8.326283e+01 6.317837e+01 5.608306e+01 5.811004e+01 5.498347e+01 4.746066e+01 3.553910e+01 3.173851e+01 2.810390e+01 4.253944e+00 4.363395e+00 3.566348e+00 3.846258e+00 3.977257e+00 3.485499e+00 3.739101e+00 3.568152e+00 3.431657e+00 2.870036e+00 2.490974e+00 2.127762e+00 4.115048e+00
<GCONST> 1.109788e+02
<STATE> 3
<MEAN> 25
 2.086226e-08 -6.891275e-08 -4.667089e-08 1.245006e-08 3.721557e-08 -2.153523e-08 3.560043e-08 1.712724e-08 5.114618e-08 1.051357e-07 5.047320e-10 -2.865195e-08 3.254249e-02 1.895490e-03 4.122885e-03 -8.542646e-04 -2.040068e-04 -1.363436e-02 -1.552327e-02 -1.132498e-02 -1.702807e-02 -1.164948e-02 -1.754293e-02 -1.407622e-02 2.606464e-02
<VARIANCE> 25
 2.285064e+02 9.304012e+01 5.736872e+01 8.326283e+01 6.317837e+01 5.608306e+01 5.811004e+01 5.498347e+01 4.746066e+01 3.553910e+01 3.173851e+01 2.810390e+01 4.253944e+00 4.363395e+00 3.566348e+00 3.846258e+00 3.977257e+00 3.485499e+00 3.739101e+00 3.568152e+00 3.431657e+00 2.870036e+00 2.490974e+00 2.127762e+00 4.115048e+00
<GCONST> 1.109788e+02
<STATE> 4
<MEAN> 25
 2.086226e-08 -6.891275e-08 -4.667089e-08 1.245006e-08 3.721557e-08 -2.153523e-08 3.560043e-08 1.712724e-08 5.114618e-08 1.051357e-07 5.047320e-10 -2.865195e-08 3.254249e-02 1.895490e-03 4.122885e-03 -8.542646e-04 -2.040068e-04 -1.363436e-02 -1.552327e-02 -1.132498e-02 -1.702807e-02 -1.164948e-02 -1.754293e-02 -1.407622e-02 2.606464e-02
<VARIANCE> 25
 2.285064e+02 9.304012e+01 5.736872e+01 8.326283e+01 6.317837e+01 5.608306e+01 5.811004e+01 5.498347e+01 4.746066e+01 3.553910e+01 3.173851e+01 2.810390e+01 4.253944e+00 4.363395e+00 3.566348e+00 3.846258e+00 3.977257e+00 3.485499e+00 3.739101e+00 3.568152e+00 3.431657e+00 2.870036e+00 2.490974e+00 2.127762e+00 4.115048e+00
<GCONST> 1.109788e+02
<TRANSP> 5
 0.000000e+00 1.000000e+00 0.000000e+00 0.000000e+00 0.000000e+00
 0.000000e+00 6.000000e-01 4.000000e-01 0.000000e+00 0.000000e+00
 0.000000e+00 0.000000e+00 6.000000e-01 4.000000e-01 0.000000e+00
 0.000000e+00 0.000000e+00 0.000000e+00 7.000000e-01 3.000000e-01
 0.000000e+00 0.000000e+00 0.000000e+00 0.000000e+00 0.000000e+00
<ENDHMM>
~h "ao"
<BEGINHMM>
<NUMSTATES> 5
<STATE> 2
<MEAN> 25
 2.086226e-08 -6.891275e-08 -4.667089e-08 1.245006e-08 3.721557e-08 -2.153523e-08 3.560043e-08 1.712724e-08 5.114618e-08 1.051357e-07 5.047320e-10 -2.865195e-08 3.254249e-02 1.895490e-03 4.122885e-03 -8.542646e-04 -2.040068e-04 -1.363436e-02 -1.552327e-02 -1.132498e-02 -1.702807e-02 -1.164948e-02 -1.754293e-02 -1.407622e-02 2.606464e-02
<VARIANCE> 25
 2.285064e+02 9.304012e+01 5.736872e+01 8.326283e+01 6.317837e+01 5.608306e+01 5.811004e+01 5.498347e+01 4.746066e+01 3.553910e+01 3.173851e+01 2.810390e+01 4.253944e+00 4.363395e+00 3.566348e+00 3.846258e+00 3.977257e+00 3.485499e+00 3.739101e+00 3.568152e+00 3.431657e+00 2.870036e+00 2.490974e+00 2.127762e+00 4.115048e+00
<GCONST> 1.109788e+02
<STATE> 3
<MEAN> 25
 2.086226e-08 -6.891275e-08 -4.667089e-08 1.245006e-08 3.721557e-08 -2.153523e-08 3.560043e-08 1.712724e-08 5.114618e-08 1.051357e-07 5.047320e-10 -2.865195e-08 3.254249e-02 1.895490e-03 4.122885e-03 -8.542646e-04 -2.040068e-04 -1.363436e-02 -1.552327e-02 -1.132498e-02 -1.702807e-02 -1.164948e-02 -1.754293e-02 -1.407622e-02 2.606464e-02
<VARIANCE> 25
 2.285064e+02 9.304012e+01 5.736872e+01 8.326283e+01 6.317837e+01 5.608306e+01 5.811004e+01 5.498347e+01 4.746066e+01 3.553910e+01 3.173851e+01 2.810390e+01 4.253944e+00 4.363395e+00 3.566348e+00 3.846258e+00 3.977257e+00 3.485499e+00 3.739101e+00 3.568152e+00 3.431657e+00 2.870036e+00 2.490974e+00 2.127762e+00 4.115048e+00
<GCONST> 1.109788e+02
<STATE> 4
<MEAN> 25
 2.086226e-08 -6.891275e-08 -4.667089e-08 1.245006e-08 3.721557e-08 -2.153523e-08 3.560043e-08 1.712724e-08 5.114618e-08 1.051357e-07 5.047320e-10 -2.865195e-08 3.254249e-02 1.895490e-03 4.122885e-03 -8.542646e-04 -2.040068e-04 -1.363436e-02 -1.552327e-02 -1.132498e-02 -1.702807e-02 -1.164948e-02 -1.754293e-02 -1.407622e-02 2.606464e-02
<VARIANCE> 25
 2.285064e+02 9.304012e+01 5.736872e+01 8.326283e+01 6.317837e+01 5.608306e+01 5.811004e+01 5.498347e+01 4.746066e+01 3.553910e+01 3.173851e+01 2.810390e+01 4.253944e+00 4.363395e+00 3.566348e+00 3.846258e+00 3.977257e+00 3.485499e+00 3.739101e+00 3.568152e+00 3.431657e+00 2.870036e+00 2.490974e+00 2.127762e+00 4.115048e+00
<GCONST> 1.109788e+02
<TRANSP> 5
 0.000000e+00 1.000000e+00 0.000000e+00 0.000000e+00 0.000000e+00
 0.000000e+00 6.000000e-01 4.000000e-01 0.000000e+00 0.000000e+00
 0.000000e+00 0.000000e+00 6.000000e-01 4.000000e-01 0.000000e+00
 0.000000e+00 0.000000e+00 0.000000e+00 7.000000e-01 3.000000e-01
 0.000000e+00 0.000000e+00 0.000000e+00 0.000000e+00 0.000000e+00
<ENDHMM>
~h "ih"
<BEGINHMM>
<NUMSTATES> 5
<STATE> 2
<MEAN> 25
 2.086226e-08 -6.891275e-08 -4.667089e-08 1.245006e-08 3.721557e-08 -2.153523e-08 3.560043e-08 1.712724e-08 5.114618e-08 1.051357e-07 5.047320e-10 -2.865195e-08 3.254249e-02 1.895490e-03 4.122885e-03 -8.542646e-04 -2.040068e-04 -1.363436e-02 -1.552327e-02 -1.132498e-02 -1.702807e-02 -1.164948e-02 -1.754293e-02 -1.407622e-02 2.606464e-02
<VARIANCE> 25
 2.285064e+02 9.304012e+01 5.736872e+01 8.326283e+01 6.317837e+01 5.608306e+01 5.811004e+01 5.498347e+01 4.746066e+01 3.553910e+01 3.173851e+01 2.810390e+01 4.253944e+00 4.363395e+00 3.566348e+00 3.846258e+00 3.977257e+00 3.485499e+00 3.739101e+00 3.568152e+00 3.431657e+00 2.870036e+00 2.490974e+00 2.127762e+00 4.115048e+00
<GCONST> 1.109788e+02
<STATE> 3
<MEAN> 25
 2.086226e-08 -6.891275e-08 -4.667089e-08 1.245006e-08 3.721557e-08 -2.153523e-08 3.560043e-08 1.712724e-08 5.114618e-08 1.051357e-07 5.047320e-10 -2.865195e-08 3.254249e-02 1.895490e-03 4.122885e-03 -8.542646e-04 -2.040068e-04 -1.363436e-02 -1.552327e-02 -1.132498e-02 -1.702807e-02 -1.164948e-02 -1.754293e-02 -1.407622e-02 2.606464e-02
<VARIANCE> 25
 2.285064e+02 9.304012e+01 5.736872e+01 8.326283e+01 6.317837e+01 5.608306e+01 5.811004e+01 5.498347e+01 4.746066e+01 3.553910e+01 3.173851e+01 2.810390e+01 4.253944e+00 4.363395e+00 3.566348e+00 3.846258e+00 3.977257e+00 3.485499e+00 3.739101e+00 3.568152e+00 3.431657e+00 2.870036e+00 2.490974e+00 2.127762e+00 4.115048e+00
<GCONST> 1.109788e+02
<STATE> 4
<MEAN> 25
 2.086226e-08 -6.891275e-08 -4.667089e-08 1.245006e-08 3.721557e-08 -2.153523e-08 3.560043e-08 1.712724e-08 5.114618e-08 1.051357e-07 5.047320e-10 -2.865195e-08 3.254249e-02 1.895490e-03 4.122885e-03 -8.542646e-04 -2.040068e-04 -1.363436e-02 -1.552327e-02 -1.132498e-02 -1.702807e-02 -1.164948e-02 -1.754293e-02 -1.407622e-02 2.606464e-02
<VARIANCE> 25
 2.285064e+02 9.304012e+01 5.736872e+01 8.326283e+01 6.317837e+01 5.608306e+01 5.811004e+01 5.498347e+01 4.746066e+01 3.553910e+01 3.173851e+01 2.810390e+01 4.253944e+00 4.363395e+00 3.566348e+00 3.846258e+00 3.977257e+00 3.485499e+00 3.739101e+00 3.568152e+00 3.431657e+00 2.870036e+00 2.490974e+00 2.127762e+00 4.115048e+00
<GCONST> 1.109788e+02
<TRANSP> 5
 0.000000e+00 1.000000e+00 0.000000e+00 0.000000e+00 0.000000e+00
 0.000000e+00 6.000000e-01 4.000000e-01 0.000000e+00 0.000000e+00
 0.000000e+00 0.000000e+00 6.000000e-01 4.000000e-01 0.000000e+00
 0.000000e+00 0.000000e+00 0.000000e+00 7.000000e-01 3.000000e-01
 0.000000e+00 0.000000e+00 0.000000e+00 0.000000e+00 0.000000e+00
<ENDHMM>
~h "ey"
<BEGINHMM>
<NUMSTATES> 5
<STATE> 2
<MEAN> 25
 2.086226e-08 -6.891275e-08 -4.667089e-08 1.245006e-08 3.721557e-08 -2.153523e-08 3.560043e-08 1.712724e-08 5.114618e-08 1.051357e-07 5.047320e-10 -2.865195e-08 3.254249e-02 1.895490e-03 4.122885e-03 -8.542646e-04 -2.040068e-04 -1.363436e-02 -1.552327e-02 -1.132498e-02 -1.702807e-02 -1.164948e-02 -1.754293e-02 -1.407622e-02 2.606464e-02
<VARIANCE> 25
 2.285064e+02 9.304012e+01 5.736872e+01 8.326283e+01 6.317837e+01 5.608306e+01 5.811004e+01 5.498347e+01 4.746066e+01 3.553910e+01 3.173851e+01 2.810390e+01 4.253944e+00 4.363395e+00 3.566348e+00 3.846258e+00 3.977257e+00 3.485499e+00 3.739101e+00 3.568152e+00 3.431657e+00 2.870036e+00 2.490974e+00 2.127762e+00 4.115048e+00
<GCONST> 1.109788e+02
<STATE> 3
<MEAN> 25
 2.086226e-08 -6.891275e-08 -4.667089e-08 1.245006e-08 3.721557e-08 -2.153523e-08 3.560043e-08 1.712724e-08 5.114618e-08 1.051357e-07 5.047320e-10 -2.865195e-08 3.254249e-02 1.895490e-03 4.122885e-03 -8.542646e-04 -2.040068e-04 -1.363436e-02 -1.552327e-02 -1.132498e-02 -1.702807e-02 -1.164948e-02 -1.754293e-02 -1.407622e-02 2.606464e-02
<VARIANCE> 25
 2.285064e+02 9.304012e+01 5.736872e+01 8.326283e+01 6.317837e+01 5.608306e+01 5.811004e+01 5.498347e+01 4.746066e+01 3.553910e+01 3.173851e+01 2.810390e+01 4.253944e+00 4.363395e+00 3.566348e+00 3.846258e+00 3.977257e+00 3.485499e+00 3.739101e+00 3.568152e+00 3.431657e+00 2.870036e+00 2.490974e+00 2.127762e+00 4.115048e+00
<GCONST> 1.109788e+02
<STATE> 4
<MEAN> 25
 2.086226e-08 -6.891275e-08 -4.667089e-08 1.245006e-08 3.721557e-08 -2.153523e-08 3.560043e-08 1.712724e-08 5.114618e-08 1.051357e-07 5.047320e-10 -2.865195e-08 3.254249e-02 1.895490e-03 4.122885e-03 -8.542646e-04 -2.040068e-04 -1.363436e-02 -1.552327e-02 -1.132498e-02 -1.702807e-02 -1.164948e-02 -1.754293e-02 -1.407622e-02 2.606464e-02
<VARIANCE> 25
 2.285064e+02 9.304012e+01 5.736872e+01 8.326283e+01 6.317837e+01 5.608306e+01 5.811004e+01 5.498347e+01 4.746066e+01 3.553910e+01 3.173851e+01 2.810390e+01 4.253944e+00 4.363395e+00 3.566348e+00 3.846258e+00 3.977257e+00 3.485499e+00 3.739101e+00 3.568152e+00 3.431657e+00 2.870036e+00 2.490974e+00 2.127762e+00 4.115048e+00
<GCONST> 1.109788e+02
<TRANSP> 5
 0.000000e+00 1.000000e+00 0.000000e+00 0.000000e+00 0.000000e+00
 0.000000e+00 6.000000e-01 4.000000e-01 0.000000e+00 0.000000e+00
 0.000000e+00 0.000000e+00 6.000000e-01 4.000000e-01 0.000000e+00
 0.000000e+00 0.000000e+00 0.000000e+00 7.000000e-01 3.000000e-01
 0.000000e+00 0.000000e+00 0.000000e+00 0.000000e+00 0.000000e+00
<ENDHMM>
~h "f"
<BEGINHMM>
<NUMSTATES> 5
<STATE> 2
<MEAN> 25
 2.086226e-08 -6.891275e-08 -4.667089e-08 1.245006e-08 3.721557e-08 -2.153523e-08 3.560043e-08 1.712724e-08 5.114618e-08 1.051357e-07 5.047320e-10 -2.865195e-08 3.254249e-02 1.895490e-03 4.122885e-03 -8.542646e-04 -2.040068e-04 -1.363436e-02 -1.552327e-02 -1.132498e-02 -1.702807e-02 -1.164948e-02 -1.754293e-02 -1.407622e-02 2.606464e-02
<VARIANCE> 25
 2.285064e+02 9.304012e+01 5.736872e+01 8.326283e+01 6.317837e+01 5.608306e+01 5.811004e+01 5.498347e+01 4.746066e+01 3.553910e+01 3.173851e+01 2.810390e+01 4.253944e+00 4.363395e+00 3.566348e+00 3.846258e+00 3.977257e+00 3.485499e+00 3.739101e+00 3.568152e+00 3.431657e+00 2.870036e+00 2.490974e+00 2.127762e+00 4.115048e+00
<GCONST> 1.109788e+02
<STATE> 3
<MEAN> 25
 2.086226e-08 -6.891275e-08 -4.667089e-08 1.245006e-08 3.721557e-08 -2.153523e-08 3.560043e-08 1.712724e-08 5.114618e-08 1.051357e-07 5.047320e-10 -2.865195e-08 3.254249e-02 1.895490e-03 4.122885e-03 -8.542646e-04 -2.040068e-04 -1.363436e-02 -1.552327e-02 -1.132498e-02 -1.702807e-02 -1.164948e-02 -1.754293e-02 -1.407622e-02 2.606464e-02
<VARIANCE> 25
 2.285064e+02 9.304012e+01 5.736872e+01 8.326283e+01 6.317837e+01 5.608306e+01 5.811004e+01 5.498347e+01 4.746066e+01 3.553910e+01 3.173851e+01 2.810390e+01 4.253944e+00 4.363395e+00 3.566348e+00 3.846258e+00 3.977257e+00 3.485499e+00 3.739101e+00 3.568152e+00 3.431657e+00 2.870036e+00 2.490974e+00 2.127762e+00 4.115048e+00
<GCONST> 1.109788e+02
<STATE> 4
<MEAN> 25
 2.086226e-08 -6.891275e-08 -4.667089e-08 1.245006e-08 3.721557e-08 -2.153523e-08 3.560043e-08 1.712724e-08 5.114618e-08 1.051357e-07 5.047320e-10 -2.865195e-08 3.254249e-02 1.895490e-03 4.122885e-03 -8.542646e-04 -2.040068e-04 -1.363436e-02 -1.552327e-02 -1.132498e-02 -1.702807e-02 -1.164948e-02 -1.754293e-02 -1.407622e-02 2.606464e-02
<VARIANCE> 25
 2.285064e+02 9.304012e+01 5.736872e+01 8.326283e+01 6.317837e+01 5.608306e+01 5.811004e+01 5.498347e+01 4.746066e+01 3.553910e+01 3.173851e+01 2.810390e+01 4.253944e+00 4.363395e+00 3.566348e+00 3.846258e+00 3.977257e+00 3.485499e+00 3.739101e+00 3.568152e+00 3.431657e+00 2.870036e+00 2.490974e+00 2.127762e+00 4.115048e+00
<GCONST> 1.109788e+02
<TRANSP> 5
 0.000000e+00 1.000000e+00 0.000000e+00 0.000000e+00 0.000000e+00
 0.000000e+00 6.000000e-01 4.000000e-01 0.000000e+00 0.000000e+00
 0.000000e+00 0.000000e+00 6.000000e-01 4.000000e-01 0.000000e+00
 0.000000e+00 0.000000e+00 0.000000e+00 7.000000e-01 3.000000e-01
 0.000000e+00 0.000000e+00 0.000000e+00 0.000000e+00 0.000000e+00
<ENDHMM>
~h "g"
<BEGINHMM>
<NUMSTATES> 5
<STATE> 2
<MEAN> 25
 2.086226e-08 -6.891275e-08 -4.667089e-08 1.245006e-08 3.721557e-08 -2.153523e-08 3.560043e-08 1.712724e-08 5.114618e-08 1.051357e-07 5.047320e-10 -2.865195e-08 3.254249e-02 1.895490e-03 4.122885e-03 -8.542646e-04 -2.040068e-04 -1.363436e-02 -1.552327e-02 -1.132498e-02 -1.702807e-02 -1.164948e-02 -1.754293e-02 -1.407622e-02 2.606464e-02
<VARIANCE> 25
 2.285064e+02 9.304012e+01 5.736872e+01 8.326283e+01 6.317837e+01 5.608306e+01 5.811004e+01 5.498347e+01 4.746066e+01 3.553910e+01 3.173851e+01 2.810390e+01 4.253944e+00 4.363395e+00 3.566348e+00 3.846258e+00 3.977257e+00 3.485499e+00 3.739101e+00 3.568152e+00 3.431657e+00 2.870036e+00 2.490974e+00 2.127762e+00 4.115048e+00
<GCONST> 1.109788e+02
<STATE> 3
<MEAN> 25
 2.086226e-08 -6.891275e-08 -4.667089e-08 1.245006e-08 3.721557e-08 -2.153523e-08 3.560043e-08 1.712724e-08 5.114618e-08 1.051357e-07 5.047320e-10 -2.865195e-08 3.254249e-02 1.895490e-03 4.122885e-03 -8.542646e-04 -2.040068e-04 -1.363436e-02 -1.552327e-02 -1.132498e-02 -1.702807e-02 -1.164948e-02 -1.754293e-02 -1.407622e-02 2.606464e-02
<VARIANCE> 25
 2.285064e+02 9.304012e+01 5.736872e+01 8.326283e+01 6.317837e+01 5.608306e+01 5.811004e+01 5.498347e+01 4.746066e+01 3.553910e+01 3.173851e+01 2.810390e+01 4.253944e+00 4.363395e+00 3.566348e+00 3.846258e+00 3.977257e+00 3.485499e+00 3.739101e+00 3.568152e+00 3.431657e+00 2.870036e+00 2.490974e+00 2.127762e+00 4.115048e+00
<GCONST> 1.109788e+02
<STATE> 4
<MEAN> 25
 2.086226e-08 -6.891275e-08 -4.667089e-08 1.245006e-08 3.721557e-08 -2.153523e-08 3.560043e-08 1.712724e-08 5.114618e-08 1.051357e-07 5.047320e-10 -2.865195e-08 3.254249e-02 1.895490e-03 4.122885e-03 -8.542646e-04 -2.040068e-04 -1.363436e-02 -1.552327e-02 -1.132498e-02 -1.702807e-02 -1.164948e-02 -1.754293e-02 -1.407622e-02 2.606464e-02
<VARIANCE> 25
 2.285064e+02 9.304012e+01 5.736872e+01 8.326283e+01 6.317837e+01 5.608306e+01 5.811004e+01 5.498347e+01 4.746066e+01 3.553910e+01 3.173851e+01 2.810390e+01 4.253944e+00 4.363395e+00 3.566348e+00 3.846258e+00 3.977257e+00 3.485499e+00 3.739101e+00 3.568152e+00 3.431657e+00 2.870036e+00 2.490974e+00 2.127762e+00 4.115048e+00
<GCONST> 1.109788e+02
<TRANSP> 5
 0.000000e+00 1.000000e+00 0.000000e+00 0.000000e+00 0.000000e+00
 0.000000e+00 6.000000e-01 4.000000e-01 0.000000e+00 0.000000e+00
 0.000000e+00 0.000000e+00 6.000000e-01 4.000000e-01 0.000000e+00
 0.000000e+00 0.000000e+00 0.000000e+00 7.000000e-01 3.000000e-01
 0.000000e+00 0.000000e+00 0.000000e+00 0.000000e+00 0.000000e+00
<ENDHMM>
~h "iy"
<BEGINHMM>
<NUMSTATES> 5
<STATE> 2
<MEAN> 25
 2.086226e-08 -6.891275e-08 -4.667089e-08 1.245006e-08 3.721557e-08 -2.153523e-08 3.560043e-08 1.712724e-08 5.114618e-08 1.051357e-07 5.047320e-10 -2.865195e-08 3.254249e-02 1.895490e-03 4.122885e-03 -8.542646e-04 -2.040068e-04 -1.363436e-02 -1.552327e-02 -1.132498e-02 -1.702807e-02 -1.164948e-02 -1.754293e-02 -1.407622e-02 2.606464e-02
<VARIANCE> 25
 2.285064e+02 9.304012e+01 5.736872e+01 8.326283e+01 6.317837e+01 5.608306e+01 5.811004e+01 5.498347e+01 4.746066e+01 3.553910e+01 3.173851e+01 2.810390e+01 4.253944e+00 4.363395e+00 3.566348e+00 3.846258e+00 3.977257e+00 3.485499e+00 3.739101e+00 3.568152e+00 3.431657e+00 2.870036e+00 2.490974e+00 2.127762e+00 4.115048e+00
<GCONST> 1.109788e+02
<STATE> 3
<MEAN> 25
 2.086226e-08 -6.891275e-08 -4.667089e-08 1.245006e-08 3.721557e-08 -2.153523e-08 3.560043e-08 1.712724e-08 5.114618e-08 1.051357e-07 5.047320e-10 -2.865195e-08 3.254249e-02 1.895490e-03 4.122885e-03 -8.542646e-04 -2.040068e-04 -1.363436e-02 -1.552327e-02 -1.132498e-02 -1.702807e-02 -1.164948e-02 -1.754293e-02 -1.407622e-02 2.606464e-02
<VARIANCE> 25
 2.285064e+02 9.304012e+01 5.736872e+01 8.326283e+01 6.317837e+01 5.608306e+01 5.811004e+01 5.498347e+01 4.746066e+01 3.553910e+01 3.173851e+01 2.810390e+01 4.253944e+00 4.363395e+00 3.566348e+00 3.846258e+00 3.977257e+00 3.485499e+00 3.739101e+00 3.568152e+00 3.431657e+00 2.870036e+00 2.490974e+00 2.127762e+00 4.115048e+00
<GCONST> 1.109788e+02
<STATE> 4
<MEAN> 25
 2.086226e-08 -6.891275e-08 -4.667089e-08 1.245006e-08 3.721557e-08 -2.153523e-08 3.560043e-08 1.712724e-08 5.114618e-08 1.051357e-07 5.047320e-10 -2.865195e-08 3.254249e-02 1.895490e-03 4.122885e-03 -8.542646e-04 -2.040068e-04 -1.363436e-02 -1.552327e-02 -1.132498e-02 -1.702807e-02 -1.164948e-02 -1.754293e-02 -1.407622e-02 2.606464e-02
<VARIANCE> 25
 2.285064e+02 9.304012e+01 5.736872e+01 8.326283e+01 6.317837e+01 5.608306e+01 5.811004e+01 5.498347e+01 4.746066e+01 3.553910e+01 3.173851e+01 2.810390e+01 4.253944e+00 4.363395e+00 3.566348e+00 3.846258e+00 3.977257e+00 3.485499e+00 3.739101e+00 3.568152e+00 3.431657e+00 2.870036e+00 2.490974e+00 2.127762e+00 4.115048e+00
<GCONST> 1.109788e+02
<TRANSP> 5
 0.000000e+00 1.000000e+00 0.000000e+00 0.000000e+00 0.000000e+00
 0.000000e+00 6.000000e-01 4.000000e-01 0.000000e+00 0.000000e+00
 0.000000e+00 0.000000e+00 6.000000e-01 4.000000e-01 0.000000e+00
 0.000000e+00 0.000000e+00 0.000000e+00 7.000000e-01 3.000000e-01
 0.000000e+00 0.000000e+00 0.000000e+00 0.000000e+00 0.000000e+00
<ENDHMM>
~h "n"
<BEGINHMM>
<NUMSTATES> 5
<STATE> 2
<MEAN> 25
 2.086226e-08 -6.891275e-08 -4.667089e-08 1.245006e-08 3.721557e-08 -2.153523e-08 3.560043e-08 1.712724e-08 5.114618e-08 1.051357e-07 5.047320e-10 -2.865195e-08 3.254249e-02 1.895490e-03 4.122885e-03 -8.542646e-04 -2.040068e-04 -1.363436e-02 -1.552327e-02 -1.132498e-02 -1.702807e-02 -1.164948e-02 -1.754293e-02 -1.407622e-02 2.606464e-02
<VARIANCE> 25
 2.285064e+02 9.304012e+01 5.736872e+01 8.326283e+01 6.317837e+01 5.608306e+01 5.811004e+01 5.498347e+01 4.746066e+01 3.553910e+01 3.173851e+01 2.810390e+01 4.253944e+00 4.363395e+00 3.566348e+00 3.846258e+00 3.977257e+00 3.485499e+00 3.739101e+00 3.568152e+00 3.431657e+00 2.870036e+00 2.490974e+00 2.127762e+00 4.115048e+00
<GCONST> 1.109788e+02
<STATE> 3
<MEAN> 25
 2.086226e-08 -6.891275e-08 -4.667089e-08 1.245006e-08 3.721557e-08 -2.153523e-08 3.560043e-08 1.712724e-08 5.114618e-08 1.051357e-07 5.047320e-10 -2.865195e-08 3.254249e-02 1.895490e-03 4.122885e-03 -8.542646e-04 -2.040068e-04 -1.363436e-02 -1.552327e-02 -1.132498e-02 -1.702807e-02 -1.164948e-02 -1.754293e-02 -1.407622e-02 2.606464e-02
<VARIANCE> 25
 2.285064e+02 9.304012e+01 5.736872e+01 8.326283e+01 6.317837e+01 5.608306e+01 5.811004e+01 5.498347e+01 4.746066e+01 3.553910e+01 3.173851e+01 2.810390e+01 4.253944e+00 4.363395e+00 3.566348e+00 3.846258e+00 3.977257e+00 3.485499e+00 3.739101e+00 3.568152e+00 3.431657e+00 2.870036e+00 2.490974e+00 2.127762e+00 4.115048e+00
<GCONST> 1.109788e+02
<STATE> 4
<MEAN> 25
 2.086226e-08 -6.891275e-08 -4.667089e-08 1.245006e-08 3.721557e-08 -2.153523e-08 3.560043e-08 1.712724e-08 5.114618e-08 1.051357e-07 5.047320e-10 -2.865195e-08 3.254249e-02 1.895490e-03 4.122885e-03 -8.542646e-04 -2.040068e-04 -1.363436e-02 -1.552327e-02 -1.132498e-02 -1.702807e-02 -1.164948e-02 -1.754293e-02 -1.407622e-02 2.606464e-02
<VARIANCE> 25
 2.285064e+02 9.304012e+01 5.736872e+01 8.326283e+01 6.317837e+01 5.608306e+01 5.811004e+01 5.498347e+01 4.746066e+01 3.553910e+01 3.173851e+01 2.810390e+01 4.253944e+00 4.363395e+00 3.566348e+00 3.846258e+00 3.977257e+00 3.485499e+00 3.739101e+00 3.568152e+00 3.431657e+00 2.870036e+00 2.490974e+00 2.127762e+00 4.115048e+00
<GCONST> 1.109788e+02
<TRANSP> 5
 0.000000e+00 1.000000e+00 0.000000e+00 0.000000e+00 0.000000e+00
 0.000000e+00 6.000000e-01 4.000000e-01 0.000000e+00 0.000000e+00
 0.000000e+00 0.000000e+00 6.000000e-01 4.000000e-01 0.000000e+00
 0.000000e+00 0.000000e+00 0.000000e+00 7.000000e-01 3.000000e-01
 0.000000e+00 0.000000e+00 0.000000e+00 0.000000e+00 0.000000e+00
<ENDHMM>
~h "w"
<BEGINHMM>
<NUMSTATES> 5
<STATE> 2
<MEAN> 25
 2.086226e-08 -6.891275e-08 -4.667089e-08 1.245006e-08 3.721557e-08 -2.153523e-08 3.560043e-08 1.712724e-08 5.114618e-08 1.051357e-07 5.047320e-10 -2.865195e-08 3.254249e-02 1.895490e-03 4.122885e-03 -8.542646e-04 -2.040068e-04 -1.363436e-02 -1.552327e-02 -1.132498e-02 -1.702807e-02 -1.164948e-02 -1.754293e-02 -1.407622e-02 2.606464e-02
<VARIANCE> 25
 2.285064e+02 9.304012e+01 5.736872e+01 8.326283e+01 6.317837e+01 5.608306e+01 5.811004e+01 5.498347e+01 4.746066e+01 3.553910e+01 3.173851e+01 2.810390e+01 4.253944e+00 4.363395e+00 3.566348e+00 3.846258e+00 3.977257e+00 3.485499e+00 3.739101e+00 3.568152e+00 3.431657e+00 2.870036e+00 2.490974e+00 2.127762e+00 4.115048e+00
<GCONST> 1.109788e+02
<STATE> 3
<MEAN> 25
 2.086226e-08 -6.891275e-08 -4.667089e-08 1.245006e-08 3.721557e-08 -2.153523e-08 3.560043e-08 1.712724e-08 5.114618e-08 1.051357e-07 5.047320e-10 -2.865195e-08 3.254249e-02 1.895490e-03 4.122885e-03 -8.542646e-04 -2.040068e-04 -1.363436e-02 -1.552327e-02 -1.132498e-02 -1.702807e-02 -1.164948e-02 -1.754293e-02 -1.407622e-02 2.606464e-02
<VARIANCE> 25
 2.285064e+02 9.304012e+01 5.736872e+01 8.326283e+01 6.317837e+01 5.608306e+01 5.811004e+01 5.498347e+01 4.746066e+01 3.553910e+01 3.173851e+01 2.810390e+01 4.253944e+00 4.363395e+00 3.566348e+00 3.846258e+00 3.977257e+00 3.485499e+00 3.739101e+00 3.568152e+00 3.431657e+00 2.870036e+00 2.490974e+00 2.127762e+00 4.115048e+00
<GCONST> 1.109788e+02
<STATE> 4
<MEAN> 25
 2.086226e-08 -6.891275e-08 -4.667089e-08 1.245006e-08 3.721557e-08 -2.153523e-08 3.560043e-08 1.712724e-08 5.114618e-08 1.051357e-07 5.047320e-10 -2.865195e-08 3.254249e-02 1.895490e-03 4.122885e-03 -8.542646e-04 -2.040068e-04 -1.363436e-02 -1.552327e-02 -1.132498e-02 -1.702807e-02 -1.164948e-02 -1.754293e-02 -1.407622e-02 2.606464e-02
<VARIANCE> 25
 2.285064e+02 9.304012e+01 5.736872e+01 8.326283e+01 6.317837e+01 5.608306e+01 5.811004e+01 5.498347e+01 4.746066e+01 3.553910e+01 3.173851e+01 2.810390e+01 4.253944e+00 4.363395e+00 3.566348e+00 3.846258e+00 3.977257e+00 3.485499e+00 3.739101e+00 3.568152e+00 3.431657e+00 2.870036e+00 2.490974e+00 2.127762e+00 4.115048e+00
<GCONST> 1.109788e+02
<TRANSP> 5
 0.000000e+00 1.000000e+00 0.000000e+00 0.000000e+00 0.000000e+00
 0.000000e+00 6.000000e-01 4.000000e-01 0.000000e+00 0.000000e+00
 0.000000e+00 0.000000e+00 6.000000e-01 4.000000e-01 0.000000e+00
 0.000000e+00 0.000000e+00 0.000000e+00 7.000000e-01 3.000000e-01
 0.000000e+00 0.000000e+00 0.000000e+00 0.000000e+00 0.000000e+00
<ENDHMM>
~h "aw"
<BEGINHMM>
<NUMSTATES> 5
<STATE> 2
<MEAN> 25
 2.086226e-08 -6.891275e-08 -4.667089e-08 1.245006e-08 3.721557e-08 -2.153523e-08 3.560043e-08 1.712724e-08 5.114618e-08 1.051357e-07 5.047320e-10 -2.865195e-08 3.254249e-02 1.895490e-03 4.122885e-03 -8.542646e-04 -2.040068e-04 -1.363436e-02 -1.552327e-02 -1.132498e-02 -1.702807e-02 -1.164948e-02 -1.754293e-02 -1.407622e-02 2.606464e-02
<VARIANCE> 25
 2.285064e+02 9.304012e+01 5.736872e+01 8.326283e+01 6.317837e+01 5.608306e+01 5.811004e+01 5.498347e+01 4.746066e+01 3.553910e+01 3.173851e+01 2.810390e+01 4.253944e+00 4.363395e+00 3.566348e+00 3.846258e+00 3.977257e+00 3.485499e+00 3.739101e+00 3.568152e+00 3.431657e+00 2.870036e+00 2.490974e+00 2.127762e+00 4.115048e+00
<GCONST> 1.109788e+02
<STATE> 3
<MEAN> 25
 2.086226e-08 -6.891275e-08 -4.667089e-08 1.245006e-08 3.721557e-08 -2.153523e-08 3.560043e-08 1.712724e-08 5.114618e-08 1.051357e-07 5.047320e-10 -2.865195e-08 3.254249e-02 1.895490e-03 4.122885e-03 -8.542646e-04 -2.040068e-04 -1.363436e-02 -1.552327e-02 -1.132498e-02 -1.702807e-02 -1.164948e-02 -1.754293e-02 -1.407622e-02 2.606464e-02
<VARIANCE> 25
 2.285064e+02 9.304012e+01 5.736872e+01 8.326283e+01 6.317837e+01 5.608306e+01 5.811004e+01 5.498347e+01 4.746066e+01 3.553910e+01 3.173851e+01 2.810390e+01 4.253944e+00 4.363395e+00 3.566348e+00 3.846258e+00 3.977257e+00 3.485499e+00 3.739101e+00 3.568152e+00 3.431657e+00 2.870036e+00 2.490974e+00 2.127762e+00 4.115048e+00
<GCONST> 1.109788e+02
<STATE> 4
<MEAN> 25
 2.086226e-08 -6.891275e-08 -4.667089e-08 1.245006e-08 3.721557e-08 -2.153523e-08 3.560043e-08 1.712724e-08 5.114618e-08 1.051357e-07 5.047320e-10 -2.865195e-08 3.254249e-02 1.895490e-03 4.122885e-03 -8.542646e-04 -2.040068e-04 -1.363436e-02 -1.552327e-02 -1.132498e-02 -1.702807e-02 -1.164948e-02 -1.754293e-02 -1.407622e-02 2.606464e-02
<VARIANCE> 25
 2.285064e+02 9.304012e+01 5.736872e+01 8.326283e+01 6.317837e+01 5.608306e+01 5.811004e+01 5.498347e+01 4.746066e+01 3.553910e+01 3.173851e+01 2.810390e+01 4.253944e+00 4.363395e+00 3.566348e+00 3.846258e+00 3.977257e+00 3.485499e+00 3.739101e+00 3.568152e+00 3.431657e+00 2.870036e+00 2.490974e+00 2.127762e+00 4.115048e+00
<GCONST> 1.109788e+02
<TRANSP> 5
 0.000000e+00 1.000000e+00 0.000000e+00 0.000000e+00 0.000000e+00
 0.000000e+00 6.000000e-01 4.000000e-01 0.000000e+00 0.000000e+00
 0.000000e+00 0.000000e+00 6.000000e-01 4.000000e-01 0.000000e+00
 0.000000e+00 0.000000e+00 0.000000e+00 7.000000e-01 3.000000e-01
 0.000000e+00 0.000000e+00 0.000000e+00 0.000000e+00 0.000000e+00
<ENDHMM>
~h "t"
<BEGINHMM>
<NUMSTATES> 5
<STATE> 2
<MEAN> 25
 2.086226e-08 -6.891275e-08 -4.667089e-08 1.245006e-08 3.721557e-08 -2.153523e-08 3.560043e-08 1.712724e-08 5.114618e-08 1.051357e-07 5.047320e-10 -2.865195e-08 3.254249e-02 1.895490e-03 4.122885e-03 -8.542646e-04 -2.040068e-04 -1.363436e-02 -1.552327e-02 -1.132498e-02 -1.702807e-02 -1.164948e-02 -1.754293e-02 -1.407622e-02 2.606464e-02
<VARIANCE> 25
 2.285064e+02 9.304012e+01 5.736872e+01 8.326283e+01 6.317837e+01 5.608306e+01 5.811004e+01 5.498347e+01 4.746066e+01 3.553910e+01 3.173851e+01 2.810390e+01 4.253944e+00 4.363395e+00 3.566348e+00 3.846258e+00 3.977257e+00 3.485499e+00 3.739101e+00 3.568152e+00 3.431657e+00 2.870036e+00 2.490974e+00 2.127762e+00 4.115048e+00
<GCONST> 1.109788e+02
<STATE> 3
<MEAN> 25
 2.086226e-08 -6.891275e-08 -4.667089e-08 1.245006e-08 3.721557e-08 -2.153523e-08 3.560043e-08 1.712724e-08 5.114618e-08 1.051357e-07 5.047320e-10 -2.865195e-08 3.254249e-02 1.895490e-03 4.122885e-03 -8.542646e-04 -2.040068e-04 -1.363436e-02 -1.552327e-02 -1.132498e-02 -1.702807e-02 -1.164948e-02 -1.754293e-02 -1.407622e-02 2.606464e-02
<VARIANCE> 25
 2.285064e+02 9.304012e+01 5.736872e+01 8.326283e+01 6.317837e+01 5.608306e+01 5.811004e+01 5.498347e+01 4.746066e+01 3.553910e+01 3.173851e+01 2.810390e+01 4.253944e+00 4.363395e+00 3.566348e+00 3.846258e+00 3.977257e+00 3.485499e+00 3.739101e+00 3.568152e+00 3.431657e+00 2.870036e+00 2.490974e+00 2.127762e+00 4.115048e+00
<GCONST> 1.109788e+02
<STATE> 4
<MEAN> 25
 2.086226e-08 -6.891275e-08 -4.667089e-08 1.245006e-08 3.721557e-08 -2.153523e-08 3.560043e-08 1.712724e-08 5.114618e-08 1.051357e-07 5.047320e-10 -2.865195e-08 3.254249e-02 1.895490e-03 4.122885e-03 -8.542646e-04 -2.040068e-04 -1.363436e-02 -1.552327e-02 -1.132498e-02 -1.702807e-02 -1.164948e-02 -1.754293e-02 -1.407622e-02 2.606464e-02
<VARIANCE> 25
 2.285064e+02 9.304012e+01 5.736872e+01 8.326283e+01 6.317837e+01 5.608306e+01 5.811004e+01 5.498347e+01 4.746066e+01 3.553910e+01 3.173851e+01 2.810390e+01 4.253944e+00 4.363395e+00 3.566348e+00 3.846258e+00 3.977257e+00 3.485499e+00 3.739101e+00 3.568152e+00 3.431657e+00 2.870036e+00 2.490974e+00 2.127762e+00 4.115048e+00
<GCONST> 1.109788e+02
<TRANSP> 5
 0.000000e+00 1.000000e+00 0.000000e+00 0.000000e+00 0.000000e+00
 0.000000e+00 6.000000e-01 4.000000e-01 0.000000e+00 0.000000e+00
 0.000000e+00 0.000000e+00 6.000000e-01 4.000000e-01 0.000000e+00
 0.000000e+00 0.000000e+00 0.000000e+00 7.000000e-01 3.000000e-01
 0.000000e+00 0.000000e+00 0.000000e+00 0.000000e+00 0.000000e+00
<ENDHMM>
~h "eh"
<BEGINHMM>
<NUMSTATES> 5
<STATE> 2
<MEAN> 25
 2.086226e-08 -6.891275e-08 -4.667089e-08 1.245006e-08 3.721557e-08 -2.153523e-08 3.560043e-08 1.712724e-08 5.114618e-08 1.051357e-07 5.047320e-10 -2.865195e-08 3.254249e-02 1.895490e-03 4.122885e-03 -8.542646e-04 -2.040068e-04 -1.363436e-02 -1.552327e-02 -1.132498e-02 -1.702807e-02 -1.164948e-02 -1.754293e-02 -1.407622e-02 2.606464e-02
<VARIANCE> 25
 2.285064e+02 9.304012e+01 5.736872e+01 8.326283e+01 6.317837e+01 5.608306e+01 5.811004e+01 5.498347e+01 4.746066e+01 3.553910e+01 3.173851e+01 2.810390e+01 4.253944e+00 4.363395e+00 3.566348e+00 3.846258e+00 3.977257e+00 3.485499e+00 3.739101e+00 3.568152e+00 3.431657e+00 2.870036e+00 2.490974e+00 2.127762e+00 4.115048e+00
<GCONST> 1.109788e+02
<STATE> 3
<MEAN> 25
 2.086226e-08 -6.891275e-08 -4.667089e-08 1.245006e-08 3.721557e-08 -2.153523e-08 3.560043e-08 1.712724e-08 5.114618e-08 1.051357e-07 5.047320e-10 -2.865195e-08 3.254249e-02 1.895490e-03 4.122885e-03 -8.542646e-04 -2.040068e-04 -1.363436e-02 -1.552327e-02 -1.132498e-02 -1.702807e-02 -1.164948e-02 -1.754293e-02 -1.407622e-02 2.606464e-02
<VARIANCE> 25
 2.285064e+02 9.304012e+01 5.736872e+01 8.326283e+01 6.317837e+01 5.608306e+01 5.811004e+01 5.498347e+01 4.746066e+01 3.553910e+01 3.173851e+01 2.810390e+01 4.253944e+00 4.363395e+00 3.566348e+00 3.846258e+00 3.977257e+00 3.485499e+00 3.739101e+00 3.568152e+00 3.431657e+00 2.870036e+00 2.490974e+00 2.127762e+00 4.115048e+00
<GCONST> 1.109788e+02
<STATE> 4
<MEAN> 25
 2.086226e-08 -6.891275e-08 -4.667089e-08 1.245006e-08 3.721557e-08 -2.153523e-08 3.560043e-08 1.712724e-08 5.114618e-08 1.051357e-07 5.047320e-10 -2.865195e-08 3.254249e-02 1.895490e-03 4.122885e-03 -8.542646e-04 -2.040068e-04 -1.363436e-02 -1.552327e-02 -1.132498e-02 -1.702807e-02 -1.164948e-02 -1.754293e-02 -1.407622e-02 2.606464e-02
<VARIANCE> 25
 2.285064e+02 9.304012e+01 5.736872e+01 8.326283e+01 6.317837e+01 5.608306e+01 5.811004e+01 5.498347e+01 4.746066e+01 3.553910e+01 3.173851e+01 2.810390e+01 4.253944e+00 4.363395e+00 3.566348e+00 3.846258e+00 3.977257e+00 3.485499e+00 3.739101e+00 3.568152e+00 3.431657e+00 2.870036e+00 2.490974e+00 2.127762e+00 4.115048e+00
<GCONST> 1.109788e+02
<TRANSP> 5
 0.000000e+00 1.000000e+00 0.000000e+00 0.000000e+00 0.000000e+00
 0.000000e+00 6.000000e-01 4.000000e-01 0.000000e+00 0.000000e+00
 0.000000e+00 0.000000e+00 6.000000e-01 4.000000e-01 0.000000e+00
 0.000000e+00 0.000000e+00 0.000000e+00 7.000000e-01 3.000000e-01
 0.000000e+00 0.000000e+00 0.000000e+00 0.000000e+00 0.000000e+00
<ENDHMM>
~h "sil"
<BEGINHMM>
<NUMSTATES> 5
<STATE> 2
<MEAN> 25
 2.086226e-08 -6.891275e-08 -4.667089e-08 1.245006e-08 3.721557e-08 -2.153523e-08 3.560043e-08 1.712724e-08 5.114618e-08 1.051357e-07 5.047320e-10 -2.865195e-08 3.254249e-02 1.895490e-03 4.122885e-03 -8.542646e-04 -2.040068e-04 -1.363436e-02 -1.552327e-02 -1.132498e-02 -1.702807e-02 -1.164948e-02 -1.754293e-02 -1.407622e-02 2.606464e-02
<VARIANCE> 25
 2.285064e+02 9.304012e+01 5.736872e+01 8.326283e+01 6.317837e+01 5.608306e+01 5.811004e+01 5.498347e+01 4.746066e+01 3.553910e+01 3.173851e+01 2.810390e+01 4.253944e+00 4.363395e+00 3.566348e+00 3.846258e+00 3.977257e+00 3.485499e+00 3.739101e+00 3.568152e+00 3.431657e+00 2.870036e+00 2.490974e+00 2.127762e+00 4.115048e+00
<GCONST> 1.109788e+02
<STATE> 3
<MEAN> 25
 2.086226e-08 -6.891275e-08 -4.667089e-08 1.245006e-08 3.721557e-08 -2.153523e-08 3.560043e-08 1.712724e-08 5.114618e-08 1.051357e-07 5.047320e-10 -2.865195e-08 3.254249e-02 1.895490e-03 4.122885e-03 -8.542646e-04 -2.040068e-04 -1.363436e-02 -1.552327e-02 -1.132498e-02 -1.702807e-02 -1.164948e-02 -1.754293e-02 -1.407622e-02 2.606464e-02
<VARIANCE> 25
 2.285064e+02 9.304012e+01 5.736872e+01 8.326283e+01 6.317837e+01 5.608306e+01 5.811004e+01 5.498347e+01 4.746066e+01 3.553910e+01 3.173851e+01 2.810390e+01 4.253944e+00 4.363395e+00 3.566348e+00 3.846258e+00 3.977257e+00 3.485499e+00 3.739101e+00 3.568152e+00 3.431657e+00 2.870036e+00 2.490974e+00 2.127762e+00 4.115048e+00
<GCONST> 1.109788e+02
<STATE> 4
<MEAN> 25
 2.086226e-08 -6.891275e-08 -4.667089e-08 1.245006e-08 3.721557e-08 -2.153523e-08 3.560043e-08 1.712724e-08 5.114618e-08 1.051357e-07 5.047320e-10 -2.865195e-08 3.254249e-02 1.895490e-03 4.122885e-03 -8.542646e-04 -2.040068e-04 -1.363436e-02 -1.552327e-02 -1.132498e-02 -1.702807e-02 -1.164948e-02 -1.754293e-02 -1.407622e-02 2.606464e-02
<VARIANCE> 25
 2.285064e+02 9.304012e+01 5.736872e+01 8.326283e+01 6.317837e+01 5.608306e+01 5.811004e+01 5.498347e+01 4.746066e+01 3.553910e+01 3.173851e+01 2.810390e+01 4.253944e+00 4.363395e+00 3.566348e+00 3.846258e+00 3.977257e+00 3.485499e+00 3.739101e+00 3.568152e+00 3.431657e+00 2.870036e+00 2.490974e+00 2.127762e+00 4.115048e+00
<GCONST> 1.109788e+02
<TRANSP> 5
 0.000000e+00 1.000000e+00 0.000000e+00 0.000000e+00 0.000000e+00
 0.000000e+00 6.000000e-01 4.000000e-01 0.000000e+00 0.000000e+00
 0.000000e+00 0.000000e+00 6.000000e-01 4.000000e-01 0.000000e+00
 0.000000e+00 0.000000e+00 0.000000e+00 7.000000e-01 3.000000e-01
 0.000000e+00 0.000000e+00 0.000000e+00 0.000000e+00 0.000000e+00
<ENDHMM>
~h "th"
<BEGINHMM>
<NUMSTATES> 5
<STATE> 2
<MEAN> 25
 2.086226e-08 -6.891275e-08 -4.667089e-08 1.245006e-08 3.721557e-08 -2.153523e-08 3.560043e-08 1.712724e-08 5.114618e-08 1.051357e-07 5.047320e-10 -2.865195e-08 3.254249e-02 1.895490e-03 4.122885e-03 -8.542646e-04 -2.040068e-04 -1.363436e-02 -1.552327e-02 -1.132498e-02 -1.702807e-02 -1.164948e-02 -1.754293e-02 -1.407622e-02 2.606464e-02
<VARIANCE> 25
 2.285064e+02 9.304012e+01 5.736872e+01 8.326283e+01 6.317837e+01 5.608306e+01 5.811004e+01 5.498347e+01 4.746066e+01 3.553910e+01 3.173851e+01 2.810390e+01 4.253944e+00 4.363395e+00 3.566348e+00 3.846258e+00 3.977257e+00 3.485499e+00 3.739101e+00 3.568152e+00 3.431657e+00 2.870036e+00 2.490974e+00 2.127762e+00 4.115048e+00
<GCONST> 1.109788e+02
<STATE> 3
<MEAN> 25
 2.086226e-08 -6.891275e-08 -4.667089e-08 1.245006e-08 3.721557e-08 -2.153523e-08 3.560043e-08 1.712724e-08 5.114618e-08 1.051357e-07 5.047320e-10 -2.865195e-08 3.254249e-02 1.895490e-03 4.122885e-03 -8.542646e-04 -2.040068e-04 -1.363436e-02 -1.552327e-02 -1.132498e-02 -1.702807e-02 -1.164948e-02 -1.754293e-02 -1.407622e-02 2.606464e-02
<VARIANCE> 25
 2.285064e+02 9.304012e+01 5.736872e+01 8.326283e+01 6.317837e+01 5.608306e+01 5.811004e+01 5.498347e+01 4.746066e+01 3.553910e+01 3.173851e+01 2.810390e+01 4.253944e+00 4.363395e+00 3.566348e+00 3.846258e+00 3.977257e+00 3.485499e+00 3.739101e+00 3.568152e+00 3.431657e+00 2.870036e+00 2.490974e+00 2.127762e+00 4.115048e+00
<GCONST> 1.109788e+02
<STATE> 4
<MEAN> 25
 2.086226e-08 -6.891275e-08 -4.667089e-08 1.245006e-08 3.721557e-08 -2.153523e-08 3.560043e-08 1.712724e-08 5.114618e-08 1.051357e-07 5.047320e-10 -2.865195e-08 3.254249e-02 1.895490e-03 4.122885e-03 -8.542646e-04 -2.040068e-04 -1.363436e-02 -1.552327e-02 -1.132498e-02 -1.702807e-02 -1.164948e-02 -1.754293e-02 -1.407622e-02 2.606464e-02
<VARIANCE> 25
 2.285064e+02 9.304012e+01 5.736872e+01 8.326283e+01 6.317837e+01 5.608306e+01 5.811004e+01 5.498347e+01 4.746066e+01 3.553910e+01 3.173851e+01 2.810390e+01 4.253944e+00 4.363395e+00 3.566348e+00 3.846258e+00 3.977257e+00 3.485499e+00 3.739101e+00 3.568152e+00 3.431657e+00 2.870036e+00 2.490974e+00 2.127762e+00 4.115048e+00
<GCONST> 1.109788e+02
<TRANSP> 5
 0.000000e+00 1.000000e+00 0.000000e+00 0.000000e+00 0.000000e+00
 0.000000e+00 6.000000e-01 4.000000e-01 0.000000e+00 0.000000e+00
 0.000000e+00 0.000000e+00 6.000000e-01 4.000000e-01 0.000000e+00
 0.000000e+00 0.000000e+00 0.000000e+00 7.000000e-01 3.000000e-01
 0.000000e+00 0.000000e+00 0.000000e+00 0.000000e+00 0.000000e+00
<ENDHMM>
~h "ay"
<BEGINHMM>
<NUMSTATES> 5
<STATE> 2
<MEAN> 25
 2.086226e-08 -6.891275e-08 -4.667089e-08 1.245006e-08 3.721557e-08 -2.153523e-08 3.560043e-08 1.712724e-08 5.114618e-08 1.051357e-07 5.047320e-10 -2.865195e-08 3.254249e-02 1.895490e-03 4.122885e-03 -8.542646e-04 -2.040068e-04 -1.363436e-02 -1.552327e-02 -1.132498e-02 -1.702807e-02 -1.164948e-02 -1.754293e-02 -1.407622e-02 2.606464e-02
<VARIANCE> 25
 2.285064e+02 9.304012e+01 5.736872e+01 8.326283e+01 6.317837e+01 5.608306e+01 5.811004e+01 5.498347e+01 4.746066e+01 3.553910e+01 3.173851e+01 2.810390e+01 4.253944e+00 4.363395e+00 3.566348e+00 3.846258e+00 3.977257e+00 3.485499e+00 3.739101e+00 3.568152e+00 3.431657e+00 2.870036e+00 2.490974e+00 2.127762e+00 4.115048e+00
<GCONST> 1.109788e+02
<STATE> 3
<MEAN> 25
 2.086226e-08 -6.891275e-08 -4.667089e-08 1.245006e-08 3.721557e-08 -2.153523e-08 3.560043e-08 1.712724e-08 5.114618e-08 1.051357e-07 5.047320e-10 -2.865195e-08 3.254249e-02 1.895490e-03 4.122885e-03 -8.542646e-04 -2.040068e-04 -1.363436e-02 -1.552327e-02 -1.132498e-02 -1.702807e-02 -1.164948e-02 -1.754293e-02 -1.407622e-02 2.606464e-02
<VARIANCE> 25
 2.285064e+02 9.304012e+01 5.736872e+01 8.326283e+01 6.317837e+01 5.608306e+01 5.811004e+01 5.498347e+01 4.746066e+01 3.553910e+01 3.173851e+01 2.810390e+01 4.253944e+00 4.363395e+00 3.566348e+00 3.846258e+00 3.977257e+00 3.485499e+00 3.739101e+00 3.568152e+00 3.431657e+00 2.870036e+00 2.490974e+00 2.127762e+00 4.115048e+00
<GCONST> 1.109788e+02
<STATE> 4
<MEAN> 25
 2.086226e-08 -6.891275e-08 -4.667089e-08 1.245006e-08 3.721557e-08 -2.153523e-08 3.560043e-08 1.712724e-08 5.114618e-08 1.051357e-07 5.047320e-10 -2.865195e-08 3.254249e-02 1.895490e-03 4.122885e-03 -8.542646e-04 -2.040068e-04 -1.363436e-02 -1.552327e-02 -1.132498e-02 -1.702807e-02 -1.164948e-02 -1.754293e-02 -1.407622e-02 2.606464e-02
<VARIANCE> 25
 2.285064e+02 9.304012e+01 5.736872e+01 8.326283e+01 6.317837e+01 5.608306e+01 5.811004e+01 5.498347e+01 4.746066e+01 3.553910e+01 3.173851e+01 2.810390e+01 4.253944e+00 4.363395e+00 3.566348e+00 3.846258e+00 3.977257e+00 3.485499e+00 3.739101e+00 3.568152e+00 3.431657e+00 2.870036e+00 2.490974e+00 2.127762e+00 4.115048e+00
<GCONST> 1.109788e+02
<TRANSP> 5
 0.000000e+00 1.000000e+00 0.000000e+00 0.000000e+00 0.000000e+00
 0.000000e+00 6.000000e-01 4.000000e-01 0.000000e+00 0.000000e+00
 0.000000e+00 0.000000e+00 6.000000e-01 4.000000e-01 0.000000e+00
 0.000000e+00 0.000000e+00 0.000000e+00 7.000000e-01 3.000000e-01
 0.000000e+00 0.000000e+00 0.000000e+00 0.000000e+00 0.000000e+00
<ENDHMM>
~h "ae"
<BEGINHMM>
<NUMSTATES> 5
<STATE> 2
<MEAN> 25
 2.086226e-08 -6.891275e-08 -4.667089e-08 1.245006e-08 3.721557e-08 -2.153523e-08 3.560043e-08 1.712724e-08 5.114618e-08 1.051357e-07 5.047320e-10 -2.865195e-08 3.254249e-02 1.895490e-03 4.122885e-03 -8.542646e-04 -2.040068e-04 -1.363436e-02 -1.552327e-02 -1.132498e-02 -1.702807e-02 -1.164948e-02 -1.754293e-02 -1.407622e-02 2.606464e-02
<VARIANCE> 25
 2.285064e+02 9.304012e+01 5.736872e+01 8.326283e+01 6.317837e+01 5.608306e+01 5.811004e+01 5.498347e+01 4.746066e+01 3.553910e+01 3.173851e+01 2.810390e+01 4.253944e+00 4.363395e+00 3.566348e+00 3.846258e+00 3.977257e+00 3.485499e+00 3.739101e+00 3.568152e+00 3.431657e+00 2.870036e+00 2.490974e+00 2.127762e+00 4.115048e+00
<GCONST> 1.109788e+02
<STATE> 3
<MEAN> 25
 2.086226e-08 -6.891275e-08 -4.667089e-08 1.245006e-08 3.721557e-08 -2.153523e-08 3.560043e-08 1.712724e-08 5.114618e-08 1.051357e-07 5.047320e-10 -2.865195e-08 3.254249e-02 1.895490e-03 4.122885e-03 -8.542646e-04 -2.040068e-04 -1.363436e-02 -1.552327e-02 -1.132498e-02 -1.702807e-02 -1.164948e-02 -1.754293e-02 -1.407622e-02 2.606464e-02
<VARIANCE> 25
 2.285064e+02 9.304012e+01 5.736872e+01 8.326283e+01 6.317837e+01 5.608306e+01 5.811004e+01 5.498347e+01 4.746066e+01 3.553910e+01 3.173851e+01 2.810390e+01 4.253944e+00 4.363395e+00 3.566348e+00 3.846258e+00 3.977257e+00 3.485499e+00 3.739101e+00 3.568152e+00 3.431657e+00 2.870036e+00 2.490974e+00 2.127762e+00 4.115048e+00
<GCONST> 1.109788e+02
<STATE> 4
<MEAN> 25
 2.086226e-08 -6.891275e-08 -4.667089e-08 1.245006e-08 3.721557e-08 -2.153523e-08 3.560043e-08 1.712724e-08 5.114618e-08 1.051357e-07 5.047320e-10 -2.865195e-08 3.254249e-02 1.895490e-03 4.122885e-03 -8.542646e-04 -2.040068e-04 -1.363436e-02 -1.552327e-02 -1.132498e-02 -1.702807e-02 -1.164948e-02 -1.754293e-02 -1.407622e-02 2.606464e-02
<VARIANCE> 25
 2.285064e+02 9.304012e+01 5.736872e+01 8.326283e+01 6.317837e+01 5.608306e+01 5.811004e+01 5.498347e+01 4.746066e+01 3.553910e+01 3.173851e+01 2.810390e+01 4.253944e+00 4.363395e+00 3.566348e+00 3.846258e+00 3.977257e+00 3.485499e+00 3.739101e+00 3.568152e+00 3.431657e+00 2.870036e+00 2.490974e+00 2.127762e+00 4.115048e+00
<GCONST> 1.109788e+02
<TRANSP> 5
 0.000000e+00 1.000000e+00 0.000000e+00 0.000000e+00 0.000000e+00
 0.000000e+00 6.000000e-01 4.000000e-01 0.000000e+00 0.000000e+00
 0.000000e+00 0.000000e+00 6.000000e-01 4.000000e-01 0.000000e+00
 0.000000e+00 0.000000e+00 0.000000e+00 7.000000e-01 3.000000e-01
 0.000000e+00 0.000000e+00 0.000000e+00 0.000000e+00 0.000000e+00
<ENDHMM>
~h "ng"
<BEGINHMM>
<NUMSTATES> 5
<STATE> 2
<MEAN> 25
 2.086226e-08 -6.891275e-08 -4.667089e-08 1.245006e-08 3.721557e-08 -2.153523e-08 3.560043e-08 1.712724e-08 5.114618e-08 1.051357e-07 5.047320e-10 -2.865195e-08 3.254249e-02 1.895490e-03 4.122885e-03 -8.542646e-04 -2.040068e-04 -1.363436e-02 -1.552327e-02 -1.132498e-02 -1.702807e-02 -1.164948e-02 -1.754293e-02 -1.407622e-02 2.606464e-02
<VARIANCE> 25
 2.285064e+02 9.304012e+01 5.736872e+01 8.326283e+01 6.317837e+01 5.608306e+01 5.811004e+01 5.498347e+01 4.746066e+01 3.553910e+01 3.173851e+01 2.810390e+01 4.253944e+00 4.363395e+00 3.566348e+00 3.846258e+00 3.977257e+00 3.485499e+00 3.739101e+00 3.568152e+00 3.431657e+00 2.870036e+00 2.490974e+00 2.127762e+00 4.115048e+00
<GCONST> 1.109788e+02
<STATE> 3
<MEAN> 25
 2.086226e-08 -6.891275e-08 -4.667089e-08 1.245006e-08 3.721557e-08 -2.153523e-08 3.560043e-08 1.712724e-08 5.114618e-08 1.051357e-07 5.047320e-10 -2.865195e-08 3.254249e-02 1.895490e-03 4.122885e-03 -8.542646e-04 -2.040068e-04 -1.363436e-02 -1.552327e-02 -1.132498e-02 -1.702807e-02 -1.164948e-02 -1.754293e-02 -1.407622e-02 2.606464e-02
<VARIANCE> 25
 2.285064e+02 9.304012e+01 5.736872e+01 8.326283e+01 6.317837e+01 5.608306e+01 5.811004e+01 5.498347e+01 4.746066e+01 3.553910e+01 3.173851e+01 2.810390e+01 4.253944e+00 4.363395e+00 3.566348e+00 3.846258e+00 3.977257e+00 3.485499e+00 3.739101e+00 3.568152e+00 3.431657e+00 2.870036e+00 2.490974e+00 2.127762e+00 4.115048e+00
<GCONST> 1.109788e+02
<STATE> 4
<MEAN> 25
 2.086226e-08 -6.891275e-08 -4.667089e-08 1.245006e-08 3.721557e-08 -2.153523e-08 3.560043e-08 1.712724e-08 5.114618e-08 1.051357e-07 5.047320e-10 -2.865195e-08 3.254249e-02 1.895490e-03 4.122885e-03 -8.542646e-04 -2.040068e-04 -1.363436e-02 -1.552327e-02 -1.132498e-02 -1.702807e-02 -1.164948e-02 -1.754293e-02 -1.407622e-02 2.606464e-02
<VARIANCE> 25
 2.285064e+02 9.304012e+01 5.736872e+01 8.326283e+01 6.317837e+01 5.608306e+01 5.811004e+01 5.498347e+01 4.746066e+01 3.553910e+01 3.173851e+01 2.810390e+01 4.253944e+00 4.363395e+00 3.566348e+00 3.846258e+00 3.977257e+00 3.485499e+00 3.739101e+00 3.568152e+00 3.431657e+00 2.870036e+00 2.490974e+00 2.127762e+00 4.115048e+00
<GCONST> 1.109788e+02
<TRANSP> 5
 0.000000e+00 1.000000e+00 0.000000e+00 0.000000e+00 0.000000e+00
 0.000000e+00 6.000000e-01 4.000000e-01 0.000000e+00 0.000000e+00
 0.000000e+00 0.000000e+00 6.000000e-01 4.000000e-01 0.000000e+00
 0.000000e+00 0.000000e+00 0.000000e+00 7.000000e-01 3.000000e-01
 0.000000e+00 0.000000e+00 0.000000e+00 0.000000e+00 0.000000e+00
<ENDHMM>
~h "z"
<BEGINHMM>
<NUMSTATES> 5
<STATE> 2
<MEAN> 25
 2.086226e-08 -6.891275e-08 -4.667089e-08 1.245006e-08 3.721557e-08 -2.153523e-08 3.560043e-08 1.712724e-08 5.114618e-08 1.051357e-07 5.047320e-10 -2.865195e-08 3.254249e-02 1.895490e-03 4.122885e-03 -8.542646e-04 -2.040068e-04 -1.363436e-02 -1.552327e-02 -1.132498e-02 -1.702807e-02 -1.164948e-02 -1.754293e-02 -1.407622e-02 2.606464e-02
<VARIANCE> 25
 2.285064e+02 9.304012e+01 5.736872e+01 8.326283e+01 6.317837e+01 5.608306e+01 5.811004e+01 5.498347e+01 4.746066e+01 3.553910e+01 3.173851e+01 2.810390e+01 4.253944e+00 4.363395e+00 3.566348e+00 3.846258e+00 3.977257e+00 3.485499e+00 3.739101e+00 3.568152e+00 3.431657e+00 2.870036e+00 2.490974e+00 2.127762e+00 4.115048e+00
<GCONST> 1.109788e+02
<STATE> 3
<MEAN> 25
 2.086226e-08 -6.891275e-08 -4.667089e-08 1.245006e-08 3.721557e-08 -2.153523e-08 3.560043e-08 1.712724e-08 5.114618e-08 1.051357e-07 5.047320e-10 -2.865195e-08 3.254249e-02 1.895490e-03 4.122885e-03 -8.542646e-04 -2.040068e-04 -1.363436e-02 -1.552327e-02 -1.132498e-02 -1.702807e-02 -1.164948e-02 -1.754293e-02 -1.407622e-02 2.606464e-02
<VARIANCE> 25
 2.285064e+02 9.304012e+01 5.736872e+01 8.326283e+01 6.317837e+01 5.608306e+01 5.811004e+01 5.498347e+01 4.746066e+01 3.553910e+01 3.173851e+01 2.810390e+01 4.253944e+00 4.363395e+00 3.566348e+00 3.846258e+00 3.977257e+00 3.485499e+00 3.739101e+00 3.568152e+00 3.431657e+00 2.870036e+00 2.490974e+00 2.127762e+00 4.115048e+00
<GCONST> 1.109788e+02
<STATE> 4
<MEAN> 25
 2.086226e-08 -6.891275e-08 -4.667089e-08 1.245006e-08 3.721557e-08 -2.153523e-08 3.560043e-08 1.712724e-08 5.114618e-08 1.051357e-07 5.047320e-10 -2.865195e-08 3.254249e-02 1.895490e-03 4.122885e-03 -8.542646e-04 -2.040068e-04 -1.363436e-02 -1.552327e-02 -1.132498e-02 -1.702807e-02 -1.164948e-02 -1.754293e-02 -1.407622e-02 2.606464e-02
<VARIANCE> 25
 2.285064e+02 9.304012e+01 5.736872e+01 8.326283e+01 6.317837e+01 5.608306e+01 5.811004e+01 5.498347e+01 4.746066e+01 3.553910e+01 3.173851e+01 2.810390e+01 4.253944e+00 4.363395e+00 3.566348e+00 3.846258e+00 3.977257e+00 3.485499e+00 3.739101e+00 3.568152e+00 3.431657e+00 2.870036e+00 2.490974e+00 2.127762e+00 4.115048e+00
<GCONST> 1.109788e+02
<TRANSP> 5
 0.000000e+00 1.000000e+00 0.000000e+00 0.000000e+00 0.000000e+00
 0.000000e+00 6.000000e-01 4.000000e-01 0.000000e+00 0.000000e+00
 0.000000e+00 0.000000e+00 6.000000e-01 4.000000e-01 0.000000e+00
 0.000000e+00 0.000000e+00 0.000000e+00 7.000000e-01 3.000000e-01
 0.000000e+00 0.000000e+00 0.000000e+00 0.000000e+00 0.000000e+00
<ENDHMM>
~h "m"
<BEGINHMM>
<NUMSTATES> 5
<STATE> 2
<MEAN> 25
 2.086226e-08 -6.891275e-08 -4.667089e-08 1.245006e-08 3.721557e-08 -2.153523e-08 3.560043e-08 1.712724e-08 5.114618e-08 1.051357e-07 5.047320e-10 -2.865195e-08 3.254249e-02 1.895490e-03 4.122885e-03 -8.542646e-04 -2.040068e-04 -1.363436e-02 -1.552327e-02 -1.132498e-02 -1.702807e-02 -1.164948e-02 -1.754293e-02 -1.407622e-02 2.606464e-02
<VARIANCE> 25
 2.285064e+02 9.304012e+01 5.736872e+01 8.326283e+01 6.317837e+01 5.608306e+01 5.811004e+01 5.498347e+01 4.746066e+01 3.553910e+01 3.173851e+01 2.810390e+01 4.253944e+00 4.363395e+00 3.566348e+00 3.846258e+00 3.977257e+00 3.485499e+00 3.739101e+00 3.568152e+00 3.431657e+00 2.870036e+00 2.490974e+00 2.127762e+00 4.115048e+00
<GCONST> 1.109788e+02
<STATE> 3
<MEAN> 25
 2.086226e-08 -6.891275e-08 -4.667089e-08 1.245006e-08 3.721557e-08 -2.153523e-08 3.560043e-08 1.712724e-08 5.114618e-08 1.051357e-07 5.047320e-10 -2.865195e-08 3.254249e-02 1.895490e-03 4.122885e-03 -8.542646e-04 -2.040068e-04 -1.363436e-02 -1.552327e-02 -1.132498e-02 -1.702807e-02 -1.164948e-02 -1.754293e-02 -1.407622e-02 2.606464e-02
<VARIANCE> 25
 2.285064e+02 9.304012e+01 5.736872e+01 8.326283e+01 6.317837e+01 5.608306e+01 5.811004e+01 5.498347e+01 4.746066e+01 3.553910e+01 3.173851e+01 2.810390e+01 4.253944e+00 4.363395e+00 3.566348e+00 3.846258e+00 3.977257e+00 3.485499e+00 3.739101e+00 3.568152e+00 3.431657e+00 2.870036e+00 2.490974e+00 2.127762e+00 4.115048e+00
<GCONST> 1.109788e+02
<STATE> 4
<MEAN> 25
 2.086226e-08 -6.891275e-08 -4.667089e-08 1.245006e-08 3.721557e-08 -2.153523e-08 3.560043e-08 1.712724e-08 5.114618e-08 1.051357e-07 5.047320e-10 -2.865195e-08 3.254249e-02 1.895490e-03 4.122885e-03 -8.542646e-04 -2.040068e-04 -1.363436e-02 -1.552327e-02 -1.132498e-02 -1.702807e-02 -1.164948e-02 -1.754293e-02 -1.407622e-02 2.606464e-02
<VARIANCE> 25
 2.285064e+02 9.304012e+01 5.736872e+01 8.326283e+01 6.317837e+01 5.608306e+01 5.811004e+01 5.498347e+01 4.746066e+01 3.553910e+01 3.173851e+01 2.810390e+01 4.253944e+00 4.363395e+00 3.566348e+00 3.846258e+00 3.977257e+00 3.485499e+00 3.739101e+00 3.568152e+00 3.431657e+00 2.870036e+00 2.490974e+00 2.127762e+00 4.115048e+00
<GCONST> 1.109788e+02
<TRANSP> 5
 0.000000e+00 1.000000e+00 0.000000e+00 0.000000e+00 0.000000e+00
 0.000000e+00 6.000000e-01 4.000000e-01 0.000000e+00 0.000000e+00
 0.000000e+00 0.000000e+00 6.000000e-01 4.000000e-01 0.000000e+00
 0.000000e+00 0.000000e+00 0.000000e+00 7.000000e-01 3.000000e-01
 0.000000e+00 0.000000e+00 0.000000e+00 0.000000e+00 0.000000e+00
<ENDHMM>
