~o
<STREAMINFO> 1 25
<VECSIZE> 25<NULLD><MFCC_D_N_Z_0><DIAGC>
~s "silst"
<MEAN> 25
 -1.403617e+01 4.172379e+00 -1.544882e+00 4.179910e+00 1.920770e+00 5.168700e+00 3.390653e+00 2.048273e+00 3.124932e+00 -6.655619e-01 2.721057e+00 2.296388e+00 1.255349e-02 -2.877765e-02 5.883241e-02 5.199300e-02 -1.072543e-02 -1.435779e-02 1.766868e-02 -1.088377e-01 -1.799826e-01 -9.527699e-02 2.146155e-02 3.490213e-02 3.022015e-02
<VARIANCE> 25
 1.739303e+01 6.199813e+00 1.019900e+01 1.166582e+01 9.465081e+00 1.275612e+01 1.429102e+01 1.824148e+01 2.137105e+01 1.539075e+01 1.649979e+01 1.310360e+01 2.027039e-01 4.050483e-01 4.984328e-01 5.917392e-01 9.475249e-01 9.880431e-01 1.081233e+00 1.203762e+00 1.292841e+00 1.259447e+00 1.206834e+00 1.083653e+00 1.571291e-01
<GCONST> 7.231750e+01
~h "b"
<BEGINHMM>
<NUMSTATES> 5
<STATE> 2
<MEAN> 25
 2.015883e+01 -8.882217e-01 -2.417179e+00 -1.747763e+00 -2.159752e+00 4.057225e+00 -6.390819e+00 -1.784246e+01 -3.511669e+00 5.870040e+00 -3.929925e+00 -3.582426e+00 1.560477e-01 1.658182e-01 -1.237545e-01 -4.892597e-01 -1.204655e-03 3.933964e-01 6.002799e-02 -5.085737e-01 -2.561709e-02 4.202933e-01 2.085264e-02 -1.116782e-03 9.930268e-02
<VARIANCE> 25
 1.011359e+01 9.321999e+01 5.094059e+01 5.957003e+01 9.622734e+01 5.586390e+01 7.738248e+01 6.008308e+01 4.388746e+01 3.907274e+01 4.373561e+01 3.154797e+01 7.036769e-01 7.103204e+00 5.018482e+00 5.070748e+00 8.349557e+00 5.908733e+00 5.323359e+00 6.013285e+00 4.419394e+00 2.788058e+00 3.780000e+00 1.761533e+00 2.820116e+00
<GCONST> 1.101789e+02
<STATE> 3
<MEAN> 25
 2.199950e+01 8.340328e+00 -8.996793e+00 -1.151888e+01 1.524791e+00 5.395242e+00 -3.129024e+00 -1.451979e+01 -8.356572e+00 5.352239e+00 2.433095e+00 -4.235158e-01 -7.879974e-01 2.280120e+00 -5.239125e-01 -4.388808e-01 1.162662e+00 -5.410305e-02 2.137353e-01 2.504151e+00 -5.675196e-01 -1.711245e+00 1.513104e+00 9.922733e-01 -1.743010e+00
<VARIANCE> 25
 5.858221e+00 2.489888e+01 1.679699e+01 1.089887e+02 4.511848e+01 3.439820e+01 4.787623e+01 8.742137e+01 3.921065e+01 2.783528e+01 2.737980e+01 1.102629e+01 1.149245e+00 1.678787e+00 2.274737e+00 5.288918e+00 4.981404e+00 3.637335e+00 5.442233e+00 4.428199e+00 2.997870e+00 1.947224e+00 3.325974e+00 1.505531e+00 7.258100e-01
<GCONST> 9.911259e+01
<STATE> 4
<MEAN> 25
 1.789540e+01 1.412982e+01 -7.577818e+00 -1.061930e+01 -1.615020e+00 6.602393e+00 9.924067e-01 -8.330033e+00 -9.102978e+00 -2.504605e+00 3.395629e+00 1.664285e+00 -2.508964e+00 5.170025e-01 1.531068e+00 1.649025e+00 -4.096406e-01 -8.323409e-02 7.176293e-01 1.568981e+00 1.133708e+00 -1.247470e+00 -1.387515e-01 1.094286e-01 -2.174435e+00
<VARIANCE> 25
 2.266282e+01 9.187409e+00 1.899723e+01 6.692011e+01 5.211324e+01 2.292779e+01 2.435063e+01 2.191313e+01 2.907307e+01 3.534868e+01 1.863823e+01 1.500362e+01 2.246704e+00 2.198564e+00 2.414330e+00 2.134159e+00 3.565454e+00 2.996214e+00 1.416014e+00 4.441355e+00 1.822125e+00 1.818477e+00 1.600879e+00 1.148477e+00 4.962350e-01
<GCONST> 9.291777e+01
<TRANSP> 5
 0.000000e+00 1.000000e+00 0.000000e+00 0.000000e+00 0.000000e+00
 0.000000e+00 9.380803e-01 6.191972e-02 0.000000e+00 0.000000e+00
 0.000000e+00 0.000000e+00 7.050974e-01 2.949025e-01 0.000000e+00
 0.000000e+00 0.000000e+00 0.000000e+00 7.078935e-01 2.921065e-01
 0.000000e+00 0.000000e+00 0.000000e+00 0.000000e+00 0.000000e+00
<ENDHMM>
~h "d"
<BEGINHMM>
<NUMSTATES> 5
<STATE> 2
<MEAN> 25
 -1.685599e+01 2.071361e+00 -3.293747e-01 6.617043e+00 1.552753e+00 4.350768e+00 4.586165e+00 4.570309e+00 5.487488e+00 1.793254e+00 4.919288e+00 4.087093e+00 -6.040577e-03 7.214461e-03 -4.283944e-03 1.156776e-02 8.149797e-03 1.463853e-03 -3.964894e-02 -3.831840e-02 7.729042e-02 4.921716e-02 -1.763203e-02 -4.262857e-02 -9.798348e-03
<VARIANCE> 25
 4.752372e+00 4.766448e+00 4.594357e+00 1.052154e+01 7.885199e+00 8.395720e+00 1.048141e+01 1.566858e+01 1.045315e+01 9.231196e+00 8.436710e+00 7.899652e+00 4.253944e-02 1.443096e-01 2.374094e-01 3.530994e-01 4.321072e-01 4.582164e-01 7.759188e-01 1.220142e+00 1.213350e+00 1.073696e+00 7.913764e-01 9.150164e-01 4.115048e-02
<GCONST> 5.851314e+01
<STATE> 3
<MEAN> 25
 -1.309694e+01 5.330884e+00 -9.985067e-01 1.750109e+00 1.706703e+00 2.676845e+00 5.982514e-01 2.499374e+00 1.188643e+00 -1.597148e+00 1.181458e+00 2.246952e+00 -1.693881e-02 2.108741e-02 3.281872e-02 1.271601e-02 3.035816e-02 3.892579e-02 8.073205e-02 -5.414210e-02 -1.048800e-01 -2.575611e-02 2.091084e-02 -1.257065e-02 -1.761434e-02
<VARIANCE> 25
 5.545617e+00 4.509028e+00 1.027565e+01 1.726170e+01 9.896013e+00 1.161717e+01 1.833788e+01 1.418606e+01 1.173931e+01 1.210662e+01 1.072352e+01 1.042805e+01 1.012537e-01 2.429377e-01 3.391911e-01 6.545264e-01 8.013307e-01 9.226484e-01 1.260092e+00 8.910767e-01 1.186418e+00 9.502860e-01 1.209523e+00 1.158117e+00 4.115048e-02
<GCONST> 6.619397e+01
<STATE> 4
<MEAN> 25
 -1.098195e+01 3.959448e+00 1.336976e-01 2.357901e+00 1.555745e+00 1.903060e+00 1.109612e+00 1.459973e+00 8.022043e-01 -1.395881e+00 -2.361345e-01 9.280729e-01 1.945311e-01 1.796862e-02 4.210044e-02 -2.960617e-02 -3.909185e-02 -8.878803e-02 -8.781393e-02 -6.178480e-02 -9.868513e-02 -2.803252e-02 -1.574254e-01 -1.281152e-01 1.717540e-01
<VARIANCE> 25
 1.352640e+01 5.032979e+00 1.210960e+01 2.462096e+01 1.421400e+01 1.224391e+01 2.146837e+01 1.614362e+01 1.744858e+01 1.009855e+01 1.558918e+01 1.563667e+01 1.349575e+00 5.339481e-01 7.991046e-01 1.342383e+00 1.169587e+00 1.498787e+00 1.158232e+00 1.336026e+00 1.930955e+00 1.203281e+00 1.220567e+00 1.501459e+00 2.551143e+00
<GCONST> 8.066617e+01
<TRANSP> 5
 0.000000e+00 1.000000e+00 0.000000e+00 0.000000e+00 0.000000e+00
 0.000000e+00 9.399355e-01 6.006451e-02 0.000000e+00 0.000000e+00
 0.000000e+00 0.000000e+00 8.886255e-01 1.113745e-01 0.000000e+00
 0.000000e+00 0.000000e+00 0.000000e+00 8.681236e-01 1.318764e-01
 0.000000e+00 0.000000e+00 0.000000e+00 0.000000e+00 0.000000e+00
<ENDHMM>
~h "f"
<BEGINHMM>
<NUMSTATES> 5
<STATE> 2
<MEAN> 25
 -1.913414e+01 3.275275e+00 -1.248675e+00 4.991432e+00 1.656206e+00 5.894881e+00 5.654916e+00 5.044917e+00 5.735161e+00 1.041700e+00 5.526759e+00 3.852563e+00 4.291935e-03 2.394002e-03 8.842240e-03 4.574619e-03 1.504129e-02 -1.071842e-02 -6.038134e-02 -1.134679e-02 6.800799e-02 4.402599e-02 -1.487437e-02 -1.903600e-02 -2.398006e-03
<VARIANCE> 25
 4.227095e+00 5.880026e+00 6.310464e+00 1.605454e+01 9.532699e+00 9.349591e+00 9.323788e+00 1.607019e+01 1.137651e+01 1.000177e+01 7.782606e+00 8.878700e+00 4.253944e-02 1.438090e-01 2.117799e-01 3.361711e-01 4.638669e-01 4.464815e-01 6.945493e-01 1.118928e+00 1.060264e+00 1.074175e+00 8.265070e-01 9.898000e-01 4.115048e-02
<GCONST> 5.942084e+01
<STATE> 3
<MEAN> 25
 -1.702518e+01 4.959711e+00 -1.132109e+00 3.735914e+00 2.196640e+00 6.503677e+00 3.779863e+00 2.013377e+00 3.467690e+00 -1.793709e-01 4.247430e+00 3.532908e+00 7.976279e-02 -3.115603e-02 1.101615e-01 -4.716025e-02 -1.315839e-02 2.618734e-01 3.217742e-01 -3.833406e-01 -1.032236e+00 -3.947599e-01 -9.760110e-02 2.053225e-01 9.322440e-02
<VARIANCE> 25
 1.338809e+01 6.357722e+00 8.236073e+00 1.457179e+01 9.313085e+00 9.924165e+00 1.074911e+01 1.422712e+01 1.159757e+01 6.853081e+00 4.720282e+00 8.723428e+00 1.595202e-01 1.739746e-01 1.794280e-01 3.182743e-01 7.399084e-01 5.040361e-01 9.539559e-01 1.087733e+00 7.328361e-01 7.603495e-01 5.231643e-01 6.668827e-01 1.061399e-01
<GCONST> 6.155088e+01
<STATE> 4
<MEAN> 25
 -1.278035e+01 4.693000e+00 1.056582e-01 -2.263668e-01 2.148878e+00 3.064164e+00 2.054051e+00 2.880891e+00 2.345777e-02 -6.245606e-01 1.765405e+00 2.369108e+00 2.247272e-01 -8.826628e-04 2.514057e-03 -1.122995e-01 -1.039790e-01 -1.935498e-01 -5.926079e-02 -2.793939e-02 -1.128036e-01 -7.479199e-02 -1.393311e-01 -3.801884e-02 2.113099e-01
<VARIANCE> 25
 1.029642e+01 8.735370e+00 7.303679e+00 1.672633e+01 1.347113e+01 1.662205e+01 1.522591e+01 2.133858e+01 1.569706e+01 9.933162e+00 1.298582e+01 9.899819e+00 1.031955e+00 5.212845e-01 7.534763e-01 9.305961e-01 1.411630e+00 1.659246e+00 1.394462e+00 1.320488e+00 1.540988e+00 9.819260e-01 1.159559e+00 1.149031e+00 2.500155e+00
<GCONST> 7.845610e+01
<TRANSP> 5
 0.000000e+00 1.000000e+00 0.000000e+00 0.000000e+00 0.000000e+00
 0.000000e+00 9.503998e-01 4.960024e-02 0.000000e+00 0.000000e+00
 0.000000e+00 0.000000e+00 3.349355e-01 6.650646e-01 0.000000e+00
 0.000000e+00 0.000000e+00 0.000000e+00 9.075479e-01 9.245209e-02
 0.000000e+00 0.000000e+00 0.000000e+00 0.000000e+00 0.000000e+00
<ENDHMM>
~h "g"
<BEGINHMM>
<NUMSTATES> 5
<STATE> 2
<MEAN> 25
 1.753548e+01 -1.205473e+01 2.498346e+00 3.587588e+00 -5.649956e+00 -1.009231e+01 -5.400925e+00 -1.195165e+00 -3.397709e+00 2.152260e+00 -5.939848e-01 -1.700151e+00 4.925967e-01 -7.142032e-01 6.869662e-01 2.722031e-01 -1.392341e+00 -3.690369e-01 8.954412e-01 -1.227069e-02 -9.070857e-01 2.554980e-02 5.804140e-01 -1.249977e-01 7.680435e-01
<VARIANCE> 25
 2.804517e+01 5.649703e+01 1.164220e+02 1.375151e+02 1.477358e+02 7.336837e+01 7.653662e+01 6.883936e+01 6.970218e+01 5.582146e+01 3.790895e+01 3.424804e+01 2.818458e+00 1.189509e+01 1.240449e+01 1.300948e+01 8.708990e+00 4.281123e+00 8.315092e+00 8.678506e+00 6.662162e+00 6.095259e+00 4.684520e+00 4.296551e+00 4.755361e+00
<GCONST> 1.210504e+02
<STATE> 3
<MEAN> 25
 1.833480e+01 -5.290241e+00 5.411112e+00 -7.637454e-01 -1.029804e+01 -5.251374e+00 7.162957e-01 -2.202165e+00 -8.986041e+00 2.918905e-02 1.249434e+00 -7.756075e-01 -2.203522e-01 3.762475e+00 -1.356590e+00 1.400378e+00 3.681006e-01 7.398490e-01 1.268860e+00 -1.052369e+00 3.783554e-03 -1.561279e+00 2.049751e-01 -1.249836e-02 -2.576910e+00
<VARIANCE> 25
 1.955676e+01 9.258354e+01 1.306100e+02 1.094324e+02 1.219207e+02 4.253136e+01 1.213923e+02 7.239061e+01 7.928065e+01 5.350695e+01 2.247871e+01 3.420609e+01 9.002659e-01 7.409323e+00 6.735195e+00 1.234238e+01 5.350524e+00 3.020884e+00 7.128987e+00 6.852573e+00 5.240792e+00 5.813244e+00 2.640800e+00 2.514674e+00 3.488449e+00
<GCONST> 1.151973e+02
<STATE> 4
<MEAN> 25
 1.706890e+01 1.018337e+01 -7.040421e-01 -4.906628e-01 -2.534592e+00 -1.491531e+00 -3.669050e+00 -7.423305e+00 -3.645108e+00 -1.201441e+00 -4.692697e-01 -2.700672e+00 -8.523771e-01 2.117776e+00 3.555930e-01 1.415004e-01 1.112174e-01 2.361555e-01 -7.401021e-01 -1.619311e-01 1.532460e+00 1.584295e-01 2.325116e-01 -2.301897e-01 -1.712088e+00
<VARIANCE> 25
 2.276621e+01 1.266458e+02 7.580060e+01 4.832732e+01 5.790954e+01 3.669238e+01 9.445206e+01 3.535141e+01 4.047460e+01 6.429260e+01 1.564990e+01 2.218563e+01 2.211271e+00 7.593519e+00 8.694951e+00 7.590558e+00 5.334811e+00 3.800647e+00 7.087228e+00 4.802385e+00 4.313480e+00 4.688124e+00 2.292871e+00 1.933170e+00 3.545663e+00
<GCONST> 1.109174e+02
<TRANSP> 5
 0.000000e+00 1.000000e+00 0.000000e+00 0.000000e+00 0.000000e+00
 0.000000e+00 7.694789e-01 2.305211e-01 0.000000e+00 0.000000e+00
 0.000000e+00 0.000000e+00 6.181117e-01 3.818883e-01 0.000000e+00
 0.000000e+00 0.000000e+00 0.000000e+00 4.565697e-01 5.434303e-01
 0.000000e+00 0.000000e+00 0.000000e+00 0.000000e+00 0.000000e+00
<ENDHMM>
~h "k"
<BEGINHMM>
<NUMSTATES> 5
<STATE> 2
<MEAN> 25
 2.725294e+00 -2.099470e+00 7.791587e-01 -1.118557e+01 1.257676e+01 -3.103444e+00 -1.018764e+01 2.403081e+00 2.841812e+00 3.393354e+00 -1.128593e+00 5.962065e-01 -4.639006e-01 -1.292530e-01 6.377310e-02 -2.834520e-01 1.312685e-02 8.514693e-01 -4.812338e-01 1.015137e-01 -1.296611e-01 -1.199610e-01 5.450401e-01 1.873274e-01 -9.291189e-01
<VARIANCE> 25
 2.214863e+02 5.794655e+01 5.220107e+01 1.290154e+02 8.655090e+01 5.496729e+01 5.598542e+01 3.875484e+01 5.145835e+01 7.207101e+01 4.114444e+01 2.974219e+01 1.412301e+01 6.763589e+00 6.411267e+00 6.787432e+00 6.783488e+00 5.280226e+00 6.252010e+00 5.144572e+00 4.877516e+00 4.486025e+00 4.040012e+00 3.129194e+00 1.004103e+01
<GCONST> 1.190108e+02
<STATE> 3
<MEAN> 25
 6.178273e+00 -4.681152e+00 -6.067221e+00 -9.851578e+00 1.158798e+01 1.885559e+00 -1.038418e+01 2.771735e+00 3.970285e-01 2.918961e+00 1.205548e+00 9.819865e-03 2.914806e+00 4.701979e-01 -1.908141e+00 -7.307272e-01 -8.531542e-01 8.913849e-01 8.580943e-01 -9.925113e-01 -1.386909e+00 3.360497e-01 3.832846e-01 -8.258573e-01 7.842038e-01
<VARIANCE> 25
 1.230781e+02 6.220546e+01 7.957300e+01 1.050641e+02 7.989059e+01 5.653699e+01 7.990372e+01 6.420682e+01 6.310215e+01 6.178785e+01 4.329170e+01 3.128379e+01 9.302527e+00 7.542302e+00 7.338165e+00 1.425171e+01 1.167004e+01 7.042898e+00 9.755849e+00 6.956836e+00 6.666512e+00 4.712293e+00 4.438200e+00 3.812503e+00 1.803472e+01
<GCONST> 1.230550e+02
<STATE> 4
<MEAN> 25
 1.407697e+01 -2.984190e+00 -5.572534e+00 -8.148035e+00 2.177366e+00 9.704878e-01 -4.375371e+00 -3.823198e+00 -2.194813e+00 4.194629e+00 4.150549e-02 -2.497644e+00 1.252606e+00 9.637059e-02 2.666851e-01 2.113825e-02 -8.858491e-01 -1.031259e-01 4.729007e-01 -8.535000e-01 -5.287958e-01 6.811790e-02 2.529912e-01 -1.371258e-01 8.359097e-01
<VARIANCE> 25
 1.095754e+02 7.373134e+01 6.881031e+01 1.006797e+02 6.329101e+01 9.386376e+01 5.117393e+01 8.250745e+01 7.349370e+01 3.666014e+01 6.279914e+01 4.727620e+01 1.097496e+01 5.862882e+00 7.146796e+00 7.939040e+00 8.781799e+00 7.733349e+00 7.276611e+00 1.010928e+01 7.082550e+00 4.061481e+00 4.605450e+00 4.190991e+00 1.242918e+01
<GCONST> 1.222783e+02
<TRANSP> 5
 0.000000e+00 1.000000e+00 0.000000e+00 0.000000e+00 0.000000e+00
 0.000000e+00 8.610940e-01 1.389060e-01 0.000000e+00 0.000000e+00
 0.000000e+00 0.000000e+00 7.671440e-01 2.328560e-01 0.000000e+00
 0.000000e+00 0.000000e+00 0.000000e+00 8.105815e-01 1.894185e-01
 0.000000e+00 0.000000e+00 0.000000e+00 0.000000e+00 0.000000e+00
<ENDHMM>
~h "l"
<BEGINHMM>
<NUMSTATES> 5
<STATE> 2
<MEAN> 25
 3.275383e+00 5.062701e+00 -2.896592e+00 -2.775684e+00 -7.809582e-01 3.631204e+00 -2.311001e-01 -3.641982e+00 6.796627e-01 -9.730296e-01 7.881815e-01 1.350082e+00 -8.591992e-01 -1.579112e+00 9.379959e-01 6.555336e-01 -3.703018e-01 -1.060205e+00 3.001000e-01 7.086234e-01 1.037008e-01 -2.724154e-01 3.840975e-01 3.743615e-01 6.255731e-01
<VARIANCE> 25
 1.693665e+02 9.306208e+01 4.801777e+01 7.812946e+01 4.902634e+01 5.235861e+01 3.000696e+01 4.610492e+01 4.657799e+01 3.333642e+01 2.841471e+01 2.389344e+01 9.878160e+00 6.845333e+00 4.202229e+00 3.160550e+00 4.563610e+00 6.160674e+00 3.319466e+00 2.715174e+00 2.750845e+00 2.377951e+00 2.007520e+00 1.731611e+00 1.453693e+01
<GCONST> 1.109293e+02
<STATE> 3
<MEAN> 25
 3.866865e+00 2.053824e+00 -1.782474e+00 -1.091482e+00 -1.999777e-01 7.959357e-01 -1.228113e-01 -2.166053e+00 -5.548596e-03 -1.690422e+00 1.298547e+00 1.784627e+00 1.198833e-01 -2.401642e+00 9.949920e-01 4.804748e-01 -5.850760e-01 -1.554360e+00 2.918770e-01 6.734391e-01 -3.050542e-01 -1.692712e-01 -1.825410e-01 1.297565e-01 1.988374e+00
<VARIANCE> 25
 1.399945e+02 1.410152e+02 6.029887e+01 8.645446e+01 6.247580e+01 6.195524e+01 3.373441e+01 4.118132e+01 4.896906e+01 3.582471e+01 2.905102e+01 2.484413e+01 1.243328e+01 7.631250e+00 4.059897e+00 4.175537e+00 5.842048e+00 6.970820e+00 2.910893e+00 2.566890e+00 3.971030e+00 2.481565e+00 2.354050e+00 1.989131e+00 2.054897e+01
<GCONST> 1.139011e+02
<STATE> 4
<MEAN> 25
 4.823695e+00 -3.774155e+00 1.057864e+00 -2.899694e-01 -1.262288e+00 -2.974250e+00 -6.154591e-01 -1.944160e-01 3.294023e-01 -1.862020e+00 -2.532992e-01 1.318030e+00 1.181208e+00 -2.077739e+00 1.097414e+00 6.599388e-01 -1.030282e+00 -1.282197e+00 -2.160273e-01 4.090267e-01 -3.875956e-01 2.782200e-02 -4.065495e-01 -3.331321e-01 2.140039e+00
<VARIANCE> 25
 1.149194e+02 1.416723e+02 6.634725e+01 9.327614e+01 5.488019e+01 8.982359e+01 3.976115e+01 4.620332e+01 5.280237e+01 3.339454e+01 2.983818e+01 3.332843e+01 1.345749e+01 9.434892e+00 5.958217e+00 5.088240e+00 8.455456e+00 6.202107e+00 3.911096e+00 3.308218e+00 4.369993e+00 2.927599e+00 3.591836e+00 3.023322e+00 1.622544e+01
<GCONST> 1.172673e+02
<TRANSP> 5
 0.000000e+00 1.000000e+00 0.000000e+00 0.000000e+00 0.000000e+00
 0.000000e+00 2.489525e-01 7.510475e-01 0.000000e+00 0.000000e+00
 0.000000e+00 0.000000e+00 1.398217e-01 8.601783e-01 0.000000e+00
 0.000000e+00 0.000000e+00 0.000000e+00 3.293521e-01 6.706479e-01
 0.000000e+00 0.000000e+00 0.000000e+00 0.000000e+00 0.000000e+00
<ENDHMM>
~h "m"
<BEGINHMM>
<NUMSTATES> 5
<STATE> 2
<MEAN> 25
 2.088023e+00 3.762418e+00 8.612962e+00 -6.604195e+00 6.350687e+00 -9.545309e+00 -6.929996e+00 4.781728e+00 1.238930e+00 -3.863212e+00 -4.214002e+00 2.828286e+00 1.588930e+00 -9.036346e-01 9.526332e-01 -1.384584e+00 4.791836e-01 -5.167163e-01 -1.463910e+00 -7.037842e-01 1.224894e-01 5.539745e-03 -8.249631e-02 -3.778713e-01 3.514996e+00
<VARIANCE> 25
 7.330049e+01 4.974561e+01 6.965655e+01 6.171844e+01 1.119232e+02 6.455903e+01 1.431687e+02 6.559969e+01 5.289625e+01 4.840732e+01 6.326109e+01 3.416872e+01 1.502946e+01 7.767511e+00 5.674947e+00 7.839107e+00 1.431960e+01 9.380833e+00 9.676933e+00 1.205770e+01 1.084012e+01 8.889510e+00 7.293775e+00 5.151849e+00 4.703547e+00
<GCONST> 1.240318e+02
<STATE> 3
<MEAN> 25
 2.046464e+01 -9.422289e+00 6.677653e+00 -1.050927e+01 1.651329e+00 -2.460134e-02 -7.951255e+00 -1.193976e+01 -1.423669e+00 6.843965e+00 -1.376363e+00 -4.296841e+00 1.777234e+00 -8.771374e-01 -5.084525e-01 4.693627e-02 -1.752034e+00 1.677114e+00 1.386337e+00 -7.914896e-01 -7.310095e-01 8.989635e-01 -1.384538e-02 2.309032e-01 -2.974955e-01
<VARIANCE> 25
 4.364659e+01 3.483684e+01 7.289375e+01 1.277987e+02 6.118538e+01 1.260234e+02 9.996663e+01 1.212899e+02 5.668512e+01 7.681537e+01 2.514544e+01 2.818575e+01 4.870027e+00 5.548965e+00 9.063482e+00 1.284881e+01 8.076635e+00 1.043160e+01 6.716784e+00 1.852130e+01 8.988604e+00 1.123796e+01 1.726322e+00 5.029078e+00 4.274820e+00
<GCONST> 1.212498e+02
<STATE> 4
<MEAN> 25
 1.963700e+01 -4.833930e+00 3.970913e+00 -3.997310e+00 -5.681902e+00 8.874241e-01 2.931371e+00 -6.284106e+00 -6.557810e+00 -7.070354e-02 -2.188536e-02 -6.476378e-01 -2.962204e-01 7.075391e-01 -2.443709e-01 4.405516e-01 1.261694e-01 -1.082551e-01 6.090828e-02 2.896937e-01 6.420769e-02 -1.603352e-01 1.449778e-01 -1.035954e-01 -7.929485e-01
<VARIANCE> 25
 6.426969e+01 1.189855e+02 1.293588e+02 1.699394e+02 8.648006e+01 8.574851e+01 8.998251e+01 1.487617e+02 9.112890e+01 7.106107e+01 4.000359e+01 2.920487e+01 2.160526e+00 6.915319e+00 7.799925e+00 7.858710e+00 4.122682e+00 3.480458e+00 4.255715e+00 6.695498e+00 5.970190e+00 6.755193e+00 3.728982e+00 3.253685e+00 5.809514e+00
<GCONST> 1.199252e+02
<TRANSP> 5
 0.000000e+00 1.000000e+00 0.000000e+00 0.000000e+00 0.000000e+00
 0.000000e+00 8.682408e-01 1.317592e-01 0.000000e+00 0.000000e+00
 0.000000e+00 0.000000e+00 8.524819e-01 1.475181e-01 0.000000e+00
 0.000000e+00 0.000000e+00 0.000000e+00 9.569198e-01 4.308018e-02
 0.000000e+00 0.000000e+00 0.000000e+00 0.000000e+00 0.000000e+00
<ENDHMM>
~h "n"
<BEGINHMM>
<NUMSTATES> 5
<STATE> 2
<MEAN> 25
 -2.405689e+00 8.185746e+00 3.471401e+00 6.145838e+00 -1.210765e+00 -1.666587e+00 -9.625747e-01 -1.826047e+00 -2.333754e+00 -4.045222e+00 -3.907938e+00 -2.199342e+00 -1.345256e+00 -1.139447e+00 -5.504338e-01 1.720110e-01 3.970530e-01 2.021950e-01 7.375539e-02 -4.446761e-02 1.676128e-01 1.872501e-01 2.415854e-01 -1.041015e-01 -7.113738e-01
<VARIANCE> 25
 4.620759e+01 2.870888e+01 3.349664e+01 2.174380e+01 1.833244e+01 1.926159e+01 2.088734e+01 1.984516e+01 3.113676e+01 2.159583e+01 1.546467e+01 2.058436e+01 4.416701e+00 2.823512e+00 2.364326e+00 2.761132e+00 2.268099e+00 2.289906e+00 1.593650e+00 1.890067e+00 1.772439e+00 2.659048e+00 1.082699e+00 1.024369e+00 1.353676e+00
<GCONST> 9.300220e+01
<STATE> 3
<MEAN> 25
 -8.170266e+00 4.610322e+00 3.106991e+00 7.722604e+00 2.731815e+00 2.396721e+00 -7.760616e-01 -1.416426e+00 -1.784806e+00 -3.954501e+00 -1.414345e+00 -2.120931e+00 -4.290578e-01 -3.782703e-01 -4.123838e-01 -2.338663e-01 -1.807692e-01 6.077800e-02 1.802322e-01 6.619599e-02 8.208814e-02 1.971542e-01 3.558574e-01 3.535420e-01 -2.279140e-01
<VARIANCE> 25
 1.087379e+01 9.232741e+00 2.388179e+01 1.753036e+01 1.535670e+01 1.350951e+01 1.197175e+01 1.405426e+01 1.681772e+01 1.480940e+01 2.139108e+01 1.654116e+01 2.115273e-01 5.558438e-01 1.049184e+00 1.000794e+00 6.414809e-01 1.084732e+00 1.073621e+00 2.024238e+00 1.361758e+00 1.644582e+00 2.232546e+00 2.193606e+00 8.216455e-02
<GCONST> 7.665768e+01
<STATE> 4
<MEAN> 25
 -8.889859e+00 2.159121e+00 -3.278100e-02 1.779276e+00 3.353844e-01 1.958657e+00 5.475246e-02 4.238499e-01 -2.893567e-01 -1.206259e+00 -6.541793e-01 2.078579e-01 -1.897947e-02 1.505386e-02 -1.680383e-02 -4.290768e-02 2.677039e-02 2.393095e-02 -8.463690e-03 2.177296e-02 1.468727e-03 -1.737796e-02 1.242681e-02 4.485652e-02 -1.596371e-02
<VARIANCE> 25
 4.558226e+00 7.415716e+00 1.241663e+01 1.119894e+01 7.962377e+00 1.294259e+01 1.349574e+01 1.269904e+01 1.561814e+01 1.409507e+01 1.383820e+01 1.348546e+01 1.613342e-01 3.163521e-01 4.561782e-01 6.089222e-01 7.109607e-01 9.420965e-01 1.162237e+00 1.306240e+00 1.434548e+00 1.490935e+00 1.394555e+00 1.307414e+00 4.350752e-02
<GCONST> 6.879143e+01
<TRANSP> 5
 0.000000e+00 1.000000e+00 0.000000e+00 0.000000e+00 0.000000e+00
 0.000000e+00 7.690562e-01 2.309438e-01 0.000000e+00 0.000000e+00
 0.000000e+00 0.000000e+00 7.418534e-01 2.581466e-01 0.000000e+00
 0.000000e+00 0.000000e+00 0.000000e+00 9.637188e-01 3.628121e-02
 0.000000e+00 0.000000e+00 0.000000e+00 0.000000e+00 0.000000e+00
<ENDHMM>
~h "r"
<BEGINHMM>
<NUMSTATES> 5
<STATE> 2
<MEAN> 25
 1.996759e+00 3.582090e+00 8.948885e-01 1.831834e+00 -3.040697e+00 -1.111426e+00 1.164921e-01 -1.597250e+00 4.330157e-01 -9.667810e-01 -5.972427e-01 1.759107e-01 -1.195303e-01 1.222922e-01 3.458255e-01 -3.860716e-01 -1.376178e-02 2.477206e-01 -5.829063e-01 -2.679308e-01 1.620035e-01 -3.683273e-02 -7.977594e-02 8.362120e-02 -1.345095e-02
<VARIANCE> 25
 1.851523e+02 1.429573e+02 5.758711e+01 3.297852e+01 5.266200e+01 4.424483e+01 3.566295e+01 3.293328e+01 3.201212e+01 2.714784e+01 2.252278e+01 1.663218e+01 5.210403e+00 5.021654e+00 3.473532e+00 2.801997e+00 3.516938e+00 3.208936e+00 3.132581e+00 2.391175e+00 3.609580e+00 2.179808e+00 1.506796e+00 1.724708e+00 3.722512e+00
<GCONST> 1.055047e+02
<STATE> 3
<MEAN> 25
 1.895662e+00 3.652267e+00 1.770481e+00 1.500414e+00 -2.862298e+00 -4.677560e-01 -5.017833e-01 -2.076729e+00 3.908831e-01 -1.244945e+00 -4.414094e-01 4.949837e-01 4.798754e-01 -3.219815e-02 4.751151e-01 -1.137275e-01 3.265715e-01 1.301301e-01 -3.201159e-01 -1.194749e-01 7.304890e-02 -1.714025e-01 -1.800504e-01 1.022676e-01 6.354245e-01
<VARIANCE> 25
 1.704988e+02 1.451640e+02 6.354860e+01 3.157409e+01 5.023071e+01 4.525835e+01 4.170642e+01 3.879464e+01 4.190841e+01 2.835970e+01 2.365789e+01 2.007788e+01 5.864538e+00 6.673411e+00 4.260778e+00 3.442654e+00 3.489293e+00 2.821436e+00 2.887390e+00 2.412677e+00 2.660018e+00 1.901499e+00 1.559954e+00 1.525709e+00 3.408254e+00
<GCONST> 1.063245e+02
<STATE> 4
<MEAN> 25
 2.296816e+00 2.845576e+00 2.376497e+00 2.025101e+00 -1.287652e+00 -6.399539e-01 -4.545879e-01 -2.179495e+00 1.466361e+00 -1.728216e+00 -1.192538e+00 1.127372e+00 1.406748e+00 -9.078565e-01 6.111947e-01 -2.638480e-01 3.564743e-01 -6.138873e-01 1.417722e-02 4.600192e-02 -6.505957e-02 4.390157e-02 -2.965984e-01 6.970018e-02 2.202244e+00
<VARIANCE> 25
 1.772904e+02 1.518484e+02 6.398050e+01 4.716991e+01 5.796936e+01 5.283343e+01 5.126920e+01 3.674358e+01 4.699864e+01 2.762881e+01 2.581407e+01 2.221399e+01 8.000414e+00 1.046307e+01 7.071083e+00 5.202341e+00 6.045794e+00 6.635582e+00 5.792529e+00 3.993107e+00 4.314902e+00 2.882511e+00 2.775072e+00 2.531366e+00 1.115501e+01
<GCONST> 1.149962e+02
<TRANSP> 5
 0.000000e+00 1.000000e+00 0.000000e+00 0.000000e+00 0.000000e+00
 0.000000e+00 1.882507e-01 8.117493e-01 0.000000e+00 0.000000e+00
 0.000000e+00 0.000000e+00 1.766465e-01 8.233535e-01 0.000000e+00
 0.000000e+00 0.000000e+00 0.000000e+00 2.076263e-01 7.923737e-01
 0.000000e+00 0.000000e+00 0.000000e+00 0.000000e+00 0.000000e+00
<ENDHMM>
~h "s"
<BEGINHMM>
<NUMSTATES> 5
<STATE> 2
<MEAN> 25
 9.086790e+00 -9.935738e+00 5.990651e+00 1.520322e+00 -2.944602e+00 -9.285666e+00 -6.762270e-01 1.939229e+00 1.518065e+00 -1.196466e+00 -2.980839e+00 3.448039e-01 2.317189e+00 -1.691132e+00 6.980968e-01 -3.115940e-01 -1.139362e+00 -7.584343e-01 -5.607365e-01 2.717153e-01 -3.904127e-01 7.418908e-02 -2.253670e-02 -1.914798e-01 2.392930e+00
<VARIANCE> 25
 1.333223e+02 8.161852e+01 6.108268e+01 7.660376e+01 7.438688e+01 6.179825e+01 6.649944e+01 3.931836e+01 5.932838e+01 2.886201e+01 3.766938e+01 2.599656e+01 1.086937e+01 1.268675e+01 9.107863e+00 7.951041e+00 6.051022e+00 9.048337e+00 5.020495e+00 3.979707e+00 6.978464e+00 2.684955e+00 4.317082e+00 2.724634e+00 8.315157e+00
<GCONST> 1.180471e+02
<STATE> 3
<MEAN> 25
 1.756075e+01 -1.527848e+01 9.332992e+00 -2.587121e+00 -6.030110e+00 -1.037133e+01 -5.605559e+00 4.569576e+00 -1.531982e+00 1.385455e-01 -1.935894e+00 2.600226e-01 8.238502e-01 -6.684828e-01 -2.491952e-01 -1.236524e+00 3.075096e-01 3.284624e-01 -5.942649e-01 1.854435e-01 -5.778113e-02 5.477412e-01 -3.114760e-01 -3.005672e-01 8.358930e-01
<VARIANCE> 25
 4.428796e+01 4.192113e+01 8.829488e+01 8.991901e+01 6.929533e+01 6.009424e+01 6.600665e+01 7.073013e+01 1.107606e+02 4.429126e+01 4.298315e+01 2.961052e+01 3.965852e+00 4.606488e+00 6.605744e+00 8.686738e+00 7.120513e+00 6.680672e+00 6.725873e+00 5.609108e+00 9.919300e+00 6.303284e+00 5.037590e+00 3.769869e+00 2.462745e+00
<GCONST> 1.173113e+02
<STATE> 4
<MEAN> 25
 1.316899e+01 -6.985042e+00 -1.092434e-02 -1.004815e+01 2.880661e+00 -4.572079e+00 -2.661163e+00 -2.038052e+00 -9.946722e-01 4.206859e+00 -2.253317e+00 -2.522346e+00 -1.229782e+00 1.228150e+00 -4.543912e-01 -3.759220e-01 1.139375e+00 2.256683e-01 1.294117e-01 -1.867674e-01 1.119652e-01 -8.288284e-02 2.617518e-01 1.026381e-01 -5.135922e-01
<VARIANCE> 25
 2.171874e+02 9.326895e+01 8.443604e+01 1.021848e+02 1.110284e+02 7.905543e+01 9.857986e+01 1.031386e+02 5.304240e+01 5.550711e+01 3.936301e+01 4.967036e+01 6.670546e+00 4.004419e+00 3.861620e+00 4.710142e+00 4.326373e+00 3.654804e+00 4.891929e+00 4.686372e+00 4.124625e+00 4.663007e+00 3.368110e+00 3.432377e+00 1.216478e+00
<GCONST> 1.164778e+02
<TRANSP> 5
 0.000000e+00 1.000000e+00 0.000000e+00 0.000000e+00 0.000000e+00
 0.000000e+00 5.166765e-01 4.833235e-01 0.000000e+00 0.000000e+00
 0.000000e+00 0.000000e+00 7.378381e-01 2.621619e-01 0.000000e+00
 0.000000e+00 0.000000e+00 0.000000e+00 9.048945e-01 9.510554e-02
 0.000000e+00 0.000000e+00 0.000000e+00 0.000000e+00 0.000000e+00
<ENDHMM>
~h "t"
<BEGINHMM>
<NUMSTATES> 5
<STATE> 2
<MEAN> 25
 4.141198e+00 4.930296e-01 1.017138e+00 -2.487496e+00 1.838857e-01 -1.360851e+00 2.568800e-01 -2.098125e+00 2.020608e-01 -1.764033e-01 8.106858e-01 2.308592e+00 1.784185e-01 -8.327225e-01 1.248468e+00 -2.790846e-01 -1.539602e+00 -8.581274e-01 -2.597441e-01 1.897295e-01 -2.940378e-01 -4.270833e-01 3.757268e-03 4.905903e-02 6.283314e-01
<VARIANCE> 25
 1.196318e+02 1.571926e+02 5.035872e+01 5.592905e+01 6.226912e+01 1.191895e+02 3.529368e+01 4.631393e+01 3.424596e+01 2.885550e+01 2.321655e+01 1.990753e+01 2.293638e+01 9.081648e+00 7.327317e+00 7.071352e+00 9.444363e+00 9.101738e+00 5.886950e+00 5.146776e+00 2.281621e+00 5.778570e+00 3.662348e+00 1.989725e+00 2.340083e+01
<GCONST> 1.179448e+02
<STATE> 3
<MEAN> 25
 6.243996e+00 -1.550337e+00 2.443294e+00 -2.530296e+00 -1.431262e+00 -4.578185e+00 -1.081930e+00 -1.588646e+00 -1.113319e+00 -4.664050e-01 -8.705211e-02 1.950242e+00 7.133928e-01 -4.143015e-01 1.110371e-01 4.839724e-01 -1.607724e+00 -5.151374e-01 -6.102571e-02 -3.366579e-01 -7.762159e-01 -7.950399e-01 -2.040921e-02 -3.679460e-01 1.502711e-01
<VARIANCE> 25
 1.577462e+02 1.443981e+02 8.407845e+01 6.391388e+01 8.154200e+01 8.416923e+01 4.559300e+01 7.249601e+01 4.183768e+01 4.425124e+01 3.497443e+01 2.475760e+01 1.736752e+01 5.807082e+00 8.458978e+00 5.777459e+00 8.851563e+00 8.249454e+00 5.035884e+00 7.248160e+00 3.113528e+00 3.170092e+00 2.641783e+00 2.607789e+00 1.189186e+01
<GCONST> 1.188807e+02
<STATE> 4
<MEAN> 25
 1.083645e+01 1.066418e+00 -1.577795e+00 -3.744917e+00 -6.016854e+00 -3.194707e+00 1.785597e+00 -4.619152e+00 -4.450194e+00 -2.591210e+00 4.210737e-01 1.156051e+00 -7.367936e-01 -2.400100e-01 3.423339e-02 4.739657e-01 -1.797223e-01 1.293928e-01 -1.347507e-01 2.619571e-01 2.759475e-01 1.159577e-01 -3.831788e-01 -1.934738e-01 -9.243965e-01
<VARIANCE> 25
 1.792286e+02 1.752437e+02 5.906191e+01 8.003586e+01 6.958685e+01 9.738628e+01 3.518313e+01 5.275309e+01 5.293895e+01 4.152375e+01 2.815790e+01 2.409631e+01 4.417705e+00 3.019030e+00 2.891682e+00 2.579923e+00 3.678536e+00 4.540163e+00 2.752912e+00 3.483176e+00 2.472669e+00 3.661271e+00 2.285142e+00 2.378652e+00 1.947408e+00
<GCONST> 1.095644e+02
<TRANSP> 5
 0.000000e+00 1.000000e+00 0.000000e+00 0.000000e+00 0.000000e+00
 0.000000e+00 1.572977e-01 8.427023e-01 0.000000e+00 0.000000e+00
 0.000000e+00 0.000000e+00 2.398508e-01 7.601492e-01 0.000000e+00
 0.000000e+00 0.000000e+00 0.000000e+00 5.465865e-01 4.534135e-01
 0.000000e+00 0.000000e+00 0.000000e+00 0.000000e+00 0.000000e+00
<ENDHMM>
~h "w"
<BEGINHMM>
<NUMSTATES> 5
<STATE> 2
<MEAN> 25
 2.461586e+01 -3.802688e-01 -1.013241e+01 -1.650167e+01 -4.565490e-01 5.190004e+00 -1.034258e+00 -6.456443e+00 -8.897989e+00 2.087122e+00 6.066817e+00 -1.887819e+00 1.071072e+00 -2.646385e+00 1.413984e-02 1.474814e+00 9.780684e-02 -1.636097e+00 -1.148854e-01 -1.438482e-01 -5.581658e-01 1.815183e+00 2.330721e-01 -1.756080e+00 2.024566e+00
<VARIANCE> 25
 2.125253e+01 6.130194e+01 4.983625e+01 5.442236e+01 5.427429e+01 4.133846e+01 3.967239e+01 3.190686e+01 5.270580e+01 4.571370e+01 3.005002e+01 2.925126e+01 3.346449e+00 4.586309e+00 4.993415e+00 6.578742e+00 7.982085e+00 8.619751e+00 4.916537e+00 3.341819e+00 6.279929e+00 3.804231e+00 5.496862e+00 4.005898e+00 2.072391e+00
<GCONST> 1.106974e+02
<STATE> 3
<MEAN> 25
 2.241682e+01 -1.266211e+01 -5.770161e+00 -8.628805e+00 8.396859e-01 -4.648145e+00 -2.506421e+00 6.257811e-01 -7.905286e+00 6.604684e+00 3.236168e+00 -9.739466e+00 -6.602659e-01 -2.172268e+00 9.663183e-01 1.959177e+00 -7.635924e-01 -1.554292e+00 1.534751e-02 1.588437e+00 1.792050e+00 -9.064363e-01 -1.872832e+00 -8.007213e-01 9.229409e-01
<VARIANCE> 25
 3.319361e+01 3.469339e+01 4.976150e+01 5.780449e+01 5.360803e+01 5.914613e+01 6.571025e+01 1.041448e+02 6.630647e+01 5.303279e+01 4.429309e+01 3.373808e+01 7.944380e-01 3.400285e+00 2.231757e+00 2.314551e+00 3.303051e+00 4.536713e+00 3.820545e+00 2.789475e+00 4.718112e+00 3.308900e+00 2.373216e+00 3.834526e+00 1.345298e+00
<GCONST> 1.062895e+02
<STATE> 4
<MEAN> 25
 2.242135e+01 -1.681297e+01 -4.658764e+00 8.548902e-01 -6.775411e+00 -7.347852e+00 2.081036e+00 -1.735650e-01 -1.974188e-01 2.453198e+00 -4.386443e+00 -9.125562e+00 -3.211115e-01 -1.930812e-02 5.589540e-01 8.011117e-01 -7.619264e-01 1.773429e-01 4.486264e-01 -2.040113e-01 8.638059e-01 -4.792623e-01 -1.417178e+00 4.690921e-01 -5.133476e-01
<VARIANCE> 25
 2.060227e+01 3.015104e+01 3.895346e+01 4.792916e+01 4.050852e+01 3.594272e+01 5.969569e+01 6.800817e+01 4.409874e+01 4.821114e+01 4.485935e+01 2.336395e+01 1.155540e+00 2.428049e+00 2.773911e+00 2.663593e+00 2.323116e+00 4.040747e+00 2.522378e+00 5.272124e+00 4.198231e+00 3.099826e+00 2.272871e+00 2.964627e+00 1.350737e+00
<GCONST> 1.027527e+02
<TRANSP> 5
 0.000000e+00 1.000000e+00 0.000000e+00 0.000000e+00 0.000000e+00
 0.000000e+00 7.045165e-01 2.954835e-01 0.000000e+00 0.000000e+00
 0.000000e+00 0.000000e+00 7.125596e-01 2.874404e-01 0.000000e+00
 0.000000e+00 0.000000e+00 0.000000e+00 8.184465e-01 1.815535e-01
 0.000000e+00 0.000000e+00 0.000000e+00 0.000000e+00 0.000000e+00
<ENDHMM>
~h "z"
<BEGINHMM>
<NUMSTATES> 5
<STATE> 2
<MEAN> 25
 -6.558522e+00 9.801465e-01 -2.149420e+00 -2.327796e-01 4.492251e-01 5.343790e-01 -1.324610e+00 2.781361e+00 7.946102e-01 4.152628e-01 8.146019e-01 1.051920e+00 -1.264881e-02 2.129116e-02 -5.843583e-02 1.099784e-02 -2.968510e-02 1.247367e-02 -2.089051e-02 -6.212170e-02 -5.080384e-02 -6.291780e-02 -2.962933e-02 -1.594424e-02 -7.218396e-02
<VARIANCE> 25
 3.037091e+00 2.023980e+00 5.698467e+00 9.047996e+00 1.416373e+01 1.062094e+01 1.333469e+01 1.084636e+01 1.174769e+01 1.089295e+01 9.175488e+00 7.846308e+00 3.074164e-01 2.742178e-01 4.882164e-01 8.642753e-01 7.228205e-01 1.128528e+00 1.256038e+00 1.342157e+00 1.294314e+00 1.185886e+00 1.008655e+00 8.547857e-01 6.020033e-01
<GCONST> 6.757671e+01
<STATE> 3
<MEAN> 25
 -8.186923e+00 -1.104375e+00 -2.379733e+00 1.913716e+00 -6.012053e-01 3.234016e-01 5.727175e-01 2.006860e+00 3.093290e+00 -1.275091e-02 -3.108513e-01 9.359321e-02 2.393321e-01 3.877572e-02 1.843956e-01 -9.755120e-03 7.664220e-02 -2.698540e-02 6.784409e-02 3.597891e-02 2.166273e-02 1.303316e-02 -1.437842e-01 -1.536878e-01 2.390778e-01
<VARIANCE> 25
 8.850360e+00 1.451518e+01 2.433237e+01 1.422995e+01 9.588670e+00 1.177217e+01 2.659002e+01 1.328662e+01 2.678135e+01 1.000362e+01 1.324677e+01 1.194416e+01 8.892568e-01 1.654396e+00 3.682648e+00 1.544642e+00 1.095467e+00 1.178827e+00 2.498702e+00 1.509123e+00 4.512523e+00 9.845005e-01 1.414481e+00 1.798232e+00 1.172762e+00
<GCONST> 8.418965e+01
<STATE> 4
<MEAN> 25
 -2.646623e+00 3.039708e+00 -1.467264e+00 6.312588e-01 4.315198e+00 -6.436752e-01 9.830341e-01 2.666549e+00 3.155186e+00 -1.967086e+00 -4.501046e+00 -6.772915e-01 7.974063e-01 4.495362e-01 6.575464e-01 -8.043659e-01 3.440414e-01 -8.003286e-01 -9.668119e-01 -6.080458e-01 -7.368666e-01 -6.023456e-01 -6.904882e-01 -6.624390e-02 1.224266e+00
<VARIANCE> 25
 3.001795e+01 2.653024e+01 3.582276e+01 2.256809e+01 3.092913e+01 3.159763e+01 3.863601e+01 1.834572e+01 2.454375e+01 1.162037e+01 2.382173e+01 5.941876e+00 4.508985e+00 1.178190e+00 3.026453e+00 1.333205e+00 4.018285e+00 2.267920e+00 3.251042e+00 1.976353e+00 4.253776e+00 1.697024e+00 2.805431e+00 6.969618e-01 6.540977e+00
<GCONST> 9.503661e+01
<TRANSP> 5
 0.000000e+00 1.000000e+00 0.000000e+00 0.000000e+00 0.000000e+00
 0.000000e+00 9.561911e-01 4.380888e-02 0.000000e+00 0.000000e+00
 0.000000e+00 0.000000e+00 8.274149e-01 1.725851e-01 0.000000e+00
 0.000000e+00 0.000000e+00 0.000000e+00 7.212092e-01 2.787908e-01
 0.000000e+00 0.000000e+00 0.000000e+00 0.000000e+00 0.000000e+00
<ENDHMM>
~h "ae"
<BEGINHMM>
<NUMSTATES> 5
<STATE> 2
<MEAN> 25
 2.096988e+01 -2.240836e+01 -4.373357e+00 4.262573e-01 -3.798248e+00 -5.948366e+00 1.062996e+00 4.260179e+00 1.055176e+00 1.511629e+00 -7.378742e+00 -3.138968e+00 -3.457781e-01 -1.501490e+00 9.746391e-01 1.387287e-01 -3.597312e-01 -7.849823e-01 1.773873e+00 9.355943e-01 -1.291722e+00 -3.006770e-01 -1.368853e+00 -2.016918e-01 9.360581e-01
<VARIANCE> 25
 1.842471e+01 1.952241e+01 8.617430e+01 1.145896e+02 5.688224e+01 4.004948e+01 4.726316e+01 5.447499e+01 2.191569e+01 2.790064e+01 3.052214e+01 2.177292e+01 1.754816e+00 3.062745e+00 4.716370e+00 4.373443e+00 6.079578e+00 2.421841e+00 3.046311e+00 5.134212e+00 3.558125e+00 2.967612e+00 2.886508e+00 2.138638e+00 8.300590e-01
<GCONST> 1.036680e+02
<STATE> 3
<MEAN> 25
 1.664445e+01 -2.335835e+01 3.039443e+00 -1.874621e+00 -5.858528e+00 -7.509555e+00 5.989076e+00 9.795734e+00 -6.044837e+00 -3.094420e+00 -5.777719e+00 -4.362440e+00 -4.040627e-01 6.739603e-01 9.175243e-01 -1.373222e-02 -7.156738e-01 -1.711296e-01 9.090616e-01 6.583850e-01 -1.418047e+00 -5.030678e-01 9.289246e-01 -3.025411e-01 -4.079796e-01
<VARIANCE> 25
 2.191861e+01 2.438339e+01 5.680298e+01 1.164997e+02 4.078583e+01 2.849436e+01 4.161811e+01 5.882160e+01 3.294323e+01 2.234902e+01 3.635932e+01 2.391541e+01 5.089562e-01 1.493584e+00 2.401105e+00 2.470226e+00 2.211431e+00 1.059830e+00 1.486201e+00 1.757788e+00 1.444855e+00 1.813088e+00 1.330955e+00 1.320020e+00 6.566271e-01
<GCONST> 9.368028e+01
<STATE> 4
<MEAN> 25
 1.610073e+01 -1.482486e+01 6.559003e+00 -3.911741e-01 -1.254243e+01 -6.469443e+00 1.260989e+01 6.414738e+00 -1.333052e+01 -5.774649e-01 -8.300722e-01 -5.943071e+00 2.016800e-02 2.457065e+00 4.136879e-01 -2.792639e-01 -6.984736e-01 8.249998e-01 1.235085e+00 -1.674569e+00 -1.717528e+00 1.291965e+00 6.872106e-01 -1.121927e-01 -1.262209e+00
<VARIANCE> 25
 1.624638e+01 4.892577e+01 9.097896e+01 1.058958e+02 5.706617e+01 2.138916e+01 5.272756e+01 8.462025e+01 3.077181e+01 3.240912e+01 2.703246e+01 2.955719e+01 4.168926e-01 2.341323e+00 3.106919e+00 3.208262e+00 2.217631e+00 2.222536e+00 3.114657e+00 2.712204e+00 1.779316e+00 2.395217e+00 1.682000e+00 1.758562e+00 1.392569e+00
<GCONST> 9.976644e+01
<TRANSP> 5
 0.000000e+00 1.000000e+00 0.000000e+00 0.000000e+00 0.000000e+00
 0.000000e+00 6.566527e-01 3.433473e-01 0.000000e+00 0.000000e+00
 0.000000e+00 0.000000e+00 8.510760e-01 1.489240e-01 0.000000e+00
 0.000000e+00 0.000000e+00 0.000000e+00 7.513676e-01 2.486324e-01
 0.000000e+00 0.000000e+00 0.000000e+00 0.000000e+00 0.000000e+00
<ENDHMM>
~h "ah"
<BEGINHMM>
<NUMSTATES> 5
<STATE> 2
<MEAN> 25
 1.422371e+01 -2.129716e+00 -3.463796e+00 -4.767527e+00 1.338028e+00 -1.701581e+00 -6.147099e+00 -4.980190e+00 9.974423e-01 3.344437e+00 -1.066524e+00 -3.424631e+00 7.183753e-02 1.047204e+00 8.530598e-02 1.286973e-01 -8.719459e-01 5.850021e-01 6.111881e-01 -6.782736e-01 -3.278285e-01 -4.644306e-01 5.694129e-02 5.595329e-01 -7.384798e-01
<VARIANCE> 25
 1.349326e+02 8.724935e+01 9.399918e+01 1.068966e+02 4.566722e+01 7.678707e+01 1.012144e+02 8.107440e+01 5.710914e+01 5.815967e+01 6.367207e+01 3.429406e+01 7.977973e+00 1.085306e+01 8.951694e+00 9.585280e+00 6.059210e+00 7.214169e+00 1.064798e+01 1.006180e+01 5.394630e+00 6.613080e+00 3.601360e+00 2.677892e+00 1.181213e+01
<GCONST> 1.231824e+02
<STATE> 3
<MEAN> 25
 2.122676e+01 1.498946e+00 -8.235687e+00 -5.145182e+00 -5.062911e-01 1.578838e+00 -4.299508e+00 -1.070097e+01 -2.648869e+00 3.152003e+00 -1.540073e+00 -3.882266e+00 -6.171647e-01 2.339719e+00 -8.768971e-02 -3.580908e-02 -1.927253e-01 6.557273e-01 3.061814e-01 -3.835380e-01 -5.506563e-02 -7.425070e-01 1.425365e-01 5.927835e-01 -1.740469e+00
<VARIANCE> 25
 2.579204e+01 7.225201e+01 6.716018e+01 8.175636e+01 5.549918e+01 6.202285e+01 4.665142e+01 6.648442e+01 5.431422e+01 6.087056e+01 4.279213e+01 3.066843e+01 2.882712e+00 5.373866e+00 5.394869e+00 5.485880e+00 5.969411e+00 4.706863e+00 4.962421e+00 5.671082e+00 4.899920e+00 3.589942e+00 4.296277e+00 1.650123e+00 2.449562e+00
<GCONST> 1.120774e+02
<STATE> 4
<MEAN> 25
 1.760488e+01 8.631313e+00 -4.855633e+00 -4.573027e+00 -1.350938e+00 1.835036e+00 -2.672060e+00 -7.851245e+00 -3.922274e+00 -1.109138e+00 -2.306237e+00 -2.763082e+00 -1.520387e+00 6.954228e-01 8.380915e-01 5.569316e-02 -4.854059e-01 3.409797e-01 4.296644e-01 4.824377e-01 1.067926e-01 -4.492705e-01 1.159997e-01 4.817370e-01 -1.355229e+00
<VARIANCE> 25
 7.416929e+01 8.625562e+01 1.035769e+02 9.213778e+01 5.040646e+01 5.648099e+01 4.401339e+01 3.532152e+01 4.916281e+01 4.239708e+01 2.615788e+01 2.307874e+01 3.261896e+00 5.120693e+00 4.566775e+00 3.792727e+00 4.171421e+00 2.400629e+00 3.546176e+00 2.349188e+00 2.730545e+00 2.897231e+00 1.663161e+00 1.665602e+00 1.397333e+00
<GCONST> 1.067356e+02
<TRANSP> 5
 0.000000e+00 1.000000e+00 0.000000e+00 0.000000e+00 0.000000e+00
 0.000000e+00 6.200823e-01 3.799177e-01 0.000000e+00 0.000000e+00
 0.000000e+00 0.000000e+00 5.674033e-01 4.325967e-01 0.000000e+00
 0.000000e+00 0.000000e+00 0.000000e+00 7.405087e-01 2.594913e-01
 0.000000e+00 0.000000e+00 0.000000e+00 0.000000e+00 0.000000e+00
<ENDHMM>
~h "ao"
<BEGINHMM>
<NUMSTATES> 5
<STATE> 2
<MEAN> 25
 -7.717229e+00 9.507979e+00 4.037066e+00 6.259881e+00 1.887402e+00 1.757510e+00 1.959283e+00 1.085452e+00 1.083277e+00 -1.225260e+00 5.485806e-01 2.157214e+00 2.835532e+00 5.331035e-01 1.050471e+00 -4.883997e-01 -2.060110e-01 -1.134028e+00 -8.394513e-01 -2.983461e-01 2.236983e-01 -2.480858e-01 -5.699902e-01 -1.322757e-01 3.134126e+00
<VARIANCE> 25
 7.913010e+01 6.140873e+01 6.343477e+01 2.375218e+01 1.541939e+01 1.411967e+01 3.473702e+01 1.841933e+01 1.686696e+01 1.450652e+01 1.572913e+01 9.966469e+00 1.114791e+01 8.451155e+00 7.752445e+00 3.691499e+00 1.912710e+00 3.696262e+00 2.922766e+00 2.089989e+00 2.434860e+00 1.362049e+00 2.458840e+00 1.328149e+00 2.161511e+01
<GCONST> 1.012732e+02
<STATE> 3
<MEAN> 25
 5.594751e+00 1.254018e+01 9.191116e+00 4.031147e+00 8.085966e-04 -3.185962e+00 -1.038086e-01 -8.240378e-02 1.333310e+00 -2.140424e+00 -1.265211e+00 9.816906e-01 5.544941e+00 -2.831663e+00 -6.585596e-01 -2.460105e+00 -5.514511e-01 -2.731630e+00 -2.129590e+00 -5.568436e-01 8.284248e-01 3.617510e-01 -1.474910e+00 -5.006617e-01 6.922850e+00
<VARIANCE> 25
 8.796184e+01 2.028693e+02 5.014869e+01 4.973291e+01 3.246008e+01 4.663108e+01 6.113228e+01 2.281053e+01 1.802475e+01 1.873137e+01 1.858909e+01 1.741549e+01 1.224489e+01 2.023285e+01 1.187954e+01 8.903031e+00 2.496514e+00 4.958286e+00 9.984823e+00 4.301613e+00 4.436334e+00 4.490892e+00 4.432535e+00 2.811097e+00 1.597683e+01
<GCONST> 1.144577e+02
<STATE> 4
<MEAN> 25
 1.847470e+01 -3.773358e+00 -3.373862e+00 -7.137315e+00 3.983143e+00 -3.329433e+00 -5.688017e+00 -2.605451e+00 4.660374e+00 2.028440e+00 -4.105410e+00 -3.491289e-01 1.713226e+00 -2.073273e+00 -5.431773e-01 -1.142528e+00 -3.997588e-02 -3.318668e-01 -6.557094e-01 -2.517894e-01 -3.273087e-02 3.747291e-01 -3.546185e-01 -1.981020e-01 2.147022e+00
<VARIANCE> 25
 5.404085e+01 1.552946e+02 1.689963e+02 1.221761e+02 9.706876e+01 1.033460e+02 7.252251e+01 3.879336e+01 4.610206e+01 4.979197e+01 2.903162e+01 1.832969e+01 1.067156e+01 1.685990e+01 8.989258e+00 5.980130e+00 5.308844e+00 1.175291e+01 1.133995e+01 5.576380e+00 4.219494e+00 3.645261e+00 4.045412e+00 1.572225e+00 1.406727e+01
<GCONST> 1.207730e+02
<TRANSP> 5
 0.000000e+00 1.000000e+00 0.000000e+00 0.000000e+00 0.000000e+00
 0.000000e+00 5.376486e-01 4.623514e-01 0.000000e+00 0.000000e+00
 0.000000e+00 0.000000e+00 2.973134e-01 7.026866e-01 0.000000e+00
 0.000000e+00 0.000000e+00 0.000000e+00 7.338383e-01 2.661617e-01
 0.000000e+00 0.000000e+00 0.000000e+00 0.000000e+00 0.000000e+00
<ENDHMM>
~h "aw"
<BEGINHMM>
<NUMSTATES> 5
<STATE> 2
<MEAN> 25
 2.043954e+01 -4.165517e+00 -1.582356e+01 -3.405616e+00 6.245504e+00 3.028673e+00 1.445490e+00 -1.545689e+00 2.049488e+00 5.656652e+00 3.170013e+00 -6.388274e+00 1.950393e-01 1.203537e-03 -1.028069e+00 3.614379e-02 2.172028e-01 -8.460163e-01 6.923898e-02 3.650706e-01 -1.148041e-01 -1.018733e+00 -7.130772e-01 2.326428e-01 -2.889752e-03
<VARIANCE> 25
 7.478085e+01 2.977708e+01 4.280534e+01 2.114872e+01 3.658903e+01 1.713123e+01 3.663897e+01 3.629746e+01 2.025310e+01 5.564176e+01 2.380933e+01 3.156154e+01 5.598666e+00 3.061244e+00 4.737258e+00 2.863749e+00 1.179798e+01 1.815710e+00 1.369146e+01 6.121061e+00 4.108869e+00 3.602285e+00 2.681027e+00 4.516075e+00 4.936791e+00
<GCONST> 1.074734e+02
<STATE> 3
<MEAN> 25
 2.115509e+01 -1.174734e+00 -1.295710e+01 -3.697968e+00 1.136857e+00 3.711914e-01 -5.070683e-01 -5.908011e+00 -4.758650e-01 6.824710e+00 1.050532e+00 -5.659104e+00 -2.430105e+00 1.067008e+00 1.481279e+00 7.186517e-01 -5.831361e-03 -1.445219e-01 -7.534913e-01 6.246067e-01 3.805466e-01 -2.056349e-01 1.447355e-01 1.128310e+00 -2.171639e+00
<VARIANCE> 25
 1.176994e+02 2.454609e+01 2.392653e+01 2.826950e+01 5.003336e+01 1.046012e+01 4.318477e+01 2.411334e+01 3.185621e+01 1.456800e+01 1.371451e+01 3.599120e+01 5.685353e+00 2.343864e+00 5.422150e-01 6.101320e-01 1.093569e+01 1.868024e+00 6.733749e+00 3.208698e+00 5.102255e+00 3.364140e+00 2.978632e+00 4.188581e+00 3.679617e+00
<GCONST> 1.002256e+02
<STATE> 4
<MEAN> 25
 3.077523e+00 2.384540e+00 -8.119158e+00 -2.524585e+00 -2.205817e+00 2.041140e+00 3.669448e-01 -1.902749e+00 3.852764e-01 3.755204e+00 6.675711e+00 1.152554e+00 -2.646841e+00 -2.764606e-01 1.653534e+00 1.288752e+00 -9.439228e-01 -1.330967e-01 5.027845e-01 6.670833e-01 1.248555e-01 -2.504444e-01 2.019576e-01 -3.277791e-01 -1.711208e+00
<VARIANCE> 25
 1.860578e+01 4.049840e+00 7.655083e+00 1.286259e+01 2.830010e+01 2.862384e+00 1.740343e+01 5.603516e+00 2.489117e+01 1.449377e+01 1.093591e+01 1.783040e+00 5.260970e+00 1.652646e-01 2.950339e-01 1.449684e+00 3.040878e+00 2.020988e-01 4.913253e-01 8.682860e-01 1.304460e+00 1.346901e-01 3.738978e+00 1.105416e+00 2.769051e+00
<GCONST> 7.106256e+01
<TRANSP> 5
 0.000000e+00 1.000000e+00 0.000000e+00 0.000000e+00 0.000000e+00
 0.000000e+00 7.576612e-01 2.423388e-01 0.000000e+00 0.000000e+00
 0.000000e+00 0.000000e+00 7.230749e-01 2.769252e-01 0.000000e+00
 0.000000e+00 0.000000e+00 0.000000e+00 4.091998e-01 5.908002e-01
 0.000000e+00 0.000000e+00 0.000000e+00 0.000000e+00 0.000000e+00
<ENDHMM>
~h "ay"
<BEGINHMM>
<NUMSTATES> 5
<STATE> 2
<MEAN> 25
 1.429267e+01 -7.742117e+00 3.921922e+00 -1.336891e+01 4.329769e+00 -3.021056e+00 -1.043195e+01 1.262495e+00 9.382939e-01 3.559289e+00 -1.381943e+00 -1.812448e+00 -1.516078e-01 7.710148e-01 -2.444244e-01 -5.904211e-01 7.736543e-01 1.498549e-01 -6.377906e-02 -7.145188e-02 2.257021e-02 2.257213e-01 1.966760e-01 7.522368e-02 -1.384719e-01
<VARIANCE> 25
 5.210661e+01 8.275082e+01 9.076015e+01 1.429311e+02 8.572414e+01 1.047710e+02 1.029580e+02 1.282169e+02 1.151861e+02 5.756610e+01 4.752415e+01 4.818338e+01 5.423021e+00 5.244096e+00 5.161305e+00 7.715721e+00 4.886436e+00 7.039510e+00 8.661483e+00 6.256071e+00 1.122979e+01 5.439904e+00 4.084792e+00 3.883750e+00 5.919286e+00
<GCONST> 1.221306e+02
<STATE> 3
<MEAN> 25
 4.860781e+00 -4.059172e+00 1.335164e+00 -6.352898e+00 3.935733e+00 -4.599683e+00 -2.009031e+00 1.368325e-01 3.733190e+00 1.152614e+00 -8.545971e-02 7.486011e-01 1.167885e+00 -1.902776e+00 5.591708e-02 5.054762e-01 -1.024651e+00 4.766021e-01 -1.138382e-01 4.253483e-01 1.928013e-01 -1.231364e-01 -2.428617e-01 -4.600902e-01 1.053716e+00
<VARIANCE> 25
 9.077798e+01 1.120548e+02 9.404881e+01 6.804288e+01 6.541457e+01 6.856898e+01 8.870284e+01 5.023486e+01 4.441136e+01 3.528549e+01 3.630963e+01 2.938238e+01 1.579978e+01 9.318562e+00 1.296277e+01 1.352411e+01 1.096854e+01 9.778029e+00 1.261373e+01 6.579206e+00 5.925920e+00 6.162122e+00 5.728770e+00 3.200378e+00 1.293713e+01
<GCONST> 1.233974e+02
<STATE> 4
<MEAN> 25
 1.649000e+01 -1.428054e+01 -1.906759e+00 -3.077473e+00 -3.015153e+00 -1.194025e+00 -8.112082e-01 -3.574387e+00 2.424295e+00 3.731798e+00 -2.721851e+00 -2.497953e+00 1.125338e+00 -1.202349e+00 -8.840835e-01 8.629481e-01 -7.513542e-01 -5.512457e-01 4.348832e-01 4.017688e-01 -4.586017e-01 -2.646382e-01 -3.885802e-01 -1.136350e-01 6.035463e-01
<VARIANCE> 25
 7.055228e+01 6.143924e+01 1.508115e+02 6.082986e+01 1.070566e+02 5.610240e+01 6.127463e+01 9.917242e+01 4.178051e+01 4.963495e+01 2.127619e+01 2.780798e+01 8.140776e+00 6.871876e+00 1.409232e+01 9.588797e+00 1.029187e+01 9.086851e+00 5.279813e+00 6.125566e+00 5.223529e+00 3.588703e+00 4.321157e+00 3.718226e+00 4.194890e+00
<GCONST> 1.189649e+02
<TRANSP> 5
 0.000000e+00 1.000000e+00 0.000000e+00 0.000000e+00 0.000000e+00
 0.000000e+00 9.067162e-01 9.328381e-02 0.000000e+00 0.000000e+00
 0.000000e+00 0.000000e+00 8.533932e-01 1.466068e-01 0.000000e+00
 0.000000e+00 0.000000e+00 0.000000e+00 8.026434e-01 1.973566e-01
 0.000000e+00 0.000000e+00 0.000000e+00 0.000000e+00 0.000000e+00
<ENDHMM>
~h "eh"
<BEGINHMM>
<NUMSTATES> 5
<STATE> 2
<MEAN> 25
 2.170908e+01 -1.703052e+01 -1.714338e+00 4.556612e+00 -1.076657e+01 -6.122269e+00 2.745009e+00 -2.828584e+00 9.023839e-01 3.386059e+00 -7.979036e+00 -2.910880e+00 1.775357e-01 8.348401e-01 -6.142483e-01 1.071134e+00 3.007371e-01 -8.837527e-01 2.802548e-01 1.445078e-01 -2.689768e-01 -1.482129e-01 -5.200329e-02 2.519262e-01 -8.235688e-01
<VARIANCE> 25
 1.513406e+01 2.669318e+01 4.269749e+01 4.403190e+01 3.808628e+01 5.540539e+01 4.064329e+01 4.835011e+01 5.947744e+01 3.924294e+01 5.050365e+01 2.605183e+01 2.126327e+00 3.942717e+00 5.729685e+00 5.288100e+00 4.649273e+00 4.700945e+00 3.992533e+00 6.942295e+00 6.287857e+00 5.879089e+00 5.283844e+00 2.141553e+00 3.438875e+00
<GCONST> 1.088779e+02
<STATE> 3
<MEAN> 25
 2.015825e+01 -6.293764e+00 -6.753837e+00 6.984930e+00 -3.987133e+00 -8.523536e+00 3.244029e-01 8.239216e-01 9.683423e-01 -2.587534e-01 -5.508481e+00 -2.260182e+00 -1.590439e+00 3.379568e+00 -2.494531e-01 -6.558279e-01 1.780965e+00 8.943284e-01 -8.473604e-01 9.241030e-01 6.086093e-01 -1.100445e+00 6.568996e-01 6.174443e-01 -2.804636e+00
<VARIANCE> 25
 2.408694e+01 6.255165e+01 3.381517e+01 5.126084e+01 6.904414e+01 3.367094e+01 6.131758e+01 5.995417e+01 6.266589e+01 4.782885e+01 3.499298e+01 2.943662e+01 2.886851e+00 4.949902e+00 3.859161e+00 5.473806e+00 8.034534e+00 4.337856e+00 4.263815e+00 6.564830e+00 4.294104e+00 5.510026e+00 4.558488e+00 1.720388e+00 3.576251e+00
<GCONST> 1.107169e+02
<STATE> 4
<MEAN> 25
 7.609775e+00 4.822523e+00 -1.190343e+00 2.063297e+00 -1.509713e+00 -2.128619e+00 -1.137981e+00 1.762363e+00 3.125910e+00 -1.660620e+00 -3.516414e+00 -7.013004e-01 -2.631681e+00 1.109223e+00 5.358692e-01 -8.665848e-01 6.851196e-03 9.624712e-01 6.148234e-03 -1.064794e-01 6.465980e-02 1.473665e-03 7.051536e-01 3.503342e-01 -2.282093e+00
<VARIANCE> 25
 9.927672e+01 1.259587e+02 7.717596e+01 4.794897e+01 5.521287e+01 3.669273e+01 3.606393e+01 4.283884e+01 3.875806e+01 3.098192e+01 1.980025e+01 2.054392e+01 2.986892e+00 1.058507e+01 6.235407e+00 4.786659e+00 5.964684e+00 2.933036e+00 4.305612e+00 3.571048e+00 2.913564e+00 3.303984e+00 2.449852e+00 1.941313e+00 4.321550e+00
<GCONST> 1.093845e+02
<TRANSP> 5
 0.000000e+00 1.000000e+00 0.000000e+00 0.000000e+00 0.000000e+00
 0.000000e+00 8.288914e-01 1.711086e-01 0.000000e+00 0.000000e+00
 0.000000e+00 0.000000e+00 6.923319e-01 3.076681e-01 0.000000e+00
 0.000000e+00 0.000000e+00 0.000000e+00 7.518930e-01 2.481070e-01
 0.000000e+00 0.000000e+00 0.000000e+00 0.000000e+00 0.000000e+00
<ENDHMM>
~h "er"
<BEGINHMM>
<NUMSTATES> 5
<STATE> 2
<MEAN> 25
 8.850923e-01 -1.454291e+00 5.888615e+00 -1.123296e+01 7.341192e+00 -5.516085e+00 -2.580216e+00 5.201034e+00 1.293612e+00 -2.989264e+00 2.766434e+00 4.744245e-01 -1.827156e+00 -6.810667e-02 8.027775e-01 2.255265e-01 -5.174050e-01 -7.285393e-01 1.145559e+00 6.530402e-01 -4.445291e-01 -4.975455e-01 5.064480e-01 3.843054e-01 -2.138745e-01
<VARIANCE> 25
 2.280551e+02 9.037225e+01 7.580536e+01 4.862100e+01 7.650245e+01 1.250748e+02 1.184637e+02 8.184478e+01 4.950706e+01 6.981705e+01 3.929769e+01 9.435009e+01 1.910507e+01 8.380012e+00 8.092791e+00 5.463148e+00 1.111357e+01 8.763877e+00 9.346153e+00 9.037148e+00 6.785462e+00 8.488048e+00 5.448614e+00 7.938403e+00 1.291933e+00
<GCONST> 1.247611e+02
<STATE> 3
<MEAN> 25
 9.141738e+00 -1.024463e+01 1.042971e+01 -3.813377e+00 -6.238887e+00 -1.072803e+01 1.322506e+00 5.035182e+00 -3.625098e+00 5.729350e-02 -1.661742e-02 1.725435e+00 2.926081e+00 -1.263111e+00 -5.001820e-01 1.362061e+00 -1.509000e+00 1.091682e-01 -8.735921e-01 -7.618995e-01 3.050122e-01 4.061947e-01 -1.002186e+00 -3.908448e-01 5.018063e-01
<VARIANCE> 25
 1.602475e+02 5.457819e+01 4.326060e+01 6.359663e+01 6.366957e+01 7.127035e+01 8.164085e+01 4.182244e+01 4.284492e+01 4.649730e+01 4.918196e+01 3.149689e+01 1.417681e+01 5.284343e+00 5.365077e+00 5.971058e+00 5.883572e+00 6.388443e+00 7.000963e+00 5.401350e+00 6.700234e+00 5.371584e+00 5.001909e+00 3.360927e+00 4.832141e+00
<GCONST> 1.174646e+02
<STATE> 4
<MEAN> 25
 1.405691e+01 -9.232896e+00 9.683818e-01 3.631541e+00 -3.114330e+00 -9.045312e+00 -4.953057e+00 4.631796e-01 4.378819e+00 1.500893e+00 -5.417652e+00 5.077603e-01 -8.050579e-01 5.499256e-01 -8.788342e-01 -3.855337e-01 1.831915e+00 1.430528e-01 -6.068289e-01 3.729483e-01 4.068440e-01 3.878813e-01 -9.362098e-02 -2.831677e-02 -9.439927e-01
<VARIANCE> 25
 8.968507e+01 8.735783e+01 9.650473e+01 6.802998e+01 1.201821e+02 6.579368e+01 5.840222e+01 6.016176e+01 4.784349e+01 5.278659e+01 3.780776e+01 4.497520e+01 7.174769e+00 1.013128e+01 1.175961e+01 1.196397e+01 1.214055e+01 8.486717e+00 5.739724e+00 6.796881e+00 5.651428e+00 6.690352e+00 4.659396e+00 4.625860e+00 8.326174e+00
<GCONST> 1.224698e+02
<TRANSP> 5
 0.000000e+00 1.000000e+00 0.000000e+00 0.000000e+00 0.000000e+00
 0.000000e+00 8.886809e-01 1.113191e-01 0.000000e+00 0.000000e+00
 0.000000e+00 0.000000e+00 8.721149e-01 1.278851e-01 0.000000e+00
 0.000000e+00 0.000000e+00 0.000000e+00 9.140686e-01 8.593140e-02
 0.000000e+00 0.000000e+00 0.000000e+00 0.000000e+00 0.000000e+00
<ENDHMM>
~h "ey"
<BEGINHMM>
<NUMSTATES> 5
<STATE> 2
<MEAN> 25
 4.851249e+00 1.375287e+01 1.040745e+01 1.589779e+00 -7.352941e+00 2.784087e+00 1.567436e+00 -9.154083e-02 2.235099e+00 -8.671261e-01 3.678824e+00 -6.792896e-01 2.542089e+00 -1.315474e+00 2.771660e+00 -8.892867e-01 -3.356883e+00 -1.762031e+00 6.230707e-01 8.682498e-01 -2.460553e+00 8.573533e-01 1.094102e+00 -1.711370e-01 3.200478e+00
<VARIANCE> 25
 6.766204e+01 3.561893e+01 4.850725e+01 6.729482e+01 9.046030e+01 7.936691e+00 1.116821e+01 1.538255e+01 1.958048e+01 1.439386e+01 1.563634e+01 1.061853e+01 1.203409e+01 1.046847e+01 1.054933e+01 7.469997e+00 9.476674e+00 7.159897e+00 7.128023e+00 4.768944e+00 8.423987e+00 1.775401e+00 8.975824e-01 2.186607e+00 2.174897e+01
<GCONST> 1.077069e+02
<STATE> 3
<MEAN> 25
 8.714427e+00 3.504620e+00 1.654363e+01 -3.876948e+00 -1.570040e+01 -4.918886e+00 4.038941e+00 3.076519e+00 -9.805546e+00 1.507323e+00 6.175947e+00 -8.546762e-01 1.718700e+00 -3.283047e+00 2.618479e+00 -1.999204e+00 -2.173795e+00 -1.703238e+00 4.761566e-01 3.075280e-01 -2.837176e+00 7.590213e-01 2.804081e-01 2.679099e-01 4.019320e+00
<VARIANCE> 25
 2.920489e+01 5.333011e+01 1.141727e+02 7.240993e+01 4.067190e+01 7.299081e+01 5.876545e+01 5.089251e+01 6.236217e+01 3.212801e+01 1.668536e+01 2.341922e+01 7.790226e+00 2.728704e+00 1.200268e+01 9.894457e+00 7.781607e+00 4.678619e+00 5.871080e+00 4.376254e+00 9.694317e+00 4.305105e+00 1.978136e+00 2.569597e+00 9.847071e+00
<GCONST> 1.142070e+02
<STATE> 4
<MEAN> 25
 1.712352e+01 -1.409794e+01 1.402987e+01 -4.668980e+00 -1.286817e+01 -7.672240e+00 -1.597123e+00 2.914427e+00 -6.522267e+00 1.912775e+00 -1.009255e+00 2.242547e+00 5.142961e-01 -1.056717e+00 -7.855083e-01 1.580877e-01 3.338050e-01 -2.150197e-01 -3.375944e-01 9.509975e-02 7.624943e-01 -8.363426e-02 -5.393999e-01 1.360798e-01 8.065253e-01
<VARIANCE> 25
 2.612391e+01 5.974209e+01 1.037083e+02 1.071454e+02 5.175763e+01 5.156351e+01 2.934436e+01 4.596455e+01 1.045946e+02 4.035062e+01 2.948147e+01 1.859701e+01 1.900752e+00 2.517308e+00 4.705884e+00 4.815341e+00 4.322295e+00 5.373409e+00 2.968631e+00 3.400816e+00 4.879231e+00 2.993935e+00 2.364540e+00 1.816072e+00 2.855211e+00
<GCONST> 1.076978e+02
<TRANSP> 5
 0.000000e+00 1.000000e+00 0.000000e+00 0.000000e+00 0.000000e+00
 0.000000e+00 3.706329e-01 6.293671e-01 0.000000e+00 0.000000e+00
 0.000000e+00 0.000000e+00 6.708259e-01 3.291741e-01 0.000000e+00
 0.000000e+00 0.000000e+00 0.000000e+00 9.290629e-01 7.093705e-02
 0.000000e+00 0.000000e+00 0.000000e+00 0.000000e+00 0.000000e+00
<ENDHMM>
~h "ih"
<BEGINHMM>
<NUMSTATES> 5
<STATE> 2
<MEAN> 25
 -1.227126e+01 4.275595e+00 -1.493077e+00 9.757018e-01 1.549585e-01 3.466383e+00 1.715863e+00 -2.191790e-01 1.611387e+00 -2.120608e+00 2.079800e+00 2.279510e+00 3.143961e-01 -8.097943e-02 -7.023581e-02 -1.116553e-01 -1.834688e-01 -7.134932e-02 -1.700921e-01 -3.068878e-02 -6.115195e-02 2.713401e-03 -1.133168e-01 -2.099973e-01 2.521012e-01
<VARIANCE> 25
 3.530066e+01 1.301331e+01 1.924156e+01 4.223034e+01 1.294734e+01 2.560744e+01 1.879405e+01 1.638668e+01 1.715037e+01 1.324659e+01 1.909480e+01 2.015250e+01 2.716548e+00 1.044853e+00 1.598125e+00 2.350874e+00 1.938674e+00 2.502068e+00 1.767233e+00 1.964030e+00 1.718324e+00 1.330445e+00 1.860962e+00 1.980659e+00 3.553752e+00
<GCONST> 9.027907e+01
<STATE> 3
<MEAN> 25
 -1.072451e+01 2.835022e+00 -1.892004e+00 2.030794e+00 3.476851e-01 3.424423e+00 2.892163e+00 1.504711e+00 1.910671e+00 -1.525494e+00 2.455491e-01 1.259554e+00 1.653581e-01 -5.247847e-01 1.987923e-02 6.696275e-02 2.336846e-01 9.805870e-02 1.222936e-01 5.107996e-02 -9.959413e-02 1.396398e-01 -2.243171e-01 -1.903551e-01 4.294464e-01
<VARIANCE> 25
 2.882207e+01 2.208481e+01 1.311343e+01 2.329277e+01 1.668633e+01 1.381614e+01 2.054020e+01 1.535500e+01 1.250301e+01 1.158294e+01 1.605645e+01 1.292157e+01 1.813915e+00 2.032039e+00 1.272764e+00 1.425224e+00 1.227641e+00 9.969504e-01 1.324312e+00 1.704728e+00 1.420469e+00 1.570447e+00 1.403737e+00 1.292544e+00 1.112617e+00
<GCONST> 8.405070e+01
<STATE> 4
<MEAN> 25
 -7.562969e+00 3.769875e+00 -4.672681e-01 3.919325e+00 1.089825e+00 2.172467e+00 1.079422e+00 1.117979e+00 1.986105e+00 -3.505154e-01 7.617043e-01 1.185657e-01 1.238076e+00 -1.002015e+00 7.270424e-01 6.280785e-01 7.882010e-01 -7.668321e-01 -3.451698e-01 3.386405e-02 1.394389e-01 9.987341e-02 -3.892314e-01 -1.271421e-01 1.940767e+00
<VARIANCE> 25
 5.021384e+01 4.309366e+01 2.108188e+01 2.037340e+01 2.318112e+01 2.700777e+01 2.297667e+01 1.502543e+01 1.964717e+01 2.119003e+01 1.597764e+01 1.353164e+01 5.100709e+00 6.408749e+00 3.038666e+00 2.041523e+00 2.364009e+00 4.280914e+00 2.325599e+00 1.565161e+00 2.580987e+00 2.405247e+00 1.371603e+00 1.670747e+00 4.868838e+00
<GCONST> 9.653719e+01
<TRANSP> 5
 0.000000e+00 1.000000e+00 0.000000e+00 0.000000e+00 0.000000e+00
 0.000000e+00 5.905732e-01 4.094268e-01 0.000000e+00 0.000000e+00
 0.000000e+00 0.000000e+00 5.915474e-01 4.084526e-01 0.000000e+00
 0.000000e+00 0.000000e+00 0.000000e+00 4.554998e-01 5.445002e-01
 0.000000e+00 0.000000e+00 0.000000e+00 0.000000e+00 0.000000e+00
<ENDHMM>
~h "iy"
<BEGINHMM>
<NUMSTATES> 5
<STATE> 2
<MEAN> 25
 2.683915e+00 1.461081e+01 5.510619e+00 6.510347e+00 -3.164400e+00 -5.317503e-01 -7.280793e-01 -5.084782e+00 -2.708337e+00 -5.034247e+00 -2.255552e+00 -1.722808e+00 -1.597856e+00 -1.112544e+00 -7.706210e-01 3.575222e-01 1.069903e+00 6.939454e-01 3.863122e-02 1.321076e-01 2.114529e-01 1.124550e-01 -8.481973e-02 -4.554003e-02 -9.328698e-01
<VARIANCE> 25
 6.079501e+01 3.182081e+01 2.287878e+01 1.482978e+01 2.304765e+01 2.015989e+01 1.415094e+01 2.273727e+01 1.182566e+01 1.474555e+01 2.199694e+01 1.721320e+01 1.525556e+00 1.931276e+00 2.467639e+00 1.361157e+00 1.319177e+00 1.251826e+00 1.603896e+00 1.970365e+00 1.291484e+00 1.162747e+00 1.410000e+00 1.339264e+00 3.742636e-01
<GCONST> 8.635812e+01
<STATE> 3
<MEAN> 25
 -6.641366e+00 8.627317e+00 6.766961e-01 6.770370e+00 9.998407e-01 3.062966e+00 1.061229e+00 -4.012930e+00 -2.185040e+00 -3.967285e+00 2.908423e-01 1.582702e+00 -7.643705e-01 -5.568523e-01 -4.414407e-01 -1.466042e-01 2.202643e-01 2.015805e-01 1.991122e-01 3.698650e-01 2.065349e-01 -4.087992e-02 1.567551e-01 1.341434e-01 -4.333017e-01
<VARIANCE> 25
 1.347524e+01 1.894142e+01 1.173957e+01 1.946185e+01 1.144228e+01 1.534813e+01 1.245991e+01 1.481212e+01 1.663118e+01 1.607519e+01 1.892569e+01 2.013103e+01 5.428871e-01 9.915642e-01 7.623140e-01 1.018074e+00 8.030971e-01 6.369272e-01 1.363029e+00 1.391587e+00 1.700521e+00 2.017499e+00 9.506909e-01 1.448943e+00 1.031852e-01
<GCONST> 7.721696e+01
<STATE> 4
<MEAN> 25
 -8.964673e+00 5.543501e+00 3.679870e-01 6.855052e+00 1.585629e+00 2.021299e+00 1.840035e+00 -1.529729e+00 -1.905281e+00 -3.949772e+00 -1.224803e+00 -5.096648e-01 -1.781300e-01 -9.093428e-02 -1.045084e-01 -1.111407e-01 -9.621866e-05 -3.463594e-02 3.815014e-02 1.846025e-01 1.615198e-01 9.649014e-02 -2.499654e-02 -3.056247e-02 -1.011778e-01
<VARIANCE> 25
 6.689288e+00 8.069732e+00 1.127336e+01 1.858047e+01 1.038705e+01 1.006775e+01 1.190443e+01 1.211962e+01 1.364283e+01 1.543200e+01 1.524023e+01 1.185184e+01 2.348901e-01 5.277765e-01 8.334021e-01 9.015834e-01 9.849627e-01 7.914982e-01 9.442046e-01 8.815595e-01 1.272201e+00 1.266201e+00 1.568053e+00 1.507556e+00 6.119346e-02
<GCONST> 7.118519e+01
<TRANSP> 5
 0.000000e+00 1.000000e+00 0.000000e+00 0.000000e+00 0.000000e+00
 0.000000e+00 7.718761e-01 2.281239e-01 0.000000e+00 0.000000e+00
 0.000000e+00 0.000000e+00 6.054896e-01 3.945104e-01 0.000000e+00
 0.000000e+00 0.000000e+00 0.000000e+00 8.887328e-01 1.112672e-01
 0.000000e+00 0.000000e+00 0.000000e+00 0.000000e+00 0.000000e+00
<ENDHMM>
~h "ng"
<BEGINHMM>
<NUMSTATES> 5
<STATE> 2
<MEAN> 25
 1.752677e+01 -3.705460e+00 4.017137e+00 -3.974575e-01 -1.103981e+01 -2.098589e+00 1.285073e+01 -1.979846e+00 -1.746393e+01 2.781541e+00 1.313685e+00 -5.016911e+00 9.455388e-01 3.607777e+00 -2.688441e+00 7.255164e-01 1.029006e+00 1.352930e+00 -1.184840e+00 -3.239771e+00 1.063385e+00 -5.618453e-03 3.661315e-01 7.877017e-01 -2.056553e+00
<VARIANCE> 25
 9.436088e+00 4.572096e+01 7.480639e+01 7.083002e+01 8.055366e+01 2.978077e+01 9.739353e+01 8.901502e+01 4.571386e+01 3.805058e+01 2.361304e+01 4.006015e+01 1.289344e+00 6.404405e+00 8.818462e+00 1.300030e+01 7.317873e+00 5.082154e+00 1.644528e+01 9.557085e+00 6.530033e+00 4.608897e+00 3.187652e+00 2.389138e+00 2.274227e+00
<GCONST> 1.135356e+02
<STATE> 3
<MEAN> 25
 1.934254e+01 6.595318e+00 -3.155242e+00 -2.902794e+00 -4.309120e+00 -6.115400e-01 2.351813e-01 -7.657402e+00 -6.888045e+00 3.653157e-01 2.948027e-01 -1.622382e+00 -3.116736e-01 -6.633326e-01 -1.274318e-01 -1.266744e+00 2.150560e+00 -5.430683e-01 -3.012161e+00 7.561059e-01 2.061019e+00 3.026738e-01 -1.086991e+00 -2.563786e-01 6.732059e-01
<VARIANCE> 25
 1.042952e+01 9.810339e+01 5.073229e+01 5.453154e+01 7.508208e+01 6.490432e+01 8.702893e+01 7.751782e+01 6.349902e+01 3.256268e+01 3.852073e+01 3.432195e+01 1.463328e+00 1.319305e+01 6.523239e+00 8.836033e+00 1.065054e+01 7.648499e+00 1.106059e+01 1.055567e+01 3.456943e+00 3.839989e+00 3.981738e+00 2.606609e+00 3.956185e+00
<GCONST> 1.154081e+02
<STATE> 4
<MEAN> 25
 1.812167e+01 -5.474792e+00 -1.618209e+00 -1.754181e+01 7.844162e+00 6.005598e-01 -1.526174e+01 -2.351012e+00 5.947735e-01 9.191202e+00 -6.241766e+00 -4.031525e+00 1.538654e-01 -4.300420e-01 -7.547905e-02 -7.930639e-01 2.426794e-01 4.394408e-01 -8.278735e-01 -2.870279e-01 3.629736e-01 5.771746e-01 -7.087593e-02 6.904230e-02 3.764554e-01
<VARIANCE> 25
 9.960595e+00 5.369220e+01 4.848906e+01 1.157294e+02 7.841740e+01 5.086952e+01 7.057193e+01 1.324953e+02 3.895850e+01 4.142176e+01 3.490513e+01 2.059069e+01 5.272533e-01 6.239207e+00 3.345268e+00 8.652244e+00 7.052943e+00 5.359227e+00 5.119709e+00 9.402554e+00 3.360193e+00 3.035592e+00 3.921246e+00 2.350078e+00 3.080193e+00
<GCONST> 1.099904e+02
<TRANSP> 5
 0.000000e+00 1.000000e+00 0.000000e+00 0.000000e+00 0.000000e+00
 0.000000e+00 7.138948e-01 2.861052e-01 0.000000e+00 0.000000e+00
 0.000000e+00 0.000000e+00 8.185415e-01 1.814585e-01 0.000000e+00
 0.000000e+00 0.000000e+00 0.000000e+00 8.746038e-01 1.253962e-01
 0.000000e+00 0.000000e+00 0.000000e+00 0.000000e+00 0.000000e+00
<ENDHMM>
~h "sp"
<BEGINHMM>
<NUMSTATES> 3
<STATE> 2
~s "silst"
<TRANSP> 3
 0.000000e+00 7.000000e-01 3.000000e-01
 0.000000e+00 9.000000e-01 9.999999e-02
 0.000000e+00 0.000000e+00 0.000000e+00
<ENDHMM>
~h "th"
<BEGINHMM>
<NUMSTATES> 5
<STATE> 2
<MEAN> 25
 1.588776e+01 -7.984056e+00 1.749216e+01 3.480190e+00 -2.054810e+01 -7.079160e+00 5.084619e+00 -4.068962e+00 -1.037233e+01 -2.771239e+00 9.254212e-01 1.029491e+00 7.228585e-02 1.935375e+00 6.913976e-01 3.669578e-01 -1.592784e+00 -6.515668e-02 1.037420e+00 -6.581732e-01 -1.223197e+00 4.832115e-01 2.638856e-01 -4.951204e-01 -1.075826e+00
<VARIANCE> 25
 2.339524e+01 8.654753e+01 3.868185e+01 8.826421e+01 1.261876e+02 7.112330e+01 1.059898e+02 6.601270e+01 1.156467e+02 4.212550e+01 3.117609e+01 4.288825e+01 2.986816e+00 6.795745e+00 4.391188e+00 6.774895e+00 7.918168e+00 8.867015e+00 9.487747e+00 5.519305e+00 1.051711e+01 3.774218e+00 4.329304e+00 5.228240e+00 3.995159e+00
<GCONST> 1.181395e+02
<STATE> 3
<MEAN> 25
 1.160301e+01 1.793005e+01 1.592466e+01 8.028549e-01 -1.893886e+01 -8.442382e+00 2.920349e+00 -6.704107e+00 -7.300386e+00 3.587400e+00 -4.249194e-01 -2.867138e+00 -2.073034e+00 1.665613e+00 -2.071905e+00 7.839698e-02 4.007296e+00 2.605836e-01 -3.177729e+00 1.039486e+00 3.049783e+00 -6.343672e-01 5.051249e-01 7.229952e-01 -2.684027e+00
<VARIANCE> 25
 1.090851e+01 1.332481e+01 2.260963e+01 8.259675e+01 3.563775e+01 2.859976e+01 7.341657e+01 3.774812e+01 2.510387e+01 2.527733e+01 3.476381e+01 1.219166e+01 9.364671e-01 5.152653e+00 4.860707e+00 7.900119e+00 6.131140e+00 4.558266e+00 8.874741e+00 2.824066e+00 2.780231e+00 3.749354e+00 1.378863e+00 1.030452e+00 4.448126e-01
<GCONST> 9.947351e+01
<STATE> 4
<MEAN> 25
 1.394595e+00 1.225657e+01 8.960987e+00 7.489260e-01 -1.301955e+01 -2.793055e+00 1.458952e+00 -6.011836e+00 -3.933459e+00 5.356574e-01 -1.957685e+00 -1.638467e+00 -2.846576e+00 -2.055913e+00 -2.739915e+00 -7.538484e-01 1.635437e+00 1.469720e+00 -5.458450e-02 -7.882687e-02 2.318788e-01 -9.097871e-01 -7.838385e-01 2.313048e-01 -1.740074e+00
<VARIANCE> 25
 1.696875e+01 4.144160e+01 4.633364e+01 1.822198e+01 1.564777e+01 2.327002e+01 2.509858e+01 2.355057e+01 1.704159e+01 8.737636e+00 2.781637e+01 1.634125e+01 2.141414e+00 1.185292e+00 1.508353e+00 2.230905e+00 6.265979e+00 1.905339e+00 6.278515e+00 7.828847e-01 4.030785e+00 9.630895e-01 2.527099e+00 6.704398e-01 9.434572e-01
<GCONST> 9.068560e+01
<TRANSP> 5
 0.000000e+00 1.000000e+00 0.000000e+00 0.000000e+00 0.000000e+00
 0.000000e+00 9.213498e-01 7.865016e-02 0.000000e+00 0.000000e+00
 0.000000e+00 0.000000e+00 6.903480e-01 3.096521e-01 0.000000e+00
 0.000000e+00 0.000000e+00 0.000000e+00 5.836781e-01 4.163219e-01
 0.000000e+00 0.000000e+00 0.000000e+00 0.000000e+00 0.000000e+00
<ENDHMM>
~h "uw"
<BEGINHMM>
<NUMSTATES> 5
<STATE> 2
<MEAN> 25
 -3.012185e+00 6.473395e+00 6.064259e-01 2.187734e+00 -9.975826e-01 1.443954e+00 1.926044e+00 -8.083338e-01 -4.886157e+00 -5.171172e+00 -8.630298e-01 -1.460974e+00 -1.086260e+00 -7.000163e-01 -6.594354e-02 5.490197e-01 2.151275e-01 5.367925e-02 4.219217e-02 2.348000e-01 7.754602e-02 -2.494603e-02 -2.715445e-01 -2.077831e-01 -5.222681e-01
<VARIANCE> 25
 2.087288e+01 1.537952e+01 1.490215e+01 2.763560e+01 1.429549e+01 1.585469e+01 2.126965e+01 1.696938e+01 2.005916e+01 2.038154e+01 1.602986e+01 2.063449e+01 1.284293e+00 1.441249e+00 1.192362e+00 1.213008e+00 1.130841e+00 1.550768e+00 1.387940e+00 1.514171e+00 1.601378e+00 1.734230e+00 1.824747e+00 1.493623e+00 3.506276e-01
<GCONST> 8.413106e+01
<STATE> 3
<MEAN> 25
 -6.940536e+00 4.944706e+00 2.417034e+00 5.042944e+00 7.360221e-01 9.120307e-01 1.560099e+00 8.973565e-01 -2.473598e+00 -4.006712e+00 -1.365353e+00 -1.109206e+00 -4.125749e-01 -2.290160e-01 5.187246e-02 2.687952e-01 3.061604e-01 2.465793e-02 2.646850e-01 2.001127e-01 2.924397e-01 5.775925e-02 -1.423691e-01 -9.095985e-02 -1.573544e-01
<VARIANCE> 25
 7.269506e+00 9.936747e+00 2.785198e+01 4.323518e+01 1.537069e+01 1.664830e+01 1.677393e+01 2.211245e+01 1.580766e+01 1.641520e+01 1.248205e+01 1.820848e+01 5.664542e-01 8.679836e-01 1.307848e+00 6.800001e-01 9.795625e-01 1.477650e+00 2.177650e+00 2.171175e+00 1.532557e+00 1.248893e+00 1.350892e+00 1.067863e+00 2.302748e-01
<GCONST> 8.040926e+01
<STATE> 4
<MEAN> 25
 9.330589e+00 -4.911199e-01 -1.841862e-01 -9.492795e+00 5.692370e+00 -4.479169e-01 -4.584381e+00 -2.767857e+00 -1.971313e+00 9.525788e-02 -1.622749e+00 2.611679e-02 -6.295799e-02 -1.511969e-01 3.571458e-03 4.549697e-02 6.162592e-02 -1.721534e-01 8.521861e-02 7.032083e-02 2.048541e-01 2.431325e-01 2.407532e-01 7.860287e-02 7.988930e-02
<VARIANCE> 25
 2.594469e+02 1.128002e+02 7.848016e+01 1.718751e+02 5.787909e+01 1.244529e+02 8.376255e+01 5.117727e+01 3.320943e+01 4.717064e+01 3.711849e+01 2.296731e+01 5.176358e+00 8.446739e+00 5.389447e+00 9.208265e+00 3.929044e+00 5.623097e+00 7.384612e+00 5.601618e+00 3.906647e+00 6.856546e+00 5.029640e+00 2.832301e+00 7.673349e+00
<GCONST> 1.195733e+02
<TRANSP> 5
 0.000000e+00 1.000000e+00 0.000000e+00 0.000000e+00 0.000000e+00
 0.000000e+00 7.308986e-01 2.691015e-01 0.000000e+00 0.000000e+00
 0.000000e+00 0.000000e+00 7.589743e-01 2.410257e-01 0.000000e+00
 0.000000e+00 0.000000e+00 0.000000e+00 7.091044e-01 2.908956e-01
 0.000000e+00 0.000000e+00 0.000000e+00 0.000000e+00 0.000000e+00
<ENDHMM>
~h "sil"
<BEGINHMM>
<NUMSTATES> 5
<STATE> 2
<MEAN> 25
 -1.087861e+01 4.412031e+00 -1.633353e+00 4.097886e+00 4.712449e-01 2.591520e+00 2.329195e+00 3.637105e-01 1.058039e+00 -1.768011e+00 9.579326e-01 6.098276e-01 -3.105055e-02 5.349480e-04 2.439467e-02 3.803308e-02 4.899362e-02 3.032543e-02 2.382559e-02 2.396807e-02 -5.982138e-03 -2.289460e-03 -1.060235e-03 1.287816e-02 -1.988050e-02
<VARIANCE> 25
 9.175426e+00 5.602623e+00 9.530349e+00 1.385874e+01 1.127134e+01 1.386582e+01 1.470576e+01 1.765710e+01 1.573329e+01 1.359298e+01 1.346388e+01 1.376551e+01 1.098669e-01 2.213515e-01 4.004401e-01 6.066795e-01 7.846196e-01 8.917108e-01 1.028473e+00 1.249914e+00 1.200292e+00 1.238055e+00 1.173160e+00 1.130551e+00 4.572136e-02
<GCONST> 6.832452e+01
<STATE> 3
~s "silst"
<STATE> 4
<MEAN> 25
 -8.521895e+00 4.764909e+00 1.006308e+00 3.668796e+00 1.287792e+00 2.629672e+00 9.127157e-01 -9.229189e-02 -5.836101e-01 -2.320731e+00 2.484068e-01 5.632091e-01 2.544281e-01 5.904705e-02 3.838824e-02 1.808520e-03 -7.445043e-02 -1.809279e-01 -1.867071e-01 -2.285891e-02 7.313894e-02 8.176195e-03 -2.729325e-02 -1.043783e-01 1.786944e-01
<VARIANCE> 25
 3.618826e+01 3.019578e+01 2.020960e+01 2.063564e+01 1.476775e+01 1.711467e+01 1.863013e+01 1.685976e+01 1.657065e+01 1.796856e+01 1.420072e+01 1.329854e+01 1.499181e+00 2.112363e+00 1.253456e+00 1.328532e+00 1.332824e+00 1.651188e+00 1.590676e+00 1.319512e+00 1.466159e+00 1.539002e+00 1.212887e+00 1.196092e+00 2.179333e+00
<GCONST> 8.635362e+01
<TRANSP> 5
 0.000000e+00 1.000000e+00 0.000000e+00 0.000000e+00 0.000000e+00
 0.000000e+00 7.601652e-01 3.983479e-02 2.000000e-01 0.000000e+00
 0.000000e+00 0.000000e+00 6.315662e-01 3.684338e-01 0.000000e+00
 0.000000e+00 2.000000e-01 0.000000e+00 6.180426e-01 1.819573e-01
 0.000000e+00 0.000000e+00 0.000000e+00 0.000000e+00 0.000000e+00
<ENDHMM>
