~o
<STREAMINFO> 1 25
<VECSIZE> 25<NULLD><MFCC_D_N_Z_0><DIAGC>
~t "T_b"
<TRANSP> 5
 0.000000e+00 1.000000e+00 0.000000e+00 0.000000e+00 0.000000e+00
 0.000000e+00 9.004030e-01 9.959698e-02 0.000000e+00 0.000000e+00
 0.000000e+00 0.000000e+00 7.767234e-01 2.232765e-01 0.000000e+00
 0.000000e+00 0.000000e+00 0.000000e+00 7.676863e-01 2.323137e-01
 0.000000e+00 0.000000e+00 0.000000e+00 0.000000e+00 0.000000e+00
~t "T_d"
<TRANSP> 5
 0.000000e+00 1.000000e+00 0.000000e+00 0.000000e+00 0.000000e+00
 0.000000e+00 9.221085e-01 7.789150e-02 0.000000e+00 0.000000e+00
 0.000000e+00 0.000000e+00 8.850664e-01 1.149336e-01 0.000000e+00
 0.000000e+00 0.000000e+00 0.000000e+00 6.564796e-01 3.435204e-01
 0.000000e+00 0.000000e+00 0.000000e+00 0.000000e+00 0.000000e+00
~t "T_f"
<TRANSP> 5
 0.000000e+00 1.000000e+00 0.000000e+00 0.000000e+00 0.000000e+00
 0.000000e+00 9.423556e-01 5.764439e-02 0.000000e+00 0.000000e+00
 0.000000e+00 0.000000e+00 6.440587e-01 3.559412e-01 0.000000e+00
 0.000000e+00 0.000000e+00 0.000000e+00 8.530537e-01 1.469463e-01
 0.000000e+00 0.000000e+00 0.000000e+00 0.000000e+00 0.000000e+00
~t "T_g"
<TRANSP> 5
 0.000000e+00 1.000000e+00 0.000000e+00 0.000000e+00 0.000000e+00
 0.000000e+00 7.588646e-01 2.411354e-01 0.000000e+00 0.000000e+00
 0.000000e+00 0.000000e+00 4.394843e-01 5.605157e-01 0.000000e+00
 0.000000e+00 0.000000e+00 0.000000e+00 2.896758e-01 7.103242e-01
 0.000000e+00 0.000000e+00 0.000000e+00 0.000000e+00 0.000000e+00
~t "T_k"
<TRANSP> 5
 0.000000e+00 1.000000e+00 0.000000e+00 0.000000e+00 0.000000e+00
 0.000000e+00 8.657991e-01 1.342009e-01 0.000000e+00 0.000000e+00
 0.000000e+00 0.000000e+00 7.628843e-01 2.371157e-01 0.000000e+00
 0.000000e+00 0.000000e+00 0.000000e+00 6.878123e-01 3.121877e-01
 0.000000e+00 0.000000e+00 0.000000e+00 0.000000e+00 0.000000e+00
~t "T_l"
<TRANSP> 5
 0.000000e+00 1.000000e+00 0.000000e+00 0.000000e+00 0.000000e+00
 0.000000e+00 5.709910e-01 4.290090e-01 0.000000e+00 0.000000e+00
 0.000000e+00 0.000000e+00 2.516687e-02 9.748331e-01 0.000000e+00
 0.000000e+00 0.000000e+00 0.000000e+00 5.725942e-01 4.274057e-01
 0.000000e+00 0.000000e+00 0.000000e+00 0.000000e+00 0.000000e+00
~t "T_m"
<TRANSP> 5
 0.000000e+00 1.000000e+00 0.000000e+00 0.000000e+00 0.000000e+00
 0.000000e+00 9.063124e-01 9.368757e-02 0.000000e+00 0.000000e+00
 0.000000e+00 0.000000e+00 8.217239e-01 1.782761e-01 0.000000e+00
 0.000000e+00 0.000000e+00 0.000000e+00 9.639482e-01 3.605172e-02
 0.000000e+00 0.000000e+00 0.000000e+00 0.000000e+00 0.000000e+00
~t "T_n"
<TRANSP> 5
 0.000000e+00 1.000000e+00 0.000000e+00 0.000000e+00 0.000000e+00
 0.000000e+00 8.139041e-01 1.860959e-01 0.000000e+00 0.000000e+00
 0.000000e+00 0.000000e+00 7.844845e-01 2.155155e-01 0.000000e+00
 0.000000e+00 0.000000e+00 0.000000e+00 9.599015e-01 4.009848e-02
 0.000000e+00 0.000000e+00 0.000000e+00 0.000000e+00 0.000000e+00
~t "T_r"
<TRANSP> 5
 0.000000e+00 1.000000e+00 0.000000e+00 0.000000e+00 0.000000e+00
 0.000000e+00 2.060791e-01 7.939208e-01 0.000000e+00 0.000000e+00
 0.000000e+00 0.000000e+00 6.203881e-04 9.993796e-01 0.000000e+00
 0.000000e+00 0.000000e+00 0.000000e+00 2.543910e-01 7.456090e-01
 0.000000e+00 0.000000e+00 0.000000e+00 0.000000e+00 0.000000e+00
~t "T_s"
<TRANSP> 5
 0.000000e+00 1.000000e+00 0.000000e+00 0.000000e+00 0.000000e+00
 0.000000e+00 6.908683e-01 3.091317e-01 0.000000e+00 0.000000e+00
 0.000000e+00 0.000000e+00 7.518318e-01 2.481682e-01 0.000000e+00
 0.000000e+00 0.000000e+00 0.000000e+00 8.468906e-01 1.531094e-01
 0.000000e+00 0.000000e+00 0.000000e+00 0.000000e+00 0.000000e+00
~t "T_t"
<TRANSP> 5
 0.000000e+00 1.000000e+00 0.000000e+00 0.000000e+00 0.000000e+00
 0.000000e+00 4.758749e-01 5.241252e-01 0.000000e+00 0.000000e+00
 0.000000e+00 0.000000e+00 5.849423e-01 4.150577e-01 0.000000e+00
 0.000000e+00 0.000000e+00 0.000000e+00 8.428550e-01 1.571450e-01
 0.000000e+00 0.000000e+00 0.000000e+00 0.000000e+00 0.000000e+00
~t "T_w"
<TRANSP> 5
 0.000000e+00 1.000000e+00 0.000000e+00 0.000000e+00 0.000000e+00
 0.000000e+00 6.737107e-01 3.262893e-01 0.000000e+00 0.000000e+00
 0.000000e+00 0.000000e+00 6.804476e-01 3.195524e-01 0.000000e+00
 0.000000e+00 0.000000e+00 0.000000e+00 7.604312e-01 2.395689e-01
 0.000000e+00 0.000000e+00 0.000000e+00 0.000000e+00 0.000000e+00
~t "T_z"
<TRANSP> 5
 0.000000e+00 1.000000e+00 0.000000e+00 0.000000e+00 0.000000e+00
 0.000000e+00 9.560827e-01 4.391726e-02 0.000000e+00 0.000000e+00
 0.000000e+00 0.000000e+00 8.246230e-01 1.753770e-01 0.000000e+00
 0.000000e+00 0.000000e+00 0.000000e+00 5.712871e-01 4.287129e-01
 0.000000e+00 0.000000e+00 0.000000e+00 0.000000e+00 0.000000e+00
~t "T_ae"
<TRANSP> 5
 0.000000e+00 1.000000e+00 0.000000e+00 0.000000e+00 0.000000e+00
 0.000000e+00 7.376805e-01 2.623196e-01 0.000000e+00 0.000000e+00
 0.000000e+00 0.000000e+00 7.832624e-01 2.167376e-01 0.000000e+00
 0.000000e+00 0.000000e+00 0.000000e+00 7.811862e-01 2.188137e-01
 0.000000e+00 0.000000e+00 0.000000e+00 0.000000e+00 0.000000e+00
~t "T_ah"
<TRANSP> 5
 0.000000e+00 1.000000e+00 0.000000e+00 0.000000e+00 0.000000e+00
 0.000000e+00 7.268193e-01 2.731807e-01 0.000000e+00 0.000000e+00
 0.000000e+00 0.000000e+00 7.692527e-01 2.307472e-01 0.000000e+00
 0.000000e+00 0.000000e+00 0.000000e+00 6.834474e-01 3.165526e-01
 0.000000e+00 0.000000e+00 0.000000e+00 0.000000e+00 0.000000e+00
~t "T_ao"
<TRANSP> 5
 0.000000e+00 1.000000e+00 0.000000e+00 0.000000e+00 0.000000e+00
 0.000000e+00 5.769338e-01 4.230661e-01 0.000000e+00 0.000000e+00
 0.000000e+00 0.000000e+00 3.334982e-01 6.665019e-01 0.000000e+00
 0.000000e+00 0.000000e+00 0.000000e+00 6.167697e-01 3.832302e-01
 0.000000e+00 0.000000e+00 0.000000e+00 0.000000e+00 0.000000e+00
~t "T_aw"
<TRANSP> 5
 0.000000e+00 1.000000e+00 0.000000e+00 0.000000e+00 0.000000e+00
 0.000000e+00 7.878569e-01 2.121432e-01 0.000000e+00 0.000000e+00
 0.000000e+00 0.000000e+00 7.688013e-01 2.311987e-01 0.000000e+00
 0.000000e+00 0.000000e+00 0.000000e+00 6.679261e-01 3.320740e-01
 0.000000e+00 0.000000e+00 0.000000e+00 0.000000e+00 0.000000e+00
~t "T_ay"
<TRANSP> 5
 0.000000e+00 1.000000e+00 0.000000e+00 0.000000e+00 0.000000e+00
 0.000000e+00 7.951947e-01 2.048053e-01 0.000000e+00 0.000000e+00
 0.000000e+00 0.000000e+00 8.704317e-01 1.295684e-01 0.000000e+00
 0.000000e+00 0.000000e+00 0.000000e+00 8.006945e-01 1.993055e-01
 0.000000e+00 0.000000e+00 0.000000e+00 0.000000e+00 0.000000e+00
~t "T_eh"
<TRANSP> 5
 0.000000e+00 1.000000e+00 0.000000e+00 0.000000e+00 0.000000e+00
 0.000000e+00 8.574922e-01 1.425078e-01 0.000000e+00 0.000000e+00
 0.000000e+00 0.000000e+00 7.126018e-01 2.873982e-01 0.000000e+00
 0.000000e+00 0.000000e+00 0.000000e+00 7.706331e-01 2.293669e-01
 0.000000e+00 0.000000e+00 0.000000e+00 0.000000e+00 0.000000e+00
~t "T_er"
<TRANSP> 5
 0.000000e+00 1.000000e+00 0.000000e+00 0.000000e+00 0.000000e+00
 0.000000e+00 9.051151e-01 9.488490e-02 0.000000e+00 0.000000e+00
 0.000000e+00 0.000000e+00 8.768869e-01 1.231131e-01 0.000000e+00
 0.000000e+00 0.000000e+00 0.000000e+00 8.773440e-01 1.226560e-01
 0.000000e+00 0.000000e+00 0.000000e+00 0.000000e+00 0.000000e+00
~t "T_ey"
<TRANSP> 5
 0.000000e+00 1.000000e+00 0.000000e+00 0.000000e+00 0.000000e+00
 0.000000e+00 3.377820e-01 6.622180e-01 0.000000e+00 0.000000e+00
 0.000000e+00 0.000000e+00 8.216919e-01 1.783081e-01 0.000000e+00
 0.000000e+00 0.000000e+00 0.000000e+00 8.358048e-01 1.641953e-01
 0.000000e+00 0.000000e+00 0.000000e+00 0.000000e+00 0.000000e+00
~t "T_ih"
<TRANSP> 5
 0.000000e+00 1.000000e+00 0.000000e+00 0.000000e+00 0.000000e+00
 0.000000e+00 5.286447e-01 4.713552e-01 0.000000e+00 0.000000e+00
 0.000000e+00 0.000000e+00 6.016970e-01 3.983030e-01 0.000000e+00
 0.000000e+00 0.000000e+00 0.000000e+00 5.981787e-01 4.018213e-01
 0.000000e+00 0.000000e+00 0.000000e+00 0.000000e+00 0.000000e+00
~t "T_iy"
<TRANSP> 5
 0.000000e+00 1.000000e+00 0.000000e+00 0.000000e+00 0.000000e+00
 0.000000e+00 7.806859e-01 2.193141e-01 0.000000e+00 0.000000e+00
 0.000000e+00 0.000000e+00 6.392748e-01 3.607252e-01 0.000000e+00
 0.000000e+00 0.000000e+00 0.000000e+00 8.717634e-01 1.282366e-01
 0.000000e+00 0.000000e+00 0.000000e+00 0.000000e+00 0.000000e+00
~t "T_ng"
<TRANSP> 5
 0.000000e+00 1.000000e+00 0.000000e+00 0.000000e+00 0.000000e+00
 0.000000e+00 7.070459e-01 2.929542e-01 0.000000e+00 0.000000e+00
 0.000000e+00 0.000000e+00 8.066176e-01 1.933825e-01 0.000000e+00
 0.000000e+00 0.000000e+00 0.000000e+00 8.054168e-01 1.945832e-01
 0.000000e+00 0.000000e+00 0.000000e+00 0.000000e+00 0.000000e+00
~t "T_th"
<TRANSP> 5
 0.000000e+00 1.000000e+00 0.000000e+00 0.000000e+00 0.000000e+00
 0.000000e+00 8.768452e-01 1.231548e-01 0.000000e+00 0.000000e+00
 0.000000e+00 0.000000e+00 7.909422e-01 2.090578e-01 0.000000e+00
 0.000000e+00 0.000000e+00 0.000000e+00 7.296404e-01 2.703596e-01
 0.000000e+00 0.000000e+00 0.000000e+00 0.000000e+00 0.000000e+00
~t "T_uw"
<TRANSP> 5
 0.000000e+00 1.000000e+00 0.000000e+00 0.000000e+00 0.000000e+00
 0.000000e+00 7.445180e-01 2.554820e-01 0.000000e+00 0.000000e+00
 0.000000e+00 0.000000e+00 9.039677e-01 9.603225e-02 0.000000e+00
 0.000000e+00 0.000000e+00 0.000000e+00 3.067761e-01 6.932238e-01
 0.000000e+00 0.000000e+00 0.000000e+00 0.000000e+00 0.000000e+00
~s "ST_f_2_1"
<MEAN> 25
 -1.947454e+01 2.935288e+00 -1.496226e+00 5.408417e+00 1.444797e+00 5.924913e+00 6.000932e+00 4.949505e+00 5.618663e+00 1.023509e+00 5.476766e+00 3.747618e+00 2.048721e-03 -3.066086e-05 8.640217e-03 1.984844e-02 4.538198e-02 -2.869933e-02 -7.410296e-02 1.821091e-02 1.124632e-01 7.038916e-02 -1.047077e-02 -1.589281e-02 -3.724271e-03
<VARIANCE> 25
 3.937137e+00 6.095394e+00 6.580461e+00 1.755301e+01 9.280990e+00 9.970856e+00 9.078902e+00 1.659740e+01 1.218167e+01 9.833720e+00 8.187151e+00 8.990566e+00 4.253944e-02 1.480865e-01 2.166085e-01 3.266778e-01 4.447411e-01 4.477060e-01 7.080829e-01 1.045816e+00 1.039247e+00 1.055742e+00 8.318611e-01 1.002638e+00 4.115048e-02
<GCONST> 5.959233e+01
~s "ST_f_3_1"
<MEAN> 25
 -1.719551e+01 5.581518e+00 -4.798335e-01 2.958821e+00 3.692324e+00 6.314866e+00 2.486091e+00 2.706827e+00 3.784327e+00 5.361097e-01 4.098727e+00 4.155907e+00 -3.198803e-02 3.424375e-02 9.137061e-02 -3.946013e-02 -8.705389e-02 2.752827e-01 2.176884e-01 -4.720607e-01 -7.323568e-01 -1.779258e-01 1.702323e-02 2.054926e-01 5.485734e-03
<VARIANCE> 25
 1.322758e+01 9.083729e+00 5.780595e+00 1.617509e+01 9.280189e+00 8.438055e+00 8.326217e+00 1.762951e+01 1.450615e+01 7.632548e+00 7.071582e+00 7.388302e+00 5.658393e-02 1.026890e-01 1.682719e-01 2.693799e-01 6.797482e-01 4.600125e-01 9.423282e-01 1.077707e+00 7.343066e-01 7.438177e-01 4.515230e-01 6.187172e-01 4.115048e-02
<GCONST> 5.882677e+01
~s "ST_f_4_1"
<MEAN> 25
 -1.444127e+01 4.464588e+00 3.577695e-01 -7.416664e-01 2.354419e+00 3.547345e+00 1.527045e+00 3.758413e+00 3.160455e-01 -5.956698e-01 2.563901e+00 3.050518e+00 2.246956e-01 -1.896501e-02 3.154082e-02 -1.158126e-01 -1.489514e-01 -2.105497e-01 -1.074781e-02 1.990196e-02 -1.500863e-01 -1.047929e-01 -1.041618e-01 7.824963e-03 2.189839e-01
<VARIANCE> 25
 8.146659e+00 6.912547e+00 6.176101e+00 1.278666e+01 1.153192e+01 1.658578e+01 1.643806e+01 1.997475e+01 1.642687e+01 9.100777e+00 1.111789e+01 9.388536e+00 8.726587e-01 5.297000e-01 6.693695e-01 9.448599e-01 1.200497e+00 1.424338e+00 1.590976e+00 1.184544e+00 1.586222e+00 1.092987e+00 1.114661e+00 1.070660e+00 2.089993e+00
<GCONST> 7.645463e+01
~s "ST_s_2_1"
<MEAN> 25
 1.818507e+01 -1.540488e+01 7.227632e+00 1.677479e+00 -8.700644e+00 -9.575716e+00 -3.135899e+00 2.706728e+00 2.033993e-01 -2.063890e+00 -1.416053e+00 -2.626239e-01 1.481494e+00 -7.904642e-01 -6.704404e-01 -4.972520e-01 -8.260233e-01 -1.311262e-01 -1.142210e-01 -1.514705e-01 -5.269523e-01 4.131719e-01 4.905415e-01 -7.205242e-01 1.009470e+00
<VARIANCE> 25
 3.244500e+01 3.711685e+01 8.713721e+01 7.235590e+01 6.397603e+01 6.939808e+01 5.360449e+01 7.226668e+01 8.180421e+01 4.115150e+01 3.974134e+01 2.976152e+01 4.265370e+00 4.620691e+00 1.102313e+01 1.247651e+01 6.495455e+00 8.793535e+00 8.371963e+00 6.927276e+00 8.986556e+00 6.120761e+00 4.795799e+00 3.931351e+00 3.510726e+00
<GCONST> 1.178575e+02
~s "ST_s_3_1"
<MEAN> 25
 1.840647e+01 -1.690140e+01 1.011889e+01 -1.126742e+01 -2.151892e+00 -7.908571e+00 -8.897621e+00 5.972085e+00 -3.312667e+00 5.206384e+00 -3.304219e+00 -1.067079e+00 9.154838e-03 3.081218e-01 -7.620085e-01 -1.333548e+00 1.353511e+00 7.391164e-01 -2.195827e-01 -6.423398e-01 2.100729e-01 1.234097e+00 -8.365977e-01 -4.476563e-01 1.772941e-01
<VARIANCE> 25
 1.771382e+01 2.361273e+01 6.786201e+01 1.133891e+02 9.301687e+01 6.690051e+01 7.508209e+01 7.371006e+01 7.566380e+01 4.782480e+01 2.953008e+01 3.292821e+01 5.068408e-01 1.608413e+00 2.033467e+00 2.687787e+00 2.636697e+00 2.263929e+00 3.631581e+00 3.270655e+00 4.550652e+00 2.081041e+00 2.631381e+00 3.255736e+00 7.792289e-01
<GCONST> 1.032617e+02
~s "ST_s_4_1"
<MEAN> 25
 2.274741e+01 -9.030362e+00 -5.118405e+00 -1.124039e+01 -5.174176e-01 4.998828e-01 -3.648396e+00 -6.437975e+00 -2.021505e+00 6.833549e+00 -2.219346e+00 -5.900399e+00 -3.287140e-01 1.527857e+00 -3.047083e-01 -2.236971e-02 1.016091e+00 9.182370e-02 -1.197737e-01 -1.159604e-02 -1.481079e-01 -4.726703e-02 2.134660e-01 2.204233e-01 -8.118033e-01
<VARIANCE> 25
 1.708741e+01 5.150727e+01 5.517127e+01 1.218403e+02 1.045028e+02 6.846878e+01 9.505407e+01 8.415382e+01 4.364000e+01 4.099806e+01 4.562317e+01 4.922091e+01 1.354447e+00 1.956778e+00 3.350659e+00 5.066667e+00 4.259377e+00 3.479188e+00 4.373518e+00 4.131536e+00 3.885780e+00 3.967286e+00 2.991207e+00 3.432209e+00 7.676281e-01
<GCONST> 1.088056e+02
~s "ST_l_2_1"
<MEAN> 25
 8.095992e-02 5.557462e+00 -1.316864e+00 -1.666763e+00 1.224261e-01 1.381109e+00 -1.327948e+00 -2.542212e+00 2.766104e-01 -9.926750e-02 1.507751e+00 1.429193e+00 -1.174623e+00 -1.964366e+00 3.856794e-01 4.079117e-01 -2.984899e-01 -8.308423e-01 3.940555e-01 8.030425e-01 1.895367e-01 -1.724665e-01 1.271311e-01 4.047115e-01 3.912013e-01
<VARIANCE> 25
 1.074638e+02 7.332699e+01 5.808304e+01 4.564354e+01 3.774742e+01 6.177517e+01 3.050012e+01 4.065018e+01 2.815342e+01 3.212028e+01 2.730223e+01 2.037338e+01 1.008340e+01 4.503252e+00 5.057237e+00 2.909893e+00 4.355802e+00 5.574400e+00 3.587903e+00 3.496852e+00 2.341281e+00 2.463394e+00 1.960909e+00 1.806714e+00 1.417669e+01
<GCONST> 1.086998e+02
~s "ST_l_3_1"
<MEAN> 25
 2.326562e+00 1.058158e+00 4.959359e-01 -5.963336e-01 -2.215981e-01 -5.245754e-01 -5.064893e-01 -2.258010e+00 6.163788e-01 -8.900522e-01 9.669042e-01 9.294810e-01 1.448360e+00 -3.848738e+00 9.048707e-01 8.184203e-02 -5.775515e-01 -2.213772e+00 1.121275e-01 1.034037e+00 -1.488427e-01 -3.241591e-01 -6.496007e-01 6.570807e-02 4.048980e+00
<VARIANCE> 25
 1.203164e+02 1.650737e+02 5.965995e+01 7.287412e+01 5.033435e+01 5.279699e+01 3.591293e+01 4.235291e+01 4.526569e+01 2.705703e+01 2.154334e+01 1.869327e+01 1.312712e+01 9.071948e+00 8.294047e+00 6.455690e+00 1.065341e+01 8.084044e+00 5.515338e+00 4.400719e+00 3.591574e+00 3.979248e+00 4.177523e+00 2.234783e+00 2.006488e+01
<GCONST> 1.168398e+02
~s "ST_l_4_1"
<MEAN> 25
 6.678136e+00 -8.329067e+00 2.721675e+00 1.870421e+00 2.155669e-02 -6.684787e+00 -2.408258e+00 2.210935e+00 2.526362e+00 -2.849960e+00 -1.475940e+00 1.863318e+00 2.344030e+00 -1.779126e+00 1.180470e+00 4.090755e-01 -1.297416e+00 -1.306816e+00 -1.924403e-01 4.467086e-01 -8.438825e-01 -2.641879e-01 9.885836e-02 -3.170545e-01 2.874656e+00
<VARIANCE> 25
 8.595702e+01 9.853179e+01 9.150720e+01 9.384888e+01 7.616534e+01 8.860390e+01 6.864965e+01 6.244086e+01 5.772401e+01 4.700316e+01 3.251377e+01 3.583102e+01 1.006287e+01 1.163076e+01 6.813370e+00 6.209534e+00 8.943326e+00 6.584924e+00 6.586068e+00 4.623100e+00 8.541365e+00 5.050055e+00 4.976019e+00 3.465761e+00 1.026748e+01
<GCONST> 1.211360e+02
~s "ST_b_2_1"
<MEAN> 25
 2.042294e+01 -3.785833e+00 1.479563e-01 -1.360736e+00 -2.726403e+00 3.580053e+00 -8.031941e+00 -1.881716e+01 -2.670005e+00 6.286515e+00 -5.027665e+00 -2.524267e+00 4.123279e-01 -4.913464e-01 -2.283384e-02 -1.059136e+00 -7.994508e-01 3.304924e-01 3.322799e-01 -5.232077e-01 -2.289085e-01 6.723615e-01 -2.500062e-02 -2.234010e-01 6.963884e-01
<VARIANCE> 25
 6.658899e+00 4.706486e+01 4.878867e+01 8.638001e+01 9.399349e+01 6.160685e+01 1.008649e+02 5.785675e+01 5.622911e+01 3.328721e+01 5.701508e+01 2.705963e+01 4.167578e-01 5.570076e+00 4.550864e+00 7.735089e+00 8.720600e+00 7.765600e+00 6.697397e+00 7.827645e+00 6.822333e+00 2.237614e+00 4.975514e+00 1.840139e+00 2.213003e+00
<GCONST> 1.105647e+02
~s "ST_b_3_1"
<MEAN> 25
 2.204368e+01 6.250287e+00 -7.694959e+00 -9.811280e+00 -2.335388e-01 7.483642e+00 -3.741834e+00 -1.814385e+01 -6.884577e+00 6.992448e+00 1.397999e+00 -1.012037e+00 -5.621548e-01 2.736626e+00 -1.155062e+00 -6.777086e-01 1.745721e+00 -7.419229e-02 1.239178e-01 2.452330e+00 -8.736703e-01 -1.706841e+00 1.804049e+00 9.553248e-01 -1.863856e+00
<VARIANCE> 25
 5.242969e+00 3.406851e+01 1.982965e+01 1.056911e+02 4.726690e+01 2.904061e+01 6.002171e+01 1.004192e+02 5.199402e+01 2.198945e+01 5.178639e+01 1.005106e+01 1.218445e+00 1.484846e+00 3.126358e+00 6.175137e+00 4.018305e+00 3.609353e+00 4.464521e+00 3.949838e+00 2.646755e+00 2.601558e+00 2.535759e+00 1.723307e+00 7.263174e-01
<GCONST> 1.001869e+02
~s "ST_b_4_1"
<MEAN> 25
 1.981980e+01 1.382541e+01 -7.140560e+00 -1.546186e+01 -4.791420e+00 2.753452e+00 2.168046e-01 -4.971085e+00 -1.110169e+01 -4.365362e+00 1.872343e+00 2.476756e-01 -1.490210e+00 9.199674e-01 1.257376e+00 1.612234e+00 -1.231492e+00 -3.259848e-01 1.176281e+00 7.769578e-01 1.119554e+00 -1.009713e+00 -7.224720e-01 -1.727185e-02 -1.682773e+00
<VARIANCE> 25
 1.011734e+01 1.334019e+01 1.690069e+01 8.387701e+01 6.151154e+01 4.890775e+01 2.822425e+01 3.989325e+01 2.348230e+01 2.920199e+01 3.397448e+01 1.852206e+01 2.088516e+00 9.085236e-01 2.256531e+00 2.489475e+00 3.004541e+00 3.837374e+00 3.036404e+00 4.568026e+00 1.707231e+00 1.118485e+00 3.392394e+00 1.795406e+00 6.410215e-01
<GCONST> 9.556928e+01
~s "ST_aw_2_1"
<MEAN> 25
 2.297967e+01 -3.236790e+00 -1.624829e+01 -4.570395e+00 8.200563e+00 3.282399e+00 -2.670792e+00 -2.652110e+00 2.070845e+00 5.676610e+00 2.239794e+00 -6.731815e+00 -4.261808e-01 5.420636e-01 -1.745851e+00 7.028989e-01 2.583125e-01 -8.790401e-01 7.494745e-01 -1.161416e-01 -5.858399e-02 -4.674721e-01 -2.950200e-01 1.283989e-01 -1.064102e+00
<VARIANCE> 25
 2.285207e+01 3.033704e+01 3.206334e+01 2.286931e+01 2.745546e+01 1.545205e+01 9.415941e+01 4.035244e+01 1.783942e+01 4.961491e+01 2.191276e+01 2.195551e+01 6.541699e+00 4.121397e+00 5.226549e+00 5.096359e+00 1.073814e+01 2.037154e+00 1.395489e+01 6.698037e+00 3.428730e+00 4.666522e+00 3.039241e+00 3.926939e+00 8.201120e+00
<GCONST> 1.078966e+02
~s "ST_aw_3_1"
<MEAN> 25
 2.182645e+01 -1.014591e+00 -1.428019e+01 -4.146871e+00 1.272573e+00 9.267364e-01 -2.480402e+00 -7.466509e+00 -2.668944e-01 7.320509e+00 1.052323e+00 -6.940957e+00 -3.156696e+00 6.773926e-01 1.705034e+00 6.682069e-01 -7.491727e-01 1.345382e-02 2.890794e-01 6.060104e-01 4.255722e-01 -8.992181e-02 3.715980e-01 1.187162e+00 -2.529253e+00
<VARIANCE> 25
 7.112084e+01 2.253133e+01 1.509689e+01 1.950569e+01 4.125538e+01 1.275474e+01 5.190396e+01 1.554559e+01 2.547355e+01 1.039496e+01 9.547277e+00 2.741206e+01 5.297979e+00 2.545213e+00 4.141831e-01 5.843092e-01 1.061210e+01 1.461004e+00 9.083334e+00 3.213271e+00 4.140161e+00 3.365768e+00 2.376694e+00 3.667256e+00 2.949292e+00
<GCONST> 9.629520e+01
~s "ST_aw_4_1"
<MEAN> 25
 2.045612e+00 1.061844e+00 -8.533270e+00 -3.117466e+00 -3.047498e+00 1.783076e+00 1.257043e+00 -3.306979e+00 3.713523e-01 2.013410e+00 4.640419e+00 4.871323e-01 -2.286539e+00 -3.504257e-01 1.485916e+00 1.079550e+00 -8.342969e-01 -7.638400e-01 7.289208e-01 1.007721e+00 -3.310874e-01 -7.381422e-01 -3.678721e-02 2.594736e-01 -1.427594e+00
<VARIANCE> 25
 1.316283e+01 5.403820e+00 2.181054e+00 8.456890e+00 2.022085e+01 2.611398e+00 2.105085e+01 1.737909e+01 2.429908e+01 1.852739e+01 1.533391e+01 3.075583e+00 3.526946e+00 1.084799e-01 3.332759e-01 1.023728e+00 2.002356e+00 7.064086e-01 1.046057e+00 3.392038e-01 1.887327e+00 4.721264e-01 2.612057e+00 1.939282e+00 1.915392e+00
<GCONST> 7.238985e+01
~s "ST_r_2_1"
<MEAN> 25
 4.471405e+00 3.193440e+00 6.876117e-01 -8.425412e-01 -2.723084e+00 -3.020611e-01 7.918478e-01 -1.063872e+00 -1.542091e+00 1.052544e-01 7.760651e-01 -2.050215e-01 -1.841730e-01 6.109018e-01 7.261043e-01 -3.147730e-01 1.276368e-02 3.289444e-01 5.728009e-02 1.400566e-01 1.670700e-01 -3.799358e-01 -1.297059e-01 2.415281e-02 -1.130968e-01
<VARIANCE> 25
 2.092472e+02 1.303200e+02 6.484223e+01 6.456529e+01 5.869959e+01 6.026032e+01 5.189842e+01 5.459727e+01 4.266743e+01 4.406997e+01 2.211604e+01 2.084600e+01 7.605144e+00 7.109482e+00 4.613973e+00 4.109290e+00 5.002521e+00 2.946045e+00 4.870325e+00 3.444005e+00 4.245601e+00 2.280663e+00 1.684802e+00 1.701168e+00 4.841757e+00
<GCONST> 1.116365e+02
~s "ST_r_3_1"
<MEAN> 25
 2.929842e+00 2.204021e+00 1.512433e+00 1.379026e-01 -1.661011e+00 -7.197055e-01 -3.495082e-02 -6.354781e-01 -9.923834e-01 -8.216708e-01 2.534368e-01 2.188509e-01 1.200312e+00 3.132412e-01 9.467278e-01 -6.948401e-01 2.466382e-01 -1.273882e-02 -6.047896e-01 -2.518180e-01 5.978119e-01 -1.775933e-01 -5.153546e-01 8.964361e-02 1.721070e+00
<VARIANCE> 25
 2.017391e+02 1.406823e+02 6.060098e+01 6.546091e+01 5.454835e+01 5.864620e+01 6.109664e+01 6.023113e+01 4.902433e+01 2.862317e+01 2.863453e+01 2.170324e+01 1.043320e+01 1.065352e+01 7.684497e+00 4.726614e+00 6.586019e+00 4.241735e+00 5.450576e+00 4.097528e+00 4.009416e+00 2.464226e+00 1.627402e+00 2.132949e+00 1.244166e+01
<GCONST> 1.152414e+02
~s "ST_r_4_1"
<MEAN> 25
 6.017680e+00 1.009956e+00 4.318600e+00 -6.954113e-01 -8.274304e-01 -2.388923e+00 -8.861883e-01 -1.206852e-01 7.613008e-01 -1.564422e+00 -9.207696e-01 9.331473e-01 2.111601e+00 -5.488750e-01 9.248590e-01 -3.851065e-01 -2.973456e-01 -5.725096e-01 -7.011250e-01 -4.393547e-01 4.708711e-01 -3.029649e-02 -5.526272e-01 3.944161e-03 2.636898e+00
<VARIANCE> 25
 1.299541e+02 1.857113e+02 8.563359e+01 8.173148e+01 7.301382e+01 7.940965e+01 7.194833e+01 7.025940e+01 5.103277e+01 3.442088e+01 2.493059e+01 2.532619e+01 1.213457e+01 1.256911e+01 8.849174e+00 6.624861e+00 9.593460e+00 1.153377e+01 8.155833e+00 5.027318e+00 7.490455e+00 4.025229e+00 3.589964e+00 3.323306e+00 1.888864e+01
<GCONST> 1.223466e+02
~s "ST_k_2_1"
<MEAN> 25
 -5.609141e+00 1.893178e+00 2.548652e+00 -7.797607e+00 1.104111e+01 -5.827639e+00 -6.312842e+00 2.958578e+00 2.921742e+00 -4.730730e-01 1.343050e+00 1.396809e+00 -2.217957e+00 -3.791124e-02 -1.208741e-03 8.374923e-02 3.822530e-01 1.062051e-01 -2.980206e-02 3.555848e-01 2.490540e-01 -4.973209e-01 5.530949e-01 3.275998e-01 -1.100957e+00
<VARIANCE> 25
 1.278131e+02 3.969864e+01 4.404873e+01 7.188018e+01 9.220489e+01 5.930037e+01 6.180011e+01 3.083644e+01 3.702346e+01 2.748139e+01 2.983915e+01 3.241805e+01 1.424905e+01 7.527586e+00 6.352355e+00 5.661341e+00 7.352418e+00 5.775607e+00 6.152975e+00 5.483547e+00 4.658745e+00 4.101480e+00 3.895116e+00 3.017757e+00 5.039867e+00
<GCONST> 1.150547e+02
~s "ST_k_3_1"
<MEAN> 25
 1.291327e+00 -6.684383e+00 -4.389667e+00 -4.174760e+00 1.299270e+01 -2.861694e+00 -8.604412e+00 4.612504e+00 3.973756e+00 2.218811e+00 -2.608409e-01 2.115739e+00 2.567727e+00 -9.000270e-01 -1.787428e+00 -1.969426e+00 1.371344e+00 1.425373e+00 1.696698e-01 -7.472339e-02 -1.265322e+00 1.216667e+00 1.453858e-02 -9.995502e-01 1.325416e+00
<VARIANCE> 25
 6.087885e+01 8.028616e+01 7.691496e+01 8.113640e+01 1.172327e+02 8.672798e+01 9.064378e+01 6.999780e+01 5.070291e+01 7.893807e+01 5.064050e+01 3.596172e+01 9.042467e+00 1.191273e+01 9.244286e+00 1.162646e+01 2.123917e+01 7.053546e+00 9.775481e+00 7.307995e+00 6.171370e+00 6.832941e+00 5.141495e+00 5.328509e+00 2.161287e+01
<GCONST> 1.257249e+02
~s "ST_k_4_1"
<MEAN> 25
 1.644580e+01 -2.472391e+00 -1.120315e+01 -1.416827e+01 7.283200e+00 4.701344e+00 -6.391196e+00 -8.879737e-01 -4.207209e+00 2.868880e+00 3.233396e+00 -1.777747e+00 4.214435e+00 1.743756e-01 1.937940e-01 -1.293370e+00 -1.745638e+00 2.401356e-03 5.726872e-01 -1.565857e+00 -2.132644e+00 3.480247e-01 6.494178e-01 -7.401520e-01 3.161653e+00
<VARIANCE> 25
 3.509428e+01 5.242430e+01 7.393841e+01 7.845200e+01 5.930835e+01 9.313292e+01 6.882671e+01 6.074053e+01 5.114782e+01 4.289513e+01 4.169300e+01 2.780698e+01 4.442229e+00 4.638249e+00 1.060317e+01 1.313321e+01 9.811049e+00 8.021811e+00 1.057574e+01 7.280527e+00 5.914299e+00 4.425286e+00 4.560310e+00 4.034636e+00 4.661406e+00
<GCONST> 1.182217e+02
~s "ST_uw_2_1"
<MEAN> 25
 -3.290727e+00 7.241647e+00 -9.005742e-01 5.810107e-01 -1.943328e+00 2.462706e+00 2.358459e+00 -4.560461e-01 -3.994786e+00 -5.480885e+00 -5.552294e-02 4.500670e-01 -1.557955e+00 -1.064673e+00 -3.854486e-02 7.507656e-01 4.421737e-01 1.071748e-01 4.268416e-01 4.744373e-01 6.342212e-02 -2.726737e-01 -6.584708e-01 -6.014917e-01 -7.769663e-01
<VARIANCE> 25
 2.656319e+01 1.868084e+01 2.655947e+01 3.896983e+01 1.746929e+01 1.954913e+01 2.259421e+01 2.124354e+01 2.370062e+01 1.962383e+01 1.943672e+01 2.906920e+01 1.439717e+00 1.466809e+00 2.090863e+00 1.541124e+00 1.360612e+00 1.610636e+00 2.030368e+00 2.107099e+00 1.412859e+00 1.582190e+00 1.820708e+00 1.393634e+00 4.250091e-01
<GCONST> 8.861799e+01
~s "ST_n_2_1"
<MEAN> 25
 2.875987e+00 1.249713e+01 6.847259e+00 6.990160e+00 -2.294727e+00 -1.703238e+00 -1.644927e+00 -2.835207e+00 -2.129798e+00 -4.503470e+00 -4.851914e+00 -3.472457e+00 -1.950984e+00 -1.335994e+00 -4.454622e-01 3.568949e-01 4.759080e-01 1.162406e-01 -6.854822e-02 1.587853e-01 3.942947e-01 3.067307e-01 2.280281e-01 -8.301698e-03 -1.071520e+00
<VARIANCE> 25
 6.223756e+01 3.331228e+01 3.348365e+01 2.268439e+01 1.901081e+01 2.390821e+01 1.856837e+01 1.993287e+01 3.084443e+01 2.827339e+01 1.560674e+01 1.388527e+01 2.425310e+00 3.000038e+00 3.706918e+00 3.300964e+00 1.397515e+00 1.682290e+00 2.094786e+00 1.816010e+00 1.883928e+00 2.379671e+00 1.054137e+00 1.106197e+00 6.140461e-01
<GCONST> 9.224524e+01
~s "ST_uw_3_1"
<MEAN> 25
 -7.092570e+00 3.514838e+00 1.982045e+00 6.253679e+00 5.320955e-01 3.854334e-01 1.188375e+00 -1.937234e-01 -3.207708e+00 -3.476979e+00 -1.167320e+00 -2.164278e+00 -1.453404e-01 -4.509084e-02 1.055707e-01 1.665429e-01 8.387249e-02 5.282333e-02 4.954213e-02 3.175682e-02 1.612025e-01 9.195334e-02 -3.046564e-02 6.417909e-02 -7.601324e-02
<VARIANCE> 25
 5.933824e+00 7.732358e+00 1.327030e+01 1.959029e+01 1.696006e+01 1.272777e+01 1.369092e+01 1.870534e+01 1.406929e+01 1.605986e+01 1.150234e+01 1.184377e+01 1.975390e-01 3.717600e-01 5.202947e-01 6.306059e-01 9.603463e-01 1.130988e+00 1.285948e+00 1.403054e+00 1.300539e+00 1.449408e+00 1.220357e+00 1.119386e+00 4.800778e-02
<GCONST> 7.144492e+01
~s "ST_n_3_1"
<MEAN> 25
 -7.562380e+00 4.591169e+00 3.182621e+00 7.406576e+00 2.483438e+00 2.036780e+00 -1.229698e+00 -1.620266e+00 -2.095708e+00 -4.201591e+00 -1.002074e+00 -1.621390e+00 -5.150339e-01 -4.698659e-01 -4.241424e-01 -2.263705e-01 -9.851165e-02 7.872008e-02 1.130150e-01 6.655011e-02 9.761053e-02 1.930166e-01 3.874766e-01 4.329095e-01 -2.559824e-01
<VARIANCE> 25
 1.156614e+01 1.390384e+01 2.151597e+01 1.664669e+01 1.404549e+01 1.354032e+01 1.408714e+01 1.507141e+01 1.675257e+01 1.494798e+01 2.118190e+01 1.691900e+01 2.717550e-01 7.563360e-01 1.287409e+00 1.100661e+00 7.550405e-01 1.151919e+00 1.287514e+00 1.864609e+00 1.485734e+00 1.599293e+00 2.111322e+00 2.064809e+00 1.073441e-01
<GCONST> 7.852766e+01
~s "ST_uw_4_1"
<MEAN> 25
 -9.771437e+00 3.630633e+00 2.324605e-02 1.683139e+00 2.129750e+00 1.809980e+00 1.818669e+00 1.972525e+00 5.371045e-01 -2.240194e+00 -8.392951e-01 9.226316e-01 1.753123e-02 -9.669414e-02 5.465896e-02 -1.059174e-01 2.788678e-01 -6.116830e-01 -1.726658e-03 4.496137e-01 1.155707e+00 9.212739e-01 1.747190e-01 3.956966e-01 3.285157e-01
<VARIANCE> 25
 9.051023e+00 5.593298e+00 9.196422e+00 3.635024e+01 2.572996e+01 3.949420e+01 1.821980e+01 2.735906e+01 1.605879e+01 2.212448e+01 1.616668e+01 1.637297e+01 1.019999e+00 1.684997e+00 1.030683e+00 1.139130e+00 1.398756e+00 2.216161e+00 2.330953e+00 2.651424e+00 1.867519e+00 2.018746e+00 1.509922e+00 2.182882e+00 8.193468e-01
<GCONST> 8.624561e+01
~s "ST_n_4_1"
<MEAN> 25
 -8.796666e+00 1.802551e+00 -2.437543e-01 1.665157e+00 2.160894e-01 1.703990e+00 6.643217e-02 6.100049e-01 -3.086573e-01 -9.208635e-01 -5.970383e-01 2.361007e-01 -1.843557e-02 1.965909e-02 -1.707112e-02 -4.263996e-02 2.291213e-02 3.060761e-02 -4.120615e-03 1.895854e-02 1.092287e-02 -3.285933e-02 7.565706e-03 4.072018e-02 -1.669323e-02
<VARIANCE> 25
 4.831472e+00 6.065395e+00 1.007819e+01 1.121169e+01 7.705693e+00 1.246727e+01 1.362107e+01 1.267107e+01 1.594601e+01 1.351725e+01 1.406781e+01 1.395097e+01 1.484420e-01 2.959199e-01 4.384766e-01 6.061671e-01 7.034452e-01 9.267194e-01 1.146856e+00 1.381114e+00 1.468857e+00 1.469276e+00 1.428067e+00 1.358380e+00 4.115048e-02
<GCONST> 6.824374e+01
~s "ST_d_2_1"
<MEAN> 25
 -1.682663e+01 1.387809e+00 -2.185800e-01 7.495411e+00 1.315336e+00 3.823097e+00 4.745951e+00 3.670776e+00 4.891748e+00 1.752937e+00 5.137889e+00 3.742807e+00 -1.095330e-02 8.438749e-03 -5.033938e-03 7.465540e-03 3.141969e-02 -4.633435e-03 -4.250561e-02 -4.866989e-03 7.523616e-02 6.499865e-02 3.112305e-03 -2.229964e-02 -1.423034e-02
<VARIANCE> 25
 5.000885e+00 4.259216e+00 3.480254e+00 6.203139e+00 6.457828e+00 7.261261e+00 9.390557e+00 1.332200e+01 1.057205e+01 9.264445e+00 8.881844e+00 7.868322e+00 4.253944e-02 1.463254e-01 2.265657e-01 3.743326e-01 4.535644e-01 4.783193e-01 7.476987e-01 1.208696e+00 1.189107e+00 1.027764e+00 7.860537e-01 8.640456e-01 4.115048e-02
<GCONST> 5.703331e+01
~s "ST_d_3_1"
<MEAN> 25
 -1.304990e+01 5.235976e+00 7.050426e-02 5.952897e-01 2.394584e+00 2.515883e+00 -7.928359e-01 3.333981e+00 1.059257e+00 -1.731767e+00 9.389815e-01 2.257811e+00 -1.267312e-02 2.553391e-02 3.160845e-02 5.607339e-03 -3.065226e-02 -3.235338e-03 3.374757e-02 -3.451295e-02 -6.437374e-02 -3.146976e-02 2.698852e-02 6.122515e-06 -1.892026e-02
<VARIANCE> 25
 4.684992e+00 4.793419e+00 7.602453e+00 1.510828e+01 8.902267e+00 1.083220e+01 1.127067e+01 1.189865e+01 1.200523e+01 1.177476e+01 1.113779e+01 1.169145e+01 1.082545e-01 2.686583e-01 4.162830e-01 7.804195e-01 7.940741e-01 8.853268e-01 1.154323e+00 8.717237e-01 1.235322e+00 1.065680e+00 1.271082e+00 1.239973e+00 4.115048e-02
<GCONST> 6.562156e+01
~s "ST_d_4_1"
<MEAN> 25
 -1.074193e+01 4.297862e+00 9.928286e-01 2.678106e+00 8.931094e-01 1.834908e+00 7.527114e-01 1.093605e+00 6.923132e-01 -9.715523e-01 -6.580240e-01 2.597170e-01 1.545527e-01 8.536299e-02 1.528599e-01 1.367179e-01 2.015211e-01 8.840032e-02 -9.283357e-03 -1.721774e-01 -2.375706e-01 9.184497e-02 -1.784150e-02 -1.527074e-01 1.491179e-01
<VARIANCE> 25
 1.346483e+01 7.261344e+00 1.554004e+01 1.785571e+01 1.132544e+01 9.066202e+00 2.086601e+01 1.712689e+01 2.180470e+01 1.712734e+01 2.428387e+01 1.794289e+01 1.417950e+00 9.722497e-01 1.098548e+00 1.721027e+00 1.370695e+00 1.124455e+00 1.175794e+00 2.073241e+00 3.797199e+00 1.718271e+00 1.770361e+00 1.762855e+00 1.464280e+00
<GCONST> 8.434221e+01
~s "ST_th_2_1"
<MEAN> 25
 1.774537e+01 -1.163933e+01 1.734631e+01 5.449995e+00 -2.165527e+01 -6.085239e+00 3.142604e+00 -4.359118e+00 -9.916838e+00 -4.052698e+00 1.196824e+00 1.220216e+00 -1.852654e-01 1.787365e+00 9.889684e-01 3.638609e-02 -1.965108e+00 1.958943e-01 2.090775e+00 -1.082394e+00 -2.574486e+00 5.997494e-01 2.815423e-01 -3.680657e-01 -1.055647e+00
<VARIANCE> 25
 7.955256e+00 3.805830e+01 3.509652e+01 5.373209e+01 4.176767e+01 4.711268e+01 7.927260e+01 2.500663e+01 9.197124e+01 2.844860e+01 3.839410e+01 4.288779e+01 1.268141e+00 4.812407e+00 3.467530e+00 6.326656e+00 4.095799e+00 7.076437e+00 5.009564e+00 5.070100e+00 4.225640e+00 3.439604e+00 4.267279e+00 6.073956e+00 1.677151e+00
<GCONST> 1.076018e+02
~s "ST_th_3_1"
<MEAN> 25
 1.402109e+01 1.052147e+01 1.864911e+01 2.149809e+00 -2.691007e+01 -8.460732e+00 1.168917e+01 -8.168756e+00 -1.493031e+01 3.128737e+00 1.557954e-01 -2.271978e+00 -1.312522e+00 3.859801e+00 -1.308281e+00 -1.080099e-02 2.742172e+00 -3.970608e-01 -2.456207e+00 7.870663e-01 2.999283e+00 5.419779e-01 -2.010417e-02 -2.151415e-01 -2.934575e+00
<VARIANCE> 25
 1.108756e+01 4.580955e+01 2.137193e+01 1.465707e+02 3.630167e+01 5.416458e+01 7.287530e+01 7.802098e+01 4.349791e+01 3.412768e+01 3.006625e+01 2.107664e+01 6.261961e-01 1.733844e+00 4.175858e+00 7.795859e+00 8.935389e+00 3.834920e+00 9.033310e+00 4.487463e+00 3.789924e+00 4.328845e+00 3.011802e+00 2.463343e+00 4.212251e-01
<GCONST> 1.049495e+02
~s "ST_th_4_1"
<MEAN> 25
 3.453337e+00 1.389816e+01 1.087042e+01 5.905765e-01 -1.358170e+01 -3.184348e+00 4.996294e-01 -6.842881e+00 -4.047772e+00 1.445104e+00 -1.861358e+00 -2.298935e+00 -2.663249e+00 -1.611848e+00 -2.358560e+00 -2.321317e-01 1.784558e+00 1.282312e+00 -1.175306e-01 7.674187e-02 5.869949e-01 -9.804118e-01 -2.728121e-01 4.145667e-01 -1.813851e+00
<VARIANCE> 25
 3.358224e+01 4.773673e+01 4.874959e+01 2.009519e+01 1.734895e+01 1.935516e+01 2.409475e+01 1.914019e+01 1.415821e+01 1.379954e+01 1.998895e+01 9.563772e+00 1.603866e+00 1.668445e+00 2.478318e+00 4.056282e+00 5.588515e+00 2.521442e+00 8.796124e+00 8.903919e-01 4.072528e+00 1.513101e+00 2.558931e+00 8.520072e-01 8.861327e-01
<GCONST> 9.316503e+01
~s "ST_ay_2_1"
<MEAN> 25
 1.549548e+01 -9.030117e+00 3.559192e+00 -2.172028e+01 8.206119e+00 4.223126e+00 -1.558747e+01 3.295784e+00 2.724197e+00 6.601126e+00 -3.202496e+00 -2.506026e+00 -8.652736e-02 1.636913e+00 -9.144810e-01 -2.232767e-02 1.098089e+00 3.467530e-01 -9.341596e-02 -1.253152e+00 6.446738e-01 3.956082e-01 1.905839e-02 7.044972e-01 -9.346454e-01
<VARIANCE> 25
 3.678075e+01 5.224058e+01 5.161792e+01 8.155803e+01 5.247658e+01 5.446680e+01 7.805077e+01 7.685663e+01 7.112231e+01 3.516829e+01 3.349930e+01 5.514600e+01 1.990374e+00 2.113747e+00 2.481081e+00 5.788540e+00 2.631926e+00 4.728464e+00 5.002916e+00 5.014062e+00 6.521566e+00 3.766043e+00 3.446896e+00 3.868216e+00 1.419162e+00
<GCONST> 1.098427e+02
~s "ST_ay_3_1"
<MEAN> 25
 2.073974e+00 -7.948931e-02 -4.280317e-01 -5.817719e+00 6.297238e+00 -6.617026e+00 -4.260152e-01 -2.139431e+00 4.161582e+00 7.770820e-01 1.464648e-02 2.309632e+00 -5.356145e-01 -1.265028e+00 9.840131e-01 2.734028e-01 -5.430253e-01 -4.347019e-01 8.011483e-01 8.147846e-01 1.447710e-01 -3.902873e-01 3.041425e-02 -4.317367e-02 4.484596e-01
<VARIANCE> 25
 9.593520e+01 9.709239e+01 6.244276e+01 6.391162e+01 7.174019e+01 9.122777e+01 1.021962e+02 4.882513e+01 5.768766e+01 4.123536e+01 3.619689e+01 3.018461e+01 1.208650e+01 9.904870e+00 1.201928e+01 1.345653e+01 9.466187e+00 1.209729e+01 1.452221e+01 6.431526e+00 6.281601e+00 5.859564e+00 4.285488e+00 3.732035e+00 1.529424e+01
<GCONST> 1.237043e+02
~s "ST_ay_4_1"
<MEAN> 25
 1.508559e+01 -1.469294e+01 1.714355e+00 -5.212310e+00 4.731099e-02 -1.700047e+00 -5.894429e+00 3.813754e+00 4.804982e+00 4.771177e-01 -1.795848e+00 -1.626663e+00 2.929970e+00 -2.386548e+00 -1.583726e+00 1.472526e+00 -1.735956e+00 -1.527342e-01 1.843879e-01 4.378352e-01 -8.289884e-01 -4.437113e-02 -8.319449e-01 -7.017818e-01 1.462536e+00
<VARIANCE> 25
 6.632473e+01 4.161345e+01 2.000059e+02 9.284618e+01 8.564452e+01 5.329325e+01 4.395951e+01 3.831816e+01 3.140120e+01 3.310884e+01 2.170703e+01 1.910076e+01 8.798178e+00 3.685286e+00 1.277873e+01 1.036484e+01 9.570889e+00 9.649641e+00 6.990396e+00 5.223041e+00 6.511753e+00 5.415743e+00 5.787787e+00 2.926091e+00 4.305002e+00
<GCONST> 1.168689e+02
~s "ST_g_2_1"
<MEAN> 25
 1.838605e+01 -1.324384e+01 5.915990e+00 3.277910e+00 -9.766655e+00 -9.517648e+00 -4.559873e+00 -1.973846e+00 -3.569251e+00 2.323590e+00 -8.690203e-01 -1.800387e+00 3.525101e-01 -1.347323e-01 8.860196e-01 -3.433425e-01 -1.730936e+00 2.526949e-01 1.296720e+00 -4.510401e-01 -8.231205e-01 5.724417e-01 1.018084e-01 -1.116816e-01 4.894523e-01
<VARIANCE> 25
 1.582215e+01 3.299646e+01 6.886349e+01 1.547599e+02 1.174822e+02 7.668711e+01 7.740285e+01 5.729322e+01 7.488139e+01 5.440306e+01 4.306992e+01 3.613949e+01 2.673902e+00 4.031461e+00 9.795178e+00 1.465223e+01 6.906122e+00 5.583943e+00 8.328280e+00 9.529504e+00 5.744870e+00 5.646328e+00 4.732766e+00 4.039983e+00 2.033760e+00
<GCONST> 1.171549e+02
~s "ST_g_3_1"
<MEAN> 25
 1.672160e+01 -8.267672e+00 7.329556e+00 -6.855944e+00 -6.906000e+00 -4.081418e+00 -3.319277e+00 4.167789e-01 -7.224273e+00 4.267765e+00 -1.219521e+00 -2.123621e+00 4.297647e-01 2.638707e+00 -2.170840e+00 3.153354e+00 -1.032757e+00 6.538321e-01 2.679595e+00 -2.418415e+00 4.734194e-01 -1.623894e+00 -5.033690e-01 6.643553e-01 -2.441037e+00
<VARIANCE> 25
 2.692721e+01 4.392396e+01 1.136167e+02 1.461022e+02 1.321774e+02 5.668768e+01 1.561421e+02 6.603771e+01 1.289872e+02 4.154852e+01 5.404203e+01 2.590871e+01 7.339407e-01 8.015870e+00 3.221503e+00 1.124292e+01 5.157272e+00 2.447384e+00 5.046617e+00 6.336045e+00 3.745264e+00 7.654828e+00 1.888417e+00 2.050619e+00 4.460720e+00
<GCONST> 1.143004e+02
~s "ST_g_4_1"
<MEAN> 25
 1.903280e+01 -1.386175e-01 -1.511884e+00 6.640342e-01 -5.461575e+00 -2.297943e+00 9.859419e-01 -7.184636e+00 -5.922336e+00 -1.611356e-01 -2.027081e+00 -1.590364e+00 3.371333e-01 3.454246e+00 -2.319691e+00 6.502956e-01 8.512709e-01 7.335693e-01 2.614386e-02 -1.565802e+00 7.140471e-01 -5.494371e-01 3.788865e-01 -3.856985e-01 -2.169838e+00
<VARIANCE> 25
 1.119260e+01 1.042514e+02 4.757246e+01 1.126986e+02 1.049984e+02 4.739608e+01 1.503729e+02 5.128273e+01 1.273141e+02 1.000428e+02 4.722290e+01 4.654563e+01 9.291813e-01 1.195458e+01 3.733111e+00 1.038101e+01 6.797021e+00 3.335323e+00 6.655676e+00 4.092031e+00 5.312237e+00 3.962097e+00 2.400534e+00 2.514364e+00 5.054501e+00
<GCONST> 1.151617e+02
~s "ST_t_2_1"
<MEAN> 25
 8.980289e+00 -9.889314e+00 8.365638e+00 -4.698490e+00 -2.992571e-02 -1.144677e+01 -2.097119e+00 4.255371e+00 -9.659293e-01 4.809552e-01 -5.692548e-01 1.188929e+00 1.021647e+00 -3.718931e-01 1.619756e+00 -2.527063e+00 6.648666e-02 7.836722e-01 -1.499086e+00 4.230954e-01 -1.817615e+00 4.441964e-01 1.293119e+00 -8.682958e-01 2.175267e+00
<VARIANCE> 25
 8.092062e+01 4.580691e+01 9.405218e+01 6.948956e+01 9.562680e+01 5.662338e+01 8.724400e+01 6.085010e+01 1.043687e+02 4.689965e+01 7.064740e+01 4.295995e+01 2.431908e+01 1.043813e+01 6.915960e+00 6.144707e+00 1.097438e+01 7.463277e+00 8.452523e+00 8.245254e+00 9.978119e+00 5.917111e+00 4.181711e+00 2.580394e+00 1.114147e+01
<GCONST> 1.234411e+02
~s "ST_t_3_1"
<MEAN> 25
 1.561160e+01 -9.852366e+00 4.139990e+00 -4.158955e+00 -5.450282e+00 -3.374057e+00 -4.869300e+00 -6.750154e+00 1.149851e+00 7.551822e-01 1.176426e-01 -2.292263e+00 1.702322e+00 7.675929e-01 -1.972127e+00 3.414994e-01 -1.201787e+00 1.323718e+00 1.169854e+00 -2.397086e+00 -1.141826e+00 8.638701e-01 2.061279e-02 -6.053651e-01 -4.349884e-02
<VARIANCE> 25
 7.617911e+01 7.332120e+01 9.374628e+01 6.779659e+01 6.798817e+01 8.139763e+01 6.784711e+01 1.470251e+02 1.007606e+02 7.901154e+01 4.689620e+01 2.133542e+01 8.197126e+00 6.926231e+00 5.843584e+00 5.700015e+00 5.491306e+00 8.076239e+00 5.988184e+00 9.386380e+00 8.117783e+00 8.244955e+00 5.458230e+00 3.467862e+00 2.012463e+00
<GCONST> 1.202589e+02
~s "ST_ey_2_1"
<MEAN> 25
 7.231119e+00 1.251129e+01 1.401839e+01 -1.398409e+00 -1.239067e+01 1.686980e+00 2.413127e+00 -4.188351e-01 -1.456057e-01 -7.274331e-01 5.295752e+00 -1.341406e+00 2.359211e+00 -2.638349e+00 3.629277e+00 -1.549786e+00 -3.213795e+00 -1.780588e+00 9.289705e-01 3.865781e-01 -3.987675e+00 1.369546e+00 1.098429e+00 -5.046217e-01 4.122220e+00
<VARIANCE> 25
 3.294963e+01 6.170233e+01 4.587721e+01 7.649422e+01 6.888892e+01 1.483457e+01 4.819028e+01 1.672213e+01 4.256461e+01 1.179068e+01 1.494283e+01 2.139746e+01 1.152598e+01 5.858630e+00 1.633775e+01 1.267135e+01 9.432574e+00 7.046361e+00 6.439473e+00 4.551606e+00 7.823668e+00 2.256390e+00 1.403377e+00 1.419209e+00 1.822515e+01
<GCONST> 1.109173e+02
~s "ST_t_4_1"
<MEAN> 25
 1.974072e+01 -1.201283e+01 -5.663683e+00 -6.405561e+00 -3.305149e+00 -1.774071e+00 9.604601e-01 -8.260687e+00 -2.627541e+00 7.335563e+00 -2.782461e+00 -3.745347e+00 -9.007149e-02 9.366076e-01 -4.460917e-01 -7.121511e-01 7.630525e-01 5.385795e-01 -4.985411e-01 -2.670391e-01 -2.930413e-01 4.082165e-01 2.671628e-01 -8.360925e-02 -4.812398e-01
<VARIANCE> 25
 6.078310e+01 5.967920e+01 7.881055e+01 9.564450e+01 1.175153e+02 7.760931e+01 5.054190e+01 7.221015e+01 2.669689e+01 2.935245e+01 2.451817e+01 1.773814e+01 5.678367e-01 1.150465e+00 1.266809e+00 3.184621e+00 2.040641e+00 2.480932e+00 2.358051e+00 2.034736e+00 2.325883e+00 1.926716e+00 1.640453e+00 1.365316e+00 4.115727e-01
<GCONST> 9.870829e+01
~s "ST_t_4_2"
<MEAN> 25
 1.880896e+01 9.516500e+00 -5.360505e+00 -9.712284e+00 -3.562895e+00 6.029593e+00 -6.423825e-01 -1.002672e+01 -9.053926e+00 -1.932438e+00 2.638378e+00 2.527287e+00 -1.738122e+00 8.048382e-01 1.451699e-01 5.944045e-01 -3.094769e-02 -3.078502e-01 2.553948e-01 1.111798e+00 1.356452e-01 -6.238963e-01 1.396766e-01 5.394806e-01 -1.988860e+00
<VARIANCE> 25
 5.348378e+01 4.265746e+01 3.039305e+01 8.971059e+01 4.903443e+01 2.736331e+01 3.742605e+01 4.670313e+01 4.095835e+01 4.399620e+01 1.769588e+01 2.081441e+01 4.409043e+00 3.390920e+00 3.185071e+00 6.909687e+00 4.214285e+00 3.375740e+00 3.146936e+00 2.616860e+00 5.481538e+00 3.639921e+00 2.104265e+00 1.857376e+00 1.157118e+00
<GCONST> 1.047259e+02
~s "ST_ey_3_1"
<MEAN> 25
 1.055767e+01 -1.710277e+00 2.022627e+01 -7.686253e+00 -1.524933e+01 -5.567093e+00 3.031858e+00 1.925922e+00 -1.351617e+01 3.250031e+00 4.955677e+00 2.549429e-01 1.125646e+00 -3.015184e+00 4.475942e-01 -8.874769e-01 3.218317e-01 -1.866055e+00 -7.662324e-01 3.509306e-01 -8.998065e-01 5.376481e-01 -7.065634e-01 3.913667e-01 2.943255e+00
<VARIANCE> 25
 2.048972e+01 5.395831e+01 1.238958e+02 8.887407e+01 5.165454e+01 7.851157e+01 4.324380e+01 3.631547e+01 9.764980e+01 2.742350e+01 2.054564e+01 1.804935e+01 3.588658e+00 1.943672e+00 5.958662e+00 6.153737e+00 8.666402e+00 4.532070e+00 4.142997e+00 4.650251e+00 9.615316e+00 4.241763e+00 4.253472e+00 1.897452e+00 4.093751e+00
<GCONST> 1.111165e+02
~s "ST_ao_2_1"
<MEAN> 25
 4.745582e+00 1.647442e+01 1.118835e+01 4.696175e+00 -5.782670e-01 -1.815621e+00 -1.928312e+00 -1.744894e+00 9.613526e-01 -3.423788e+00 -2.121654e+00 1.339435e+00 3.482190e+00 -1.377871e+00 -7.244223e-01 -1.260555e+00 -2.937718e-01 -1.922423e+00 -1.167752e+00 -1.115585e-01 1.824733e-01 -4.890752e-02 -1.034959e+00 -4.613687e-01 3.864533e+00
<VARIANCE> 25
 8.185484e+01 1.618202e+02 5.313327e+01 4.025164e+01 2.680478e+01 3.263160e+01 4.254352e+01 1.995155e+01 2.287242e+01 9.520776e+00 1.320499e+01 1.684169e+01 1.287691e+01 1.297783e+01 6.774955e+00 5.164217e+00 2.207047e+00 4.699116e+00 5.474864e+00 3.079110e+00 3.622922e+00 1.977903e+00 3.510755e+00 2.418874e+00 1.776832e+01
<GCONST> 1.082352e+02
~s "ST_ey_4_1"
<MEAN> 25
 1.836082e+01 -1.614035e+01 1.394069e+01 -2.995751e+00 -1.268212e+01 -8.835661e+00 -2.341899e+00 1.905349e+00 -5.284266e+00 2.111979e+00 -2.009480e+00 2.685264e+00 7.264655e-01 -1.006171e+00 -1.187387e+00 4.561377e-01 8.228395e-03 4.482301e-01 -4.983010e-01 1.228243e-01 1.516953e+00 -5.792499e-01 -7.570909e-01 3.100862e-01 3.687878e-01
<VARIANCE> 25
 1.474432e+01 1.903251e+01 6.712411e+01 1.324778e+02 5.464107e+01 3.860556e+01 2.392768e+01 5.047659e+01 7.924972e+01 5.283804e+01 2.544291e+01 1.284010e+01 8.461106e-01 1.222338e+00 2.133729e+00 2.445443e+00 2.729670e+00 3.781963e+00 2.814688e+00 3.173320e+00 2.733996e+00 3.040395e+00 1.758706e+00 1.246996e+00 1.272518e+00
<GCONST> 9.891034e+01
~s "ST_ao_3_1"
<MEAN> 25
 1.220945e+01 2.981284e+00 5.694198e+00 -3.377692e-01 6.044502e-01 -8.196064e+00 -3.012033e+00 -2.016285e+00 3.279793e+00 -8.309721e-01 -4.607408e+00 3.731633e-01 3.835151e+00 -6.631795e+00 -2.134210e+00 -2.412805e+00 3.752421e-01 -3.765978e+00 -1.926808e+00 -5.833965e-01 9.265718e-01 9.362031e-01 -1.689443e+00 -1.598671e-04 6.871598e+00
<VARIANCE> 25
 2.436909e+01 2.188114e+02 8.538344e+01 8.350125e+01 4.705560e+01 4.706599e+01 5.159542e+01 2.745526e+01 4.029130e+01 5.454022e+01 2.080344e+01 2.204111e+01 1.274557e+01 7.722891e+00 9.312131e+00 9.136122e+00 8.564221e+00 6.348390e+00 1.442755e+01 7.971454e+00 7.362658e+00 3.948433e+00 4.956680e+00 3.851590e+00 4.014096e+00
<GCONST> 1.176649e+02
~s "ST_ao_4_1"
<MEAN> 25
 1.936471e+01 -9.602227e+00 4.508968e-02 -2.432103e+00 1.632160e-01 -1.091875e+01 -1.038053e+01 -2.876250e+00 9.316560e+00 -1.619235e+00 -7.962033e+00 3.127317e+00 1.166444e+00 -3.603200e+00 2.432838e-01 -7.770848e-01 -9.832878e-01 2.068581e+00 -1.442954e+00 8.747177e-01 6.851024e-01 -6.348629e-01 1.550119e-02 -4.501566e-02 1.568510e+00
<VARIANCE> 25
 4.391465e+01 3.904692e+01 1.298685e+02 3.558741e+01 5.833644e+01 9.904431e+01 1.018098e+02 5.908879e+01 7.825139e+01 2.163092e+01 3.348295e+01 4.264620e+01 4.285980e+00 8.740021e+00 1.235224e+01 7.740247e+00 6.652732e+00 1.034058e+01 7.905211e+00 5.205687e+00 4.447946e+00 3.944522e+00 3.730764e+00 3.784703e+00 6.301491e+00
<GCONST> 1.173795e+02
~s "ST_sil_2_1"
<MEAN> 25
 -1.078105e+01 4.698559e+00 -1.850384e+00 3.659101e+00 4.907874e-01 2.615484e+00 2.112836e+00 -3.048229e-02 8.133932e-01 -1.993838e+00 5.810763e-01 5.263258e-01 -2.297417e-02 -9.054884e-04 1.542352e-02 2.356057e-02 1.951998e-02 1.641679e-02 3.883015e-02 2.308491e-02 -1.439242e-02 -1.739826e-02 2.139515e-03 1.705936e-02 -1.413150e-02
<VARIANCE> 25
 7.340922e+00 5.147912e+00 9.740790e+00 1.402697e+01 1.051840e+01 1.311551e+01 1.550574e+01 1.567318e+01 1.375674e+01 1.203185e+01 1.192518e+01 1.289519e+01 1.149195e-01 2.393867e-01 4.133534e-01 6.412138e-01 7.988033e-01 9.277009e-01 1.092646e+00 1.199892e+00 1.187343e+00 1.208676e+00 1.201188e+00 1.171533e+00 4.423527e-02
<GCONST> 6.769569e+01
~s "silst"
<MEAN> 25
 -1.598647e+01 3.433394e+00 -3.626470e-01 5.009684e+00 1.897075e+00 5.302578e+00 4.147445e+00 4.913630e+00 5.792140e+00 1.649426e+00 4.962243e+00 4.045248e+00 -9.365977e-03 -2.047931e-03 2.560830e-02 2.109030e-02 3.134799e-02 6.211466e-03 -7.001224e-03 -8.539759e-02 -8.831134e-02 -1.184803e-02 1.064375e-02 6.450451e-03 -1.928415e-03
<VARIANCE> 25
 7.129639e+00 3.737003e+00 5.302713e+00 1.039162e+01 1.014202e+01 9.912094e+00 1.151090e+01 1.562617e+01 1.283081e+01 1.012583e+01 8.623787e+00 7.806852e+00 4.253944e-02 1.169610e-01 2.338002e-01 3.132313e-01 4.854853e-01 4.454682e-01 7.435725e-01 1.214986e+00 1.317166e+00 1.075097e+00 7.757068e-01 8.400699e-01 4.115048e-02
<GCONST> 5.929683e+01
~s "ST_sil_3_1"
<MEAN> 25
 -1.599490e+01 3.433856e+00 -3.665605e-01 5.016097e+00 1.898856e+00 5.301984e+00 4.137860e+00 4.902905e+00 5.794371e+00 1.653675e+00 4.968487e+00 4.043845e+00 -9.611025e-03 -2.073444e-03 2.538577e-02 2.040605e-02 2.780577e-02 7.457901e-03 -3.700548e-03 -8.519966e-02 -8.973496e-02 -1.256409e-02 1.110955e-02 6.239496e-03 -1.938888e-03
<VARIANCE> 25
 7.131536e+00 3.731742e+00 5.281112e+00 1.039107e+01 1.013281e+01 9.903814e+00 1.154247e+01 1.564368e+01 1.280601e+01 1.010347e+01 8.619841e+00 7.789594e+00 4.253944e-02 1.167529e-01 2.333162e-01 3.126608e-01 4.900448e-01 4.459651e-01 7.487019e-01 1.213970e+00 1.314943e+00 1.072942e+00 7.735696e-01 8.387504e-01 4.115048e-02
<GCONST> 5.928964e+01
~s "ST_sil_4_1"
<MEAN> 25
 -8.297050e+00 4.497792e+00 7.741444e-01 3.710085e+00 1.486249e+00 2.643570e+00 2.109785e+00 4.840066e-01 -1.585646e-01 -2.384382e+00 5.233330e-02 8.266835e-01 3.753677e-01 4.088219e-02 3.812833e-02 -6.678560e-02 -5.720648e-02 -2.181341e-01 -2.982427e-01 -7.465211e-02 -4.971475e-02 -1.915614e-02 -1.518488e-01 -2.061377e-01 2.895225e-01
<VARIANCE> 25
 4.255044e+01 3.392802e+01 2.517680e+01 2.552517e+01 1.982687e+01 2.344508e+01 2.171061e+01 2.118466e+01 1.976889e+01 1.887374e+01 1.587369e+01 1.338409e+01 2.668473e+00 2.633890e+00 1.743829e+00 1.888334e+00 2.109287e+00 2.567104e+00 1.865634e+00 1.678875e+00 1.690823e+00 1.670051e+00 1.490481e+00 1.219411e+00 4.192522e+00
<GCONST> 9.228230e+01
~s "ST_iy_2_1"
<MEAN> 25
 6.437810e+00 1.781814e+01 7.128918e+00 5.014734e+00 -5.782636e+00 -2.448071e+00 -4.620489e-01 -4.241142e+00 -2.335442e+00 -4.284323e+00 -2.191261e+00 -2.371705e+00 -1.837290e+00 -9.493797e-01 -2.368535e-01 8.171906e-01 1.236738e+00 6.363736e-01 -2.158512e-01 6.056703e-03 2.878682e-01 1.364604e-01 -6.093941e-02 8.595893e-03 -1.114272e+00
<VARIANCE> 25
 5.209716e+01 3.170531e+01 2.354011e+01 1.304575e+01 1.650425e+01 1.659500e+01 1.537246e+01 2.510130e+01 1.467459e+01 1.757301e+01 1.960388e+01 1.313722e+01 1.333613e+00 1.774396e+00 2.220659e+00 9.721482e-01 1.198424e+00 1.687556e+00 1.286220e+00 2.133127e+00 1.663294e+00 1.404374e+00 1.343610e+00 1.598972e+00 3.886938e-01
<GCONST> 8.576822e+01
~s "ST_iy_3_1"
<MEAN> 25
 -5.887732e+00 9.479967e+00 1.089351e+00 7.509719e+00 1.613536e+00 2.701115e+00 5.975685e-01 -3.964031e+00 -1.899519e+00 -3.583584e+00 5.578856e-02 1.081596e+00 -1.214609e+00 -1.045057e+00 -8.851376e-01 -3.645672e-01 3.990203e-01 4.713315e-01 3.262934e-01 4.606582e-01 1.097255e-01 -2.718671e-02 1.509673e-01 1.392920e-01 -6.330817e-01
<VARIANCE> 25
 1.273006e+01 1.573228e+01 1.287100e+01 1.799336e+01 8.058839e+00 1.531381e+01 9.299520e+00 1.771873e+01 1.718811e+01 1.685749e+01 2.140285e+01 2.900909e+01 1.250544e+00 1.728793e+00 1.553717e+00 1.231397e+00 8.792094e-01 7.627060e-01 1.497483e+00 1.800508e+00 1.471883e+00 1.903009e+00 1.026733e+00 1.520666e+00 2.604468e-01
<GCONST> 8.085404e+01
~s "ST_iy_4_1"
<MEAN> 25
 -8.611512e+00 5.590321e+00 5.418102e-01 7.382339e+00 2.076031e+00 2.504738e+00 2.134571e+00 -1.486086e+00 -2.269199e+00 -3.936065e+00 -1.122904e+00 -5.804545e-01 -1.808953e-01 -8.350383e-02 -5.325521e-02 -3.619744e-02 -2.498604e-02 -4.005258e-02 1.088457e-01 1.695973e-01 1.465623e-01 9.943084e-02 6.775451e-04 -7.954394e-02 -9.936834e-02
<VARIANCE> 25
 5.749296e+00 8.147746e+00 1.159633e+01 1.828581e+01 1.071553e+01 1.117750e+01 1.055757e+01 1.215146e+01 1.192791e+01 1.547837e+01 1.537204e+01 1.267468e+01 2.462702e-01 5.863498e-01 8.782232e-01 8.759158e-01 1.005641e+00 9.013441e-01 9.126161e-01 7.458807e-01 1.304501e+00 1.341021e+00 1.602489e+00 1.635903e+00 6.818126e-02
<GCONST> 7.143797e+01
~s "ST_ae_2_1"
<MEAN> 25
 2.025618e+01 -2.502440e+01 -3.274114e+00 2.289644e+00 -7.193294e+00 -6.439385e+00 6.135485e+00 1.976621e+00 -4.543180e-01 2.255187e+00 -1.065409e+01 -2.633278e+00 -7.836598e-01 -1.010867e+00 1.930436e+00 -4.649359e-01 -7.843472e-01 -3.393655e-01 1.157171e+00 9.428539e-01 -1.053139e+00 -7.705982e-01 -4.098670e-01 2.934040e-01 5.611724e-01
<VARIANCE> 25
 1.397875e+01 1.694428e+01 5.238636e+01 5.642501e+01 4.131937e+01 1.876438e+01 4.548304e+01 4.423460e+01 2.231542e+01 2.559667e+01 2.111209e+01 1.725091e+01 7.877857e-01 2.495755e+00 3.258021e+00 3.790933e+00 5.014435e+00 1.826074e+00 2.914118e+00 4.414758e+00 2.936699e+00 2.502554e+00 3.796963e+00 1.582416e+00 3.726748e-01
<GCONST> 9.667103e+01
~s "ST_ae_3_1"
<MEAN> 25
 1.529098e+01 -2.300778e+01 5.956641e+00 -5.780633e+00 -3.664001e+00 -6.908584e+00 2.801504e+00 1.388960e+01 -7.374294e+00 -4.719460e+00 -3.189341e+00 -5.512494e+00 -1.343291e-01 8.652448e-01 3.248470e-01 6.104091e-01 -6.469135e-01 -3.203198e-01 1.132437e+00 5.786536e-01 -1.501227e+00 -3.304524e-01 8.797849e-01 -5.088575e-01 -5.867134e-01
<VARIANCE> 25
 2.343048e+01 1.920865e+01 5.356413e+01 1.221331e+02 3.847051e+01 3.510119e+01 2.804576e+01 3.001199e+01 3.826828e+01 1.602537e+01 2.136271e+01 2.696456e+01 5.033466e-01 6.751900e-01 1.598151e+00 1.457739e+00 1.876154e+00 9.953008e-01 1.190466e+00 9.738992e-01 1.386959e+00 1.820657e+00 1.120441e+00 9.696255e-01 4.351922e-01
<GCONST> 8.827697e+01
~s "ST_ae_4_1"
<MEAN> 25
 1.705972e+01 -1.450831e+01 3.887563e+00 2.634796e+00 -1.231838e+01 -7.457999e+00 1.333223e+01 5.083201e+00 -1.199177e+01 -5.064313e-01 -1.737558e+00 -5.728398e+00 -1.331987e-01 2.321637e+00 5.259285e-01 -4.793912e-01 -6.125461e-01 7.777120e-01 1.140505e+00 -1.334818e+00 -1.695659e+00 1.071248e+00 7.433273e-01 -2.850998e-01 -1.128256e+00
<VARIANCE> 25
 1.624619e+01 4.820904e+01 8.970424e+01 1.013596e+02 4.915341e+01 2.509994e+01 3.931107e+01 7.885312e+01 3.112541e+01 3.301220e+01 3.206165e+01 3.071729e+01 3.175993e-01 2.129034e+00 2.617376e+00 2.423605e+00 2.304070e+00 2.113308e+00 2.781079e+00 2.128381e+00 1.597634e+00 2.301033e+00 1.630206e+00 1.755723e+00 1.300558e+00
<GCONST> 9.814335e+01
~s "ST_w_2_1"
<MEAN> 25
 2.629110e+01 -8.209124e-01 -1.047833e+01 -1.468948e+01 -1.533253e+00 3.188457e+00 1.268596e+00 -6.713778e+00 -1.153842e+01 4.297786e+00 6.982038e+00 -1.975979e+00 8.338717e-01 -3.735768e+00 1.166992e-01 2.041776e+00 4.766171e-02 -2.547297e+00 1.076458e-01 2.376808e-02 -4.894973e-01 2.290541e+00 2.588332e-01 -1.917033e+00 2.381224e+00
<VARIANCE> 25
 1.400631e+01 5.471815e+01 3.845349e+01 7.827290e+01 5.041048e+01 3.434686e+01 4.571021e+01 3.000303e+01 4.786556e+01 3.986114e+01 2.320053e+01 2.086160e+01 2.165061e+00 2.473182e+00 6.384281e+00 6.100482e+00 9.463574e+00 7.400265e+00 5.771115e+00 3.698088e+00 7.054089e+00 2.389296e+00 4.461957e+00 3.101308e+00 2.029816e+00
<GCONST> 1.078243e+02
~s "ST_w_3_1"
<MEAN> 25
 2.309337e+01 -1.366363e+01 -6.727281e+00 -7.405550e+00 4.999171e-01 -4.933193e+00 -2.743363e+00 -1.255831e+00 -6.167683e+00 7.670446e+00 4.120619e+00 -1.011084e+01 -1.086228e+00 -2.175624e+00 1.034483e+00 1.876699e+00 -3.046187e-01 -1.779658e+00 -2.519078e-01 1.828818e+00 2.596019e+00 -1.218818e+00 -2.223009e+00 -1.358089e+00 1.139153e+00
<VARIANCE> 25
 2.554935e+01 1.742373e+01 4.064219e+01 8.128714e+01 5.257925e+01 6.459657e+01 7.918818e+01 7.311121e+01 7.065722e+01 4.945840e+01 4.030356e+01 3.226422e+01 4.709446e-01 2.354162e+00 2.201468e+00 2.028894e+00 3.394931e+00 3.043215e+00 3.863251e+00 2.610129e+00 4.146430e+00 2.449998e+00 2.117136e+00 3.162447e+00 5.553559e-01
<GCONST> 1.021493e+02
~s "ST_w_4_1"
<MEAN> 25
 2.059438e+01 -1.872071e+01 -2.949788e+00 -1.136279e+00 -5.963223e+00 -8.325863e+00 -1.824528e-01 3.842554e+00 -1.179756e-01 1.330172e+00 -3.196170e+00 -1.001766e+01 -2.630745e-02 -4.202151e-01 3.641157e-01 7.911090e-01 -1.088561e+00 2.709903e-01 5.456529e-01 -7.676701e-02 7.375002e-01 -5.661559e-01 -1.570699e+00 4.595584e-01 -1.973287e-01
<VARIANCE> 25
 2.470296e+01 1.592911e+01 3.662468e+01 5.470665e+01 5.284138e+01 2.851111e+01 4.841063e+01 8.777718e+01 5.185894e+01 4.550782e+01 3.817208e+01 2.506181e+01 6.031708e-01 7.153771e-01 1.164386e+00 1.353705e+00 1.669478e+00 2.723463e+00 1.789502e+00 3.515083e+00 2.897072e+00 3.140262e+00 2.083704e+00 2.560581e+00 3.312204e-01
<GCONST> 9.557205e+01
~s "ST_ng_2_1"
<MEAN> 25
 1.752931e+01 -3.613167e+00 4.591131e+00 -1.339558e+00 -1.172753e+01 -1.878535e+00 1.394331e+01 -2.230601e+00 -1.767003e+01 2.553115e+00 8.903673e-01 -3.304141e+00 1.160416e+00 4.551583e+00 -3.397662e+00 9.952725e-01 1.353779e+00 1.559012e+00 -1.425981e+00 -3.743293e+00 1.286619e+00 -1.065962e-01 4.118685e-01 9.937377e-01 -2.625703e+00
<VARIANCE> 25
 1.099749e+01 5.748703e+01 8.593309e+01 6.805870e+01 7.717943e+01 3.425348e+01 6.434299e+01 1.017628e+02 4.663973e+01 3.155418e+01 2.318845e+01 2.555598e+01 8.540716e-01 2.917479e+00 5.890845e+00 1.099384e+01 7.218229e+00 4.436223e+00 1.461719e+01 7.421618e+00 7.046979e+00 4.284593e+00 3.099550e+00 2.437605e+00 7.417913e-01
<GCONST> 1.097835e+02
~s "ST_ng_3_1"
<MEAN> 25
 2.022768e+01 1.089747e+01 -4.255260e+00 -3.639744e+00 -3.374325e+00 1.462413e+00 2.369574e-01 -8.905273e+00 -8.230928e+00 -8.112577e-01 8.325330e-01 -4.249998e-01 -6.552956e-01 -8.851157e-01 5.593557e-01 -1.000226e+00 2.338593e+00 -1.056265e+00 -3.282214e+00 1.441597e+00 1.828884e+00 2.009506e-01 -1.095296e+00 -4.472855e-01 6.423501e-01
<VARIANCE> 25
 5.991808e+00 2.750373e+01 4.545575e+01 4.217830e+01 6.854897e+01 4.871887e+01 6.461585e+01 6.845744e+01 3.517393e+01 2.199600e+01 2.483005e+01 2.363036e+01 9.500210e-01 1.115906e+01 4.941330e+00 8.150699e+00 9.201188e+00 5.882932e+00 7.977481e+00 7.476601e+00 3.565232e+00 3.428649e+00 3.914526e+00 2.656828e+00 3.104066e+00
<GCONST> 1.082588e+02
~s "ST_m_2_1"
<MEAN> 25
 2.871683e+00 4.050794e+00 8.710183e+00 -7.386724e+00 7.509267e+00 -1.167739e+01 -5.565594e+00 3.139165e+00 5.368807e-01 -3.481834e+00 -3.980424e+00 2.340489e+00 1.778531e+00 -1.088010e+00 8.849134e-01 -1.229892e+00 2.545345e-01 -4.529669e-01 -1.166364e+00 -8.642653e-01 5.926155e-02 2.740282e-01 -5.483311e-02 -3.684058e-01 3.373718e+00
<VARIANCE> 25
 6.824131e+01 8.029033e+01 5.982531e+01 6.462871e+01 9.497157e+01 7.334653e+01 1.372701e+02 7.701730e+01 5.304527e+01 6.056589e+01 5.323070e+01 3.324521e+01 1.404247e+01 1.164292e+01 5.190157e+00 8.661589e+00 1.438004e+01 8.811324e+00 1.120745e+01 1.178117e+01 8.942004e+00 1.022365e+01 6.504756e+00 4.624383e+00 4.913756e+00
<GCONST> 1.246227e+02
~s "ST_ng_4_1"
<MEAN> 25
 1.572923e+01 -8.537577e+00 2.418839e+00 -2.090810e+01 1.175777e+01 -1.451901e+00 -1.870481e+01 4.980472e+00 -1.998912e-01 8.663802e+00 -5.682195e+00 -4.620478e+00 7.690252e-02 -1.457922e+00 2.971940e-01 -1.870996e+00 5.167611e-01 6.852322e-01 -1.481962e+00 1.327621e-01 7.560236e-01 9.189944e-01 -1.825737e-01 -5.937128e-02 1.226016e+00
<VARIANCE> 25
 7.024655e+00 1.592614e+01 3.782888e+01 1.043276e+02 5.858313e+01 5.713243e+01 3.557418e+01 5.974610e+01 2.123775e+01 4.154268e+01 4.130060e+01 2.534401e+01 5.955033e-01 6.846603e+00 4.044183e+00 8.727023e+00 8.233793e+00 5.686204e+00 6.245167e+00 1.132546e+01 3.630564e+00 2.726299e+00 3.899635e+00 2.507986e+00 3.179247e+00
<GCONST> 1.072620e+02
~s "ST_m_3_1"
<MEAN> 25
 2.267894e+01 -1.140145e+01 8.486186e+00 -1.816527e+01 2.401593e+00 1.152282e+00 -1.248668e+01 -1.065659e+01 -7.654782e-01 7.770781e+00 -2.291118e+00 -2.395890e+00 2.420728e+00 1.553420e-01 -2.035576e+00 -2.406673e-01 -1.273700e+00 3.401718e+00 1.072765e+00 -6.300433e-01 -7.850427e-01 -3.319700e-02 5.277942e-01 8.783411e-01 -1.286746e+00
<VARIANCE> 25
 1.648455e+01 7.143861e+00 2.655589e+01 9.876431e+01 4.289408e+01 1.484263e+02 5.869907e+01 7.451507e+01 2.548783e+01 4.002354e+01 2.140152e+01 3.465807e+01 1.722323e+00 4.689476e+00 3.842089e+00 6.484156e+00 4.056091e+00 5.063123e+00 4.257824e+00 7.630570e+00 5.081250e+00 1.157618e+01 2.228794e+00 2.657091e+00 2.173845e+00
<GCONST> 1.077037e+02
~s "ST_er_2_1"
<MEAN> 25
 -5.704800e+00 3.303756e+00 5.457999e+00 -9.412452e+00 9.244159e+00 -9.191640e+00 2.097550e+00 4.204904e+00 4.589043e-01 -3.426877e+00 1.242918e+00 2.936506e+00 -2.306559e+00 1.755481e-01 8.087470e-01 -2.246886e-02 -3.504572e-01 -9.757878e-01 1.744154e+00 4.798986e-01 -2.506595e-01 -7.563004e-01 6.978275e-01 6.058105e-01 -3.293723e-01
<VARIANCE> 25
 1.557047e+02 4.674852e+01 5.852183e+01 3.779614e+01 6.735731e+01 7.010918e+01 8.428281e+01 6.303484e+01 5.203625e+01 4.957571e+01 4.284059e+01 4.447538e+01 1.957035e+01 8.928013e+00 6.798508e+00 4.320228e+00 1.090893e+01 6.149662e+00 6.152445e+00 7.556272e+00 5.761226e+00 6.653600e+00 4.435761e+00 5.504482e+00 1.298791e+00
<GCONST> 1.186785e+02
~s "ST_m_4_1"
<MEAN> 25
 2.111681e+01 -5.940838e+00 2.902743e+00 -6.105265e+00 -3.176526e+00 2.192644e+00 1.290872e+00 -6.889614e+00 -6.448863e+00 6.480452e-01 -3.515303e-01 -9.437286e-01 -2.914899e-01 4.477744e-01 -7.389607e-02 3.817450e-01 -3.640134e-02 -3.147773e-01 1.248330e-01 2.870968e-01 -2.529406e-02 -7.987906e-02 1.927648e-02 -1.960214e-01 -5.771319e-01
<VARIANCE> 25
 6.066084e+01 1.078025e+02 1.337574e+02 1.936217e+02 1.141451e+02 8.571626e+01 1.062700e+02 1.477564e+02 8.704297e+01 7.234768e+01 4.600207e+01 3.047585e+01 1.928743e+00 7.661403e+00 8.757025e+00 1.104883e+01 4.827021e+00 4.112979e+00 5.630325e+00 9.276232e+00 7.006380e+00 7.416646e+00 4.684726e+00 3.777432e+00 6.683410e+00
<GCONST> 1.226708e+02
~s "ST_er_3_1"
<MEAN> 25
 1.295487e+01 -1.128110e+01 9.533892e+00 -3.645118e+00 -6.486077e+00 -1.226193e+01 1.214769e+00 4.959079e+00 -3.607803e+00 1.310911e+00 -8.633462e-01 8.981687e-01 3.188391e+00 -1.698342e+00 -4.293464e-01 1.218317e+00 -1.227063e+00 3.921180e-01 -1.606975e+00 -3.728887e-01 1.451445e-01 8.057282e-01 -1.237903e+00 -5.700443e-01 8.901619e-01
<VARIANCE> 25
 9.405939e+01 4.267263e+01 5.066471e+01 5.797576e+01 4.660521e+01 7.271512e+01 8.182336e+01 4.068532e+01 4.825025e+01 5.744292e+01 5.633295e+01 2.973664e+01 1.453608e+01 5.633409e+00 5.508614e+00 6.233453e+00 6.916381e+00 6.781426e+00 5.531651e+00 5.903241e+00 8.141294e+00 7.305545e+00 5.503489e+00 3.249835e+00 4.820201e+00
<GCONST> 1.176373e+02
~s "ST_ah_2_1"
<MEAN> 25
 2.059478e+01 -6.649081e+00 -4.615307e+00 -1.299907e+01 4.610292e+00 1.933560e+00 -8.093016e+00 -6.090001e+00 1.027369e-01 7.127258e+00 -6.902315e+00 -3.114615e+00 2.127152e-01 1.687189e+00 -8.358137e-01 1.351997e+00 -7.024418e-01 2.751082e-01 2.488485e-01 -1.179913e+00 9.082328e-02 -5.763280e-01 8.213194e-02 3.767517e-01 -1.458755e+00
<VARIANCE> 25
 1.483274e+01 4.903052e+01 4.940250e+01 1.681828e+02 9.295347e+01 9.572971e+01 8.386087e+01 1.035760e+02 6.369992e+01 8.940054e+01 4.547649e+01 4.154379e+01 9.315490e-01 5.171006e+00 3.986220e+00 7.425243e+00 5.920681e+00 7.275479e+00 6.197098e+00 8.246397e+00 5.075562e+00 4.463660e+00 4.881357e+00 3.088345e+00 3.077324e+00
<GCONST> 1.155298e+02
~s "ST_er_4_1"
<MEAN> 25
 1.786123e+01 -1.041040e+01 2.533352e+00 5.023307e+00 -5.432981e+00 -6.524259e+00 -7.749192e+00 -5.762845e-01 5.722272e+00 6.974609e-01 -6.433389e+00 -2.051041e-01 -1.329545e+00 2.069833e+00 -7.816957e-01 7.888949e-01 7.313304e-01 3.991259e-01 -5.511639e-01 1.301778e-02 1.210003e+00 -4.293922e-01 3.978372e-01 6.485202e-01 -2.517754e+00
<VARIANCE> 25
 4.325590e+01 6.223181e+01 9.480044e+01 5.215805e+01 5.189274e+01 5.326720e+01 4.019546e+01 3.850265e+01 4.309712e+01 3.503661e+01 2.721990e+01 3.300698e+01 6.168121e+00 4.821110e+00 1.355719e+01 8.462520e+00 4.280365e+00 7.967666e+00 5.361322e+00 6.311886e+00 3.906754e+00 4.033974e+00 3.959205e+00 2.649659e+00 4.478668e+00
<GCONST> 1.135338e+02
~s "ST_ah_3_1"
<MEAN> 25
 2.350543e+01 -2.527841e+00 -1.219189e+01 -3.350108e+00 -1.135316e+00 -1.689112e+00 -2.577964e+00 -1.134448e+01 -4.295630e+00 6.074893e+00 -4.456128e-01 -7.107501e+00 -3.271614e-01 1.792174e+00 -3.992561e-02 -6.195725e-01 5.411865e-01 8.788460e-01 -5.990738e-01 -2.337751e-01 6.499282e-02 -4.898596e-01 1.822137e-02 3.564143e-01 -1.121471e+00
<VARIANCE> 25
 1.274311e+01 5.550081e+01 1.996090e+01 5.568375e+01 5.695818e+01 3.326838e+01 5.042612e+01 3.514325e+01 4.180267e+01 3.042595e+01 2.635766e+01 2.684527e+01 6.446959e-01 2.626687e+00 1.544648e+00 2.588281e+00 4.197113e+00 2.233312e+00 3.222294e+00 3.055532e+00 2.291015e+00 2.596279e+00 1.961434e+00 1.227599e+00 1.235301e+00
<GCONST> 9.756934e+01
~s "ST_ah_4_1"
<MEAN> 25
 1.637935e+01 1.061291e+01 -4.328549e+00 -5.450623e+00 1.426546e+00 2.353662e+00 -6.247297e+00 -7.443704e+00 -1.274312e+00 -2.968577e-01 -2.148457e+00 -3.217448e+00 -2.401324e+00 1.828490e+00 2.690159e+00 5.037174e-01 -1.570412e+00 -1.145985e-01 1.126429e+00 8.402156e-01 -2.605746e-01 -7.750613e-01 6.681179e-01 5.326262e-01 -2.166430e+00
<VARIANCE> 25
 3.156355e+01 5.812902e+01 7.382028e+01 6.126113e+01 6.617330e+01 4.580456e+01 5.226387e+01 3.326904e+01 4.122872e+01 3.756479e+01 2.642673e+01 2.357253e+01 3.226179e+00 4.958680e+00 3.595850e+00 3.823599e+00 4.085720e+00 3.160724e+00 3.441826e+00 3.433559e+00 3.223605e+00 3.564777e+00 2.323644e+00 2.313502e+00 2.158214e+00
<GCONST> 1.064497e+02
~s "ST_z_2_1"
<MEAN> 25
 -6.518423e+00 9.838721e-01 -2.418797e+00 1.889719e-01 5.856444e-01 7.377886e-01 -1.373402e+00 2.653589e+00 1.018077e+00 4.111160e-01 9.593229e-01 9.604424e-01 -5.617189e-03 2.039660e-02 -4.418901e-02 -1.816973e-02 1.519394e-02 2.215881e-02 1.494174e-03 9.144417e-02 6.770557e-02 -3.352167e-02 -5.868338e-02 1.774897e-03 -2.319149e-02
<VARIANCE> 25
 2.285064e+00 1.975359e+00 5.557097e+00 1.034917e+01 1.438799e+01 1.006790e+01 1.265583e+01 1.062367e+01 1.307991e+01 1.114256e+01 9.446322e+00 8.126401e+00 1.237170e-01 2.712599e-01 3.747272e-01 8.503027e-01 6.896017e-01 8.217142e-01 1.328092e+00 1.319833e+00 1.211958e+00 1.331365e+00 1.035657e+00 8.318378e-01 4.115048e-02
<GCONST> 6.329951e+01
~s "ST_z_3_1"
<MEAN> 25
 -7.714550e+00 -1.194772e+00 -2.812625e+00 1.150631e+00 -1.004604e+00 1.116993e-01 4.204257e-01 2.648464e+00 3.432970e+00 -3.029962e-02 -8.391860e-01 2.869362e-01 1.880082e-01 1.124822e-01 1.740716e-01 3.765646e-02 9.806880e-02 1.829637e-01 4.742962e-02 -4.586522e-03 1.829485e-01 8.067078e-03 -5.974557e-02 -2.041947e-01 1.066479e-01
<VARIANCE> 25
 6.169014e+00 1.366799e+01 2.433209e+01 9.389484e+00 7.806393e+00 1.125975e+01 1.867463e+01 1.355193e+01 2.968616e+01 9.445581e+00 1.291372e+01 1.186494e+01 8.085348e-01 1.606559e+00 3.688569e+00 1.571249e+00 1.202016e+00 1.258018e+00 2.410415e+00 1.398425e+00 4.591599e+00 9.939120e-01 1.313024e+00 1.835447e+00 7.498844e-01
<GCONST> 8.224815e+01
~s "ST_z_4_1"
<MEAN> 25
 -1.155113e+00 6.342056e+00 2.944540e-01 -1.951622e+00 4.907390e+00 -2.211827e+00 -3.823941e+00 4.800228e-01 1.794045e+00 -3.689351e+00 -3.983302e+00 -2.279316e-01 -3.494175e-01 5.488036e-01 1.242156e+00 -3.169385e-01 9.816059e-01 -4.814130e-01 -9.414569e-01 -9.178254e-01 -1.578150e+00 -8.357293e-01 6.387554e-03 4.817336e-02 1.053182e+00
<VARIANCE> 25
 2.364385e+01 1.823773e+01 2.657813e+01 1.989709e+01 3.356903e+01 2.500965e+01 3.081415e+01 2.103944e+01 1.931543e+01 1.324055e+01 2.319062e+01 8.378561e+00 3.922982e+00 6.000497e-01 2.339719e+00 1.161933e+00 1.710893e+00 2.441702e+00 4.634715e+00 2.057991e+00 3.033152e+00 1.282527e+00 1.964544e+00 8.035316e-01 7.276232e-01
<GCONST> 8.934327e+01
~s "ST_eh_2_1"
<MEAN> 25
 2.125445e+01 -1.740904e+01 -8.062808e-01 4.528161e+00 -1.163467e+01 -4.783341e+00 3.076094e+00 -2.876912e+00 6.399767e-01 4.430862e+00 -7.258908e+00 -3.704456e+00 7.279051e-02 8.441356e-01 -2.403373e-01 6.075547e-01 1.866099e-01 -4.353392e-01 1.420684e-01 -3.405386e-01 -3.211926e-01 2.358951e-01 -2.316713e-01 4.100512e-01 -7.708815e-01
<VARIANCE> 25
 1.881574e+01 1.873599e+01 4.282555e+01 4.510759e+01 2.669338e+01 5.009992e+01 4.092665e+01 4.952451e+01 5.296701e+01 3.194965e+01 4.314290e+01 2.997930e+01 2.571549e+00 2.400405e+00 6.510875e+00 5.592772e+00 4.210171e+00 5.274802e+00 3.509879e+00 6.594725e+00 5.416369e+00 4.133993e+00 4.128709e+00 2.752678e+00 2.405966e+00
<GCONST> 1.068643e+02
~s "ST_eh_3_1"
<MEAN> 25
 1.922850e+01 -4.837514e+00 -5.762323e+00 6.458517e+00 -2.339587e+00 -8.732313e+00 -7.052455e-01 1.882403e-01 1.324857e+00 -4.707138e-01 -6.951778e+00 -1.100120e+00 -1.671985e+00 4.201601e+00 -1.035383e+00 -2.722229e-01 2.801796e+00 5.848921e-01 -1.477797e+00 1.666161e+00 1.441411e+00 -2.114597e+00 8.689654e-01 8.298873e-01 -3.628878e+00
<VARIANCE> 25
 2.802547e+01 4.883943e+01 4.705892e+01 6.295392e+01 5.810281e+01 3.585181e+01 4.911518e+01 5.920013e+01 5.457898e+01 5.397626e+01 4.283900e+01 3.539934e+01 2.120247e+00 4.515089e+00 3.864187e+00 7.580065e+00 6.116202e+00 5.531890e+00 4.401836e+00 7.100801e+00 3.147363e+00 4.861365e+00 5.058222e+00 1.642037e+00 2.411065e+00
<GCONST> 1.104163e+02
~s "ST_eh_4_1"
<MEAN> 25
 5.761818e+00 6.793053e+00 -3.376134e+00 1.316549e+00 8.463611e-02 -2.510648e+00 -2.694587e+00 3.012081e+00 4.453653e+00 -2.343304e+00 -3.797348e+00 -9.111469e-01 -2.489088e+00 6.747375e-01 6.121900e-01 -6.035041e-01 -4.099033e-01 1.084809e+00 1.795649e-01 -5.300632e-01 -1.250269e-01 3.547823e-01 7.412586e-01 7.600966e-02 -2.098894e+00
<VARIANCE> 25
 1.160531e+02 6.937619e+01 6.255202e+01 2.370262e+01 3.123928e+01 2.700031e+01 3.506357e+01 2.837726e+01 2.939981e+01 2.506035e+01 1.643418e+01 1.688617e+01 3.173252e+00 6.241162e+00 5.137152e+00 3.761011e+00 3.491933e+00 2.262922e+00 2.711591e+00 2.717080e+00 2.555527e+00 2.596125e+00 1.994570e+00 1.770619e+00 2.785554e+00
<GCONST> 1.023003e+02
~s "ST_ih_2_1"
<MEAN> 25
 -1.221251e+01 3.789995e+00 -6.635716e-01 -6.715866e-01 5.685505e-01 3.465638e+00 1.268167e+00 -2.862273e-01 9.361444e-01 -1.665910e+00 3.111882e+00 3.523975e+00 5.623578e-01 -2.297750e-01 -1.625323e-01 -3.506085e-01 -2.399000e-01 -2.942986e-01 -2.179311e-01 -7.311165e-03 -2.419033e-01 -1.776124e-01 -2.466197e-01 -3.513837e-01 5.367321e-01
<VARIANCE> 25
 4.667219e+01 1.731351e+01 1.376187e+01 3.081834e+01 1.467867e+01 3.017172e+01 1.707771e+01 1.428951e+01 1.403621e+01 1.419489e+01 1.361982e+01 1.196552e+01 3.138003e+00 1.447863e+00 1.333042e+00 2.059072e+00 2.027164e+00 2.518314e+00 1.898399e+00 1.665918e+00 1.686694e+00 1.401742e+00 1.512408e+00 1.323099e+00 5.972864e+00
<GCONST> 8.931665e+01
~s "ST_ih_3_1"
<MEAN> 25
 -1.087899e+01 2.537944e+00 -2.801058e+00 2.046371e+00 1.060324e+00 3.080162e+00 2.766387e+00 9.801055e-01 7.276949e-01 -2.144750e+00 2.353167e-01 6.835781e-01 3.196508e-01 -2.394989e-01 2.578663e-01 3.776398e-01 3.930860e-01 2.926309e-02 -4.542070e-02 -3.422458e-02 9.795039e-02 9.527341e-02 -2.525576e-01 -2.380217e-01 4.447157e-01
<VARIANCE> 25
 3.378334e+01 2.498179e+01 1.151736e+01 2.023626e+01 1.836065e+01 1.430216e+01 2.113334e+01 1.789695e+01 1.252611e+01 1.510658e+01 1.444393e+01 1.240092e+01 1.074147e+00 1.392817e+00 7.901866e-01 1.056700e+00 1.225468e+00 1.176075e+00 1.195489e+00 1.863059e+00 1.823556e+00 1.869661e+00 1.352571e+00 1.392418e+00 9.160501e-01
<GCONST> 8.323418e+01
~s "ST_ih_4_1"
<MEAN> 25
 -6.974964e+00 5.800001e-01 -1.031242e+00 4.517260e+00 2.246402e+00 1.661254e+00 1.527595e+00 1.693734e+00 2.971644e+00 -1.256501e+00 -8.229843e-02 3.070514e-01 1.095450e+00 -1.166301e+00 1.042660e+00 4.088674e-01 5.974404e-01 -6.747780e-01 -3.388621e-01 -8.214546e-02 1.685106e-01 7.801829e-02 -1.943253e-01 -1.464197e-01 2.219331e+00
<VARIANCE> 25
 4.661894e+01 5.882700e+01 1.918219e+01 1.592283e+01 2.352101e+01 2.857127e+01 2.069358e+01 1.704403e+01 2.338632e+01 2.208250e+01 2.098827e+01 1.719027e+01 6.588991e+00 7.677228e+00 3.211812e+00 2.746574e+00 2.572375e+00 4.794462e+00 2.394265e+00 1.426570e+00 2.394468e+00 1.855299e+00 1.525631e+00 2.072203e+00 9.530869e+00
<GCONST> 9.883469e+01
~h "t+uw"
<BEGINHMM>
<NUMSTATES> 5
<STATE> 2
~s "ST_t_2_1"
<STATE> 3
~s "ST_t_3_1"
<STATE> 4
~s "ST_t_4_2"
~t "T_t"
<ENDHMM>
~h "t-uw"
<BEGINHMM>
<NUMSTATES> 5
<STATE> 2
~s "ST_uw_2_1"
<STATE> 3
~s "ST_uw_3_1"
<STATE> 4
~s "ST_uw_4_1"
~t "T_uw"
<ENDHMM>
~h "sp"
<BEGINHMM>
<NUMSTATES> 3
<STATE> 2
~s "ST_sil_3_1"
<TRANSP> 3
 0.000000e+00 3.408688e-03 9.965913e-01
 0.000000e+00 4.423183e-02 9.557681e-01
 0.000000e+00 0.000000e+00 0.000000e+00
<ENDHMM>
~h "aw+t"
<BEGINHMM>
<NUMSTATES> 5
<STATE> 2
~s "ST_aw_2_1"
<STATE> 3
~s "ST_aw_3_1"
<STATE> 4
~s "ST_aw_4_1"
~t "T_aw"
<ENDHMM>
~h "aw-t"
<BEGINHMM>
<NUMSTATES> 5
<STATE> 2
~s "ST_t_2_1"
<STATE> 3
~s "ST_t_3_1"
<STATE> 4
~s "ST_t_4_1"
~t "T_t"
<ENDHMM>
~h "ay-ae+ng"
<BEGINHMM>
<NUMSTATES> 5
<STATE> 2
~s "ST_ae_2_1"
<STATE> 3
~s "ST_ae_3_1"
<STATE> 4
~s "ST_ae_4_1"
~t "T_ae"
<ENDHMM>
~h "g-ah+l"
<BEGINHMM>
<NUMSTATES> 5
<STATE> 2
~s "ST_ah_2_1"
<STATE> 3
~s "ST_ah_3_1"
<STATE> 4
~s "ST_ah_4_1"
~t "T_ah"
<ENDHMM>
~h "r-eh+d"
<BEGINHMM>
<NUMSTATES> 5
<STATE> 2
~s "ST_eh_2_1"
<STATE> 3
~s "ST_eh_3_1"
<STATE> 4
~s "ST_eh_4_1"
~t "T_eh"
<ENDHMM>
~h "th+r"
<BEGINHMM>
<NUMSTATES> 5
<STATE> 2
~s "ST_th_2_1"
<STATE> 3
~s "ST_th_3_1"
<STATE> 4
~s "ST_th_4_1"
~t "T_th"
<ENDHMM>
~h "th-r+iy"
<BEGINHMM>
<NUMSTATES> 5
<STATE> 2
~s "ST_r_2_1"
<STATE> 3
~s "ST_r_3_1"
<STATE> 4
~s "ST_r_4_1"
~t "T_r"
<ENDHMM>
~h "r-ey+s"
<BEGINHMM>
<NUMSTATES> 5
<STATE> 2
~s "ST_ey_2_1"
<STATE> 3
~s "ST_ey_3_1"
<STATE> 4
~s "ST_ey_4_1"
~t "T_ey"
<ENDHMM>
~h "ng-g+ah"
<BEGINHMM>
<NUMSTATES> 5
<STATE> 2
~s "ST_g_2_1"
<STATE> 3
~s "ST_g_3_1"
<STATE> 4
~s "ST_g_4_1"
~t "T_g"
<ENDHMM>
~h "f+ih"
<BEGINHMM>
<NUMSTATES> 5
<STATE> 2
~s "ST_f_2_1"
<STATE> 3
~s "ST_f_3_1"
<STATE> 4
~s "ST_f_4_1"
~t "T_f"
<ENDHMM>
~h "w+ah"
<BEGINHMM>
<NUMSTATES> 5
<STATE> 2
~s "ST_w_2_1"
<STATE> 3
~s "ST_w_3_1"
<STATE> 4
~s "ST_w_4_1"
~t "T_w"
<ENDHMM>
~h "b+l"
<BEGINHMM>
<NUMSTATES> 5
<STATE> 2
~s "ST_b_2_1"
<STATE> 3
~s "ST_b_3_1"
<STATE> 4
~s "ST_b_4_1"
~t "T_b"
<ENDHMM>
~h "d+r"
<BEGINHMM>
<NUMSTATES> 5
<STATE> 2
~s "ST_d_2_1"
<STATE> 3
~s "ST_d_3_1"
<STATE> 4
~s "ST_d_4_1"
~t "T_d"
<ENDHMM>
~h "uw-m"
<BEGINHMM>
<NUMSTATES> 5
<STATE> 2
~s "ST_m_2_1"
<STATE> 3
~s "ST_m_3_1"
<STATE> 4
~s "ST_m_4_1"
~t "T_m"
<ENDHMM>
~h "r-ay+ae"
<BEGINHMM>
<NUMSTATES> 5
<STATE> 2
~s "ST_ay_2_1"
<STATE> 3
~s "ST_ay_3_1"
<STATE> 4
~s "ST_ay_4_1"
~t "T_ay"
<ENDHMM>
~h "s+k"
<BEGINHMM>
<NUMSTATES> 5
<STATE> 2
~s "ST_s_2_1"
<STATE> 3
~s "ST_s_3_1"
<STATE> 4
~s "ST_s_4_1"
~t "T_s"
<ENDHMM>
~h "sil"
<BEGINHMM>
<NUMSTATES> 5
<STATE> 2
~s "ST_sil_2_1"
<STATE> 3
~s "ST_sil_3_1"
<STATE> 4
~s "ST_sil_4_1"
<TRANSP> 5
 0.000000e+00 1.000000e+00 0.000000e+00 0.000000e+00 0.000000e+00
 0.000000e+00 9.399275e-01 8.017121e-03 5.205536e-02 0.000000e+00
 0.000000e+00 0.000000e+00 9.602308e-01 3.976912e-02 0.000000e+00
 0.000000e+00 6.920790e-02 0.000000e+00 7.112315e-01 2.195606e-01
 0.000000e+00 0.000000e+00 0.000000e+00 0.000000e+00 0.000000e+00
<ENDHMM>
~h "f-ih+l"
<BEGINHMM>
<NUMSTATES> 5
<STATE> 2
~s "ST_ih_2_1"
<STATE> 3
~s "ST_ih_3_1"
<STATE> 4
~s "ST_ih_4_1"
~t "T_ih"
<ENDHMM>
~h "s-k+w"
<BEGINHMM>
<NUMSTATES> 5
<STATE> 2
~s "ST_k_2_1"
<STATE> 3
~s "ST_k_3_1"
<STATE> 4
~s "ST_k_4_1"
~t "T_k"
<ENDHMM>
~h "b-l+uw"
<BEGINHMM>
<NUMSTATES> 5
<STATE> 2
~s "ST_l_2_1"
<STATE> 3
~s "ST_l_3_1"
<STATE> 4
~s "ST_l_4_1"
~t "T_l"
<ENDHMM>
~h "ae-ng+g"
<BEGINHMM>
<NUMSTATES> 5
<STATE> 2
~s "ST_ng_2_1"
<STATE> 3
~s "ST_ng_3_1"
<STATE> 4
~s "ST_ng_4_1"
~t "T_ng"
<ENDHMM>
~h "z+uw"
<BEGINHMM>
<NUMSTATES> 5
<STATE> 2
~s "ST_z_2_1"
<STATE> 3
~s "ST_z_3_1"
<STATE> 4
~s "ST_z_4_1"
~t "T_z"
<ENDHMM>
~h "r-iy+n"
<BEGINHMM>
<NUMSTATES> 5
<STATE> 2
~s "ST_iy_2_1"
<STATE> 3
~s "ST_iy_3_1"
<STATE> 4
~s "ST_iy_4_1"
~t "T_iy"
<ENDHMM>
~h "s-er+k"
<BEGINHMM>
<NUMSTATES> 5
<STATE> 2
~s "ST_er_2_1"
<STATE> 3
~s "ST_er_3_1"
<STATE> 4
~s "ST_er_4_1"
~t "T_er"
<ENDHMM>
~h "r-ao"
<BEGINHMM>
<NUMSTATES> 5
<STATE> 2
~s "ST_ao_2_1"
<STATE> 3
~s "ST_ao_3_1"
<STATE> 4
~s "ST_ao_4_1"
~t "T_ao"
<ENDHMM>
~h "ih-n"
<BEGINHMM>
<NUMSTATES> 5
<STATE> 2
~s "ST_n_2_1"
<STATE> 3
~s "ST_n_3_1"
<STATE> 4
~s "ST_n_4_1"
~t "T_n"
<ENDHMM>
