~o
<STREAMINFO> 1 25
<VECSIZE> 25<NULLD><MFCC_D_N_Z_0><DIAGC>
~t "T_b"
<TRANSP> 5
 0.000000e+00 1.000000e+00 0.000000e+00 0.000000e+00 0.000000e+00
 0.000000e+00 9.005612e-01 9.943876e-02 0.000000e+00 0.000000e+00
 0.000000e+00 0.000000e+00 7.785036e-01 2.214964e-01 0.000000e+00
 0.000000e+00 0.000000e+00 0.000000e+00 7.504149e-01 2.495851e-01
 0.000000e+00 0.000000e+00 0.000000e+00 0.000000e+00 0.000000e+00
~t "T_d"
<TRANSP> 5
 0.000000e+00 1.000000e+00 0.000000e+00 0.000000e+00 0.000000e+00
 0.000000e+00 9.253511e-01 7.464887e-02 0.000000e+00 0.000000e+00
 0.000000e+00 0.000000e+00 8.843564e-01 1.156436e-01 0.000000e+00
 0.000000e+00 0.000000e+00 0.000000e+00 6.388552e-01 3.611448e-01
 0.000000e+00 0.000000e+00 0.000000e+00 0.000000e+00 0.000000e+00
~t "T_f"
<TRANSP> 5
 0.000000e+00 1.000000e+00 0.000000e+00 0.000000e+00 0.000000e+00
 0.000000e+00 9.425370e-01 5.746301e-02 0.000000e+00 0.000000e+00
 0.000000e+00 0.000000e+00 6.366904e-01 3.633096e-01 0.000000e+00
 0.000000e+00 0.000000e+00 0.000000e+00 8.525405e-01 1.474595e-01
 0.000000e+00 0.000000e+00 0.000000e+00 0.000000e+00 0.000000e+00
~t "T_g"
<TRANSP> 5
 0.000000e+00 1.000000e+00 0.000000e+00 0.000000e+00 0.000000e+00
 0.000000e+00 7.559313e-01 2.440687e-01 0.000000e+00 0.000000e+00
 0.000000e+00 0.000000e+00 5.185599e-01 4.814402e-01 0.000000e+00
 0.000000e+00 0.000000e+00 0.000000e+00 2.146046e-01 7.853954e-01
 0.000000e+00 0.000000e+00 0.000000e+00 0.000000e+00 0.000000e+00
~t "T_k"
<TRANSP> 5
 0.000000e+00 1.000000e+00 0.000000e+00 0.000000e+00 0.000000e+00
 0.000000e+00 8.664759e-01 1.335241e-01 0.000000e+00 0.000000e+00
 0.000000e+00 0.000000e+00 7.690827e-01 2.309173e-01 0.000000e+00
 0.000000e+00 0.000000e+00 0.000000e+00 6.869097e-01 3.130903e-01
 0.000000e+00 0.000000e+00 0.000000e+00 0.000000e+00 0.000000e+00
~t "T_l"
<TRANSP> 5
 0.000000e+00 1.000000e+00 0.000000e+00 0.000000e+00 0.000000e+00
 0.000000e+00 5.774661e-01 4.225339e-01 0.000000e+00 0.000000e+00
 0.000000e+00 0.000000e+00 2.153339e-02 9.784666e-01 0.000000e+00
 0.000000e+00 0.000000e+00 0.000000e+00 5.451463e-01 4.548537e-01
 0.000000e+00 0.000000e+00 0.000000e+00 0.000000e+00 0.000000e+00
~t "T_m"
<TRANSP> 5
 0.000000e+00 1.000000e+00 0.000000e+00 0.000000e+00 0.000000e+00
 0.000000e+00 9.028296e-01 9.717037e-02 0.000000e+00 0.000000e+00
 0.000000e+00 0.000000e+00 8.367485e-01 1.632515e-01 0.000000e+00
 0.000000e+00 0.000000e+00 0.000000e+00 9.635732e-01 3.642682e-02
 0.000000e+00 0.000000e+00 0.000000e+00 0.000000e+00 0.000000e+00
~t "T_n"
<TRANSP> 5
 0.000000e+00 1.000000e+00 0.000000e+00 0.000000e+00 0.000000e+00
 0.000000e+00 8.057381e-01 1.942619e-01 0.000000e+00 0.000000e+00
 0.000000e+00 0.000000e+00 7.890107e-01 2.109893e-01 0.000000e+00
 0.000000e+00 0.000000e+00 0.000000e+00 9.602517e-01 3.974834e-02
 0.000000e+00 0.000000e+00 0.000000e+00 0.000000e+00 0.000000e+00
~t "T_r"
<TRANSP> 5
 0.000000e+00 1.000000e+00 0.000000e+00 0.000000e+00 0.000000e+00
 0.000000e+00 1.912065e-01 8.087935e-01 0.000000e+00 0.000000e+00
 0.000000e+00 0.000000e+00 9.992544e-03 9.900074e-01 0.000000e+00
 0.000000e+00 0.000000e+00 0.000000e+00 3.438185e-01 6.561815e-01
 0.000000e+00 0.000000e+00 0.000000e+00 0.000000e+00 0.000000e+00
~t "T_s"
<TRANSP> 5
 0.000000e+00 1.000000e+00 0.000000e+00 0.000000e+00 0.000000e+00
 0.000000e+00 6.523746e-01 3.476255e-01 0.000000e+00 0.000000e+00
 0.000000e+00 0.000000e+00 7.668526e-01 2.331474e-01 0.000000e+00
 0.000000e+00 0.000000e+00 0.000000e+00 8.568008e-01 1.431992e-01
 0.000000e+00 0.000000e+00 0.000000e+00 0.000000e+00 0.000000e+00
~t "T_t"
<TRANSP> 5
 0.000000e+00 1.000000e+00 0.000000e+00 0.000000e+00 0.000000e+00
 0.000000e+00 4.689150e-01 5.310851e-01 0.000000e+00 0.000000e+00
 0.000000e+00 0.000000e+00 6.442429e-01 3.557571e-01 0.000000e+00
 0.000000e+00 0.000000e+00 0.000000e+00 8.431303e-01 1.568697e-01
 0.000000e+00 0.000000e+00 0.000000e+00 0.000000e+00 0.000000e+00
~t "T_w"
<TRANSP> 5
 0.000000e+00 1.000000e+00 0.000000e+00 0.000000e+00 0.000000e+00
 0.000000e+00 6.832469e-01 3.167531e-01 0.000000e+00 0.000000e+00
 0.000000e+00 0.000000e+00 6.878915e-01 3.121084e-01 0.000000e+00
 0.000000e+00 0.000000e+00 0.000000e+00 7.731398e-01 2.268602e-01
 0.000000e+00 0.000000e+00 0.000000e+00 0.000000e+00 0.000000e+00
~t "T_z"
<TRANSP> 5
 0.000000e+00 1.000000e+00 0.000000e+00 0.000000e+00 0.000000e+00
 0.000000e+00 9.559402e-01 4.405983e-02 0.000000e+00 0.000000e+00
 0.000000e+00 0.000000e+00 8.212114e-01 1.787886e-01 0.000000e+00
 0.000000e+00 0.000000e+00 0.000000e+00 5.713685e-01 4.286315e-01
 0.000000e+00 0.000000e+00 0.000000e+00 0.000000e+00 0.000000e+00
~t "T_ae"
<TRANSP> 5
 0.000000e+00 1.000000e+00 0.000000e+00 0.000000e+00 0.000000e+00
 0.000000e+00 7.372277e-01 2.627723e-01 0.000000e+00 0.000000e+00
 0.000000e+00 0.000000e+00 7.903525e-01 2.096475e-01 0.000000e+00
 0.000000e+00 0.000000e+00 0.000000e+00 7.808338e-01 2.191662e-01
 0.000000e+00 0.000000e+00 0.000000e+00 0.000000e+00 0.000000e+00
~t "T_ah"
<TRANSP> 5
 0.000000e+00 1.000000e+00 0.000000e+00 0.000000e+00 0.000000e+00
 0.000000e+00 6.802570e-01 3.197430e-01 0.000000e+00 0.000000e+00
 0.000000e+00 0.000000e+00 7.813324e-01 2.186676e-01 0.000000e+00
 0.000000e+00 0.000000e+00 0.000000e+00 6.835964e-01 3.164036e-01
 0.000000e+00 0.000000e+00 0.000000e+00 0.000000e+00 0.000000e+00
~t "T_ao"
<TRANSP> 5
 0.000000e+00 1.000000e+00 0.000000e+00 0.000000e+00 0.000000e+00
 0.000000e+00 5.627264e-01 4.372736e-01 0.000000e+00 0.000000e+00
 0.000000e+00 0.000000e+00 4.657160e-01 5.342840e-01 0.000000e+00
 0.000000e+00 0.000000e+00 0.000000e+00 5.986466e-01 4.013534e-01
 0.000000e+00 0.000000e+00 0.000000e+00 0.000000e+00 0.000000e+00
~t "T_aw"
<TRANSP> 5
 0.000000e+00 1.000000e+00 0.000000e+00 0.000000e+00 0.000000e+00
 0.000000e+00 7.840974e-01 2.159026e-01 0.000000e+00 0.000000e+00
 0.000000e+00 0.000000e+00 7.686613e-01 2.313387e-01 0.000000e+00
 0.000000e+00 0.000000e+00 0.000000e+00 6.662546e-01 3.337454e-01
 0.000000e+00 0.000000e+00 0.000000e+00 0.000000e+00 0.000000e+00
~t "T_ay"
<TRANSP> 5
 0.000000e+00 1.000000e+00 0.000000e+00 0.000000e+00 0.000000e+00
 0.000000e+00 8.028202e-01 1.971798e-01 0.000000e+00 0.000000e+00
 0.000000e+00 0.000000e+00 8.759183e-01 1.240817e-01 0.000000e+00
 0.000000e+00 0.000000e+00 0.000000e+00 7.914027e-01 2.085973e-01
 0.000000e+00 0.000000e+00 0.000000e+00 0.000000e+00 0.000000e+00
~t "T_eh"
<TRANSP> 5
 0.000000e+00 1.000000e+00 0.000000e+00 0.000000e+00 0.000000e+00
 0.000000e+00 8.505788e-01 1.494212e-01 0.000000e+00 0.000000e+00
 0.000000e+00 0.000000e+00 7.184265e-01 2.815735e-01 0.000000e+00
 0.000000e+00 0.000000e+00 0.000000e+00 7.449442e-01 2.550558e-01
 0.000000e+00 0.000000e+00 0.000000e+00 0.000000e+00 0.000000e+00
~t "T_er"
<TRANSP> 5
 0.000000e+00 1.000000e+00 0.000000e+00 0.000000e+00 0.000000e+00
 0.000000e+00 9.047450e-01 9.525499e-02 0.000000e+00 0.000000e+00
 0.000000e+00 0.000000e+00 8.789263e-01 1.210737e-01 0.000000e+00
 0.000000e+00 0.000000e+00 0.000000e+00 8.722222e-01 1.277778e-01
 0.000000e+00 0.000000e+00 0.000000e+00 0.000000e+00 0.000000e+00
~t "T_ey"
<TRANSP> 5
 0.000000e+00 1.000000e+00 0.000000e+00 0.000000e+00 0.000000e+00
 0.000000e+00 2.778314e-01 7.221686e-01 0.000000e+00 0.000000e+00
 0.000000e+00 0.000000e+00 8.278526e-01 1.721474e-01 0.000000e+00
 0.000000e+00 0.000000e+00 0.000000e+00 8.272348e-01 1.727652e-01
 0.000000e+00 0.000000e+00 0.000000e+00 0.000000e+00 0.000000e+00
~t "T_ih"
<TRANSP> 5
 0.000000e+00 1.000000e+00 0.000000e+00 0.000000e+00 0.000000e+00
 0.000000e+00 5.625244e-01 4.374756e-01 0.000000e+00 0.000000e+00
 0.000000e+00 0.000000e+00 6.017755e-01 3.982244e-01 0.000000e+00
 0.000000e+00 0.000000e+00 0.000000e+00 5.871277e-01 4.128723e-01
 0.000000e+00 0.000000e+00 0.000000e+00 0.000000e+00 0.000000e+00
~t "T_iy"
<TRANSP> 5
 0.000000e+00 1.000000e+00 0.000000e+00 0.000000e+00 0.000000e+00
 0.000000e+00 7.564692e-01 2.435308e-01 0.000000e+00 0.000000e+00
 0.000000e+00 0.000000e+00 6.480702e-01 3.519298e-01 0.000000e+00
 0.000000e+00 0.000000e+00 0.000000e+00 8.734999e-01 1.265001e-01
 0.000000e+00 0.000000e+00 0.000000e+00 0.000000e+00 0.000000e+00
~t "T_ng"
<TRANSP> 5
 0.000000e+00 1.000000e+00 0.000000e+00 0.000000e+00 0.000000e+00
 0.000000e+00 7.083427e-01 2.916572e-01 0.000000e+00 0.000000e+00
 0.000000e+00 0.000000e+00 8.143553e-01 1.856447e-01 0.000000e+00
 0.000000e+00 0.000000e+00 0.000000e+00 7.995784e-01 2.004216e-01
 0.000000e+00 0.000000e+00 0.000000e+00 0.000000e+00 0.000000e+00
~t "T_th"
<TRANSP> 5
 0.000000e+00 1.000000e+00 0.000000e+00 0.000000e+00 0.000000e+00
 0.000000e+00 8.839819e-01 1.160181e-01 0.000000e+00 0.000000e+00
 0.000000e+00 0.000000e+00 7.870612e-01 2.129388e-01 0.000000e+00
 0.000000e+00 0.000000e+00 0.000000e+00 7.158207e-01 2.841793e-01
 0.000000e+00 0.000000e+00 0.000000e+00 0.000000e+00 0.000000e+00
~t "T_uw"
<TRANSP> 5
 0.000000e+00 1.000000e+00 0.000000e+00 0.000000e+00 0.000000e+00
 0.000000e+00 7.295408e-01 2.704592e-01 0.000000e+00 0.000000e+00
 0.000000e+00 0.000000e+00 9.024782e-01 9.752184e-02 0.000000e+00
 0.000000e+00 0.000000e+00 0.000000e+00 4.444118e-01 5.555882e-01
 0.000000e+00 0.000000e+00 0.000000e+00 0.000000e+00 0.000000e+00
~s "ST_f_2_1"
<MEAN> 25
 -1.947598e+01 2.939380e+00 -1.492472e+00 5.408679e+00 1.448784e+00 5.923285e+00 5.988444e+00 4.944381e+00 5.624270e+00 1.024542e+00 5.471427e+00 3.747827e+00 1.926783e-03 3.391659e-04 8.907227e-03 1.959937e-02 4.497077e-02 -2.818197e-02 -7.612336e-02 1.378260e-02 1.122248e-01 7.147748e-02 -9.135866e-03 -1.361325e-02 -3.611376e-03
<VARIANCE> 25
 3.934052e+00 6.094049e+00 6.591081e+00 1.755016e+01 9.290471e+00 9.953621e+00 9.120052e+00 1.662234e+01 1.216639e+01 9.820764e+00 8.180986e+00 8.972622e+00 4.253944e-02 1.477092e-01 2.162046e-01 3.263349e-01 4.440496e-01 4.469928e-01 7.089980e-01 1.048955e+00 1.037184e+00 1.053250e+00 8.306082e-01 1.002246e+00 4.115048e-02
<GCONST> 5.958218e+01
~s "ST_f_3_1"
<MEAN> 25
 -1.714538e+01 5.615716e+00 -4.789354e-01 2.900138e+00 3.707695e+00 6.339434e+00 2.485451e+00 2.685439e+00 3.721579e+00 5.304168e-01 4.102568e+00 4.169599e+00 -3.333139e-02 3.023286e-02 9.142102e-02 -3.854279e-02 -8.837310e-02 2.792693e-01 2.355269e-01 -4.563014e-01 -7.477495e-01 -1.848527e-01 9.709880e-03 1.975293e-01 5.373253e-03
<VARIANCE> 25
 1.326151e+01 9.123119e+00 5.709579e+00 1.605396e+01 9.272885e+00 8.484383e+00 8.320617e+00 1.757880e+01 1.439626e+01 7.688717e+00 7.156239e+00 7.441362e+00 5.635887e-02 1.052473e-01 1.702211e-01 2.709720e-01 6.882600e-01 4.629409e-01 9.326934e-01 1.079334e+00 7.311360e-01 7.455562e-01 4.515893e-01 6.156816e-01 4.115048e-02
<GCONST> 5.887498e+01
~s "ST_f_4_1"
<MEAN> 25
 -1.444389e+01 4.473472e+00 3.529321e-01 -7.347490e-01 2.341865e+00 3.567702e+00 1.518724e+00 3.751907e+00 3.099844e-01 -6.072607e-01 2.565918e+00 3.037540e+00 2.209978e-01 -1.694855e-02 2.977585e-02 -1.137787e-01 -1.451463e-01 -2.093170e-01 -8.574072e-03 1.690405e-02 -1.535599e-01 -1.055869e-01 -1.000497e-01 1.369269e-02 2.151366e-01
<VARIANCE> 25
 8.171753e+00 6.828451e+00 6.191757e+00 1.281552e+01 1.150371e+01 1.654666e+01 1.637327e+01 2.003672e+01 1.645902e+01 9.185761e+00 1.111741e+01 9.367452e+00 8.652374e-01 5.260594e-01 6.694688e-01 9.429678e-01 1.195603e+00 1.427534e+00 1.585700e+00 1.177189e+00 1.590732e+00 1.098158e+00 1.115984e+00 1.071747e+00 2.090122e+00
<GCONST> 7.643468e+01
~s "ST_s_2_1"
<MEAN> 25
 1.703399e+01 -1.444998e+01 8.000183e+00 1.607272e+00 -7.359732e+00 -9.381522e+00 -3.101351e+00 3.896311e+00 -5.922686e-01 -1.831663e+00 -1.603462e+00 2.992572e-01 1.924986e+00 -6.063140e-01 -6.714749e-01 -1.322680e-01 -1.125508e+00 -5.038587e-01 -7.826922e-02 -6.050086e-02 -7.154378e-01 1.291397e-01 6.723985e-01 -3.562860e-01 1.084004e+00
<VARIANCE> 25
 3.804260e+01 3.773708e+01 8.366881e+01 8.083291e+01 6.646621e+01 7.230164e+01 5.131464e+01 5.164117e+01 7.990662e+01 3.584956e+01 3.824596e+01 2.960231e+01 4.624136e+00 5.812145e+00 1.093447e+01 1.283826e+01 6.735330e+00 8.984581e+00 7.021133e+00 6.494537e+00 1.191981e+01 6.349109e+00 5.140038e+00 3.726811e+00 4.437455e+00
<GCONST> 1.183150e+02
~s "ST_s_3_1"
<MEAN> 25
 1.918207e+01 -1.724830e+01 9.191185e+00 -8.381509e+00 -4.361636e+00 -8.435444e+00 -8.122489e+00 5.074105e+00 -2.092266e+00 3.037565e+00 -2.518428e+00 -1.203929e+00 1.219645e-01 6.358677e-03 -7.340609e-01 -1.428421e+00 1.236097e+00 7.738854e-01 -2.273462e-01 -5.037218e-01 7.267261e-02 1.317036e+00 -8.000671e-01 -8.013095e-01 3.139684e-01
<VARIANCE> 25
 1.840854e+01 2.362677e+01 7.810067e+01 1.190581e+02 9.156003e+01 6.355314e+01 6.992567e+01 8.770587e+01 8.238779e+01 5.484857e+01 3.071194e+01 2.968766e+01 1.076277e+00 1.811102e+00 3.418582e+00 3.654440e+00 3.243205e+00 3.153648e+00 5.593084e+00 4.416276e+00 5.260712e+00 2.819810e+00 2.889653e+00 3.693085e+00 9.802775e-01
<GCONST> 1.075506e+02
~s "ST_s_4_1"
<MEAN> 25
 2.223954e+01 -9.540466e+00 -4.179468e+00 -1.167491e+01 -3.121547e-01 1.512920e-01 -3.881176e+00 -5.835905e+00 -2.154994e+00 7.243927e+00 -2.537212e+00 -5.592603e+00 -3.227600e-01 1.489244e+00 -3.132282e-01 -6.875297e-02 9.941283e-01 1.474812e-01 -1.070313e-01 -1.062140e-01 -1.173146e-01 -1.866772e-02 1.860466e-01 2.502930e-01 -7.548076e-01
<VARIANCE> 25
 1.995020e+01 5.277879e+01 6.713928e+01 1.243629e+02 1.060090e+02 7.085757e+01 9.941563e+01 8.985164e+01 4.386548e+01 4.018894e+01 4.570394e+01 5.105212e+01 1.300400e+00 1.912522e+00 3.150421e+00 4.853252e+00 4.176449e+00 3.409827e+00 4.024821e+00 3.979641e+00 3.459551e+00 3.591327e+00 2.911973e+00 3.290790e+00 7.418682e-01
<GCONST> 1.087368e+02
~s "ST_l_2_1"
<MEAN> 25
 1.536772e-01 5.387124e+00 -1.165751e+00 -1.334381e+00 4.190903e-01 1.451499e+00 -1.116843e+00 -2.390283e+00 2.420954e-01 -2.231582e-01 1.194307e+00 1.316117e+00 -1.176477e+00 -1.843649e+00 4.625340e-01 4.941327e-01 -3.028150e-01 -8.941981e-01 3.978438e-01 7.621633e-01 1.919578e-01 -1.890774e-01 1.245661e-01 3.408302e-01 3.379183e-01
<VARIANCE> 25
 1.072091e+02 7.750916e+01 5.782741e+01 4.843563e+01 3.900897e+01 5.950960e+01 3.074759e+01 4.239248e+01 2.885130e+01 3.239939e+01 2.887317e+01 1.997738e+01 9.959323e+00 4.635635e+00 5.132972e+00 2.922969e+00 4.261277e+00 5.960309e+00 3.683565e+00 3.813948e+00 2.354442e+00 2.297752e+00 1.811521e+00 1.797657e+00 1.387874e+01
<GCONST> 1.089474e+02
~s "ST_l_3_1"
<MEAN> 25
 2.364395e+00 1.565903e+00 4.772216e-01 -5.955968e-01 -4.284417e-01 -8.522408e-01 -9.415076e-01 -2.291276e+00 1.055557e+00 -3.546292e-01 1.051040e+00 1.057073e+00 1.397968e+00 -3.759502e+00 8.882717e-01 1.047416e-01 -7.390698e-01 -2.025565e+00 1.376967e-01 8.836800e-01 -2.118827e-01 -2.590298e-01 -5.171845e-01 5.032568e-02 3.787554e+00
<VARIANCE> 25
 1.216401e+02 1.624224e+02 5.849014e+01 7.264954e+01 4.594359e+01 5.615743e+01 3.799339e+01 4.665301e+01 4.558894e+01 3.126856e+01 2.269201e+01 1.780255e+01 1.315383e+01 8.730952e+00 7.918314e+00 5.677788e+00 1.014005e+01 7.801912e+00 5.319466e+00 4.243049e+00 3.595784e+00 3.544513e+00 3.940248e+00 2.303279e+00 1.832274e+01
<GCONST> 1.164878e+02
~s "ST_l_4_1"
<MEAN> 25
 5.715806e+00 -6.977591e+00 1.937416e+00 1.174882e+00 5.114823e-01 -6.163851e+00 -2.582540e+00 1.867840e+00 2.438716e+00 -2.925497e+00 -1.079600e+00 1.889572e+00 2.092768e+00 -2.087246e+00 1.147458e+00 3.875754e-01 -1.100872e+00 -1.177712e+00 -2.150272e-01 4.782376e-01 -5.711178e-01 -4.262576e-01 -6.485565e-02 -3.309608e-01 2.955113e+00
<VARIANCE> 25
 8.777405e+01 1.087908e+02 8.962956e+01 8.710931e+01 7.040250e+01 8.829578e+01 7.295412e+01 6.297601e+01 5.896092e+01 4.549828e+01 3.339270e+01 3.698195e+01 1.048454e+01 1.174410e+01 6.943551e+00 6.108745e+00 9.244384e+00 6.359166e+00 6.677656e+00 4.654051e+00 6.996047e+00 5.200115e+00 5.124358e+00 3.421014e+00 1.137193e+01
<GCONST> 1.212151e+02
~s "ST_b_2_1"
<MEAN> 25
 2.043927e+01 -3.845846e+00 2.861717e-01 -1.329809e+00 -2.861866e+00 3.599172e+00 -7.975130e+00 -1.894943e+01 -2.642707e+00 6.369112e+00 -5.129881e+00 -2.525869e+00 3.966754e-01 -4.357822e-01 -1.468530e-02 -1.070591e+00 -8.035283e-01 3.365464e-01 3.293209e-01 -5.105426e-01 -1.939047e-01 6.772070e-01 -3.733256e-02 -2.297899e-01 6.592605e-01
<VARIANCE> 25
 6.699860e+00 4.665220e+01 4.581167e+01 8.640052e+01 9.361791e+01 6.164300e+01 1.018034e+02 5.817548e+01 5.632861e+01 3.340862e+01 5.641442e+01 2.698021e+01 3.898133e-01 5.624032e+00 4.511150e+00 7.674267e+00 8.681643e+00 7.764837e+00 6.718249e+00 7.793959e+00 6.548190e+00 2.241778e+00 4.846331e+00 1.838224e+00 2.242430e+00
<GCONST> 1.103696e+02
~s "ST_b_3_1"
<MEAN> 25
 2.214053e+01 6.378965e+00 -7.866189e+00 -1.131588e+01 7.988715e-02 7.348667e+00 -4.110024e+00 -1.715655e+01 -7.687397e+00 6.438384e+00 1.882924e+00 -1.075203e+00 -4.772533e-01 2.711323e+00 -1.147424e+00 -6.446499e-01 1.547494e+00 -2.055139e-02 2.307258e-01 2.259339e+00 -8.484889e-01 -1.798060e+00 1.541598e+00 9.997879e-01 -1.811379e+00
<VARIANCE> 25
 4.748566e+00 2.926670e+01 1.922409e+01 1.157534e+02 4.539331e+01 2.938567e+01 5.981308e+01 1.101437e+02 5.478833e+01 2.447369e+01 5.402398e+01 1.026033e+01 1.052638e+00 1.460775e+00 2.913264e+00 6.206919e+00 4.754281e+00 3.419261e+00 5.021052e+00 3.880398e+00 2.573220e+00 2.354940e+00 3.105795e+00 1.680310e+00 7.201793e-01
<GCONST> 1.003054e+02
~s "ST_b_4_1"
<MEAN> 25
 1.991017e+01 1.414644e+01 -6.992485e+00 -1.485114e+01 -5.526202e+00 2.603669e+00 7.963449e-01 -5.159280e+00 -1.083502e+01 -4.733880e+00 1.218052e+00 1.051851e-01 -1.526342e+00 8.781859e-01 1.273921e+00 1.661715e+00 -1.045846e+00 -3.108644e-01 1.011106e+00 8.043705e-01 1.131897e+00 -9.305035e-01 -5.824614e-01 -1.117476e-01 -1.680574e+00
<VARIANCE> 25
 8.504333e+00 1.268767e+01 1.643135e+01 7.492212e+01 5.773495e+01 5.119794e+01 2.449558e+01 4.367107e+01 2.147762e+01 2.792838e+01 2.809686e+01 1.806840e+01 1.833277e+00 8.763002e-01 1.985635e+00 2.604824e+00 3.312992e+00 3.924873e+00 2.695456e+00 4.550847e+00 1.627865e+00 1.218697e+00 3.919429e+00 1.778025e+00 6.446197e-01
<GCONST> 9.471381e+01
~s "ST_aw_2_1"
<MEAN> 25
 2.286658e+01 -3.271262e+00 -1.639156e+01 -4.382390e+00 8.181649e+00 3.294459e+00 -2.279957e+00 -2.594016e+00 2.067443e+00 5.740472e+00 2.332827e+00 -6.779724e+00 -4.138647e-01 4.693538e-01 -1.665971e+00 6.029644e-01 2.219950e-01 -8.499987e-01 6.778687e-01 -8.811760e-02 -4.753537e-02 -5.102320e-01 -3.361031e-01 1.494713e-01 -9.848635e-01
<VARIANCE> 25
 2.250336e+01 3.059742e+01 3.143253e+01 2.130110e+01 2.784058e+01 1.462865e+01 8.765767e+01 3.971730e+01 1.813062e+01 5.006223e+01 2.174926e+01 2.216241e+01 6.641326e+00 3.924098e+00 5.013673e+00 4.646814e+00 1.089067e+01 2.033227e+00 1.387132e+01 6.697400e+00 3.488977e+00 4.607214e+00 2.972611e+00 3.956339e+00 8.025964e+00
<GCONST> 1.075042e+02
~s "ST_aw_3_1"
<MEAN> 25
 2.179854e+01 -1.008264e+00 -1.427027e+01 -4.149778e+00 1.269666e+00 9.294350e-01 -2.482524e+00 -7.461997e+00 -2.615523e-01 7.322395e+00 1.056191e+00 -6.932582e+00 -3.160723e+00 6.777169e-01 1.706443e+00 6.685848e-01 -7.452410e-01 1.123369e-02 2.859904e-01 6.110289e-01 4.282103e-01 -9.633302e-02 3.689725e-01 1.193476e+00 -2.531881e+00
<VARIANCE> 25
 7.137552e+01 2.249617e+01 1.509715e+01 1.952431e+01 4.127888e+01 1.276291e+01 5.189988e+01 1.557406e+01 2.553001e+01 1.039499e+01 9.556171e+00 2.742151e+01 5.284706e+00 2.546912e+00 4.142141e-01 5.848404e-01 1.060477e+01 1.464897e+00 9.078513e+00 3.195860e+00 4.133499e+00 3.358296e+00 2.375606e+00 3.658884e+00 2.940678e+00
<GCONST> 9.629028e+01
~s "ST_aw_4_1"
<MEAN> 25
 2.052724e+00 1.067965e+00 -8.543828e+00 -3.122627e+00 -3.039074e+00 1.795160e+00 1.278613e+00 -3.300468e+00 3.823467e-01 2.003399e+00 4.633770e+00 4.934966e-01 -2.289762e+00 -3.512338e-01 1.486552e+00 1.085744e+00 -8.352985e-01 -7.606350e-01 7.265943e-01 1.001279e+00 -3.308041e-01 -7.398983e-01 -4.065429e-02 2.597318e-01 -1.430313e+00
<VARIANCE> 25
 1.323794e+01 5.410513e+00 2.145462e+00 8.434900e+00 2.035546e+01 2.579544e+00 2.102710e+01 1.745625e+01 2.428301e+01 1.860055e+01 1.540955e+01 3.079784e+00 3.525717e+00 1.049952e-01 3.328285e-01 1.017445e+00 2.008111e+00 7.087700e-01 1.049293e+00 3.252327e-01 1.894061e+00 4.646938e-01 2.622031e+00 1.933357e+00 1.918678e+00
<GCONST> 7.230185e+01
~s "ST_r_2_1"
<MEAN> 25
 3.738699e+00 3.159300e+00 1.101082e+00 2.776783e-01 -3.518734e+00 -1.557569e+00 8.920812e-01 -1.301484e+00 -1.440382e+00 -2.106185e-01 3.950505e-01 -1.894362e-01 -2.638484e-01 4.440975e-01 5.426639e-01 -4.615720e-01 1.985783e-01 2.736852e-01 -1.254542e-01 9.463822e-02 1.417235e-01 -1.391072e-01 -1.081323e-01 -2.555415e-02 -1.195188e-01
<VARIANCE> 25
 2.083886e+02 1.408109e+02 7.030229e+01 5.668282e+01 5.235248e+01 5.644447e+01 4.759553e+01 5.974943e+01 4.905531e+01 4.227245e+01 2.344283e+01 2.138218e+01 5.696579e+00 6.704961e+00 3.907473e+00 3.670202e+00 3.893042e+00 3.217248e+00 4.186032e+00 3.190547e+00 4.559842e+00 1.925576e+00 1.798735e+00 1.717179e+00 3.481524e+00
<GCONST> 1.102957e+02
~s "ST_r_3_1"
<MEAN> 25
 2.760438e+00 1.711955e+00 1.406668e+00 -1.754801e-01 -2.307762e+00 -1.153409e+00 3.725426e-01 -3.906725e-01 -1.319973e+00 -9.300871e-01 1.570446e-01 -1.139732e-02 7.798945e-01 3.085163e-01 8.241484e-01 -4.942184e-01 2.909375e-01 3.020048e-01 -4.169157e-01 -2.026269e-01 4.321345e-01 -9.261145e-02 -3.308269e-01 8.239286e-02 1.002034e+00
<VARIANCE> 25
 2.065249e+02 1.421187e+02 6.110310e+01 6.079840e+01 4.928227e+01 5.943283e+01 5.675461e+01 6.463690e+01 4.976600e+01 3.174641e+01 2.472247e+01 2.373279e+01 7.550853e+00 9.150090e+00 6.107574e+00 4.182207e+00 5.525342e+00 3.309028e+00 4.816439e+00 3.457459e+00 3.776008e+00 2.236283e+00 1.478084e+00 1.886497e+00 6.185685e+00
<GCONST> 1.125593e+02
~s "ST_r_4_1"
<MEAN> 25
 6.174594e+00 1.161396e+00 3.830376e+00 -2.035924e-01 -1.795622e+00 -2.029850e+00 -8.133574e-01 -8.346673e-01 3.064089e-01 -1.020765e+00 -9.121892e-01 5.392836e-01 1.742096e+00 -3.168427e-01 9.162510e-01 -3.755084e-02 -2.188633e-01 -3.170568e-01 -5.488808e-01 -4.137312e-01 4.411362e-01 -7.373751e-02 -5.105325e-01 -4.937555e-02 2.023164e+00
<VARIANCE> 25
 1.512651e+02 1.943366e+02 7.712738e+01 7.092683e+01 7.278612e+01 7.665829e+01 6.207879e+01 6.514038e+01 4.961323e+01 3.360596e+01 2.635252e+01 2.420007e+01 1.012549e+01 1.166490e+01 8.841961e+00 5.743079e+00 8.840358e+00 9.326785e+00 7.107678e+00 4.577946e+00 6.915513e+00 3.654784e+00 3.156278e+00 2.945480e+00 1.372637e+01
<GCONST> 1.203239e+02
~s "ST_k_2_1"
<MEAN> 25
 -5.279968e+00 1.952203e+00 2.506633e+00 -7.185570e+00 1.073108e+01 -6.313365e+00 -6.323090e+00 3.194064e+00 3.270174e+00 -5.282189e-01 1.238197e+00 1.548789e+00 -2.329631e+00 -1.631385e-01 3.649430e-02 -1.866182e-02 5.853212e-01 4.396705e-02 -1.858249e-01 4.761420e-01 2.803864e-01 -4.925647e-01 5.560859e-01 3.210099e-01 -1.018463e+00
<VARIANCE> 25
 1.320940e+02 4.152683e+01 4.566841e+01 8.069485e+01 9.777652e+01 5.951836e+01 6.196110e+01 3.153137e+01 3.685044e+01 2.796822e+01 2.968353e+01 3.258966e+01 1.399877e+01 8.626512e+00 6.383560e+00 6.007765e+00 8.043975e+00 5.835194e+00 5.879650e+00 5.633603e+00 4.506276e+00 4.264119e+00 4.045839e+00 3.138740e+00 5.206481e+00
<GCONST> 1.157646e+02
~s "ST_k_3_1"
<MEAN> 25
 1.031460e+00 -6.557101e+00 -4.381715e+00 -4.873416e+00 1.316577e+01 -2.193892e+00 -8.702137e+00 4.366741e+00 3.679958e+00 2.188701e+00 4.097797e-02 1.997554e+00 2.627500e+00 -5.589193e-01 -1.895306e+00 -1.865813e+00 9.112902e-01 1.542746e+00 4.223248e-01 -2.240821e-01 -1.354192e+00 1.182799e+00 8.406626e-02 -9.545173e-01 1.030709e+00
<VARIANCE> 25
 5.981882e+01 7.724394e+01 7.462926e+01 7.733563e+01 1.065652e+02 7.999374e+01 8.946634e+01 6.940710e+01 5.072234e+01 7.509037e+01 5.077806e+01 3.550360e+01 8.683342e+00 1.064622e+01 8.980336e+00 1.157320e+01 2.008426e+01 6.928181e+00 9.945940e+00 6.971478e+00 6.118381e+00 6.557307e+00 5.147380e+00 5.066739e+00 2.310052e+01
<GCONST> 1.250104e+02
~s "ST_k_4_1"
<MEAN> 25
 1.658077e+01 -2.396238e+00 -1.135373e+01 -1.413679e+01 7.330345e+00 4.600946e+00 -6.278636e+00 -1.076867e+00 -4.038774e+00 2.937886e+00 2.836319e+00 -1.731557e+00 4.152396e+00 2.922909e-01 1.629747e-01 -1.274962e+00 -1.637190e+00 9.027983e-02 5.274106e-01 -1.585218e+00 -2.020840e+00 2.725662e-01 6.329531e-01 -6.550708e-01 2.989881e+00
<VARIANCE> 25
 3.635822e+01 5.211769e+01 7.106473e+01 7.969286e+01 6.169366e+01 9.527422e+01 6.689365e+01 5.898671e+01 5.194672e+01 4.563215e+01 4.237215e+01 2.658889e+01 4.468639e+00 4.356251e+00 9.901823e+00 1.292702e+01 9.785019e+00 7.135766e+00 1.046402e+01 7.178111e+00 6.112214e+00 4.307063e+00 4.430332e+00 3.909710e+00 4.532277e+00
<GCONST> 1.179122e+02
~s "ST_uw_2_1"
<MEAN> 25
 -3.134265e+00 7.225215e+00 -7.496430e-01 7.725071e-01 -1.770032e+00 2.564427e+00 2.500801e+00 -2.959707e-01 -3.948940e+00 -5.653899e+00 -2.819882e-01 1.896035e-01 -1.483092e+00 -1.001565e+00 1.374510e-02 7.235816e-01 4.113888e-01 9.403237e-02 4.099189e-01 4.715717e-01 8.154503e-02 -2.516958e-01 -6.650435e-01 -6.268848e-01 -7.381287e-01
<VARIANCE> 25
 2.588593e+01 1.832902e+01 2.757775e+01 3.891108e+01 1.726508e+01 1.827963e+01 2.234908e+01 2.070044e+01 2.518213e+01 1.953939e+01 1.839182e+01 2.858057e+01 1.429768e+00 1.465999e+00 2.149600e+00 1.402017e+00 1.289891e+00 1.492116e+00 2.021366e+00 2.146341e+00 1.402755e+00 1.474020e+00 1.757951e+00 1.410958e+00 4.310020e-01
<GCONST> 8.820075e+01
~s "ST_n_2_1"
<MEAN> 25
 2.035681e+00 1.206633e+01 6.759766e+00 7.251495e+00 -1.978169e+00 -1.561052e+00 -1.445261e+00 -2.717208e+00 -2.049685e+00 -4.378898e+00 -4.743872e+00 -3.386876e+00 -1.949124e+00 -1.438123e+00 -5.910670e-01 2.556283e-01 4.555977e-01 1.403694e-01 -5.172392e-02 1.331451e-01 3.991242e-01 3.110887e-01 2.184179e-01 -3.724340e-02 -1.054168e+00
<VARIANCE> 25
 5.788401e+01 3.249556e+01 3.454148e+01 2.232273e+01 1.753465e+01 2.360571e+01 1.975882e+01 2.087724e+01 3.144133e+01 2.919826e+01 1.610863e+01 1.384901e+01 2.570998e+00 2.872164e+00 3.284575e+00 3.252522e+00 1.363948e+00 1.603872e+00 1.983031e+00 1.761248e+00 1.837447e+00 2.429928e+00 1.015887e+00 1.183524e+00 6.515559e-01
<GCONST> 9.206555e+01
~s "ST_uw_3_1"
<MEAN> 25
 -7.034756e+00 3.521193e+00 1.952303e+00 6.155889e+00 5.562083e-01 3.606117e-01 1.108321e+00 -1.593483e-01 -3.179788e+00 -3.460263e+00 -1.225931e+00 -2.130552e+00 -1.383546e-01 -4.784030e-02 1.060385e-01 1.721715e-01 8.001173e-02 3.991482e-02 3.916370e-02 3.598762e-02 1.543086e-01 9.005577e-02 -3.667990e-02 6.036702e-02 -7.253781e-02
<VARIANCE> 25
 5.962132e+00 7.612973e+00 1.330345e+01 1.971147e+01 1.739175e+01 1.299256e+01 1.360749e+01 1.879181e+01 1.424293e+01 1.576594e+01 1.162499e+01 1.196940e+01 2.046542e-01 3.778640e-01 5.251101e-01 6.375641e-01 9.815376e-01 1.159882e+00 1.289115e+00 1.401474e+00 1.269636e+00 1.411687e+00 1.211698e+00 1.120321e+00 5.013587e-02
<GCONST> 7.160886e+01
~s "ST_n_3_1"
<MEAN> 25
 -7.652246e+00 4.617448e+00 3.082360e+00 7.319524e+00 2.497006e+00 2.084356e+00 -1.259070e+00 -1.571155e+00 -1.913409e+00 -4.194068e+00 -9.778375e-01 -1.742343e+00 -4.983630e-01 -4.563079e-01 -4.133381e-01 -2.035962e-01 -6.363835e-02 1.244182e-01 1.024742e-01 3.103824e-02 7.679003e-02 1.492990e-01 3.740162e-01 4.096487e-01 -2.527720e-01
<VARIANCE> 25
 1.160407e+01 1.372771e+01 2.243132e+01 1.656452e+01 1.385026e+01 1.332121e+01 1.375245e+01 1.451299e+01 1.666825e+01 1.447910e+01 2.143100e+01 1.795509e+01 2.625310e-01 7.253681e-01 1.255871e+00 1.059969e+00 7.273052e-01 1.086195e+00 1.293491e+00 1.840750e+00 1.442527e+00 1.566855e+00 2.136824e+00 2.052103e+00 1.083336e-01
<GCONST> 7.821877e+01
~s "ST_uw_4_1"
<MEAN> 25
 -9.697721e+00 3.842673e+00 5.368396e-02 1.784425e+00 1.374557e+00 1.969146e+00 2.099684e+00 2.164968e+00 7.149678e-02 -2.685102e+00 -6.069084e-01 1.268514e+00 -4.314871e-02 -9.179668e-02 5.623309e-02 -1.174469e-01 2.949209e-01 -4.555707e-01 1.213438e-02 3.795051e-01 1.047683e+00 9.403128e-01 2.399665e-01 4.443501e-01 2.528893e-01
<VARIANCE> 25
 8.890305e+00 5.591505e+00 1.115718e+01 3.385707e+01 2.219962e+01 3.457675e+01 1.652491e+01 2.425192e+01 1.840395e+01 2.238852e+01 1.454332e+01 1.669408e+01 9.985441e-01 1.610524e+00 1.399011e+00 1.102804e+00 1.417803e+00 1.937330e+00 2.246146e+00 2.794161e+00 1.924219e+00 1.876529e+00 1.726634e+00 2.313328e+00 8.243414e-01
<GCONST> 8.616882e+01
~s "ST_n_4_1"
<MEAN> 25
 -8.813482e+00 1.825310e+00 -2.575570e-01 1.605103e+00 2.216118e-01 1.751544e+00 1.077140e-01 6.074964e-01 -3.421798e-01 -9.472660e-01 -6.062530e-01 2.344044e-01 -2.002901e-02 2.108275e-02 -1.609018e-02 -4.497372e-02 2.286524e-02 3.394409e-02 -1.628112e-03 3.207633e-02 1.919892e-02 -4.001465e-02 4.136764e-03 4.665447e-02 -1.750738e-02
<VARIANCE> 25
 4.806076e+00 6.106020e+00 1.008599e+01 1.129058e+01 7.675796e+00 1.275035e+01 1.370168e+01 1.262724e+01 1.594220e+01 1.354212e+01 1.411804e+01 1.382332e+01 1.479448e-01 2.959350e-01 4.366994e-01 6.139863e-01 7.090414e-01 9.585268e-01 1.155715e+00 1.382792e+00 1.473156e+00 1.460414e+00 1.430279e+00 1.347731e+00 4.320006e-02
<GCONST> 6.836510e+01
~s "ST_d_2_1"
<MEAN> 25
 -1.633445e+01 1.552703e+00 -3.729938e-01 7.171448e+00 1.141536e+00 3.603223e+00 4.548740e+00 3.643451e+00 4.793029e+00 1.505258e+00 4.810291e+00 3.341082e+00 -4.337242e-02 1.083811e-02 1.959717e-02 4.240011e-02 6.567296e-02 3.267862e-02 -3.366452e-02 -9.368474e-03 4.704370e-02 4.298816e-02 9.456323e-03 -5.234702e-02 -3.352054e-02
<VARIANCE> 25
 8.981445e+00 4.725042e+00 4.166335e+00 8.326153e+00 7.265026e+00 7.871898e+00 9.864733e+00 1.368676e+01 1.081421e+01 1.010679e+01 1.094682e+01 1.044631e+01 7.486339e-02 1.596744e-01 2.559809e-01 4.237856e-01 5.140884e-01 5.330082e-01 7.562742e-01 1.226237e+00 1.254101e+00 1.045140e+00 8.166749e-01 9.206041e-01 5.117017e-02
<GCONST> 6.062139e+01
~s "ST_d_3_1"
<MEAN> 25
 -1.307600e+01 5.226425e+00 -4.736362e-02 5.453352e-01 2.399525e+00 2.559030e+00 -6.513954e-01 3.401160e+00 1.029924e+00 -1.731788e+00 1.038771e+00 2.407003e+00 -4.302590e-03 1.028646e-02 1.272587e-02 1.180534e-03 -3.008084e-02 1.910068e-03 2.246549e-02 -5.946121e-02 -2.454644e-02 1.456104e-02 2.872711e-02 1.169430e-03 -1.335530e-02
<VARIANCE> 25
 4.313141e+00 4.909910e+00 7.758149e+00 1.465065e+01 8.965979e+00 1.104554e+01 1.296243e+01 1.198951e+01 1.197448e+01 1.253627e+01 1.117193e+01 1.154131e+01 1.045114e-01 2.705658e-01 4.191905e-01 7.391738e-01 7.546541e-01 8.811698e-01 1.115265e+00 8.626379e-01 1.207837e+00 1.057909e+00 1.242096e+00 1.230680e+00 4.122923e-02
<GCONST> 6.554224e+01
~s "ST_d_4_1"
<MEAN> 25
 -1.088535e+01 4.256010e+00 1.235373e+00 2.844004e+00 1.101924e+00 2.103932e+00 5.674327e-01 9.049790e-01 7.255415e-01 -1.060308e+00 -8.249788e-01 3.918912e-01 1.330726e-01 5.917815e-02 1.266675e-01 7.920963e-02 6.389383e-02 -3.490948e-03 -8.602665e-03 -1.500161e-01 -1.644602e-01 1.068229e-01 -9.320221e-02 -1.539583e-01 1.251641e-01
<VARIANCE> 25
 1.465649e+01 8.029032e+00 1.449772e+01 1.985821e+01 1.059313e+01 9.772264e+00 2.099206e+01 1.592514e+01 2.405418e+01 1.590941e+01 2.405181e+01 1.726474e+01 1.403963e+00 8.801367e-01 1.047032e+00 1.771647e+00 1.382504e+00 1.071073e+00 1.331862e+00 2.082178e+00 3.775207e+00 1.802091e+00 1.734089e+00 1.695433e+00 1.524254e+00
<GCONST> 8.446476e+01
~s "ST_th_2_1"
<MEAN> 25
 1.764147e+01 -1.135641e+01 1.749307e+01 5.259715e+00 -2.165932e+01 -5.772953e+00 3.216353e+00 -4.623181e+00 -9.895493e+00 -3.940112e+00 1.044377e+00 1.216311e+00 -1.527334e-01 1.767119e+00 9.742867e-01 2.241665e-01 -2.064395e+00 1.334704e-01 2.120241e+00 -1.095064e+00 -2.398465e+00 5.983192e-01 2.625074e-01 -2.963892e-01 -1.102227e+00
<VARIANCE> 25
 8.414246e+00 4.227530e+01 3.453098e+01 5.447009e+01 4.576645e+01 4.751441e+01 8.633128e+01 2.750241e+01 9.911459e+01 2.866156e+01 3.705922e+01 4.260578e+01 1.491210e+00 5.043860e+00 3.593256e+00 6.935880e+00 4.202209e+00 7.148451e+00 5.040984e+00 5.095598e+00 5.212627e+00 3.447012e+00 4.294097e+00 6.174566e+00 1.796050e+00
<GCONST> 1.087678e+02
~s "ST_th_3_1"
<MEAN> 25
 1.362597e+01 1.146288e+01 1.812868e+01 2.077581e+00 -2.621378e+01 -8.754647e+00 1.085605e+01 -7.815125e+00 -1.405984e+01 3.150636e+00 2.127196e-01 -2.387236e+00 -1.353444e+00 3.734799e+00 -1.482726e+00 -2.360743e-01 3.147568e+00 -4.469939e-01 -3.008239e+00 9.688662e-01 3.001229e+00 3.270486e-01 3.576958e-02 -2.007651e-01 -2.893314e+00
<VARIANCE> 25
 1.225778e+01 4.527103e+01 2.453491e+01 1.452461e+02 4.294983e+01 5.228800e+01 7.899856e+01 7.614434e+01 4.385323e+01 3.372185e+01 3.102782e+01 2.006379e+01 6.667236e-01 2.081736e+00 4.349823e+00 6.951703e+00 7.051945e+00 3.994467e+00 7.593709e+00 3.671413e+00 3.478281e+00 4.726959e+00 2.948067e+00 2.380797e+00 4.154882e-01
<GCONST> 1.048691e+02
~s "ST_th_4_1"
<MEAN> 25
 3.208441e+00 1.352042e+01 1.077984e+01 2.334316e-01 -1.357689e+01 -3.101126e+00 6.146895e-01 -6.735051e+00 -3.919330e+00 1.570737e+00 -1.686619e+00 -2.178100e+00 -2.625286e+00 -1.685610e+00 -2.294178e+00 -1.607926e-01 1.659504e+00 1.467308e+00 2.203180e-01 6.939717e-02 5.303892e-01 -8.611783e-01 -3.353546e-01 3.090295e-01 -1.761109e+00
<VARIANCE> 25
 3.394296e+01 4.745699e+01 5.205621e+01 1.824993e+01 1.764462e+01 2.154158e+01 2.483574e+01 2.000576e+01 1.553016e+01 1.296105e+01 2.242839e+01 1.201026e+01 1.504376e+00 1.395692e+00 2.400846e+00 3.762365e+00 5.463139e+00 1.682608e+00 6.301848e+00 8.864006e-01 4.225620e+00 1.221403e+00 2.679535e+00 6.289961e-01 8.881564e-01
<GCONST> 9.216330e+01
~s "ST_ay_2_1"
<MEAN> 25
 1.577807e+01 -9.334909e+00 3.236619e+00 -2.074625e+01 7.441222e+00 3.417749e+00 -1.521200e+01 2.885190e+00 2.495667e+00 6.462417e+00 -3.256993e+00 -3.080965e+00 -3.637294e-02 1.617707e+00 -9.227361e-01 -2.386651e-01 1.202159e+00 4.578921e-01 -3.567323e-01 -1.096290e+00 6.865857e-01 3.746260e-01 -8.243309e-02 6.240166e-01 -8.385431e-01
<VARIANCE> 25
 3.671985e+01 4.885519e+01 6.183135e+01 9.377463e+01 5.600894e+01 5.990270e+01 7.288666e+01 8.623714e+01 7.036275e+01 3.400750e+01 3.434640e+01 5.386926e+01 1.571190e+00 1.774508e+00 2.173468e+00 4.888259e+00 2.643824e+00 4.127716e+00 4.243272e+00 4.872624e+00 6.281353e+00 3.632361e+00 3.266072e+00 3.857705e+00 1.185539e+00
<GCONST> 1.089107e+02
~s "ST_ay_3_1"
<MEAN> 25
 2.626919e+00 -2.544684e-01 -2.450584e-01 -6.314715e+00 6.506605e+00 -6.355351e+00 -1.046998e+00 -2.040838e+00 4.132443e+00 9.115288e-01 -1.873060e-01 2.186404e+00 -5.358114e-01 -1.174896e+00 9.993027e-01 3.296776e-01 -5.264734e-01 -3.751734e-01 7.875636e-01 7.764096e-01 2.081684e-01 -4.058027e-01 6.135828e-02 -2.623860e-02 3.636763e-01
<VARIANCE> 25
 9.926704e+01 9.660442e+01 6.732510e+01 6.873270e+01 7.061201e+01 9.145717e+01 1.100426e+02 5.059924e+01 5.622168e+01 4.123931e+01 3.604221e+01 3.092953e+01 1.247909e+01 1.030385e+01 1.242267e+01 1.345171e+01 9.540688e+00 1.248135e+01 1.466356e+01 6.669809e+00 6.498137e+00 5.922623e+00 4.307161e+00 3.784550e+00 1.517837e+01
<GCONST> 1.242174e+02
~s "ST_ay_4_1"
<MEAN> 25
 1.530495e+01 -1.468396e+01 1.551970e+00 -5.029401e+00 -1.861771e-01 -1.480463e+00 -5.939322e+00 3.586446e+00 4.907066e+00 4.774917e-01 -1.768475e+00 -1.615453e+00 2.957978e+00 -2.343495e+00 -1.808161e+00 1.532010e+00 -1.720959e+00 -2.757180e-01 2.681336e-01 4.128410e-01 -8.779130e-01 -7.824345e-02 -8.165748e-01 -6.852720e-01 1.470696e+00
<VARIANCE> 25
 6.214859e+01 4.196539e+01 1.971326e+02 9.225363e+01 8.745698e+01 5.319666e+01 4.247886e+01 3.810926e+01 3.125460e+01 3.285292e+01 2.183414e+01 1.840616e+01 8.618504e+00 3.712524e+00 1.158969e+01 1.035894e+01 9.512835e+00 9.146046e+00 6.551293e+00 5.132192e+00 6.351519e+00 5.387774e+00 5.818488e+00 2.826643e+00 4.272653e+00
<GCONST> 1.164067e+02
~s "ST_g_2_1"
<MEAN> 25
 1.846355e+01 -1.321902e+01 5.592883e+00 2.997255e+00 -9.579528e+00 -9.031817e+00 -4.519293e+00 -2.552852e+00 -3.103356e+00 2.652363e+00 -1.202720e+00 -1.863635e+00 4.099760e-01 -2.229046e-01 7.400126e-01 -1.916623e-01 -1.815615e+00 2.178904e-01 1.375800e+00 -5.645412e-01 -8.525290e-01 5.420927e-01 1.204298e-01 -3.964010e-02 4.976371e-01
<VARIANCE> 25
 1.581366e+01 3.177632e+01 6.788490e+01 1.657195e+02 1.165751e+02 8.114719e+01 7.459225e+01 5.621648e+01 7.752943e+01 5.462076e+01 4.550019e+01 3.708284e+01 2.749455e+00 3.787291e+00 9.620509e+00 1.499376e+01 6.731582e+00 5.827254e+00 8.696927e+00 9.831920e+00 5.844998e+00 5.721407e+00 4.786820e+00 4.015442e+00 2.023902e+00
<GCONST> 1.173760e+02
~s "ST_g_3_1"
<MEAN> 25
 1.722127e+01 -8.176305e+00 6.884712e+00 -6.477623e+00 -7.831761e+00 -3.984753e+00 -2.677175e+00 -9.069278e-01 -7.496585e+00 4.785436e+00 -1.416406e+00 -1.985146e+00 3.136223e-01 2.811722e+00 -1.971043e+00 2.610164e+00 -6.803099e-01 5.475469e-01 2.340624e+00 -1.908179e+00 1.855324e-01 -1.541379e+00 -2.070251e-01 3.510547e-01 -2.366521e+00
<VARIANCE> 25
 2.359698e+01 4.300138e+01 1.129315e+02 1.444714e+02 1.271400e+02 7.200981e+01 1.500226e+02 8.894172e+01 1.230083e+02 5.685447e+01 5.672988e+01 2.873997e+01 5.806969e-01 7.326658e+00 3.108790e+00 1.019062e+01 4.347952e+00 1.916317e+00 3.999735e+00 5.476766e+00 3.213625e+00 6.477413e+00 2.342748e+00 2.272465e+00 4.015249e+00
<GCONST> 1.136479e+02
~s "ST_g_4_1"
<MEAN> 25
 1.911981e+01 -4.630096e-01 -2.222383e+00 -2.302947e-02 -4.822715e+00 -1.579527e+00 -4.366499e-01 -8.250213e+00 -4.533844e+00 5.010318e-01 -1.928781e+00 -2.116388e+00 3.302809e-01 3.467463e+00 -2.452641e+00 8.632714e-01 9.603334e-01 4.525014e-01 1.409588e-01 -1.572551e+00 4.521475e-01 -6.494394e-01 8.466042e-01 -2.647065e-01 -2.205771e+00
<VARIANCE> 25
 1.600684e+01 9.858970e+01 4.816040e+01 1.102936e+02 9.456747e+01 5.330057e+01 1.443446e+02 6.924144e+01 1.388465e+02 1.126802e+02 4.046865e+01 4.472288e+01 7.560174e-01 1.061637e+01 3.686763e+00 1.038876e+01 7.236067e+00 3.787311e+00 6.305569e+00 4.848497e+00 6.249513e+00 3.547912e+00 2.915513e+00 2.316731e+00 4.438799e+00
<GCONST> 1.157411e+02
~s "ST_t_2_1"
<MEAN> 25
 7.918772e+00 -9.949460e+00 7.031897e+00 -4.639104e+00 2.952864e-01 -1.077224e+01 -1.266694e+00 3.841488e+00 2.868202e-01 -1.919188e-02 -1.158299e+00 1.334308e+00 1.338708e+00 -7.841625e-01 1.744026e+00 -2.647540e+00 2.720157e-01 4.000475e-01 -1.538817e+00 4.518249e-01 -1.667450e+00 5.394959e-01 1.188651e+00 -7.069888e-01 3.008246e+00
<VARIANCE> 25
 8.794402e+01 5.630407e+01 8.993436e+01 7.402488e+01 9.179134e+01 6.514625e+01 8.931986e+01 6.111391e+01 8.960932e+01 4.399162e+01 6.740166e+01 4.025810e+01 2.499398e+01 1.120360e+01 7.446572e+00 6.594968e+00 1.163647e+01 9.440193e+00 9.055683e+00 7.566880e+00 9.401456e+00 6.428028e+00 4.818271e+00 2.760551e+00 1.447133e+01
<GCONST> 1.245612e+02
~s "ST_t_3_1"
<MEAN> 25
 1.597372e+01 -1.079016e+01 3.939137e+00 -3.117899e+00 -5.899236e+00 -4.829730e+00 -4.794850e+00 -6.089120e+00 1.253378e+00 4.919769e-01 -3.407306e-01 -1.834744e+00 1.688419e+00 6.401621e-01 -1.760466e+00 1.908770e-01 -1.139874e+00 1.284500e+00 9.061801e-01 -2.224209e+00 -1.133052e+00 8.588772e-01 5.347713e-02 -6.785284e-01 5.573389e-02
<VARIANCE> 25
 7.157216e+01 7.086614e+01 9.069281e+01 7.361883e+01 7.618130e+01 9.405259e+01 6.505396e+01 1.253631e+02 9.121877e+01 7.279018e+01 4.503497e+01 2.464458e+01 7.969930e+00 6.526581e+00 6.283905e+00 5.856477e+00 6.195223e+00 7.742366e+00 6.759370e+00 9.609245e+00 7.648202e+00 7.665632e+00 5.073747e+00 3.124435e+00 2.180443e+00
<GCONST> 1.201964e+02
~s "ST_ey_2_1"
<MEAN> 25
 5.922391e+00 1.238350e+01 1.324791e+01 -1.841124e+00 -1.011833e+01 2.323547e+00 -1.714788e-02 -5.667626e-01 1.192553e+00 -1.968264e+00 4.779460e+00 -5.652062e-01 2.687570e+00 -2.127630e+00 3.762300e+00 -1.265139e+00 -3.412048e+00 -2.245613e+00 1.009225e+00 1.130163e+00 -3.161430e+00 9.659751e-01 1.094253e+00 -4.193188e-01 4.160939e+00
<VARIANCE> 25
 4.151133e+01 6.022224e+01 4.985870e+01 7.665322e+01 7.614217e+01 1.234853e+01 2.782470e+01 1.551323e+01 2.849860e+01 1.152153e+01 1.840549e+01 1.552494e+01 1.280146e+01 6.807672e+00 1.484641e+01 1.057004e+01 1.080471e+01 6.886470e+00 7.218815e+00 5.008100e+00 9.825079e+00 2.237777e+00 1.532143e+00 2.359003e+00 1.978226e+01
<GCONST> 1.111631e+02
~s "ST_t_4_1"
<MEAN> 25
 1.837815e+01 -9.471065e+00 -5.508018e+00 -7.732660e+00 -1.477460e+00 5.479710e-01 9.978971e-01 -6.986237e+00 -2.586612e+00 7.207394e+00 -1.642012e+00 -2.829170e+00 -4.722144e-01 8.256184e-01 -8.553002e-02 -4.306303e-01 3.687392e-01 4.459425e-01 -1.873521e-01 -5.690071e-02 -4.351221e-01 1.529894e-01 3.757777e-01 2.172666e-02 -6.929412e-01
<VARIANCE> 25
 8.040750e+01 8.466331e+01 7.996448e+01 8.465974e+01 1.162007e+02 6.433971e+01 5.224807e+01 7.191928e+01 2.893879e+01 2.982898e+01 2.930998e+01 1.665362e+01 1.728580e+00 1.220176e+00 1.712106e+00 3.985093e+00 2.600096e+00 2.715113e+00 2.593266e+00 2.426763e+00 1.982601e+00 2.499719e+00 1.539569e+00 1.325319e+00 1.102200e+00
<GCONST> 1.025667e+02
~s "ST_t_4_2"
<MEAN> 25
 1.885150e+01 9.300893e+00 -5.390409e+00 -9.520173e+00 -3.571045e+00 5.859939e+00 -4.888490e-01 -1.022220e+01 -9.117652e+00 -1.622699e+00 2.549853e+00 2.404066e+00 -1.714329e+00 8.135774e-01 1.641896e-01 5.423573e-01 -5.412287e-02 -2.495318e-01 2.734272e-01 1.098823e+00 1.088596e-01 -5.888017e-01 1.596331e-01 5.349193e-01 -1.969393e+00
<VARIANCE> 25
 5.312161e+01 4.452618e+01 2.973005e+01 9.049919e+01 4.872950e+01 2.746965e+01 3.692123e+01 4.886813e+01 4.033381e+01 4.811991e+01 1.836702e+01 2.162199e+01 4.345819e+00 3.357620e+00 3.025084e+00 6.928237e+00 4.143106e+00 3.506008e+00 3.125886e+00 2.576607e+00 5.405294e+00 3.669744e+00 2.102561e+00 1.840209e+00 1.143117e+00
<GCONST> 1.048249e+02
~s "ST_ey_3_1"
<MEAN> 25
 1.043571e+01 -6.835325e-01 2.004615e+01 -6.846480e+00 -1.567744e+01 -5.289460e+00 3.772111e+00 2.074466e+00 -1.288814e+01 2.983116e+00 4.754163e+00 3.113208e-01 1.185872e+00 -3.073272e+00 7.006963e-01 -9.827257e-01 3.054075e-03 -1.701628e+00 -5.898269e-01 3.107292e-01 -1.121145e+00 7.365422e-01 -5.548868e-01 3.811709e-01 3.016156e+00
<VARIANCE> 25
 1.955170e+01 5.900310e+01 1.207786e+02 8.932874e+01 4.866429e+01 7.293861e+01 4.297920e+01 4.368352e+01 1.043865e+02 3.097729e+01 2.063308e+01 2.049754e+01 3.723752e+00 1.926627e+00 6.381832e+00 6.663260e+00 1.021339e+01 4.560857e+00 4.811574e+00 5.262528e+00 1.062642e+01 4.412469e+00 4.104254e+00 1.869312e+00 4.110565e+00
<GCONST> 1.122170e+02
~s "ST_ao_2_1"
<MEAN> 25
 2.819052e+00 1.736751e+01 1.117123e+01 6.217942e+00 -7.033101e-02 2.681181e-01 -1.574956e+00 -1.546946e+00 7.565027e-01 -3.310256e+00 -1.350238e+00 1.668823e+00 3.557660e+00 -3.567444e-01 -1.209610e-02 -1.053977e+00 -3.596221e-01 -1.862562e+00 -1.057633e+00 -2.249632e-01 3.043262e-02 -1.670868e-01 -1.042081e+00 -6.140346e-01 3.890671e+00
<VARIANCE> 25
 9.595232e+01 1.112635e+02 3.789363e+01 2.670793e+01 2.901253e+01 1.600463e+01 3.854214e+01 2.402212e+01 2.335366e+01 1.003281e+01 1.929591e+01 1.502994e+01 1.092113e+01 1.196433e+01 8.475224e+00 4.608711e+00 2.134939e+00 4.649036e+00 3.939142e+00 2.534510e+00 2.642784e+00 1.465878e+00 2.351522e+00 2.261232e+00 2.181270e+01
<GCONST> 1.054818e+02
~s "ST_ey_4_1"
<MEAN> 25
 1.805210e+01 -1.591552e+01 1.445021e+01 -3.188452e+00 -1.253621e+01 -9.320676e+00 -2.245050e+00 2.001834e+00 -5.743987e+00 2.287802e+00 -1.757125e+00 2.710550e+00 7.584754e-01 -1.097290e+00 -1.192990e+00 3.520640e-01 1.609656e-01 2.607278e-01 -5.182601e-01 2.826562e-01 1.399912e+00 -4.719733e-01 -8.111582e-01 2.920768e-01 5.128099e-01
<VARIANCE> 25
 1.484628e+01 1.817731e+01 6.675101e+01 1.384617e+02 5.708186e+01 3.848374e+01 2.611575e+01 5.198363e+01 8.251193e+01 5.539936e+01 2.675333e+01 1.422243e+01 9.558008e-01 1.165354e+00 2.247751e+00 2.214754e+00 2.460580e+00 4.204471e+00 2.913755e+00 2.826816e+00 2.508301e+00 2.887678e+00 1.524044e+00 1.217088e+00 1.494252e+00
<GCONST> 9.911115e+01
~s "ST_ao_3_1"
<MEAN> 25
 1.053014e+01 5.108984e+00 6.933820e+00 3.277525e-01 3.987575e-01 -8.015001e+00 -2.384050e+00 -1.488891e+00 3.164595e+00 -1.417907e+00 -3.590701e+00 5.790234e-01 4.577427e+00 -6.009304e+00 -1.978650e+00 -2.756283e+00 3.933156e-01 -3.903609e+00 -2.162311e+00 -5.832869e-01 1.154024e+00 8.745489e-01 -1.912643e+00 9.887557e-03 7.430035e+00
<VARIANCE> 25
 3.434119e+01 2.342328e+02 9.657302e+01 8.517023e+01 3.759088e+01 4.450877e+01 6.391841e+01 2.498634e+01 3.672597e+01 4.231664e+01 1.875685e+01 1.705375e+01 1.614716e+01 7.279114e+00 8.666761e+00 8.547160e+00 7.165797e+00 5.984776e+00 1.507696e+01 7.521953e+00 7.506519e+00 3.794834e+00 5.533486e+00 3.604276e+00 7.601284e+00
<GCONST> 1.178016e+02
~s "ST_ao_4_1"
<MEAN> 25
 1.888172e+01 -9.077938e+00 3.520212e-01 -2.382461e+00 2.038176e-01 -1.100079e+01 -9.761192e+00 -3.259969e+00 9.032702e+00 -1.232087e+00 -8.195215e+00 3.019770e+00 1.235063e+00 -3.949130e+00 1.148075e-01 -8.362388e-01 -9.992844e-01 1.717298e+00 -1.402836e+00 6.594297e-01 8.329415e-01 -4.714306e-01 -1.594665e-01 3.972609e-02 1.950544e+00
<VARIANCE> 25
 4.359106e+01 3.908227e+01 1.200248e+02 3.867447e+01 6.361999e+01 1.024071e+02 1.119335e+02 5.818954e+01 8.224314e+01 2.206968e+01 3.332286e+01 4.418501e+01 4.823856e+00 9.969249e+00 1.269751e+01 7.841524e+00 5.604033e+00 1.058826e+01 7.404357e+00 4.788840e+00 4.110412e+00 3.513080e+00 3.293498e+00 3.722018e+00 7.696438e+00
<GCONST> 1.175348e+02
~s "ST_sil_2_1"
<MEAN> 25
 -1.079608e+01 4.695022e+00 -1.845440e+00 3.683948e+00 5.032858e-01 2.623637e+00 2.113479e+00 -4.614666e-02 8.186061e-01 -1.982179e+00 5.802280e-01 5.297475e-01 -2.039806e-02 -2.178689e-04 1.534765e-02 2.554361e-02 2.016778e-02 1.179946e-02 3.854905e-02 2.064085e-02 -1.695859e-02 -2.111963e-02 -1.312827e-03 1.224238e-02 -1.222598e-02
<VARIANCE> 25
 7.318878e+00 5.167974e+00 9.778362e+00 1.402189e+01 1.055316e+01 1.308725e+01 1.548162e+01 1.564695e+01 1.375353e+01 1.198632e+01 1.189981e+01 1.289119e+01 1.140033e-01 2.379238e-01 4.118168e-01 6.397019e-01 7.929411e-01 9.252017e-01 1.090542e+00 1.196186e+00 1.184738e+00 1.209975e+00 1.195288e+00 1.167607e+00 4.396358e-02
<GCONST> 6.764065e+01
~s "silst"
<MEAN> 25
 -1.598647e+01 3.433394e+00 -3.626470e-01 5.009684e+00 1.897075e+00 5.302578e+00 4.147445e+00 4.913630e+00 5.792140e+00 1.649426e+00 4.962243e+00 4.045248e+00 -9.365977e-03 -2.047931e-03 2.560830e-02 2.109030e-02 3.134799e-02 6.211466e-03 -7.001224e-03 -8.539759e-02 -8.831134e-02 -1.184803e-02 1.064375e-02 6.450451e-03 -1.928415e-03
<VARIANCE> 25
 7.129639e+00 3.737003e+00 5.302713e+00 1.039162e+01 1.014202e+01 9.912094e+00 1.151090e+01 1.562617e+01 1.283081e+01 1.012583e+01 8.623787e+00 7.806852e+00 4.253944e-02 1.169610e-01 2.338002e-01 3.132313e-01 4.854853e-01 4.454682e-01 7.435725e-01 1.214986e+00 1.317166e+00 1.075097e+00 7.757068e-01 8.400699e-01 4.115048e-02
<GCONST> 5.929683e+01
~s "ST_sil_3_1"
<MEAN> 25
 -1.598647e+01 3.433394e+00 -3.626470e-01 5.009684e+00 1.897075e+00 5.302578e+00 4.147445e+00 4.913630e+00 5.792140e+00 1.649426e+00 4.962243e+00 4.045248e+00 -9.365977e-03 -2.047931e-03 2.560830e-02 2.109030e-02 3.134799e-02 6.211466e-03 -7.001224e-03 -8.539759e-02 -8.831134e-02 -1.184803e-02 1.064375e-02 6.450451e-03 -1.928415e-03
<VARIANCE> 25
 7.129639e+00 3.737003e+00 5.302713e+00 1.039162e+01 1.014202e+01 9.912094e+00 1.151090e+01 1.562617e+01 1.283081e+01 1.012583e+01 8.623787e+00 7.806852e+00 4.253944e-02 1.169610e-01 2.338002e-01 3.132313e-01 4.854853e-01 4.454682e-01 7.435725e-01 1.214986e+00 1.317166e+00 1.075097e+00 7.757068e-01 8.400699e-01 4.115048e-02
<GCONST> 5.929683e+01
~s "ST_sil_4_1"
<MEAN> 25
 -8.286602e+00 4.498354e+00 7.926782e-01 3.738083e+00 1.513377e+00 2.645765e+00 2.082801e+00 4.415596e-01 -1.610842e-01 -2.417973e+00 2.767961e-02 8.189903e-01 3.736910e-01 3.648758e-02 3.639358e-02 -6.702619e-02 -6.811102e-02 -2.150886e-01 -2.940749e-01 -7.046549e-02 -5.273148e-02 -1.862829e-02 -1.466816e-01 -2.031090e-01 2.888874e-01
<VARIANCE> 25
 4.246222e+01 3.385743e+01 2.487610e+01 2.551047e+01 1.982123e+01 2.330812e+01 2.180203e+01 2.103396e+01 1.985679e+01 1.885327e+01 1.576758e+01 1.337674e+01 2.658118e+00 2.627214e+00 1.735650e+00 1.886013e+00 2.117021e+00 2.567778e+00 1.880837e+00 1.684760e+00 1.677952e+00 1.668042e+00 1.499656e+00 1.226504e+00 4.174041e+00
<GCONST> 9.225439e+01
~s "ST_iy_2_1"
<MEAN> 25
 5.113558e+00 1.706236e+01 7.010703e+00 5.672156e+00 -4.922205e+00 -1.837828e+00 -5.677919e-01 -4.390008e+00 -2.213572e+00 -4.363698e+00 -2.024832e+00 -2.217459e+00 -1.919666e+00 -1.173173e+00 -5.030634e-01 7.109334e-01 1.325849e+00 7.879928e-01 -1.563980e-01 -5.222494e-02 1.801477e-01 4.727152e-02 8.482504e-03 1.211639e-01 -1.139081e+00
<VARIANCE> 25
 5.029048e+01 3.267160e+01 2.666996e+01 1.063567e+01 1.450575e+01 1.550971e+01 1.516842e+01 2.531372e+01 1.414408e+01 1.721053e+01 2.185408e+01 1.398443e+01 1.418671e+00 1.720818e+00 2.083966e+00 1.024097e+00 1.157102e+00 1.426353e+00 1.258402e+00 1.980039e+00 1.557275e+00 1.451275e+00 1.429933e+00 1.591587e+00 3.862153e-01
<GCONST> 8.533371e+01
~s "ST_iy_3_1"
<MEAN> 25
 -6.256301e+00 9.163424e+00 7.360843e-01 7.529402e+00 1.394990e+00 2.547114e+00 5.641713e-01 -4.058042e+00 -1.939416e+00 -3.737931e+00 -1.299007e-01 1.006982e+00 -1.107504e+00 -9.171376e-01 -7.659236e-01 -3.113134e-01 3.711214e-01 4.609468e-01 3.616357e-01 4.607268e-01 1.244397e-01 -5.937780e-02 1.094083e-01 1.628911e-01 -5.710741e-01
<VARIANCE> 25
 1.379118e+01 1.578455e+01 1.266048e+01 1.782671e+01 8.811968e+00 1.595779e+01 9.612470e+00 1.701360e+01 1.632127e+01 1.655887e+01 2.119825e+01 2.923908e+01 1.070412e+00 1.496495e+00 1.394145e+00 1.210906e+00 8.692113e-01 6.878168e-01 1.549720e+00 1.785086e+00 1.524910e+00 1.889928e+00 1.004344e+00 1.477693e+00 2.185008e-01
<GCONST> 8.025141e+01
~s "ST_iy_4_1"
<MEAN> 25
 -8.714838e+00 5.531332e+00 5.724978e-01 7.338225e+00 2.083345e+00 2.391639e+00 1.983137e+00 -1.501495e+00 -2.352914e+00 -3.999346e+00 -1.089609e+00 -5.832566e-01 -1.675697e-01 -7.722546e-02 -6.621389e-02 -8.100280e-02 -4.240497e-02 -6.962387e-02 8.178002e-02 1.612862e-01 1.444376e-01 1.224128e-01 1.753125e-02 -3.413044e-02 -9.300166e-02
<VARIANCE> 25
 5.582771e+00 8.070568e+00 1.070195e+01 1.810278e+01 1.050052e+01 1.120244e+01 1.137369e+01 1.257672e+01 1.187139e+01 1.483719e+01 1.514490e+01 1.208215e+01 2.298395e-01 5.718092e-01 8.618387e-01 8.821719e-01 1.032265e+00 8.783346e-01 8.590235e-01 7.727129e-01 1.276789e+00 1.307703e+00 1.600144e+00 1.606063e+00 6.641945e-02
<GCONST> 7.106625e+01
~s "ST_ae_2_1"
<MEAN> 25
 2.037495e+01 -2.493736e+01 -3.569377e+00 2.285575e+00 -7.029602e+00 -6.451717e+00 6.017826e+00 2.012593e+00 -4.803025e-01 2.299307e+00 -1.054543e+01 -2.760022e+00 -7.796859e-01 -1.103008e+00 1.963186e+00 -4.604551e-01 -8.209837e-01 -3.231933e-01 1.149778e+00 9.246981e-01 -1.048018e+00 -7.338514e-01 -4.797699e-01 2.705646e-01 5.942341e-01
<VARIANCE> 25
 1.430780e+01 1.783411e+01 5.603627e+01 5.719249e+01 4.283591e+01 1.889242e+01 4.700662e+01 4.454537e+01 2.163043e+01 2.586959e+01 2.212439e+01 1.732663e+01 7.978497e-01 2.541158e+00 3.173115e+00 3.913067e+00 5.108177e+00 1.851440e+00 3.029748e+00 4.569515e+00 2.935222e+00 2.590563e+00 3.837764e+00 1.649888e+00 3.849248e-01
<GCONST> 9.720036e+01
~s "ST_ae_3_1"
<MEAN> 25
 1.542230e+01 -2.302922e+01 5.723293e+00 -5.408020e+00 -3.837428e+00 -6.900273e+00 3.044405e+00 1.347264e+01 -7.129732e+00 -4.671370e+00 -3.443456e+00 -5.262538e+00 -1.509545e-01 8.718166e-01 3.308517e-01 5.926952e-01 -6.465582e-01 -3.434485e-01 1.169518e+00 6.034328e-01 -1.503999e+00 -3.651083e-01 9.050972e-01 -5.046784e-01 -5.729086e-01
<VARIANCE> 25
 2.319559e+01 1.885840e+01 5.282303e+01 1.228163e+02 3.948272e+01 3.485425e+01 3.065529e+01 3.317751e+01 3.834095e+01 1.573874e+01 2.190714e+01 2.796452e+01 5.038766e-01 6.760497e-01 1.627129e+00 1.451580e+00 1.996541e+00 9.834343e-01 1.247864e+00 1.010562e+00 1.370545e+00 1.748510e+00 1.138738e+00 9.915503e-01 4.433238e-01
<GCONST> 8.864876e+01
~s "ST_ae_4_1"
<MEAN> 25
 1.694508e+01 -1.436370e+01 4.174058e+00 2.288031e+00 -1.232228e+01 -7.411900e+00 1.324244e+01 5.335171e+00 -1.224879e+01 -4.206688e-01 -1.503636e+00 -5.903608e+00 -1.184217e-01 2.358573e+00 5.007147e-01 -4.682297e-01 -5.936228e-01 8.082955e-01 1.138064e+00 -1.394511e+00 -1.698580e+00 1.118183e+00 7.141407e-01 -2.694274e-01 -1.155435e+00
<VARIANCE> 25
 1.643341e+01 4.737256e+01 9.152567e+01 1.043335e+02 5.092058e+01 2.533054e+01 4.099586e+01 8.153990e+01 3.139328e+01 3.354192e+01 3.138281e+01 3.017846e+01 3.187723e-01 2.151758e+00 2.624750e+00 2.500563e+00 2.249434e+00 2.114908e+00 2.809533e+00 2.201430e+00 1.616623e+00 2.253950e+00 1.614347e+00 1.767255e+00 1.313501e+00
<GCONST> 9.835852e+01
~s "ST_w_2_1"
<MEAN> 25
 2.612453e+01 -6.930076e-01 -1.003042e+01 -1.473938e+01 -1.694673e+00 3.120243e+00 1.326785e+00 -6.387338e+00 -1.182424e+01 4.356619e+00 7.025393e+00 -2.018972e+00 8.904949e-01 -3.765599e+00 2.128968e-01 1.931908e+00 -5.646119e-02 -2.601975e+00 8.760861e-02 1.027410e-01 -5.914559e-01 2.272266e+00 3.803539e-01 -1.938932e+00 2.485481e+00
<VARIANCE> 25
 1.514648e+01 5.891957e+01 3.995412e+01 7.847818e+01 5.172692e+01 3.474097e+01 4.581363e+01 3.115273e+01 4.543289e+01 4.282543e+01 2.485035e+01 2.321186e+01 2.276796e+00 2.310975e+00 6.696699e+00 6.500069e+00 9.409848e+00 7.716866e+00 5.622971e+00 3.888102e+00 7.130627e+00 2.573482e+00 4.325811e+00 3.195188e+00 2.415064e+00
<GCONST> 1.087012e+02
~s "ST_w_3_1"
<MEAN> 25
 2.281523e+01 -1.375024e+01 -6.573668e+00 -7.537082e+00 7.782550e-01 -4.981378e+00 -3.003022e+00 -7.943867e-01 -6.005264e+00 7.573997e+00 3.932666e+00 -1.009836e+01 -1.093804e+00 -2.137811e+00 1.035697e+00 1.879230e+00 -3.379419e-01 -1.704823e+00 -1.796813e-01 1.762204e+00 2.567554e+00 -1.229051e+00 -2.225455e+00 -1.339391e+00 1.122127e+00
<VARIANCE> 25
 2.579144e+01 1.741501e+01 4.160195e+01 8.145789e+01 5.247160e+01 6.844946e+01 7.601927e+01 7.729300e+01 6.955905e+01 4.824793e+01 3.989135e+01 3.175214e+01 4.558455e-01 2.381004e+00 2.148516e+00 2.017415e+00 3.534190e+00 2.996281e+00 4.065918e+00 2.620982e+00 4.228335e+00 2.580261e+00 2.087440e+00 3.166026e+00 5.504233e-01
<GCONST> 1.022658e+02
~s "ST_w_4_1"
<MEAN> 25
 2.073132e+01 -1.848385e+01 -3.317843e+00 -1.145818e+00 -6.000886e+00 -7.959470e+00 1.369371e-01 3.121899e+00 6.112108e-03 1.117333e+00 -3.445185e+00 -1.003647e+01 -6.112050e-03 -3.681864e-01 3.742563e-01 8.239028e-01 -1.047709e+00 1.797515e-01 4.814459e-01 4.248240e-03 6.420530e-01 -5.354848e-01 -1.568598e+00 4.665878e-01 -2.693168e-01
<VARIANCE> 25
 2.401907e+01 1.930771e+01 3.778102e+01 5.631822e+01 5.348204e+01 2.968036e+01 4.913018e+01 8.674049e+01 4.920665e+01 4.456374e+01 3.906545e+01 2.447942e+01 5.971953e-01 7.424203e-01 1.203401e+00 1.447668e+00 1.695957e+00 3.046750e+00 1.707083e+00 3.943654e+00 3.030950e+00 3.564504e+00 2.044032e+00 2.561824e+00 3.697300e-01
<GCONST> 9.636389e+01
~s "ST_ng_2_1"
<MEAN> 25
 1.768846e+01 -3.185817e+00 4.129194e+00 -1.267613e+00 -1.146458e+01 -1.696488e+00 1.374961e+01 -2.585912e+00 -1.750752e+01 2.512783e+00 9.200450e-01 -3.219966e+00 1.160185e+00 4.548757e+00 -3.404428e+00 9.259634e-01 1.410011e+00 1.583147e+00 -1.522599e+00 -3.712097e+00 1.346136e+00 -1.197889e-01 3.936312e-01 9.771676e-01 -2.608894e+00
<VARIANCE> 25
 1.096793e+01 5.879535e+01 8.773222e+01 6.768910e+01 7.673471e+01 3.418660e+01 6.498187e+01 9.921552e+01 4.699884e+01 3.084217e+01 2.330233e+01 2.478459e+01 8.448008e-01 2.919485e+00 5.808741e+00 1.117544e+01 7.075092e+00 4.495097e+00 1.438337e+01 7.443202e+00 6.927301e+00 4.250345e+00 3.072333e+00 2.434574e+00 7.567902e-01
<GCONST> 1.097113e+02
~s "ST_ng_3_1"
<MEAN> 25
 1.986047e+01 1.010390e+01 -3.933975e+00 -3.614297e+00 -2.430201e+00 8.730334e-01 -8.547047e-01 -8.254112e+00 -7.778324e+00 -7.391945e-01 5.073844e-01 -6.533092e-01 -6.972095e-01 -1.185985e+00 6.149603e-01 -1.168420e+00 2.415377e+00 -1.117039e+00 -3.386328e+00 1.656060e+00 1.914006e+00 2.463723e-01 -1.144064e+00 -5.193164e-01 8.319614e-01
<VARIANCE> 25
 8.173523e+00 3.903494e+01 4.761815e+01 4.662960e+01 8.352641e+01 5.892026e+01 8.214039e+01 7.709729e+01 3.774084e+01 2.277271e+01 2.888271e+01 2.464580e+01 9.365069e-01 1.142942e+01 5.204795e+00 8.784397e+00 9.386569e+00 5.610089e+00 8.354438e+00 7.930338e+00 3.736666e+00 3.553347e+00 3.950858e+00 2.702538e+00 3.388596e+00
<GCONST> 1.105218e+02
~s "ST_m_2_1"
<MEAN> 25
 2.751731e+00 4.280516e+00 8.854747e+00 -7.539719e+00 7.710619e+00 -1.202299e+01 -5.541946e+00 3.635166e+00 4.274146e-01 -3.797494e+00 -4.021009e+00 2.624556e+00 1.710593e+00 -1.107234e+00 8.043392e-01 -1.207398e+00 2.221019e-01 -5.102773e-01 -1.157346e+00 -8.151932e-01 5.694063e-02 1.783137e-01 -1.649582e-02 -2.944893e-01 3.383736e+00
<VARIANCE> 25
 6.702521e+01 8.073515e+01 6.081972e+01 6.431343e+01 9.658347e+01 7.183940e+01 1.408855e+02 6.690555e+01 5.064505e+01 5.882870e+01 5.507687e+01 3.201422e+01 1.433599e+01 1.170991e+01 5.128540e+00 8.512088e+00 1.472203e+01 8.718185e+00 1.154436e+01 1.206508e+01 9.246456e+00 1.030914e+01 6.602139e+00 4.567534e+00 5.012035e+00
<GCONST> 1.245516e+02
~s "ST_ng_4_1"
<MEAN> 25
 1.588947e+01 -8.812076e+00 2.410370e+00 -2.160693e+01 1.140497e+01 -1.264174e+00 -1.863918e+01 4.868436e+00 -2.400619e-02 9.159117e+00 -5.869599e+00 -4.618275e+00 1.560578e-01 -1.222438e+00 2.579276e-01 -1.755055e+00 3.247603e-01 8.426598e-01 -1.257881e+00 -1.247129e-01 6.042550e-01 9.269092e-01 -1.266693e-01 2.811599e-02 1.082597e+00
<VARIANCE> 25
 7.030838e+00 1.508323e+01 3.655342e+01 9.143533e+01 5.905164e+01 5.498711e+01 3.383591e+01 5.961133e+01 2.281718e+01 3.893224e+01 3.768222e+01 2.434454e+01 5.050986e-01 6.183821e+00 3.531297e+00 8.363131e+00 7.385206e+00 5.573107e+00 5.023226e+00 1.019910e+01 3.288147e+00 2.645686e+00 3.738691e+00 2.408447e+00 2.990748e+00
<GCONST> 1.056656e+02
~s "ST_m_3_1"
<MEAN> 25
 2.273065e+01 -1.117272e+01 7.835209e+00 -1.732001e+01 1.936809e+00 1.489164e+00 -1.189394e+01 -1.139762e+01 -6.030771e-01 7.661216e+00 -2.176082e+00 -2.354618e+00 2.422604e+00 1.482570e-01 -1.922963e+00 -2.756791e-01 -1.185794e+00 3.258482e+00 1.132286e+00 -6.005467e-01 -8.780828e-01 5.203597e-02 5.351391e-01 6.634760e-01 -1.161861e+00
<VARIANCE> 25
 1.856262e+01 8.884560e+00 3.230284e+01 1.063104e+02 4.911484e+01 1.434552e+02 6.267154e+01 8.096478e+01 3.175089e+01 3.822885e+01 2.060685e+01 3.287851e+01 1.925792e+00 5.065726e+00 4.389807e+00 7.038986e+00 4.165500e+00 5.615488e+00 4.867652e+00 7.433167e+00 5.090169e+00 1.121565e+01 2.311602e+00 3.282274e+00 2.978076e+00
<GCONST> 1.098179e+02
~s "ST_er_2_1"
<MEAN> 25
 -5.422307e+00 3.328580e+00 5.342598e+00 -9.336263e+00 9.259047e+00 -9.209164e+00 2.005021e+00 4.156230e+00 4.680039e-01 -3.447186e+00 1.145053e+00 2.860597e+00 -2.416611e+00 2.296258e-01 8.173055e-01 -4.581113e-02 -2.936007e-01 -9.755654e-01 1.732495e+00 5.187775e-01 -2.352608e-01 -7.979823e-01 7.129204e-01 6.103547e-01 -3.457006e-01
<VARIANCE> 25
 1.616488e+02 4.678749e+01 5.875578e+01 3.910044e+01 6.809095e+01 6.960775e+01 8.267080e+01 6.288069e+01 5.196808e+01 4.981815e+01 4.332809e+01 4.498877e+01 1.878201e+01 9.006714e+00 6.779407e+00 4.276282e+00 1.110432e+01 6.145243e+00 6.204730e+00 7.571516e+00 5.831843e+00 6.568487e+00 4.336283e+00 5.425865e+00 1.315885e+00
<GCONST> 1.187204e+02
~s "ST_m_4_1"
<MEAN> 25
 2.104995e+01 -5.897697e+00 2.953703e+00 -6.106814e+00 -3.094895e+00 2.129764e+00 1.285542e+00 -6.753628e+00 -6.457774e+00 6.122085e-01 -3.693622e-01 -9.618915e-01 -3.063227e-01 4.331239e-01 -5.498835e-02 3.734161e-01 -3.007611e-02 -3.328722e-01 9.097333e-02 2.731758e-01 1.261381e-02 -7.089049e-02 1.177902e-02 -1.935847e-01 -5.664284e-01
<VARIANCE> 25
 6.077286e+01 1.083367e+02 1.348301e+02 1.940878e+02 1.144803e+02 8.528667e+01 1.076271e+02 1.468879e+02 8.791399e+01 7.281158e+01 4.638026e+01 3.069980e+01 1.930747e+00 7.694020e+00 8.768008e+00 1.115498e+01 4.834907e+00 4.056973e+00 5.506806e+00 9.365801e+00 6.940805e+00 7.459321e+00 4.679935e+00 3.786104e+00 6.755628e+00
<GCONST> 1.227243e+02
~s "ST_er_3_1"
<MEAN> 25
 1.258718e+01 -1.121548e+01 9.578874e+00 -3.712313e+00 -6.399206e+00 -1.221599e+01 1.349497e+00 4.959701e+00 -3.625609e+00 1.314929e+00 -8.323525e-01 9.472771e-01 3.231965e+00 -1.691551e+00 -4.365982e-01 1.244221e+00 -1.243544e+00 3.653620e-01 -1.545605e+00 -4.035492e-01 1.465128e-01 8.113649e-01 -1.231632e+00 -5.574486e-01 8.661528e-01
<VARIANCE> 25
 1.013492e+02 4.302394e+01 5.012682e+01 5.729176e+01 4.667984e+01 7.194302e+01 8.338882e+01 4.092034e+01 4.822155e+01 5.647438e+01 5.661272e+01 2.977654e+01 1.451641e+01 5.667107e+00 5.562832e+00 6.240003e+00 6.837040e+00 6.752137e+00 5.684843e+00 5.976689e+00 8.090423e+00 7.292357e+00 5.454923e+00 3.247636e+00 4.812672e+00
<GCONST> 1.177220e+02
~s "ST_ah_2_1"
<MEAN> 25
 2.031635e+01 -6.757056e+00 -4.320204e+00 -1.168526e+01 5.063190e+00 3.948068e-01 -7.508814e+00 -4.396532e+00 -6.390991e-01 6.597219e+00 -5.798410e+00 -3.027430e+00 2.251417e-01 1.755805e+00 -9.260293e-01 1.417715e+00 -6.613089e-01 3.294275e-01 1.240690e-01 -1.234576e+00 1.932588e-01 -6.167107e-01 -2.208957e-02 4.396202e-01 -1.541007e+00
<VARIANCE> 25
 1.609451e+01 5.200206e+01 5.185983e+01 1.986221e+02 9.360615e+01 9.140424e+01 9.513649e+01 8.286437e+01 6.305469e+01 8.828900e+01 4.189001e+01 4.775550e+01 1.101895e+00 5.679118e+00 4.194992e+00 7.630081e+00 6.144150e+00 7.447134e+00 6.871669e+00 8.088963e+00 5.282326e+00 4.796461e+00 4.408380e+00 3.471565e+00 3.375055e+00
<GCONST> 1.164871e+02
~s "ST_er_4_1"
<MEAN> 25
 1.820689e+01 -1.087260e+01 2.689111e+00 4.917517e+00 -5.590373e+00 -6.390025e+00 -7.748829e+00 -8.358868e-01 5.570902e+00 7.099398e-01 -6.565813e+00 -3.536434e-01 -1.210879e+00 1.989772e+00 -7.705172e-01 9.010196e-01 7.666463e-01 4.195358e-01 -5.820538e-01 -4.022470e-02 1.249167e+00 -4.288638e-01 3.337467e-01 6.410143e-01 -2.403929e+00
<VARIANCE> 25
 4.157544e+01 5.632549e+01 9.597502e+01 5.211438e+01 5.194114e+01 5.400014e+01 4.076055e+01 3.740126e+01 4.160157e+01 3.547247e+01 2.685931e+01 3.254732e+01 5.778597e+00 4.693851e+00 1.386177e+01 8.121243e+00 4.228063e+00 7.934527e+00 5.307930e+00 6.124070e+00 3.810012e+00 4.048641e+00 3.858384e+00 2.725682e+00 4.305652e+00
<GCONST> 1.131292e+02
~s "ST_ah_3_1"
<MEAN> 25
 2.339849e+01 -2.605536e+00 -1.180450e+01 -4.397947e+00 -8.884835e-01 -8.899216e-01 -3.158734e+00 -1.159598e+01 -3.677922e+00 6.078755e+00 -1.580272e+00 -6.810374e+00 -2.972611e-01 1.775473e+00 1.456722e-02 -6.158312e-01 3.407522e-01 9.005327e-01 -4.941016e-01 -4.223878e-01 2.914798e-02 -4.352458e-01 -3.902775e-02 3.446192e-01 -1.104226e+00
<VARIANCE> 25
 1.304547e+01 5.139260e+01 2.145399e+01 6.650718e+01 5.889894e+01 4.114500e+01 5.055269e+01 4.209006e+01 4.512734e+01 3.547251e+01 4.115168e+01 2.594741e+01 5.755567e-01 2.812896e+00 1.707298e+00 2.698785e+00 4.410055e+00 2.385465e+00 3.274921e+00 3.228427e+00 2.503100e+00 2.619259e+00 2.108578e+00 1.192542e+00 1.256744e+00
<GCONST> 9.927757e+01
~s "ST_ah_4_1"
<MEAN> 25
 1.654591e+01 1.124255e+01 -4.409073e+00 -5.357151e+00 1.282242e+00 2.660687e+00 -6.283258e+00 -7.868498e+00 -1.390582e+00 -2.164092e-01 -2.020925e+00 -3.145379e+00 -2.439712e+00 1.814014e+00 2.640627e+00 6.322457e-01 -1.466706e+00 -1.568227e-01 1.076227e+00 9.368669e-01 -1.383131e-01 -7.138236e-01 7.647837e-01 5.388923e-01 -2.191957e+00
<VARIANCE> 25
 3.123697e+01 5.444221e+01 7.442788e+01 6.095647e+01 7.024679e+01 4.706620e+01 5.148843e+01 3.044607e+01 4.067635e+01 3.800246e+01 2.620875e+01 2.180156e+01 3.193505e+00 4.808587e+00 3.949767e+00 4.030121e+00 4.705071e+00 3.299221e+00 3.718035e+00 3.541432e+00 3.193519e+00 3.404209e+00 2.515168e+00 2.155480e+00 2.181360e+00
<GCONST> 1.066334e+02
~s "ST_z_2_1"
<MEAN> 25
 -6.523351e+00 9.852517e-01 -2.425330e+00 1.819867e-01 6.036890e-01 7.433158e-01 -1.379746e+00 2.665198e+00 1.021374e+00 4.162535e-01 9.638333e-01 9.665703e-01 -5.720959e-03 1.997562e-02 -4.412335e-02 -1.817582e-02 1.573907e-02 2.333643e-02 8.239492e-04 9.008953e-02 6.828793e-02 -3.302550e-02 -5.854509e-02 2.017941e-03 -2.305875e-02
<VARIANCE> 25
 2.285065e+00 1.974061e+00 5.548428e+00 1.035667e+01 1.432505e+01 1.007670e+01 1.266808e+01 1.059752e+01 1.310248e+01 1.114780e+01 9.450421e+00 8.130994e+00 1.232520e-01 2.713227e-01 3.746313e-01 8.510618e-01 6.911597e-01 8.225474e-01 1.330320e+00 1.320167e+00 1.214620e+00 1.333648e+00 1.038368e+00 8.333521e-01 4.115048e-02
<GCONST> 6.330685e+01
~s "ST_z_3_1"
<MEAN> 25
 -7.743876e+00 -1.295029e+00 -2.938959e+00 1.090656e+00 -1.055655e+00 5.833586e-02 4.624017e-01 2.655099e+00 3.416683e+00 2.158553e-02 -7.973931e-01 2.769132e-01 1.826275e-01 9.786599e-02 1.382333e-01 4.400425e-03 7.924543e-02 1.783543e-01 4.778423e-02 -1.192700e-02 1.637391e-01 1.479972e-02 -6.415291e-02 -1.825695e-01 1.005908e-01
<VARIANCE> 25
 6.234585e+00 1.341419e+01 2.396477e+01 9.371447e+00 7.793237e+00 1.118970e+01 1.891123e+01 1.377609e+01 3.018292e+01 9.146089e+00 1.284102e+01 1.203436e+01 8.216205e-01 1.624403e+00 3.691405e+00 1.543859e+00 1.201613e+00 1.273193e+00 2.447755e+00 1.420586e+00 4.648551e+00 1.010488e+00 1.326469e+00 1.841451e+00 7.625695e-01
<GCONST> 8.234895e+01
~s "ST_z_4_1"
<MEAN> 25
 -1.157307e+00 6.304254e+00 2.364883e-01 -2.013151e+00 4.818828e+00 -2.170403e+00 -3.858933e+00 3.932160e-01 1.721458e+00 -3.748633e+00 -4.161972e+00 -3.004834e-01 -3.452872e-01 5.516244e-01 1.256469e+00 -2.790739e-01 9.701054e-01 -4.687865e-01 -9.693471e-01 -8.927612e-01 -1.510790e+00 -8.432009e-01 4.621587e-03 5.422319e-02 1.056412e+00
<VARIANCE> 25
 2.366119e+01 1.836650e+01 2.595611e+01 1.886499e+01 3.393618e+01 2.535690e+01 3.046899e+01 2.061235e+01 1.886347e+01 1.362354e+01 2.210324e+01 8.018929e+00 3.922503e+00 5.961914e-01 2.339530e+00 1.281445e+00 1.719757e+00 2.475710e+00 4.585714e+00 2.091511e+00 3.273821e+00 1.269848e+00 1.973676e+00 7.743315e-01 7.229899e-01
<GCONST> 8.932336e+01
~s "ST_eh_2_1"
<MEAN> 25
 2.131500e+01 -1.738651e+01 -8.741897e-01 4.556911e+00 -1.153287e+01 -4.861310e+00 3.018497e+00 -2.643315e+00 5.923519e-01 4.427841e+00 -7.347243e+00 -3.687403e+00 3.877938e-02 8.684699e-01 -2.145791e-01 5.962630e-01 1.924973e-01 -4.539731e-01 1.296735e-01 -3.245644e-01 -3.282069e-01 1.693209e-01 -2.006038e-01 4.398198e-01 -7.922880e-01
<VARIANCE> 25
 1.836728e+01 1.901291e+01 4.324109e+01 4.643654e+01 2.805304e+01 4.856530e+01 4.156816e+01 4.848702e+01 5.221081e+01 3.150136e+01 4.209603e+01 2.934153e+01 2.507429e+00 2.346990e+00 6.504941e+00 5.664133e+00 4.371980e+00 5.372588e+00 3.623976e+00 6.811998e+00 5.432171e+00 4.071441e+00 4.161370e+00 2.803338e+00 2.410230e+00
<GCONST> 1.069320e+02
~s "ST_eh_3_1"
<MEAN> 25
 1.925997e+01 -4.853054e+00 -5.712955e+00 6.368707e+00 -2.559451e+00 -8.641101e+00 -5.251827e-01 3.119647e-01 1.173465e+00 -5.078460e-01 -6.989662e+00 -1.205979e+00 -1.664436e+00 4.219298e+00 -9.901272e-01 -2.632750e-01 2.766887e+00 6.248943e-01 -1.457478e+00 1.555005e+00 1.408222e+00 -2.046413e+00 9.312042e-01 8.431464e-01 -3.616375e+00
<VARIANCE> 25
 2.789819e+01 5.048503e+01 4.575859e+01 6.365112e+01 5.788136e+01 3.551404e+01 4.852724e+01 5.994090e+01 5.334335e+01 5.558976e+01 4.313647e+01 3.393799e+01 2.360906e+00 4.412308e+00 3.821769e+00 7.695735e+00 6.087435e+00 5.409996e+00 4.357624e+00 7.245029e+00 3.206512e+00 4.981070e+00 4.961963e+00 1.657607e+00 2.517881e+00
<GCONST> 1.105344e+02
~s "ST_eh_4_1"
<MEAN> 25
 6.610829e+00 6.871629e+00 -3.399477e+00 1.257018e+00 4.222622e-01 -2.485287e+00 -3.071584e+00 2.866590e+00 4.499609e+00 -2.023081e+00 -3.693813e+00 -8.136801e-01 -2.668779e+00 7.773619e-01 5.944160e-01 -8.046588e-01 -5.806522e-01 1.071024e+00 1.946950e-01 -4.644147e-01 -1.158933e-01 3.810275e-01 8.096253e-01 1.817008e-01 -2.285730e+00
<VARIANCE> 25
 1.142354e+02 7.168478e+01 6.840807e+01 2.340926e+01 3.267426e+01 3.065783e+01 3.654113e+01 3.084661e+01 3.001177e+01 2.767104e+01 1.828400e+01 1.762867e+01 3.072519e+00 6.734095e+00 5.806791e+00 3.872437e+00 3.838969e+00 2.475803e+00 2.956582e+00 2.980187e+00 2.717907e+00 2.783809e+00 2.088062e+00 1.723374e+00 2.659210e+00
<GCONST> 1.036232e+02
~s "ST_ih_2_1"
<MEAN> 25
 -1.212877e+01 3.823597e+00 -7.503161e-01 -4.108025e-01 5.102692e-01 3.495482e+00 1.408662e+00 -6.204681e-02 1.041156e+00 -1.459594e+00 3.057939e+00 3.369151e+00 5.233490e-01 -1.800710e-01 -1.315292e-01 -3.158967e-01 -2.630591e-01 -2.218207e-01 -1.725222e-01 -1.187322e-02 -2.399405e-01 -1.350963e-01 -1.501378e-01 -2.763780e-01 4.746614e-01
<VARIANCE> 25
 4.396634e+01 1.620684e+01 1.327450e+01 2.964858e+01 1.339946e+01 2.811572e+01 1.670440e+01 1.395102e+01 1.387922e+01 1.460264e+01 1.306480e+01 1.195272e+01 2.946570e+00 1.347223e+00 1.251379e+00 1.976334e+00 1.909824e+00 2.439207e+00 1.867432e+00 1.579433e+00 1.630136e+00 1.465831e+00 1.531170e+00 1.286428e+00 5.516709e+00
<GCONST> 8.839755e+01
~s "ST_ih_3_1"
<MEAN> 25
 -1.090400e+01 2.512643e+00 -2.879769e+00 2.022899e+00 1.047667e+00 3.112440e+00 2.853273e+00 1.002494e+00 7.944935e-01 -2.117324e+00 2.826635e-01 7.718095e-01 3.060287e-01 -2.675649e-01 2.202324e-01 3.612744e-01 3.801839e-01 3.656275e-02 -4.704466e-02 7.186213e-03 1.119814e-01 1.019680e-01 -2.707435e-01 -2.399023e-01 4.339981e-01
<VARIANCE> 25
 3.426273e+01 2.498108e+01 1.145154e+01 2.021272e+01 1.864620e+01 1.497019e+01 2.058212e+01 1.765051e+01 1.223451e+01 1.473984e+01 1.484324e+01 1.273516e+01 1.021731e+00 1.385928e+00 8.002021e-01 1.026855e+00 1.227906e+00 1.107403e+00 1.191006e+00 1.888353e+00 1.768932e+00 1.867595e+00 1.380522e+00 1.359503e+00 7.772644e-01
<GCONST> 8.294910e+01
~s "ST_ih_4_1"
<MEAN> 25
 -6.792334e+00 8.293278e-01 -1.008130e+00 4.289833e+00 1.703065e+00 1.617051e+00 1.324983e+00 1.530140e+00 2.873107e+00 -1.193185e+00 9.030876e-02 5.528119e-01 9.456729e-01 -1.128429e+00 1.006025e+00 5.213532e-01 7.413737e-01 -6.374934e-01 -3.166167e-01 3.028467e-02 2.564548e-01 1.153250e-01 -2.464006e-01 -1.542008e-01 2.051167e+00
<VARIANCE> 25
 5.371853e+01 5.778265e+01 1.931809e+01 1.621931e+01 2.282461e+01 3.117006e+01 2.202298e+01 1.619338e+01 2.633391e+01 2.239507e+01 1.984927e+01 1.631393e+01 6.519762e+00 7.340757e+00 3.110302e+00 2.607792e+00 2.288610e+00 4.385602e+00 2.331606e+00 1.350340e+00 2.526326e+00 2.016190e+00 1.462535e+00 2.116673e+00 9.585985e+00
<GCONST> 9.877146e+01
~h "t+uw"
<BEGINHMM>
<NUMSTATES> 5
<STATE> 2
~s "ST_t_2_1"
<STATE> 3
~s "ST_t_3_1"
<STATE> 4
~s "ST_t_4_2"
~t "T_t"
<ENDHMM>
~h "t-uw"
<BEGINHMM>
<NUMSTATES> 5
<STATE> 2
~s "ST_uw_2_1"
<STATE> 3
~s "ST_uw_3_1"
<STATE> 4
~s "ST_uw_4_1"
~t "T_uw"
<ENDHMM>
~h "sp"
<BEGINHMM>
<NUMSTATES> 3
<STATE> 2
~s "ST_sil_3_1"
<TRANSP> 3
 0.000000e+00 3.614514e-03 9.963855e-01
 0.000000e+00 1.807076e-01 8.192924e-01
 0.000000e+00 0.000000e+00 0.000000e+00
<ENDHMM>
~h "aw+t"
<BEGINHMM>
<NUMSTATES> 5
<STATE> 2
~s "ST_aw_2_1"
<STATE> 3
~s "ST_aw_3_1"
<STATE> 4
~s "ST_aw_4_1"
~t "T_aw"
<ENDHMM>
~h "aw-t"
<BEGINHMM>
<NUMSTATES> 5
<STATE> 2
~s "ST_t_2_1"
<STATE> 3
~s "ST_t_3_1"
<STATE> 4
~s "ST_t_4_1"
~t "T_t"
<ENDHMM>
~h "ay-ae+ng"
<BEGINHMM>
<NUMSTATES> 5
<STATE> 2
~s "ST_ae_2_1"
<STATE> 3
~s "ST_ae_3_1"
<STATE> 4
~s "ST_ae_4_1"
~t "T_ae"
<ENDHMM>
~h "g-ah+l"
<BEGINHMM>
<NUMSTATES> 5
<STATE> 2
~s "ST_ah_2_1"
<STATE> 3
~s "ST_ah_3_1"
<STATE> 4
~s "ST_ah_4_1"
~t "T_ah"
<ENDHMM>
~h "r-eh+d"
<BEGINHMM>
<NUMSTATES> 5
<STATE> 2
~s "ST_eh_2_1"
<STATE> 3
~s "ST_eh_3_1"
<STATE> 4
~s "ST_eh_4_1"
~t "T_eh"
<ENDHMM>
~h "th+r"
<BEGINHMM>
<NUMSTATES> 5
<STATE> 2
~s "ST_th_2_1"
<STATE> 3
~s "ST_th_3_1"
<STATE> 4
~s "ST_th_4_1"
~t "T_th"
<ENDHMM>
~h "th-r+iy"
<BEGINHMM>
<NUMSTATES> 5
<STATE> 2
~s "ST_r_2_1"
<STATE> 3
~s "ST_r_3_1"
<STATE> 4
~s "ST_r_4_1"
~t "T_r"
<ENDHMM>
~h "r-ey+s"
<BEGINHMM>
<NUMSTATES> 5
<STATE> 2
~s "ST_ey_2_1"
<STATE> 3
~s "ST_ey_3_1"
<STATE> 4
~s "ST_ey_4_1"
~t "T_ey"
<ENDHMM>
~h "ng-g+ah"
<BEGINHMM>
<NUMSTATES> 5
<STATE> 2
~s "ST_g_2_1"
<STATE> 3
~s "ST_g_3_1"
<STATE> 4
~s "ST_g_4_1"
~t "T_g"
<ENDHMM>
~h "f+ih"
<BEGINHMM>
<NUMSTATES> 5
<STATE> 2
~s "ST_f_2_1"
<STATE> 3
~s "ST_f_3_1"
<STATE> 4
~s "ST_f_4_1"
~t "T_f"
<ENDHMM>
~h "w+ah"
<BEGINHMM>
<NUMSTATES> 5
<STATE> 2
~s "ST_w_2_1"
<STATE> 3
~s "ST_w_3_1"
<STATE> 4
~s "ST_w_4_1"
~t "T_w"
<ENDHMM>
~h "b+l"
<BEGINHMM>
<NUMSTATES> 5
<STATE> 2
~s "ST_b_2_1"
<STATE> 3
~s "ST_b_3_1"
<STATE> 4
~s "ST_b_4_1"
~t "T_b"
<ENDHMM>
~h "d+r"
<BEGINHMM>
<NUMSTATES> 5
<STATE> 2
~s "ST_d_2_1"
<STATE> 3
~s "ST_d_3_1"
<STATE> 4
~s "ST_d_4_1"
~t "T_d"
<ENDHMM>
~h "uw-m"
<BEGINHMM>
<NUMSTATES> 5
<STATE> 2
~s "ST_m_2_1"
<STATE> 3
~s "ST_m_3_1"
<STATE> 4
~s "ST_m_4_1"
~t "T_m"
<ENDHMM>
~h "r-ay+ae"
<BEGINHMM>
<NUMSTATES> 5
<STATE> 2
~s "ST_ay_2_1"
<STATE> 3
~s "ST_ay_3_1"
<STATE> 4
~s "ST_ay_4_1"
~t "T_ay"
<ENDHMM>
~h "s+k"
<BEGINHMM>
<NUMSTATES> 5
<STATE> 2
~s "ST_s_2_1"
<STATE> 3
~s "ST_s_3_1"
<STATE> 4
~s "ST_s_4_1"
~t "T_s"
<ENDHMM>
~h "sil"
<BEGINHMM>
<NUMSTATES> 5
<STATE> 2
~s "ST_sil_2_1"
<STATE> 3
~s "ST_sil_3_1"
<STATE> 4
~s "ST_sil_4_1"
<TRANSP> 5
 0.000000e+00 1.000000e+00 0.000000e+00 0.000000e+00 0.000000e+00
 0.000000e+00 9.390121e-01 8.143255e-03 5.284472e-02 0.000000e+00
 0.000000e+00 0.000000e+00 9.601598e-01 3.984023e-02 0.000000e+00
 0.000000e+00 6.875816e-02 0.000000e+00 7.126611e-01 2.185806e-01
 0.000000e+00 0.000000e+00 0.000000e+00 0.000000e+00 0.000000e+00
<ENDHMM>
~h "f-ih+l"
<BEGINHMM>
<NUMSTATES> 5
<STATE> 2
~s "ST_ih_2_1"
<STATE> 3
~s "ST_ih_3_1"
<STATE> 4
~s "ST_ih_4_1"
~t "T_ih"
<ENDHMM>
~h "s-k+w"
<BEGINHMM>
<NUMSTATES> 5
<STATE> 2
~s "ST_k_2_1"
<STATE> 3
~s "ST_k_3_1"
<STATE> 4
~s "ST_k_4_1"
~t "T_k"
<ENDHMM>
~h "b-l+uw"
<BEGINHMM>
<NUMSTATES> 5
<STATE> 2
~s "ST_l_2_1"
<STATE> 3
~s "ST_l_3_1"
<STATE> 4
~s "ST_l_4_1"
~t "T_l"
<ENDHMM>
~h "ae-ng+g"
<BEGINHMM>
<NUMSTATES> 5
<STATE> 2
~s "ST_ng_2_1"
<STATE> 3
~s "ST_ng_3_1"
<STATE> 4
~s "ST_ng_4_1"
~t "T_ng"
<ENDHMM>
~h "z+uw"
<BEGINHMM>
<NUMSTATES> 5
<STATE> 2
~s "ST_z_2_1"
<STATE> 3
~s "ST_z_3_1"
<STATE> 4
~s "ST_z_4_1"
~t "T_z"
<ENDHMM>
~h "r-iy+n"
<BEGINHMM>
<NUMSTATES> 5
<STATE> 2
~s "ST_iy_2_1"
<STATE> 3
~s "ST_iy_3_1"
<STATE> 4
~s "ST_iy_4_1"
~t "T_iy"
<ENDHMM>
~h "s-er+k"
<BEGINHMM>
<NUMSTATES> 5
<STATE> 2
~s "ST_er_2_1"
<STATE> 3
~s "ST_er_3_1"
<STATE> 4
~s "ST_er_4_1"
~t "T_er"
<ENDHMM>
~h "r-ao"
<BEGINHMM>
<NUMSTATES> 5
<STATE> 2
~s "ST_ao_2_1"
<STATE> 3
~s "ST_ao_3_1"
<STATE> 4
~s "ST_ao_4_1"
~t "T_ao"
<ENDHMM>
~h "ih-n"
<BEGINHMM>
<NUMSTATES> 5
<STATE> 2
~s "ST_n_2_1"
<STATE> 3
~s "ST_n_3_1"
<STATE> 4
~s "ST_n_4_1"
~t "T_n"
<ENDHMM>
