~o
<STREAMINFO> 1 25
<VECSIZE> 25<NULLD><MFCC_D_N_Z_0><DIAGC>
~s "silst"
<MEAN> 25
 -1.600215e+01 3.524968e+00 -4.359326e-01 4.818222e+00 2.007202e+00 5.105095e+00 3.892000e+00 4.673973e+00 5.459549e+00 1.473234e+00 4.707837e+00 4.048595e+00 -8.692358e-03 2.251547e-03 2.543673e-02 2.671875e-02 2.016113e-02 1.232503e-03 2.588600e-03 -8.661325e-02 -1.050590e-01 -4.174017e-02 5.402894e-03 -3.050920e-05 -3.948374e-03
<VARIANCE> 25
 6.328788e+00 3.583463e+00 6.776189e+00 1.103464e+01 9.642698e+00 1.068120e+01 1.306648e+01 1.589343e+01 1.416221e+01 1.066285e+01 9.144767e+00 7.891035e+00 4.267462e-02 1.230748e-01 2.476834e-01 3.491451e-01 5.198514e-01 4.871758e-01 8.183937e-01 1.184573e+00 1.260132e+00 1.067956e+00 8.224105e-01 9.008829e-01 4.115048e-02
<GCONST> 6.035489e+01
~h "b"
<BEGINHMM>
<NUMSTATES> 5
<STATE> 2
<MEAN> 25
 2.047942e+01 -3.865101e+00 1.495493e-01 -1.439378e+00 -2.963524e+00 3.699448e+00 -7.813390e+00 -1.906870e+01 -2.671816e+00 6.450611e+00 -5.128539e+00 -2.493038e+00 4.230954e-01 -3.972434e-01 -9.917946e-02 -1.059442e+00 -7.496576e-01 3.368694e-01 3.579156e-01 -5.335965e-01 -2.605668e-01 6.516527e-01 4.631939e-03 -2.107481e-01 6.365239e-01
<VARIANCE> 25
 6.642748e+00 4.561194e+01 4.810596e+01 8.612364e+01 9.230899e+01 6.132836e+01 1.017620e+02 5.798884e+01 5.556476e+01 3.380772e+01 5.579029e+01 2.677828e+01 4.212225e-01 5.858354e+00 4.697793e+00 7.549057e+00 8.717190e+00 7.663406e+00 6.692521e+00 7.681892e+00 6.738303e+00 2.266626e+00 4.927378e+00 1.834715e+00 2.333767e+00
<GCONST> 1.105502e+02
<STATE> 3
<MEAN> 25
 2.204436e+01 6.846929e+00 -8.103876e+00 -1.169752e+01 5.025052e-01 6.932207e+00 -4.011323e+00 -1.621945e+01 -8.055798e+00 6.044695e+00 2.512836e+00 -8.690567e-01 -5.165887e-01 2.576446e+00 -1.059342e+00 -5.159858e-01 1.416462e+00 -7.901300e-02 3.680112e-01 2.301488e+00 -7.800215e-01 -1.760541e+00 1.493748e+00 1.078071e+00 -1.790364e+00
<VARIANCE> 25
 5.073238e+00 2.664903e+01 1.709737e+01 1.226955e+02 4.273977e+01 3.018744e+01 5.957600e+01 1.110868e+02 5.660746e+01 2.512231e+01 5.211884e+01 1.040716e+01 1.119331e+00 1.545678e+00 2.634438e+00 6.436252e+00 5.382161e+00 3.416741e+00 5.487745e+00 4.240818e+00 2.649790e+00 2.410060e+00 3.930807e+00 1.672413e+00 7.486904e-01
<GCONST> 1.009040e+02
<STATE> 4
<MEAN> 25
 1.882556e+01 1.412349e+01 -7.049233e+00 -1.341599e+01 -3.907562e+00 3.889361e+00 3.019275e-01 -5.620342e+00 -1.016172e+01 -4.242282e+00 1.821469e+00 1.169452e+00 -2.001077e+00 6.556123e-01 1.397497e+00 1.632265e+00 -9.645376e-01 -4.381456e-01 9.711012e-01 1.243021e+00 1.129996e+00 -1.103064e+00 -5.980103e-01 -1.895024e-01 -1.876451e+00
<VARIANCE> 25
 1.951761e+01 8.801075e+00 1.474763e+01 7.274500e+01 6.555354e+01 5.841029e+01 2.207651e+01 4.304466e+01 2.410227e+01 3.038853e+01 2.681552e+01 2.068882e+01 2.777884e+00 1.657751e+00 1.922229e+00 2.564661e+00 3.168452e+00 3.735667e+00 1.827829e+00 4.306599e+00 1.573311e+00 1.184615e+00 3.204510e+00 1.501574e+00 8.087552e-01
<GCONST> 9.573154e+01
<TRANSP> 5
 0.000000e+00 1.000000e+00 0.000000e+00 0.000000e+00 0.000000e+00
 0.000000e+00 9.022265e-01 9.777354e-02 0.000000e+00 0.000000e+00
 0.000000e+00 0.000000e+00 7.833866e-01 2.166133e-01 0.000000e+00
 0.000000e+00 0.000000e+00 0.000000e+00 7.600471e-01 2.399529e-01
 0.000000e+00 0.000000e+00 0.000000e+00 0.000000e+00 0.000000e+00
<ENDHMM>
~h "d"
<BEGINHMM>
<NUMSTATES> 5
<STATE> 2
<MEAN> 25
 -1.682866e+01 1.395515e+00 -2.011907e-01 7.487719e+00 1.291906e+00 3.805100e+00 4.726440e+00 3.686043e+00 4.849839e+00 1.740554e+00 5.158469e+00 3.714430e+00 -9.534029e-03 8.123638e-03 -2.760479e-03 1.733751e-02 3.927137e-02 7.698783e-04 -5.538312e-02 -7.044513e-03 8.652050e-02 5.966537e-02 -1.493905e-03 -2.853884e-02 -1.238730e-02
<VARIANCE> 25
 4.974279e+00 4.244131e+00 3.511709e+00 6.472278e+00 6.510848e+00 7.289478e+00 9.356465e+00 1.362374e+01 1.067204e+01 9.274522e+00 8.782964e+00 7.828578e+00 4.253944e-02 1.478577e-01 2.296930e-01 3.723712e-01 4.542992e-01 4.869813e-01 7.337508e-01 1.213345e+00 1.215097e+00 1.047361e+00 7.927044e-01 8.745043e-01 4.115048e-02
<GCONST> 5.718538e+01
<STATE> 3
<MEAN> 25
 -1.304647e+01 5.232999e+00 -6.133530e-02 5.868275e-01 2.380401e+00 2.517121e+00 -6.680544e-01 3.347512e+00 1.077804e+00 -1.668521e+00 9.918989e-01 2.350938e+00 -1.088705e-02 1.005249e-02 1.508496e-02 1.111364e-02 -2.438413e-02 9.760796e-03 3.346054e-02 -4.845993e-02 -3.741969e-02 -9.548176e-03 1.881941e-02 -7.749010e-03 -1.875651e-02
<VARIANCE> 25
 4.654724e+00 4.886425e+00 7.792637e+00 1.487122e+01 9.135418e+00 1.090980e+01 1.252012e+01 1.159403e+01 1.211909e+01 1.213241e+01 1.130676e+01 1.185461e+01 1.088139e-01 2.680098e-01 4.224542e-01 7.646794e-01 7.684705e-01 8.713877e-01 1.137642e+00 8.518140e-01 1.221155e+00 1.061974e+00 1.241075e+00 1.242412e+00 4.115048e-02
<GCONST> 6.569749e+01
<STATE> 4
<MEAN> 25
 -1.078481e+01 4.099025e+00 1.306253e+00 3.171320e+00 1.018627e+00 1.860414e+00 6.250992e-01 1.231727e+00 1.244318e+00 -1.508066e+00 -1.081333e+00 1.509125e-01 1.503541e-01 8.494600e-02 1.131547e-01 3.830460e-02 7.429099e-02 -4.028827e-04 9.506028e-02 -1.000670e-01 -2.562427e-01 8.170310e-02 -2.129176e-02 -1.494022e-01 1.510433e-01
<VARIANCE> 25
 1.555807e+01 6.419460e+00 1.411405e+01 1.597214e+01 1.073616e+01 9.994049e+00 2.013223e+01 1.704302e+01 2.106506e+01 1.309896e+01 2.414079e+01 1.831014e+01 1.534392e+00 7.309731e-01 8.216810e-01 1.330240e+00 1.477570e+00 1.245140e+00 1.244161e+00 2.035736e+00 2.845311e+00 1.382442e+00 1.700657e+00 1.872263e+00 1.492364e+00
<GCONST> 8.286475e+01
<TRANSP> 5
 0.000000e+00 1.000000e+00 0.000000e+00 0.000000e+00 0.000000e+00
 0.000000e+00 9.209129e-01 7.908712e-02 0.000000e+00 0.000000e+00
 0.000000e+00 0.000000e+00 8.845590e-01 1.154410e-01 0.000000e+00
 0.000000e+00 0.000000e+00 0.000000e+00 6.130952e-01 3.869048e-01
 0.000000e+00 0.000000e+00 0.000000e+00 0.000000e+00 0.000000e+00
<ENDHMM>
~h "f"
<BEGINHMM>
<NUMSTATES> 5
<STATE> 2
<MEAN> 25
 -1.941825e+01 3.001171e+00 -1.451508e+00 5.360054e+00 1.475407e+00 5.884000e+00 5.912985e+00 4.939221e+00 5.626433e+00 9.941388e-01 5.497617e+00 3.745404e+00 2.632157e-03 8.636618e-04 9.063708e-03 1.868585e-02 4.474636e-02 -2.933613e-02 -8.096813e-02 1.161214e-03 1.113867e-01 7.230107e-02 -1.458511e-03 -2.336537e-03 -3.157694e-03
<VARIANCE> 25
 4.050444e+00 6.040599e+00 6.506565e+00 1.729566e+01 9.290168e+00 9.896028e+00 9.229775e+00 1.652035e+01 1.202667e+01 9.850094e+00 8.199164e+00 8.882381e+00 4.253944e-02 1.460297e-01 2.143198e-01 3.283733e-01 4.420392e-01 4.470750e-01 7.046130e-01 1.059009e+00 1.023802e+00 1.070920e+00 8.315645e-01 9.990281e-01 4.115048e-02
<GCONST> 5.954514e+01
<STATE> 3
<MEAN> 25
 -1.687897e+01 5.797863e+00 -5.121093e-01 2.777662e+00 3.641154e+00 6.435195e+00 2.600929e+00 2.559283e+00 3.374235e+00 3.762884e-01 4.069149e+00 4.195917e+00 -3.474667e-02 2.805890e-02 9.420449e-02 -2.536428e-02 -6.209290e-02 2.951061e-01 2.961676e-01 -3.811199e-01 -7.918111e-01 -2.295169e-01 -3.697037e-02 1.396492e-01 2.779336e-03
<VARIANCE> 25
 1.331439e+01 8.785840e+00 5.842323e+00 1.571138e+01 9.288330e+00 8.477880e+00 8.885365e+00 1.716560e+01 1.387705e+01 7.875550e+00 7.028610e+00 7.609218e+00 5.783849e-02 1.060513e-01 1.740308e-01 2.664467e-01 7.240858e-01 4.727100e-01 8.977418e-01 1.071190e+00 7.529982e-01 7.764564e-01 4.600739e-01 6.200986e-01 4.115048e-02
<GCONST> 5.903759e+01
<STATE> 4
<MEAN> 25
 -1.440108e+01 4.475884e+00 3.428281e-01 -7.541131e-01 2.349790e+00 3.518608e+00 1.516330e+00 3.723643e+00 2.806830e-01 -6.200972e-01 2.570755e+00 3.044178e+00 2.328184e-01 -2.061700e-02 2.297072e-02 -1.224924e-01 -1.567288e-01 -2.116293e-01 -1.716430e-02 9.060016e-03 -1.435450e-01 -9.868206e-02 -9.750388e-02 1.180471e-02 2.254852e-01
<VARIANCE> 25
 8.260619e+00 6.865727e+00 6.228745e+00 1.270722e+01 1.168293e+01 1.686100e+01 1.625032e+01 2.018992e+01 1.638297e+01 9.361410e+00 1.110136e+01 9.283458e+00 8.860168e-01 5.331163e-01 6.696716e-01 9.589131e-01 1.188192e+00 1.428350e+00 1.589115e+00 1.173750e+00 1.568708e+00 1.078040e+00 1.121430e+00 1.072779e+00 2.099859e+00
<GCONST> 7.651237e+01
<TRANSP> 5
 0.000000e+00 1.000000e+00 0.000000e+00 0.000000e+00 0.000000e+00
 0.000000e+00 9.444368e-01 5.556318e-02 0.000000e+00 0.000000e+00
 0.000000e+00 0.000000e+00 6.022683e-01 3.977317e-01 0.000000e+00
 0.000000e+00 0.000000e+00 0.000000e+00 8.538611e-01 1.461388e-01
 0.000000e+00 0.000000e+00 0.000000e+00 0.000000e+00 0.000000e+00
<ENDHMM>
~h "g"
<BEGINHMM>
<NUMSTATES> 5
<STATE> 2
<MEAN> 25
 1.837910e+01 -1.320067e+01 4.790276e+00 4.151198e+00 -8.925536e+00 -9.326407e+00 -4.897736e+00 -2.213442e+00 -2.846184e+00 1.890687e+00 -7.907763e-01 -1.593690e+00 5.025221e-01 -1.153055e-01 9.763029e-01 9.532839e-02 -1.966797e+00 -1.312589e-01 1.312606e+00 -5.264308e-01 -1.013114e+00 4.782327e-01 3.163072e-01 -1.716983e-01 4.802790e-01
<VARIANCE> 25
 1.698556e+01 3.323539e+01 7.834802e+01 1.464670e+02 1.205342e+02 8.142312e+01 7.893010e+01 6.556046e+01 7.645047e+01 6.091492e+01 4.149343e+01 3.837180e+01 2.407734e+00 3.854683e+00 1.088194e+01 1.397641e+01 6.710912e+00 4.164874e+00 8.275361e+00 9.107369e+00 5.521677e+00 5.504739e+00 4.615135e+00 4.093853e+00 2.037951e+00
<GCONST> 1.171633e+02
<STATE> 3
<MEAN> 25
 1.781067e+01 -7.645181e+00 7.473621e+00 -3.123951e+00 -1.035314e+01 -5.371408e+00 3.106788e-01 -1.004110e-01 -9.780456e+00 2.437122e+00 -1.891374e-01 -1.410925e+00 1.366709e-01 3.613650e+00 -1.967934e+00 1.921348e+00 1.704191e-01 7.372549e-01 1.834028e+00 -1.692183e+00 2.259097e-02 -1.613511e+00 -9.400243e-02 2.550702e-01 -2.542275e+00
<VARIANCE> 25
 1.583683e+01 5.088001e+01 1.030536e+02 1.390621e+02 1.070046e+02 6.292128e+01 1.533988e+02 8.492169e+01 1.060385e+02 5.205297e+01 4.497003e+01 3.016747e+01 6.105397e-01 7.992804e+00 3.925026e+00 1.088518e+01 5.029498e+00 2.788973e+00 4.792853e+00 6.159365e+00 3.977557e+00 6.031442e+00 2.790982e+00 2.523916e+00 3.726290e+00
<GCONST> 1.141385e+02
<STATE> 4
<MEAN> 25
 1.917900e+01 2.309358e+00 -3.053705e+00 -2.183940e+00 -2.597939e+00 -6.402636e-01 -1.873628e+00 -7.952502e+00 -4.473830e+00 4.739094e-01 -1.737414e+00 -3.160627e+00 -8.683264e-02 3.279828e+00 -1.721641e+00 6.646637e-01 7.364445e-01 2.124471e-01 8.107679e-02 -1.321437e+00 9.491925e-01 -3.898571e-01 7.873250e-01 -4.119681e-01 -1.883559e+00
<VARIANCE> 25
 1.352101e+01 1.276818e+02 5.084016e+01 9.109164e+01 7.533694e+01 3.509490e+01 1.296075e+02 4.912333e+01 8.833626e+01 1.138070e+02 2.980549e+01 3.890288e+01 1.098366e+00 7.606856e+00 3.896286e+00 1.270557e+01 6.105540e+00 4.292829e+00 8.316523e+00 5.582251e+00 6.971561e+00 4.243935e+00 3.542233e+00 2.297935e+00 3.138730e+00
<GCONST> 1.145084e+02
<TRANSP> 5
 0.000000e+00 1.000000e+00 0.000000e+00 0.000000e+00 0.000000e+00
 0.000000e+00 7.585372e-01 2.414628e-01 0.000000e+00 0.000000e+00
 0.000000e+00 0.000000e+00 5.498926e-01 4.501074e-01 0.000000e+00
 0.000000e+00 0.000000e+00 0.000000e+00 1.273098e-01 8.726903e-01
 0.000000e+00 0.000000e+00 0.000000e+00 0.000000e+00 0.000000e+00
<ENDHMM>
~h "k"
<BEGINHMM>
<NUMSTATES> 5
<STATE> 2
<MEAN> 25
 -4.138885e+00 6.555842e-01 2.567323e+00 -1.004194e+01 1.237648e+01 -5.299766e+00 -6.725664e+00 2.939149e+00 2.249100e+00 9.169655e-01 5.732434e-01 1.636169e+00 -1.635800e+00 -1.493913e-01 9.475295e-02 -1.258745e-02 2.191703e-01 3.956304e-01 -2.765220e-01 2.295622e-01 2.122148e-01 -5.303595e-01 5.267977e-01 3.201900e-01 -8.678504e-01
<VARIANCE> 25
 1.488822e+02 4.623450e+01 4.235833e+01 9.212781e+01 8.157649e+01 6.101818e+01 6.261452e+01 2.963872e+01 3.948919e+01 4.540062e+01 3.510078e+01 3.020931e+01 1.469009e+01 7.215797e+00 6.022923e+00 6.383749e+00 6.699985e+00 5.258646e+00 5.773496e+00 4.871061e+00 4.382436e+00 3.920132e+00 3.872405e+00 3.071961e+00 5.851343e+00
<GCONST> 1.158478e+02
<STATE> 3
<MEAN> 25
 2.575745e+00 -7.012133e+00 -4.669861e+00 -5.578047e+00 1.264537e+01 -1.098901e+00 -1.005246e+01 4.956434e+00 3.328316e+00 1.746162e+00 1.046953e+00 1.376556e+00 3.122128e+00 -5.207099e-01 -2.052416e+00 -1.516151e+00 5.489460e-01 1.261886e+00 4.049678e-01 -4.711257e-01 -1.473850e+00 9.890683e-01 1.035421e-01 -1.098174e+00 1.621257e+00
<VARIANCE> 25
 8.114134e+01 7.695369e+01 8.218296e+01 9.570608e+01 1.059042e+02 7.611723e+01 1.021009e+02 7.376846e+01 5.740862e+01 6.367375e+01 4.390113e+01 3.703971e+01 8.006002e+00 1.143513e+01 9.571526e+00 1.415093e+01 2.125579e+01 8.184665e+00 1.219904e+01 8.598706e+00 6.538964e+00 5.823882e+00 4.855132e+00 5.411910e+00 2.090070e+01
<GCONST> 1.263616e+02
<STATE> 4
<MEAN> 25
 1.616423e+01 -1.789621e+00 -1.159867e+01 -1.508628e+01 6.900681e+00 5.593470e+00 -5.530306e+00 -2.130352e+00 -4.804136e+00 3.140519e+00 3.004581e+00 -1.630048e+00 3.863138e+00 3.425688e-01 2.632408e-01 -9.155377e-01 -1.721442e+00 2.475945e-01 8.395283e-01 -1.732778e+00 -1.660723e+00 2.032917e-01 7.492326e-01 -6.490851e-01 2.649963e+00
<VARIANCE> 25
 4.185217e+01 4.592635e+01 6.915367e+01 7.802711e+01 5.812879e+01 8.937628e+01 6.123151e+01 4.290651e+01 4.785338e+01 5.310146e+01 3.874914e+01 2.774476e+01 5.493316e+00 4.820621e+00 9.430039e+00 1.206750e+01 7.704319e+00 6.534724e+00 8.677021e+00 6.171114e+00 6.468944e+00 4.263083e+00 4.260389e+00 3.564792e+00 6.406709e+00
<GCONST> 1.171563e+02
<TRANSP> 5
 0.000000e+00 1.000000e+00 0.000000e+00 0.000000e+00 0.000000e+00
 0.000000e+00 8.767720e-01 1.232280e-01 0.000000e+00 0.000000e+00
 0.000000e+00 0.000000e+00 7.513705e-01 2.486295e-01 0.000000e+00
 0.000000e+00 0.000000e+00 0.000000e+00 6.190407e-01 3.809592e-01
 0.000000e+00 0.000000e+00 0.000000e+00 0.000000e+00 0.000000e+00
<ENDHMM>
~h "l"
<BEGINHMM>
<NUMSTATES> 5
<STATE> 2
<MEAN> 25
 3.794134e-01 5.904986e+00 -8.915331e-01 -1.860599e+00 -7.536438e-02 1.689862e+00 -1.546797e+00 -2.612782e+00 7.717551e-01 3.072044e-01 1.844671e+00 1.464972e+00 -1.435968e+00 -1.986416e+00 3.342334e-01 5.473405e-01 -4.241731e-01 -1.003619e+00 4.561164e-01 9.098690e-01 1.584506e-01 -2.721809e-01 2.052008e-01 4.244293e-01 1.328389e-01
<VARIANCE> 25
 1.114284e+02 7.606746e+01 5.543447e+01 5.395683e+01 4.427166e+01 5.547758e+01 3.156754e+01 4.456139e+01 3.023676e+01 3.112745e+01 2.883429e+01 2.083669e+01 1.055763e+01 4.554507e+00 5.249657e+00 3.293612e+00 4.687446e+00 6.226237e+00 3.931907e+00 3.972213e+00 2.494899e+00 2.081687e+00 2.088476e+00 1.835944e+00 1.489584e+01
<GCONST> 1.098338e+02
<STATE> 3
<MEAN> 25
 2.153534e+00 1.933404e+00 -2.880358e-01 -3.654038e-01 -2.728672e-01 -5.248401e-01 -7.658818e-01 -2.003458e+00 7.999662e-01 -9.086339e-01 8.506885e-01 1.036480e+00 1.269033e+00 -3.789438e+00 7.983761e-01 1.293047e-01 -5.695122e-01 -2.081787e+00 1.099141e-01 9.445031e-01 -1.965407e-01 -3.589430e-01 -5.709115e-01 1.104703e-01 3.763562e+00
<VARIANCE> 25
 1.309630e+02 1.539792e+02 6.148071e+01 6.897408e+01 5.252797e+01 5.170825e+01 3.518049e+01 4.739722e+01 4.338005e+01 3.542363e+01 2.592478e+01 2.110025e+01 1.287875e+01 8.734531e+00 7.587038e+00 5.608505e+00 8.995205e+00 7.672617e+00 5.067351e+00 4.164596e+00 3.731310e+00 3.306422e+00 3.570850e+00 1.911273e+00 1.892941e+01
<GCONST> 1.163103e+02
<STATE> 4
<MEAN> 25
 5.821435e+00 -6.331488e+00 6.255923e-01 6.261678e-01 3.379695e-01 -5.976039e+00 -1.404087e+00 1.136044e+00 1.656899e+00 -2.022080e+00 -1.082208e+00 1.645401e+00 1.998663e+00 -2.655626e+00 1.135219e+00 1.943736e-01 -8.184921e-01 -1.303336e+00 -3.654178e-01 4.868686e-01 -4.047297e-01 -2.374691e-01 -2.748111e-01 -3.206457e-01 3.320150e+00
<VARIANCE> 25
 9.559250e+01 1.118580e+02 8.498447e+01 8.338749e+01 6.666794e+01 8.886516e+01 6.214847e+01 5.441161e+01 5.658784e+01 3.314743e+01 3.063094e+01 3.306322e+01 1.061066e+01 1.176384e+01 7.332524e+00 5.721087e+00 9.102241e+00 6.261395e+00 6.896131e+00 4.658750e+00 6.219420e+00 4.616407e+00 5.004306e+00 3.208623e+00 1.254146e+01
<GCONST> 1.200988e+02
<TRANSP> 5
 0.000000e+00 1.000000e+00 0.000000e+00 0.000000e+00 0.000000e+00
 0.000000e+00 4.946870e-01 5.053130e-01 0.000000e+00 0.000000e+00
 0.000000e+00 0.000000e+00 2.113034e-02 9.788697e-01 0.000000e+00
 0.000000e+00 0.000000e+00 0.000000e+00 4.563493e-01 5.436507e-01
 0.000000e+00 0.000000e+00 0.000000e+00 0.000000e+00 0.000000e+00
<ENDHMM>
~h "m"
<BEGINHMM>
<NUMSTATES> 5
<STATE> 2
<MEAN> 25
 2.442512e+00 4.626192e+00 8.654828e+00 -7.281680e+00 7.627363e+00 -1.188373e+01 -5.399039e+00 3.923680e+00 3.250480e-01 -3.899140e+00 -3.934524e+00 2.712317e+00 1.631110e+00 -1.000705e+00 8.763503e-01 -1.236135e+00 3.175618e-01 -5.524018e-01 -1.245870e+00 -7.501675e-01 5.019026e-02 1.026508e-01 -3.224323e-02 -2.704586e-01 3.451864e+00
<VARIANCE> 25
 6.578407e+01 7.738400e+01 6.066512e+01 6.506773e+01 9.922998e+01 7.295871e+01 1.426445e+02 6.433431e+01 5.076333e+01 5.725428e+01 5.552602e+01 3.211554e+01 1.432265e+01 1.192587e+01 5.226079e+00 8.148177e+00 1.437004e+01 8.666202e+00 1.135727e+01 1.196387e+01 9.125463e+00 1.008174e+01 6.748795e+00 4.583370e+00 4.871314e+00
<GCONST> 1.244008e+02
<STATE> 3
<MEAN> 25
 2.280268e+01 -9.709381e+00 6.454320e+00 -1.278904e+01 1.733305e+00 1.657728e+00 -9.604400e+00 -1.257831e+01 -1.733319e+00 8.088134e+00 -1.394804e+00 -3.248845e+00 1.863754e+00 -3.892313e-01 -9.655741e-01 -4.965379e-02 -1.396486e+00 2.297986e+00 1.290555e+00 -5.329260e-01 -6.557747e-01 4.068753e-01 1.247846e-01 3.454663e-01 -7.505920e-01
<VARIANCE> 25
 2.193963e+01 2.663978e+01 5.620963e+01 1.484615e+02 5.951095e+01 1.312852e+02 9.029510e+01 1.024500e+02 4.960404e+01 5.051239e+01 2.177323e+01 3.465513e+01 3.939637e+00 5.960252e+00 7.933248e+00 9.777545e+00 6.115243e+00 9.773525e+00 6.954733e+00 1.561077e+01 7.616624e+00 1.214405e+01 1.877737e+00 4.753239e+00 3.731837e+00
<GCONST> 1.182136e+02
<STATE> 4
<MEAN> 25
 2.084919e+01 -5.922176e+00 3.142450e+00 -6.843177e+00 -3.159254e+00 1.870381e+00 1.133900e+00 -6.073984e+00 -6.354006e+00 3.113699e-02 -5.529967e-01 -6.842274e-01 -2.548506e-01 5.891346e-01 -2.563768e-01 3.594081e-01 9.547348e-02 -2.448867e-01 1.504198e-02 2.289363e-01 -1.053249e-03 -1.038065e-01 8.347534e-02 -1.719260e-01 -6.641626e-01
<VARIANCE> 25
 6.217566e+01 1.110016e+02 1.355202e+02 1.998349e+02 1.144181e+02 8.732852e+01 1.106354e+02 1.369553e+02 8.694057e+01 6.598829e+01 4.732230e+01 2.864463e+01 1.986997e+00 7.487936e+00 8.528297e+00 1.076279e+01 4.269542e+00 3.795606e+00 4.848699e+00 7.226197e+00 6.352668e+00 7.075202e+00 4.991837e+00 3.433390e+00 6.835239e+00
<GCONST> 1.218252e+02
<TRANSP> 5
 0.000000e+00 1.000000e+00 0.000000e+00 0.000000e+00 0.000000e+00
 0.000000e+00 9.007930e-01 9.920701e-02 0.000000e+00 0.000000e+00
 0.000000e+00 0.000000e+00 8.692092e-01 1.307908e-01 0.000000e+00
 0.000000e+00 0.000000e+00 0.000000e+00 9.622346e-01 3.776535e-02
 0.000000e+00 0.000000e+00 0.000000e+00 0.000000e+00 0.000000e+00
<ENDHMM>
~h "n"
<BEGINHMM>
<NUMSTATES> 5
<STATE> 2
<MEAN> 25
 7.051057e-01 1.062695e+01 5.215820e+00 6.552861e+00 -1.938382e+00 -1.762431e+00 -1.504046e+00 -2.482557e+00 -2.197473e+00 -4.508410e+00 -4.375859e+00 -2.603710e+00 -1.823509e+00 -1.382743e+00 -5.071623e-01 3.139513e-01 4.962282e-01 2.070256e-01 3.537236e-02 1.204666e-01 2.438262e-01 2.087455e-01 2.223961e-01 -4.396516e-02 -9.689846e-01
<VARIANCE> 25
 6.392632e+01 4.302488e+01 4.031209e+01 2.529829e+01 1.793402e+01 2.179797e+01 2.095555e+01 2.120996e+01 3.113328e+01 2.576138e+01 1.712487e+01 1.670934e+01 3.787068e+00 3.057370e+00 3.206528e+00 3.440643e+00 1.865981e+00 2.001599e+00 1.719866e+00 1.745237e+00 1.731113e+00 2.407813e+00 1.016941e+00 1.054445e+00 1.084591e+00
<GCONST> 9.404823e+01
<STATE> 3
<MEAN> 25
 -7.986547e+00 4.773324e+00 3.354295e+00 7.579463e+00 2.733568e+00 2.373241e+00 -9.678407e-01 -1.440508e+00 -1.871400e+00 -4.089795e+00 -1.412597e+00 -2.242790e+00 -4.818073e-01 -4.297370e-01 -4.064165e-01 -2.170053e-01 -1.706396e-01 5.836520e-02 1.448750e-01 3.243942e-02 1.209141e-01 2.465282e-01 3.517987e-01 3.527641e-01 -2.453913e-01
<VARIANCE> 25
 1.192051e+01 1.001723e+01 2.241962e+01 1.685412e+01 1.400169e+01 1.289077e+01 1.199912e+01 1.427219e+01 1.565590e+01 1.532300e+01 2.203871e+01 1.762172e+01 2.363933e-01 6.086609e-01 1.029897e+00 9.809762e-01 6.358854e-01 9.882420e-01 1.120980e+00 1.983619e+00 1.511721e+00 1.645521e+00 2.288722e+00 2.177826e+00 7.829246e-02
<GCONST> 7.682138e+01
<STATE> 4
<MEAN> 25
 -8.796862e+00 1.813338e+00 -2.455826e-01 1.650107e+00 2.147550e-01 1.693218e+00 5.767474e-02 6.384153e-01 -3.265048e-01 -9.256276e-01 -5.903425e-01 2.422059e-01 -1.528220e-02 2.415337e-02 -1.400746e-02 -4.153050e-02 2.453210e-02 2.931625e-02 -1.678124e-03 2.980576e-02 1.363392e-02 -3.599471e-02 1.075287e-02 4.284734e-02 -1.595501e-02
<VARIANCE> 25
 4.932424e+00 6.076081e+00 9.948805e+00 1.127988e+01 7.723514e+00 1.249737e+01 1.363332e+01 1.256555e+01 1.597636e+01 1.367994e+01 1.415459e+01 1.392328e+01 1.478878e-01 2.940668e-01 4.373322e-01 6.100194e-01 7.048503e-01 9.323627e-01 1.148839e+00 1.365802e+00 1.468663e+00 1.469893e+00 1.436074e+00 1.361312e+00 4.115048e-02
<GCONST> 6.827500e+01
<TRANSP> 5
 0.000000e+00 1.000000e+00 0.000000e+00 0.000000e+00 0.000000e+00
 0.000000e+00 8.159983e-01 1.840017e-01 0.000000e+00 0.000000e+00
 0.000000e+00 0.000000e+00 7.578576e-01 2.421423e-01 0.000000e+00
 0.000000e+00 0.000000e+00 0.000000e+00 9.596522e-01 4.034772e-02
 0.000000e+00 0.000000e+00 0.000000e+00 0.000000e+00 0.000000e+00
<ENDHMM>
~h "r"
<BEGINHMM>
<NUMSTATES> 5
<STATE> 2
<MEAN> 25
 2.019986e+00 2.864275e+00 5.561292e-01 9.842639e-01 -3.229616e+00 -1.434851e+00 1.099062e+00 -1.143058e+00 -7.452551e-01 -4.536881e-01 1.394405e-01 6.212064e-02 -9.984248e-02 2.296865e-01 4.031940e-01 -5.078303e-01 4.331493e-02 2.239078e-01 -2.591031e-01 -1.649007e-01 3.523299e-02 -7.708599e-02 -1.737152e-01 -3.576257e-02 6.223721e-02
<VARIANCE> 25
 2.040845e+02 1.360531e+02 6.229348e+01 4.602214e+01 5.094140e+01 5.027510e+01 4.214714e+01 4.689021e+01 4.571907e+01 3.566014e+01 2.406551e+01 2.070252e+01 5.161168e+00 5.835195e+00 3.396134e+00 2.979139e+00 3.551220e+00 3.218309e+00 3.236452e+00 2.928456e+00 4.427847e+00 2.262162e+00 1.566359e+00 1.738189e+00 3.492617e+00
<GCONST> 1.081452e+02
<STATE> 3
<MEAN> 25
 2.354359e+00 1.935491e+00 1.278034e+00 7.104309e-01 -3.049619e+00 -1.308252e+00 8.607724e-01 -1.282564e+00 -6.960589e-01 -8.131956e-01 9.746575e-02 1.039890e-01 6.495684e-01 1.116686e-01 8.127706e-01 -2.428196e-01 3.466356e-01 1.859488e-01 -2.490995e-01 -1.875186e-01 4.017558e-01 -9.992176e-02 -3.522006e-01 1.563462e-01 9.268903e-01
<VARIANCE> 25
 1.997003e+02 1.483027e+02 5.674117e+01 4.518721e+01 4.912292e+01 5.917748e+01 4.725042e+01 5.240063e+01 5.096074e+01 3.831728e+01 2.834285e+01 2.360991e+01 7.028543e+00 8.158960e+00 5.774192e+00 3.891948e+00 5.190782e+00 2.598536e+00 4.145061e+00 3.248535e+00 3.070163e+00 2.124267e+00 1.288821e+00 1.486083e+00 4.581605e+00
<GCONST> 1.103750e+02
<STATE> 4
<MEAN> 25
 3.782742e+00 6.510690e-03 3.410230e+00 8.707674e-01 -1.018838e+00 -3.360628e+00 2.776121e-01 -2.018487e-01 -4.470184e-02 -1.087219e+00 -6.926155e-01 1.466092e+00 1.899979e+00 -6.235273e-01 1.171181e+00 -3.890448e-01 -1.311249e-01 -5.163471e-01 -5.485457e-01 -1.608694e-01 8.919057e-02 -1.170954e-01 -3.277808e-01 1.718256e-01 2.482828e+00
<VARIANCE> 25
 1.621073e+02 1.599268e+02 6.900827e+01 6.658561e+01 6.327896e+01 8.385590e+01 5.526259e+01 6.116749e+01 6.506801e+01 2.960142e+01 3.095106e+01 2.501844e+01 1.031229e+01 1.154386e+01 8.059230e+00 6.509319e+00 8.665537e+00 7.630840e+00 7.576860e+00 4.757446e+00 8.811277e+00 3.405696e+00 3.163934e+00 3.054437e+00 1.295240e+01
<GCONST> 1.202073e+02
<TRANSP> 5
 0.000000e+00 1.000000e+00 0.000000e+00 0.000000e+00 0.000000e+00
 0.000000e+00 1.350973e-01 8.649027e-01 0.000000e+00 0.000000e+00
 0.000000e+00 0.000000e+00 4.426632e-02 9.557336e-01 0.000000e+00
 0.000000e+00 0.000000e+00 0.000000e+00 2.760502e-01 7.239499e-01
 0.000000e+00 0.000000e+00 0.000000e+00 0.000000e+00 0.000000e+00
<ENDHMM>
~h "s"
<BEGINHMM>
<NUMSTATES> 5
<STATE> 2
<MEAN> 25
 1.478741e+01 -1.350831e+01 8.600282e+00 2.081431e+00 -5.843577e+00 -9.334298e+00 -2.977204e+00 3.245404e+00 -1.587989e-01 -9.065998e-01 -2.817179e+00 4.876171e-01 2.378975e+00 -7.366198e-01 -1.207718e-01 1.487480e-02 -1.262992e+00 -6.936430e-01 -5.612907e-01 8.207557e-01 -9.943664e-01 -3.754932e-01 7.820621e-01 -1.171236e-01 1.481549e+00
<VARIANCE> 25
 4.742124e+01 3.717909e+01 7.756693e+01 9.250272e+01 5.672636e+01 6.990716e+01 5.744278e+01 4.383415e+01 7.366228e+01 2.459793e+01 4.221009e+01 3.446792e+01 5.160548e+00 9.073460e+00 1.064775e+01 1.133726e+01 6.588004e+00 1.082523e+01 5.258918e+00 5.101919e+00 1.265468e+01 4.345854e+00 5.351916e+00 3.554736e+00 5.262236e+00
<GCONST> 1.180116e+02
<STATE> 3
<MEAN> 25
 1.875537e+01 -1.672854e+01 8.667972e+00 -5.105583e+00 -6.007944e+00 -9.351755e+00 -6.799010e+00 5.033153e+00 -9.210856e-01 3.674457e-01 -1.915147e+00 -2.720548e-01 4.350406e-01 -4.050949e-01 -7.825257e-01 -1.143672e+00 6.956441e-01 6.143758e-01 -6.148195e-02 -4.554183e-01 1.576411e-01 1.117454e+00 -6.794340e-01 -7.673267e-01 5.381544e-01
<VARIANCE> 25
 3.055139e+01 2.576036e+01 8.203577e+01 9.789290e+01 8.359704e+01 6.667353e+01 6.208899e+01 9.055460e+01 1.063581e+02 6.680015e+01 3.484206e+01 3.210056e+01 1.998762e+00 2.420887e+00 5.400270e+00 6.491694e+00 5.378236e+00 5.089995e+00 6.981885e+00 5.309829e+00 6.298977e+00 4.954912e+00 3.861277e+00 4.163869e+00 1.519258e+00
<GCONST> 1.134473e+02
<STATE> 4
<MEAN> 25
 2.200590e+01 -9.832442e+00 -3.280177e+00 -1.214789e+01 1.905641e-01 -2.248311e-02 -4.813674e+00 -5.232235e+00 -1.975758e+00 7.333610e+00 -2.673527e+00 -5.649302e+00 -3.666576e-01 1.496843e+00 -3.477695e-01 -1.938812e-01 1.101665e+00 2.191852e-01 -1.080287e-01 -1.991811e-01 -1.182936e-01 8.539574e-02 1.363651e-01 1.990227e-01 -7.254757e-01
<VARIANCE> 25
 2.050138e+01 5.215377e+01 8.165397e+01 1.281563e+02 1.032444e+02 6.780187e+01 1.072911e+02 9.530502e+01 4.299175e+01 4.076083e+01 4.400661e+01 4.733266e+01 1.558660e+00 1.866123e+00 3.194524e+00 4.638242e+00 4.363132e+00 3.433186e+00 4.065549e+00 4.304702e+00 3.417128e+00 3.632347e+00 2.704967e+00 3.144856e+00 7.554031e-01
<GCONST> 1.090854e+02
<TRANSP> 5
 0.000000e+00 1.000000e+00 0.000000e+00 0.000000e+00 0.000000e+00
 0.000000e+00 5.654235e-01 4.345765e-01 0.000000e+00 0.000000e+00
 0.000000e+00 0.000000e+00 7.979068e-01 2.020932e-01 0.000000e+00
 0.000000e+00 0.000000e+00 0.000000e+00 8.669609e-01 1.330391e-01
 0.000000e+00 0.000000e+00 0.000000e+00 0.000000e+00 0.000000e+00
<ENDHMM>
~h "t"
<BEGINHMM>
<NUMSTATES> 5
<STATE> 2
<MEAN> 25
 5.522381e+00 -8.498977e+00 5.914293e+00 -3.631752e+00 9.422363e-01 -9.051006e+00 1.486664e-01 2.241440e+00 2.844846e+00 -8.318155e-02 -2.183332e+00 1.451474e+00 9.585469e-01 -6.465647e-01 1.653312e+00 -2.313413e+00 1.918107e-01 2.388704e-01 -1.127071e+00 8.252949e-02 -6.663228e-01 4.755878e-01 7.884047e-01 -3.989977e-01 2.895725e+00
<VARIANCE> 25
 8.752555e+01 8.012902e+01 7.979994e+01 6.256363e+01 7.158267e+01 9.913317e+01 7.898506e+01 6.582961e+01 4.593525e+01 3.663795e+01 5.311301e+01 3.575924e+01 2.789419e+01 1.367206e+01 7.789188e+00 5.806446e+00 1.358240e+01 1.048973e+01 9.081350e+00 6.306011e+00 6.965255e+00 7.334027e+00 5.791443e+00 2.531884e+00 1.818556e+01
<GCONST> 1.240012e+02
<STATE> 3
<MEAN> 25
 1.385708e+01 -9.301447e+00 4.530922e+00 -4.733463e+00 -3.253472e+00 -4.018898e+00 -5.054260e+00 -4.269042e+00 6.368147e-01 2.496584e+00 -1.326333e+00 -1.313152e+00 2.424620e+00 6.823667e-01 -1.847966e+00 6.667284e-01 -1.705063e+00 1.002273e+00 8.982760e-01 -2.483020e+00 -1.647735e+00 5.603351e-01 3.279140e-01 -7.193176e-01 3.284168e-01
<VARIANCE> 25
 1.058618e+02 8.855531e+01 8.053143e+01 7.727291e+01 8.956998e+01 9.566543e+01 7.084243e+01 1.039193e+02 5.258434e+01 6.470120e+01 5.214561e+01 2.486008e+01 1.136790e+01 8.750508e+00 9.157693e+00 6.760187e+00 7.112882e+00 1.055166e+01 8.714137e+00 9.993449e+00 7.253358e+00 6.750948e+00 4.998241e+00 3.305831e+00 4.447474e+00
<GCONST> 1.227870e+02
<STATE> 4
<MEAN> 25
 1.750074e+01 4.262511e-01 -4.737486e+00 -7.431155e+00 -4.285474e+00 2.715258e+00 1.265874e+00 -8.718575e+00 -6.268466e+00 1.725786e+00 5.666115e-01 2.329107e-01 -1.172383e+00 6.628541e-01 -3.384268e-02 1.554444e-01 3.417097e-02 2.979337e-02 1.206256e-01 6.125926e-01 -1.374172e-01 -2.510474e-01 1.809226e-01 2.681514e-01 -1.426499e+00
<VARIANCE> 25
 8.599986e+01 1.600441e+02 4.426799e+01 8.470690e+01 6.265904e+01 6.533595e+01 4.299109e+01 6.543312e+01 4.511327e+01 6.177784e+01 2.954341e+01 2.775097e+01 3.917598e+00 2.730157e+00 2.529280e+00 5.460626e+00 3.525394e+00 3.573784e+00 2.941774e+00 2.926242e+00 3.695943e+00 3.634465e+00 2.132782e+00 1.755046e+00 1.587699e+00
<GCONST> 1.086689e+02
<TRANSP> 5
 0.000000e+00 1.000000e+00 0.000000e+00 0.000000e+00 0.000000e+00
 0.000000e+00 3.757265e-01 6.242735e-01 0.000000e+00 0.000000e+00
 0.000000e+00 0.000000e+00 5.644013e-01 4.355986e-01 0.000000e+00
 0.000000e+00 0.000000e+00 0.000000e+00 8.342599e-01 1.657402e-01
 0.000000e+00 0.000000e+00 0.000000e+00 0.000000e+00 0.000000e+00
<ENDHMM>
~h "w"
<BEGINHMM>
<NUMSTATES> 5
<STATE> 2
<MEAN> 25
 2.594875e+01 -2.787678e-01 -1.048750e+01 -1.505031e+01 -1.495699e+00 3.879652e+00 8.764290e-01 -6.789237e+00 -1.095514e+01 3.724521e+00 6.757870e+00 -1.828886e+00 1.022104e+00 -3.470515e+00 1.576395e-01 1.860538e+00 -6.781014e-03 -2.366026e+00 1.013376e-01 -9.314881e-02 -6.366592e-01 2.240929e+00 4.333027e-01 -1.925428e+00 2.430882e+00
<VARIANCE> 25
 1.528188e+01 5.552610e+01 4.001427e+01 7.245683e+01 5.491566e+01 3.564092e+01 4.638363e+01 2.865798e+01 4.748506e+01 3.949511e+01 2.496157e+01 2.222134e+01 2.688365e+00 3.019256e+00 6.501781e+00 6.491156e+00 9.252135e+00 8.051177e+00 5.861365e+00 3.634110e+00 6.848484e+00 2.651634e+00 4.797832e+00 3.404655e+00 2.159470e+00
<GCONST> 1.089576e+02
<STATE> 3
<MEAN> 25
 2.264089e+01 -1.352517e+01 -6.471111e+00 -8.007648e+00 1.124214e+00 -5.102017e+00 -2.940026e+00 -3.334588e-01 -6.514307e+00 7.695613e+00 3.515481e+00 -1.021944e+01 -9.973902e-01 -2.099145e+00 1.001082e+00 1.926919e+00 -4.963134e-01 -1.770797e+00 -1.521177e-01 1.889882e+00 2.347465e+00 -1.259637e+00 -2.125407e+00 -1.213480e+00 1.053549e+00
<VARIANCE> 25
 2.789649e+01 1.829089e+01 4.184671e+01 7.595646e+01 5.110853e+01 6.340678e+01 6.603669e+01 8.177883e+01 6.896270e+01 4.621027e+01 4.406829e+01 3.061643e+01 4.497996e-01 2.475830e+00 2.033387e+00 1.974911e+00 3.165817e+00 3.212644e+00 3.786529e+00 2.378897e+00 4.264080e+00 2.558955e+00 2.120414e+00 3.155078e+00 7.685452e-01
<GCONST> 1.022404e+02
<STATE> 4
<MEAN> 25
 2.122148e+01 -1.849297e+01 -3.391277e+00 -3.937457e-01 -6.681653e+00 -7.766805e+00 1.221383e-01 2.930661e+00 7.565711e-02 1.321016e+00 -3.815632e+00 -9.787092e+00 3.421790e-02 -1.759930e-01 3.172319e-01 7.949522e-01 -1.073033e+00 3.158071e-01 5.881764e-01 -3.525005e-01 6.746168e-01 -3.652941e-01 -1.546689e+00 5.069991e-01 -4.257626e-01
<VARIANCE> 25
 2.361137e+01 1.768645e+01 3.917313e+01 4.991893e+01 4.384566e+01 2.885604e+01 5.021214e+01 7.989725e+01 4.491863e+01 4.386642e+01 3.984998e+01 2.465441e+01 7.013360e-01 1.141314e+00 1.507684e+00 1.924482e+00 1.804955e+00 2.986228e+00 1.816664e+00 4.865875e+00 3.621001e+00 3.112870e+00 2.137684e+00 3.059525e+00 6.894900e-01
<GCONST> 9.811083e+01
<TRANSP> 5
 0.000000e+00 1.000000e+00 0.000000e+00 0.000000e+00 0.000000e+00
 0.000000e+00 6.986333e-01 3.013667e-01 0.000000e+00 0.000000e+00
 0.000000e+00 0.000000e+00 7.112029e-01 2.887971e-01 0.000000e+00
 0.000000e+00 0.000000e+00 0.000000e+00 7.878810e-01 2.121190e-01
 0.000000e+00 0.000000e+00 0.000000e+00 0.000000e+00 0.000000e+00
<ENDHMM>
~h "z"
<BEGINHMM>
<NUMSTATES> 5
<STATE> 2
<MEAN> 25
 -6.517984e+00 9.794687e-01 -2.423063e+00 1.860166e-01 5.710783e-01 7.327394e-01 -1.363808e+00 2.667140e+00 1.025604e+00 4.116271e-01 9.569367e-01 9.550920e-01 -5.616612e-03 2.015667e-02 -4.549233e-02 -2.068314e-02 1.488099e-02 2.182397e-02 3.777173e-03 8.998226e-02 6.566668e-02 -3.507977e-02 -6.110371e-02 -2.348367e-04 -2.293218e-02
<VARIANCE> 25
 2.285064e+00 1.972106e+00 5.513977e+00 1.031397e+01 1.445100e+01 1.006288e+01 1.264284e+01 1.063500e+01 1.308188e+01 1.110224e+01 9.425035e+00 8.156851e+00 1.228478e-01 2.706831e-01 3.750401e-01 8.496195e-01 6.868138e-01 8.191794e-01 1.327335e+00 1.318658e+00 1.209901e+00 1.327300e+00 1.037113e+00 8.302454e-01 4.115048e-02
<GCONST> 6.326558e+01
<STATE> 3
<MEAN> 25
 -7.704207e+00 -1.150734e+00 -2.740432e+00 1.220268e+00 -9.121096e-01 1.163769e-01 3.422117e-01 2.568624e+00 3.417029e+00 -1.055075e-01 -8.297441e-01 2.696201e-01 1.887147e-01 1.178917e-01 1.935273e-01 6.103123e-02 1.164301e-01 1.763529e-01 3.694746e-02 -2.807312e-02 1.609770e-01 3.411124e-03 -5.703959e-02 -2.265362e-01 1.066484e-01
<VARIANCE> 25
 6.135066e+00 1.383696e+01 2.474127e+01 9.593088e+00 7.725037e+00 1.135710e+01 1.877175e+01 1.360314e+01 2.966035e+01 9.858710e+00 1.304068e+01 1.199643e+01 8.044851e-01 1.603270e+00 3.678778e+00 1.564137e+00 1.220375e+00 1.252416e+00 2.397360e+00 1.436195e+00 4.620037e+00 9.899712e-01 1.295818e+00 1.855919e+00 7.450680e-01
<GCONST> 8.237419e+01
<STATE> 4
<MEAN> 25
 -9.304817e-01 6.256780e+00 2.213441e-01 -1.808609e+00 4.828113e+00 -1.960490e+00 -3.502897e+00 7.162964e-01 1.882009e+00 -3.349768e+00 -4.100770e+00 -3.930345e-01 -2.604100e-01 5.658007e-01 1.319807e+00 -3.409820e-01 1.002885e+00 -5.932212e-01 -9.223608e-01 -9.956443e-01 -1.587129e+00 -8.981774e-01 -1.129907e-01 4.415620e-02 1.088030e+00
<VARIANCE> 25
 2.311975e+01 1.774786e+01 2.797415e+01 1.917696e+01 3.483660e+01 2.681724e+01 3.391018e+01 2.117052e+01 1.944319e+01 1.353489e+01 2.435692e+01 8.332823e+00 3.891321e+00 6.119701e-01 2.251289e+00 1.198708e+00 1.693286e+00 2.155790e+00 4.785529e+00 1.877038e+00 3.152121e+00 1.262143e+00 1.651909e+00 7.656503e-01 7.206073e-01
<GCONST> 8.918936e+01
<TRANSP> 5
 0.000000e+00 1.000000e+00 0.000000e+00 0.000000e+00 0.000000e+00
 0.000000e+00 9.561546e-01 4.384536e-02 0.000000e+00 0.000000e+00
 0.000000e+00 0.000000e+00 8.255783e-01 1.744218e-01 0.000000e+00
 0.000000e+00 0.000000e+00 0.000000e+00 5.553263e-01 4.446736e-01
 0.000000e+00 0.000000e+00 0.000000e+00 0.000000e+00 0.000000e+00
<ENDHMM>
~h "ae"
<BEGINHMM>
<NUMSTATES> 5
<STATE> 2
<MEAN> 25
 2.059832e+01 -2.424573e+01 -4.369933e+00 1.860544e+00 -5.858993e+00 -6.260632e+00 5.198002e+00 2.249984e+00 -1.163774e-01 2.361736e+00 -1.004377e+01 -3.076910e+00 -7.364345e-01 -1.399250e+00 1.955326e+00 -4.091097e-01 -7.892196e-01 -3.450988e-01 1.257448e+00 9.265999e-01 -1.090966e+00 -5.856256e-01 -7.598968e-01 1.807140e-01 7.547220e-01
<VARIANCE> 25
 1.616683e+01 2.024101e+01 6.587110e+01 6.850270e+01 4.897302e+01 1.873382e+01 4.866106e+01 4.600165e+01 1.701346e+01 2.603179e+01 2.647920e+01 1.675295e+01 8.708664e-01 2.581180e+00 3.060248e+00 4.256964e+00 5.527025e+00 1.947306e+00 3.469474e+00 4.944737e+00 3.088495e+00 2.990356e+00 3.745461e+00 1.853175e+00 4.331501e-01
<GCONST> 9.879488e+01
<STATE> 3
<MEAN> 25
 1.570421e+01 -2.324270e+01 5.214871e+00 -4.366573e+00 -4.905931e+00 -7.145850e+00 4.092976e+00 1.218165e+01 -6.892385e+00 -4.443125e+00 -4.263069e+00 -4.745220e+00 -2.199908e-01 8.933476e-01 4.439377e-01 4.239058e-01 -6.919236e-01 -3.207110e-01 1.152291e+00 7.009351e-01 -1.569060e+00 -4.364786e-01 9.312832e-01 -5.023920e-01 -5.620334e-01
<VARIANCE> 25
 2.181290e+01 1.919595e+01 5.021178e+01 1.221092e+02 4.791151e+01 3.487939e+01 4.465173e+01 4.079193e+01 3.703452e+01 1.599868e+01 2.479128e+01 2.862751e+01 4.972681e-01 7.953507e-01 1.952154e+00 1.874804e+00 2.166530e+00 9.616215e-01 1.306488e+00 1.197520e+00 1.416539e+00 1.534115e+00 1.154335e+00 1.078340e+00 5.111511e-01
<GCONST> 9.045859e+01
<STATE> 4
<MEAN> 25
 1.672251e+01 -1.394253e+01 4.911594e+00 1.325083e+00 -1.203134e+01 -6.983416e+00 1.277263e+01 5.967153e+00 -1.289647e+01 -8.934170e-02 -7.238154e-01 -6.305032e+00 -4.514433e-02 2.455611e+00 3.844800e-01 -3.757365e-01 -5.108494e-01 8.329439e-01 1.143042e+00 -1.612227e+00 -1.672566e+00 1.287793e+00 6.840361e-01 -2.409935e-01 -1.222365e+00
<VARIANCE> 25
 1.691708e+01 4.491597e+01 9.577110e+01 1.119299e+02 5.472878e+01 2.610114e+01 4.660434e+01 8.888814e+01 3.146339e+01 3.420441e+01 2.577969e+01 2.926550e+01 3.040058e-01 2.149944e+00 2.553601e+00 2.677958e+00 2.080814e+00 2.196604e+00 2.954571e+00 2.292141e+00 1.658686e+00 2.175689e+00 1.740707e+00 1.812808e+00 1.286373e+00
<GCONST> 9.867465e+01
<TRANSP> 5
 0.000000e+00 1.000000e+00 0.000000e+00 0.000000e+00 0.000000e+00
 0.000000e+00 7.357248e-01 2.642752e-01 0.000000e+00 0.000000e+00
 0.000000e+00 0.000000e+00 8.127682e-01 1.872318e-01 0.000000e+00
 0.000000e+00 0.000000e+00 0.000000e+00 7.752941e-01 2.247059e-01
 0.000000e+00 0.000000e+00 0.000000e+00 0.000000e+00 0.000000e+00
<ENDHMM>
~h "ah"
<BEGINHMM>
<NUMSTATES> 5
<STATE> 2
<MEAN> 25
 1.988903e+01 -5.469502e+00 -5.341352e+00 -4.689050e+00 2.757831e+00 -2.019285e+00 -4.597147e+00 -4.538702e+00 2.698690e-02 3.549977e+00 -4.523463e+00 -5.376596e+00 1.429839e-01 2.111288e+00 -1.019290e+00 1.659006e+00 -8.265266e-01 2.641349e-01 6.343998e-01 -1.525163e+00 4.073543e-01 -7.395006e-01 -2.973393e-01 6.259123e-01 -1.879994e+00
<VARIANCE> 25
 2.795320e+01 7.120876e+01 5.187163e+01 1.380435e+02 7.804429e+01 8.586068e+01 1.140707e+02 7.437909e+01 5.255598e+01 9.644894e+01 4.775180e+01 3.970096e+01 2.260048e+00 7.640116e+00 5.661299e+00 8.149151e+00 6.992480e+00 8.724871e+00 9.083608e+00 9.818110e+00 5.622372e+00 6.693821e+00 4.501505e+00 3.353644e+00 5.029312e+00
<GCONST> 1.195934e+02
<STATE> 3
<MEAN> 25
 2.327188e+01 -3.154233e+00 -1.134508e+01 -5.843797e+00 -3.708045e-01 -8.943439e-03 -3.850654e+00 -1.161526e+01 -3.064464e+00 6.543291e+00 -2.283302e+00 -6.242109e+00 -2.331043e-01 1.764033e+00 -1.129864e-01 -4.822448e-01 3.448204e-01 7.715918e-01 -5.497928e-01 -3.012476e-01 -1.133004e-02 -4.808185e-01 5.381422e-02 3.885790e-01 -1.130224e+00
<VARIANCE> 25
 1.132509e+01 5.233847e+01 2.457408e+01 7.795366e+01 6.277670e+01 5.532782e+01 5.048118e+01 4.637373e+01 5.412457e+01 3.452795e+01 4.524722e+01 2.714132e+01 6.532105e-01 2.926515e+00 1.878420e+00 2.908786e+00 4.772262e+00 3.027033e+00 3.169975e+00 3.620853e+00 3.306304e+00 2.473860e+00 2.451616e+00 1.238423e+00 1.289377e+00
<GCONST> 1.013702e+02
<STATE> 4
<MEAN> 25
 1.584474e+01 1.102003e+01 -3.936507e+00 -4.796683e+00 6.610081e-01 2.765656e+00 -5.494658e+00 -7.476750e+00 -1.723776e+00 -6.322243e-01 -2.210630e+00 -3.386291e+00 -2.182299e+00 1.468047e+00 2.408298e+00 5.132558e-01 -1.449435e+00 -2.869027e-02 1.015028e+00 6.335492e-01 -5.999974e-02 -5.399618e-01 5.459934e-01 5.077891e-01 -1.878777e+00
<VARIANCE> 25
 3.577108e+01 5.850291e+01 8.143501e+01 6.213366e+01 6.844025e+01 5.000496e+01 5.452198e+01 2.979377e+01 3.962288e+01 3.751160e+01 2.395065e+01 2.138011e+01 3.033551e+00 4.360510e+00 4.611766e+00 3.818327e+00 4.174551e+00 2.889508e+00 3.696794e+00 3.064555e+00 3.013468e+00 3.435829e+00 2.226881e+00 2.220763e+00 2.134372e+00
<GCONST> 1.062579e+02
<TRANSP> 5
 0.000000e+00 1.000000e+00 0.000000e+00 0.000000e+00 0.000000e+00
 0.000000e+00 5.377216e-01 4.622785e-01 0.000000e+00 0.000000e+00
 0.000000e+00 0.000000e+00 8.028103e-01 1.971897e-01 0.000000e+00
 0.000000e+00 0.000000e+00 0.000000e+00 7.036009e-01 2.963991e-01
 0.000000e+00 0.000000e+00 0.000000e+00 0.000000e+00 0.000000e+00
<ENDHMM>
~h "ao"
<BEGINHMM>
<NUMSTATES> 5
<STATE> 2
<MEAN> 25
 -1.188167e+00 1.507157e+01 1.010716e+01 6.283599e+00 1.289554e+00 1.559241e+00 -1.274360e+00 -6.926228e-01 1.119853e+00 -2.814829e+00 -6.695715e-01 2.087020e+00 3.395903e+00 3.020533e-01 6.651606e-01 -8.346205e-01 -3.309682e-01 -1.505828e+00 -1.018237e+00 -2.380136e-01 1.763008e-01 -2.927311e-01 -9.398761e-01 -4.049467e-01 3.582536e+00
<VARIANCE> 25
 8.512276e+01 9.112155e+01 4.601440e+01 2.535861e+01 2.352705e+01 1.344835e+01 3.356008e+01 2.585236e+01 1.950148e+01 1.109220e+01 1.479702e+01 1.274586e+01 1.238893e+01 1.034739e+01 7.981739e+00 4.772363e+00 1.660293e+00 4.389585e+00 3.810487e+00 2.031133e+00 2.684047e+00 1.287027e+00 2.771427e+00 1.797129e+00 2.366710e+01
<GCONST> 1.036398e+02
<STATE> 3
<MEAN> 25
 1.058838e+01 9.635588e+00 8.049075e+00 1.174695e+00 -6.599259e-01 -7.074524e+00 -1.642326e+00 -1.293003e+00 2.322582e+00 -1.837923e+00 -3.544635e+00 1.865473e-01 4.532983e+00 -5.172654e+00 -2.037659e+00 -2.412347e+00 2.647318e-01 -3.697038e+00 -1.714152e+00 -5.219468e-01 7.725303e-01 6.331879e-01 -1.610851e+00 -2.856723e-01 6.826320e+00
<VARIANCE> 25
 3.284968e+01 2.710960e+02 8.708379e+01 7.173370e+01 3.494928e+01 4.024110e+01 5.796550e+01 2.195200e+01 3.124627e+01 2.974796e+01 1.700421e+01 1.630132e+01 1.456422e+01 9.275843e+00 7.601199e+00 8.618073e+00 6.979872e+00 5.961339e+00 1.382052e+01 7.208032e+00 6.875532e+00 3.724168e+00 4.966387e+00 3.779698e+00 9.762993e+00
<GCONST> 1.165096e+02
<STATE> 4
<MEAN> 25
 1.939454e+01 -6.933318e+00 -4.611090e+00 -6.446416e+00 5.504372e+00 -7.018595e+00 -8.442358e+00 -1.449673e+00 5.775762e+00 6.962574e-02 -4.694111e+00 7.432709e-01 1.208649e+00 -3.331282e+00 4.583094e-02 -1.285728e+00 -4.543612e-01 9.255420e-01 -1.245339e+00 2.550317e-01 3.102075e-01 1.514170e-01 -1.016358e-01 -4.296620e-02 2.094205e+00
<VARIANCE> 25
 3.831834e+01 4.507998e+01 1.416566e+02 1.111573e+02 9.118288e+01 1.370708e+02 9.148371e+01 5.811771e+01 6.895767e+01 3.311926e+01 3.406240e+01 3.051570e+01 6.301077e+00 1.616850e+01 1.082084e+01 7.026586e+00 4.029889e+00 9.598830e+00 8.600137e+00 4.570839e+00 3.894869e+00 2.684626e+00 2.494079e+00 2.991591e+00 1.066969e+01
<GCONST> 1.187638e+02
<TRANSP> 5
 0.000000e+00 1.000000e+00 0.000000e+00 0.000000e+00 0.000000e+00
 0.000000e+00 5.560302e-01 4.439698e-01 0.000000e+00 0.000000e+00
 0.000000e+00 0.000000e+00 5.000517e-01 4.999483e-01 0.000000e+00
 0.000000e+00 0.000000e+00 0.000000e+00 5.891714e-01 4.108286e-01
 0.000000e+00 0.000000e+00 0.000000e+00 0.000000e+00 0.000000e+00
<ENDHMM>
~h "aw"
<BEGINHMM>
<NUMSTATES> 5
<STATE> 2
<MEAN> 25
 2.245660e+01 -3.458709e+00 -1.673042e+01 -3.923898e+00 7.982609e+00 3.688848e+00 -1.031242e+00 -2.666957e+00 2.122336e+00 5.909580e+00 2.574635e+00 -6.803585e+00 -3.464205e-01 2.551205e-01 -1.440793e+00 3.219703e-01 1.071307e-01 -7.746797e-01 4.558376e-01 9.954245e-02 -1.192670e-02 -7.003658e-01 -4.466227e-01 1.950174e-01 -7.449706e-01
<VARIANCE> 25
 2.052664e+01 3.164872e+01 3.103676e+01 1.851318e+01 2.880911e+01 1.238059e+01 6.347438e+01 4.176519e+01 1.908519e+01 5.228143e+01 2.184396e+01 2.338477e+01 6.923268e+00 3.286445e+00 4.366119e+00 3.414629e+00 1.127311e+01 2.042594e+00 1.369843e+01 6.386930e+00 3.663913e+00 4.165280e+00 2.901018e+00 4.135243e+00 7.396219e+00
<GCONST> 1.063238e+02
<STATE> 3
<MEAN> 25
 2.043086e+01 -9.580465e-01 -1.384659e+01 -4.300277e+00 9.804746e-01 1.096755e+00 -2.235197e+00 -7.043421e+00 3.097070e-01 7.271269e+00 1.389449e+00 -6.537843e+00 -3.197412e+00 5.745437e-01 1.744117e+00 6.983338e-01 -8.023516e-01 -1.207764e-01 3.734171e-01 5.980012e-01 2.889621e-01 -2.561418e-01 3.237222e-01 1.336439e+00 -2.511766e+00
<VARIANCE> 25
 9.044775e+01 2.091958e+01 1.631736e+01 1.846141e+01 3.949696e+01 1.223214e+01 4.906873e+01 1.678383e+01 2.801466e+01 9.704138e+00 1.033454e+01 2.748769e+01 4.920015e+00 2.509731e+00 4.029656e-01 5.556530e-01 9.901394e+00 1.589542e+00 8.542510e+00 2.962012e+00 4.100693e+00 3.433677e+00 2.233556e+00 3.647919e+00 2.735345e+00
<GCONST> 9.610157e+01
<STATE> 4
<MEAN> 25
 1.985080e+00 1.250958e+00 -8.568481e+00 -2.732117e+00 -3.061227e+00 1.615580e+00 1.291607e+00 -3.527940e+00 -5.318367e-01 1.440816e+00 4.509262e+00 7.379825e-01 -2.127043e+00 -2.982973e-01 1.394825e+00 1.085574e+00 -7.446334e-01 -6.263041e-01 6.218448e-01 1.076614e+00 -1.797808e-01 -5.471492e-01 -1.160748e-02 -9.752706e-02 -1.335221e+00
<VARIANCE> 25
 1.482644e+01 5.790718e+00 2.406073e+00 8.103827e+00 2.290380e+01 2.592070e+00 2.358805e+01 1.912440e+01 1.969938e+01 1.802449e+01 1.710299e+01 2.927836e+00 3.709923e+00 9.056450e-02 2.977633e-01 1.145514e+00 2.178696e+00 6.340657e-01 1.081795e+00 3.095761e-01 1.912757e+00 1.818636e-01 2.942427e+00 9.999371e-01 2.072436e+00
<GCONST> 7.116607e+01
<TRANSP> 5
 0.000000e+00 1.000000e+00 0.000000e+00 0.000000e+00 0.000000e+00
 0.000000e+00 7.721964e-01 2.278036e-01 0.000000e+00 0.000000e+00
 0.000000e+00 0.000000e+00 7.848465e-01 2.151535e-01 0.000000e+00
 0.000000e+00 0.000000e+00 0.000000e+00 6.242090e-01 3.757910e-01
 0.000000e+00 0.000000e+00 0.000000e+00 0.000000e+00 0.000000e+00
<ENDHMM>
~h "ay"
<BEGINHMM>
<NUMSTATES> 5
<STATE> 2
<MEAN> 25
 1.628579e+01 -9.445770e+00 3.315887e+00 -1.698223e+01 4.676491e+00 3.825392e-01 -1.344159e+01 1.042387e+00 1.875885e+00 4.776896e+00 -2.405504e+00 -2.785686e+00 -1.221943e-01 1.417441e+00 -8.667068e-01 -3.950021e-01 1.257403e+00 4.972595e-01 -3.076300e-01 -6.877799e-01 5.822154e-01 2.601839e-01 -1.369225e-01 1.843064e-01 -6.930761e-01
<VARIANCE> 25
 3.027916e+01 5.046336e+01 8.747935e+01 1.181155e+02 7.700495e+01 7.466270e+01 7.435902e+01 1.314899e+02 9.239758e+01 5.194131e+01 4.012000e+01 4.745773e+01 1.578323e+00 2.246524e+00 2.385103e+00 5.872800e+00 2.812169e+00 4.418526e+00 4.970143e+00 6.073245e+00 7.774017e+00 4.514722e+00 3.584891e+00 3.959178e+00 1.712943e+00
<GCONST> 1.129759e+02
<STATE> 3
<MEAN> 25
 2.074260e+00 -7.918731e-01 4.037608e-01 -6.170535e+00 6.395498e+00 -6.585458e+00 -5.562762e-01 -1.486444e+00 4.227315e+00 8.139132e-01 -3.954739e-02 2.077753e+00 -2.534243e-01 -1.463092e+00 1.128731e+00 2.098043e-01 -7.210658e-01 -1.340828e-01 4.913040e-01 8.813590e-01 1.576977e-01 -2.935104e-01 1.928226e-02 -1.454462e-01 5.572168e-01
<VARIANCE> 25
 9.146141e+01 1.014040e+02 7.871666e+01 6.421596e+01 6.818970e+01 8.712780e+01 9.954101e+01 5.223413e+01 5.567018e+01 4.031084e+01 3.529588e+01 2.978627e+01 1.376507e+01 9.152005e+00 1.256602e+01 1.300005e+01 9.724929e+00 1.293364e+01 1.472467e+01 6.125365e+00 6.765877e+00 6.259094e+00 4.521163e+00 3.949528e+00 1.479040e+01
<GCONST> 1.241207e+02
<STATE> 4
<MEAN> 25
 1.596915e+01 -1.469315e+01 9.253306e-01 -4.080605e+00 -1.120854e+00 -1.065146e+00 -6.005985e+00 2.954730e+00 5.353999e+00 6.521182e-02 -1.810588e+00 -1.439809e+00 3.066329e+00 -2.281502e+00 -2.384421e+00 1.760217e+00 -1.770098e+00 -6.049004e-01 4.647159e-01 2.731887e-01 -7.771183e-01 -2.195164e-01 -7.559443e-01 -5.142497e-01 1.459386e+00
<VARIANCE> 25
 5.178506e+01 4.272832e+01 1.874118e+02 8.661860e+01 9.364668e+01 5.609463e+01 3.897425e+01 3.639157e+01 3.064950e+01 3.281113e+01 2.148887e+01 1.756206e+01 8.122409e+00 3.885155e+00 9.795875e+00 1.031010e+01 9.163454e+00 8.214717e+00 5.489708e+00 4.814363e+00 5.736733e+00 4.787839e+00 5.823658e+00 2.676102e+00 4.240566e+00
<GCONST> 1.151806e+02
<TRANSP> 5
 0.000000e+00 1.000000e+00 0.000000e+00 0.000000e+00 0.000000e+00
 0.000000e+00 8.682012e-01 1.317988e-01 0.000000e+00 0.000000e+00
 0.000000e+00 0.000000e+00 8.768783e-01 1.231217e-01 0.000000e+00
 0.000000e+00 0.000000e+00 0.000000e+00 7.559219e-01 2.440781e-01
 0.000000e+00 0.000000e+00 0.000000e+00 0.000000e+00 0.000000e+00
<ENDHMM>
~h "eh"
<BEGINHMM>
<NUMSTATES> 5
<STATE> 2
<MEAN> 25
 2.123560e+01 -1.754324e+01 -5.547249e-01 4.941607e+00 -1.209775e+01 -4.897396e+00 3.448663e+00 -3.284435e+00 8.158395e-01 4.356435e+00 -7.445900e+00 -3.084913e+00 9.296013e-02 8.125342e-01 -3.026401e-01 6.599358e-01 2.860861e-01 -5.521978e-01 7.999150e-02 -1.600121e-01 -3.883163e-01 2.223177e-01 -1.624624e-01 3.707661e-01 -7.161255e-01
<VARIANCE> 25
 1.776286e+01 1.771045e+01 3.986453e+01 4.296966e+01 2.615222e+01 5.161018e+01 3.745322e+01 4.675801e+01 5.545885e+01 3.266323e+01 4.454045e+01 2.718654e+01 2.619312e+00 2.498075e+00 6.815845e+00 5.309995e+00 4.168172e+00 5.150403e+00 3.418654e+00 6.099217e+00 5.192121e+00 4.439229e+00 4.210503e+00 2.403693e+00 2.473336e+00
<GCONST> 1.063499e+02
<STATE> 3
<MEAN> 25
 1.976529e+01 -5.026752e+00 -6.291420e+00 6.908012e+00 -2.580712e+00 -8.651613e+00 -9.423199e-01 3.163851e-01 1.141096e+00 -2.364896e-01 -6.822388e+00 -1.412439e+00 -1.575929e+00 4.115818e+00 -9.011369e-01 -4.019964e-01 2.760857e+00 7.314209e-01 -1.560878e+00 1.429561e+00 1.351415e+00 -2.006056e+00 9.521659e-01 8.097033e-01 -3.454520e+00
<VARIANCE> 25
 2.355129e+01 4.652040e+01 3.990944e+01 5.476593e+01 5.129027e+01 3.598822e+01 5.110145e+01 5.722427e+01 5.425177e+01 5.444238e+01 4.156706e+01 3.426498e+01 2.201312e+00 4.643735e+00 3.812740e+00 7.456085e+00 5.881135e+00 5.575237e+00 4.205338e+00 7.951231e+00 3.342674e+00 5.325394e+00 5.024738e+00 1.682485e+00 2.583469e+00
<GCONST> 1.100241e+02
<STATE> 4
<MEAN> 25
 6.121408e+00 6.703404e+00 -2.765133e+00 6.848513e-01 7.598583e-02 -2.284279e+00 -2.715155e+00 2.720957e+00 4.557758e+00 -2.124993e+00 -3.623258e+00 -7.627560e-01 -2.643798e+00 8.917331e-01 6.088751e-01 -7.021867e-01 -4.130498e-01 9.774104e-01 2.462436e-01 -3.559068e-01 -8.931081e-02 2.509493e-01 7.358506e-01 1.830099e-01 -2.282974e+00
<VARIANCE> 25
 1.100818e+02 7.754765e+01 6.936292e+01 2.953472e+01 3.833636e+01 2.943216e+01 3.751163e+01 3.349480e+01 3.013195e+01 2.747704e+01 1.856325e+01 1.744351e+01 3.017272e+00 7.014432e+00 5.996114e+00 4.271401e+00 4.652053e+00 2.559446e+00 3.208526e+00 3.029134e+00 2.779558e+00 2.757671e+00 2.133381e+00 1.787793e+00 3.168301e+00
<GCONST> 1.048627e+02
<TRANSP> 5
 0.000000e+00 1.000000e+00 0.000000e+00 0.000000e+00 0.000000e+00
 0.000000e+00 8.421412e-01 1.578588e-01 0.000000e+00 0.000000e+00
 0.000000e+00 0.000000e+00 7.115467e-01 2.884534e-01 0.000000e+00
 0.000000e+00 0.000000e+00 0.000000e+00 7.656179e-01 2.343821e-01
 0.000000e+00 0.000000e+00 0.000000e+00 0.000000e+00 0.000000e+00
<ENDHMM>
~h "er"
<BEGINHMM>
<NUMSTATES> 5
<STATE> 2
<MEAN> 25
 -5.471528e+00 3.591270e+00 5.320089e+00 -9.542867e+00 9.665688e+00 -9.090860e+00 1.754738e+00 4.192823e+00 7.744623e-01 -3.546555e+00 1.180208e+00 2.940518e+00 -2.586169e+00 2.391792e-01 8.161438e-01 -3.896876e-02 -3.256284e-01 -9.591697e-01 1.730809e+00 5.186875e-01 -2.454125e-01 -8.128176e-01 7.462909e-01 6.369397e-01 -3.421883e-01
<VARIANCE> 25
 1.578522e+02 4.463911e+01 5.737528e+01 3.782650e+01 6.396217e+01 7.342224e+01 8.375321e+01 6.271436e+01 5.097822e+01 5.169262e+01 4.269244e+01 4.452560e+01 1.760943e+01 8.930006e+00 6.800085e+00 4.332105e+00 1.087323e+01 6.245796e+00 6.245607e+00 7.538614e+00 5.880824e+00 6.677153e+00 4.612676e+00 5.700459e+00 1.290086e+00
<GCONST> 1.186430e+02
<STATE> 3
<MEAN> 25
 1.133260e+01 -1.073316e+01 9.911137e+00 -4.241169e+00 -6.058364e+00 -1.189099e+01 1.735832e+00 5.118315e+00 -3.947978e+00 1.203365e+00 -6.612896e-01 1.211387e+00 3.494592e+00 -1.716426e+00 -4.952493e-01 1.440311e+00 -1.507909e+00 3.411257e-01 -1.409169e+00 -5.283407e-01 2.456651e-01 6.968466e-01 -1.140108e+00 -5.624086e-01 8.705646e-01
<VARIANCE> 25
 1.227690e+02 4.516375e+01 4.863150e+01 5.354274e+01 4.359105e+01 7.416865e+01 8.966629e+01 3.914490e+01 4.559623e+01 5.034052e+01 5.471249e+01 2.999652e+01 1.466554e+01 5.855498e+00 5.789329e+00 5.931153e+00 5.931315e+00 6.701047e+00 6.225663e+00 5.687529e+00 7.740791e+00 7.067689e+00 5.179707e+00 2.927941e+00 5.000274e+00
<GCONST> 1.173878e+02
<STATE> 4
<MEAN> 25
 1.680722e+01 -9.246305e+00 1.660403e+00 4.940141e+00 -4.591109e+00 -7.663014e+00 -7.281472e+00 3.517799e-01 5.380672e+00 8.712795e-01 -5.824059e+00 3.748562e-01 -1.490992e+00 1.584155e+00 -7.122449e-01 8.109754e-02 1.312592e+00 2.256795e-01 -5.315440e-01 3.347389e-01 6.617341e-01 5.858772e-02 2.321545e-01 3.862384e-01 -2.172158e+00
<VARIANCE> 25
 4.978561e+01 8.108039e+01 9.316684e+01 5.335584e+01 7.427602e+01 5.583794e+01 3.769688e+01 4.348810e+01 4.611260e+01 4.474464e+01 3.514886e+01 3.696233e+01 6.010349e+00 6.638934e+00 1.209547e+01 1.013140e+01 7.346891e+00 8.281039e+00 5.161798e+00 6.677514e+00 5.531514e+00 6.160012e+00 5.076837e+00 3.602546e+00 6.010067e+00
<GCONST> 1.176668e+02
<TRANSP> 5
 0.000000e+00 1.000000e+00 0.000000e+00 0.000000e+00 0.000000e+00
 0.000000e+00 9.013210e-01 9.867899e-02 0.000000e+00 0.000000e+00
 0.000000e+00 0.000000e+00 8.756397e-01 1.243604e-01 0.000000e+00
 0.000000e+00 0.000000e+00 0.000000e+00 8.978889e-01 1.021111e-01
 0.000000e+00 0.000000e+00 0.000000e+00 0.000000e+00 0.000000e+00
<ENDHMM>
~h "ey"
<BEGINHMM>
<NUMSTATES> 5
<STATE> 2
<MEAN> 25
 4.486284e+00 1.379719e+01 1.012748e+01 1.178691e+00 -7.990534e+00 3.035219e+00 3.645132e-01 -7.740012e-01 2.643001e+00 -1.726132e+00 3.967444e+00 -2.073738e-01 2.672054e+00 -1.434989e+00 3.505767e+00 -1.099845e+00 -3.578435e+00 -1.740416e+00 8.792087e-01 8.917429e-01 -2.502755e+00 8.769594e-01 1.199598e+00 -3.638806e-01 3.738574e+00
<VARIANCE> 25
 6.068479e+01 2.941231e+01 4.854857e+01 6.580204e+01 9.124351e+01 6.338352e+00 2.194441e+01 1.445122e+01 1.553163e+01 1.234470e+01 1.360062e+01 1.443055e+01 1.190014e+01 8.409975e+00 1.181523e+01 8.160561e+00 1.033614e+01 7.323554e+00 6.630656e+00 4.727479e+00 9.742265e+00 1.765174e+00 1.563333e+00 2.295527e+00 2.066919e+01
<GCONST> 1.082559e+02
<STATE> 3
<MEAN> 25
 9.766534e+00 1.474257e+00 2.032782e+01 -6.308734e+00 -1.607697e+01 -4.067060e+00 4.763298e+00 2.035173e+00 -1.401275e+01 2.476305e+00 5.400234e+00 3.697918e-02 1.236584e+00 -3.212286e+00 1.507743e+00 -1.236005e+00 -7.767278e-01 -1.534920e+00 -4.190817e-01 4.564171e-02 -1.764100e+00 6.888562e-01 -1.584752e-01 4.142697e-01 3.296712e+00
<VARIANCE> 25
 2.184805e+01 4.694033e+01 1.346625e+02 9.289172e+01 4.550979e+01 7.352778e+01 3.802103e+01 4.244133e+01 9.125378e+01 3.028221e+01 1.586442e+01 2.000700e+01 5.443141e+00 2.102470e+00 8.506053e+00 8.786562e+00 9.972112e+00 4.765430e+00 5.397243e+00 4.176067e+00 1.053335e+01 4.138842e+00 2.456116e+00 2.078205e+00 7.386883e+00
<GCONST> 1.126330e+02
<STATE> 4
<MEAN> 25
 1.771573e+01 -1.599907e+01 1.426517e+01 -3.519075e+00 -1.271641e+01 -8.371020e+00 -1.792199e+00 1.653156e+00 -5.651259e+00 2.414125e+00 -2.323802e+00 3.278031e+00 6.212903e-01 -1.112045e+00 -8.961438e-01 1.073710e-01 1.948253e-01 -5.728602e-02 -3.625596e-01 1.977037e-01 1.175068e+00 -3.783854e-01 -5.122006e-01 1.732262e-01 7.795139e-01
<VARIANCE> 25
 2.043940e+01 2.972042e+01 7.286272e+01 1.250682e+02 5.747135e+01 3.672364e+01 2.433443e+01 4.429352e+01 8.434721e+01 4.961652e+01 3.166737e+01 1.895351e+01 9.292575e-01 1.368380e+00 1.653953e+00 2.794239e+00 2.577491e+00 4.203843e+00 2.658946e+00 2.912472e+00 3.481681e+00 2.921591e+00 1.558053e+00 9.465470e-01 1.956771e+00
<GCONST> 1.004278e+02
<TRANSP> 5
 0.000000e+00 1.000000e+00 0.000000e+00 0.000000e+00 0.000000e+00
 0.000000e+00 3.347316e-01 6.652685e-01 0.000000e+00 0.000000e+00
 0.000000e+00 0.000000e+00 7.881975e-01 2.118025e-01 0.000000e+00
 0.000000e+00 0.000000e+00 0.000000e+00 8.738056e-01 1.261944e-01
 0.000000e+00 0.000000e+00 0.000000e+00 0.000000e+00 0.000000e+00
<ENDHMM>
~h "ih"
<BEGINHMM>
<NUMSTATES> 5
<STATE> 2
<MEAN> 25
 -1.229889e+01 3.863571e+00 -7.069427e-01 -5.548133e-01 6.054487e-01 3.484391e+00 1.347739e+00 -2.317637e-01 8.622054e-01 -1.787226e+00 2.947238e+00 3.380113e+00 5.357673e-01 -1.684520e-01 -1.117950e-01 -2.992374e-01 -2.674428e-01 -3.000116e-01 -2.416400e-01 5.380482e-03 -2.429036e-01 -1.575499e-01 -1.493665e-01 -3.050967e-01 4.869005e-01
<VARIANCE> 25
 4.623500e+01 1.737568e+01 1.432633e+01 3.260949e+01 1.473843e+01 2.864705e+01 1.667112e+01 1.513540e+01 1.484931e+01 1.416937e+01 1.376598e+01 1.236927e+01 3.138829e+00 1.163363e+00 1.306484e+00 2.107709e+00 1.982605e+00 2.471313e+00 1.946937e+00 1.746384e+00 1.689971e+00 1.432217e+00 1.343518e+00 1.320021e+00 5.927196e+00
<GCONST> 8.920259e+01
<STATE> 3
<MEAN> 25
 -1.086227e+01 2.381026e+00 -2.778505e+00 1.828093e+00 9.370378e-01 3.068791e+00 2.720548e+00 9.565026e-01 9.890077e-01 -1.993450e+00 3.126965e-01 9.604077e-01 2.921568e-01 -3.386965e-01 2.075486e-01 3.786759e-01 3.910463e-01 7.605512e-02 -1.143426e-02 -2.786499e-03 1.328092e-01 1.101825e-01 -2.982676e-01 -2.629172e-01 4.524149e-01
<VARIANCE> 25
 3.303867e+01 2.529874e+01 1.165429e+01 1.933562e+01 1.955480e+01 1.548071e+01 2.079567e+01 1.745357e+01 1.164005e+01 1.475408e+01 1.498736e+01 1.306948e+01 1.027834e+00 1.559711e+00 8.858534e-01 1.023862e+00 1.218251e+00 1.104936e+00 1.142976e+00 1.818296e+00 1.776616e+00 1.733492e+00 1.419297e+00 1.354908e+00 7.754410e-01
<GCONST> 8.305103e+01
<STATE> 4
<MEAN> 25
 -7.109530e+00 2.247251e+00 7.049941e-02 4.238777e+00 2.101308e+00 2.234197e+00 6.945509e-01 1.551911e+00 2.489766e+00 -7.232602e-01 6.465982e-01 3.555934e-01 1.176693e+00 -1.035319e+00 1.082315e+00 5.902498e-01 7.471218e-01 -6.986027e-01 -3.316139e-01 8.907216e-02 3.129649e-01 2.704895e-01 -2.318613e-01 -1.543282e-01 2.170528e+00
<VARIANCE> 25
 5.233228e+01 5.348047e+01 1.999499e+01 1.415930e+01 1.888112e+01 2.606227e+01 2.268134e+01 1.652404e+01 2.492865e+01 2.226553e+01 1.697258e+01 1.624656e+01 6.511744e+00 7.074898e+00 2.648731e+00 2.483805e+00 2.306794e+00 4.144211e+00 2.435546e+00 1.520664e+00 2.437413e+00 2.279825e+00 1.397385e+00 2.071369e+00 8.684965e+00
<GCONST> 9.781362e+01
<TRANSP> 5
 0.000000e+00 1.000000e+00 0.000000e+00 0.000000e+00 0.000000e+00
 0.000000e+00 5.207965e-01 4.792035e-01 0.000000e+00 0.000000e+00
 0.000000e+00 0.000000e+00 6.003155e-01 3.996845e-01 0.000000e+00
 0.000000e+00 0.000000e+00 0.000000e+00 5.364409e-01 4.635591e-01
 0.000000e+00 0.000000e+00 0.000000e+00 0.000000e+00 0.000000e+00
<ENDHMM>
~h "iy"
<BEGINHMM>
<NUMSTATES> 5
<STATE> 2
<MEAN> 25
 4.908611e+00 1.668752e+01 6.768755e+00 5.558299e+00 -4.418132e+00 -1.458748e+00 -4.714155e-01 -4.048141e+00 -2.209773e+00 -4.335903e+00 -2.070267e+00 -1.985854e+00 -1.785316e+00 -1.061921e+00 -4.439545e-01 5.832801e-01 1.150805e+00 7.109721e-01 -1.420532e-01 -7.544285e-03 2.205285e-01 9.367336e-02 -3.199746e-02 4.315953e-02 -1.047996e+00
<VARIANCE> 25
 5.583168e+01 3.479372e+01 2.440279e+01 1.255877e+01 2.239249e+01 1.957139e+01 1.531471e+01 2.544398e+01 1.460280e+01 1.755129e+01 1.925993e+01 1.358798e+01 1.601903e+00 2.016740e+00 2.483553e+00 1.136392e+00 1.286205e+00 1.506045e+00 1.517554e+00 2.312429e+00 1.522194e+00 1.356698e+00 1.397738e+00 1.528046e+00 3.993562e-01
<GCONST> 8.709841e+01
<STATE> 3
<MEAN> 25
 -6.293578e+00 9.223625e+00 9.130694e-01 7.658277e+00 1.404577e+00 2.750617e+00 9.291814e-01 -4.155157e+00 -2.037121e+00 -3.767483e+00 1.601221e-01 8.378284e-01 -9.169416e-01 -7.509214e-01 -6.796716e-01 -2.801459e-01 2.640155e-01 2.324839e-01 2.297359e-01 3.221148e-01 1.026467e-01 -1.802040e-02 1.855817e-01 1.247107e-01 -4.912503e-01
<VARIANCE> 25
 1.311109e+01 1.495204e+01 1.202567e+01 1.849251e+01 8.489804e+00 1.674092e+01 1.107134e+01 1.561283e+01 1.525038e+01 1.735077e+01 2.254828e+01 2.933989e+01 6.665857e-01 1.100476e+00 1.072309e+00 1.084164e+00 8.820839e-01 7.098522e-01 1.245325e+00 1.254626e+00 1.500222e+00 1.882246e+00 9.634349e-01 1.455524e+00 1.334289e-01
<GCONST> 7.799255e+01
<STATE> 4
<MEAN> 25
 -8.971595e+00 5.466982e+00 3.110806e-01 7.286189e+00 1.986060e+00 2.393392e+00 2.164149e+00 -1.450430e+00 -2.057470e+00 -3.927058e+00 -1.088120e+00 -4.409103e-01 -1.920925e-01 -1.040897e-01 -1.020702e-01 -9.570226e-02 -3.207521e-02 -3.514708e-02 7.401196e-02 1.447001e-01 1.390096e-01 1.193180e-01 1.491812e-02 -2.086774e-02 -1.037848e-01
<VARIANCE> 25
 6.597634e+00 7.924073e+00 1.183635e+01 1.797005e+01 1.043639e+01 1.051500e+01 1.069690e+01 1.225842e+01 1.307143e+01 1.512669e+01 1.482379e+01 1.189374e+01 2.488104e-01 6.038144e-01 9.012028e-01 8.901773e-01 9.950198e-01 8.607879e-01 9.067584e-01 8.499140e-01 1.244031e+00 1.285245e+00 1.532948e+00 1.561336e+00 6.645209e-02
<GCONST> 7.139628e+01
<TRANSP> 5
 0.000000e+00 1.000000e+00 0.000000e+00 0.000000e+00 0.000000e+00
 0.000000e+00 7.969698e-01 2.030302e-01 0.000000e+00 0.000000e+00
 0.000000e+00 0.000000e+00 6.444346e-01 3.555655e-01 0.000000e+00
 0.000000e+00 0.000000e+00 0.000000e+00 8.800781e-01 1.199219e-01
 0.000000e+00 0.000000e+00 0.000000e+00 0.000000e+00 0.000000e+00
<ENDHMM>
~h "ng"
<BEGINHMM>
<NUMSTATES> 5
<STATE> 2
<MEAN> 25
 1.783069e+01 -2.861295e+00 3.838076e+00 -9.489648e-01 -1.150425e+01 -1.692845e+00 1.398960e+01 -3.016751e+00 -1.762756e+01 2.731614e+00 9.374328e-01 -3.163851e+00 1.199417e+00 4.575118e+00 -3.515016e+00 9.416353e-01 1.487470e+00 1.604772e+00 -1.673914e+00 -3.719551e+00 1.453033e+00 -2.226168e-01 3.989003e-01 1.007104e+00 -2.631762e+00
<VARIANCE> 25
 1.041475e+01 5.351427e+01 8.430595e+01 6.778614e+01 7.402205e+01 3.428786e+01 6.282594e+01 9.619599e+01 4.694011e+01 2.990794e+01 2.412202e+01 2.469336e+01 8.647839e-01 3.073146e+00 5.879938e+00 1.129596e+01 7.116141e+00 4.547043e+00 1.410941e+01 7.741763e+00 6.916696e+00 4.155637e+00 3.069169e+00 2.477221e+00 7.803034e-01
<GCONST> 1.095861e+02
<STATE> 3
<MEAN> 25
 1.963240e+01 9.428215e+00 -3.836872e+00 -3.821563e+00 -1.718127e+00 3.945188e-01 -1.268994e+00 -7.744548e+00 -7.514457e+00 -5.104445e-01 6.546766e-02 -6.710294e-01 -6.962903e-01 -1.300198e+00 6.602215e-01 -1.378213e+00 2.479849e+00 -1.055674e+00 -3.486073e+00 1.732349e+00 1.940155e+00 3.221543e-01 -1.114555e+00 -5.546498e-01 9.416687e-01
<VARIANCE> 25
 9.631851e+00 4.883432e+01 4.821619e+01 4.861947e+01 9.462611e+01 6.383406e+01 8.552682e+01 8.212548e+01 3.914187e+01 2.450103e+01 3.785260e+01 2.604143e+01 9.339427e-01 1.211362e+01 5.479440e+00 9.533907e+00 9.466748e+00 5.698211e+00 8.410434e+00 8.702916e+00 3.736195e+00 3.698510e+00 3.911261e+00 2.666272e+00 3.832685e+00
<GCONST> 1.121598e+02
<STATE> 4
<MEAN> 25
 1.631950e+01 -8.784840e+00 1.984681e+00 -2.168905e+01 9.868797e+00 -3.279846e-01 -1.834150e+01 2.863655e+00 1.082383e+00 9.738488e+00 -6.425828e+00 -4.647320e+00 3.193067e-01 -9.774619e-01 3.999234e-02 -1.381109e+00 -1.561148e-01 1.181501e+00 -8.201596e-01 -6.265648e-01 5.767815e-01 9.230776e-01 -1.812143e-01 1.211027e-01 8.361297e-01
<VARIANCE> 25
 7.396055e+00 1.609385e+01 3.538237e+01 8.775636e+01 7.402941e+01 5.851166e+01 3.657624e+01 8.925771e+01 3.464985e+01 4.710979e+01 3.722386e+01 2.168435e+01 4.984265e-01 4.994695e+00 2.883193e+00 8.489080e+00 6.995619e+00 6.353332e+00 4.470268e+00 9.026200e+00 3.034219e+00 2.745111e+00 3.626362e+00 2.178549e+00 2.559406e+00
<GCONST> 1.060511e+02
<TRANSP> 5
 0.000000e+00 1.000000e+00 0.000000e+00 0.000000e+00 0.000000e+00
 0.000000e+00 6.890267e-01 3.109733e-01 0.000000e+00 0.000000e+00
 0.000000e+00 0.000000e+00 8.235009e-01 1.764991e-01 0.000000e+00
 0.000000e+00 0.000000e+00 0.000000e+00 8.159021e-01 1.840979e-01
 0.000000e+00 0.000000e+00 0.000000e+00 0.000000e+00 0.000000e+00
<ENDHMM>
~h "sp"
<BEGINHMM>
<NUMSTATES> 3
<STATE> 2
~s "silst"
<TRANSP> 3
 0.000000e+00 1.422112e-02 9.857789e-01
 0.000000e+00 7.395694e-01 2.604307e-01
 0.000000e+00 0.000000e+00 0.000000e+00
<ENDHMM>
~h "th"
<BEGINHMM>
<NUMSTATES> 5
<STATE> 2
<MEAN> 25
 1.709231e+01 -1.038616e+01 1.781447e+01 4.420616e+00 -2.138082e+01 -5.395119e+00 3.372652e+00 -5.072462e+00 -9.558982e+00 -3.626466e+00 8.276968e-01 1.178065e+00 -6.290071e-02 1.780103e+00 9.049586e-01 4.657826e-01 -2.050525e+00 1.804238e-01 1.704999e+00 -9.409335e-01 -1.958089e+00 6.153949e-01 3.132237e-01 -4.741644e-01 -1.168026e+00
<VARIANCE> 25
 1.067792e+01 5.408802e+01 3.349385e+01 6.534497e+01 7.567287e+01 5.534768e+01 1.117097e+02 3.724442e+01 1.161312e+02 3.043781e+01 3.336934e+01 4.258574e+01 1.920709e+00 5.512685e+00 4.071068e+00 7.261547e+00 4.758180e+00 8.932332e+00 6.818693e+00 5.059020e+00 6.709041e+00 3.656898e+00 4.315302e+00 5.764432e+00 2.045216e+00
<GCONST> 1.122659e+02
<STATE> 3
<MEAN> 25
 1.297078e+01 1.407310e+01 1.723887e+01 1.779703e+00 -2.384599e+01 -9.018950e+00 8.305269e+00 -6.794235e+00 -1.182676e+01 3.336713e+00 -6.123871e-02 -3.001186e+00 -1.562116e+00 3.292181e+00 -1.787239e+00 -3.418995e-01 3.787844e+00 -3.383663e-01 -3.673693e+00 1.278540e+00 3.237093e+00 -1.828997e-01 2.314450e-01 6.753123e-02 -2.893721e+00
<VARIANCE> 25
 1.297626e+01 3.436713e+01 2.617332e+01 1.381440e+02 4.694602e+01 4.457721e+01 8.374271e+01 6.145306e+01 4.329310e+01 3.318349e+01 3.389007e+01 1.564588e+01 9.120073e-01 3.042417e+00 4.629758e+00 6.560364e+00 5.030958e+00 3.695024e+00 4.814626e+00 2.743403e+00 2.438616e+00 4.275678e+00 2.576810e+00 1.928102e+00 3.463315e-01
<GCONST> 1.028005e+02
<STATE> 4
<MEAN> 25
 2.501517e+00 1.290990e+01 1.027798e+01 4.008507e-01 -1.336778e+01 -3.002977e+00 7.206879e-01 -6.908135e+00 -3.795734e+00 1.570942e+00 -1.667873e+00 -1.978478e+00 -2.661342e+00 -1.911381e+00 -2.343183e+00 -2.714705e-01 1.530393e+00 1.565585e+00 3.963660e-01 -8.474894e-02 3.174036e-01 -8.507050e-01 -4.526209e-01 2.821080e-01 -1.683670e+00
<VARIANCE> 25
 3.045529e+01 4.459093e+01 5.130506e+01 1.662455e+01 1.598461e+01 2.227333e+01 2.440696e+01 2.020505e+01 1.580248e+01 1.276194e+01 2.312133e+01 1.280084e+01 1.724756e+00 1.193222e+00 2.075869e+00 3.348075e+00 5.415755e+00 1.576731e+00 5.644367e+00 6.833293e-01 3.752536e+00 9.920567e-01 2.721308e+00 6.167218e-01 8.303455e-01
<GCONST> 9.078349e+01
<TRANSP> 5
 0.000000e+00 1.000000e+00 0.000000e+00 0.000000e+00 0.000000e+00
 0.000000e+00 9.020522e-01 9.794781e-02 0.000000e+00 0.000000e+00
 0.000000e+00 0.000000e+00 7.627005e-01 2.372995e-01 0.000000e+00
 0.000000e+00 0.000000e+00 0.000000e+00 6.918126e-01 3.081874e-01
 0.000000e+00 0.000000e+00 0.000000e+00 0.000000e+00 0.000000e+00
<ENDHMM>
~h "uw"
<BEGINHMM>
<NUMSTATES> 5
<STATE> 2
<MEAN> 25
 -3.068657e+00 7.477383e+00 -1.492442e-01 1.517278e+00 -1.702692e+00 1.896479e+00 2.057440e+00 -7.739570e-01 -4.132351e+00 -5.552553e+00 -4.813412e-01 -2.715607e-01 -1.546019e+00 -1.118369e+00 -1.038778e-01 7.785211e-01 5.561616e-01 2.306713e-01 3.520615e-01 3.225110e-01 3.569304e-02 -2.020924e-01 -5.665464e-01 -5.361339e-01 -7.404210e-01
<VARIANCE> 25
 2.780667e+01 1.931772e+01 2.088950e+01 3.129435e+01 1.737085e+01 1.560485e+01 2.115981e+01 1.869838e+01 2.411484e+01 2.064552e+01 1.865326e+01 2.623746e+01 1.306237e+00 1.461075e+00 2.024037e+00 1.491741e+00 1.262165e+00 1.470781e+00 1.777685e+00 1.830859e+00 1.491576e+00 1.576603e+00 1.984319e+00 1.441283e+00 4.009394e-01
<GCONST> 8.724438e+01
<STATE> 3
<MEAN> 25
 -7.000644e+00 3.572037e+00 2.010241e+00 6.150523e+00 5.291131e-01 3.923899e-01 1.108523e+00 -1.851742e-01 -3.280953e+00 -3.538151e+00 -1.157731e+00 -2.100509e+00 -1.495934e-01 -4.687120e-02 1.127875e-01 1.784105e-01 9.374164e-02 5.148763e-02 5.710544e-02 4.511410e-02 1.619087e-01 9.697042e-02 -2.500855e-02 5.350619e-02 -7.891439e-02
<VARIANCE> 25
 5.785100e+00 7.657928e+00 1.367510e+01 2.005705e+01 1.704096e+01 1.288945e+01 1.354639e+01 1.861195e+01 1.419793e+01 1.553764e+01 1.165464e+01 1.204647e+01 2.023370e-01 3.817143e-01 5.368693e-01 6.345277e-01 9.577712e-01 1.150728e+00 1.334834e+00 1.419482e+00 1.311950e+00 1.415126e+00 1.216202e+00 1.136297e+00 5.060294e-02
<GCONST> 7.167197e+01
<STATE> 4
<MEAN> 25
 -9.566219e+00 3.676323e+00 -2.231598e-03 1.642889e+00 1.722239e+00 1.022674e+00 1.684028e+00 1.811808e+00 3.383039e-01 -1.807369e+00 -6.565800e-01 7.717497e-01 5.796517e-02 5.253982e-03 1.763679e-01 -9.499490e-04 3.492979e-01 -6.663100e-01 3.572537e-02 4.745112e-01 1.105351e+00 8.866680e-01 7.369415e-02 2.724393e-01 3.609737e-01
<VARIANCE> 25
 9.567485e+00 5.500881e+00 9.078629e+00 3.589362e+01 2.709822e+01 3.923773e+01 1.811122e+01 2.418769e+01 1.555560e+01 2.199737e+01 1.480071e+01 1.626408e+01 1.081213e+00 1.769468e+00 1.204784e+00 1.330438e+00 1.533361e+00 2.242545e+00 2.413547e+00 2.809138e+00 1.970430e+00 2.213257e+00 1.769459e+00 2.263417e+00 8.789133e-01
<GCONST> 8.706795e+01
<TRANSP> 5
 0.000000e+00 1.000000e+00 0.000000e+00 0.000000e+00 0.000000e+00
 0.000000e+00 7.198202e-01 2.801798e-01 0.000000e+00 0.000000e+00
 0.000000e+00 0.000000e+00 9.009674e-01 9.903268e-02 0.000000e+00
 0.000000e+00 0.000000e+00 0.000000e+00 2.864361e-01 7.135640e-01
 0.000000e+00 0.000000e+00 0.000000e+00 0.000000e+00 0.000000e+00
<ENDHMM>
~h "sil"
<BEGINHMM>
<NUMSTATES> 5
<STATE> 2
<MEAN> 25
 -1.070058e+01 4.677598e+00 -1.892927e+00 3.679565e+00 4.473925e-01 2.623539e+00 2.161798e+00 -3.563090e-02 8.241271e-01 -1.993833e+00 5.501430e-01 4.528165e-01 -2.485225e-02 -1.226161e-03 1.696161e-02 2.266123e-02 2.443625e-02 2.136191e-02 3.831667e-02 2.147446e-02 -1.106654e-02 -1.246294e-02 1.771480e-03 2.203866e-02 -1.454766e-02
<VARIANCE> 25
 6.853063e+00 5.246821e+00 9.254562e+00 1.410462e+01 1.058620e+01 1.313491e+01 1.532714e+01 1.584820e+01 1.375715e+01 1.205167e+01 1.194996e+01 1.283063e+01 1.132927e-01 2.353720e-01 4.073162e-01 6.302474e-01 7.910045e-01 9.211152e-01 1.079668e+00 1.209800e+00 1.197052e+00 1.214997e+00 1.197244e+00 1.166612e+00 4.375605e-02
<GCONST> 6.751762e+01
<STATE> 3
~s "silst"
<STATE> 4
<MEAN> 25
 -8.239317e+00 4.461803e+00 9.304800e-01 3.715911e+00 1.527683e+00 2.692749e+00 1.908312e+00 3.815190e-01 -1.845872e-01 -2.390536e+00 6.271638e-02 8.018785e-01 3.705224e-01 3.796015e-02 3.842703e-02 -5.532197e-02 -6.456530e-02 -2.198162e-01 -2.968403e-01 -7.102761e-02 -4.665738e-02 -1.801078e-02 -1.451059e-01 -2.045571e-01 2.839751e-01
<VARIANCE> 25
 4.071901e+01 3.286877e+01 2.448348e+01 2.440937e+01 1.873863e+01 2.297659e+01 2.172192e+01 2.098692e+01 1.967570e+01 1.865464e+01 1.590489e+01 1.327057e+01 2.366401e+00 2.526378e+00 1.668582e+00 1.753386e+00 2.001701e+00 2.489124e+00 1.863628e+00 1.674258e+00 1.663875e+00 1.627902e+00 1.488959e+00 1.225175e+00 3.984426e+00
<GCONST> 9.156956e+01
<TRANSP> 5
 0.000000e+00 1.000000e+00 0.000000e+00 0.000000e+00 0.000000e+00
 0.000000e+00 9.376318e-01 1.043575e-02 5.193238e-02 0.000000e+00
 0.000000e+00 0.000000e+00 9.520090e-01 4.799103e-02 0.000000e+00
 0.000000e+00 6.948239e-02 0.000000e+00 7.183786e-01 2.121390e-01
 0.000000e+00 0.000000e+00 0.000000e+00 0.000000e+00 0.000000e+00
<ENDHMM>
