~o
<STREAMINFO> 1 25
<VECSIZE> 25<NULLD><MFCC_D_N_Z_0><DIAGC>
~t "T_b"
<TRANSP> 5
 0.000000e+00 1.000000e+00 0.000000e+00 0.000000e+00 0.000000e+00
 0.000000e+00 9.007841e-01 9.921588e-02 0.000000e+00 0.000000e+00
 0.000000e+00 0.000000e+00 7.783654e-01 2.216346e-01 0.000000e+00
 0.000000e+00 0.000000e+00 0.000000e+00 7.609866e-01 2.390135e-01
 0.000000e+00 0.000000e+00 0.000000e+00 0.000000e+00 0.000000e+00
~t "T_d"
<TRANSP> 5
 0.000000e+00 1.000000e+00 0.000000e+00 0.000000e+00 0.000000e+00
 0.000000e+00 9.191983e-01 8.080174e-02 0.000000e+00 0.000000e+00
 0.000000e+00 0.000000e+00 8.850011e-01 1.149989e-01 0.000000e+00
 0.000000e+00 0.000000e+00 0.000000e+00 6.581848e-01 3.418152e-01
 0.000000e+00 0.000000e+00 0.000000e+00 0.000000e+00 0.000000e+00
~t "T_f"
<TRANSP> 5
 0.000000e+00 1.000000e+00 0.000000e+00 0.000000e+00 0.000000e+00
 0.000000e+00 9.424266e-01 5.757350e-02 0.000000e+00 0.000000e+00
 0.000000e+00 0.000000e+00 6.414103e-01 3.585897e-01 0.000000e+00
 0.000000e+00 0.000000e+00 0.000000e+00 8.528439e-01 1.471560e-01
 0.000000e+00 0.000000e+00 0.000000e+00 0.000000e+00 0.000000e+00
~t "T_g"
<TRANSP> 5
 0.000000e+00 1.000000e+00 0.000000e+00 0.000000e+00 0.000000e+00
 0.000000e+00 7.597436e-01 2.402564e-01 0.000000e+00 0.000000e+00
 0.000000e+00 0.000000e+00 4.613872e-01 5.386128e-01 0.000000e+00
 0.000000e+00 0.000000e+00 0.000000e+00 2.561273e-01 7.438727e-01
 0.000000e+00 0.000000e+00 0.000000e+00 0.000000e+00 0.000000e+00
~t "T_k"
<TRANSP> 5
 0.000000e+00 1.000000e+00 0.000000e+00 0.000000e+00 0.000000e+00
 0.000000e+00 8.642504e-01 1.357496e-01 0.000000e+00 0.000000e+00
 0.000000e+00 0.000000e+00 7.703948e-01 2.296052e-01 0.000000e+00
 0.000000e+00 0.000000e+00 0.000000e+00 6.856184e-01 3.143816e-01
 0.000000e+00 0.000000e+00 0.000000e+00 0.000000e+00 0.000000e+00
~t "T_l"
<TRANSP> 5
 0.000000e+00 1.000000e+00 0.000000e+00 0.000000e+00 0.000000e+00
 0.000000e+00 5.697259e-01 4.302741e-01 0.000000e+00 0.000000e+00
 0.000000e+00 0.000000e+00 2.139008e-02 9.786099e-01 0.000000e+00
 0.000000e+00 0.000000e+00 0.000000e+00 5.531823e-01 4.468177e-01
 0.000000e+00 0.000000e+00 0.000000e+00 0.000000e+00 0.000000e+00
~t "T_m"
<TRANSP> 5
 0.000000e+00 1.000000e+00 0.000000e+00 0.000000e+00 0.000000e+00
 0.000000e+00 9.053680e-01 9.463196e-02 0.000000e+00 0.000000e+00
 0.000000e+00 0.000000e+00 8.279340e-01 1.720660e-01 0.000000e+00
 0.000000e+00 0.000000e+00 0.000000e+00 9.638559e-01 3.614409e-02
 0.000000e+00 0.000000e+00 0.000000e+00 0.000000e+00 0.000000e+00
~t "T_n"
<TRANSP> 5
 0.000000e+00 1.000000e+00 0.000000e+00 0.000000e+00 0.000000e+00
 0.000000e+00 8.112735e-01 1.887266e-01 0.000000e+00 0.000000e+00
 0.000000e+00 0.000000e+00 7.850914e-01 2.149086e-01 0.000000e+00
 0.000000e+00 0.000000e+00 0.000000e+00 9.599502e-01 4.004973e-02
 0.000000e+00 0.000000e+00 0.000000e+00 0.000000e+00 0.000000e+00
~t "T_r"
<TRANSP> 5
 0.000000e+00 1.000000e+00 0.000000e+00 0.000000e+00 0.000000e+00
 0.000000e+00 1.909710e-01 8.090290e-01 0.000000e+00 0.000000e+00
 0.000000e+00 0.000000e+00 2.782446e-03 9.972175e-01 0.000000e+00
 0.000000e+00 0.000000e+00 0.000000e+00 2.579193e-01 7.420807e-01
 0.000000e+00 0.000000e+00 0.000000e+00 0.000000e+00 0.000000e+00
~t "T_s"
<TRANSP> 5
 0.000000e+00 1.000000e+00 0.000000e+00 0.000000e+00 0.000000e+00
 0.000000e+00 6.833053e-01 3.166946e-01 0.000000e+00 0.000000e+00
 0.000000e+00 0.000000e+00 7.565395e-01 2.434605e-01 0.000000e+00
 0.000000e+00 0.000000e+00 0.000000e+00 8.499131e-01 1.500870e-01
 0.000000e+00 0.000000e+00 0.000000e+00 0.000000e+00 0.000000e+00
~t "T_t"
<TRANSP> 5
 0.000000e+00 1.000000e+00 0.000000e+00 0.000000e+00 0.000000e+00
 0.000000e+00 4.806741e-01 5.193259e-01 0.000000e+00 0.000000e+00
 0.000000e+00 0.000000e+00 5.932379e-01 4.067621e-01 0.000000e+00
 0.000000e+00 0.000000e+00 0.000000e+00 8.432941e-01 1.567058e-01
 0.000000e+00 0.000000e+00 0.000000e+00 0.000000e+00 0.000000e+00
~t "T_w"
<TRANSP> 5
 0.000000e+00 1.000000e+00 0.000000e+00 0.000000e+00 0.000000e+00
 0.000000e+00 6.773143e-01 3.226857e-01 0.000000e+00 0.000000e+00
 0.000000e+00 0.000000e+00 6.826057e-01 3.173943e-01 0.000000e+00
 0.000000e+00 0.000000e+00 0.000000e+00 7.640958e-01 2.359041e-01
 0.000000e+00 0.000000e+00 0.000000e+00 0.000000e+00 0.000000e+00
~t "T_z"
<TRANSP> 5
 0.000000e+00 1.000000e+00 0.000000e+00 0.000000e+00 0.000000e+00
 0.000000e+00 9.560747e-01 4.392528e-02 0.000000e+00 0.000000e+00
 0.000000e+00 0.000000e+00 8.237845e-01 1.762155e-01 0.000000e+00
 0.000000e+00 0.000000e+00 0.000000e+00 5.717209e-01 4.282791e-01
 0.000000e+00 0.000000e+00 0.000000e+00 0.000000e+00 0.000000e+00
~t "T_ae"
<TRANSP> 5
 0.000000e+00 1.000000e+00 0.000000e+00 0.000000e+00 0.000000e+00
 0.000000e+00 7.378975e-01 2.621025e-01 0.000000e+00 0.000000e+00
 0.000000e+00 0.000000e+00 7.853242e-01 2.146759e-01 0.000000e+00
 0.000000e+00 0.000000e+00 0.000000e+00 7.817864e-01 2.182136e-01
 0.000000e+00 0.000000e+00 0.000000e+00 0.000000e+00 0.000000e+00
~t "T_ah"
<TRANSP> 5
 0.000000e+00 1.000000e+00 0.000000e+00 0.000000e+00 0.000000e+00
 0.000000e+00 7.190621e-01 2.809379e-01 0.000000e+00 0.000000e+00
 0.000000e+00 0.000000e+00 7.700977e-01 2.299023e-01 0.000000e+00
 0.000000e+00 0.000000e+00 0.000000e+00 6.865445e-01 3.134555e-01
 0.000000e+00 0.000000e+00 0.000000e+00 0.000000e+00 0.000000e+00
~t "T_ao"
<TRANSP> 5
 0.000000e+00 1.000000e+00 0.000000e+00 0.000000e+00 0.000000e+00
 0.000000e+00 5.684738e-01 4.315262e-01 0.000000e+00 0.000000e+00
 0.000000e+00 0.000000e+00 4.291395e-01 5.708606e-01 0.000000e+00
 0.000000e+00 0.000000e+00 0.000000e+00 6.137555e-01 3.862445e-01
 0.000000e+00 0.000000e+00 0.000000e+00 0.000000e+00 0.000000e+00
~t "T_aw"
<TRANSP> 5
 0.000000e+00 1.000000e+00 0.000000e+00 0.000000e+00 0.000000e+00
 0.000000e+00 7.866794e-01 2.133206e-01 0.000000e+00 0.000000e+00
 0.000000e+00 0.000000e+00 7.687042e-01 2.312959e-01 0.000000e+00
 0.000000e+00 0.000000e+00 0.000000e+00 6.675929e-01 3.324071e-01
 0.000000e+00 0.000000e+00 0.000000e+00 0.000000e+00 0.000000e+00
~t "T_ay"
<TRANSP> 5
 0.000000e+00 1.000000e+00 0.000000e+00 0.000000e+00 0.000000e+00
 0.000000e+00 7.963959e-01 2.036041e-01 0.000000e+00 0.000000e+00
 0.000000e+00 0.000000e+00 8.737031e-01 1.262969e-01 0.000000e+00
 0.000000e+00 0.000000e+00 0.000000e+00 7.970596e-01 2.029404e-01
 0.000000e+00 0.000000e+00 0.000000e+00 0.000000e+00 0.000000e+00
~t "T_eh"
<TRANSP> 5
 0.000000e+00 1.000000e+00 0.000000e+00 0.000000e+00 0.000000e+00
 0.000000e+00 8.558257e-01 1.441743e-01 0.000000e+00 0.000000e+00
 0.000000e+00 0.000000e+00 7.124399e-01 2.875601e-01 0.000000e+00
 0.000000e+00 0.000000e+00 0.000000e+00 7.636446e-01 2.363554e-01
 0.000000e+00 0.000000e+00 0.000000e+00 0.000000e+00 0.000000e+00
~t "T_er"
<TRANSP> 5
 0.000000e+00 1.000000e+00 0.000000e+00 0.000000e+00 0.000000e+00
 0.000000e+00 9.050272e-01 9.497287e-02 0.000000e+00 0.000000e+00
 0.000000e+00 0.000000e+00 8.771583e-01 1.228416e-01 0.000000e+00
 0.000000e+00 0.000000e+00 0.000000e+00 8.764883e-01 1.235117e-01
 0.000000e+00 0.000000e+00 0.000000e+00 0.000000e+00 0.000000e+00
~t "T_ey"
<TRANSP> 5
 0.000000e+00 1.000000e+00 0.000000e+00 0.000000e+00 0.000000e+00
 0.000000e+00 3.120973e-01 6.879026e-01 0.000000e+00 0.000000e+00
 0.000000e+00 0.000000e+00 8.287222e-01 1.712778e-01 0.000000e+00
 0.000000e+00 0.000000e+00 0.000000e+00 8.408145e-01 1.591855e-01
 0.000000e+00 0.000000e+00 0.000000e+00 0.000000e+00 0.000000e+00
~t "T_ih"
<TRANSP> 5
 0.000000e+00 1.000000e+00 0.000000e+00 0.000000e+00 0.000000e+00
 0.000000e+00 5.309349e-01 4.690651e-01 0.000000e+00 0.000000e+00
 0.000000e+00 0.000000e+00 5.988911e-01 4.011090e-01 0.000000e+00
 0.000000e+00 0.000000e+00 0.000000e+00 5.969348e-01 4.030652e-01
 0.000000e+00 0.000000e+00 0.000000e+00 0.000000e+00 0.000000e+00
~t "T_iy"
<TRANSP> 5
 0.000000e+00 1.000000e+00 0.000000e+00 0.000000e+00 0.000000e+00
 0.000000e+00 7.820257e-01 2.179743e-01 0.000000e+00 0.000000e+00
 0.000000e+00 0.000000e+00 6.371486e-01 3.628515e-01 0.000000e+00
 0.000000e+00 0.000000e+00 0.000000e+00 8.718150e-01 1.281849e-01
 0.000000e+00 0.000000e+00 0.000000e+00 0.000000e+00 0.000000e+00
~t "T_ng"
<TRANSP> 5
 0.000000e+00 1.000000e+00 0.000000e+00 0.000000e+00 0.000000e+00
 0.000000e+00 7.086685e-01 2.913316e-01 0.000000e+00 0.000000e+00
 0.000000e+00 0.000000e+00 8.080162e-01 1.919838e-01 0.000000e+00
 0.000000e+00 0.000000e+00 0.000000e+00 8.060535e-01 1.939465e-01
 0.000000e+00 0.000000e+00 0.000000e+00 0.000000e+00 0.000000e+00
~t "T_th"
<TRANSP> 5
 0.000000e+00 1.000000e+00 0.000000e+00 0.000000e+00 0.000000e+00
 0.000000e+00 8.801947e-01 1.198054e-01 0.000000e+00 0.000000e+00
 0.000000e+00 0.000000e+00 7.893265e-01 2.106735e-01 0.000000e+00
 0.000000e+00 0.000000e+00 0.000000e+00 7.282225e-01 2.717775e-01
 0.000000e+00 0.000000e+00 0.000000e+00 0.000000e+00 0.000000e+00
~t "T_uw"
<TRANSP> 5
 0.000000e+00 1.000000e+00 0.000000e+00 0.000000e+00 0.000000e+00
 0.000000e+00 7.425748e-01 2.574252e-01 0.000000e+00 0.000000e+00
 0.000000e+00 0.000000e+00 9.034042e-01 9.659585e-02 0.000000e+00
 0.000000e+00 0.000000e+00 0.000000e+00 3.312900e-01 6.687100e-01
 0.000000e+00 0.000000e+00 0.000000e+00 0.000000e+00 0.000000e+00
~s "ST_f_2_1"
<MEAN> 25
 -1.947493e+01 2.936742e+00 -1.494722e+00 5.409012e+00 1.446534e+00 5.923906e+00 5.995933e+00 4.947727e+00 5.620614e+00 1.023406e+00 5.474727e+00 3.747347e+00 2.056778e-03 1.033704e-04 8.750961e-03 1.974614e-02 4.525581e-02 -2.862264e-02 -7.490282e-02 1.656731e-02 1.123022e-01 7.071804e-02 -9.878279e-03 -1.498064e-02 -3.679172e-03
<VARIANCE> 25
 3.936949e+00 6.094508e+00 6.584746e+00 1.755306e+01 9.284213e+00 9.964765e+00 9.097037e+00 1.660602e+01 1.217751e+01 9.827737e+00 8.184566e+00 8.984721e+00 4.253944e-02 1.479518e-01 2.164506e-01 3.265237e-01 4.445171e-01 4.474858e-01 7.084829e-01 1.047134e+00 1.038503e+00 1.055010e+00 8.315170e-01 1.002513e+00 4.115048e-02
<GCONST> 5.958989e+01
~s "ST_f_3_1"
<MEAN> 25
 -1.717285e+01 5.592506e+00 -4.817570e-01 2.935053e+00 3.697747e+00 6.323112e+00 2.489320e+00 2.700340e+00 3.758275e+00 5.326918e-01 4.100019e+00 4.159837e+00 -3.232366e-02 3.338250e-02 9.144290e-02 -3.927897e-02 -8.736188e-02 2.768870e-01 2.247168e-01 -4.654261e-01 -7.371852e-01 -1.812654e-01 1.402046e-02 2.013644e-01 5.328343e-03
<VARIANCE> 25
 1.325964e+01 9.105752e+00 5.760060e+00 1.610433e+01 9.272198e+00 8.457334e+00 8.321479e+00 1.759777e+01 1.447480e+01 7.657068e+00 7.102795e+00 7.411528e+00 5.658596e-02 1.033202e-01 1.690461e-01 2.699755e-01 6.832214e-01 4.609419e-01 9.380629e-01 1.078531e+00 7.326857e-01 7.456208e-01 4.518300e-01 6.188195e-01 4.115048e-02
<GCONST> 5.884865e+01
~s "ST_f_4_1"
<MEAN> 25
 -1.444481e+01 4.466800e+00 3.555489e-01 -7.375183e-01 2.352895e+00 3.553982e+00 1.524770e+00 3.759132e+00 3.137375e-01 -6.029887e-01 2.564145e+00 3.046531e+00 2.229169e-01 -1.877511e-02 3.060630e-02 -1.161082e-01 -1.476616e-01 -2.089021e-01 -1.152125e-02 1.898483e-02 -1.513538e-01 -1.047990e-01 -1.051143e-01 9.373480e-03 2.174957e-01
<VARIANCE> 25
 8.139750e+00 6.890738e+00 6.176383e+00 1.277742e+01 1.152502e+01 1.657724e+01 1.641156e+01 1.999556e+01 1.644992e+01 9.132461e+00 1.111855e+01 9.383057e+00 8.697691e-01 5.303267e-01 6.697748e-01 9.433206e-01 1.199259e+00 1.423637e+00 1.592142e+00 1.182183e+00 1.588030e+00 1.093763e+00 1.112079e+00 1.070955e+00 2.090155e+00
<GCONST> 7.644656e+01
~s "ST_s_2_1"
<MEAN> 25
 1.757262e+01 -1.504602e+01 7.384477e+00 2.071033e+00 -8.136274e+00 -9.651827e+00 -3.076015e+00 3.076922e+00 2.381539e-02 -2.047017e+00 -1.538387e+00 -9.996390e-02 1.681226e+00 -6.740599e-01 -5.789462e-01 -3.444422e-01 -9.882211e-01 -2.925562e-01 -7.956548e-02 -1.153880e-01 -6.883681e-01 3.446112e-01 5.594040e-01 -5.837352e-01 1.060522e+00
<VARIANCE> 25
 3.620010e+01 3.736953e+01 8.542037e+01 7.671500e+01 6.596103e+01 7.132012e+01 5.090235e+01 6.320157e+01 7.996043e+01 4.069707e+01 3.978657e+01 2.918520e+01 4.590631e+00 5.330653e+00 1.110022e+01 1.265001e+01 6.428257e+00 9.200843e+00 8.024700e+00 6.767830e+00 1.055044e+01 6.177929e+00 4.944812e+00 3.796598e+00 3.821645e+00
<GCONST> 1.182890e+02
~s "ST_s_3_1"
<MEAN> 25
 1.878024e+01 -1.708521e+01 9.816140e+00 -1.014001e+01 -3.150628e+00 -8.056378e+00 -8.637457e+00 5.801467e+00 -2.881270e+00 4.226202e+00 -2.953887e+00 -1.083909e+00 4.838185e-02 2.054541e-01 -7.851602e-01 -1.374966e+00 1.355727e+00 6.960117e-01 -1.847329e-01 -5.828227e-01 1.237146e-01 1.297102e+00 -8.321884e-01 -6.081131e-01 2.385482e-01
<VARIANCE> 25
 1.830981e+01 2.434391e+01 7.261410e+01 1.141637e+02 9.394382e+01 6.414306e+01 7.289769e+01 7.745728e+01 7.991630e+01 4.837191e+01 2.909799e+01 3.099036e+01 6.667922e-01 1.611148e+00 2.467729e+00 3.000466e+00 2.746590e+00 2.540951e+00 4.327213e+00 3.787824e+00 4.994178e+00 2.318305e+00 2.759496e+00 3.588795e+00 8.727331e-01
<GCONST> 1.048955e+02
~s "ST_s_4_1"
<MEAN> 25
 2.255118e+01 -9.173616e+00 -4.815852e+00 -1.147218e+01 -3.475915e-01 4.471992e-01 -3.753071e+00 -6.312889e+00 -2.032159e+00 7.094477e+00 -2.325155e+00 -5.879466e+00 -3.220223e-01 1.525333e+00 -3.079664e-01 -5.671411e-02 1.007501e+00 1.349649e-01 -1.299304e-01 -4.957541e-02 -1.238664e-01 -5.467333e-02 2.069868e-01 2.401057e-01 -7.956392e-01
<VARIANCE> 25
 1.819077e+01 5.126768e+01 5.863271e+01 1.245417e+02 1.051127e+02 6.858405e+01 9.815587e+01 8.618426e+01 4.331326e+01 4.135637e+01 4.613544e+01 4.905084e+01 1.310620e+00 1.922874e+00 3.234195e+00 4.960880e+00 4.222206e+00 3.436188e+00 4.205094e+00 3.987381e+00 3.664134e+00 3.777945e+00 2.923763e+00 3.318011e+00 7.422823e-01
<GCONST> 1.086179e+02
~s "ST_l_2_1"
<MEAN> 25
 1.420858e-01 5.595551e+00 -1.317441e+00 -1.618963e+00 1.593553e-01 1.427862e+00 -1.276588e+00 -2.486770e+00 2.656703e-01 -1.354312e-01 1.469822e+00 1.415670e+00 -1.183888e+00 -1.927292e+00 3.881071e-01 4.302745e-01 -2.992777e-01 -8.393877e-01 3.912221e-01 8.025259e-01 1.901028e-01 -1.780791e-01 1.305606e-01 3.920213e-01 3.568579e-01
<VARIANCE> 25
 1.078160e+02 7.371358e+01 5.808549e+01 4.608355e+01 3.818745e+01 6.125988e+01 3.045550e+01 4.103661e+01 2.794458e+01 3.220824e+01 2.759154e+01 2.041988e+01 1.006767e+01 4.474226e+00 5.066794e+00 2.912390e+00 4.361438e+00 5.684097e+00 3.608082e+00 3.609929e+00 2.329992e+00 2.424381e+00 1.922526e+00 1.802005e+00 1.406009e+01
<GCONST> 1.087387e+02
~s "ST_l_3_1"
<MEAN> 25
 2.285950e+00 1.195616e+00 5.000334e-01 -6.058964e-01 -2.804757e-01 -5.876302e-01 -6.015451e-01 -2.311312e+00 6.927974e-01 -7.372965e-01 1.021794e+00 9.774165e-01 1.421027e+00 -3.837573e+00 9.016317e-01 1.021327e-01 -6.217326e-01 -2.162511e+00 1.200751e-01 9.815635e-01 -1.857118e-01 -3.268461e-01 -6.231803e-01 5.140046e-02 3.988543e+00
<VARIANCE> 25
 1.210960e+02 1.638082e+02 5.853328e+01 7.256892e+01 4.973791e+01 5.283091e+01 3.597498e+01 4.362764e+01 4.547484e+01 2.876740e+01 2.221932e+01 1.820163e+01 1.315312e+01 9.000744e+00 8.192661e+00 6.232932e+00 1.049245e+01 8.102293e+00 5.514049e+00 4.373725e+00 3.563252e+00 3.838117e+00 4.112851e+00 2.234715e+00 1.971707e+01
<GCONST> 1.167557e+02
~s "ST_l_4_1"
<MEAN> 25
 6.442427e+00 -7.982917e+00 2.377075e+00 1.537696e+00 2.686870e-01 -6.484389e+00 -2.446461e+00 2.042156e+00 2.533921e+00 -2.873991e+00 -1.398072e+00 1.886431e+00 2.250982e+00 -1.961216e+00 1.157174e+00 4.060519e-01 -1.258838e+00 -1.249519e+00 -2.253295e-01 4.294451e-01 -6.465518e-01 -3.154918e-01 4.624005e-02 -3.173720e-01 2.939245e+00
<VARIANCE> 25
 8.815235e+01 9.969444e+01 9.141270e+01 9.071101e+01 7.514833e+01 8.942425e+01 6.949340e+01 6.324423e+01 5.791528e+01 4.696455e+01 3.208634e+01 3.628613e+01 1.015173e+01 1.140988e+01 6.984353e+00 6.096921e+00 9.103792e+00 6.420613e+00 6.613364e+00 4.611720e+00 7.395692e+00 5.089071e+00 4.986827e+00 3.424423e+00 1.057609e+01
<GCONST> 1.210343e+02
~s "ST_b_2_1"
<MEAN> 25
 2.043040e+01 -3.798065e+00 1.666105e-01 -1.338614e+00 -2.774022e+00 3.586059e+00 -7.979074e+00 -1.886382e+01 -2.668605e+00 6.311856e+00 -5.054591e+00 -2.519482e+00 4.096111e-01 -4.716104e-01 -3.032551e-02 -1.059687e+00 -7.943688e-01 3.316408e-01 3.393241e-01 -5.179452e-01 -2.307483e-01 6.727325e-01 -2.134735e-02 -2.258218e-01 6.827239e-01
<VARIANCE> 25
 6.684448e+00 4.687737e+01 4.811205e+01 8.622747e+01 9.387112e+01 6.139587e+01 1.013152e+02 5.806266e+01 5.615225e+01 3.328402e+01 5.674355e+01 2.699453e+01 4.099960e-01 5.605419e+00 4.550883e+00 7.697821e+00 8.700805e+00 7.750207e+00 6.695344e+00 7.803185e+00 6.768974e+00 2.230635e+00 4.955647e+00 1.837305e+00 2.231830e+00
<GCONST> 1.105128e+02
~s "ST_b_3_1"
<MEAN> 25
 2.208995e+01 6.333331e+00 -7.789250e+00 -1.066381e+01 -8.369103e-03 7.427447e+00 -4.004288e+00 -1.758928e+01 -7.308114e+00 6.725341e+00 1.659821e+00 -1.054968e+00 -5.226092e-01 2.720597e+00 -1.142327e+00 -6.525616e-01 1.629001e+00 -5.832669e-02 1.980994e-01 2.351089e+00 -8.522226e-01 -1.747882e+00 1.656716e+00 9.840493e-01 -1.836611e+00
<VARIANCE> 25
 5.003604e+00 3.158159e+01 1.949226e+01 1.130854e+02 4.650286e+01 2.909829e+01 5.995013e+01 1.061493e+02 5.384796e+01 2.327059e+01 5.289372e+01 1.008512e+01 1.150054e+00 1.478224e+00 3.047577e+00 6.188179e+00 4.449399e+00 3.510817e+00 4.801163e+00 3.959059e+00 2.598034e+00 2.463531e+00 2.882184e+00 1.689426e+00 7.290241e-01
<GCONST> 1.003734e+02
~s "ST_b_4_1"
<MEAN> 25
 1.979197e+01 1.400355e+01 -7.052189e+00 -1.498735e+01 -5.143618e+00 2.729079e+00 5.228164e-01 -5.146224e+00 -1.090251e+01 -4.517676e+00 1.610179e+00 2.414851e-01 -1.535232e+00 8.935822e-01 1.292654e+00 1.640343e+00 -1.139647e+00 -3.287151e-01 1.086987e+00 8.229305e-01 1.149756e+00 -9.752854e-01 -6.477852e-01 -6.291838e-02 -1.694872e+00
<VARIANCE> 25
 9.653728e+00 1.287877e+01 1.666975e+01 7.863641e+01 5.896970e+01 5.026975e+01 2.552708e+01 4.165431e+01 2.240471e+01 2.855949e+01 3.141363e+01 1.834467e+01 2.008748e+00 9.002396e-01 2.173005e+00 2.541545e+00 3.153152e+00 3.886421e+00 2.833036e+00 4.616207e+00 1.684249e+00 1.171065e+00 3.618496e+00 1.770524e+00 6.451091e-01
<GCONST> 9.520602e+01
~s "ST_aw_2_1"
<MEAN> 25
 2.294946e+01 -3.235318e+00 -1.630122e+01 -4.501735e+00 8.215675e+00 3.248390e+00 -2.563439e+00 -2.605761e+00 2.064051e+00 5.699230e+00 2.273409e+00 -6.756919e+00 -4.262653e-01 5.201811e-01 -1.721670e+00 6.706672e-01 2.496294e-01 -8.695068e-01 7.282643e-01 -1.176663e-01 -5.459900e-02 -4.755628e-01 -3.093343e-01 1.375921e-01 -1.041115e+00
<VARIANCE> 25
 2.280864e+01 3.038938e+01 3.169130e+01 2.216092e+01 2.755001e+01 1.517197e+01 9.249422e+01 3.975224e+01 1.791797e+01 4.965220e+01 2.178812e+01 2.195410e+01 6.576250e+00 4.062708e+00 5.157021e+00 4.941842e+00 1.078820e+01 2.033453e+00 1.392087e+01 6.726633e+00 3.444984e+00 4.668262e+00 3.004914e+00 3.925860e+00 8.156642e+00
<GCONST> 1.077444e+02
~s "ST_aw_3_1"
<MEAN> 25
 2.182682e+01 -1.015036e+00 -1.428071e+01 -4.147679e+00 1.271470e+00 9.261427e-01 -2.480384e+00 -7.467883e+00 -2.688460e-01 7.320695e+00 1.050816e+00 -6.942009e+00 -3.156613e+00 6.778988e-01 1.705201e+00 6.683231e-01 -7.477474e-01 1.324638e-02 2.882201e-01 6.067972e-01 4.264885e-01 -9.056291e-02 3.708655e-01 1.187915e+00 -2.529251e+00
<VARIANCE> 25
 7.111161e+01 2.252417e+01 1.508840e+01 1.951126e+01 4.126152e+01 1.275691e+01 5.191457e+01 1.554177e+01 2.546624e+01 1.039809e+01 9.537560e+00 2.740515e+01 5.295589e+00 2.545692e+00 4.142840e-01 5.844725e-01 1.061180e+01 1.461506e+00 9.085149e+00 3.211644e+00 4.139661e+00 3.365047e+00 2.376294e+00 3.666604e+00 2.947887e+00
<GCONST> 9.629260e+01
~s "ST_aw_4_1"
<MEAN> 25
 2.049058e+00 1.061828e+00 -8.538013e+00 -3.118632e+00 -3.041182e+00 1.787740e+00 1.262662e+00 -3.305100e+00 3.776664e-01 2.013723e+00 4.639211e+00 4.884143e-01 -2.286973e+00 -3.500067e-01 1.486142e+00 1.081333e+00 -8.343579e-01 -7.628431e-01 7.283229e-01 1.006070e+00 -3.312862e-01 -7.387256e-01 -3.722124e-02 2.607025e-01 -1.428226e+00
<VARIANCE> 25
 1.319815e+01 5.401273e+00 2.158158e+00 8.457696e+00 2.027206e+01 2.604926e+00 2.102916e+01 1.739700e+01 2.432698e+01 1.855731e+01 1.535060e+01 3.075970e+00 3.524281e+00 1.064302e-01 3.332535e-01 1.021373e+00 2.002882e+00 7.075736e-01 1.046295e+00 3.364475e-01 1.888937e+00 4.705591e-01 2.615694e+00 1.940298e+00 1.916390e+00
<GCONST> 7.235737e+01
~s "ST_r_2_1"
<MEAN> 25
 4.149652e+00 3.155682e+00 9.291332e-01 -4.543505e-01 -3.098963e+00 -6.047547e-01 9.191877e-01 -1.101822e+00 -1.491301e+00 4.151779e-02 6.782064e-01 -1.662311e-01 -2.547716e-01 5.449654e-01 5.932938e-01 -4.008060e-01 5.662070e-02 3.172997e-01 -5.315490e-02 1.328545e-01 1.498694e-01 -3.277222e-01 -1.599791e-01 -3.216721e-02 -1.786033e-01
<VARIANCE> 25
 2.062376e+02 1.338794e+02 6.572430e+01 6.085509e+01 5.557988e+01 5.965589e+01 4.872647e+01 5.465821e+01 4.418033e+01 4.228418e+01 2.234791e+01 2.111155e+01 6.987921e+00 6.835836e+00 4.285729e+00 3.690893e+00 4.503191e+00 2.999917e+00 4.351437e+00 3.282879e+00 4.413372e+00 2.168514e+00 1.683468e+00 1.729590e+00 4.395162e+00
<GCONST> 1.108479e+02
~s "ST_r_3_1"
<MEAN> 25
 2.851919e+00 2.039265e+00 1.512260e+00 -2.549672e-02 -2.001723e+00 -8.863950e-01 2.207433e-01 -4.787528e-01 -1.039331e+00 -8.890138e-01 2.005178e-01 1.650545e-01 9.390422e-01 4.010754e-01 8.814837e-01 -5.450228e-01 2.783319e-01 1.824757e-01 -5.155661e-01 -2.463312e-01 5.077845e-01 -1.742981e-01 -4.399060e-01 8.277032e-02 1.240836e+00
<VARIANCE> 25
 2.033403e+02 1.409954e+02 6.062715e+01 6.247624e+01 5.139514e+01 5.843581e+01 6.116823e+01 6.312829e+01 4.895754e+01 2.981756e+01 2.624437e+01 2.303346e+01 8.919095e+00 9.832539e+00 7.331245e+00 4.489794e+00 6.003121e+00 3.429375e+00 4.991786e+00 3.641817e+00 3.820633e+00 2.305957e+00 1.553225e+00 1.973266e+00 8.753222e+00
<GCONST> 1.137649e+02
~s "ST_r_4_1"
<MEAN> 25
 5.472788e+00 7.984626e-01 3.837784e+00 -7.108604e-01 -6.731541e-01 -2.101460e+00 -1.113258e+00 -4.281258e-01 5.602984e-01 -1.368585e+00 -8.494456e-01 8.324728e-01 1.942138e+00 -4.970003e-01 9.185348e-01 -2.487187e-01 -2.101298e-01 -4.794611e-01 -6.271709e-01 -4.475628e-01 4.036434e-01 -1.099819e-01 -5.100366e-01 -1.117366e-02 2.412172e+00
<VARIANCE> 25
 1.456993e+02 1.804356e+02 8.530068e+01 7.700148e+01 7.016425e+01 7.945753e+01 6.601173e+01 6.648310e+01 5.122746e+01 3.358792e+01 2.647969e+01 2.423433e+01 1.086022e+01 1.255699e+01 9.005381e+00 6.421378e+00 9.322235e+00 1.079598e+01 7.792589e+00 4.841300e+00 7.240633e+00 3.884865e+00 3.379745e+00 3.328010e+00 1.631266e+01
<GCONST> 1.216050e+02
~s "ST_k_2_1"
<MEAN> 25
 -5.521816e+00 2.015788e+00 2.521944e+00 -7.667793e+00 1.097875e+01 -6.019289e+00 -6.284511e+00 3.016113e+00 3.024387e+00 -5.009800e-01 1.312050e+00 1.391080e+00 -2.302537e+00 -7.733060e-02 3.585804e-02 5.903101e-02 4.444034e-01 6.681910e-02 -1.091349e-01 3.960685e-01 2.891453e-01 -5.115353e-01 5.683077e-01 3.417202e-01 -1.048256e+00
<VARIANCE> 25
 1.307900e+02 3.953247e+01 4.460432e+01 7.395943e+01 9.390664e+01 5.916186e+01 6.194107e+01 3.140648e+01 3.677789e+01 2.764206e+01 2.975754e+01 3.265983e+01 1.409031e+01 7.841069e+00 6.366397e+00 5.696908e+00 7.420381e+00 5.771029e+00 5.977087e+00 5.588286e+00 4.570524e+00 4.158085e+00 3.945094e+00 3.041181e+00 4.964046e+00
<GCONST> 1.151914e+02
~s "ST_k_3_1"
<MEAN> 25
 1.130562e+00 -6.576442e+00 -4.256732e+00 -4.406681e+00 1.297100e+01 -2.643791e+00 -8.673798e+00 4.501101e+00 3.868876e+00 2.181662e+00 -1.403598e-01 2.122599e+00 2.557382e+00 -7.803412e-01 -1.808005e+00 -1.892883e+00 1.194952e+00 1.471601e+00 2.898601e-01 -1.165286e-01 -1.305148e+00 1.186518e+00 3.412734e-02 -9.948687e-01 1.133146e+00
<VARIANCE> 25
 6.101096e+01 7.873309e+01 7.650210e+01 7.994715e+01 1.129414e+02 8.469282e+01 8.927352e+01 6.913715e+01 5.079203e+01 7.663493e+01 5.030429e+01 3.552417e+01 8.932981e+00 1.144372e+01 9.065526e+00 1.169594e+01 2.095138e+01 6.918572e+00 9.923341e+00 7.116977e+00 6.099169e+00 6.701711e+00 5.109718e+00 5.201859e+00 2.219057e+01
<GCONST> 1.254066e+02
~s "ST_k_4_1"
<MEAN> 25
 1.645717e+01 -2.451804e+00 -1.128078e+01 -1.416406e+01 7.300414e+00 4.668670e+00 -6.344760e+00 -9.583835e-01 -4.135890e+00 2.851479e+00 3.109257e+00 -1.759053e+00 4.202749e+00 2.107086e-01 1.749088e-01 -1.292849e+00 -1.712310e+00 3.651289e-02 5.634161e-01 -1.572643e+00 -2.101345e+00 3.145970e-01 6.392233e-01 -7.016755e-01 3.117074e+00
<VARIANCE> 25
 3.569815e+01 5.219444e+01 7.293808e+01 7.794678e+01 5.980144e+01 9.318126e+01 6.842522e+01 5.989989e+01 5.044501e+01 4.333046e+01 4.169958e+01 2.722620e+01 4.456285e+00 4.507137e+00 1.031576e+01 1.303020e+01 9.753427e+00 7.706676e+00 1.047261e+01 7.192318e+00 5.922664e+00 4.343446e+00 4.526712e+00 3.965683e+00 4.584818e+00
<GCONST> 1.179913e+02
~s "ST_uw_2_1"
<MEAN> 25
 -3.277817e+00 7.243640e+00 -8.926178e-01 6.099529e-01 -1.938227e+00 2.478001e+00 2.401640e+00 -4.245031e-01 -3.990952e+00 -5.503949e+00 -8.303921e-02 3.979387e-01 -1.551057e+00 -1.061339e+00 -3.496685e-02 7.531301e-01 4.413937e-01 1.110373e-01 4.252401e-01 4.685077e-01 7.123049e-02 -2.658074e-01 -6.635879e-01 -6.113764e-01 -7.722263e-01
<VARIANCE> 25
 2.623734e+01 1.867360e+01 2.650338e+01 3.901176e+01 1.709717e+01 1.926198e+01 2.263872e+01 2.130061e+01 2.381797e+01 1.970980e+01 1.937169e+01 2.893236e+01 1.427497e+00 1.468345e+00 2.098811e+00 1.537406e+00 1.329773e+00 1.604499e+00 2.034847e+00 2.100524e+00 1.408624e+00 1.587907e+00 1.809258e+00 1.381487e+00 4.222267e-01
<GCONST> 8.851897e+01
~s "ST_n_2_1"
<MEAN> 25
 2.657378e+00 1.236683e+01 6.823492e+00 7.059834e+00 -2.203487e+00 -1.698954e+00 -1.622586e+00 -2.808595e+00 -2.119285e+00 -4.447269e+00 -4.817159e+00 -3.434549e+00 -1.955043e+00 -1.374155e+00 -5.032412e-01 3.243482e-01 4.860362e-01 1.340925e-01 -6.420763e-02 1.511258e-01 3.858963e-01 2.968141e-01 2.184027e-01 -1.300996e-02 -1.069438e+00
<VARIANCE> 25
 6.038967e+01 3.295217e+01 3.340514e+01 2.259711e+01 1.850614e+01 2.384107e+01 1.874954e+01 2.009501e+01 3.111369e+01 2.843556e+01 1.572838e+01 1.373204e+01 2.463333e+00 2.934284e+00 3.542626e+00 3.278701e+00 1.393743e+00 1.651302e+00 2.043253e+00 1.811985e+00 1.847403e+00 2.391371e+00 1.047111e+00 1.116971e+00 6.226606e-01
<GCONST> 9.209232e+01
~s "ST_uw_3_1"
<MEAN> 25
 -7.076610e+00 3.528522e+00 1.991787e+00 6.239557e+00 5.421951e-01 3.821437e-01 1.161049e+00 -1.912140e-01 -3.205451e+00 -3.482820e+00 -1.173453e+00 -2.162807e+00 -1.443579e-01 -4.512402e-02 1.085366e-01 1.694469e-01 8.581433e-02 5.228325e-02 4.724165e-02 2.988034e-02 1.585849e-01 9.473741e-02 -2.989648e-02 6.323917e-02 -7.535538e-02
<VARIANCE> 25
 5.937142e+00 7.712853e+00 1.331453e+01 1.956957e+01 1.710169e+01 1.282418e+01 1.365984e+01 1.873034e+01 1.408298e+01 1.598250e+01 1.155351e+01 1.183774e+01 1.990391e-01 3.744758e-01 5.198490e-01 6.310307e-01 9.636458e-01 1.133169e+00 1.284403e+00 1.400856e+00 1.301480e+00 1.436105e+00 1.218549e+00 1.122232e+00 4.832557e-02
<GCONST> 7.147660e+01
~s "ST_n_3_1"
<MEAN> 25
 -7.576443e+00 4.584423e+00 3.187151e+00 7.387253e+00 2.491347e+00 2.043388e+00 -1.255376e+00 -1.616722e+00 -2.086020e+00 -4.223037e+00 -1.029907e+00 -1.663221e+00 -5.110183e-01 -4.658087e-01 -4.176232e-01 -2.183155e-01 -9.228273e-02 8.954193e-02 1.059015e-01 5.745194e-02 9.096785e-02 1.843707e-01 3.843560e-01 4.269764e-01 -2.547593e-01
<VARIANCE> 25
 1.155711e+01 1.382161e+01 2.165600e+01 1.667448e+01 1.404433e+01 1.351340e+01 1.398900e+01 1.499453e+01 1.649939e+01 1.470266e+01 2.132650e+01 1.726742e+01 2.704373e-01 7.529220e-01 1.281640e+00 1.088047e+00 7.412242e-01 1.128193e+00 1.289122e+00 1.852345e+00 1.483811e+00 1.589839e+00 2.117096e+00 2.066273e+00 1.068168e-01
<GCONST> 7.843159e+01
~s "ST_uw_4_1"
<MEAN> 25
 -9.792057e+00 3.634952e+00 2.124578e-03 1.599397e+00 1.954133e+00 1.910981e+00 1.880641e+00 2.075451e+00 3.972502e-01 -2.381488e+00 -8.533989e-01 1.044375e+00 5.034730e-04 -1.054484e-01 3.177332e-02 -1.212335e-01 2.653016e-01 -5.870588e-01 3.055899e-03 4.345506e-01 1.124537e+00 9.298411e-01 2.318388e-01 4.286797e-01 3.039314e-01
<VARIANCE> 25
 8.833723e+00 5.569151e+00 9.482007e+00 3.605122e+01 2.532874e+01 3.826157e+01 1.792092e+01 2.652772e+01 1.696442e+01 2.186805e+01 1.550148e+01 1.597711e+01 9.915302e-01 1.630571e+00 1.045127e+00 1.118150e+00 1.398325e+00 2.174670e+00 2.331739e+00 2.706875e+00 1.857749e+00 1.976392e+00 1.564822e+00 2.229141e+00 8.043033e-01
<GCONST> 8.606891e+01
~s "ST_n_4_1"
<MEAN> 25
 -8.798673e+00 1.807458e+00 -2.403424e-01 1.659349e+00 2.167150e-01 1.707340e+00 6.853360e-02 6.100292e-01 -3.153681e-01 -9.221855e-01 -5.958981e-01 2.364244e-01 -1.852453e-02 1.990043e-02 -1.685395e-02 -4.320205e-02 2.246231e-02 3.033804e-02 -3.891977e-03 2.106317e-02 1.254354e-02 -3.342813e-02 8.255143e-03 4.237835e-02 -1.668718e-02
<VARIANCE> 25
 4.830028e+00 6.080152e+00 1.010072e+01 1.121693e+01 7.690542e+00 1.248754e+01 1.361967e+01 1.265816e+01 1.595196e+01 1.351685e+01 1.406927e+01 1.392440e+01 1.485383e-01 2.956650e-01 4.386435e-01 6.083524e-01 7.052084e-01 9.310346e-01 1.147561e+00 1.380490e+00 1.469005e+00 1.469617e+00 1.428585e+00 1.356923e+00 4.115048e-02
<GCONST> 6.825636e+01
~s "ST_d_2_1"
<MEAN> 25
 -1.675535e+01 1.368020e+00 -2.095296e-01 7.467555e+00 1.222855e+00 3.765263e+00 4.801896e+00 3.645324e+00 4.824143e+00 1.756512e+00 5.106585e+00 3.752013e+00 -1.309264e-02 5.227334e-03 -5.531341e-03 9.514537e-03 3.592179e-02 1.208704e-03 -4.705561e-02 -7.422262e-03 8.161364e-02 6.321140e-02 1.555155e-03 -2.763018e-02 -1.323775e-02
<VARIANCE> 25
 5.297602e+00 4.307296e+00 3.641983e+00 6.497752e+00 6.357387e+00 7.286010e+00 9.568712e+00 1.345053e+01 1.050471e+01 9.292265e+00 8.873041e+00 7.845830e+00 4.360111e-02 1.475661e-01 2.326833e-01 3.815680e-01 4.569753e-01 4.878321e-01 7.402216e-01 1.231415e+00 1.195799e+00 1.030649e+00 7.869863e-01 8.757701e-01 4.115048e-02
<GCONST> 5.734060e+01
~s "ST_d_3_1"
<MEAN> 25
 -1.303393e+01 5.218125e+00 -2.745725e-04 5.676119e-01 2.404077e+00 2.535780e+00 -7.461564e-01 3.366241e+00 1.082458e+00 -1.707294e+00 9.373109e-01 2.309991e+00 -1.354874e-02 1.700122e-02 3.032629e-02 1.761851e-02 -2.180078e-02 1.168223e-02 3.508429e-02 -4.017553e-02 -4.931586e-02 -1.616899e-02 2.624384e-02 -3.160790e-03 -1.931291e-02
<VARIANCE> 25
 4.656074e+00 4.872910e+00 7.582711e+00 1.485939e+01 9.067794e+00 1.085457e+01 1.162792e+01 1.168882e+01 1.199411e+01 1.196970e+01 1.119790e+01 1.189887e+01 1.091387e-01 2.687122e-01 4.127829e-01 7.706818e-01 7.745830e-01 8.756300e-01 1.140571e+00 8.582500e-01 1.218290e+00 1.065785e+00 1.255416e+00 1.242418e+00 4.115048e-02
<GCONST> 6.558463e+01
~s "ST_d_4_1"
<MEAN> 25
 -1.071644e+01 4.182621e+00 1.057328e+00 2.746120e+00 9.952057e-01 1.979643e+00 7.187245e-01 1.118672e+00 8.546053e-01 -1.046696e+00 -7.772186e-01 1.720279e-01 1.277083e-01 7.127165e-02 1.477915e-01 1.046458e-01 1.545871e-01 5.462785e-02 7.997355e-03 -1.277867e-01 -2.176053e-01 8.504008e-02 -4.256902e-02 -1.536006e-01 1.306042e-01
<VARIANCE> 25
 1.415643e+01 7.497578e+00 1.496836e+01 1.851676e+01 1.112212e+01 9.442936e+00 2.007329e+01 1.691665e+01 2.340217e+01 1.629671e+01 2.397472e+01 1.796762e+01 1.402154e+00 9.246770e-01 1.064503e+00 1.758669e+00 1.417849e+00 1.121514e+00 1.315345e+00 2.103538e+00 3.621422e+00 1.716381e+00 1.702651e+00 1.726293e+00 1.459211e+00
<GCONST> 8.437901e+01
~s "ST_th_2_1"
<MEAN> 25
 1.769148e+01 -1.152416e+01 1.740506e+01 5.406097e+00 -2.163490e+01 -5.961515e+00 3.181444e+00 -4.454010e+00 -9.877661e+00 -4.000447e+00 1.102334e+00 1.235004e+00 -1.696183e-01 1.765640e+00 9.874084e-01 1.238891e-01 -2.018138e+00 1.679474e-01 2.105118e+00 -1.084519e+00 -2.503027e+00 5.949478e-01 2.709643e-01 -3.240503e-01 -1.075794e+00
<VARIANCE> 25
 8.247705e+00 3.992303e+01 3.486133e+01 5.357790e+01 4.346354e+01 4.736110e+01 8.173940e+01 2.592541e+01 9.493441e+01 2.832760e+01 3.798097e+01 4.269104e+01 1.365366e+00 4.940283e+00 3.502649e+00 6.561183e+00 4.168761e+00 7.063871e+00 5.005044e+00 5.087711e+00 4.647384e+00 3.445805e+00 4.294761e+00 6.159952e+00 1.722622e+00
<GCONST> 1.081091e+02
~s "ST_th_3_1"
<MEAN> 25
 1.387085e+01 1.089879e+01 1.844941e+01 2.048355e+00 -2.664029e+01 -8.569517e+00 1.133299e+01 -8.054071e+00 -1.457619e+01 3.185057e+00 1.954240e-01 -2.313016e+00 -1.326759e+00 3.813329e+00 -1.377384e+00 -1.036885e-01 2.911179e+00 -4.169122e-01 -2.687231e+00 8.543288e-01 3.010073e+00 4.624757e-01 -1.906380e-04 -2.092503e-01 -2.917137e+00
<VARIANCE> 25
 1.175971e+01 4.573123e+01 2.277786e+01 1.461411e+02 3.907080e+01 5.346647e+01 7.562505e+01 7.740994e+01 4.405419e+01 3.377529e+01 3.044954e+01 2.066930e+01 6.414217e-01 1.880319e+00 4.239069e+00 7.528236e+00 8.137240e+00 3.938734e+00 8.560497e+00 4.153032e+00 3.611676e+00 4.474250e+00 2.994321e+00 2.450486e+00 4.198678e-01
<GCONST> 1.050103e+02
~s "ST_th_4_1"
<MEAN> 25
 3.343410e+00 1.383133e+01 1.073355e+01 5.365882e-01 -1.352079e+01 -3.209681e+00 5.185219e-01 -6.767204e+00 -3.940307e+00 1.444700e+00 -1.773182e+00 -2.202444e+00 -2.676345e+00 -1.654240e+00 -2.346589e+00 -2.306217e-01 1.760958e+00 1.342566e+00 -2.802578e-02 7.067584e-02 5.747582e-01 -9.481062e-01 -3.003208e-01 3.754249e-01 -1.802984e+00
<VARIANCE> 25
 3.324780e+01 4.763439e+01 4.984863e+01 1.966077e+01 1.730246e+01 2.033827e+01 2.415062e+01 1.921363e+01 1.509572e+01 1.369702e+01 2.089776e+01 1.068946e+01 1.603044e+00 1.548785e+00 2.416445e+00 3.894116e+00 5.507771e+00 2.132851e+00 7.785019e+00 8.848923e-01 4.082061e+00 1.407176e+00 2.568617e+00 7.419086e-01 8.855727e-01
<GCONST> 9.276202e+01
~s "ST_ay_2_1"
<MEAN> 25
 1.553701e+01 -9.222808e+00 3.705167e+00 -2.149747e+01 7.892810e+00 3.964291e+00 -1.545169e+01 3.448056e+00 2.542935e+00 6.538468e+00 -3.146267e+00 -2.725921e+00 -4.246412e-02 1.607727e+00 -9.311659e-01 -1.364207e-01 1.137722e+00 4.195182e-01 -2.231465e-01 -1.192151e+00 6.854045e-01 4.156874e-01 -3.546775e-02 6.655428e-01 -8.674989e-01
<VARIANCE> 25
 3.662945e+01 5.176790e+01 5.569863e+01 8.417230e+01 5.427383e+01 5.659259e+01 7.614528e+01 7.808231e+01 7.172587e+01 3.477449e+01 3.398443e+01 5.452699e+01 1.699826e+00 1.934794e+00 2.211796e+00 5.466829e+00 2.686137e+00 4.430878e+00 4.633566e+00 4.897494e+00 6.607176e+00 3.744876e+00 3.457114e+00 3.870232e+00 1.292240e+00
<GCONST> 1.093545e+02
~s "ST_ay_3_1"
<MEAN> 25
 2.394884e+00 -1.841801e-01 -4.024976e-01 -6.073593e+00 6.389998e+00 -6.481009e+00 -7.881752e-01 -2.135156e+00 4.180448e+00 8.473569e-01 -1.035247e-01 2.225321e+00 -5.571829e-01 -1.202972e+00 1.000940e+00 2.912637e-01 -5.224872e-01 -3.979233e-01 7.982585e-01 7.958723e-01 1.878948e-01 -3.988087e-01 4.810373e-02 -1.670696e-02 3.921358e-01
<VARIANCE> 25
 9.845968e+01 9.631985e+01 6.461344e+01 6.613808e+01 7.121990e+01 9.105746e+01 1.070032e+02 4.988545e+01 5.681757e+01 4.112910e+01 3.623230e+01 3.096486e+01 1.224473e+01 1.011540e+01 1.222006e+01 1.342174e+01 9.441563e+00 1.226767e+01 1.454655e+01 6.598234e+00 6.361142e+00 5.801532e+00 4.275948e+00 3.771783e+00 1.520937e+01
<GCONST> 1.239498e+02
~s "ST_ay_4_1"
<MEAN> 25
 1.515599e+01 -1.469365e+01 1.673954e+00 -5.131781e+00 -4.680794e-02 -1.605770e+00 -5.909665e+00 3.726157e+00 4.845381e+00 4.735502e-01 -1.781251e+00 -1.621844e+00 2.942826e+00 -2.368381e+00 -1.676561e+00 1.497185e+00 -1.728358e+00 -2.029498e-01 2.152090e-01 4.313206e-01 -8.494599e-01 -5.908462e-02 -8.274440e-01 -7.000826e-01 1.468365e+00
<VARIANCE> 25
 6.492184e+01 4.175565e+01 1.992790e+02 9.243622e+01 8.637730e+01 5.312647e+01 4.332035e+01 3.818373e+01 3.130013e+01 3.306123e+01 2.177222e+01 1.886898e+01 8.745910e+00 3.686744e+00 1.225124e+01 1.034842e+01 9.570854e+00 9.448264e+00 6.796852e+00 5.190668e+00 6.457530e+00 5.416339e+00 5.791944e+00 2.883189e+00 4.299340e+00
<GCONST> 1.166879e+02
~s "ST_g_2_1"
<MEAN> 25
 1.842087e+01 -1.323289e+01 5.732135e+00 3.293291e+00 -9.735045e+00 -9.363029e+00 -4.524985e+00 -2.179956e+00 -3.350453e+00 2.397076e+00 -1.008210e+00 -1.819505e+00 3.788376e-01 -1.549742e-01 8.290334e-01 -2.576705e-01 -1.771315e+00 2.205072e-01 1.362807e+00 -5.119275e-01 -8.256263e-01 5.762566e-01 1.041453e-01 -9.025469e-02 4.911221e-01
<VARIANCE> 25
 1.573026e+01 3.262184e+01 6.855127e+01 1.542177e+02 1.155987e+02 7.866144e+01 7.764155e+01 5.756543e+01 7.706233e+01 5.511395e+01 4.383916e+01 3.625282e+01 2.710065e+00 4.000782e+00 1.000768e+01 1.493709e+01 6.909912e+00 5.564245e+00 8.716915e+00 9.725084e+00 5.817894e+00 5.678546e+00 4.728086e+00 4.040764e+00 2.024441e+00
<GCONST> 1.173316e+02
~s "ST_g_3_1"
<MEAN> 25
 1.689035e+01 -8.294318e+00 7.409414e+00 -6.255084e+00 -7.518600e+00 -4.334963e+00 -2.595384e+00 2.737956e-01 -7.565569e+00 4.127239e+00 -1.086220e+00 -2.020394e+00 3.634344e-01 2.792460e+00 -2.114854e+00 2.914028e+00 -7.827351e-01 6.102792e-01 2.504614e+00 -2.157573e+00 3.516851e-01 -1.660147e+00 -3.804201e-01 5.414210e-01 -2.458268e+00
<VARIANCE> 25
 2.612057e+01 4.340488e+01 1.128060e+02 1.462449e+02 1.303841e+02 5.966824e+01 1.556327e+02 6.888315e+01 1.280768e+02 4.236238e+01 5.445459e+01 2.742034e+01 6.445644e-01 7.746234e+00 2.925743e+00 1.102915e+01 4.861546e+00 2.079149e+00 4.552664e+00 5.989508e+00 3.686696e+00 7.046496e+00 2.197109e+00 2.171820e+00 4.268024e+00
<GCONST> 1.138102e+02
~s "ST_g_4_1"
<MEAN> 25
 1.900863e+01 6.860220e-02 -1.983259e+00 4.052117e-01 -5.040479e+00 -2.056908e+00 3.430608e-01 -7.573362e+00 -5.414320e+00 -1.963450e-01 -1.969536e+00 -1.590541e+00 3.433189e-01 3.494731e+00 -2.354260e+00 6.882334e-01 9.173393e-01 6.614718e-01 -4.595719e-02 -1.534151e+00 6.455789e-01 -5.735949e-01 5.514460e-01 -3.496189e-01 -2.212033e+00
<VARIANCE> 25
 1.329637e+01 1.053453e+02 4.795891e+01 1.080197e+02 1.023274e+02 4.524319e+01 1.474293e+02 5.438566e+01 1.346617e+02 1.030319e+02 4.391121e+01 4.478609e+01 9.316554e-01 1.145070e+01 3.932813e+00 1.072278e+01 6.895108e+00 3.519310e+00 6.396602e+00 4.255388e+00 5.820703e+00 3.879855e+00 2.557867e+00 2.400931e+00 4.944277e+00
<GCONST> 1.154283e+02
~s "ST_t_2_1"
<MEAN> 25
 8.490127e+00 -9.929958e+00 7.872596e+00 -4.627463e+00 5.354583e-04 -1.120535e+01 -1.724234e+00 3.924607e+00 -2.083556e-01 2.393726e-01 -7.683215e-01 1.304859e+00 1.173046e+00 -5.222690e-01 1.708522e+00 -2.600926e+00 1.452095e-01 6.765699e-01 -1.519671e+00 3.989094e-01 -1.772638e+00 4.825144e-01 1.248941e+00 -7.888566e-01 2.510499e+00
<VARIANCE> 25
 8.329818e+01 4.981641e+01 9.048900e+01 7.090710e+01 9.414462e+01 5.984313e+01 9.064445e+01 6.146732e+01 9.808262e+01 4.692925e+01 6.865637e+01 4.169406e+01 2.464503e+01 1.093595e+01 7.117618e+00 6.091633e+00 1.134967e+01 8.094336e+00 8.918372e+00 8.239361e+00 9.743619e+00 6.134840e+00 4.441315e+00 2.701434e+00 1.273695e+01
<GCONST> 1.240036e+02
~s "ST_t_3_1"
<MEAN> 25
 1.562157e+01 -1.009526e+01 4.249697e+00 -4.040089e+00 -5.462155e+00 -3.597900e+00 -4.918357e+00 -6.515854e+00 1.248499e+00 7.251310e-01 -8.253336e-03 -2.218007e+00 1.720303e+00 7.335664e-01 -1.904394e+00 3.170320e-01 -1.190685e+00 1.334254e+00 1.116456e+00 -2.351864e+00 -1.185678e+00 9.046169e-01 1.928955e-02 -6.283597e-01 -1.805185e-02
<VARIANCE> 25
 7.448795e+01 7.291196e+01 9.293391e+01 6.685178e+01 7.049038e+01 8.304724e+01 6.713628e+01 1.430322e+02 9.919231e+01 7.792622e+01 4.701348e+01 2.237001e+01 8.231681e+00 6.886714e+00 6.089185e+00 5.780529e+00 5.651071e+00 8.216705e+00 6.399414e+00 9.841890e+00 8.155564e+00 8.231702e+00 5.432451e+00 3.426057e+00 2.046577e+00
<GCONST> 1.204630e+02
~s "ST_ey_2_1"
<MEAN> 25
 6.107449e+00 1.249587e+01 1.321578e+01 -1.698664e+00 -1.046652e+01 2.170460e+00 4.318533e-01 -5.203885e-01 9.196442e-01 -1.802270e+00 4.748384e+00 -8.028623e-01 2.656728e+00 -2.156130e+00 3.737614e+00 -1.335948e+00 -3.433326e+00 -2.115877e+00 1.008771e+00 1.027514e+00 -3.243774e+00 9.995037e-01 1.103617e+00 -4.122972e-01 4.130249e+00
<VARIANCE> 25
 4.164027e+01 6.049669e+01 5.101725e+01 7.488808e+01 7.753698e+01 1.289550e+01 3.150557e+01 1.578346e+01 3.132840e+01 1.160890e+01 1.860887e+01 1.658615e+01 1.214645e+01 6.809007e+00 1.503615e+01 1.084707e+01 1.033470e+01 6.947887e+00 6.869009e+00 4.858499e+00 1.009974e+01 2.207588e+00 1.492974e+00 2.179629e+00 1.900692e+01
<GCONST> 1.112925e+02
~s "ST_t_4_1"
<MEAN> 25
 1.971387e+01 -1.154354e+01 -5.675040e+00 -6.758114e+00 -2.800581e+00 -1.498723e+00 8.884731e-01 -7.975053e+00 -2.726494e+00 7.391483e+00 -2.539029e+00 -3.524755e+00 -1.655422e-01 9.226860e-01 -3.065419e-01 -6.406788e-01 6.377873e-01 5.706879e-01 -4.120585e-01 -2.560568e-01 -3.428849e-01 3.540891e-01 3.281838e-01 -8.176921e-02 -5.161731e-01
<VARIANCE> 25
 6.107762e+01 6.548665e+01 7.836494e+01 9.618462e+01 1.212785e+02 7.815826e+01 5.101601e+01 7.059058e+01 2.795577e+01 2.990382e+01 2.604456e+01 1.751567e+01 7.026348e-01 1.166304e+00 1.485365e+00 3.539211e+00 2.217855e+00 2.595208e+00 2.394461e+00 2.086054e+00 2.164134e+00 2.099088e+00 1.578232e+00 1.342414e+00 5.282395e-01
<GCONST> 9.981116e+01
~s "ST_t_4_2"
<MEAN> 25
 1.878045e+01 9.439818e+00 -5.356386e+00 -9.635034e+00 -3.568860e+00 5.960685e+00 -6.109976e-01 -1.009249e+01 -9.041994e+00 -1.840632e+00 2.617755e+00 2.487017e+00 -1.729481e+00 8.045080e-01 1.473720e-01 5.739667e-01 -3.840089e-02 -2.922849e-01 2.616761e-01 1.106451e+00 1.169190e-01 -6.159787e-01 1.467590e-01 5.360226e-01 -1.981429e+00
<VARIANCE> 25
 5.421656e+01 4.314150e+01 3.021187e+01 8.987741e+01 4.892321e+01 2.758517e+01 3.730492e+01 4.749408e+01 4.075674e+01 4.533434e+01 1.794804e+01 2.099219e+01 4.411773e+00 3.392118e+00 3.149569e+00 6.903616e+00 4.205957e+00 3.424304e+00 3.133430e+00 2.605500e+00 5.484380e+00 3.630862e+00 2.115225e+00 1.848904e+00 1.153995e+00
<GCONST> 1.048022e+02
~s "ST_ey_3_1"
<MEAN> 25
 1.051514e+01 -8.904312e-01 1.988457e+01 -6.987957e+00 -1.560463e+01 -5.498778e+00 3.621058e+00 2.162768e+00 -1.281313e+01 2.943145e+00 4.801545e+00 3.010935e-01 1.200753e+00 -3.046974e+00 6.252218e-01 -9.291067e-01 3.782647e-02 -1.751510e+00 -5.843962e-01 2.886659e-01 -1.058888e+00 6.785099e-01 -6.000760e-01 3.943385e-01 3.018631e+00
<VARIANCE> 25
 1.984241e+01 5.803678e+01 1.208134e+02 9.031113e+01 4.951433e+01 7.496181e+01 4.323745e+01 4.384788e+01 1.045767e+02 3.048697e+01 2.069706e+01 2.020477e+01 3.730188e+00 1.950914e+00 6.283655e+00 6.540174e+00 9.931476e+00 4.569687e+00 4.755191e+00 5.145086e+00 1.032146e+01 4.409554e+00 4.141507e+00 1.862478e+00 4.059043e+00
<GCONST> 1.121381e+02
~s "ST_ao_2_1"
<MEAN> 25
 3.366783e+00 1.731173e+01 1.129399e+01 5.591746e+00 -2.882628e-01 -4.451525e-01 -1.678123e+00 -1.720448e+00 8.189018e-01 -3.333448e+00 -1.639021e+00 1.521236e+00 3.504371e+00 -8.891305e-01 -3.841194e-01 -1.080935e+00 -3.296216e-01 -1.932914e+00 -1.015849e+00 -1.437922e-01 1.649525e-03 -1.045493e-01 -1.007421e+00 -5.651648e-01 3.900066e+00
<VARIANCE> 25
 9.438549e+01 1.269449e+02 5.125054e+01 3.573913e+01 2.595423e+01 2.010314e+01 3.733454e+01 2.144981e+01 2.179232e+01 9.523512e+00 1.692880e+01 1.585623e+01 1.150080e+01 1.242920e+01 6.784065e+00 4.490258e+00 2.222939e+00 4.652756e+00 4.495458e+00 2.765473e+00 2.765723e+00 1.657200e+00 2.646301e+00 2.309013e+00 2.020949e+01
<GCONST> 1.062959e+02
~s "ST_ey_4_1"
<MEAN> 25
 1.814130e+01 -1.611640e+01 1.418220e+01 -3.476985e+00 -1.225782e+01 -9.135519e+00 -2.305098e+00 2.229365e+00 -5.641984e+00 2.335428e+00 -2.093893e+00 2.957563e+00 7.132472e-01 -1.021862e+00 -1.164442e+00 4.010347e-01 6.250778e-02 3.358887e-01 -4.581584e-01 1.650686e-01 1.445233e+00 -5.427192e-01 -7.315670e-01 2.935050e-01 4.306935e-01
<VARIANCE> 25
 1.472875e+01 1.770655e+01 6.526276e+01 1.332068e+02 5.660845e+01 3.948706e+01 2.456846e+01 5.117932e+01 7.960687e+01 5.367029e+01 2.665158e+01 1.490303e+01 8.918822e-01 1.192513e+00 2.130979e+00 2.542450e+00 2.685954e+00 3.937074e+00 2.820039e+00 3.086849e+00 2.792961e+00 2.989188e+00 1.714728e+00 1.226342e+00 1.322090e+00
<GCONST> 9.919260e+01
~s "ST_ao_3_1"
<MEAN> 25
 1.119110e+01 3.460140e+00 6.013048e+00 1.659896e-01 3.837032e-01 -8.313458e+00 -2.367687e+00 -1.568176e+00 3.168809e+00 -1.012034e+00 -3.863102e+00 5.859138e-01 4.491248e+00 -6.185745e+00 -2.076936e+00 -2.675354e+00 3.294072e-01 -3.848133e+00 -2.169260e+00 -5.556088e-01 1.171445e+00 9.052920e-01 -1.845389e+00 1.898530e-02 7.288765e+00
<VARIANCE> 25
 2.907928e+01 2.218226e+02 7.857655e+01 8.738391e+01 4.014803e+01 4.622798e+01 6.572190e+01 2.640122e+01 3.887149e+01 4.847419e+01 1.959491e+01 1.943362e+01 1.536633e+01 7.577085e+00 8.578512e+00 8.707196e+00 7.567191e+00 6.154680e+00 1.489234e+01 7.567469e+00 7.632605e+00 3.809853e+00 5.387134e+00 3.490340e+00 5.931671e+00
<GCONST> 1.177426e+02
~s "ST_ao_4_1"
<MEAN> 25
 1.917055e+01 -9.423849e+00 1.355406e-01 -2.357337e+00 1.692363e-01 -1.097160e+01 -9.993176e+00 -3.055870e+00 9.116344e+00 -1.404907e+00 -8.122810e+00 3.077937e+00 1.189780e+00 -3.748595e+00 1.633842e-01 -7.444463e-01 -9.862638e-01 1.915836e+00 -1.416930e+00 8.033971e-01 7.425695e-01 -5.933850e-01 -2.587713e-02 1.322851e-04 1.687876e+00
<VARIANCE> 25
 4.385457e+01 3.898558e+01 1.259425e+02 3.656221e+01 6.070153e+01 1.003846e+02 1.076442e+02 5.857992e+01 8.033073e+01 2.114254e+01 3.286632e+01 4.407238e+01 4.378044e+00 9.518938e+00 1.244434e+01 7.872412e+00 6.268382e+00 1.039188e+01 7.770419e+00 5.090968e+00 4.340438e+00 3.816419e+00 3.574330e+00 3.711041e+00 6.923439e+00
<GCONST> 1.175019e+02
~s "ST_sil_2_1"
<MEAN> 25
 -1.078075e+01 4.695257e+00 -1.852228e+00 3.661846e+00 4.912224e-01 2.615843e+00 2.113102e+00 -2.943306e-02 8.181946e-01 -1.991472e+00 5.819724e-01 5.232009e-01 -2.282269e-02 1.741304e-04 1.583783e-02 2.430929e-02 1.982178e-02 1.600413e-02 3.883756e-02 2.248293e-02 -1.580136e-02 -1.841514e-02 1.812856e-03 1.680437e-02 -1.425271e-02
<VARIANCE> 25
 7.334813e+00 5.154750e+00 9.739379e+00 1.401760e+01 1.052570e+01 1.310857e+01 1.549982e+01 1.569346e+01 1.376243e+01 1.202774e+01 1.192599e+01 1.291012e+01 1.148349e-01 2.390450e-01 4.128708e-01 6.404274e-01 7.985296e-01 9.290978e-01 1.092078e+00 1.199427e+00 1.186184e+00 1.209745e+00 1.202564e+00 1.171326e+00 4.425503e-02
<GCONST> 6.769477e+01
~s "silst"
<MEAN> 25
 -1.598647e+01 3.433394e+00 -3.626470e-01 5.009684e+00 1.897075e+00 5.302578e+00 4.147445e+00 4.913630e+00 5.792140e+00 1.649426e+00 4.962243e+00 4.045248e+00 -9.365977e-03 -2.047931e-03 2.560830e-02 2.109030e-02 3.134799e-02 6.211466e-03 -7.001224e-03 -8.539759e-02 -8.831134e-02 -1.184803e-02 1.064375e-02 6.450451e-03 -1.928415e-03
<VARIANCE> 25
 7.129639e+00 3.737003e+00 5.302713e+00 1.039162e+01 1.014202e+01 9.912094e+00 1.151090e+01 1.562617e+01 1.283081e+01 1.012583e+01 8.623787e+00 7.806852e+00 4.253944e-02 1.169610e-01 2.338002e-01 3.132313e-01 4.854853e-01 4.454682e-01 7.435725e-01 1.214986e+00 1.317166e+00 1.075097e+00 7.757068e-01 8.400699e-01 4.115048e-02
<GCONST> 5.929683e+01
~s "ST_sil_3_1"
<MEAN> 25
 -1.604318e+01 3.410763e+00 -3.645311e-01 5.073335e+00 1.934457e+00 5.297482e+00 4.105222e+00 4.900003e+00 5.804975e+00 1.645581e+00 4.990535e+00 4.016660e+00 -9.524772e-03 -1.753967e-03 2.451234e-02 2.066495e-02 2.851482e-02 6.026566e-03 -5.839677e-03 -8.187444e-02 -8.434372e-02 -1.114474e-02 1.072572e-02 6.165823e-03 -1.942641e-03
<VARIANCE> 25
 7.109602e+00 3.707818e+00 5.209276e+00 1.038137e+01 1.008760e+01 9.808122e+00 1.147912e+01 1.553437e+01 1.279223e+01 1.007825e+01 8.641764e+00 7.784137e+00 4.253944e-02 1.181321e-01 2.318751e-01 3.130137e-01 4.898107e-01 4.446206e-01 7.423170e-01 1.211073e+00 1.312672e+00 1.071393e+00 7.772915e-01 8.372294e-01 4.115048e-02
<GCONST> 5.922910e+01
~s "ST_sil_4_1"
<MEAN> 25
 -8.284856e+00 4.501409e+00 7.755598e-01 3.728583e+00 1.486111e+00 2.635862e+00 2.111752e+00 4.666976e-01 -1.681242e-01 -2.388119e+00 4.268213e-02 8.082238e-01 3.752311e-01 4.025903e-02 3.940044e-02 -6.701813e-02 -6.333329e-02 -2.194943e-01 -2.974175e-01 -7.546921e-02 -4.785669e-02 -1.832331e-02 -1.518572e-01 -2.075670e-01 2.890241e-01
<VARIANCE> 25
 4.249436e+01 3.392897e+01 2.508672e+01 2.554642e+01 1.983010e+01 2.344254e+01 2.167832e+01 2.114906e+01 1.975534e+01 1.890109e+01 1.594743e+01 1.336163e+01 2.666919e+00 2.635038e+00 1.743201e+00 1.888526e+00 2.107658e+00 2.566206e+00 1.868612e+00 1.676575e+00 1.696770e+00 1.670871e+00 1.489415e+00 1.220078e+00 4.189696e+00
<GCONST> 9.228067e+01
~s "ST_iy_2_1"
<MEAN> 25
 6.184156e+00 1.768466e+01 7.066955e+00 5.100288e+00 -5.594422e+00 -2.298579e+00 -4.074994e-01 -4.210125e+00 -2.333411e+00 -4.261491e+00 -2.118117e+00 -2.342552e+00 -1.857310e+00 -1.010088e+00 -3.061470e-01 7.836388e-01 1.248204e+00 6.521345e-01 -2.094680e-01 -3.107570e-03 2.606635e-01 1.237452e-01 -5.250052e-02 2.062978e-02 -1.116531e+00
<VARIANCE> 25
 5.310752e+01 3.200623e+01 2.412034e+01 1.269402e+01 1.724970e+01 1.651448e+01 1.526190e+01 2.486481e+01 1.468843e+01 1.762741e+01 1.994054e+01 1.323288e+01 1.361377e+00 1.784294e+00 2.231259e+00 1.026718e+00 1.163693e+00 1.629148e+00 1.247364e+00 2.087257e+00 1.626358e+00 1.404447e+00 1.362384e+00 1.568460e+00 3.856142e-01
<GCONST> 8.577756e+01
~s "ST_iy_3_1"
<MEAN> 25
 -6.039841e+00 9.320909e+00 9.432740e-01 7.501439e+00 1.571407e+00 2.686114e+00 5.781697e-01 -4.006023e+00 -1.898620e+00 -3.648421e+00 -1.824895e-02 1.086676e+00 -1.144479e+00 -9.661027e-01 -8.088429e-01 -3.332835e-01 3.659066e-01 4.467595e-01 3.441851e-01 4.550421e-01 1.153547e-01 -4.642472e-02 1.275187e-01 1.451983e-01 -5.953735e-01
<VARIANCE> 25
 1.285072e+01 1.544385e+01 1.258046e+01 1.828070e+01 8.367075e+00 1.593441e+01 9.442285e+00 1.762170e+01 1.701735e+01 1.678555e+01 2.146460e+01 2.921732e+01 1.117199e+00 1.576364e+00 1.444812e+00 1.226819e+00 8.726301e-01 7.280235e-01 1.537496e+00 1.808927e+00 1.506953e+00 1.910855e+00 9.992709e-01 1.523637e+00 2.265938e-01
<GCONST> 8.047955e+01
~s "ST_iy_4_1"
<MEAN> 25
 -8.645304e+00 5.578056e+00 5.476319e-01 7.385958e+00 2.071551e+00 2.484622e+00 2.143919e+00 -1.462795e+00 -2.288489e+00 -3.944929e+00 -1.097903e+00 -5.646493e-01 -1.751502e-01 -8.117221e-02 -6.119720e-02 -4.946405e-02 -2.593413e-02 -4.568973e-02 1.011993e-01 1.665960e-01 1.492170e-01 1.105172e-01 7.741286e-03 -6.743170e-02 -9.644789e-02
<VARIANCE> 25
 5.759084e+00 8.120043e+00 1.132164e+01 1.825578e+01 1.066325e+01 1.113483e+01 1.057799e+01 1.220421e+01 1.205381e+01 1.546731e+01 1.524362e+01 1.248511e+01 2.383637e-01 5.823725e-01 8.763276e-01 8.733352e-01 1.009041e+00 8.972958e-01 8.940808e-01 7.515209e-01 1.292057e+00 1.329592e+00 1.600801e+00 1.638590e+00 6.669391e-02
<GCONST> 7.129624e+01
~s "ST_ae_2_1"
<MEAN> 25
 2.030571e+01 -2.499641e+01 -3.384954e+00 2.286459e+00 -7.133043e+00 -6.443391e+00 6.097487e+00 1.990256e+00 -4.887979e-01 2.278857e+00 -1.061833e+01 -2.681055e+00 -7.819037e-01 -1.043246e+00 1.945390e+00 -4.612410e-01 -8.068448e-01 -3.311286e-01 1.157233e+00 9.313228e-01 -1.050700e+00 -7.542968e-01 -4.342818e-01 2.861488e-01 5.710454e-01
<VARIANCE> 25
 1.412215e+01 1.728292e+01 5.400936e+01 5.662987e+01 4.189528e+01 1.880522e+01 4.606215e+01 4.441156e+01 2.215718e+01 2.565845e+01 2.152052e+01 1.723066e+01 7.904381e-01 2.534426e+00 3.216689e+00 3.837463e+00 5.042380e+00 1.833389e+00 2.953807e+00 4.470973e+00 2.932004e+00 2.539853e+00 3.830241e+00 1.604805e+00 3.786610e-01
<GCONST> 9.688692e+01
~s "ST_ae_3_1"
<MEAN> 25
 1.534261e+01 -2.301312e+01 5.851716e+00 -5.640372e+00 -3.698905e+00 -6.920201e+00 2.859148e+00 1.376745e+01 -7.261882e+00 -4.717383e+00 -3.270866e+00 -5.431473e+00 -1.390589e-01 8.655533e-01 3.176120e-01 6.093099e-01 -6.366833e-01 -3.307288e-01 1.145194e+00 5.893708e-01 -1.502891e+00 -3.424178e-01 8.854740e-01 -5.105556e-01 -5.816393e-01
<VARIANCE> 25
 2.343215e+01 1.908722e+01 5.352734e+01 1.229096e+02 3.874567e+01 3.511262e+01 2.859888e+01 3.066123e+01 3.847781e+01 1.588646e+01 2.138688e+01 2.723670e+01 5.049453e-01 6.729730e-01 1.598073e+00 1.450261e+00 1.920447e+00 9.948518e-01 1.212350e+00 9.818872e-01 1.383598e+00 1.793586e+00 1.124146e+00 9.749722e-01 4.394053e-01
<GCONST> 8.837764e+01
~s "ST_ae_4_1"
<MEAN> 25
 1.700368e+01 -1.446619e+01 4.026613e+00 2.470277e+00 -1.232734e+01 -7.430699e+00 1.330543e+01 5.180492e+00 -1.209356e+01 -4.733108e-01 -1.655279e+00 -5.776893e+00 -1.287927e-01 2.334757e+00 5.211388e-01 -4.745263e-01 -6.132975e-01 7.875334e-01 1.145619e+00 -1.357617e+00 -1.696432e+00 1.084958e+00 7.338204e-01 -2.755086e-01 -1.137787e+00
<VARIANCE> 25
 1.627705e+01 4.781503e+01 9.024388e+01 1.023928e+02 4.975724e+01 2.512206e+01 3.994078e+01 7.995171e+01 3.127196e+01 3.315150e+01 3.188347e+01 3.069244e+01 3.185912e-01 2.139672e+00 2.624862e+00 2.449545e+00 2.296571e+00 2.111595e+00 2.792017e+00 2.162102e+00 1.602088e+00 2.285711e+00 1.622551e+00 1.760321e+00 1.305694e+00
<GCONST> 9.823365e+01
~s "ST_w_2_1"
<MEAN> 25
 2.623496e+01 -8.146554e-01 -1.038346e+01 -1.468419e+01 -1.515282e+00 3.218431e+00 1.256066e+00 -6.664969e+00 -1.160927e+01 4.350518e+00 7.027990e+00 -2.022559e+00 8.603786e-01 -3.753516e+00 1.710508e-01 2.007954e+00 1.668693e-02 -2.576643e+00 9.999403e-02 4.326180e-02 -5.309581e-01 2.300343e+00 2.875096e-01 -1.934169e+00 2.429435e+00
<VARIANCE> 25
 1.426324e+01 5.493996e+01 3.896640e+01 7.910654e+01 5.071388e+01 3.506372e+01 4.558626e+01 3.006036e+01 4.739864e+01 4.008180e+01 2.346518e+01 2.161110e+01 2.254315e+00 2.421290e+00 6.608224e+00 6.253201e+00 9.466105e+00 7.430960e+00 5.775812e+00 3.778346e+00 7.180671e+00 2.451576e+00 4.426410e+00 3.111835e+00 2.207628e+00
<GCONST> 1.081665e+02
~s "ST_w_3_1"
<MEAN> 25
 2.301940e+01 -1.370964e+01 -6.672250e+00 -7.478130e+00 5.964732e-01 -4.972831e+00 -2.811607e+00 -1.114343e+00 -6.170712e+00 7.676956e+00 4.061273e+00 -1.010460e+01 -1.088947e+00 -2.157846e+00 1.032269e+00 1.870735e+00 -3.128375e-01 -1.762312e+00 -2.311243e-01 1.811640e+00 2.593478e+00 -1.227512e+00 -2.223354e+00 -1.345130e+00 1.133250e+00
<VARIANCE> 25
 2.556682e+01 1.763926e+01 4.100780e+01 8.127169e+01 5.274073e+01 6.585126e+01 7.852500e+01 7.526955e+01 7.066927e+01 4.910600e+01 4.020848e+01 3.201900e+01 4.645605e-01 2.364340e+00 2.184949e+00 2.014163e+00 3.407306e+00 3.042988e+00 3.902902e+00 2.610265e+00 4.131419e+00 2.465430e+00 2.104445e+00 3.171382e+00 5.530398e-01
<GCONST> 1.021820e+02
~s "ST_w_4_1"
<MEAN> 25
 2.067447e+01 -1.867683e+01 -3.058795e+00 -1.025924e+00 -6.043763e+00 -8.296791e+00 -6.145543e-02 3.657273e+00 -2.297643e-02 1.244129e+00 -3.238687e+00 -1.004304e+01 -1.744688e-02 -4.012507e-01 3.587759e-01 7.987357e-01 -1.064939e+00 2.402079e-01 5.243466e-01 -5.033477e-02 6.884819e-01 -5.324028e-01 -1.560869e+00 4.530570e-01 -2.186925e-01
<VARIANCE> 25
 2.471398e+01 1.616900e+01 3.672556e+01 5.427550e+01 5.216230e+01 2.800552e+01 4.864145e+01 8.659198e+01 5.122091e+01 4.520721e+01 3.873457e+01 2.510248e+01 6.021497e-01 7.375001e-01 1.175743e+00 1.391706e+00 1.684461e+00 2.833881e+00 1.780380e+00 3.681481e+00 3.000491e+00 3.283624e+00 2.089651e+00 2.559327e+00 3.441672e-01
<GCONST> 9.581626e+01
~s "ST_ng_2_1"
<MEAN> 25
 1.761848e+01 -3.371141e+00 4.321786e+00 -1.322795e+00 -1.156644e+01 -1.762798e+00 1.382702e+01 -2.427350e+00 -1.757312e+01 2.526544e+00 9.071672e-01 -3.256240e+00 1.159079e+00 4.548588e+00 -3.397354e+00 9.535646e-01 1.380368e+00 1.575493e+00 -1.472303e+00 -3.727715e+00 1.313094e+00 -1.080111e-01 4.005918e-01 9.805866e-01 -2.614971e+00
<VARIANCE> 25
 1.099987e+01 5.850380e+01 8.723521e+01 6.782599e+01 7.717403e+01 3.427082e+01 6.474765e+01 1.003200e+02 4.673893e+01 3.113845e+01 2.322855e+01 2.510261e+01 8.462627e-01 2.910937e+00 5.836426e+00 1.109004e+01 7.125371e+00 4.471833e+00 1.446730e+01 7.403836e+00 6.982983e+00 4.259514e+00 3.081696e+00 2.437896e+00 7.484537e-01
<GCONST> 1.097366e+02
~s "ST_ng_3_1"
<MEAN> 25
 2.013448e+01 1.071210e+01 -4.161343e+00 -3.600057e+00 -3.089351e+00 1.298964e+00 -1.427757e-01 -8.718122e+00 -8.084028e+00 -7.898049e-01 7.315836e-01 -4.766632e-01 -6.760123e-01 -1.004655e+00 5.939492e-01 -1.039642e+00 2.337509e+00 -1.093992e+00 -3.297635e+00 1.515096e+00 1.863646e+00 2.137180e-01 -1.137910e+00 -4.792615e-01 7.122697e-01
<VARIANCE> 25
 6.389186e+00 2.997888e+01 4.555513e+01 4.287045e+01 7.373479e+01 5.054981e+01 7.131953e+01 7.175661e+01 3.582973e+01 2.238562e+01 2.538716e+01 2.374875e+01 9.414254e-01 1.125741e+01 5.077590e+00 8.249331e+00 9.152274e+00 5.710990e+00 7.998517e+00 7.439903e+00 3.604058e+00 3.446257e+00 4.035457e+00 2.706522e+00 3.196366e+00
<GCONST> 1.088423e+02
~s "ST_m_2_1"
<MEAN> 25
 2.735599e+00 4.169238e+00 8.730640e+00 -7.375643e+00 7.536427e+00 -1.181178e+01 -5.501362e+00 3.400020e+00 4.149420e-01 -3.606884e+00 -3.982148e+00 2.418595e+00 1.743124e+00 -1.060666e+00 8.689161e-01 -1.190583e+00 2.605987e-01 -4.978980e-01 -1.157720e+00 -8.514957e-01 6.149638e-02 2.359938e-01 -5.982575e-02 -3.356604e-01 3.364445e+00
<VARIANCE> 25
 6.721039e+01 7.980241e+01 6.022587e+01 6.490614e+01 9.571313e+01 7.194704e+01 1.382513e+02 7.029501e+01 5.136579e+01 5.953164e+01 5.378160e+01 3.290561e+01 1.406337e+01 1.169558e+01 5.220283e+00 8.611506e+00 1.448552e+01 8.649347e+00 1.129752e+01 1.186117e+01 9.028572e+00 1.019876e+01 6.562526e+00 4.550982e+00 4.932414e+00
<GCONST> 1.244806e+02
~s "ST_ng_4_1"
<MEAN> 25
 1.579751e+01 -8.673051e+00 2.402823e+00 -2.123589e+01 1.158611e+01 -1.274266e+00 -1.868021e+01 4.797523e+00 -7.231758e-02 8.856124e+00 -5.818235e+00 -4.644554e+00 1.081854e-01 -1.367383e+00 2.777035e-01 -1.807111e+00 4.427844e-01 7.646599e-01 -1.405258e+00 1.427956e-02 7.081391e-01 9.295287e-01 -1.535480e-01 -1.356661e-02 1.159135e+00
<VARIANCE> 25
 7.211411e+00 1.546165e+01 3.773355e+01 9.784503e+01 5.873572e+01 5.670810e+01 3.472382e+01 6.091021e+01 2.206602e+01 4.083215e+01 4.177763e+01 2.523204e+01 5.715604e-01 6.540783e+00 3.836947e+00 8.751216e+00 8.358427e+00 5.819209e+00 6.109396e+00 1.129557e+01 3.441839e+00 2.737078e+00 3.687060e+00 2.430465e+00 3.115035e+00
<GCONST> 1.069299e+02
~s "ST_m_3_1"
<MEAN> 25
 2.263842e+01 -1.132544e+01 8.320467e+00 -1.783432e+01 2.283248e+00 1.205834e+00 -1.233356e+01 -1.097388e+01 -5.640335e-01 7.703197e+00 -2.294704e+00 -2.379475e+00 2.453826e+00 1.143369e-01 -1.964482e+00 -2.937159e-01 -1.249903e+00 3.364822e+00 1.074532e+00 -6.367467e-01 -8.114595e-01 4.054647e-02 5.375973e-01 7.648422e-01 -1.197530e+00
<VARIANCE> 25
 1.742646e+01 7.478963e+00 2.710443e+01 1.020264e+02 4.452028e+01 1.455330e+02 5.869093e+01 7.879799e+01 2.940947e+01 3.978980e+01 2.101204e+01 3.412527e+01 1.830344e+00 4.869833e+00 4.088500e+00 6.748408e+00 4.014554e+00 5.199761e+00 4.606051e+00 7.495117e+00 5.059506e+00 1.147782e+01 2.205048e+00 3.014856e+00 2.722937e+00
<GCONST> 1.086404e+02
~s "ST_er_2_1"
<MEAN> 25
 -5.577815e+00 3.308670e+00 5.408206e+00 -9.389279e+00 9.253481e+00 -9.175696e+00 2.038227e+00 4.179216e+00 4.626297e-01 -3.422582e+00 1.205361e+00 2.902629e+00 -2.351089e+00 1.996338e-01 8.119043e-01 -2.932512e-02 -3.260065e-01 -9.775234e-01 1.736676e+00 5.007717e-01 -2.427887e-01 -7.752963e-01 7.043152e-01 6.099393e-01 -3.375898e-01
<VARIANCE> 25
 1.583449e+02 4.675539e+01 5.860152e+01 3.816364e+01 6.740504e+01 7.015761e+01 8.383099e+01 6.307102e+01 5.214596e+01 4.974515e+01 4.297871e+01 4.481450e+01 1.921339e+01 8.947985e+00 6.801178e+00 4.303928e+00 1.097769e+01 6.145020e+00 6.182712e+00 7.570129e+00 5.785672e+00 6.620564e+00 4.423241e+00 5.504172e+00 1.308559e+00
<GCONST> 1.187160e+02
~s "ST_m_4_1"
<MEAN> 25
 2.109377e+01 -5.914930e+00 2.906105e+00 -6.101771e+00 -3.154774e+00 2.185121e+00 1.296528e+00 -6.857014e+00 -6.452676e+00 6.434984e-01 -3.537189e-01 -9.554983e-01 -2.968386e-01 4.447114e-01 -6.801747e-02 3.791941e-01 -3.273060e-02 -3.180109e-01 1.117432e-01 2.842100e-01 -1.458097e-02 -7.867692e-02 1.447257e-02 -1.945675e-01 -5.744089e-01
<VARIANCE> 25
 6.066569e+01 1.080151e+02 1.341200e+02 1.934855e+02 1.141949e+02 8.571751e+01 1.065436e+02 1.473591e+02 8.728062e+01 7.247376e+01 4.608276e+01 3.051805e+01 1.925172e+00 7.676349e+00 8.767955e+00 1.108236e+01 4.834991e+00 4.108776e+00 5.568885e+00 9.299035e+00 6.982376e+00 7.434499e+00 4.691185e+00 3.784619e+00 6.700047e+00
<GCONST> 1.226840e+02
~s "ST_er_3_1"
<MEAN> 25
 1.277472e+01 -1.122490e+01 9.569004e+00 -3.688996e+00 -6.434498e+00 -1.225879e+01 1.294422e+00 4.970207e+00 -3.621980e+00 1.300065e+00 -8.207777e-01 9.272757e-01 3.218969e+00 -1.705346e+00 -4.258241e-01 1.227413e+00 -1.236864e+00 3.747040e-01 -1.582577e+00 -3.797456e-01 1.332497e-01 8.178599e-01 -1.238970e+00 -5.670870e-01 8.887303e-01
<VARIANCE> 25
 9.715181e+01 4.287308e+01 5.041971e+01 5.754187e+01 4.673204e+01 7.251936e+01 8.256362e+01 4.083663e+01 4.827987e+01 5.717404e+01 5.644765e+01 2.978510e+01 1.456970e+01 5.656118e+00 5.523640e+00 6.223278e+00 6.902620e+00 6.779180e+00 5.600529e+00 5.928647e+00 8.109674e+00 7.301773e+00 5.499097e+00 3.245939e+00 4.815440e+00
<GCONST> 1.176886e+02
~s "ST_ah_2_1"
<MEAN> 25
 2.052316e+01 -6.647971e+00 -4.518745e+00 -1.278140e+01 4.676482e+00 1.752861e+00 -7.904543e+00 -5.838936e+00 -1.237771e-01 7.097916e+00 -6.717332e+00 -3.196656e+00 1.982121e-01 1.682464e+00 -8.086900e-01 1.332451e+00 -7.183849e-01 3.319038e-01 2.082084e-01 -1.216609e+00 1.375980e-01 -5.791305e-01 1.035641e-02 3.760422e-01 -1.464534e+00
<VARIANCE> 25
 1.490549e+01 4.847785e+01 4.974761e+01 1.757167e+02 9.342704e+01 9.688398e+01 8.545693e+01 1.037926e+02 6.178603e+01 8.980649e+01 4.539107e+01 4.320601e+01 9.858243e-01 5.297899e+00 4.082135e+00 7.516998e+00 5.973269e+00 7.291891e+00 6.316535e+00 8.183555e+00 5.029653e+00 4.503422e+00 4.758677e+00 3.161860e+00 3.145944e+00
<GCONST> 1.157829e+02
~s "ST_er_4_1"
<MEAN> 25
 1.797517e+01 -1.059325e+01 2.590130e+00 4.993721e+00 -5.497931e+00 -6.498759e+00 -7.721410e+00 -6.439410e-01 5.654409e+00 7.139905e-01 -6.467365e+00 -2.386531e-01 -1.283480e+00 2.044307e+00 -7.889832e-01 8.202689e-01 7.428015e-01 4.042162e-01 -5.695812e-01 -4.904307e-03 1.228329e+00 -4.290444e-01 3.740782e-01 6.405338e-01 -2.477933e+00
<VARIANCE> 25
 4.255650e+01 5.995709e+01 9.504330e+01 5.249234e+01 5.186959e+01 5.332426e+01 4.036762e+01 3.801112e+01 4.308953e+01 3.517564e+01 2.719849e+01 3.291355e+01 6.023845e+00 4.812239e+00 1.361918e+01 8.384721e+00 4.273731e+00 8.011939e+00 5.338976e+00 6.301935e+00 3.888077e+00 4.041548e+00 3.922940e+00 2.674863e+00 4.429517e+00
<GCONST> 1.134358e+02
~s "ST_ah_3_1"
<MEAN> 25
 2.352217e+01 -2.515680e+00 -1.215378e+01 -3.559206e+00 -1.086803e+00 -1.603504e+00 -2.744425e+00 -1.138243e+01 -4.249065e+00 6.040590e+00 -5.981620e-01 -7.013549e+00 -3.067388e-01 1.792493e+00 -5.165271e-02 -6.150820e-01 5.089070e-01 8.586088e-01 -5.671691e-01 -2.522371e-01 4.680397e-02 -4.876429e-01 2.669299e-02 3.573422e-01 -1.111444e+00
<VARIANCE> 25
 1.278725e+01 5.483693e+01 2.004032e+01 5.690405e+01 5.704391e+01 3.328682e+01 5.051380e+01 3.476120e+01 4.227177e+01 3.120915e+01 2.880896e+01 2.686588e+01 6.111869e-01 2.667850e+00 1.540314e+00 2.643663e+00 4.211102e+00 2.270570e+00 3.250899e+00 3.075412e+00 2.371101e+00 2.611757e+00 1.970112e+00 1.223672e+00 1.231058e+00
<GCONST> 9.775935e+01
~s "ST_ah_4_1"
<MEAN> 25
 1.636434e+01 1.079750e+01 -4.296523e+00 -5.371185e+00 1.378457e+00 2.391581e+00 -6.241461e+00 -7.495749e+00 -1.262321e+00 -3.325749e-01 -2.143146e+00 -3.199818e+00 -2.408719e+00 1.816175e+00 2.680917e+00 5.535889e-01 -1.546545e+00 -1.310521e-01 1.113397e+00 8.553709e-01 -2.286798e-01 -7.508242e-01 6.938788e-01 5.406039e-01 -2.173215e+00
<VARIANCE> 25
 3.094696e+01 5.702663e+01 7.491875e+01 5.997635e+01 6.709396e+01 4.605167e+01 5.194262e+01 3.246936e+01 4.115112e+01 3.795458e+01 2.609111e+01 2.305095e+01 3.208189e+00 4.906707e+00 3.658106e+00 3.846700e+00 4.211754e+00 3.163805e+00 3.539129e+00 3.441572e+00 3.216902e+00 3.531877e+00 2.363222e+00 2.283548e+00 2.152663e+00
<GCONST> 1.064250e+02
~s "ST_z_2_1"
<MEAN> 25
 -6.518618e+00 9.839078e-01 -2.419327e+00 1.887121e-01 5.867878e-01 7.385224e-01 -1.373569e+00 2.654045e+00 1.018368e+00 4.114946e-01 9.598054e-01 9.606130e-01 -5.614795e-03 2.036453e-02 -4.421343e-02 -1.824236e-02 1.513014e-02 2.213783e-02 1.426948e-03 9.136341e-02 6.766900e-02 -3.354538e-02 -5.861493e-02 1.718562e-03 -2.318569e-02
<VARIANCE> 25
 2.285064e+00 1.975309e+00 5.555732e+00 1.034929e+01 1.438217e+01 1.006629e+01 1.265607e+01 1.062336e+01 1.308149e+01 1.114174e+01 9.446254e+00 8.126456e+00 1.236724e-01 2.712915e-01 3.747072e-01 8.502712e-01 6.896113e-01 8.217090e-01 1.328249e+00 1.319939e+00 1.212140e+00 1.331422e+00 1.035610e+00 8.318682e-01 4.115048e-02
<GCONST> 6.329879e+01
~s "ST_z_3_1"
<MEAN> 25
 -7.721326e+00 -1.218817e+00 -2.843593e+00 1.135391e+00 -1.018805e+00 9.514526e-02 4.319804e-01 2.650886e+00 3.430263e+00 -1.422734e-02 -8.257843e-01 2.854873e-01 1.864665e-01 1.085883e-01 1.649731e-01 2.926813e-02 9.352922e-02 1.814039e-01 4.845634e-02 -5.916587e-03 1.777575e-01 9.085080e-03 -6.150211e-02 -1.987863e-01 1.052499e-01
<VARIANCE> 25
 6.187423e+00 1.361238e+01 2.424827e+01 9.386131e+00 7.796368e+00 1.123983e+01 1.872744e+01 1.360707e+01 2.981109e+01 9.350392e+00 1.287815e+01 1.191174e+01 8.117946e-01 1.610882e+00 3.689116e+00 1.563094e+00 1.201152e+00 1.261600e+00 2.419378e+00 1.404355e+00 4.605000e+00 9.983299e-01 1.317222e+00 1.837735e+00 7.530558e-01
<GCONST> 8.227007e+01
~s "ST_z_4_1"
<MEAN> 25
 -1.167024e+00 6.338291e+00 2.818460e-01 -1.969255e+00 4.901202e+00 -2.202416e+00 -3.839638e+00 4.668543e-01 1.763108e+00 -3.721239e+00 -4.027145e+00 -2.406104e-01 -3.510878e-01 5.481343e-01 1.242220e+00 -3.072881e-01 9.823471e-01 -4.727663e-01 -9.501474e-01 -9.088663e-01 -1.560074e+00 -8.326679e-01 1.300457e-02 5.132643e-02 1.052611e+00
<VARIANCE> 25
 2.372921e+01 1.828498e+01 2.641494e+01 1.969480e+01 3.357255e+01 2.512443e+01 3.073489e+01 2.096136e+01 1.921955e+01 1.329692e+01 2.296910e+01 8.324337e+00 3.921549e+00 5.995603e-01 2.342203e+00 1.193156e+00 1.709869e+00 2.457494e+00 4.617001e+00 2.071191e+00 3.098734e+00 1.288357e+00 1.972486e+00 7.934164e-01 7.273074e-01
<GCONST> 8.936631e+01
~s "ST_eh_2_1"
<MEAN> 25
 2.128067e+01 -1.739667e+01 -8.123633e-01 4.564027e+00 -1.162676e+01 -4.792234e+00 3.077486e+00 -2.828820e+00 6.172432e-01 4.452010e+00 -7.307673e+00 -3.658548e+00 6.507602e-02 8.497971e-01 -2.377481e-01 6.057338e-01 1.893003e-01 -4.411748e-01 1.419749e-01 -3.437377e-01 -3.121238e-01 2.199352e-01 -2.268066e-01 4.197790e-01 -7.746019e-01
<VARIANCE> 25
 1.868228e+01 1.879909e+01 4.261054e+01 4.519063e+01 2.684479e+01 5.005096e+01 4.112022e+01 4.930732e+01 5.301372e+01 3.153590e+01 4.267027e+01 2.954814e+01 2.541042e+00 2.402094e+00 6.520650e+00 5.609554e+00 4.240838e+00 5.312065e+00 3.538440e+00 6.644187e+00 5.397435e+00 4.116954e+00 4.140716e+00 2.746593e+00 2.413306e+00
<GCONST> 1.068440e+02
~s "ST_eh_3_1"
<MEAN> 25
 1.927514e+01 -4.887033e+00 -5.737355e+00 6.417867e+00 -2.375263e+00 -8.684319e+00 -6.278691e-01 1.682238e-01 1.239695e+00 -4.656568e-01 -6.968624e+00 -1.158890e+00 -1.656129e+00 4.213604e+00 -1.026762e+00 -2.702582e-01 2.810160e+00 6.046667e-01 -1.485141e+00 1.629903e+00 1.438343e+00 -2.091448e+00 8.879352e-01 8.405550e-01 -3.622246e+00
<VARIANCE> 25
 2.793615e+01 4.904571e+01 4.633455e+01 6.335165e+01 5.808603e+01 3.533764e+01 4.858873e+01 5.912828e+01 5.406811e+01 5.412458e+01 4.290502e+01 3.494167e+01 2.204302e+00 4.463634e+00 3.863520e+00 7.561400e+00 6.080119e+00 5.505333e+00 4.397631e+00 7.173618e+00 3.168599e+00 4.928632e+00 5.058821e+00 1.642827e+00 2.473177e+00
<GCONST> 1.104330e+02
~s "ST_eh_4_1"
<MEAN> 25
 6.120106e+00 6.932570e+00 -3.426687e+00 1.278985e+00 1.862408e-01 -2.559440e+00 -2.873297e+00 2.964123e+00 4.460409e+00 -2.309331e+00 -3.738735e+00 -8.528444e-01 -2.549043e+00 7.292640e-01 6.226933e-01 -6.720966e-01 -4.616991e-01 1.076870e+00 1.779324e-01 -5.082256e-01 -1.374090e-01 3.546973e-01 7.648164e-01 1.198603e-01 -2.164593e+00
<VARIANCE> 25
 1.156201e+02 6.973186e+01 6.439766e+01 2.387944e+01 3.164009e+01 2.813492e+01 3.536266e+01 2.949133e+01 2.973003e+01 2.578255e+01 1.700866e+01 1.709799e+01 3.120767e+00 6.459020e+00 5.364073e+00 3.869129e+00 3.656764e+00 2.346472e+00 2.787404e+00 2.807311e+00 2.658829e+00 2.687389e+00 2.025686e+00 1.727687e+00 2.742460e+00
<GCONST> 1.028069e+02
~s "ST_ih_2_1"
<MEAN> 25
 -1.221107e+01 3.822802e+00 -6.663260e-01 -6.745757e-01 5.221513e-01 3.427915e+00 1.307784e+00 -2.389181e-01 9.023939e-01 -1.694120e+00 3.068073e+00 3.499154e+00 5.544122e-01 -2.220802e-01 -1.604701e-01 -3.430368e-01 -2.499731e-01 -2.877775e-01 -2.179785e-01 1.283981e-03 -2.349103e-01 -1.830416e-01 -2.211378e-01 -3.291001e-01 5.169677e-01
<VARIANCE> 25
 4.640649e+01 1.717740e+01 1.376550e+01 3.071489e+01 1.440618e+01 2.981576e+01 1.720016e+01 1.444571e+01 1.397278e+01 1.432504e+01 1.336866e+01 1.191541e+01 3.120589e+00 1.424231e+00 1.320820e+00 2.064206e+00 1.991784e+00 2.513513e+00 1.899388e+00 1.655491e+00 1.690482e+00 1.401711e+00 1.512296e+00 1.313132e+00 5.905159e+00
<GCONST> 8.919831e+01
~s "ST_ih_3_1"
<MEAN> 25
 -1.092048e+01 2.492186e+00 -2.850851e+00 2.027842e+00 1.044260e+00 3.116109e+00 2.845140e+00 1.007417e+00 7.958098e-01 -2.111900e+00 2.595301e-01 7.407271e-01 3.078200e-01 -2.610145e-01 2.367985e-01 3.715218e-01 3.907322e-01 4.217685e-02 -4.299551e-02 -1.981161e-02 1.160336e-01 1.004186e-01 -2.544084e-01 -2.321934e-01 4.374237e-01
<VARIANCE> 25
 3.386338e+01 2.498962e+01 1.143171e+01 2.024609e+01 1.846401e+01 1.469049e+01 2.060965e+01 1.773064e+01 1.217179e+01 1.506878e+01 1.475482e+01 1.257293e+01 1.040991e+00 1.370298e+00 7.865835e-01 1.044010e+00 1.236434e+00 1.140019e+00 1.195861e+00 1.872752e+00 1.786628e+00 1.854376e+00 1.371409e+00 1.382012e+00 8.259336e-01
<GCONST> 8.302480e+01
~s "ST_ih_4_1"
<MEAN> 25
 -7.062307e+00 5.948641e-01 -1.067679e+00 4.481973e+00 2.172307e+00 1.707652e+00 1.450117e+00 1.654531e+00 3.000944e+00 -1.240996e+00 4.131082e-02 4.098437e-01 1.068164e+00 -1.156779e+00 1.044542e+00 4.305583e-01 6.429082e-01 -6.770666e-01 -3.269217e-01 -5.065518e-02 1.919073e-01 8.793683e-02 -2.012994e-01 -1.539100e-01 2.196147e+00
<VARIANCE> 25
 4.714334e+01 5.846344e+01 1.900203e+01 1.594113e+01 2.281555e+01 2.911627e+01 2.113058e+01 1.645704e+01 2.384702e+01 2.224544e+01 2.052954e+01 1.671405e+01 6.553099e+00 7.689389e+00 3.184986e+00 2.744659e+00 2.462093e+00 4.684021e+00 2.356394e+00 1.404191e+00 2.444795e+00 1.898068e+00 1.535824e+00 2.098158e+00 9.518407e+00
<GCONST> 9.873188e+01
~h "t+uw"
<BEGINHMM>
<NUMSTATES> 5
<STATE> 2
~s "ST_t_2_1"
<STATE> 3
~s "ST_t_3_1"
<STATE> 4
~s "ST_t_4_2"
~t "T_t"
<ENDHMM>
~h "t-uw"
<BEGINHMM>
<NUMSTATES> 5
<STATE> 2
~s "ST_uw_2_1"
<STATE> 3
~s "ST_uw_3_1"
<STATE> 4
~s "ST_uw_4_1"
~t "T_uw"
<ENDHMM>
~h "sp"
<BEGINHMM>
<NUMSTATES> 3
<STATE> 2
~s "ST_sil_3_1"
<TRANSP> 3
 0.000000e+00 3.506630e-03 9.964934e-01
 0.000000e+00 8.901273e-02 9.109873e-01
 0.000000e+00 0.000000e+00 0.000000e+00
<ENDHMM>
~h "aw+t"
<BEGINHMM>
<NUMSTATES> 5
<STATE> 2
~s "ST_aw_2_1"
<STATE> 3
~s "ST_aw_3_1"
<STATE> 4
~s "ST_aw_4_1"
~t "T_aw"
<ENDHMM>
~h "aw-t"
<BEGINHMM>
<NUMSTATES> 5
<STATE> 2
~s "ST_t_2_1"
<STATE> 3
~s "ST_t_3_1"
<STATE> 4
~s "ST_t_4_1"
~t "T_t"
<ENDHMM>
~h "ay-ae+ng"
<BEGINHMM>
<NUMSTATES> 5
<STATE> 2
~s "ST_ae_2_1"
<STATE> 3
~s "ST_ae_3_1"
<STATE> 4
~s "ST_ae_4_1"
~t "T_ae"
<ENDHMM>
~h "g-ah+l"
<BEGINHMM>
<NUMSTATES> 5
<STATE> 2
~s "ST_ah_2_1"
<STATE> 3
~s "ST_ah_3_1"
<STATE> 4
~s "ST_ah_4_1"
~t "T_ah"
<ENDHMM>
~h "r-eh+d"
<BEGINHMM>
<NUMSTATES> 5
<STATE> 2
~s "ST_eh_2_1"
<STATE> 3
~s "ST_eh_3_1"
<STATE> 4
~s "ST_eh_4_1"
~t "T_eh"
<ENDHMM>
~h "th+r"
<BEGINHMM>
<NUMSTATES> 5
<STATE> 2
~s "ST_th_2_1"
<STATE> 3
~s "ST_th_3_1"
<STATE> 4
~s "ST_th_4_1"
~t "T_th"
<ENDHMM>
~h "th-r+iy"
<BEGINHMM>
<NUMSTATES> 5
<STATE> 2
~s "ST_r_2_1"
<STATE> 3
~s "ST_r_3_1"
<STATE> 4
~s "ST_r_4_1"
~t "T_r"
<ENDHMM>
~h "r-ey+s"
<BEGINHMM>
<NUMSTATES> 5
<STATE> 2
~s "ST_ey_2_1"
<STATE> 3
~s "ST_ey_3_1"
<STATE> 4
~s "ST_ey_4_1"
~t "T_ey"
<ENDHMM>
~h "ng-g+ah"
<BEGINHMM>
<NUMSTATES> 5
<STATE> 2
~s "ST_g_2_1"
<STATE> 3
~s "ST_g_3_1"
<STATE> 4
~s "ST_g_4_1"
~t "T_g"
<ENDHMM>
~h "f+ih"
<BEGINHMM>
<NUMSTATES> 5
<STATE> 2
~s "ST_f_2_1"
<STATE> 3
~s "ST_f_3_1"
<STATE> 4
~s "ST_f_4_1"
~t "T_f"
<ENDHMM>
~h "w+ah"
<BEGINHMM>
<NUMSTATES> 5
<STATE> 2
~s "ST_w_2_1"
<STATE> 3
~s "ST_w_3_1"
<STATE> 4
~s "ST_w_4_1"
~t "T_w"
<ENDHMM>
~h "b+l"
<BEGINHMM>
<NUMSTATES> 5
<STATE> 2
~s "ST_b_2_1"
<STATE> 3
~s "ST_b_3_1"
<STATE> 4
~s "ST_b_4_1"
~t "T_b"
<ENDHMM>
~h "d+r"
<BEGINHMM>
<NUMSTATES> 5
<STATE> 2
~s "ST_d_2_1"
<STATE> 3
~s "ST_d_3_1"
<STATE> 4
~s "ST_d_4_1"
~t "T_d"
<ENDHMM>
~h "uw-m"
<BEGINHMM>
<NUMSTATES> 5
<STATE> 2
~s "ST_m_2_1"
<STATE> 3
~s "ST_m_3_1"
<STATE> 4
~s "ST_m_4_1"
~t "T_m"
<ENDHMM>
~h "r-ay+ae"
<BEGINHMM>
<NUMSTATES> 5
<STATE> 2
~s "ST_ay_2_1"
<STATE> 3
~s "ST_ay_3_1"
<STATE> 4
~s "ST_ay_4_1"
~t "T_ay"
<ENDHMM>
~h "s+k"
<BEGINHMM>
<NUMSTATES> 5
<STATE> 2
~s "ST_s_2_1"
<STATE> 3
~s "ST_s_3_1"
<STATE> 4
~s "ST_s_4_1"
~t "T_s"
<ENDHMM>
~h "sil"
<BEGINHMM>
<NUMSTATES> 5
<STATE> 2
~s "ST_sil_2_1"
<STATE> 3
~s "ST_sil_3_1"
<STATE> 4
~s "ST_sil_4_1"
<TRANSP> 5
 0.000000e+00 1.000000e+00 0.000000e+00 0.000000e+00 0.000000e+00
 0.000000e+00 9.397656e-01 8.144399e-03 5.208997e-02 0.000000e+00
 0.000000e+00 0.000000e+00 9.605165e-01 3.948348e-02 0.000000e+00
 0.000000e+00 6.946801e-02 0.000000e+00 7.111254e-01 2.194066e-01
 0.000000e+00 0.000000e+00 0.000000e+00 0.000000e+00 0.000000e+00
<ENDHMM>
~h "f-ih+l"
<BEGINHMM>
<NUMSTATES> 5
<STATE> 2
~s "ST_ih_2_1"
<STATE> 3
~s "ST_ih_3_1"
<STATE> 4
~s "ST_ih_4_1"
~t "T_ih"
<ENDHMM>
~h "s-k+w"
<BEGINHMM>
<NUMSTATES> 5
<STATE> 2
~s "ST_k_2_1"
<STATE> 3
~s "ST_k_3_1"
<STATE> 4
~s "ST_k_4_1"
~t "T_k"
<ENDHMM>
~h "b-l+uw"
<BEGINHMM>
<NUMSTATES> 5
<STATE> 2
~s "ST_l_2_1"
<STATE> 3
~s "ST_l_3_1"
<STATE> 4
~s "ST_l_4_1"
~t "T_l"
<ENDHMM>
~h "ae-ng+g"
<BEGINHMM>
<NUMSTATES> 5
<STATE> 2
~s "ST_ng_2_1"
<STATE> 3
~s "ST_ng_3_1"
<STATE> 4
~s "ST_ng_4_1"
~t "T_ng"
<ENDHMM>
~h "z+uw"
<BEGINHMM>
<NUMSTATES> 5
<STATE> 2
~s "ST_z_2_1"
<STATE> 3
~s "ST_z_3_1"
<STATE> 4
~s "ST_z_4_1"
~t "T_z"
<ENDHMM>
~h "r-iy+n"
<BEGINHMM>
<NUMSTATES> 5
<STATE> 2
~s "ST_iy_2_1"
<STATE> 3
~s "ST_iy_3_1"
<STATE> 4
~s "ST_iy_4_1"
~t "T_iy"
<ENDHMM>
~h "s-er+k"
<BEGINHMM>
<NUMSTATES> 5
<STATE> 2
~s "ST_er_2_1"
<STATE> 3
~s "ST_er_3_1"
<STATE> 4
~s "ST_er_4_1"
~t "T_er"
<ENDHMM>
~h "r-ao"
<BEGINHMM>
<NUMSTATES> 5
<STATE> 2
~s "ST_ao_2_1"
<STATE> 3
~s "ST_ao_3_1"
<STATE> 4
~s "ST_ao_4_1"
~t "T_ao"
<ENDHMM>
~h "ih-n"
<BEGINHMM>
<NUMSTATES> 5
<STATE> 2
~s "ST_n_2_1"
<STATE> 3
~s "ST_n_3_1"
<STATE> 4
~s "ST_n_4_1"
~t "T_n"
<ENDHMM>
